{"parameters/attention_0.att_l": {"_type": "histogram", "values": [1.0, 1.0, 1.0, 2.0, 0.0, 0.0, 0.0, 1.0, 0.0, 1.0, 1.0, 0.0, 0.0, 2.0, 1.0, 1.0, 0.0, 1.0, 2.0, 0.0, 2.0, 0.0, 0.0, 1.0, 0.0, 1.0, 0.0, 1.0, 0.0, 1.0, 1.0, 1.0, 0.0, 0.0, 1.0, 0.0, 0.0, 0.0, 1.0, 0.0, 0.0, 2.0, 1.0, 0.0, 2.0, 0.0, 2.0, 0.0, 0.0, 0.0, 1.0, 2.0, 0.0, 0.0, 0.0, 0.0, 0.0, 0.0, 1.0, 0.0, 0.0, 0.0, 1.0, 3.0], "bins": [-0.5922405123710632, -0.5729033350944519, -0.5535661578178406, -0.5342289209365845, -0.5148917436599731, -0.4955545663833618, -0.4762173891067505, -0.45688021183013916, -0.43754300475120544, -0.4182058274745941, -0.3988686203956604, -0.3795314431190491, -0.36019426584243774, -0.34085705876350403, -0.3215198814868927, -0.302182674407959, -0.28284549713134766, -0.26350831985473633, -0.2441711127758026, -0.22483393549919128, -0.20549674332141876, -0.18615955114364624, -0.1668223738670349, -0.1474851816892624, -0.12814798951148987, -0.10881079733371735, -0.08947361260652542, -0.0701364278793335, -0.050799235701560974, -0.03146204352378845, -0.012124858796596527, 0.007212325930595398, 0.026549458503723145, 0.04588664695620537, 0.06522383540868759, 0.08456102013587952, 0.10389821231365204, 0.12323540449142456, 0.1425725817680359, 0.1619097739458084, 0.18124696612358093, 0.20058415830135345, 0.21992135047912598, 0.2392585277557373, 0.25859570503234863, 0.27793291211128235, 0.2972700893878937, 0.3166072964668274, 0.3359444737434387, 0.35528165102005005, 0.37461885809898376, 0.3939560353755951, 0.4132932424545288, 0.43263041973114014, 0.45196759700775146, 0.4713047742843628, 0.4906419813632965, 0.5099791884422302, 0.5293163657188416, 0.5486535429954529, 0.5679907202720642, 0.5873279571533203, 0.6066651344299316, 0.626002311706543, 0.6453394889831543]}, "parameters/attention_0.att_r": {"_type": "histogram", "values": [1.0, 0.0, 0.0, 1.0, 1.0, 1.0, 1.0, 2.0, 2.0, 1.0, 0.0, 0.0, 0.0, 1.0, 0.0, 1.0, 1.0, 0.0, 0.0, 0.0, 0.0, 0.0, 1.0, 0.0, 0.0, 0.0, 0.0, 0.0, 1.0, 0.0, 0.0, 1.0, 0.0, 2.0, 0.0, 0.0, 0.0, 3.0, 0.0, 1.0, 2.0, 0.0, 0.0, 1.0, 1.0, 0.0, 0.0, 1.0, 0.0, 0.0, 2.0, 0.0, 0.0, 0.0, 1.0, 0.0, 1.0, 0.0, 2.0, 1.0, 0.0, 2.0, 1.0, 3.0], "bins": [-0.6260136961936951, -0.6060863733291626, -0.5861591100692749, -0.5662317872047424, -0.5463045239448547, -0.5263772010803223, -0.5064499378204346, -0.4865226149559021, -0.466595321893692, -0.44666802883148193, -0.42674073576927185, -0.40681344270706177, -0.3868861198425293, -0.3669588565826416, -0.34703153371810913, -0.32710424065589905, -0.30717694759368896, -0.2872496545314789, -0.2673223614692688, -0.24739505350589752, -0.22746776044368744, -0.20754046738147736, -0.18761315941810608, -0.167685866355896, -0.1477585732936859, -0.12783128023147583, -0.10790397971868515, -0.08797667920589447, -0.06804938614368439, -0.048122093081474304, -0.028194792568683624, -0.008267492055892944, 0.011659741401672363, 0.031587038189172745, 0.051514334976673126, 0.0714416354894638, 0.09136892855167389, 0.11129622161388397, 0.13122352957725525, 0.15115082263946533, 0.17107811570167542, 0.1910054087638855, 0.21093270182609558, 0.23086000978946686, 0.25078731775283813, 0.27071458101272583, 0.2906419038772583, 0.3105691969394684, 0.33049649000167847, 0.35042378306388855, 0.37035107612609863, 0.3902783691883087, 0.4102056622505188, 0.43013298511505127, 0.45006027817726135, 0.46998757123947144, 0.4899148643016815, 0.5098421573638916, 0.5297694802284241, 0.5496967434883118, 0.5696240663528442, 0.5895513296127319, 0.6094786524772644, 0.6294059753417969, 0.6493332386016846]}, "parameters/attention_0.bias": {"_type": "histogram", "values": [0.0, 0.0, 0.0, 0.0, 0.0, 0.0, 0.0, 0.0, 0.0, 0.0, 0.0, 0.0, 0.0, 0.0, 0.0, 0.0, 0.0, 0.0, 0.0, 0.0, 0.0, 0.0, 0.0, 0.0, 0.0, 0.0, 0.0, 0.0, 0.0, 0.0, 0.0, 0.0, 40.0, 0.0, 0.0, 0.0, 0.0, 0.0, 0.0, 0.0, 0.0, 0.0, 0.0, 0.0, 0.0, 0.0, 0.0, 0.0, 0.0, 0.0, 0.0, 0.0, 0.0, 0.0, 0.0, 0.0, 0.0, 0.0, 0.0, 0.0, 0.0, 0.0, 0.0, 0.0], "bins": [0.0, 0.0, 0.0, 0.0, 0.0, 0.0, 0.0, 0.0, 0.0, 0.0, 0.0, 0.0, 0.0, 0.0, 0.0, 0.0, 0.0, 0.0, 0.0, 0.0, 0.0, 0.0, 0.0, 0.0, 0.0, 0.0, 0.0, 0.0, 0.0, 0.0, 0.0, 0.0, 0.0, 0.0, 0.0, 0.0, 0.0, 0.0, 0.0, 0.0, 0.0, 0.0, 0.0, 0.0, 0.0, 0.0, 0.0, 0.0, 0.0, 0.0, 0.0, 0.0, 0.0, 0.0, 0.0, 0.0, 0.0, 0.0, 0.0, 0.0, 0.0, 0.0, 0.0, 0.0, 0.0]}, "parameters/attention_0.lin_l.weight": {"_type": "histogram", "values": [7.0, 5.0, 5.0, 7.0, 12.0, 7.0, 8.0, 8.0, 8.0, 11.0, 12.0, 13.0, 8.0, 6.0, 12.0, 5.0, 3.0, 7.0, 6.0, 4.0, 4.0, 5.0, 6.0, 6.0, 6.0, 13.0, 5.0, 13.0, 11.0, 10.0, 4.0, 7.0, 3.0, 5.0, 7.0, 7.0, 8.0, 7.0, 5.0, 6.0, 9.0, 3.0, 8.0, 9.0, 9.0, 10.0, 5.0, 5.0, 5.0, 8.0, 10.0, 7.0, 11.0, 8.0, 13.0, 13.0, 7.0, 15.0, 6.0, 1.0, 6.0, 7.0, 7.0, 6.0], "bins": [-0.33839288353919983, -0.327801376581192, -0.3172098994255066, -0.3066183924674988, -0.29602688550949097, -0.28543537855148315, -0.27484390139579773, -0.2642523944377899, -0.2536608874797821, -0.24306939542293549, -0.23247788846492767, -0.22188639640808105, -0.21129488945007324, -0.20070339739322662, -0.19011190533638, -0.1795203983783722, -0.16892890632152557, -0.15833741426467896, -0.14774590730667114, -0.13715441524982452, -0.1265629082918167, -0.11597141623497009, -0.10537991672754288, -0.09478841722011566, -0.08419691771268845, -0.07360541820526123, -0.06301391869783401, -0.0524224229156971, -0.04183092340826988, -0.031239423900842667, -0.02064792811870575, -0.010056428611278534, 0.0005350708961486816, 0.011126569472253323, 0.021718068048357964, 0.03230956569314003, 0.042901065200567245, 0.05349256470799446, 0.06408406049013138, 0.0746755599975586, 0.08526705950498581, 0.09585855901241302, 0.10645005851984024, 0.11704155802726746, 0.12763305008411407, 0.1382245570421219, 0.1488160490989685, 0.15940755605697632, 0.16999904811382294, 0.18059054017066956, 0.19118204712867737, 0.201773539185524, 0.2123650461435318, 0.22295653820037842, 0.23354804515838623, 0.24413953721523285, 0.25473102927207947, 0.2653225362300873, 0.2759140133857727, 0.2865055203437805, 0.29709702730178833, 0.30768853425979614, 0.31828001141548157, 0.3288715183734894, 0.3394630253314972]}, "parameters/attention_1.att_l": {"_type": "histogram", "values": [1.0, 0.0, 0.0, 0.0, 0.0, 2.0, 0.0, 2.0, 0.0, 1.0, 0.0, 1.0, 1.0, 2.0, 1.0, 1.0, 0.0, 1.0, 0.0, 0.0, 0.0, 1.0, 0.0, 0.0, 0.0, 0.0, 1.0, 0.0, 1.0, 0.0, 0.0, 0.0, 1.0, 2.0, 1.0, 1.0, 0.0, 0.0, 0.0, 0.0, 2.0, 0.0, 0.0, 0.0, 0.0, 0.0, 3.0, 1.0, 1.0, 1.0, 0.0, 1.0, 1.0, 0.0, 0.0, 1.0, 0.0, 0.0, 2.0, 0.0, 1.0, 1.0, 1.0, 3.0], "bins": [-0.6205740571022034, -0.6010019183158875, -0.5814297795295715, -0.5618576407432556, -0.5422854423522949, -0.522713303565979, -0.5031411647796631, -0.48356902599334717, -0.46399688720703125, -0.44442474842071533, -0.4248526096343994, -0.4052804410457611, -0.3857083022594452, -0.3661361634731293, -0.34656399488449097, -0.32699185609817505, -0.30741971731185913, -0.2878475785255432, -0.2682754397392273, -0.248703271150589, -0.22913113236427307, -0.20955899357795715, -0.18998683989048004, -0.17041468620300293, -0.150842547416687, -0.1312704086303711, -0.11169825494289398, -0.09212610870599747, -0.07255396246910095, -0.05298181623220444, -0.03340966999530792, -0.01383751630783081, 0.005734562873840332, 0.025306709110736847, 0.04487885534763336, 0.06445100158452988, 0.08402314782142639, 0.1035952940583229, 0.12316744029521942, 0.14273959398269653, 0.16231173276901245, 0.18188387155532837, 0.20145602524280548, 0.2210281789302826, 0.2406003177165985, 0.26017245650291443, 0.27974462509155273, 0.29931676387786865, 0.31888890266418457, 0.3384610414505005, 0.3580331802368164, 0.3776053488254547, 0.39717748761177063, 0.41674962639808655, 0.43632179498672485, 0.45589393377304077, 0.4754660725593567, 0.4950382113456726, 0.5146103501319885, 0.5341824889183044, 0.5537546873092651, 0.573326826095581, 0.592898964881897, 0.6124711036682129, 0.6320432424545288]}, "parameters/attention_1.att_r": {"_type": "histogram", "values": [1.0, 0.0, 1.0, 0.0, 0.0, 0.0, 0.0, 0.0, 0.0, 0.0, 1.0, 0.0, 1.0, 1.0, 0.0, 2.0, 0.0, 2.0, 0.0, 0.0, 0.0, 1.0, 1.0, 0.0, 2.0, 0.0, 0.0, 0.0, 1.0, 1.0, 2.0, 2.0, 0.0, 0.0, 1.0, 0.0, 1.0, 1.0, 0.0, 0.0, 4.0, 2.0, 0.0, 0.0, 3.0, 0.0, 0.0, 1.0, 0.0, 1.0, 0.0, 0.0, 0.0, 2.0, 0.0, 1.0, 0.0, 0.0, 0.0, 0.0, 0.0, 2.0, 0.0, 2.0], "bins": [-0.6112996339797974, -0.5925964713096619, -0.5738933682441711, -0.5551902055740356, -0.5364870429039001, -0.5177838802337646, -0.4990807771682739, -0.4803776144981384, -0.4616744816303253, -0.4429713487625122, -0.4242681860923767, -0.4055650532245636, -0.3868619203567505, -0.368158757686615, -0.3494556248188019, -0.33075249195098877, -0.31204932928085327, -0.29334619641304016, -0.27464303374290466, -0.25593990087509155, -0.23723675310611725, -0.21853360533714294, -0.19983047246932983, -0.18112732470035553, -0.16242417693138123, -0.14372102916240692, -0.12501788139343262, -0.1063147485256195, -0.0876116007566452, -0.0689084529876709, -0.05020531266927719, -0.031502172350883484, -0.01279902458190918, 0.005904119461774826, 0.024607263505458832, 0.04331040754914284, 0.06201355159282684, 0.08071669936180115, 0.09941983968019485, 0.11812297999858856, 0.13682612776756287, 0.15552927553653717, 0.17423242330551147, 0.19293555617332458, 0.2116387039422989, 0.2303418517112732, 0.2490449845790863, 0.2677481174468994, 0.2864512801170349, 0.305154412984848, 0.3238575756549835, 0.34256070852279663, 0.36126387119293213, 0.37996700406074524, 0.39867013692855835, 0.41737329959869385, 0.43607643246650696, 0.45477956533432007, 0.47348272800445557, 0.4921858608722687, 0.5108889937400818, 0.5295921564102173, 0.5482953190803528, 0.5669984221458435, 0.585701584815979]}, "parameters/attention_1.bias": {"_type": "histogram", "values": [0.0, 0.0, 0.0, 0.0, 0.0, 0.0, 0.0, 0.0, 0.0, 0.0, 0.0, 0.0, 0.0, 0.0, 0.0, 0.0, 0.0, 0.0, 0.0, 0.0, 0.0, 0.0, 0.0, 0.0, 0.0, 0.0, 0.0, 0.0, 0.0, 0.0, 0.0, 0.0, 40.0, 0.0, 0.0, 0.0, 0.0, 0.0, 0.0, 0.0, 0.0, 0.0, 0.0, 0.0, 0.0, 0.0, 0.0, 0.0, 0.0, 0.0, 0.0, 0.0, 0.0, 0.0, 0.0, 0.0, 0.0, 0.0, 0.0, 0.0, 0.0, 0.0, 0.0, 0.0], "bins": [0.0, 0.0, 0.0, 0.0, 0.0, 0.0, 0.0, 0.0, 0.0, 0.0, 0.0, 0.0, 0.0, 0.0, 0.0, 0.0, 0.0, 0.0, 0.0, 0.0, 0.0, 0.0, 0.0, 0.0, 0.0, 0.0, 0.0, 0.0, 0.0, 0.0, 0.0, 0.0, 0.0, 0.0, 0.0, 0.0, 0.0, 0.0, 0.0, 0.0, 0.0, 0.0, 0.0, 0.0, 0.0, 0.0, 0.0, 0.0, 0.0, 0.0, 0.0, 0.0, 0.0, 0.0, 0.0, 0.0, 0.0, 0.0, 0.0, 0.0, 0.0, 0.0, 0.0, 0.0, 0.0]}, "parameters/attention_1.lin_l.weight": {"_type": "histogram", "values": [19.0, 32.0, 26.0, 23.0, 21.0, 26.0, 29.0, 35.0, 19.0, 22.0, 37.0, 26.0, 21.0, 22.0, 24.0, 26.0, 23.0, 22.0, 21.0, 22.0, 26.0, 33.0, 26.0, 20.0, 28.0, 30.0, 27.0, 15.0, 24.0, 25.0, 24.0, 27.0, 26.0, 27.0, 26.0, 23.0, 19.0, 22.0, 24.0, 28.0, 20.0, 24.0, 24.0, 22.0, 21.0, 27.0, 27.0, 32.0, 26.0, 25.0, 23.0, 26.0, 35.0, 26.0, 21.0, 29.0, 42.0, 30.0, 19.0, 23.0, 21.0, 24.0, 19.0, 18.0], "bins": [-0.2735068202018738, -0.2649579644203186, -0.25640907883644104, -0.24786022305488586, -0.2393113672733307, -0.23076249659061432, -0.22221362590789795, -0.21366477012634277, -0.2051158994436264, -0.19656702876091003, -0.18801817297935486, -0.1794693022966385, -0.17092043161392212, -0.16237157583236694, -0.15382270514965057, -0.1452738344669342, -0.13672497868537903, -0.12817610800266266, -0.11962725222110748, -0.11107838153839111, -0.10252951830625534, -0.09398065507411957, -0.0854317843914032, -0.07688292115926743, -0.06833405792713165, -0.05978519469499588, -0.05123632773756981, -0.04268746078014374, -0.034138597548007965, -0.025589734315872192, -0.01704086735844612, -0.00849200040102005, 5.6862831115722656e-05, 0.008605727925896645, 0.017154593020677567, 0.02570345811545849, 0.03425232321023941, 0.04280118644237518, 0.051350053399801254, 0.059898920357227325, 0.0684477835893631, 0.07699664682149887, 0.08554551005363464, 0.09409438073635101, 0.10264324396848679, 0.11119210720062256, 0.11974097788333893, 0.1282898485660553, 0.13683870434761047, 0.14538757503032684, 0.15393643081188202, 0.1624853014945984, 0.17103415727615356, 0.17958302795886993, 0.1881318986415863, 0.19668075442314148, 0.20522962510585785, 0.21377849578857422, 0.2223273515701294, 0.23087622225284576, 0.23942509293556213, 0.2479739487171173, 0.2565228044986725, 0.26507169008255005, 0.2736205458641052]}, "parameters/attention_2.att_l": {"_type": "histogram", "values": [1.0, 0.0, 0.0, 0.0, 2.0, 1.0, 0.0, 0.0, 0.0, 0.0, 1.0, 0.0, 0.0, 0.0, 0.0, 0.0, 1.0, 0.0, 2.0, 2.0, 0.0, 0.0, 1.0, 0.0, 1.0, 0.0, 0.0, 1.0, 2.0, 1.0, 3.0, 0.0, 0.0, 0.0, 0.0, 0.0, 1.0, 0.0, 1.0, 0.0, 2.0, 0.0, 1.0, 0.0, 1.0, 2.0, 1.0, 1.0, 3.0, 0.0, 0.0, 1.0, 1.0, 0.0, 1.0, 0.0, 1.0, 0.0, 0.0, 0.0, 1.0, 1.0, 1.0, 1.0], "bins": [-0.6340827345848083, -0.6143320202827454, -0.5945813059806824, -0.5748305916786194, -0.5550798773765564, -0.5353291630744934, -0.5155784487724304, -0.4958277642726898, -0.47607704997062683, -0.45632633566856384, -0.43657562136650085, -0.41682490706443787, -0.39707422256469727, -0.3773235082626343, -0.3575727939605713, -0.3378220796585083, -0.3180713653564453, -0.2983206510543823, -0.27856993675231934, -0.25881922245025635, -0.23906852304935455, -0.21931780874729156, -0.19956710934638977, -0.17981639504432678, -0.1600656807422638, -0.1403149664402008, -0.12056425958871841, -0.10081355273723602, -0.08106283843517303, -0.061312124133110046, -0.041561417281627655, -0.021810710430145264, -0.0020599365234375, 0.01769077405333519, 0.03744148463010788, 0.05719219520688057, 0.07694290578365326, 0.09669362008571625, 0.11644432693719864, 0.13619503378868103, 0.15594574809074402, 0.175696462392807, 0.19544717669487, 0.2151978760957718, 0.23494859039783478, 0.2546992897987366, 0.27445000410079956, 0.29420071840286255, 0.31395143270492554, 0.3337021470069885, 0.3534528613090515, 0.3732035756111145, 0.3929542899131775, 0.4127050042152405, 0.4324556887149811, 0.45220640301704407, 0.47195711731910706, 0.49170783162117004, 0.5114585161209106, 0.5312092304229736, 0.5509599447250366, 0.5707106590270996, 0.5904613733291626, 0.6102120876312256, 0.6299628019332886]}, "parameters/attention_2.att_r": {"_type": "histogram", "values": [1.0, 0.0, 1.0, 0.0, 2.0, 0.0, 1.0, 2.0, 1.0, 0.0, 0.0, 1.0, 0.0, 1.0, 0.0, 0.0, 1.0, 0.0, 1.0, 0.0, 1.0, 1.0, 0.0, 1.0, 1.0, 1.0, 1.0, 1.0, 0.0, 0.0, 0.0, 1.0, 0.0, 0.0, 1.0, 2.0, 0.0, 0.0, 0.0, 2.0, 1.0, 0.0, 1.0, 1.0, 0.0, 0.0, 2.0, 1.0, 0.0, 0.0, 1.0, 0.0, 0.0, 0.0, 2.0, 0.0, 2.0, 1.0, 1.0, 0.0, 0.0, 1.0, 0.0, 1.0], "bins": [-0.6321069598197937, -0.6121260523796082, -0.5921451449394226, -0.5721642374992371, -0.5521833300590515, -0.532202422618866, -0.5122215151786804, -0.4922406077384949, -0.4722597002983093, -0.4522787928581238, -0.43229788541793823, -0.4123169779777527, -0.39233607053756714, -0.3723551630973816, -0.35237425565719604, -0.3323933482170105, -0.31241244077682495, -0.2924315333366394, -0.27245062589645386, -0.2524697184562683, -0.23248881101608276, -0.21250790357589722, -0.19252699613571167, -0.17254608869552612, -0.15256518125534058, -0.13258427381515503, -0.11260336637496948, -0.09262245893478394, -0.07264155149459839, -0.05266064405441284, -0.032679736614227295, -0.012698829174041748, 0.007282137870788574, 0.02726304531097412, 0.04724395275115967, 0.06722486019134521, 0.08720576763153076, 0.10718667507171631, 0.12716758251190186, 0.1471484899520874, 0.16712939739227295, 0.1871103048324585, 0.20709121227264404, 0.2270721197128296, 0.24705302715301514, 0.2670339345932007, 0.28701484203338623, 0.3069957494735718, 0.3269766569137573, 0.34695756435394287, 0.3669384717941284, 0.38691937923431396, 0.4069002866744995, 0.42688119411468506, 0.4468621015548706, 0.46684300899505615, 0.4868239164352417, 0.5068048238754272, 0.5267857313156128, 0.5467666387557983, 0.5667475461959839, 0.5867284536361694, 0.606709361076355, 0.6266902685165405, 0.6466711759567261]}, "parameters/attention_2.bias": {"_type": "histogram", "values": [0.0, 0.0, 0.0, 0.0, 0.0, 0.0, 0.0, 0.0, 0.0, 0.0, 0.0, 0.0, 0.0, 0.0, 0.0, 0.0, 0.0, 0.0, 0.0, 0.0, 0.0, 0.0, 0.0, 0.0, 0.0, 0.0, 0.0, 0.0, 0.0, 0.0, 0.0, 0.0, 40.0, 0.0, 0.0, 0.0, 0.0, 0.0, 0.0, 0.0, 0.0, 0.0, 0.0, 0.0, 0.0, 0.0, 0.0, 0.0, 0.0, 0.0, 0.0, 0.0, 0.0, 0.0, 0.0, 0.0, 0.0, 0.0, 0.0, 0.0, 0.0, 0.0, 0.0, 0.0], "bins": [0.0, 0.0, 0.0, 0.0, 0.0, 0.0, 0.0, 0.0, 0.0, 0.0, 0.0, 0.0, 0.0, 0.0, 0.0, 0.0, 0.0, 0.0, 0.0, 0.0, 0.0, 0.0, 0.0, 0.0, 0.0, 0.0, 0.0, 0.0, 0.0, 0.0, 0.0, 0.0, 0.0, 0.0, 0.0, 0.0, 0.0, 0.0, 0.0, 0.0, 0.0, 0.0, 0.0, 0.0, 0.0, 0.0, 0.0, 0.0, 0.0, 0.0, 0.0, 0.0, 0.0, 0.0, 0.0, 0.0, 0.0, 0.0, 0.0, 0.0, 0.0, 0.0, 0.0, 0.0, 0.0]}, "parameters/attention_2.lin_l.weight": {"_type": "histogram", "values": [29.0, 23.0, 22.0, 16.0, 17.0, 36.0, 28.0, 21.0, 26.0, 28.0, 20.0, 34.0, 32.0, 21.0, 34.0, 23.0, 19.0, 24.0, 26.0, 16.0, 32.0, 30.0, 33.0, 22.0, 26.0, 16.0, 20.0, 25.0, 21.0, 26.0, 24.0, 40.0, 20.0, 27.0, 26.0, 14.0, 26.0, 25.0, 31.0, 23.0, 25.0, 29.0, 26.0, 30.0, 27.0, 27.0, 34.0, 23.0, 25.0, 21.0, 24.0, 27.0, 15.0, 25.0, 17.0, 28.0, 24.0, 22.0, 24.0, 27.0, 21.0, 21.0, 24.0, 32.0], "bins": [-0.27370381355285645, -0.2651483714580536, -0.25659289956092834, -0.2480374425649643, -0.23948198556900024, -0.2309265434741974, -0.22237108647823334, -0.2138156294822693, -0.20526017248630524, -0.1967047154903412, -0.18814925849437714, -0.17959380149841309, -0.17103835940361023, -0.16248288750648499, -0.15392744541168213, -0.14537198841571808, -0.13681653141975403, -0.12826107442378998, -0.11970561742782593, -0.11115016788244247, -0.10259471088647842, -0.09403925389051437, -0.08548380434513092, -0.07692834734916687, -0.06837289035320282, -0.05981743335723877, -0.05126198008656502, -0.042706526815891266, -0.034151069819927216, -0.025595612823963165, -0.017040159553289413, -0.008484706282615662, 7.072091102600098e-05, 0.008626176044344902, 0.017181631177663803, 0.025737086310982704, 0.034292541444301605, 0.042847998440265656, 0.05140345171093941, 0.05995890498161316, 0.06851436197757721, 0.07706981897354126, 0.08562527596950531, 0.09418072551488876, 0.10273618251085281, 0.11129163950681686, 0.11984708905220032, 0.12840254604816437, 0.13695800304412842, 0.14551346004009247, 0.15406891703605652, 0.16262437403202057, 0.17117983102798462, 0.17973527312278748, 0.18829073011875153, 0.19684618711471558, 0.20540164411067963, 0.21395710110664368, 0.22251255810260773, 0.23106801509857178, 0.23962345719337463, 0.24817892909049988, 0.25673437118530273, 0.265289843082428, 0.27384528517723083]}, "parameters/out_att.att_l": {"_type": "histogram", "values": [0.0, 0.0, 0.0, 0.0, 0.0, 0.0, 0.0, 0.0, 0.0, 0.0, 0.0, 0.0, 0.0, 0.0, 0.0, 0.0, 0.0, 0.0, 0.0, 0.0, 0.0, 0.0, 0.0, 0.0, 0.0, 0.0, 0.0, 0.0, 0.0, 0.0, 0.0, 0.0, 1.0, 0.0, 0.0, 0.0, 0.0, 0.0, 0.0, 0.0, 0.0, 0.0, 0.0, 0.0, 0.0, 0.0, 0.0, 0.0, 0.0, 0.0, 0.0, 0.0, 0.0, 0.0, 0.0, 0.0, 0.0, 0.0, 0.0, 0.0, 0.0, 0.0, 0.0, 0.0], "bins": [-1.1404465436935425, -1.1404465436935425, -1.1404465436935425, -1.1404465436935425, -1.1404465436935425, -1.1404465436935425, -1.1404465436935425, -1.1404465436935425, -1.1404465436935425, -1.1404465436935425, -1.1404465436935425, -1.1404465436935425, -1.1404465436935425, -1.1404465436935425, -1.1404465436935425, -1.1404465436935425, -1.1404465436935425, -1.1404465436935425, -1.1404465436935425, -1.1404465436935425, -1.1404465436935425, -1.1404465436935425, -1.1404465436935425, -1.1404465436935425, -1.1404465436935425, -1.1404465436935425, -1.1404465436935425, -1.1404465436935425, -1.1404465436935425, -1.1404465436935425, -1.1404465436935425, -1.1404465436935425, -1.1404465436935425, -1.1404465436935425, -1.1404465436935425, -1.1404465436935425, -1.1404465436935425, -1.1404465436935425, -1.1404465436935425, -1.1404465436935425, -1.1404465436935425, -1.1404465436935425, -1.1404465436935425, -1.1404465436935425, -1.1404465436935425, -1.1404465436935425, -1.1404465436935425, -1.1404465436935425, -1.1404465436935425, -1.1404465436935425, -1.1404465436935425, -1.1404465436935425, -1.1404465436935425, -1.1404465436935425, -1.1404465436935425, -1.1404465436935425, -1.1404465436935425, -1.1404465436935425, -1.1404465436935425, -1.1404465436935425, -1.1404465436935425, -1.1404465436935425, -1.1404465436935425, -1.1404465436935425, -1.1404465436935425]}, "parameters/out_att.att_r": {"_type": "histogram", "values": [0.0, 0.0, 0.0, 0.0, 0.0, 0.0, 0.0, 0.0, 0.0, 0.0, 0.0, 0.0, 0.0, 0.0, 0.0, 0.0, 0.0, 0.0, 0.0, 0.0, 0.0, 0.0, 0.0, 0.0, 0.0, 0.0, 0.0, 0.0, 0.0, 0.0, 0.0, 0.0, 1.0, 0.0, 0.0, 0.0, 0.0, 0.0, 0.0, 0.0, 0.0, 0.0, 0.0, 0.0, 0.0, 0.0, 0.0, 0.0, 0.0, 0.0, 0.0, 0.0, 0.0, 0.0, 0.0, 0.0, 0.0, 0.0, 0.0, 0.0, 0.0, 0.0, 0.0, 0.0], "bins": [0.35875919461250305, 0.35875919461250305, 0.35875919461250305, 0.35875919461250305, 0.35875919461250305, 0.35875919461250305, 0.35875919461250305, 0.35875919461250305, 0.35875919461250305, 0.35875919461250305, 0.35875919461250305, 0.35875919461250305, 0.35875919461250305, 0.35875919461250305, 0.35875919461250305, 0.35875919461250305, 0.35875919461250305, 0.35875919461250305, 0.35875919461250305, 0.35875919461250305, 0.35875919461250305, 0.35875919461250305, 0.35875919461250305, 0.35875919461250305, 0.35875919461250305, 0.35875919461250305, 0.35875919461250305, 0.35875919461250305, 0.35875919461250305, 0.35875919461250305, 0.35875919461250305, 0.35875919461250305, 0.35875919461250305, 0.35875919461250305, 0.35875919461250305, 0.35875919461250305, 0.35875919461250305, 0.35875919461250305, 0.35875919461250305, 0.35875919461250305, 0.35875919461250305, 0.35875919461250305, 0.35875919461250305, 0.35875919461250305, 0.35875919461250305, 0.35875919461250305, 0.35875919461250305, 0.35875919461250305, 0.35875919461250305, 0.35875919461250305, 0.35875919461250305, 0.35875919461250305, 0.35875919461250305, 0.35875919461250305, 0.35875919461250305, 0.35875919461250305, 0.35875919461250305, 0.35875919461250305, 0.35875919461250305, 0.35875919461250305, 0.35875919461250305, 0.35875919461250305, 0.35875919461250305, 0.35875919461250305, 0.35875919461250305]}, "parameters/out_att.bias": {"_type": "histogram", "values": [0.0, 0.0, 0.0, 0.0, 0.0, 0.0, 0.0, 0.0, 0.0, 0.0, 0.0, 0.0, 0.0, 0.0, 0.0, 0.0, 0.0, 0.0, 0.0, 0.0, 0.0, 0.0, 0.0, 0.0, 0.0, 0.0, 0.0, 0.0, 0.0, 0.0, 0.0, 0.0, 1.0, 0.0, 0.0, 0.0, 0.0, 0.0, 0.0, 0.0, 0.0, 0.0, 0.0, 0.0, 0.0, 0.0, 0.0, 0.0, 0.0, 0.0, 0.0, 0.0, 0.0, 0.0, 0.0, 0.0, 0.0, 0.0, 0.0, 0.0, 0.0, 0.0, 0.0, 0.0], "bins": [0.0, 0.0, 0.0, 0.0, 0.0, 0.0, 0.0, 0.0, 0.0, 0.0, 0.0, 0.0, 0.0, 0.0, 0.0, 0.0, 0.0, 0.0, 0.0, 0.0, 0.0, 0.0, 0.0, 0.0, 0.0, 0.0, 0.0, 0.0, 0.0, 0.0, 0.0, 0.0, 0.0, 0.0, 0.0, 0.0, 0.0, 0.0, 0.0, 0.0, 0.0, 0.0, 0.0, 0.0, 0.0, 0.0, 0.0, 0.0, 0.0, 0.0, 0.0, 0.0, 0.0, 0.0, 0.0, 0.0, 0.0, 0.0, 0.0, 0.0, 0.0, 0.0, 0.0, 0.0, 0.0]}, "parameters/out_att.lin_l.weight": {"_type": "histogram", "values": [1.0, 0.0, 0.0, 1.0, 1.0, 2.0, 0.0, 0.0, 1.0, 0.0, 0.0, 0.0, 1.0, 1.0, 1.0, 0.0, 0.0, 0.0, 1.0, 1.0, 3.0, 0.0, 1.0, 0.0, 1.0, 0.0, 0.0, 0.0, 0.0, 0.0, 3.0, 0.0, 1.0, 1.0, 0.0, 0.0, 0.0, 1.0, 0.0, 0.0, 0.0, 0.0, 1.0, 1.0, 0.0, 1.0, 0.0, 1.0, 0.0, 0.0, 1.0, 1.0, 3.0, 0.0, 0.0, 0.0, 1.0, 0.0, 0.0, 2.0, 4.0, 1.0, 0.0, 1.0], "bins": [-0.38027992844581604, -0.3688795566558838, -0.35747918486595154, -0.3460788130760193, -0.33467844128608704, -0.3232780694961548, -0.3118777275085449, -0.30047735571861267, -0.2890769839286804, -0.27767661213874817, -0.2662762403488159, -0.25487586855888367, -0.2434755116701126, -0.23207513988018036, -0.2206747680902481, -0.20927441120147705, -0.1978740245103836, -0.18647365272045135, -0.1750732809305191, -0.16367292404174805, -0.1522725522518158, -0.14087218046188354, -0.1294718086719513, -0.11807144433259964, -0.10667107254266739, -0.09527070075273514, -0.08387033641338348, -0.07246996462345123, -0.06106959655880928, -0.04966922849416733, -0.03826885670423508, -0.026868492364883423, -0.015468120574951172, -0.004067751578986645, 0.007332617416977882, 0.018732987344264984, 0.030133355408906937, 0.04153372347354889, 0.05293409526348114, 0.0643344596028328, 0.07573483139276505, 0.0871352031826973, 0.09853556752204895, 0.1099359393119812, 0.12133631110191345, 0.1327366828918457, 0.14413705468177795, 0.155537411570549, 0.16693778336048126, 0.1783381551504135, 0.18973852694034576, 0.20113888382911682, 0.21253925561904907, 0.22393962740898132, 0.23533999919891357, 0.24674037098884583, 0.2581407427787781, 0.2695411145687103, 0.2809414863586426, 0.29234185814857483, 0.3037422299385071, 0.31514257192611694, 0.3265429735183716, 0.33794331550598145, 0.3493436872959137]}, "_runtime": 191, "_timestamp": 1641226853, "_step": 4, "Learning rate value": 0.0024000000000000024, "Learning rate action": 0.0024000000000000024, "action_probs": {"_type": "histogram", "values": [10, 0, 0, 10, 0, 5, 5, 5, 0, 0, 0, 0, 0, 0, 0, 15, 0, 5, 5, 0, 5, 0, 0, 5, 0, 5, 5, 5, 5, 5, 0, 5, 5, 10, 0, 10, 10, 0, 5, 5, 10, 10, 5, 0, 0, 0, 0, 5, 0, 0, 5, 5, 20, 0, 0, 5, 0, 5, 0, 5, 0, 0, 5, 5], "bins": [0.47053098678588867, 0.47139760851860046, 0.47226426005363464, 0.47313088178634644, 0.4739975333213806, 0.4748641550540924, 0.4757307767868042, 0.4765974283218384, 0.47746405005455017, 0.47833070158958435, 0.47919732332229614, 0.48006394505500793, 0.4809305965900421, 0.4817972183227539, 0.4826638698577881, 0.4835304915904999, 0.48439711332321167, 0.48526376485824585, 0.48613038659095764, 0.4869970381259918, 0.4878636598587036, 0.4887303113937378, 0.4895969331264496, 0.4904635548591614, 0.49133020639419556, 0.49219682812690735, 0.49306347966194153, 0.4939301013946533, 0.4947967231273651, 0.4956633746623993, 0.4965299963951111, 0.49739664793014526, 0.49826326966285706, 0.49912989139556885, 0.499996542930603, 0.5008631944656372, 0.5017297863960266, 0.5025964379310608, 0.503463089466095, 0.5043296813964844, 0.5051963329315186, 0.5060629844665527, 0.5069296360015869, 0.5077962279319763, 0.5086628794670105, 0.5095295310020447, 0.5103961229324341, 0.5112627744674683, 0.5121294260025024, 0.5129960179328918, 0.513862669467926, 0.5147293210029602, 0.5155959725379944, 0.5164625644683838, 0.517329216003418, 0.5181958675384521, 0.5190624594688416, 0.5199291110038757, 0.5207957625389099, 0.5216623544692993, 0.5225290060043335, 0.5233956575393677, 0.5242623090744019, 0.5251289010047913, 0.5259955525398254]}, "stop_go_action": {"_type": "histogram", "values": [95, 0, 0, 0, 0, 0, 0, 0, 0, 0, 0, 0, 0, 0, 0, 0, 0, 0, 0, 0, 0, 0, 0, 0, 0, 0, 0, 0, 0, 0, 0, 0, 0, 0, 0, 0, 0, 0, 0, 0, 0, 0, 0, 0, 0, 0, 0, 0, 0, 0, 0, 0, 0, 0, 0, 0, 0, 0, 0, 0, 0, 0, 0, 135], "bins": [0.0, 0.015625, 0.03125, 0.046875, 0.0625, 0.078125, 0.09375, 0.109375, 0.125, 0.140625, 0.15625, 0.171875, 0.1875, 0.203125, 0.21875, 0.234375, 0.25, 0.265625, 0.28125, 0.296875, 0.3125, 0.328125, 0.34375, 0.359375, 0.375, 0.390625, 0.40625, 0.421875, 0.4375, 0.453125, 0.46875, 0.484375, 0.5, 0.515625, 0.53125, 0.546875, 0.5625, 0.578125, 0.59375, 0.609375, 0.625, 0.640625, 0.65625, 0.671875, 0.6875, 0.703125, 0.71875, 0.734375, 0.75, 0.765625, 0.78125, 0.796875, 0.8125, 0.828125, 0.84375, 0.859375, 0.875, 0.890625, 0.90625, 0.921875, 0.9375, 0.953125, 0.96875, 0.984375, 1.0]}, "node_values": {"_type": "histogram", "values": [1, 0, 0, 0, 0, 0, 0, 0, 0, 0, 0, 0, 0, 0, 0, 0, 0, 0, 0, 0, 0, 2, 3, 2, 0, 2, 1, 0, 0, 2, 1, 6, 3, 7, 5, 0, 0, 0, 0, 1, 2, 2, 3, 0, 0, 0, 0, 1, 0, 0, 0, 0, 0, 0, 0, 1, 0, 0, 0, 0, 0, 0, 0, 1], "bins": [0.4965957701206207, 0.5294014639221132, 0.5622071577236056, 0.5950128515250981, 0.6278185453265905, 0.660624239128083, 0.6934299329295754, 0.7262356267310679, 0.7590413205325603, 0.7918470143340528, 0.8246527081355453, 0.8574584019370377, 0.8902640957385302, 0.9230697895400226, 0.9558754833415151, 0.9886811771430075, 1.0214868709445, 1.0542925647459924, 1.0870982585474849, 1.1199039523489773, 1.1527096461504698, 1.1855153399519622, 1.2183210337534547, 1.2511267275549471, 1.2839324213564396, 1.316738115157932, 1.3495438089594245, 1.382349502760917, 1.4151551965624094, 1.4479608903639019, 1.4807665841653943, 1.5135722779668868, 1.5463779717683792, 1.5791836655698717, 1.6119893593713641, 1.6447950531728566, 1.677600746974349, 1.7104064407758415, 1.743212134577334, 1.7760178283788264, 1.8088235221803188, 1.8416292159818113, 1.8744349097833037, 1.9072406035847962, 1.9400462973862886, 1.972851991187781, 2.0056576849892735, 2.038463378790766, 2.0712690725922585, 2.104074766393751, 2.1368804601952434, 2.169686153996736, 2.2024918477982283, 2.2352975415997207, 2.268103235401213, 2.3009089292027056, 2.333714623004198, 2.3665203168056905, 2.399326010607183, 2.4321317044086754, 2.464937398210168, 2.4977430920116603, 2.530548785813153, 2.5633544796146452, 2.5961601734161377]}, "episode_rewards": {"_type": "histogram", "values": [15, 0, 0, 0, 0, 0, 0, 0, 0, 0, 0, 0, 0, 0, 0, 15, 0, 0, 0, 0, 0, 0, 0, 0, 0, 0, 0, 0, 0, 0, 0, 0, 0, 0, 0, 0, 0, 0, 0, 0, 0, 0, 0, 0, 0, 0, 0, 0, 0, 0, 0, 45, 0, 0, 10, 0, 0, 0, 0, 0, 10, 0, 0, 25], "bins": [-21.0, -20.671875, -20.34375, -20.015625, -19.6875, -19.359375, -19.03125, -18.703125, -18.375, -18.046875, -17.71875, -17.390625, -17.0625, -16.734375, -16.40625, -16.078125, -15.75, -15.421875, -15.09375, -14.765625, -14.4375, -14.109375, -13.78125, -13.453125, -13.125, -12.796875, -12.46875, -12.140625, -11.8125, -11.484375, -11.15625, -10.828125, -10.5, -10.171875, -9.84375, -9.515625, -9.1875, -8.859375, -8.53125, -8.203125, -7.875, -7.546875, -7.21875, -6.890625, -6.5625, -6.234375, -5.90625, -5.578125, -5.25, -4.921875, -4.59375, -4.265625, -3.9375, -3.609375, -3.28125, -2.953125, -2.625, -2.296875, -1.96875, -1.640625, -1.3125, -0.984375, -0.65625, -0.328125, 0.0]}}