{"parameters/attention_0.att_l": {"_type": "histogram", "values": [1.0, 1.0, 1.0, 0.0, 0.0, 0.0, 0.0, 0.0, 0.0, 1.0, 0.0, 1.0, 0.0, 3.0, 0.0, 1.0, 1.0, 0.0, 2.0, 1.0, 0.0, 1.0, 0.0, 0.0, 0.0, 0.0, 0.0, 0.0, 1.0, 1.0, 0.0, 1.0, 1.0, 1.0, 0.0, 1.0, 2.0, 1.0, 1.0, 0.0, 2.0, 1.0, 0.0, 2.0, 0.0, 0.0, 0.0, 0.0, 0.0, 0.0, 1.0, 0.0, 2.0, 1.0, 1.0, 0.0, 1.0, 2.0, 0.0, 0.0, 1.0, 0.0, 1.0, 1.0], "bins": [-0.5991813540458679, -0.580345869064331, -0.5615103244781494, -0.5426748394966125, -0.5238393545150757, -0.505003809928894, -0.4861683249473572, -0.4673328101634979, -0.44849729537963867, -0.4296617805957794, -0.41082626581192017, -0.3919907808303833, -0.37315526604652405, -0.3543197512626648, -0.33548426628112793, -0.3166487514972687, -0.2978132367134094, -0.27897772192955017, -0.2601422071456909, -0.24130672216415405, -0.2224712073802948, -0.20363569259643555, -0.1848001927137375, -0.16596469283103943, -0.14712917804718018, -0.12829366326332092, -0.10945816338062286, -0.09062265604734421, -0.07178714871406555, -0.052951641380786896, -0.03411613404750824, -0.01528063416481018, 0.003554821014404297, 0.022390328347682953, 0.04122583568096161, 0.060061343014240265, 0.07889685034751892, 0.09773235768079758, 0.11656786501407623, 0.1354033648967743, 0.15423887968063354, 0.1730743944644928, 0.19190989434719086, 0.21074539422988892, 0.22958090901374817, 0.24841642379760742, 0.2672519087791443, 0.28608742356300354, 0.3049229383468628, 0.32375845313072205, 0.3425939679145813, 0.36142945289611816, 0.3802649676799774, 0.39910048246383667, 0.41793596744537354, 0.4367714822292328, 0.45560699701309204, 0.4744425117969513, 0.49327802658081055, 0.5121135115623474, 0.5309489965438843, 0.5497845411300659, 0.5686200261116028, 0.5874555110931396, 0.6062910556793213]}, "parameters/attention_0.att_r": {"_type": "histogram", "values": [2.0, 0.0, 0.0, 0.0, 1.0, 0.0, 1.0, 1.0, 0.0, 1.0, 1.0, 1.0, 0.0, 1.0, 1.0, 2.0, 1.0, 0.0, 1.0, 0.0, 1.0, 1.0, 1.0, 1.0, 1.0, 1.0, 0.0, 0.0, 0.0, 0.0, 0.0, 1.0, 0.0, 0.0, 1.0, 0.0, 1.0, 0.0, 0.0, 1.0, 0.0, 1.0, 1.0, 2.0, 0.0, 0.0, 0.0, 0.0, 1.0, 1.0, 1.0, 1.0, 1.0, 1.0, 1.0, 0.0, 1.0, 0.0, 2.0, 1.0, 0.0, 0.0, 0.0, 1.0], "bins": [-0.603319525718689, -0.5837030410766602, -0.5640866160392761, -0.5444701910018921, -0.5248537063598633, -0.5052372217178345, -0.48562079668045044, -0.466004341840744, -0.4463878870010376, -0.4267714321613312, -0.40715497732162476, -0.38753852248191833, -0.3679220676422119, -0.3483056128025055, -0.3286891579627991, -0.30907270312309265, -0.28945624828338623, -0.2698397934436798, -0.2502233386039734, -0.23060688376426697, -0.21099042892456055, -0.19137397408485413, -0.1717575192451477, -0.15214106440544128, -0.13252460956573486, -0.11290815472602844, -0.09329169988632202, -0.0736752450466156, -0.05405879020690918, -0.03444233536720276, -0.014825880527496338, 0.004790574312210083, 0.024407029151916504, 0.044023483991622925, 0.06363993883132935, 0.08325639367103577, 0.10287284851074219, 0.12248930335044861, 0.14210575819015503, 0.16172221302986145, 0.18133866786956787, 0.2009551227092743, 0.2205715775489807, 0.24018803238868713, 0.25980448722839355, 0.2794209420681, 0.2990373969078064, 0.3186538517475128, 0.33827030658721924, 0.35788676142692566, 0.3775032162666321, 0.3971196711063385, 0.4167361259460449, 0.43635258078575134, 0.45596903562545776, 0.4755854904651642, 0.4952019453048706, 0.5148184299468994, 0.5344348549842834, 0.5540512800216675, 0.5736677646636963, 0.5932842493057251, 0.6129006743431091, 0.6325170993804932, 0.652133584022522]}, "parameters/attention_0.bias": {"_type": "histogram", "values": [0.0, 0.0, 0.0, 0.0, 0.0, 0.0, 0.0, 0.0, 0.0, 0.0, 0.0, 0.0, 0.0, 0.0, 0.0, 0.0, 0.0, 0.0, 0.0, 0.0, 0.0, 0.0, 0.0, 0.0, 0.0, 0.0, 0.0, 0.0, 0.0, 0.0, 0.0, 0.0, 40.0, 0.0, 0.0, 0.0, 0.0, 0.0, 0.0, 0.0, 0.0, 0.0, 0.0, 0.0, 0.0, 0.0, 0.0, 0.0, 0.0, 0.0, 0.0, 0.0, 0.0, 0.0, 0.0, 0.0, 0.0, 0.0, 0.0, 0.0, 0.0, 0.0, 0.0, 0.0], "bins": [0.0, 0.0, 0.0, 0.0, 0.0, 0.0, 0.0, 0.0, 0.0, 0.0, 0.0, 0.0, 0.0, 0.0, 0.0, 0.0, 0.0, 0.0, 0.0, 0.0, 0.0, 0.0, 0.0, 0.0, 0.0, 0.0, 0.0, 0.0, 0.0, 0.0, 0.0, 0.0, 0.0, 0.0, 0.0, 0.0, 0.0, 0.0, 0.0, 0.0, 0.0, 0.0, 0.0, 0.0, 0.0, 0.0, 0.0, 0.0, 0.0, 0.0, 0.0, 0.0, 0.0, 0.0, 0.0, 0.0, 0.0, 0.0, 0.0, 0.0, 0.0, 0.0, 0.0, 0.0, 0.0]}, "parameters/attention_0.lin_l.weight": {"_type": "histogram", "values": [16.0, 7.0, 11.0, 5.0, 6.0, 5.0, 7.0, 11.0, 12.0, 8.0, 11.0, 14.0, 4.0, 7.0, 4.0, 4.0, 8.0, 9.0, 4.0, 9.0, 12.0, 11.0, 5.0, 5.0, 6.0, 10.0, 7.0, 10.0, 10.0, 3.0, 6.0, 3.0, 6.0, 8.0, 8.0, 6.0, 7.0, 10.0, 4.0, 10.0, 13.0, 10.0, 5.0, 9.0, 8.0, 8.0, 8.0, 3.0, 1.0, 7.0, 6.0, 4.0, 4.0, 5.0, 8.0, 9.0, 7.0, 9.0, 10.0, 5.0, 10.0, 7.0, 8.0, 7.0], "bins": [-0.33842161297798157, -0.32782796025276184, -0.3172343075275421, -0.3066406548023224, -0.29604700207710266, -0.28545334935188293, -0.2748597264289856, -0.26426607370376587, -0.25367242097854614, -0.24307876825332642, -0.2324851155281067, -0.22189146280288696, -0.21129781007766724, -0.2007041573524475, -0.19011051952838898, -0.17951686680316925, -0.16892319917678833, -0.1583295464515686, -0.14773589372634888, -0.13714224100112915, -0.12654858827590942, -0.1159549430012703, -0.10536129772663116, -0.09476764500141144, -0.08417399227619171, -0.07358033955097198, -0.06298668682575226, -0.05239304155111313, -0.0417993888258934, -0.031205736100673676, -0.020612090826034546, -0.01001843810081482, 0.0005751848220825195, 0.011168835684657097, 0.021762486547231674, 0.0323561355471611, 0.04294978827238083, 0.053543440997600555, 0.06413708627223969, 0.07473073899745941, 0.08532439172267914, 0.09591804444789886, 0.10651169717311859, 0.11710534244775772, 0.12769898772239685, 0.13829264044761658, 0.1488862931728363, 0.15947994589805603, 0.17007359862327576, 0.18066725134849548, 0.1912609040737152, 0.20185455679893494, 0.21244820952415466, 0.2230418622493744, 0.23363550007343292, 0.24422915279865265, 0.2548227906227112, 0.2654164433479309, 0.27601009607315063, 0.28660374879837036, 0.2971974015235901, 0.3077910542488098, 0.31838470697402954, 0.32897835969924927, 0.339572012424469]}, "parameters/attention_1.att_l": {"_type": "histogram", "values": [1.0, 1.0, 0.0, 1.0, 1.0, 0.0, 1.0, 1.0, 3.0, 2.0, 0.0, 0.0, 0.0, 2.0, 1.0, 0.0, 1.0, 0.0, 1.0, 0.0, 0.0, 1.0, 0.0, 1.0, 0.0, 1.0, 1.0, 1.0, 1.0, 0.0, 0.0, 0.0, 0.0, 0.0, 0.0, 0.0, 2.0, 0.0, 1.0, 0.0, 0.0, 2.0, 2.0, 1.0, 0.0, 0.0, 1.0, 0.0, 1.0, 1.0, 1.0, 0.0, 0.0, 1.0, 0.0, 0.0, 0.0, 0.0, 1.0, 0.0, 0.0, 2.0, 0.0, 2.0], "bins": [-0.6038312911987305, -0.5855950117111206, -0.567358672618866, -0.5491223931312561, -0.5308860540390015, -0.5126497745513916, -0.49441346526145935, -0.4761771559715271, -0.45794084668159485, -0.4397045373916626, -0.42146822810173035, -0.4032319188117981, -0.38499563932418823, -0.3667593002319336, -0.34852302074432373, -0.3302867114543915, -0.31205040216445923, -0.293814092874527, -0.2755777835845947, -0.2573414742946625, -0.23910517990589142, -0.22086887061595917, -0.2026325762271881, -0.18439626693725586, -0.1661599576473236, -0.14792364835739136, -0.1296873390674591, -0.11145104467868805, -0.0932147353887558, -0.07497842609882355, -0.05674212425947189, -0.03850582242012024, -0.02026951313018799, -0.0020332075655460358, 0.016203097999095917, 0.03443940356373787, 0.05267570912837982, 0.07091201841831207, 0.08914832025766373, 0.10738462209701538, 0.12562093138694763, 0.14385724067687988, 0.16209354996681213, 0.1803298443555832, 0.19856615364551544, 0.2168024629354477, 0.23503875732421875, 0.253275066614151, 0.27151137590408325, 0.2897476851940155, 0.30798399448394775, 0.32622030377388, 0.34445661306381226, 0.3626928925514221, 0.38092920184135437, 0.3991655111312866, 0.41740182042121887, 0.4356381297111511, 0.4538744390010834, 0.4721107482910156, 0.4903470277786255, 0.5085833668708801, 0.52681964635849, 0.5450559854507446, 0.5632922649383545]}, "parameters/attention_1.att_r": {"_type": "histogram", "values": [1.0, 0.0, 1.0, 1.0, 0.0, 0.0, 1.0, 0.0, 1.0, 0.0, 0.0, 0.0, 0.0, 1.0, 2.0, 1.0, 1.0, 0.0, 1.0, 0.0, 0.0, 3.0, 1.0, 1.0, 0.0, 1.0, 1.0, 0.0, 0.0, 0.0, 1.0, 1.0, 0.0, 2.0, 0.0, 1.0, 2.0, 0.0, 0.0, 0.0, 0.0, 0.0, 0.0, 0.0, 1.0, 0.0, 1.0, 0.0, 1.0, 0.0, 0.0, 1.0, 0.0, 1.0, 0.0, 1.0, 1.0, 2.0, 1.0, 2.0, 2.0, 0.0, 0.0, 1.0], "bins": [-0.6269993782043457, -0.6072664856910706, -0.5875335931777954, -0.5678007006645203, -0.5480678081512451, -0.5283348560333252, -0.5086020231246948, -0.4888690710067749, -0.46913617849349976, -0.4494032859802246, -0.42967039346694946, -0.4099375009536743, -0.3902045786380768, -0.37047168612480164, -0.3507387936115265, -0.33100587129592896, -0.3112730085849762, -0.29154011607170105, -0.2718072235584259, -0.25207430124282837, -0.23234140872955322, -0.21260851621627808, -0.19287562370300293, -0.1731427162885666, -0.15340982377529144, -0.1336769312620163, -0.11394402384757996, -0.09421113133430481, -0.07447823137044907, -0.05474533140659332, -0.035012438893318176, -0.015279531478881836, 0.0044533610343933105, 0.024186259135603905, 0.0439191572368145, 0.06365205347537994, 0.08338495343923569, 0.10311785340309143, 0.12285074591636658, 0.14258365333080292, 0.16231654584407806, 0.1820494383573532, 0.20178234577178955, 0.2215152382850647, 0.24124813079833984, 0.260981023311615, 0.28071391582489014, 0.30044683814048767, 0.3201797306537628, 0.33991262316703796, 0.3596455156803131, 0.37937843799591064, 0.3991113305091858, 0.41884422302246094, 0.4385771155357361, 0.45831000804901123, 0.4780429005622864, 0.4977757930755615, 0.5175086855888367, 0.5372415781021118, 0.556974470615387, 0.5767073631286621, 0.596440315246582, 0.6161732077598572, 0.6359061002731323]}, "parameters/attention_1.bias": {"_type": "histogram", "values": [0.0, 0.0, 0.0, 0.0, 0.0, 0.0, 0.0, 0.0, 0.0, 0.0, 0.0, 0.0, 0.0, 0.0, 0.0, 0.0, 0.0, 0.0, 0.0, 0.0, 0.0, 0.0, 0.0, 0.0, 0.0, 0.0, 0.0, 0.0, 0.0, 0.0, 0.0, 0.0, 40.0, 0.0, 0.0, 0.0, 0.0, 0.0, 0.0, 0.0, 0.0, 0.0, 0.0, 0.0, 0.0, 0.0, 0.0, 0.0, 0.0, 0.0, 0.0, 0.0, 0.0, 0.0, 0.0, 0.0, 0.0, 0.0, 0.0, 0.0, 0.0, 0.0, 0.0, 0.0], "bins": [0.0, 0.0, 0.0, 0.0, 0.0, 0.0, 0.0, 0.0, 0.0, 0.0, 0.0, 0.0, 0.0, 0.0, 0.0, 0.0, 0.0, 0.0, 0.0, 0.0, 0.0, 0.0, 0.0, 0.0, 0.0, 0.0, 0.0, 0.0, 0.0, 0.0, 0.0, 0.0, 0.0, 0.0, 0.0, 0.0, 0.0, 0.0, 0.0, 0.0, 0.0, 0.0, 0.0, 0.0, 0.0, 0.0, 0.0, 0.0, 0.0, 0.0, 0.0, 0.0, 0.0, 0.0, 0.0, 0.0, 0.0, 0.0, 0.0, 0.0, 0.0, 0.0, 0.0, 0.0, 0.0]}, "parameters/attention_1.lin_l.weight": {"_type": "histogram", "values": [20.0, 31.0, 35.0, 28.0, 24.0, 23.0, 23.0, 34.0, 21.0, 17.0, 35.0, 31.0, 15.0, 22.0, 26.0, 25.0, 26.0, 26.0, 24.0, 28.0, 15.0, 23.0, 22.0, 36.0, 22.0, 23.0, 29.0, 12.0, 22.0, 32.0, 20.0, 26.0, 27.0, 26.0, 26.0, 28.0, 33.0, 24.0, 26.0, 21.0, 21.0, 29.0, 27.0, 25.0, 17.0, 29.0, 27.0, 27.0, 20.0, 26.0, 29.0, 20.0, 18.0, 26.0, 28.0, 27.0, 32.0, 27.0, 23.0, 25.0, 19.0, 22.0, 25.0, 24.0], "bins": [-0.2737630307674408, -0.2652069926261902, -0.2566509544849396, -0.24809491634368896, -0.23953887820243835, -0.23098284006118774, -0.22242680191993713, -0.21387076377868652, -0.2053147256374359, -0.1967586874961853, -0.1882026493549347, -0.17964661121368408, -0.17109057307243347, -0.16253453493118286, -0.15397849678993225, -0.14542245864868164, -0.13686640560626984, -0.12831036746501923, -0.11975432932376862, -0.111198291182518, -0.1026422530412674, -0.09408621490001678, -0.08553016930818558, -0.07697413116693497, -0.06841809302568436, -0.059862054884433746, -0.051306016743183136, -0.04274997487664223, -0.03419393673539162, -0.025637898594141006, -0.017081856727600098, -0.008525818586349487, 3.0219554901123047e-05, 0.008586258627474308, 0.017142297700047493, 0.025698337703943253, 0.03425437584519386, 0.04281041398644447, 0.05136645585298538, 0.05992249399423599, 0.0684785321354866, 0.07703457027673721, 0.08559060841798782, 0.09414665400981903, 0.10270269215106964, 0.11125873029232025, 0.11981476843357086, 0.12837080657482147, 0.13692684471607208, 0.1454828828573227, 0.1540389209985733, 0.1625949591398239, 0.17115099728107452, 0.17970703542232513, 0.18826308846473694, 0.19681912660598755, 0.20537516474723816, 0.21393120288848877, 0.22248724102973938, 0.23104327917099, 0.2395993173122406, 0.2481553554534912, 0.2567113935947418, 0.26526743173599243, 0.27382346987724304]}, "parameters/attention_2.att_l": {"_type": "histogram", "values": [1.0, 0.0, 0.0, 1.0, 2.0, 1.0, 1.0, 0.0, 0.0, 1.0, 1.0, 0.0, 1.0, 1.0, 1.0, 0.0, 1.0, 0.0, 0.0, 0.0, 3.0, 1.0, 0.0, 1.0, 1.0, 1.0, 0.0, 1.0, 2.0, 1.0, 0.0, 0.0, 1.0, 2.0, 1.0, 1.0, 0.0, 1.0, 1.0, 1.0, 1.0, 1.0, 0.0, 0.0, 0.0, 0.0, 0.0, 1.0, 0.0, 2.0, 1.0, 0.0, 0.0, 0.0, 0.0, 0.0, 0.0, 0.0, 1.0, 0.0, 0.0, 0.0, 0.0, 2.0], "bins": [-0.6365357041358948, -0.6169068813323975, -0.5972780585289001, -0.5776492357254028, -0.5580203533172607, -0.5383915305137634, -0.5187627077102661, -0.4991338849067688, -0.4795050621032715, -0.45987623929977417, -0.44024738669395447, -0.42061856389045715, -0.40098974108695984, -0.38136088848114014, -0.3617320656776428, -0.3421032428741455, -0.3224743902683258, -0.3028455674648285, -0.2832167148590088, -0.2635878920555115, -0.24395906925201416, -0.22433023154735565, -0.20470139384269714, -0.18507257103919983, -0.16544373333454132, -0.1458148956298828, -0.1261860728263855, -0.10655723512172699, -0.08692840486764908, -0.06729957461357117, -0.04767073690891266, -0.028041914105415344, -0.008413076400756836, 0.011215755715966225, 0.030844587832689285, 0.050473421812057495, 0.0701022520661354, 0.08973108232021332, 0.10935992002487183, 0.12898874282836914, 0.14861758053302765, 0.16824641823768616, 0.18787524104118347, 0.20750407874584198, 0.2271329164505005, 0.2467617392539978, 0.2663905620574951, 0.28601938486099243, 0.30564823746681213, 0.32527706027030945, 0.34490591287612915, 0.36453473567962646, 0.3841635584831238, 0.4037923812866211, 0.4234212338924408, 0.4430500566959381, 0.4626789093017578, 0.4823077321052551, 0.5019365549087524, 0.5215654373168945, 0.5411942601203918, 0.5608230829238892, 0.5804519057273865, 0.6000807285308838, 0.6197095513343811]}, "parameters/attention_2.att_r": {"_type": "histogram", "values": [1.0, 0.0, 0.0, 1.0, 0.0, 1.0, 2.0, 0.0, 0.0, 2.0, 0.0, 0.0, 0.0, 1.0, 0.0, 0.0, 3.0, 0.0, 0.0, 1.0, 1.0, 0.0, 1.0, 1.0, 1.0, 1.0, 0.0, 0.0, 0.0, 0.0, 2.0, 0.0, 0.0, 0.0, 2.0, 0.0, 1.0, 0.0, 1.0, 2.0, 1.0, 1.0, 0.0, 1.0, 0.0, 1.0, 1.0, 1.0, 2.0, 0.0, 0.0, 1.0, 0.0, 1.0, 0.0, 1.0, 1.0, 0.0, 0.0, 1.0, 1.0, 0.0, 0.0, 1.0], "bins": [-0.6256208419799805, -0.6058054566383362, -0.5859901309013367, -0.5661747455596924, -0.5463594198226929, -0.5265440344810486, -0.5067286491394043, -0.4869133234024048, -0.4670979380607605, -0.4472825825214386, -0.4274672269821167, -0.4076518416404724, -0.3878364861011505, -0.3680211305618286, -0.3482057750225067, -0.3283904194831848, -0.3085750639438629, -0.288759708404541, -0.2689443528652191, -0.24912898242473602, -0.22931361198425293, -0.20949825644493103, -0.18968290090560913, -0.16986753046512604, -0.15005217492580414, -0.13023681938648224, -0.11042144894599915, -0.09060609340667725, -0.07079073041677475, -0.05097536742687225, -0.031160011887550354, -0.01134464144706726, 0.008470714092254639, 0.028286075219511986, 0.04810143634676933, 0.06791679561138153, 0.08773215860128403, 0.10754752159118652, 0.12736287713050842, 0.14717824757099152, 0.16699360311031342, 0.18680895864963531, 0.2066243290901184, 0.2264396846294403, 0.2462550401687622, 0.2660704255104065, 0.285885751247406, 0.3057011365890503, 0.3255164921283722, 0.3453318476676941, 0.365147203207016, 0.3849625587463379, 0.4047779440879822, 0.4245932996273041, 0.444408655166626, 0.46422404050827026, 0.4840393662452698, 0.5038547515869141, 0.5236700773239136, 0.5434854626655579, 0.5633007884025574, 0.5831161737442017, 0.6029314994812012, 0.6227468848228455, 0.6425622701644897]}, "parameters/attention_2.bias": {"_type": "histogram", "values": [0.0, 0.0, 0.0, 0.0, 0.0, 0.0, 0.0, 0.0, 0.0, 0.0, 0.0, 0.0, 0.0, 0.0, 0.0, 0.0, 0.0, 0.0, 0.0, 0.0, 0.0, 0.0, 0.0, 0.0, 0.0, 0.0, 0.0, 0.0, 0.0, 0.0, 0.0, 0.0, 40.0, 0.0, 0.0, 0.0, 0.0, 0.0, 0.0, 0.0, 0.0, 0.0, 0.0, 0.0, 0.0, 0.0, 0.0, 0.0, 0.0, 0.0, 0.0, 0.0, 0.0, 0.0, 0.0, 0.0, 0.0, 0.0, 0.0, 0.0, 0.0, 0.0, 0.0, 0.0], "bins": [0.0, 0.0, 0.0, 0.0, 0.0, 0.0, 0.0, 0.0, 0.0, 0.0, 0.0, 0.0, 0.0, 0.0, 0.0, 0.0, 0.0, 0.0, 0.0, 0.0, 0.0, 0.0, 0.0, 0.0, 0.0, 0.0, 0.0, 0.0, 0.0, 0.0, 0.0, 0.0, 0.0, 0.0, 0.0, 0.0, 0.0, 0.0, 0.0, 0.0, 0.0, 0.0, 0.0, 0.0, 0.0, 0.0, 0.0, 0.0, 0.0, 0.0, 0.0, 0.0, 0.0, 0.0, 0.0, 0.0, 0.0, 0.0, 0.0, 0.0, 0.0, 0.0, 0.0, 0.0, 0.0]}, "parameters/attention_2.lin_l.weight": {"_type": "histogram", "values": [20.0, 16.0, 20.0, 23.0, 34.0, 32.0, 23.0, 36.0, 26.0, 25.0, 21.0, 21.0, 16.0, 28.0, 21.0, 24.0, 29.0, 23.0, 28.0, 25.0, 31.0, 31.0, 28.0, 21.0, 14.0, 29.0, 23.0, 31.0, 26.0, 30.0, 27.0, 30.0, 26.0, 20.0, 21.0, 26.0, 18.0, 29.0, 22.0, 29.0, 27.0, 28.0, 25.0, 26.0, 18.0, 22.0, 28.0, 26.0, 22.0, 26.0, 20.0, 24.0, 27.0, 16.0, 26.0, 26.0, 25.0, 24.0, 33.0, 22.0, 33.0, 23.0, 24.0, 26.0], "bins": [-0.2737671136856079, -0.26521965861320496, -0.2566722333431244, -0.24812477827072144, -0.23957733809947968, -0.23102989792823792, -0.22248245775699615, -0.2139350175857544, -0.20538756251335144, -0.19684012234210968, -0.18829268217086792, -0.17974522709846497, -0.1711977869272232, -0.16265034675598145, -0.15410290658473969, -0.14555546641349792, -0.13700802624225616, -0.1284605860710144, -0.11991313844919205, -0.11136569827795029, -0.10281825065612793, -0.09427081048488617, -0.08572337031364441, -0.07717593014240265, -0.06862848252058029, -0.06008103862404823, -0.051533594727516174, -0.042986154556274414, -0.034438710659742355, -0.025891266763210297, -0.017343826591968536, -0.008796382695436478, -0.00024893879890441895, 0.008298504166305065, 0.01684594713151455, 0.02539338916540146, 0.03394083306193352, 0.042488276958465576, 0.051035717129707336, 0.059583161026239395, 0.06813060492277145, 0.07667804509401321, 0.08522549271583557, 0.09377293288707733, 0.10232037305831909, 0.11086782068014145, 0.11941526085138321, 0.12796270847320557, 0.13651014864444733, 0.1450575888156891, 0.15360502898693085, 0.1621524691581726, 0.17069992423057556, 0.17924736440181732, 0.18779480457305908, 0.19634224474430084, 0.2048896849155426, 0.21343712508678436, 0.22198456525802612, 0.23053202033042908, 0.23907946050167084, 0.2476269006729126, 0.25617432594299316, 0.2647217810153961, 0.2732692360877991]}, "parameters/out_att.att_l": {"_type": "histogram", "values": [0.0, 0.0, 0.0, 0.0, 0.0, 0.0, 0.0, 0.0, 0.0, 0.0, 0.0, 0.0, 0.0, 0.0, 0.0, 0.0, 0.0, 0.0, 0.0, 0.0, 0.0, 0.0, 0.0, 0.0, 0.0, 0.0, 0.0, 0.0, 0.0, 0.0, 0.0, 0.0, 1.0, 0.0, 0.0, 0.0, 0.0, 0.0, 0.0, 0.0, 0.0, 0.0, 0.0, 0.0, 0.0, 0.0, 0.0, 0.0, 0.0, 0.0, 0.0, 0.0, 0.0, 0.0, 0.0, 0.0, 0.0, 0.0, 0.0, 0.0, 0.0, 0.0, 0.0, 0.0], "bins": [-0.12159320712089539, -0.12159320712089539, -0.12159320712089539, -0.12159320712089539, -0.12159320712089539, -0.12159320712089539, -0.12159320712089539, -0.12159320712089539, -0.12159320712089539, -0.12159320712089539, -0.12159320712089539, -0.12159320712089539, -0.12159320712089539, -0.12159320712089539, -0.12159320712089539, -0.12159320712089539, -0.12159320712089539, -0.12159320712089539, -0.12159320712089539, -0.12159320712089539, -0.12159320712089539, -0.12159320712089539, -0.12159320712089539, -0.12159320712089539, -0.12159320712089539, -0.12159320712089539, -0.12159320712089539, -0.12159320712089539, -0.12159320712089539, -0.12159320712089539, -0.12159320712089539, -0.12159320712089539, -0.12159320712089539, -0.12159320712089539, -0.12159320712089539, -0.12159320712089539, -0.12159320712089539, -0.12159320712089539, -0.12159320712089539, -0.12159320712089539, -0.12159320712089539, -0.12159320712089539, -0.12159320712089539, -0.12159320712089539, -0.12159320712089539, -0.12159320712089539, -0.12159320712089539, -0.12159320712089539, -0.12159320712089539, -0.12159320712089539, -0.12159320712089539, -0.12159320712089539, -0.12159320712089539, -0.12159320712089539, -0.12159320712089539, -0.12159320712089539, -0.12159320712089539, -0.12159320712089539, -0.12159320712089539, -0.12159320712089539, -0.12159320712089539, -0.12159320712089539, -0.12159320712089539, -0.12159320712089539, -0.12159320712089539]}, "parameters/out_att.att_r": {"_type": "histogram", "values": [0.0, 0.0, 0.0, 0.0, 0.0, 0.0, 0.0, 0.0, 0.0, 0.0, 0.0, 0.0, 0.0, 0.0, 0.0, 0.0, 0.0, 0.0, 0.0, 0.0, 0.0, 0.0, 0.0, 0.0, 0.0, 0.0, 0.0, 0.0, 0.0, 0.0, 0.0, 0.0, 1.0, 0.0, 0.0, 0.0, 0.0, 0.0, 0.0, 0.0, 0.0, 0.0, 0.0, 0.0, 0.0, 0.0, 0.0, 0.0, 0.0, 0.0, 0.0, 0.0, 0.0, 0.0, 0.0, 0.0, 0.0, 0.0, 0.0, 0.0, 0.0, 0.0, 0.0, 0.0], "bins": [1.6678227186203003, 1.6678227186203003, 1.6678227186203003, 1.6678227186203003, 1.6678227186203003, 1.6678227186203003, 1.6678227186203003, 1.6678227186203003, 1.6678227186203003, 1.6678227186203003, 1.6678227186203003, 1.6678227186203003, 1.6678227186203003, 1.6678227186203003, 1.6678227186203003, 1.6678227186203003, 1.6678227186203003, 1.6678227186203003, 1.6678227186203003, 1.6678227186203003, 1.6678227186203003, 1.6678227186203003, 1.6678227186203003, 1.6678227186203003, 1.6678227186203003, 1.6678227186203003, 1.6678227186203003, 1.6678227186203003, 1.6678227186203003, 1.6678227186203003, 1.6678227186203003, 1.6678227186203003, 1.6678227186203003, 1.6678227186203003, 1.6678227186203003, 1.6678227186203003, 1.6678227186203003, 1.6678227186203003, 1.6678227186203003, 1.6678227186203003, 1.6678227186203003, 1.6678227186203003, 1.6678227186203003, 1.6678227186203003, 1.6678227186203003, 1.6678227186203003, 1.6678227186203003, 1.6678227186203003, 1.6678227186203003, 1.6678227186203003, 1.6678227186203003, 1.6678227186203003, 1.6678227186203003, 1.6678227186203003, 1.6678227186203003, 1.6678227186203003, 1.6678227186203003, 1.6678227186203003, 1.6678227186203003, 1.6678227186203003, 1.6678227186203003, 1.6678227186203003, 1.6678227186203003, 1.6678227186203003, 1.6678227186203003]}, "parameters/out_att.bias": {"_type": "histogram", "values": [0.0, 0.0, 0.0, 0.0, 0.0, 0.0, 0.0, 0.0, 0.0, 0.0, 0.0, 0.0, 0.0, 0.0, 0.0, 0.0, 0.0, 0.0, 0.0, 0.0, 0.0, 0.0, 0.0, 0.0, 0.0, 0.0, 0.0, 0.0, 0.0, 0.0, 0.0, 0.0, 1.0, 0.0, 0.0, 0.0, 0.0, 0.0, 0.0, 0.0, 0.0, 0.0, 0.0, 0.0, 0.0, 0.0, 0.0, 0.0, 0.0, 0.0, 0.0, 0.0, 0.0, 0.0, 0.0, 0.0, 0.0, 0.0, 0.0, 0.0, 0.0, 0.0, 0.0, 0.0], "bins": [0.0, 0.0, 0.0, 0.0, 0.0, 0.0, 0.0, 0.0, 0.0, 0.0, 0.0, 0.0, 0.0, 0.0, 0.0, 0.0, 0.0, 0.0, 0.0, 0.0, 0.0, 0.0, 0.0, 0.0, 0.0, 0.0, 0.0, 0.0, 0.0, 0.0, 0.0, 0.0, 0.0, 0.0, 0.0, 0.0, 0.0, 0.0, 0.0, 0.0, 0.0, 0.0, 0.0, 0.0, 0.0, 0.0, 0.0, 0.0, 0.0, 0.0, 0.0, 0.0, 0.0, 0.0, 0.0, 0.0, 0.0, 0.0, 0.0, 0.0, 0.0, 0.0, 0.0, 0.0, 0.0]}, "parameters/out_att.lin_l.weight": {"_type": "histogram", "values": [2.0, 0.0, 1.0, 1.0, 0.0, 2.0, 0.0, 1.0, 0.0, 0.0, 1.0, 1.0, 1.0, 0.0, 1.0, 1.0, 0.0, 1.0, 0.0, 1.0, 0.0, 0.0, 0.0, 0.0, 1.0, 1.0, 2.0, 0.0, 0.0, 1.0, 1.0, 1.0, 0.0, 1.0, 1.0, 0.0, 2.0, 1.0, 0.0, 1.0, 1.0, 1.0, 0.0, 0.0, 0.0, 1.0, 2.0, 1.0, 0.0, 0.0, 0.0, 0.0, 1.0, 0.0, 0.0, 0.0, 0.0, 2.0, 3.0, 0.0, 0.0, 0.0, 0.0, 1.0], "bins": [-0.33920466899871826, -0.328017920255661, -0.31683117151260376, -0.3056444227695465, -0.29445767402648926, -0.283270925283432, -0.27208417654037476, -0.2608973979949951, -0.24971066415309906, -0.2385239154100418, -0.22733716666698456, -0.2161504030227661, -0.20496365427970886, -0.1937769055366516, -0.18259015679359436, -0.1714034080505371, -0.16021665930747986, -0.1490299105644226, -0.13784316182136536, -0.1266564130783081, -0.11546965688467026, -0.104282908141613, -0.09309615194797516, -0.08190940320491791, -0.07072265446186066, -0.059535905718803406, -0.048349153250455856, -0.03716240078210831, -0.025975652039051056, -0.014788903295993805, -0.003602147102355957, 0.007584601640701294, 0.018771350383758545, 0.029958100989460945, 0.041144851595163345, 0.052331604063510895, 0.06351835280656815, 0.0747051015496254, 0.08589185774326324, 0.0970786064863205, 0.10826535522937775, 0.119452103972435, 0.13063885271549225, 0.1418256163597107, 0.15301236510276794, 0.1641991138458252, 0.17538586258888245, 0.1865726113319397, 0.19775936007499695, 0.2089461088180542, 0.22013285756111145, 0.2313196063041687, 0.24250635504722595, 0.2536931037902832, 0.26487988233566284, 0.2760666012763977, 0.28725337982177734, 0.2984401285648346, 0.30962687730789185, 0.3208136260509491, 0.33200037479400635, 0.3431871235370636, 0.35437387228012085, 0.3655606508255005, 0.37674736976623535]}, "_runtime": 104, "_timestamp": 1642410910, "_step": 2, "Learning rate value": 0.0014999999999999946, "Learning rate action": 0.0014999999999999946, "epsilon": 0.9840639999999999, "action_probs": {"_type": "histogram", "values": [3, 0, 0, 0, 0, 6, 3, 0, 0, 3, 0, 0, 3, 0, 0, 0, 0, 3, 3, 0, 0, 0, 0, 0, 3, 0, 0, 0, 0, 0, 0, 0, 0, 0, 0, 0, 0, 0, 0, 0, 0, 0, 0, 0, 0, 0, 0, 0, 0, 3, 0, 0, 0, 0, 3, 0, 3, 0, 0, 6, 0, 0, 0, 3], "bins": [0.39750558137893677, 0.4005524218082428, 0.40359926223754883, 0.40664610266685486, 0.4096929430961609, 0.4127397835254669, 0.41578662395477295, 0.418833464384079, 0.421880304813385, 0.42492714524269104, 0.42797398567199707, 0.4310208261013031, 0.43406766653060913, 0.43711450695991516, 0.4401613473892212, 0.4432081878185272, 0.44625502824783325, 0.4493018686771393, 0.4523487091064453, 0.45539554953575134, 0.4584423899650574, 0.4614892303943634, 0.46453607082366943, 0.46758291125297546, 0.4706297516822815, 0.4736765921115875, 0.47672343254089355, 0.4797702729701996, 0.4828171133995056, 0.48586395382881165, 0.4889107942581177, 0.4919576346874237, 0.49500447511672974, 0.49805131554603577, 0.5010981559753418, 0.5041450262069702, 0.5071918368339539, 0.5102386474609375, 0.5132855176925659, 0.5163323879241943, 0.519379198551178, 0.5224260091781616, 0.52547287940979, 0.5285197496414185, 0.5315665602684021, 0.5346133708953857, 0.5376602411270142, 0.5407071113586426, 0.5437539219856262, 0.5468007326126099, 0.5498476028442383, 0.5528944730758667, 0.5559412837028503, 0.558988094329834, 0.5620349645614624, 0.5650818347930908, 0.5681286454200745, 0.5711754560470581, 0.5742223262786865, 0.5772691965103149, 0.5803160071372986, 0.5833628177642822, 0.5864096879959106, 0.5894565582275391, 0.5925033688545227]}, "stop_go_action": {"_type": "histogram", "values": [27, 0, 0, 0, 0, 0, 0, 0, 0, 0, 0, 0, 0, 0, 0, 0, 0, 0, 0, 0, 0, 0, 0, 0, 0, 0, 0, 0, 0, 0, 0, 0, 0, 0, 0, 0, 0, 0, 0, 0, 0, 0, 0, 0, 0, 0, 0, 0, 0, 0, 0, 0, 0, 0, 0, 0, 0, 0, 0, 0, 0, 0, 0, 18], "bins": [0.0, 0.015625, 0.03125, 0.046875, 0.0625, 0.078125, 0.09375, 0.109375, 0.125, 0.140625, 0.15625, 0.171875, 0.1875, 0.203125, 0.21875, 0.234375, 0.25, 0.265625, 0.28125, 0.296875, 0.3125, 0.328125, 0.34375, 0.359375, 0.375, 0.390625, 0.40625, 0.421875, 0.4375, 0.453125, 0.46875, 0.484375, 0.5, 0.515625, 0.53125, 0.546875, 0.5625, 0.578125, 0.59375, 0.609375, 0.625, 0.640625, 0.65625, 0.671875, 0.6875, 0.703125, 0.71875, 0.734375, 0.75, 0.765625, 0.78125, 0.796875, 0.8125, 0.828125, 0.84375, 0.859375, 0.875, 0.890625, 0.90625, 0.921875, 0.9375, 0.953125, 0.96875, 0.984375, 1.0]}, "node_values": {"_type": "histogram", "values": [2, 1, 0, 0, 2, 0, 0, 0, 0, 0, 0, 0, 0, 0, 0, 0, 0, 1, 0, 0, 0, 0, 0, 0, 0, 0, 2, 1, 0, 0, 0, 0, 0, 0, 0, 0, 0, 0, 0, 0, 0, 0, 0, 0, 0, 0, 1, 1, 0, 1, 0, 0, 1, 1, 0, 0, 0, 0, 0, 0, 0, 0, 0, 1], "bins": [1.2718710899353027, 1.2803721465170383, 1.288873203098774, 1.2973742596805096, 1.3058753162622452, 1.3143763728439808, 1.3228774294257164, 1.331378486007452, 1.3398795425891876, 1.3483805991709232, 1.3568816557526588, 1.3653827123343945, 1.37388376891613, 1.3823848254978657, 1.3908858820796013, 1.399386938661337, 1.4078879952430725, 1.4163890518248081, 1.4248901084065437, 1.4333911649882793, 1.441892221570015, 1.4503932781517506, 1.4588943347334862, 1.4673953913152218, 1.4758964478969574, 1.484397504478693, 1.4928985610604286, 1.5013996176421642, 1.5099006742238998, 1.5184017308056355, 1.526902787387371, 1.5354038439691067, 1.5439049005508423, 1.552405957132578, 1.5609070137143135, 1.5694080702960491, 1.5779091268777847, 1.5864101834595203, 1.594911240041256, 1.6034122966229916, 1.6119133532047272, 1.6204144097864628, 1.6289154663681984, 1.637416522949934, 1.6459175795316696, 1.6544186361134052, 1.6629196926951408, 1.6714207492768764, 1.679921805858612, 1.6884228624403477, 1.6969239190220833, 1.705424975603819, 1.7139260321855545, 1.7224270887672901, 1.7309281453490257, 1.7394292019307613, 1.747930258512497, 1.7564313150942326, 1.7649323716759682, 1.7734334282577038, 1.7819344848394394, 1.790435541421175, 1.7989365980029106, 1.8074376545846462, 1.8159387111663818]}, "episode_rewards": {"_type": "histogram", "values": [3, 0, 0, 0, 0, 0, 0, 0, 0, 0, 0, 0, 0, 0, 0, 3, 0, 0, 0, 0, 0, 0, 0, 0, 0, 0, 0, 0, 0, 0, 0, 0, 0, 0, 0, 0, 0, 0, 0, 0, 0, 0, 0, 0, 0, 0, 0, 0, 0, 0, 0, 9, 0, 0, 3, 0, 0, 0, 0, 0, 3, 0, 0, 3], "bins": [-21.0, -20.671875, -20.34375, -20.015625, -19.6875, -19.359375, -19.03125, -18.703125, -18.375, -18.046875, -17.71875, -17.390625, -17.0625, -16.734375, -16.40625, -16.078125, -15.75, -15.421875, -15.09375, -14.765625, -14.4375, -14.109375, -13.78125, -13.453125, -13.125, -12.796875, -12.46875, -12.140625, -11.8125, -11.484375, -11.15625, -10.828125, -10.5, -10.171875, -9.84375, -9.515625, -9.1875, -8.859375, -8.53125, -8.203125, -7.875, -7.546875, -7.21875, -6.890625, -6.5625, -6.234375, -5.90625, -5.578125, -5.25, -4.921875, -4.59375, -4.265625, -3.9375, -3.609375, -3.28125, -2.953125, -2.625, -2.296875, -1.96875, -1.640625, -1.3125, -0.984375, -0.65625, -0.328125, 0.0]}, "_wandb": {"runtime": 104}}