{"parameters/attention_0.att_l": {"_type": "histogram", "values": [1.0, 1.0, 1.0, 0.0, 0.0, 1.0, 1.0, 1.0, 0.0, 1.0, 0.0, 1.0, 2.0, 0.0, 2.0, 1.0, 0.0, 1.0, 0.0, 0.0, 0.0, 0.0, 1.0, 1.0, 0.0, 0.0, 1.0, 1.0, 0.0, 0.0, 1.0, 0.0, 0.0, 0.0, 1.0, 1.0, 2.0, 0.0, 1.0, 1.0, 2.0, 0.0, 0.0, 0.0, 0.0, 3.0, 0.0, 0.0, 3.0, 0.0, 0.0, 1.0, 0.0, 1.0, 0.0, 0.0, 1.0, 1.0, 1.0, 0.0, 0.0, 1.0, 0.0, 1.0], "bins": [-0.6137751936912537, -0.5953214168548584, -0.5768676400184631, -0.5584138631820679, -0.5399600267410278, -0.5215062499046326, -0.5030524730682373, -0.48459869623184204, -0.4661449193954468, -0.4476911425590515, -0.42923736572265625, -0.4107835590839386, -0.39232978224754333, -0.37387600541114807, -0.3554221987724304, -0.33696842193603516, -0.3185146450996399, -0.30006086826324463, -0.28160709142684937, -0.2631532847881317, -0.24469950795173645, -0.2262457311153412, -0.20779193937778473, -0.18933814764022827, -0.170884370803833, -0.15243059396743774, -0.1339768022298813, -0.11552301794290543, -0.09706923365592957, -0.0786154493689537, -0.060161665081977844, -0.04170787334442139, -0.0232541561126709, -0.004800371825695038, 0.013653412461280823, 0.03210719674825668, 0.050560981035232544, 0.0690147653222084, 0.08746854960918427, 0.10592234134674072, 0.12437611818313599, 0.14282989501953125, 0.1612836867570877, 0.17973747849464417, 0.19819125533103943, 0.2166450321674347, 0.23509882390499115, 0.2535526156425476, 0.27200639247894287, 0.29046016931533813, 0.3089139461517334, 0.32736775279045105, 0.3458215296268463, 0.3642753064632416, 0.38272911310195923, 0.4011828899383545, 0.41963666677474976, 0.438090443611145, 0.4565442204475403, 0.47499802708625793, 0.4934518039226532, 0.5119056105613708, 0.5303593873977661, 0.5488131642341614, 0.5672669410705566]}, "parameters/attention_0.att_r": {"_type": "histogram", "values": [1.0, 1.0, 1.0, 1.0, 1.0, 1.0, 0.0, 1.0, 0.0, 0.0, 0.0, 2.0, 0.0, 1.0, 1.0, 0.0, 0.0, 1.0, 0.0, 0.0, 2.0, 2.0, 0.0, 0.0, 1.0, 0.0, 0.0, 1.0, 0.0, 0.0, 1.0, 2.0, 0.0, 1.0, 0.0, 1.0, 0.0, 0.0, 1.0, 0.0, 1.0, 2.0, 0.0, 2.0, 0.0, 0.0, 0.0, 0.0, 0.0, 0.0, 0.0, 1.0, 0.0, 2.0, 0.0, 3.0, 1.0, 0.0, 1.0, 0.0, 0.0, 0.0, 0.0, 3.0], "bins": [-0.6197304129600525, -0.6004042029380798, -0.5810779333114624, -0.5617517232894897, -0.5424255132675171, -0.5230993032455444, -0.503773033618927, -0.48444682359695435, -0.4651206135749817, -0.44579437375068665, -0.426468163728714, -0.40714192390441895, -0.3878157138824463, -0.36848947405815125, -0.3491632342338562, -0.32983702421188354, -0.3105107843875885, -0.29118454456329346, -0.2718583345413208, -0.25253209471702576, -0.2332058846950531, -0.21387964487075806, -0.1945534199476242, -0.17522719502449036, -0.1559009701013565, -0.13657474517822266, -0.1172485202550888, -0.09792228788137436, -0.07859606295824051, -0.05926983803510666, -0.03994360566139221, -0.020617380738258362, -0.0012911558151245117, 0.018035070970654488, 0.03736129775643349, 0.056687526404857635, 0.07601375132799149, 0.09533997625112534, 0.11466620862483978, 0.13399243354797363, 0.15331865847110748, 0.17264488339424133, 0.19197110831737518, 0.21129733324050903, 0.23062357306480408, 0.24994978308677673, 0.2692760229110718, 0.28860223293304443, 0.3079284727573395, 0.3272547125816345, 0.3465809226036072, 0.3659071624279022, 0.3852333724498749, 0.4045596122741699, 0.4238858222961426, 0.4432120621204376, 0.46253830194473267, 0.4818645417690277, 0.5011907815933228, 0.5205169916152954, 0.5398432016372681, 0.5591694116592407, 0.5784956812858582, 0.5978218913078308, 0.6171481013298035]}, "parameters/attention_0.bias": {"_type": "histogram", "values": [0.0, 0.0, 0.0, 0.0, 0.0, 0.0, 0.0, 0.0, 0.0, 0.0, 0.0, 0.0, 0.0, 0.0, 0.0, 0.0, 0.0, 0.0, 0.0, 0.0, 0.0, 0.0, 0.0, 0.0, 0.0, 0.0, 0.0, 0.0, 0.0, 0.0, 0.0, 0.0, 40.0, 0.0, 0.0, 0.0, 0.0, 0.0, 0.0, 0.0, 0.0, 0.0, 0.0, 0.0, 0.0, 0.0, 0.0, 0.0, 0.0, 0.0, 0.0, 0.0, 0.0, 0.0, 0.0, 0.0, 0.0, 0.0, 0.0, 0.0, 0.0, 0.0, 0.0, 0.0], "bins": [0.0, 0.0, 0.0, 0.0, 0.0, 0.0, 0.0, 0.0, 0.0, 0.0, 0.0, 0.0, 0.0, 0.0, 0.0, 0.0, 0.0, 0.0, 0.0, 0.0, 0.0, 0.0, 0.0, 0.0, 0.0, 0.0, 0.0, 0.0, 0.0, 0.0, 0.0, 0.0, 0.0, 0.0, 0.0, 0.0, 0.0, 0.0, 0.0, 0.0, 0.0, 0.0, 0.0, 0.0, 0.0, 0.0, 0.0, 0.0, 0.0, 0.0, 0.0, 0.0, 0.0, 0.0, 0.0, 0.0, 0.0, 0.0, 0.0, 0.0, 0.0, 0.0, 0.0, 0.0, 0.0]}, "parameters/attention_0.lin_l.weight": {"_type": "histogram", "values": [16.0, 12.0, 11.0, 8.0, 16.0, 11.0, 5.0, 7.0, 11.0, 7.0, 9.0, 9.0, 8.0, 11.0, 5.0, 7.0, 9.0, 6.0, 4.0, 3.0, 6.0, 13.0, 5.0, 11.0, 7.0, 9.0, 5.0, 15.0, 6.0, 10.0, 8.0, 12.0, 5.0, 14.0, 5.0, 11.0, 5.0, 11.0, 9.0, 3.0, 9.0, 12.0, 10.0, 12.0, 5.0, 8.0, 5.0, 6.0, 8.0, 9.0, 7.0, 9.0, 9.0, 11.0, 8.0, 9.0, 9.0, 16.0, 10.0, 9.0, 8.0, 3.0, 11.0, 12.0], "bins": [-0.33278748393058777, -0.32240670919418335, -0.31202590465545654, -0.3016451299190521, -0.2912643551826477, -0.2808835506439209, -0.2705027759075165, -0.26012200117111206, -0.24974119663238525, -0.23936040699481964, -0.22897961735725403, -0.2185988426208496, -0.208218052983284, -0.19783726334571838, -0.18745648860931396, -0.17707569897174835, -0.16669490933418274, -0.15631411969661713, -0.1459333300590515, -0.1355525553226471, -0.12517176568508148, -0.11479097604751587, -0.10441019386053085, -0.09402941167354584, -0.08364862203598022, -0.07326783239841461, -0.0628870502114296, -0.05250626429915428, -0.04212547838687897, -0.03174469247460365, -0.02136390656232834, -0.010983124375343323, -0.0006023645401000977, 0.009778421372175217, 0.02015920728445053, 0.030539993196725845, 0.04092077910900116, 0.051301565021276474, 0.06168235093355179, 0.0720631331205368, 0.08244392275810242, 0.09282471239566803, 0.10320549458265305, 0.11358627676963806, 0.12396706640720367, 0.1343478560447693, 0.1447286307811737, 0.15510942041873932, 0.16549021005630493, 0.17587099969387054, 0.18625178933143616, 0.19663256406784058, 0.2070133537054062, 0.2173941433429718, 0.22777491807937622, 0.23815570771694183, 0.24853649735450745, 0.25891727209091187, 0.26929807662963867, 0.2796788513660431, 0.2900596261024475, 0.3004404306411743, 0.31082120537757874, 0.32120198011398315, 0.33158278465270996]}, "parameters/attention_1.att_l": {"_type": "histogram", "values": [2.0, 0.0, 1.0, 0.0, 1.0, 0.0, 0.0, 0.0, 0.0, 1.0, 2.0, 1.0, 1.0, 0.0, 1.0, 1.0, 2.0, 0.0, 1.0, 1.0, 0.0, 2.0, 0.0, 2.0, 2.0, 1.0, 0.0, 0.0, 1.0, 0.0, 1.0, 0.0, 0.0, 1.0, 0.0, 0.0, 0.0, 1.0, 0.0, 0.0, 1.0, 1.0, 0.0, 0.0, 1.0, 0.0, 0.0, 2.0, 0.0, 1.0, 0.0, 1.0, 0.0, 1.0, 1.0, 0.0, 0.0, 0.0, 0.0, 0.0, 2.0, 0.0, 0.0, 3.0], "bins": [-0.6426640152931213, -0.6229197978973389, -0.6031756401062012, -0.5834314823150635, -0.563687264919281, -0.5439430475234985, -0.5241988897323608, -0.5044547319412231, -0.4847105145454407, -0.4649663269519806, -0.4452221393585205, -0.4254779517650604, -0.40573376417160034, -0.38598957657814026, -0.3662453889846802, -0.3465012013912201, -0.32675701379776, -0.3070128262042999, -0.28726863861083984, -0.26752445101737976, -0.24778026342391968, -0.2280360758304596, -0.2082918882369995, -0.18854770064353943, -0.16880351305007935, -0.14905932545661926, -0.12931513786315918, -0.1095709502696991, -0.08982676267623901, -0.07008257508277893, -0.05033838748931885, -0.030594199895858765, -0.010849952697753906, 0.008894234895706177, 0.02863842248916626, 0.04838261008262634, 0.06812679767608643, 0.08787098526954651, 0.10761517286300659, 0.12735936045646667, 0.14710354804992676, 0.16684773564338684, 0.18659192323684692, 0.206336110830307, 0.2260802984237671, 0.24582448601722717, 0.26556867361068726, 0.28531286120414734, 0.3050570487976074, 0.3248012363910675, 0.3445454239845276, 0.36428961157798767, 0.38403379917144775, 0.40377798676490784, 0.4235221743583679, 0.443266361951828, 0.4630105495452881, 0.48275473713874817, 0.5024989247322083, 0.5222431421279907, 0.5419872999191284, 0.5617314577102661, 0.5814756751060486, 0.601219892501831, 0.6209640502929688]}, "parameters/attention_1.att_r": {"_type": "histogram", "values": [2.0, 0.0, 1.0, 1.0, 1.0, 1.0, 0.0, 0.0, 1.0, 0.0, 0.0, 0.0, 0.0, 2.0, 1.0, 0.0, 2.0, 0.0, 0.0, 3.0, 0.0, 0.0, 1.0, 0.0, 2.0, 1.0, 0.0, 2.0, 0.0, 2.0, 1.0, 1.0, 0.0, 1.0, 0.0, 0.0, 0.0, 0.0, 1.0, 0.0, 0.0, 0.0, 0.0, 1.0, 0.0, 0.0, 1.0, 2.0, 0.0, 0.0, 0.0, 1.0, 0.0, 0.0, 1.0, 1.0, 0.0, 0.0, 2.0, 1.0, 0.0, 2.0, 0.0, 1.0], "bins": [-0.5829064846038818, -0.564047634601593, -0.5451887845993042, -0.5263299345970154, -0.5074710845947266, -0.48861223459243774, -0.4697533845901489, -0.4508945345878601, -0.4320356845855713, -0.41317683458328247, -0.39431798458099365, -0.37545913457870483, -0.356600284576416, -0.3377414345741272, -0.3188825845718384, -0.30002373456954956, -0.28116488456726074, -0.2623060345649719, -0.2434471845626831, -0.2245883345603943, -0.20572948455810547, -0.18687063455581665, -0.16801178455352783, -0.149152934551239, -0.1302940845489502, -0.11143523454666138, -0.09257638454437256, -0.07371753454208374, -0.05485868453979492, -0.035999834537506104, -0.017140984535217285, 0.0017178654670715332, 0.020576655864715576, 0.039435505867004395, 0.05829435586929321, 0.07715320587158203, 0.09601205587387085, 0.11487090587615967, 0.1337297558784485, 0.1525886058807373, 0.17144745588302612, 0.19030630588531494, 0.20916515588760376, 0.22802400588989258, 0.2468828558921814, 0.2657417058944702, 0.28460055589675903, 0.30345940589904785, 0.32231825590133667, 0.3411771059036255, 0.3600359559059143, 0.3788948059082031, 0.39775365591049194, 0.41661250591278076, 0.4354713559150696, 0.4543302059173584, 0.4731890559196472, 0.49204790592193604, 0.5109067559242249, 0.5297656059265137, 0.5486244559288025, 0.5674833059310913, 0.5863421559333801, 0.605201005935669, 0.6240598559379578]}, "parameters/attention_1.bias": {"_type": "histogram", "values": [0.0, 0.0, 0.0, 0.0, 0.0, 0.0, 0.0, 0.0, 0.0, 0.0, 0.0, 0.0, 0.0, 0.0, 0.0, 0.0, 0.0, 0.0, 0.0, 0.0, 0.0, 0.0, 0.0, 0.0, 0.0, 0.0, 0.0, 0.0, 0.0, 0.0, 0.0, 0.0, 40.0, 0.0, 0.0, 0.0, 0.0, 0.0, 0.0, 0.0, 0.0, 0.0, 0.0, 0.0, 0.0, 0.0, 0.0, 0.0, 0.0, 0.0, 0.0, 0.0, 0.0, 0.0, 0.0, 0.0, 0.0, 0.0, 0.0, 0.0, 0.0, 0.0, 0.0, 0.0], "bins": [0.0, 0.0, 0.0, 0.0, 0.0, 0.0, 0.0, 0.0, 0.0, 0.0, 0.0, 0.0, 0.0, 0.0, 0.0, 0.0, 0.0, 0.0, 0.0, 0.0, 0.0, 0.0, 0.0, 0.0, 0.0, 0.0, 0.0, 0.0, 0.0, 0.0, 0.0, 0.0, 0.0, 0.0, 0.0, 0.0, 0.0, 0.0, 0.0, 0.0, 0.0, 0.0, 0.0, 0.0, 0.0, 0.0, 0.0, 0.0, 0.0, 0.0, 0.0, 0.0, 0.0, 0.0, 0.0, 0.0, 0.0, 0.0, 0.0, 0.0, 0.0, 0.0, 0.0, 0.0, 0.0]}, "parameters/attention_1.lin_l.weight": {"_type": "histogram", "values": [26.0, 20.0, 19.0, 33.0, 33.0, 19.0, 22.0, 28.0, 27.0, 22.0, 28.0, 28.0, 25.0, 26.0, 25.0, 35.0, 24.0, 27.0, 24.0, 36.0, 30.0, 17.0, 25.0, 22.0, 22.0, 17.0, 26.0, 27.0, 28.0, 20.0, 9.0, 27.0, 23.0, 30.0, 22.0, 26.0, 28.0, 23.0, 17.0, 33.0, 29.0, 27.0, 20.0, 25.0, 23.0, 30.0, 25.0, 27.0, 21.0, 27.0, 36.0, 26.0, 30.0, 22.0, 25.0, 27.0, 13.0, 21.0, 21.0, 24.0, 17.0, 28.0, 29.0, 28.0], "bins": [-0.2737492024898529, -0.26519522070884705, -0.2566412389278412, -0.24808725714683533, -0.23953327536582947, -0.2309792935848236, -0.22242532670497894, -0.21387134492397308, -0.20531736314296722, -0.19676338136196136, -0.1882093995809555, -0.17965541779994965, -0.17110145092010498, -0.16254746913909912, -0.15399348735809326, -0.1454395055770874, -0.13688552379608154, -0.12833154201507568, -0.11977756023406982, -0.11122358590364456, -0.1026696041226387, -0.09411562234163284, -0.08556164801120758, -0.07700766623020172, -0.06845368444919586, -0.05989970266819, -0.05134572461247444, -0.04279174655675888, -0.03423776477575302, -0.025683782994747162, -0.0171298049390316, -0.00857582688331604, -2.1845102310180664e-05, 0.00853213481605053, 0.01708611473441124, 0.02564009465277195, 0.03419407457113266, 0.04274805635213852, 0.05130203440785408, 0.05985601246356964, 0.0684099942445755, 0.07696397602558136, 0.08551795780658722, 0.09407193213701248, 0.10262591391801834, 0.1111798956990242, 0.11973387002944946, 0.12828785181045532, 0.13684183359146118, 0.14539581537246704, 0.1539497971534729, 0.16250377893447876, 0.17105776071548462, 0.17961174249649048, 0.18816570937633514, 0.196719691157341, 0.20527367293834686, 0.21382765471935272, 0.22238163650035858, 0.23093561828136444, 0.2394895851612091, 0.24804356694221497, 0.2565975487232208, 0.2651515305042267, 0.27370551228523254]}, "parameters/attention_2.att_l": {"_type": "histogram", "values": [1.0, 0.0, 0.0, 3.0, 0.0, 0.0, 2.0, 1.0, 0.0, 1.0, 2.0, 1.0, 1.0, 1.0, 1.0, 0.0, 0.0, 0.0, 2.0, 0.0, 1.0, 0.0, 0.0, 1.0, 1.0, 0.0, 1.0, 0.0, 1.0, 0.0, 0.0, 0.0, 1.0, 1.0, 0.0, 2.0, 0.0, 1.0, 0.0, 0.0, 1.0, 1.0, 0.0, 2.0, 1.0, 0.0, 0.0, 0.0, 1.0, 0.0, 0.0, 0.0, 1.0, 1.0, 0.0, 1.0, 1.0, 1.0, 0.0, 1.0, 0.0, 0.0, 0.0, 2.0], "bins": [-0.637992799282074, -0.6181765794754028, -0.5983603596687317, -0.5785441398620605, -0.5587279200553894, -0.5389117002487183, -0.5190954804420471, -0.49927929043769836, -0.4794630706310272, -0.4596468508243561, -0.43983063101768494, -0.4200144112110138, -0.40019822120666504, -0.3803820013999939, -0.36056578159332275, -0.3407495617866516, -0.32093334197998047, -0.3011171221733093, -0.2813009023666382, -0.26148468255996704, -0.2416684776544571, -0.22185225784778595, -0.202036052942276, -0.18221983313560486, -0.16240361332893372, -0.14258739352226257, -0.12277118116617203, -0.10295496881008148, -0.08313874900341034, -0.0633225291967392, -0.04350631684064865, -0.023690104484558105, -0.003873884677886963, 0.01594233140349388, 0.035758547484874725, 0.05557476356625557, 0.07539097964763641, 0.09520719945430756, 0.1150234118103981, 0.13483962416648865, 0.1546558439731598, 0.17447206377983093, 0.19428828358650208, 0.21410448849201202, 0.23392070829868317, 0.2537369132041931, 0.27355313301086426, 0.2933693528175354, 0.31318557262420654, 0.3330017924308777, 0.35281801223754883, 0.37263423204421997, 0.3924504518508911, 0.41226667165756226, 0.432082861661911, 0.45189908146858215, 0.4717153012752533, 0.49153152108192444, 0.5113477110862732, 0.5311639308929443, 0.5509801506996155, 0.5707963705062866, 0.5906125903129578, 0.6104288101196289, 0.6302450299263]}, "parameters/attention_2.att_r": {"_type": "histogram", "values": [1.0, 0.0, 1.0, 1.0, 0.0, 0.0, 3.0, 0.0, 0.0, 0.0, 1.0, 1.0, 0.0, 0.0, 1.0, 0.0, 0.0, 0.0, 0.0, 0.0, 1.0, 1.0, 1.0, 0.0, 0.0, 0.0, 1.0, 0.0, 2.0, 0.0, 2.0, 1.0, 0.0, 1.0, 0.0, 1.0, 0.0, 0.0, 1.0, 0.0, 1.0, 1.0, 0.0, 1.0, 0.0, 1.0, 0.0, 2.0, 1.0, 0.0, 0.0, 1.0, 2.0, 1.0, 1.0, 1.0, 0.0, 1.0, 1.0, 0.0, 1.0, 1.0, 1.0, 1.0], "bins": [-0.589513897895813, -0.5703033804893494, -0.5510928630828857, -0.5318823456764221, -0.5126718282699585, -0.4934613108634949, -0.47425079345703125, -0.4550402760505676, -0.435829758644104, -0.4166192412376404, -0.39740872383117676, -0.37819820642471313, -0.3589876890182495, -0.3397771716117859, -0.32056665420532227, -0.30135613679885864, -0.282145619392395, -0.2629351019859314, -0.24372458457946777, -0.22451406717300415, -0.20530354976654053, -0.1860930323600769, -0.16688251495361328, -0.14767199754714966, -0.12846148014068604, -0.10925096273422241, -0.09004044532775879, -0.07082992792129517, -0.05161941051483154, -0.03240889310836792, -0.013198375701904297, 0.006012141704559326, 0.025222718715667725, 0.04443323612213135, 0.06364375352859497, 0.0828542709350586, 0.10206478834152222, 0.12127530574798584, 0.14048582315444946, 0.15969634056091309, 0.1789068579673767, 0.19811737537384033, 0.21732789278030396, 0.23653841018676758, 0.2557489275932312, 0.2749594449996948, 0.29416996240615845, 0.31338047981262207, 0.3325909972190857, 0.3518015146255493, 0.37101203203201294, 0.39022254943847656, 0.4094330668449402, 0.4286435842514038, 0.44785410165786743, 0.46706461906433105, 0.4862751364707947, 0.5054856538772583, 0.5246961712837219, 0.5439066886901855, 0.5631172060966492, 0.5823277235031128, 0.6015382409095764, 0.62074875831604, 0.6399592757225037]}, "parameters/attention_2.bias": {"_type": "histogram", "values": [0.0, 0.0, 0.0, 0.0, 0.0, 0.0, 0.0, 0.0, 0.0, 0.0, 0.0, 0.0, 0.0, 0.0, 0.0, 0.0, 0.0, 0.0, 0.0, 0.0, 0.0, 0.0, 0.0, 0.0, 0.0, 0.0, 0.0, 0.0, 0.0, 0.0, 0.0, 0.0, 40.0, 0.0, 0.0, 0.0, 0.0, 0.0, 0.0, 0.0, 0.0, 0.0, 0.0, 0.0, 0.0, 0.0, 0.0, 0.0, 0.0, 0.0, 0.0, 0.0, 0.0, 0.0, 0.0, 0.0, 0.0, 0.0, 0.0, 0.0, 0.0, 0.0, 0.0, 0.0], "bins": [0.0, 0.0, 0.0, 0.0, 0.0, 0.0, 0.0, 0.0, 0.0, 0.0, 0.0, 0.0, 0.0, 0.0, 0.0, 0.0, 0.0, 0.0, 0.0, 0.0, 0.0, 0.0, 0.0, 0.0, 0.0, 0.0, 0.0, 0.0, 0.0, 0.0, 0.0, 0.0, 0.0, 0.0, 0.0, 0.0, 0.0, 0.0, 0.0, 0.0, 0.0, 0.0, 0.0, 0.0, 0.0, 0.0, 0.0, 0.0, 0.0, 0.0, 0.0, 0.0, 0.0, 0.0, 0.0, 0.0, 0.0, 0.0, 0.0, 0.0, 0.0, 0.0, 0.0, 0.0, 0.0]}, "parameters/attention_2.lin_l.weight": {"_type": "histogram", "values": [26.0, 22.0, 24.0, 22.0, 33.0, 22.0, 28.0, 21.0, 30.0, 27.0, 27.0, 24.0, 32.0, 22.0, 20.0, 25.0, 25.0, 29.0, 24.0, 32.0, 24.0, 19.0, 28.0, 19.0, 16.0, 33.0, 17.0, 21.0, 26.0, 27.0, 28.0, 28.0, 16.0, 29.0, 26.0, 31.0, 22.0, 20.0, 25.0, 14.0, 27.0, 29.0, 18.0, 32.0, 25.0, 33.0, 35.0, 20.0, 22.0, 28.0, 24.0, 24.0, 36.0, 31.0, 23.0, 27.0, 24.0, 18.0, 23.0, 25.0, 25.0, 17.0, 29.0, 21.0], "bins": [-0.27348875999450684, -0.26494842767715454, -0.25640806555747986, -0.24786773324012756, -0.23932738602161407, -0.23078703880310059, -0.2222467064857483, -0.2137063592672348, -0.2051660120487213, -0.19662566483020782, -0.18808533251285553, -0.17954498529434204, -0.17100463807582855, -0.16246429085731506, -0.15392395853996277, -0.14538361132144928, -0.13684327900409698, -0.1283029317855835, -0.1197625920176506, -0.11122225224971771, -0.10268190503120422, -0.09414156526327133, -0.08560122549533844, -0.07706087827682495, -0.06852053850889206, -0.05998019501566887, -0.05143985152244568, -0.04289951175451279, -0.0343591682612896, -0.025818824768066406, -0.017278485000133514, -0.008738141506910324, -0.0001977980136871338, 0.008342544548213482, 0.016882887110114098, 0.02542322874069214, 0.03396357223391533, 0.04250391572713852, 0.05104425549507141, 0.0595845989882946, 0.06812494248151779, 0.07666528224945068, 0.08520562946796417, 0.09374596923589706, 0.10228630900382996, 0.11082665622234344, 0.11936699599027634, 0.12790733575820923, 0.13644768297672272, 0.1449880301952362, 0.1535283625125885, 0.162068709731102, 0.17060905694961548, 0.17914938926696777, 0.18768973648548126, 0.19623008370399475, 0.20477041602134705, 0.21331076323986053, 0.22185109555721283, 0.23039144277572632, 0.2389317899942398, 0.2474721372127533, 0.2560124695301056, 0.2645528018474579, 0.27309316396713257]}, "parameters/out_att.att_l": {"_type": "histogram", "values": [0.0, 0.0, 0.0, 0.0, 0.0, 0.0, 0.0, 0.0, 0.0, 0.0, 0.0, 0.0, 0.0, 0.0, 0.0, 0.0, 0.0, 0.0, 0.0, 0.0, 0.0, 0.0, 0.0, 0.0, 0.0, 0.0, 0.0, 0.0, 0.0, 0.0, 0.0, 0.0, 1.0, 0.0, 0.0, 0.0, 0.0, 0.0, 0.0, 0.0, 0.0, 0.0, 0.0, 0.0, 0.0, 0.0, 0.0, 0.0, 0.0, 0.0, 0.0, 0.0, 0.0, 0.0, 0.0, 0.0, 0.0, 0.0, 0.0, 0.0, 0.0, 0.0, 0.0, 0.0], "bins": [-0.4638986885547638, -0.4638986885547638, -0.4638986885547638, -0.4638986885547638, -0.4638986885547638, -0.4638986885547638, -0.4638986885547638, -0.4638986885547638, -0.4638986885547638, -0.4638986885547638, -0.4638986885547638, -0.4638986885547638, -0.4638986885547638, -0.4638986885547638, -0.4638986885547638, -0.4638986885547638, -0.4638986885547638, -0.4638986885547638, -0.4638986885547638, -0.4638986885547638, -0.4638986885547638, -0.4638986885547638, -0.4638986885547638, -0.4638986885547638, -0.4638986885547638, -0.4638986885547638, -0.4638986885547638, -0.4638986885547638, -0.4638986885547638, -0.4638986885547638, -0.4638986885547638, -0.4638986885547638, -0.4638986885547638, -0.4638986885547638, -0.4638986885547638, -0.4638986885547638, -0.4638986885547638, -0.4638986885547638, -0.4638986885547638, -0.4638986885547638, -0.4638986885547638, -0.4638986885547638, -0.4638986885547638, -0.4638986885547638, -0.4638986885547638, -0.4638986885547638, -0.4638986885547638, -0.4638986885547638, -0.4638986885547638, -0.4638986885547638, -0.4638986885547638, -0.4638986885547638, -0.4638986885547638, -0.4638986885547638, -0.4638986885547638, -0.4638986885547638, -0.4638986885547638, -0.4638986885547638, -0.4638986885547638, -0.4638986885547638, -0.4638986885547638, -0.4638986885547638, -0.4638986885547638, -0.4638986885547638, -0.4638986885547638]}, "parameters/out_att.att_r": {"_type": "histogram", "values": [0.0, 0.0, 0.0, 0.0, 0.0, 0.0, 0.0, 0.0, 0.0, 0.0, 0.0, 0.0, 0.0, 0.0, 0.0, 0.0, 0.0, 0.0, 0.0, 0.0, 0.0, 0.0, 0.0, 0.0, 0.0, 0.0, 0.0, 0.0, 0.0, 0.0, 0.0, 0.0, 1.0, 0.0, 0.0, 0.0, 0.0, 0.0, 0.0, 0.0, 0.0, 0.0, 0.0, 0.0, 0.0, 0.0, 0.0, 0.0, 0.0, 0.0, 0.0, 0.0, 0.0, 0.0, 0.0, 0.0, 0.0, 0.0, 0.0, 0.0, 0.0, 0.0, 0.0, 0.0], "bins": [1.1588366031646729, 1.1588366031646729, 1.1588366031646729, 1.1588366031646729, 1.1588366031646729, 1.1588366031646729, 1.1588366031646729, 1.1588366031646729, 1.1588366031646729, 1.1588366031646729, 1.1588366031646729, 1.1588366031646729, 1.1588366031646729, 1.1588366031646729, 1.1588366031646729, 1.1588366031646729, 1.1588366031646729, 1.1588366031646729, 1.1588366031646729, 1.1588366031646729, 1.1588366031646729, 1.1588366031646729, 1.1588366031646729, 1.1588366031646729, 1.1588366031646729, 1.1588366031646729, 1.1588366031646729, 1.1588366031646729, 1.1588366031646729, 1.1588366031646729, 1.1588366031646729, 1.1588366031646729, 1.1588366031646729, 1.1588366031646729, 1.1588366031646729, 1.1588366031646729, 1.1588366031646729, 1.1588366031646729, 1.1588366031646729, 1.1588366031646729, 1.1588366031646729, 1.1588366031646729, 1.1588366031646729, 1.1588366031646729, 1.1588366031646729, 1.1588366031646729, 1.1588366031646729, 1.1588366031646729, 1.1588366031646729, 1.1588366031646729, 1.1588366031646729, 1.1588366031646729, 1.1588366031646729, 1.1588366031646729, 1.1588366031646729, 1.1588366031646729, 1.1588366031646729, 1.1588366031646729, 1.1588366031646729, 1.1588366031646729, 1.1588366031646729, 1.1588366031646729, 1.1588366031646729, 1.1588366031646729, 1.1588366031646729]}, "parameters/out_att.bias": {"_type": "histogram", "values": [0.0, 0.0, 0.0, 0.0, 0.0, 0.0, 0.0, 0.0, 0.0, 0.0, 0.0, 0.0, 0.0, 0.0, 0.0, 0.0, 0.0, 0.0, 0.0, 0.0, 0.0, 0.0, 0.0, 0.0, 0.0, 0.0, 0.0, 0.0, 0.0, 0.0, 0.0, 0.0, 1.0, 0.0, 0.0, 0.0, 0.0, 0.0, 0.0, 0.0, 0.0, 0.0, 0.0, 0.0, 0.0, 0.0, 0.0, 0.0, 0.0, 0.0, 0.0, 0.0, 0.0, 0.0, 0.0, 0.0, 0.0, 0.0, 0.0, 0.0, 0.0, 0.0, 0.0, 0.0], "bins": [0.0, 0.0, 0.0, 0.0, 0.0, 0.0, 0.0, 0.0, 0.0, 0.0, 0.0, 0.0, 0.0, 0.0, 0.0, 0.0, 0.0, 0.0, 0.0, 0.0, 0.0, 0.0, 0.0, 0.0, 0.0, 0.0, 0.0, 0.0, 0.0, 0.0, 0.0, 0.0, 0.0, 0.0, 0.0, 0.0, 0.0, 0.0, 0.0, 0.0, 0.0, 0.0, 0.0, 0.0, 0.0, 0.0, 0.0, 0.0, 0.0, 0.0, 0.0, 0.0, 0.0, 0.0, 0.0, 0.0, 0.0, 0.0, 0.0, 0.0, 0.0, 0.0, 0.0, 0.0, 0.0]}, "parameters/out_att.lin_l.weight": {"_type": "histogram", "values": [1.0, 0.0, 1.0, 0.0, 0.0, 1.0, 2.0, 2.0, 0.0, 0.0, 0.0, 1.0, 0.0, 1.0, 0.0, 0.0, 1.0, 0.0, 1.0, 3.0, 0.0, 1.0, 1.0, 1.0, 0.0, 1.0, 0.0, 1.0, 0.0, 0.0, 0.0, 0.0, 1.0, 3.0, 0.0, 1.0, 0.0, 1.0, 1.0, 1.0, 1.0, 1.0, 0.0, 0.0, 3.0, 1.0, 0.0, 0.0, 1.0, 0.0, 1.0, 0.0, 2.0, 1.0, 0.0, 0.0, 0.0, 0.0, 0.0, 0.0, 0.0, 1.0, 0.0, 1.0], "bins": [-0.3579080402851105, -0.3470289707183838, -0.3361499011516571, -0.3252708613872528, -0.3143917918205261, -0.30351272225379944, -0.29263365268707275, -0.28175461292266846, -0.2708755433559418, -0.2599964737892151, -0.2491174191236496, -0.2382383495569229, -0.22735929489135742, -0.21648022532463074, -0.20560115575790405, -0.19472210109233856, -0.18384303152561188, -0.1729639619588852, -0.1620849072933197, -0.15120583772659302, -0.14032678306102753, -0.12944771349430084, -0.11856865137815475, -0.10768958926200867, -0.09681052714586258, -0.08593146502971649, -0.0750524029135704, -0.06417334079742432, -0.05329427495598793, -0.04241521283984184, -0.03153614699840546, -0.02065708488225937, -0.009778022766113281, 0.001101040281355381, 0.011980103328824043, 0.02285916730761528, 0.03373822942376137, 0.044617291539907455, 0.05549635738134384, 0.06637541949748993, 0.07725448161363602, 0.0881335437297821, 0.09901260584592819, 0.10989166796207428, 0.12077073752880096, 0.13164979219436646, 0.14252886176109314, 0.15340793132781982, 0.16428698599338531, 0.175166055560112, 0.1860451102256775, 0.19692417979240417, 0.20780323445796967, 0.21868230402469635, 0.22956135869026184, 0.24044042825698853, 0.2513194978237152, 0.2621985673904419, 0.2730776369571686, 0.2839566767215729, 0.29483574628829956, 0.30571481585502625, 0.31659388542175293, 0.3274729251861572, 0.3383519947528839]}, "_runtime": 24, "_timestamp": 1638805194, "_step": 0, "_wandb": {"runtime": 24}}