{"parameters/attention_0.att_l": {"_type": "histogram", "values": [3.0, 0.0, 0.0, 4.0, 0.0, 0.0, 1.0, 0.0, 0.0, 1.0, 1.0, 1.0, 0.0, 1.0, 1.0, 0.0, 0.0, 0.0, 0.0, 0.0, 3.0, 1.0, 0.0, 3.0, 1.0, 0.0, 2.0, 0.0, 0.0, 2.0, 0.0, 0.0, 1.0, 1.0, 0.0, 1.0, 1.0, 2.0, 1.0, 0.0, 0.0, 2.0, 2.0, 0.0, 1.0, 0.0, 0.0, 0.0, 0.0, 0.0, 1.0, 0.0, 0.0, 1.0, 0.0, 0.0, 0.0, 0.0, 0.0, 0.0, 0.0, 0.0, 0.0, 1.0], "bins": [-0.6221410036087036, -0.5966556072235107, -0.5711701512336731, -0.5456847548484802, -0.5201993584632874, -0.4947139322757721, -0.46922850608825684, -0.44374310970306396, -0.4182576835155487, -0.39277225732803345, -0.3672868609428406, -0.3418014347553253, -0.31631600856781006, -0.2908306121826172, -0.26534518599510193, -0.23985977470874786, -0.2143743634223938, -0.18888895213603973, -0.16340354084968567, -0.1379181146621704, -0.11243270337581635, -0.08694729208946228, -0.06146186590194702, -0.03597645461559296, -0.010491043329238892, 0.014994371682405472, 0.040479786694049835, 0.0659652054309845, 0.09145061671733856, 0.11693602800369263, 0.14242145419120789, 0.16790686547756195, 0.19339227676391602, 0.21887768805027008, 0.24436309933662415, 0.2698485255241394, 0.2953339219093323, 0.32081934809684753, 0.3463047742843628, 0.37179017066955566, 0.3972755968570709, 0.4227610230445862, 0.44824641942977905, 0.4737318456172943, 0.49921727180480957, 0.5247026681900024, 0.5501880645751953, 0.575673520565033, 0.6011589169502258, 0.6266443133354187, 0.6521297693252563, 0.6776151657104492, 0.7031005620956421, 0.728585958480835, 0.7540714144706726, 0.7795568108558655, 0.8050422668457031, 0.830527663230896, 0.8560131192207336, 0.8814985156059265, 0.9069839119911194, 0.932469367980957, 0.9579547643661499, 0.9834401607513428, 1.0089255571365356]}, "parameters/attention_0.att_r": {"_type": "histogram", "values": [1.0, 1.0, 2.0, 0.0, 0.0, 0.0, 0.0, 0.0, 1.0, 0.0, 1.0, 0.0, 0.0, 0.0, 0.0, 1.0, 0.0, 0.0, 0.0, 0.0, 1.0, 1.0, 1.0, 0.0, 2.0, 0.0, 2.0, 2.0, 0.0, 1.0, 2.0, 1.0, 0.0, 2.0, 0.0, 0.0, 0.0, 0.0, 1.0, 1.0, 1.0, 0.0, 0.0, 2.0, 0.0, 0.0, 0.0, 1.0, 1.0, 0.0, 1.0, 1.0, 1.0, 2.0, 1.0, 0.0, 0.0, 0.0, 0.0, 0.0, 1.0, 2.0, 0.0, 2.0], "bins": [-0.7553240656852722, -0.7312324047088623, -0.7071406841278076, -0.6830490231513977, -0.658957302570343, -0.6348656415939331, -0.6107739210128784, -0.5866822600364685, -0.5625905990600586, -0.5384989380836487, -0.514407217502594, -0.4903155565261841, -0.4662238359451294, -0.4421321749687195, -0.4180404841899872, -0.3939487934112549, -0.3698570728302002, -0.3457653820514679, -0.3216736912727356, -0.2975820302963257, -0.273490309715271, -0.2493986338376999, -0.22530695796012878, -0.20121526718139648, -0.17712357640266418, -0.15303188562393188, -0.12894019484519958, -0.10484851896762848, -0.08075682818889618, -0.05666513741016388, -0.03257346153259277, -0.008481770753860474, 0.015609979629516602, 0.0397016666829586, 0.0637933537364006, 0.08788503706455231, 0.1119767278432846, 0.1360684186220169, 0.160160094499588, 0.1842517852783203, 0.2083434760570526, 0.2324351668357849, 0.2565268576145172, 0.2806185483932495, 0.3047102093696594, 0.3288019299507141, 0.352893590927124, 0.3769852817058563, 0.4010769724845886, 0.4251686632633209, 0.4492603540420532, 0.47335201501846313, 0.4974437355995178, 0.5215353965759277, 0.5456271171569824, 0.5697187781333923, 0.5938104391098022, 0.6179021000862122, 0.6419938206672668, 0.6660854816436768, 0.6901772022247314, 0.7142688632011414, 0.7383605241775513, 0.762452244758606, 0.7865439653396606]}, "parameters/attention_0.bias": {"_type": "histogram", "values": [1.0, 1.0, 0.0, 0.0, 0.0, 0.0, 0.0, 0.0, 1.0, 0.0, 0.0, 0.0, 1.0, 0.0, 0.0, 1.0, 2.0, 0.0, 1.0, 1.0, 0.0, 1.0, 2.0, 1.0, 2.0, 3.0, 0.0, 2.0, 2.0, 0.0, 1.0, 2.0, 1.0, 1.0, 0.0, 2.0, 1.0, 1.0, 0.0, 0.0, 1.0, 0.0, 0.0, 0.0, 1.0, 0.0, 0.0, 1.0, 1.0, 2.0, 0.0, 1.0, 0.0, 0.0, 0.0, 0.0, 0.0, 0.0, 0.0, 1.0, 0.0, 0.0, 0.0, 1.0], "bins": [-0.4052339494228363, -0.39195552468299866, -0.3786770701408386, -0.365398645401001, -0.35212022066116333, -0.3388417661190033, -0.32556334137916565, -0.3122848868370056, -0.29900646209716797, -0.2857280373573303, -0.2724495828151703, -0.25917115807533264, -0.2458927184343338, -0.23261427879333496, -0.21933585405349731, -0.20605741441249847, -0.19277898967266083, -0.179500550031662, -0.16622212529182434, -0.1529436856508255, -0.13966524600982666, -0.126386821269989, -0.11310838162899017, -0.09982994198799133, -0.08655150979757309, -0.07327307760715485, -0.059994637966156006, -0.04671620577573776, -0.03343776986002922, -0.02015933394432068, -0.006880901753902435, 0.006397537887096405, 0.01967597007751465, 0.03295440599322319, 0.04623284190893173, 0.059511274099349976, 0.07278971374034882, 0.08606814593076706, 0.0993465781211853, 0.11262501776218414, 0.12590345740318298, 0.13918189704418182, 0.15246032178401947, 0.1657387614250183, 0.17901720106601715, 0.192295640707016, 0.20557406544685364, 0.21885250508785248, 0.23213092982769012, 0.24540936946868896, 0.2586877942085266, 0.27196621894836426, 0.2852446734905243, 0.29852309823036194, 0.311801552772522, 0.3250799775123596, 0.33835840225219727, 0.3516368269920349, 0.36491528153419495, 0.3781937062740326, 0.39147213101387024, 0.4047505855560303, 0.4180290102958679, 0.43130743503570557, 0.4445858895778656]}, "parameters/attention_0.lin_l.weight": {"_type": "histogram", "values": [2.0, 3.0, 6.0, 3.0, 5.0, 6.0, 1.0, 2.0, 6.0, 5.0, 9.0, 10.0, 12.0, 16.0, 13.0, 9.0, 12.0, 8.0, 15.0, 19.0, 12.0, 19.0, 19.0, 18.0, 15.0, 15.0, 8.0, 15.0, 15.0, 12.0, 15.0, 17.0, 16.0, 12.0, 17.0, 20.0, 16.0, 15.0, 11.0, 13.0, 11.0, 14.0, 7.0, 14.0, 8.0, 7.0, 5.0, 4.0, 7.0, 3.0, 3.0, 4.0, 3.0, 3.0, 0.0, 2.0, 2.0, 0.0, 0.0, 0.0, 0.0, 0.0, 0.0, 1.0], "bins": [-0.49929484724998474, -0.48130059242248535, -0.4633063077926636, -0.4453120529651642, -0.4273177981376648, -0.409323513507843, -0.39132925868034363, -0.37333500385284424, -0.35534071922302246, -0.33734646439552307, -0.3193521797657013, -0.3013579249382019, -0.2833636701107025, -0.2653694152832031, -0.24737513065338135, -0.22938087582588196, -0.21138662099838257, -0.19339235126972198, -0.1753980964422226, -0.157403826713562, -0.13940957188606262, -0.12141530215740204, -0.10342103242874146, -0.08542677760124207, -0.06743250787258148, -0.049438245594501495, -0.03144397959113121, -0.013449713587760925, 0.004544548690319061, 0.022538810968399048, 0.04053308069705963, 0.05852733552455902, 0.07652163505554199, 0.09451589733362198, 0.11251015961170197, 0.13050442934036255, 0.14849868416786194, 0.16649295389652252, 0.1844872236251831, 0.2024814784526825, 0.22047574818134308, 0.23847001791000366, 0.25646427273750305, 0.27445852756500244, 0.2924528121948242, 0.3104470670223236, 0.328441321849823, 0.3464356064796448, 0.36442986130714417, 0.38242411613464355, 0.40041840076446533, 0.4184126555919647, 0.4364069104194641, 0.4544011950492859, 0.4723954498767853, 0.49038970470428467, 0.5083839893341064, 0.5263782739639282, 0.5443724989891052, 0.562366783618927, 0.5803610682487488, 0.5983552932739258, 0.6163495779037476, 0.6343438625335693, 0.6523380875587463]}, "parameters/attention_1.att_l": {"_type": "histogram", "values": [1.0, 0.0, 0.0, 0.0, 0.0, 0.0, 0.0, 0.0, 0.0, 0.0, 1.0, 0.0, 0.0, 0.0, 1.0, 1.0, 2.0, 2.0, 0.0, 3.0, 1.0, 0.0, 0.0, 2.0, 0.0, 0.0, 1.0, 2.0, 0.0, 0.0, 0.0, 0.0, 1.0, 0.0, 2.0, 1.0, 0.0, 2.0, 0.0, 0.0, 0.0, 0.0, 1.0, 0.0, 2.0, 0.0, 1.0, 1.0, 2.0, 1.0, 0.0, 0.0, 1.0, 2.0, 0.0, 1.0, 0.0, 2.0, 2.0, 0.0, 0.0, 0.0, 0.0, 1.0], "bins": [-1.0090980529785156, -0.9821994304656982, -0.9553008079528809, -0.9284021854400635, -0.9015035629272461, -0.8746049404144287, -0.8477063775062561, -0.8208077549934387, -0.7939091324806213, -0.767010509967804, -0.7401118874549866, -0.7132132649421692, -0.6863147020339966, -0.6594160795211792, -0.6325174570083618, -0.6056188344955444, -0.578720211982727, -0.5518215894699097, -0.5249229669570923, -0.4980243742465973, -0.4711257517337799, -0.4442271292209625, -0.41732853651046753, -0.39042991399765015, -0.36353129148483276, -0.3366326689720154, -0.309734046459198, -0.282835453748703, -0.2559368312358856, -0.22903820872306824, -0.20213960111141205, -0.17524099349975586, -0.1483423113822937, -0.12144369632005692, -0.09454508125782013, -0.06764646619558334, -0.04074785113334656, -0.013849228620529175, 0.013049378991127014, 0.0399479866027832, 0.06684660911560059, 0.09374522417783737, 0.12064383924007416, 0.14754244685173035, 0.17444106936454773, 0.2013396918773651, 0.2282382994890213, 0.2551369071006775, 0.2820355296134949, 0.30893415212631226, 0.33583277463912964, 0.36273136734962463, 0.389629989862442, 0.4165286123752594, 0.4434272050857544, 0.4703258275985718, 0.49722445011138916, 0.5241230726242065, 0.5510216951370239, 0.5779203176498413, 0.6048189401626587, 0.6317175626754761, 0.6586161255836487, 0.6855147480964661, 0.7124133706092834]}, "parameters/attention_1.att_r": {"_type": "histogram", "values": [1.0, 0.0, 0.0, 0.0, 0.0, 0.0, 0.0, 1.0, 0.0, 0.0, 0.0, 0.0, 1.0, 0.0, 1.0, 1.0, 3.0, 0.0, 0.0, 1.0, 1.0, 3.0, 0.0, 2.0, 1.0, 0.0, 2.0, 0.0, 2.0, 1.0, 1.0, 1.0, 4.0, 1.0, 1.0, 5.0, 0.0, 0.0, 0.0, 0.0, 0.0, 1.0, 1.0, 0.0, 0.0, 1.0, 0.0, 0.0, 0.0, 0.0, 0.0, 0.0, 0.0, 0.0, 0.0, 0.0, 0.0, 0.0, 0.0, 0.0, 2.0, 0.0, 0.0, 1.0], "bins": [-0.7730729579925537, -0.7468428015708923, -0.720612645149231, -0.6943824887275696, -0.6681523323059082, -0.6419221758842468, -0.6156920194625854, -0.5894618034362793, -0.5632317066192627, -0.5370015501976013, -0.5107713937759399, -0.48454123735427856, -0.4583110809326172, -0.4320809245109558, -0.40585073828697205, -0.37962058186531067, -0.3533903956413269, -0.3271602392196655, -0.30093008279800415, -0.2746999263763428, -0.2484697550535202, -0.22223959863185883, -0.19600942730903625, -0.16977927088737488, -0.1435491144657135, -0.11731895804405212, -0.09108879417181015, -0.06485863029956818, -0.0386284738779068, -0.012398317456245422, 0.013831853866577148, 0.040062010288238525, 0.06629210710525513, 0.0925222635269165, 0.11875242739915848, 0.14498259127140045, 0.17121274769306183, 0.1974429041147232, 0.22367307543754578, 0.24990323185920715, 0.27613338828086853, 0.3023635447025299, 0.3285937011241913, 0.35482388734817505, 0.3810540437698364, 0.4072842001914978, 0.4335143566131592, 0.45974451303482056, 0.48597466945648193, 0.5122048258781433, 0.5384349822998047, 0.5646651387214661, 0.5908952951431274, 0.6171254515647888, 0.6433556079864502, 0.6695858240127563, 0.695815920829773, 0.7220460772514343, 0.7482762336730957, 0.7745063900947571, 0.8007365465164185, 0.8269667029380798, 0.8531968593597412, 0.8794270753860474, 0.9056572318077087]}, "parameters/attention_1.bias": {"_type": "histogram", "values": [1.0, 0.0, 1.0, 0.0, 1.0, 0.0, 0.0, 0.0, 0.0, 2.0, 0.0, 0.0, 2.0, 2.0, 0.0, 1.0, 1.0, 1.0, 0.0, 2.0, 0.0, 1.0, 0.0, 1.0, 0.0, 0.0, 0.0, 1.0, 1.0, 2.0, 1.0, 0.0, 2.0, 0.0, 0.0, 1.0, 0.0, 1.0, 1.0, 2.0, 0.0, 0.0, 0.0, 1.0, 1.0, 0.0, 1.0, 0.0, 1.0, 1.0, 1.0, 1.0, 1.0, 0.0, 0.0, 0.0, 1.0, 1.0, 1.0, 0.0, 0.0, 0.0, 0.0, 1.0], "bins": [-0.45191267132759094, -0.43797290325164795, -0.42403313517570496, -0.41009336709976196, -0.3961535692214966, -0.382213830947876, -0.3682740330696106, -0.3543342649936676, -0.3403944969177246, -0.3264547288417816, -0.3125149607658386, -0.29857519268989563, -0.28463542461395264, -0.27069562673568726, -0.25675585865974426, -0.24281609058380127, -0.22887632250785828, -0.21493655443191528, -0.2009967863559723, -0.1870570033788681, -0.1731172353029251, -0.15917746722698212, -0.14523768424987793, -0.13129791617393494, -0.11735814809799194, -0.10341838002204895, -0.08947860449552536, -0.07553882896900177, -0.06159906089305878, -0.047659292817115784, -0.033719517290592194, -0.019779741764068604, -0.005840003490447998, 0.008099768310785294, 0.022039540112018585, 0.03597931191325188, 0.04991908371448517, 0.06385885179042816, 0.07779862731695175, 0.09173840284347534, 0.10567817091941833, 0.11961793899536133, 0.13355770707130432, 0.1474974900484085, 0.1614372581243515, 0.1753770262002945, 0.18931680917739868, 0.20325657725334167, 0.21719634532928467, 0.23113611340522766, 0.24507588148117065, 0.25901564955711365, 0.27295541763305664, 0.286895215511322, 0.300834983587265, 0.314774751663208, 0.328714519739151, 0.342654287815094, 0.356594055891037, 0.37053382396698, 0.38447362184524536, 0.39841336011886597, 0.41235315799713135, 0.42629292607307434, 0.44023269414901733]}, "parameters/attention_1.lin_l.weight": {"_type": "histogram", "values": [1.0, 2.0, 4.0, 2.0, 1.0, 5.0, 9.0, 11.0, 14.0, 17.0, 10.0, 14.0, 14.0, 23.0, 27.0, 27.0, 20.0, 28.0, 27.0, 29.0, 44.0, 35.0, 34.0, 44.0, 38.0, 45.0, 45.0, 48.0, 55.0, 51.0, 50.0, 50.0, 50.0, 54.0, 38.0, 46.0, 45.0, 52.0, 47.0, 44.0, 36.0, 26.0, 34.0, 31.0, 31.0, 37.0, 23.0, 29.0, 20.0, 21.0, 20.0, 16.0, 17.0, 10.0, 9.0, 10.0, 7.0, 9.0, 5.0, 4.0, 3.0, 1.0, 0.0, 1.0], "bins": [-0.5712640881538391, -0.553008496761322, -0.5347529053688049, -0.5164972543716431, -0.498241662979126, -0.4799860715866089, -0.4617304801940918, -0.4434748589992523, -0.42521923780441284, -0.40696364641189575, -0.3887080252170563, -0.3704524338245392, -0.3521968126296997, -0.3339412212371826, -0.3156856298446655, -0.29743000864982605, -0.27917441725730896, -0.26091882586479187, -0.2426632046699524, -0.2244076132774353, -0.20615199208259583, -0.18789640069007874, -0.16964079439640045, -0.15138518810272217, -0.13312958180904388, -0.1148739755153656, -0.09661836922168732, -0.07836277037858963, -0.060107164084911346, -0.04185155779123306, -0.023595958948135376, -0.005340352654457092, 0.012915253639221191, 0.031170858070254326, 0.04942646250128746, 0.06768206506967545, 0.08593767136335373, 0.10419327765703201, 0.1224488765001297, 0.14070448279380798, 0.15896008908748627, 0.17721569538116455, 0.19547130167484283, 0.21372690796852112, 0.2319824993610382, 0.2502381205558777, 0.2684937119483948, 0.28674930334091187, 0.30500492453575134, 0.32326051592826843, 0.3415161371231079, 0.359771728515625, 0.3780273497104645, 0.39628294110298157, 0.41453856229782104, 0.43279415369033813, 0.4510497450828552, 0.4693053364753723, 0.4875609576702118, 0.5058165788650513, 0.5240721702575684, 0.5423277616500854, 0.5605833530426025, 0.5788389444351196, 0.5970945954322815]}, "parameters/attention_2.att_l": {"_type": "histogram", "values": [1.0, 0.0, 0.0, 0.0, 1.0, 0.0, 0.0, 0.0, 0.0, 0.0, 0.0, 0.0, 2.0, 3.0, 0.0, 1.0, 0.0, 1.0, 0.0, 0.0, 4.0, 0.0, 0.0, 2.0, 1.0, 2.0, 1.0, 0.0, 3.0, 1.0, 0.0, 0.0, 1.0, 3.0, 2.0, 0.0, 0.0, 0.0, 0.0, 0.0, 1.0, 0.0, 0.0, 0.0, 1.0, 0.0, 0.0, 0.0, 1.0, 0.0, 1.0, 0.0, 0.0, 2.0, 1.0, 0.0, 0.0, 0.0, 1.0, 0.0, 0.0, 0.0, 1.0, 2.0], "bins": [-0.76444411277771, -0.7392875552177429, -0.7141309976577759, -0.6889744400978088, -0.6638178825378418, -0.6386613249778748, -0.6135047674179077, -0.5883481502532959, -0.5631916522979736, -0.5380350947380066, -0.5128785371780396, -0.4877219796180725, -0.46256542205810547, -0.4374088644981384, -0.412252277135849, -0.38709571957588196, -0.36193913221359253, -0.3367825746536255, -0.31162601709365845, -0.2864694595336914, -0.26131290197372437, -0.23615632951259613, -0.2109997570514679, -0.18584319949150085, -0.1606866419315338, -0.13553008437156677, -0.11037351936101913, -0.0852169543504715, -0.060060396790504456, -0.034903839230537415, -0.00974726676940918, 0.015409290790557861, 0.0405658483505249, 0.06572240591049194, 0.09087897092103958, 0.11603553593158722, 0.14119209349155426, 0.1663486510515213, 0.19150522351264954, 0.21666178107261658, 0.24181833863258362, 0.26697489619255066, 0.2921314537525177, 0.31728804111480713, 0.34244459867477417, 0.3676011562347412, 0.39275771379470825, 0.4179142713546753, 0.44307082891464233, 0.4682273864746094, 0.4933839440345764, 0.5185405015945435, 0.5436970591545105, 0.5688536167144775, 0.5940102338790894, 0.6191667318344116, 0.6443233489990234, 0.6694799065589905, 0.6946364641189575, 0.7197930216789246, 0.7449495792388916, 0.7701061367988586, 0.7952626943588257, 0.8204193115234375, 0.8455758094787598]}, "parameters/attention_2.att_r": {"_type": "histogram", "values": [1.0, 0.0, 0.0, 0.0, 0.0, 0.0, 0.0, 0.0, 1.0, 0.0, 0.0, 1.0, 1.0, 0.0, 0.0, 1.0, 1.0, 0.0, 1.0, 0.0, 1.0, 0.0, 0.0, 0.0, 3.0, 1.0, 0.0, 0.0, 2.0, 1.0, 0.0, 0.0, 1.0, 0.0, 1.0, 0.0, 0.0, 1.0, 0.0, 1.0, 0.0, 0.0, 1.0, 1.0, 1.0, 2.0, 1.0, 0.0, 1.0, 1.0, 0.0, 1.0, 1.0, 1.0, 1.0, 1.0, 0.0, 1.0, 1.0, 2.0, 0.0, 1.0, 1.0, 2.0], "bins": [-0.7313790321350098, -0.7102884650230408, -0.689197838306427, -0.668107271194458, -0.6470166444778442, -0.6259260773658752, -0.6048355102539062, -0.5837448835372925, -0.5626542568206787, -0.5415636897087097, -0.520473062992096, -0.49938249588012695, -0.4782918691635132, -0.4572013020515442, -0.4361107051372528, -0.4150201082229614, -0.39392954111099243, -0.37283894419670105, -0.35174834728240967, -0.3306577801704407, -0.3095671534538269, -0.2884765863418579, -0.26738598942756653, -0.24629539251327515, -0.22520479559898376, -0.20411419868469238, -0.183023601770401, -0.1619330197572708, -0.14084242284297943, -0.11975182592868805, -0.09866124391555786, -0.07757064700126648, -0.0564800500869751, -0.035389456897974014, -0.014298863708972931, 0.006791725754737854, 0.027882322669029236, 0.04897291958332062, 0.0700635015964508, 0.09115409851074219, 0.11224469542503357, 0.13333529233932495, 0.15442588925361633, 0.17551647126674652, 0.1966070681810379, 0.21769766509532928, 0.23878824710845947, 0.25987884402275085, 0.28096944093704224, 0.3020600378513336, 0.323150634765625, 0.344241201877594, 0.36533182859420776, 0.38642239570617676, 0.40751299262046814, 0.4286035895347595, 0.4496941864490509, 0.4707847833633423, 0.49187538027763367, 0.512965977191925, 0.534056544303894, 0.5551471710205078, 0.5762377381324768, 0.5973283052444458, 0.6184189319610596]}, "parameters/attention_2.bias": {"_type": "histogram", "values": [3.0, 0.0, 0.0, 2.0, 0.0, 0.0, 0.0, 0.0, 0.0, 2.0, 0.0, 2.0, 1.0, 1.0, 0.0, 0.0, 0.0, 0.0, 1.0, 0.0, 0.0, 2.0, 0.0, 0.0, 1.0, 0.0, 1.0, 1.0, 0.0, 1.0, 1.0, 0.0, 0.0, 0.0, 0.0, 0.0, 2.0, 2.0, 0.0, 1.0, 1.0, 1.0, 0.0, 0.0, 0.0, 2.0, 1.0, 0.0, 0.0, 1.0, 1.0, 3.0, 0.0, 0.0, 1.0, 0.0, 0.0, 0.0, 0.0, 0.0, 2.0, 0.0, 2.0, 1.0], "bins": [-0.4825252294540405, -0.4679255485534668, -0.45332589745521545, -0.4387262165546417, -0.4241265654563904, -0.40952688455581665, -0.3949272036552429, -0.3803275227546692, -0.36572787165641785, -0.3511281907558441, -0.3365285396575928, -0.32192885875701904, -0.3073291778564453, -0.29272952675819397, -0.27812984585762024, -0.2635301947593689, -0.24893051385879517, -0.23433084785938263, -0.2197311818599701, -0.20513150095939636, -0.19053183495998383, -0.1759321689605713, -0.16133248805999756, -0.14673282206058502, -0.13213315606117249, -0.11753349006175995, -0.10293381661176682, -0.08833414316177368, -0.07373447716236115, -0.05913481116294861, -0.044535137712955475, -0.02993546426296234, -0.015335768461227417, -0.0007360987365245819, 0.013863570988178253, 0.028463240712881088, 0.04306291043758392, 0.05766257643699646, 0.0722622498869896, 0.08686192333698273, 0.10146158933639526, 0.1160612553358078, 0.13066092133522034, 0.14526060223579407, 0.1598602682352066, 0.17445993423461914, 0.18905961513519287, 0.2036592811346054, 0.21825894713401794, 0.23285861313343048, 0.24745827913284302, 0.26205796003341675, 0.2766576409339905, 0.2912572920322418, 0.30585697293281555, 0.3204566240310669, 0.3350563049316406, 0.34965598583221436, 0.3642556369304657, 0.37885531783103943, 0.39345496892929077, 0.4080546498298645, 0.42265433073043823, 0.43725401163101196, 0.4518536627292633]}, "parameters/attention_2.lin_l.weight": {"_type": "histogram", "values": [2.0, 0.0, 1.0, 2.0, 2.0, 5.0, 11.0, 11.0, 13.0, 30.0, 16.0, 23.0, 28.0, 30.0, 31.0, 27.0, 16.0, 22.0, 32.0, 28.0, 30.0, 30.0, 36.0, 31.0, 43.0, 42.0, 37.0, 47.0, 35.0, 49.0, 52.0, 46.0, 48.0, 37.0, 45.0, 30.0, 50.0, 54.0, 34.0, 38.0, 42.0, 43.0, 33.0, 36.0, 27.0, 25.0, 19.0, 20.0, 27.0, 22.0, 26.0, 22.0, 19.0, 18.0, 10.0, 14.0, 10.0, 8.0, 16.0, 8.0, 3.0, 4.0, 1.0, 3.0], "bins": [-0.5111552476882935, -0.4956001043319702, -0.480044960975647, -0.46448981761932373, -0.4489346742630005, -0.43337953090667725, -0.417824387550354, -0.40226924419403076, -0.3867141008377075, -0.3711589574813843, -0.35560381412506104, -0.3400486707687378, -0.32449352741241455, -0.3089383840560913, -0.29338324069976807, -0.2778280973434448, -0.2622729539871216, -0.24671781063079834, -0.2311626672744751, -0.21560752391815186, -0.2000523805618286, -0.18449723720550537, -0.16894209384918213, -0.1533869504928589, -0.13783180713653564, -0.1222766637802124, -0.10672152042388916, -0.09116637706756592, -0.07561123371124268, -0.060056090354919434, -0.04450094699859619, -0.02894580364227295, -0.013390660285949707, 0.002164483070373535, 0.017719626426696777, 0.03327476978302002, 0.04882991313934326, 0.0643850564956665, 0.07994019985198975, 0.09549534320831299, 0.11105048656463623, 0.12660562992095947, 0.14216077327728271, 0.15771591663360596, 0.1732710599899292, 0.18882620334625244, 0.20438134670257568, 0.21993649005889893, 0.23549163341522217, 0.2510467767715454, 0.26660192012786865, 0.2821570634841919, 0.29771220684051514, 0.3132673501968384, 0.3288224935531616, 0.34437763690948486, 0.3599327802658081, 0.37548792362213135, 0.3910430669784546, 0.40659821033477783, 0.4221533536911011, 0.4377084970474243, 0.45326364040374756, 0.4688187837600708, 0.48437392711639404]}, "parameters/out_att.att_l": {"_type": "histogram", "values": [0.0, 0.0, 0.0, 0.0, 0.0, 0.0, 0.0, 0.0, 0.0, 0.0, 0.0, 0.0, 0.0, 0.0, 0.0, 0.0, 0.0, 0.0, 0.0, 0.0, 0.0, 0.0, 0.0, 0.0, 0.0, 0.0, 0.0, 0.0, 0.0, 0.0, 0.0, 0.0, 1.0, 0.0, 0.0, 0.0, 0.0, 0.0, 0.0, 0.0, 0.0, 0.0, 0.0, 0.0, 0.0, 0.0, 0.0, 0.0, 0.0, 0.0, 0.0, 0.0, 0.0, 0.0, 0.0, 0.0, 0.0, 0.0, 0.0, 0.0, 0.0, 0.0, 0.0, 0.0], "bins": [2.1524264812469482, 2.1524264812469482, 2.1524264812469482, 2.1524264812469482, 2.1524264812469482, 2.1524264812469482, 2.1524264812469482, 2.1524264812469482, 2.1524264812469482, 2.1524264812469482, 2.1524264812469482, 2.1524264812469482, 2.1524264812469482, 2.1524264812469482, 2.1524264812469482, 2.1524264812469482, 2.1524264812469482, 2.1524264812469482, 2.1524264812469482, 2.1524264812469482, 2.1524264812469482, 2.1524264812469482, 2.1524264812469482, 2.1524264812469482, 2.1524264812469482, 2.1524264812469482, 2.1524264812469482, 2.1524264812469482, 2.1524264812469482, 2.1524264812469482, 2.1524264812469482, 2.1524264812469482, 2.1524264812469482, 2.1524264812469482, 2.1524264812469482, 2.1524264812469482, 2.1524264812469482, 2.1524264812469482, 2.1524264812469482, 2.1524264812469482, 2.1524264812469482, 2.1524264812469482, 2.1524264812469482, 2.1524264812469482, 2.1524264812469482, 2.1524264812469482, 2.1524264812469482, 2.1524264812469482, 2.1524264812469482, 2.1524264812469482, 2.1524264812469482, 2.1524264812469482, 2.1524264812469482, 2.1524264812469482, 2.1524264812469482, 2.1524264812469482, 2.1524264812469482, 2.1524264812469482, 2.1524264812469482, 2.1524264812469482, 2.1524264812469482, 2.1524264812469482, 2.1524264812469482, 2.1524264812469482, 2.1524264812469482]}, "parameters/out_att.att_r": {"_type": "histogram", "values": [0.0, 0.0, 0.0, 0.0, 0.0, 0.0, 0.0, 0.0, 0.0, 0.0, 0.0, 0.0, 0.0, 0.0, 0.0, 0.0, 0.0, 0.0, 0.0, 0.0, 0.0, 0.0, 0.0, 0.0, 0.0, 0.0, 0.0, 0.0, 0.0, 0.0, 0.0, 0.0, 1.0, 0.0, 0.0, 0.0, 0.0, 0.0, 0.0, 0.0, 0.0, 0.0, 0.0, 0.0, 0.0, 0.0, 0.0, 0.0, 0.0, 0.0, 0.0, 0.0, 0.0, 0.0, 0.0, 0.0, 0.0, 0.0, 0.0, 0.0, 0.0, 0.0, 0.0, 0.0], "bins": [1.7485082149505615, 1.7485082149505615, 1.7485082149505615, 1.7485082149505615, 1.7485082149505615, 1.7485082149505615, 1.7485082149505615, 1.7485082149505615, 1.7485082149505615, 1.7485082149505615, 1.7485082149505615, 1.7485082149505615, 1.7485082149505615, 1.7485082149505615, 1.7485082149505615, 1.7485082149505615, 1.7485082149505615, 1.7485082149505615, 1.7485082149505615, 1.7485082149505615, 1.7485082149505615, 1.7485082149505615, 1.7485082149505615, 1.7485082149505615, 1.7485082149505615, 1.7485082149505615, 1.7485082149505615, 1.7485082149505615, 1.7485082149505615, 1.7485082149505615, 1.7485082149505615, 1.7485082149505615, 1.7485082149505615, 1.7485082149505615, 1.7485082149505615, 1.7485082149505615, 1.7485082149505615, 1.7485082149505615, 1.7485082149505615, 1.7485082149505615, 1.7485082149505615, 1.7485082149505615, 1.7485082149505615, 1.7485082149505615, 1.7485082149505615, 1.7485082149505615, 1.7485082149505615, 1.7485082149505615, 1.7485082149505615, 1.7485082149505615, 1.7485082149505615, 1.7485082149505615, 1.7485082149505615, 1.7485082149505615, 1.7485082149505615, 1.7485082149505615, 1.7485082149505615, 1.7485082149505615, 1.7485082149505615, 1.7485082149505615, 1.7485082149505615, 1.7485082149505615, 1.7485082149505615, 1.7485082149505615, 1.7485082149505615]}, "parameters/out_att.bias": {"_type": "histogram", "values": [0.0, 0.0, 0.0, 0.0, 0.0, 0.0, 0.0, 0.0, 0.0, 0.0, 0.0, 0.0, 0.0, 0.0, 0.0, 0.0, 0.0, 0.0, 0.0, 0.0, 0.0, 0.0, 0.0, 0.0, 0.0, 0.0, 0.0, 0.0, 0.0, 0.0, 0.0, 0.0, 1.0, 0.0, 0.0, 0.0, 0.0, 0.0, 0.0, 0.0, 0.0, 0.0, 0.0, 0.0, 0.0, 0.0, 0.0, 0.0, 0.0, 0.0, 0.0, 0.0, 0.0, 0.0, 0.0, 0.0, 0.0, 0.0, 0.0, 0.0, 0.0, 0.0, 0.0, 0.0], "bins": [-2.238292932510376, -2.238292932510376, -2.238292932510376, -2.238292932510376, -2.238292932510376, -2.238292932510376, -2.238292932510376, -2.238292932510376, -2.238292932510376, -2.238292932510376, -2.238292932510376, -2.238292932510376, -2.238292932510376, -2.238292932510376, -2.238292932510376, -2.238292932510376, -2.238292932510376, -2.238292932510376, -2.238292932510376, -2.238292932510376, -2.238292932510376, -2.238292932510376, -2.238292932510376, -2.238292932510376, -2.238292932510376, -2.238292932510376, -2.238292932510376, -2.238292932510376, -2.238292932510376, -2.238292932510376, -2.238292932510376, -2.238292932510376, -2.238292932510376, -2.238292932510376, -2.238292932510376, -2.238292932510376, -2.238292932510376, -2.238292932510376, -2.238292932510376, -2.238292932510376, -2.238292932510376, -2.238292932510376, -2.238292932510376, -2.238292932510376, -2.238292932510376, -2.238292932510376, -2.238292932510376, -2.238292932510376, -2.238292932510376, -2.238292932510376, -2.238292932510376, -2.238292932510376, -2.238292932510376, -2.238292932510376, -2.238292932510376, -2.238292932510376, -2.238292932510376, -2.238292932510376, -2.238292932510376, -2.238292932510376, -2.238292932510376, -2.238292932510376, -2.238292932510376, -2.238292932510376, -2.238292932510376]}, "parameters/out_att.lin_l.weight": {"_type": "histogram", "values": [1.0, 0.0, 0.0, 0.0, 0.0, 1.0, 0.0, 1.0, 1.0, 0.0, 0.0, 1.0, 0.0, 1.0, 1.0, 0.0, 1.0, 0.0, 1.0, 0.0, 0.0, 1.0, 1.0, 1.0, 1.0, 1.0, 1.0, 0.0, 0.0, 0.0, 0.0, 0.0, 2.0, 1.0, 0.0, 0.0, 1.0, 1.0, 1.0, 0.0, 1.0, 1.0, 1.0, 2.0, 1.0, 0.0, 2.0, 2.0, 0.0, 1.0, 2.0, 0.0, 0.0, 0.0, 1.0, 0.0, 1.0, 0.0, 1.0, 0.0, 2.0, 0.0, 0.0, 1.0], "bins": [-0.5728152394294739, -0.5585384964942932, -0.5442616939544678, -0.5299849510192871, -0.5157082080841064, -0.501431405544281, -0.48715466260910034, -0.4728778898715973, -0.45860111713409424, -0.4443243443965912, -0.4300476014614105, -0.41577082872390747, -0.4014940559864044, -0.38721728324890137, -0.3729405403137207, -0.35866376757621765, -0.3443869948387146, -0.33011022210121155, -0.3158334791660309, -0.30155670642852783, -0.2872799336910248, -0.27300316095352173, -0.25872641801834106, -0.244449645280838, -0.23017290234565735, -0.2158961445093155, -0.20161937177181244, -0.18734261393547058, -0.17306584119796753, -0.15878908336162567, -0.1445123255252838, -0.13023555278778076, -0.11595878005027771, -0.10168201476335526, -0.0874052494764328, -0.07312849164009094, -0.05885172262787819, -0.04457496106624603, -0.030298195779323578, -0.016021430492401123, -0.0017446652054786682, 0.012532099150121212, 0.026808863505721092, 0.0410856269299984, 0.05536239221692085, 0.06963915377855301, 0.08391591906547546, 0.09819268435239792, 0.11246944963932037, 0.12674620747566223, 0.14102298021316528, 0.15529973804950714, 0.1695765107870102, 0.18385326862335205, 0.1981300413608551, 0.21240679919719696, 0.22668355703353882, 0.24096031486988068, 0.25523707270622253, 0.2695138454437256, 0.28379061818122864, 0.2980673909187317, 0.31234413385391235, 0.3266209065914154, 0.34089767932891846]}, "_runtime": 31190, "_timestamp": 1641901188, "_step": 200, "Learning rate value": 0.0001499999999999968, "Learning rate action": 0.0001499999999999968, "epsilon": 0.13397967485796175, "action_probs": {"_type": "histogram", "values": [2, 0, 0, 0, 0, 0, 0, 0, 0, 0, 0, 0, 0, 0, 0, 0, 0, 0, 0, 0, 0, 0, 0, 0, 0, 0, 0, 0, 0, 0, 0, 0, 0, 1, 0, 0, 0, 0, 0, 0, 0, 0, 0, 0, 0, 0, 0, 0, 0, 0, 0, 0, 0, 0, 0, 0, 0, 0, 0, 0, 0, 0, 0, 1], "bins": [0.3491235375404358, 0.35807591676712036, 0.36702829599380493, 0.3759806752204895, 0.38493308424949646, 0.39388546347618103, 0.4028378427028656, 0.41179022192955017, 0.42074260115623474, 0.4296949803829193, 0.43864738941192627, 0.44759976863861084, 0.4565521478652954, 0.46550452709198, 0.47445690631866455, 0.4834092855453491, 0.4923616647720337, 0.5013140439987183, 0.5102664232254028, 0.5192188024520874, 0.5281712412834167, 0.5371236205101013, 0.5460759997367859, 0.5550283789634705, 0.563980758190155, 0.5729331374168396, 0.5818855166435242, 0.5908378958702087, 0.5997902750968933, 0.6087426543235779, 0.6176950335502625, 0.626647412776947, 0.6355998516082764, 0.6445522308349609, 0.6535046100616455, 0.6624569892883301, 0.6714093685150146, 0.6803617477416992, 0.6893141269683838, 0.6982665061950684, 0.7072188854217529, 0.7161712646484375, 0.7251236438751221, 0.7340760231018066, 0.7430284023284912, 0.7519808411598206, 0.7609332203865051, 0.7698855996131897, 0.7788379788398743, 0.7877903580665588, 0.7967427372932434, 0.805695116519928, 0.8146474957466125, 0.8235998749732971, 0.8325522541999817, 0.8415046334266663, 0.8504570126533508, 0.8594093918800354, 0.8683618307113647, 0.8773142099380493, 0.8862665891647339, 0.8952189683914185, 0.904171347618103, 0.9131237268447876, 0.9220761060714722]}, "stop_go_action": {"_type": "histogram", "values": [2, 0, 0, 0, 0, 0, 0, 0, 0, 0, 0, 0, 0, 0, 0, 0, 0, 0, 0, 0, 0, 0, 0, 0, 0, 0, 0, 0, 0, 0, 0, 0, 0, 0, 0, 0, 0, 0, 0, 0, 0, 0, 0, 0, 0, 0, 0, 0, 0, 0, 0, 0, 0, 0, 0, 0, 0, 0, 0, 0, 0, 0, 0, 2], "bins": [0.0, 0.015625, 0.03125, 0.046875, 0.0625, 0.078125, 0.09375, 0.109375, 0.125, 0.140625, 0.15625, 0.171875, 0.1875, 0.203125, 0.21875, 0.234375, 0.25, 0.265625, 0.28125, 0.296875, 0.3125, 0.328125, 0.34375, 0.359375, 0.375, 0.390625, 0.40625, 0.421875, 0.4375, 0.453125, 0.46875, 0.484375, 0.5, 0.515625, 0.53125, 0.546875, 0.5625, 0.578125, 0.59375, 0.609375, 0.625, 0.640625, 0.65625, 0.671875, 0.6875, 0.703125, 0.71875, 0.734375, 0.75, 0.765625, 0.78125, 0.796875, 0.8125, 0.828125, 0.84375, 0.859375, 0.875, 0.890625, 0.90625, 0.921875, 0.9375, 0.953125, 0.96875, 0.984375, 1.0]}, "node_values": {"_type": "histogram", "values": [1, 1, 0, 0, 0, 0, 0, 0, 0, 0, 1, 0, 0, 0, 0, 0, 0, 0, 0, 0, 0, 0, 0, 0, 0, 0, 0, 0, 0, 0, 0, 0, 0, 0, 0, 0, 0, 0, 0, 0, 0, 0, 0, 0, 0, 0, 0, 0, 0, 0, 0, 0, 0, 0, 0, 0, 0, 0, 0, 0, 0, 0, 0, 1], "bins": [-9.479918479919434, -9.465820953249931, -9.451723426580429, -9.437625899910927, -9.423528373241425, -9.409430846571922, -9.39533331990242, -9.381235793232918, -9.367138266563416, -9.353040739893913, -9.338943213224411, -9.324845686554909, -9.310748159885406, -9.296650633215904, -9.282553106546402, -9.2684555798769, -9.254358053207397, -9.240260526537895, -9.226162999868393, -9.21206547319889, -9.197967946529388, -9.183870419859886, -9.169772893190384, -9.155675366520882, -9.14157783985138, -9.127480313181877, -9.113382786512375, -9.099285259842873, -9.08518773317337, -9.071090206503868, -9.056992679834366, -9.042895153164864, -9.028797626495361, -9.014700099825859, -9.000602573156357, -8.986505046486855, -8.972407519817352, -8.95830999314785, -8.944212466478348, -8.930114939808846, -8.916017413139343, -8.901919886469841, -8.887822359800339, -8.873724833130836, -8.859627306461334, -8.845529779791832, -8.83143225312233, -8.817334726452827, -8.803237199783325, -8.789139673113823, -8.77504214644432, -8.760944619774818, -8.746847093105316, -8.732749566435814, -8.718652039766312, -8.70455451309681, -8.690456986427307, -8.676359459757805, -8.662261933088303, -8.6481644064188, -8.634066879749298, -8.619969353079796, -8.605871826410294, -8.591774299740791, -8.577676773071289]}, "episode_rewards": {"_type": "histogram", "values": [1, 0, 0, 0, 0, 0, 0, 0, 0, 0, 0, 0, 0, 0, 0, 0, 0, 0, 0, 0, 0, 0, 0, 0, 0, 0, 0, 0, 0, 0, 0, 0, 0, 0, 0, 0, 0, 0, 0, 0, 0, 0, 0, 0, 0, 0, 0, 0, 1, 0, 0, 0, 0, 0, 0, 0, 0, 0, 0, 0, 0, 0, 0, 1], "bins": [-4.0, -3.9375, -3.875, -3.8125, -3.75, -3.6875, -3.625, -3.5625, -3.5, -3.4375, -3.375, -3.3125, -3.25, -3.1875, -3.125, -3.0625, -3.0, -2.9375, -2.875, -2.8125, -2.75, -2.6875, -2.625, -2.5625, -2.5, -2.4375, -2.375, -2.3125, -2.25, -2.1875, -2.125, -2.0625, -2.0, -1.9375, -1.875, -1.8125, -1.75, -1.6875, -1.625, -1.5625, -1.5, -1.4375, -1.375, -1.3125, -1.25, -1.1875, -1.125, -1.0625, -1.0, -0.9375, -0.875, -0.8125, -0.75, -0.6875, -0.625, -0.5625, -0.5, -0.4375, -0.375, -0.3125, -0.25, -0.1875, -0.125, -0.0625, 0.0]}, "avg_reward": -1278.5416666666667, "done_agents": 0.5269345238095237, "deadlock_agents": 0.4110615079365079, "gradients/out_att.bias": {"_type": "histogram", "values": [0.0, 0.0, 0.0, 0.0, 0.0, 0.0, 0.0, 0.0, 0.0, 0.0, 0.0, 0.0, 0.0, 0.0, 0.0, 0.0, 0.0, 0.0, 0.0, 0.0, 0.0, 0.0, 0.0, 0.0, 0.0, 0.0, 0.0, 0.0, 0.0, 0.0, 0.0, 0.0, 1.0, 0.0, 0.0, 0.0, 0.0, 0.0, 0.0, 0.0, 0.0, 0.0, 0.0, 0.0, 0.0, 0.0, 0.0, 0.0, 0.0, 0.0, 0.0, 0.0, 0.0, 0.0, 0.0, 0.0, 0.0, 0.0, 0.0, 0.0, 0.0, 0.0, 0.0, 0.0], "bins": [3.6823806762695312, 3.6823806762695312, 3.6823806762695312, 3.6823806762695312, 3.6823806762695312, 3.6823806762695312, 3.6823806762695312, 3.6823806762695312, 3.6823806762695312, 3.6823806762695312, 3.6823806762695312, 3.6823806762695312, 3.6823806762695312, 3.6823806762695312, 3.6823806762695312, 3.6823806762695312, 3.6823806762695312, 3.6823806762695312, 3.6823806762695312, 3.6823806762695312, 3.6823806762695312, 3.6823806762695312, 3.6823806762695312, 3.6823806762695312, 3.6823806762695312, 3.6823806762695312, 3.6823806762695312, 3.6823806762695312, 3.6823806762695312, 3.6823806762695312, 3.6823806762695312, 3.6823806762695312, 3.6823806762695312, 3.6823806762695312, 3.6823806762695312, 3.6823806762695312, 3.6823806762695312, 3.6823806762695312, 3.6823806762695312, 3.6823806762695312, 3.6823806762695312, 3.6823806762695312, 3.6823806762695312, 3.6823806762695312, 3.6823806762695312, 3.6823806762695312, 3.6823806762695312, 3.6823806762695312, 3.6823806762695312, 3.6823806762695312, 3.6823806762695312, 3.6823806762695312, 3.6823806762695312, 3.6823806762695312, 3.6823806762695312, 3.6823806762695312, 3.6823806762695312, 3.6823806762695312, 3.6823806762695312, 3.6823806762695312, 3.6823806762695312, 3.6823806762695312, 3.6823806762695312, 3.6823806762695312, 3.6823806762695312]}, "gradients/out_att.att_r": {"_type": "histogram", "values": [0.0, 0.0, 0.0, 0.0, 0.0, 0.0, 0.0, 0.0, 0.0, 0.0, 0.0, 0.0, 0.0, 0.0, 0.0, 0.0, 0.0, 0.0, 0.0, 0.0, 0.0, 0.0, 0.0, 0.0, 0.0, 0.0, 0.0, 0.0, 0.0, 0.0, 0.0, 0.0, 1.0, 0.0, 0.0, 0.0, 0.0, 0.0, 0.0, 0.0, 0.0, 0.0, 0.0, 0.0, 0.0, 0.0, 0.0, 0.0, 0.0, 0.0, 0.0, 0.0, 0.0, 0.0, 0.0, 0.0, 0.0, 0.0, 0.0, 0.0, 0.0, 0.0, 0.0, 0.0], "bins": [-6.231482529983623e-08, -6.231482529983623e-08, -6.231482529983623e-08, -6.231482529983623e-08, -6.231482529983623e-08, -6.231482529983623e-08, -6.231482529983623e-08, -6.231482529983623e-08, -6.231482529983623e-08, -6.231482529983623e-08, -6.231482529983623e-08, -6.231482529983623e-08, -6.231482529983623e-08, -6.231482529983623e-08, -6.231482529983623e-08, -6.231482529983623e-08, -6.231482529983623e-08, -6.231482529983623e-08, -6.231482529983623e-08, -6.231482529983623e-08, -6.231482529983623e-08, -6.231482529983623e-08, -6.231482529983623e-08, -6.231482529983623e-08, -6.231482529983623e-08, -6.231482529983623e-08, -6.231482529983623e-08, -6.231482529983623e-08, -6.231482529983623e-08, -6.231482529983623e-08, -6.231482529983623e-08, -6.231482529983623e-08, -6.231482529983623e-08, -6.231482529983623e-08, -6.231482529983623e-08, -6.231482529983623e-08, -6.231482529983623e-08, -6.231482529983623e-08, -6.231482529983623e-08, -6.231482529983623e-08, -6.231482529983623e-08, -6.231482529983623e-08, -6.231482529983623e-08, -6.231482529983623e-08, -6.231482529983623e-08, -6.231482529983623e-08, -6.231482529983623e-08, -6.231482529983623e-08, -6.231482529983623e-08, -6.231482529983623e-08, -6.231482529983623e-08, -6.231482529983623e-08, -6.231482529983623e-08, -6.231482529983623e-08, -6.231482529983623e-08, -6.231482529983623e-08, -6.231482529983623e-08, -6.231482529983623e-08, -6.231482529983623e-08, -6.231482529983623e-08, -6.231482529983623e-08, -6.231482529983623e-08, -6.231482529983623e-08, -6.231482529983623e-08, -6.231482529983623e-08]}, "gradients/out_att.att_l": {"_type": "histogram", "values": [0.0, 0.0, 0.0, 0.0, 0.0, 0.0, 0.0, 0.0, 0.0, 0.0, 0.0, 0.0, 0.0, 0.0, 0.0, 0.0, 0.0, 0.0, 0.0, 0.0, 0.0, 0.0, 0.0, 0.0, 0.0, 0.0, 0.0, 0.0, 0.0, 0.0, 0.0, 0.0, 1.0, 0.0, 0.0, 0.0, 0.0, 0.0, 0.0, 0.0, 0.0, 0.0, 0.0, 0.0, 0.0, 0.0, 0.0, 0.0, 0.0, 0.0, 0.0, 0.0, 0.0, 0.0, 0.0, 0.0, 0.0, 0.0, 0.0, 0.0, 0.0, 0.0, 0.0, 0.0], "bins": [-6.231482529983623e-08, -6.231482529983623e-08, -6.231482529983623e-08, -6.231482529983623e-08, -6.231482529983623e-08, -6.231482529983623e-08, -6.231482529983623e-08, -6.231482529983623e-08, -6.231482529983623e-08, -6.231482529983623e-08, -6.231482529983623e-08, -6.231482529983623e-08, -6.231482529983623e-08, -6.231482529983623e-08, -6.231482529983623e-08, -6.231482529983623e-08, -6.231482529983623e-08, -6.231482529983623e-08, -6.231482529983623e-08, -6.231482529983623e-08, -6.231482529983623e-08, -6.231482529983623e-08, -6.231482529983623e-08, -6.231482529983623e-08, -6.231482529983623e-08, -6.231482529983623e-08, -6.231482529983623e-08, -6.231482529983623e-08, -6.231482529983623e-08, -6.231482529983623e-08, -6.231482529983623e-08, -6.231482529983623e-08, -6.231482529983623e-08, -6.231482529983623e-08, -6.231482529983623e-08, -6.231482529983623e-08, -6.231482529983623e-08, -6.231482529983623e-08, -6.231482529983623e-08, -6.231482529983623e-08, -6.231482529983623e-08, -6.231482529983623e-08, -6.231482529983623e-08, -6.231482529983623e-08, -6.231482529983623e-08, -6.231482529983623e-08, -6.231482529983623e-08, -6.231482529983623e-08, -6.231482529983623e-08, -6.231482529983623e-08, -6.231482529983623e-08, -6.231482529983623e-08, -6.231482529983623e-08, -6.231482529983623e-08, -6.231482529983623e-08, -6.231482529983623e-08, -6.231482529983623e-08, -6.231482529983623e-08, -6.231482529983623e-08, -6.231482529983623e-08, -6.231482529983623e-08, -6.231482529983623e-08, -6.231482529983623e-08, -6.231482529983623e-08, -6.231482529983623e-08]}, "gradients/out_att.lin_l.weight": {"_type": "histogram", "values": [1.0, 0.0, 0.0, 0.0, 0.0, 0.0, 0.0, 0.0, 0.0, 0.0, 0.0, 0.0, 0.0, 0.0, 0.0, 0.0, 0.0, 0.0, 0.0, 0.0, 0.0, 0.0, 0.0, 0.0, 0.0, 0.0, 0.0, 0.0, 0.0, 0.0, 0.0, 0.0, 0.0, 0.0, 0.0, 0.0, 0.0, 0.0, 0.0, 1.0, 0.0, 0.0, 0.0, 0.0, 1.0, 4.0, 26.0, 4.0, 0.0, 0.0, 0.0, 0.0, 0.0, 1.0, 1.0, 0.0, 0.0, 0.0, 0.0, 0.0, 0.0, 0.0, 0.0, 1.0], "bins": [-1.5183348978098365e-06, -1.4853907259748667e-06, -1.4524465541398968e-06, -1.4195023823049269e-06, -1.3865580967831193e-06, -1.3536139249481494e-06, -1.3206697531131795e-06, -1.2877255812782096e-06, -1.2547814094432397e-06, -1.2218372376082698e-06, -1.1888930657733e-06, -1.15594889393833e-06, -1.1230047221033601e-06, -1.0900604365815525e-06, -1.0571162647465826e-06, -1.0241720929116127e-06, -9.912279210766428e-07, -9.58283749241673e-07, -9.25339577406703e-07, -8.923953487283143e-07, -8.594511768933444e-07, -8.265070050583745e-07, -7.935627763799857e-07, -7.606186045450158e-07, -7.27674432710046e-07, -6.947302608750761e-07, -6.617860890401062e-07, -6.288418603617174e-07, -5.958976885267475e-07, -5.629535166917776e-07, -5.300092880133889e-07, -4.97065116178419e-07, -4.6412083065661136e-07, -4.3117665882164147e-07, -3.9823245856496214e-07, -3.652882583082828e-07, -3.3234408647331293e-07, -2.9939991463834303e-07, -2.664557143816637e-07, -2.335115283358391e-07, -2.005673422900145e-07, -1.6762315624418989e-07, -1.3467897019836528e-07, -1.0173478415254067e-07, -6.879059810671606e-08, -3.584641206089145e-08, -2.9022260150668444e-09, 3.0041960030757764e-08, 6.298614607658237e-08, 9.593033212240698e-08, 1.288745181682316e-07, 1.618187042140562e-07, 1.947628902598808e-07, 2.2770707630570541e-07, 2.6065126235153e-07, 2.9359546260820935e-07, 3.2653963444317924e-07, 3.5948380627814913e-07, 3.9242800653482846e-07, 4.253722067915078e-07, 4.5831637862647767e-07, 4.912605504614476e-07, 5.242047791398363e-07, 5.571489509748062e-07, 5.900931228097761e-07]}, "gradients/attention_2.bias": {"_type": "histogram", "values": [1.0, 0.0, 0.0, 0.0, 0.0, 0.0, 0.0, 0.0, 0.0, 0.0, 0.0, 0.0, 0.0, 0.0, 0.0, 0.0, 0.0, 0.0, 0.0, 1.0, 0.0, 0.0, 0.0, 0.0, 1.0, 3.0, 0.0, 0.0, 1.0, 2.0, 22.0, 1.0, 0.0, 0.0, 0.0, 0.0, 1.0, 0.0, 0.0, 0.0, 0.0, 0.0, 1.0, 0.0, 0.0, 0.0, 0.0, 1.0, 0.0, 1.0, 0.0, 2.0, 0.0, 0.0, 1.0, 0.0, 0.0, 0.0, 0.0, 0.0, 0.0, 0.0, 0.0, 1.0], "bins": [-2.946461918895693e-08, -2.848591762472097e-08, -2.7507216060485007e-08, -2.6528514496249045e-08, -2.5549812932013083e-08, -2.457111136777712e-08, -2.359240802718432e-08, -2.2613706462948358e-08, -2.1635004898712396e-08, -2.0656303334476434e-08, -1.967760177024047e-08, -1.869890020600451e-08, -1.7720196865411708e-08, -1.6741495301175746e-08, -1.5762793736939784e-08, -1.4784092172703822e-08, -1.380539060846786e-08, -1.2826689044231898e-08, -1.1847987479995936e-08, -1.0869285027581554e-08, -9.890583463345592e-09, -8.91188189910963e-09, -7.933179446695249e-09, -6.954477882459287e-09, -5.975776318223325e-09, -4.997074753987363e-09, -4.018372745662191e-09, -3.039670959381624e-09, -2.060969173101057e-09, -1.082267608865095e-09, -1.0356560053992325e-10, 8.751364077852486e-10, 1.8538379720212106e-09, 2.8325397583017775e-09, 3.8112415445823444e-09, 4.789943552907516e-09, 5.768645117143478e-09, 6.74734668137944e-09, 7.726049133793822e-09, 8.704750698029784e-09, 9.683452262265746e-09, 1.0662153826501708e-08, 1.164085539073767e-08, 1.2619557843152052e-08, 1.3598259407388014e-08, 1.4576960971623976e-08, 1.5555663424038357e-08, 1.653436498827432e-08, 1.751306655251028e-08, 1.8491768116746243e-08, 1.9470469680982205e-08, 2.0449171245218167e-08, 2.142787280945413e-08, 2.240657437369009e-08, 2.3385277714282893e-08, 2.4363979278518855e-08, 2.5342680842754817e-08, 2.632138240699078e-08, 2.730008397122674e-08, 2.8278785535462703e-08, 2.9257488876055504e-08, 3.0236190440291466e-08, 3.121489200452743e-08, 3.219359356876339e-08, 3.317229513299935e-08]}, "gradients/attention_2.att_r": {"_type": "histogram", "values": [0.0, 0.0, 0.0, 0.0, 0.0, 0.0, 0.0, 0.0, 0.0, 0.0, 0.0, 0.0, 0.0, 0.0, 0.0, 0.0, 0.0, 0.0, 0.0, 0.0, 0.0, 0.0, 0.0, 0.0, 0.0, 0.0, 0.0, 0.0, 0.0, 0.0, 0.0, 0.0, 40.0, 0.0, 0.0, 0.0, 0.0, 0.0, 0.0, 0.0, 0.0, 0.0, 0.0, 0.0, 0.0, 0.0, 0.0, 0.0, 0.0, 0.0, 0.0, 0.0, 0.0, 0.0, 0.0, 0.0, 0.0, 0.0, 0.0, 0.0, 0.0, 0.0, 0.0, 0.0], "bins": [0.0, 0.0, 0.0, 0.0, 0.0, 0.0, 0.0, 0.0, 0.0, 0.0, 0.0, 0.0, 0.0, 0.0, 0.0, 0.0, 0.0, 0.0, 0.0, 0.0, 0.0, 0.0, 0.0, 0.0, 0.0, 0.0, 0.0, 0.0, 0.0, 0.0, 0.0, 0.0, 0.0, 0.0, 0.0, 0.0, 0.0, 0.0, 0.0, 0.0, 0.0, 0.0, 0.0, 0.0, 0.0, 0.0, 0.0, 0.0, 0.0, 0.0, 0.0, 0.0, 0.0, 0.0, 0.0, 0.0, 0.0, 0.0, 0.0, 0.0, 0.0, 0.0, 0.0, 0.0, 0.0]}, "gradients/attention_2.att_l": {"_type": "histogram", "values": [0.0, 0.0, 0.0, 0.0, 0.0, 0.0, 0.0, 0.0, 0.0, 0.0, 0.0, 0.0, 0.0, 0.0, 0.0, 0.0, 0.0, 0.0, 0.0, 0.0, 0.0, 0.0, 0.0, 0.0, 0.0, 0.0, 0.0, 0.0, 0.0, 0.0, 0.0, 0.0, 40.0, 0.0, 0.0, 0.0, 0.0, 0.0, 0.0, 0.0, 0.0, 0.0, 0.0, 0.0, 0.0, 0.0, 0.0, 0.0, 0.0, 0.0, 0.0, 0.0, 0.0, 0.0, 0.0, 0.0, 0.0, 0.0, 0.0, 0.0, 0.0, 0.0, 0.0, 0.0], "bins": [0.0, 0.0, 0.0, 0.0, 0.0, 0.0, 0.0, 0.0, 0.0, 0.0, 0.0, 0.0, 0.0, 0.0, 0.0, 0.0, 0.0, 0.0, 0.0, 0.0, 0.0, 0.0, 0.0, 0.0, 0.0, 0.0, 0.0, 0.0, 0.0, 0.0, 0.0, 0.0, 0.0, 0.0, 0.0, 0.0, 0.0, 0.0, 0.0, 0.0, 0.0, 0.0, 0.0, 0.0, 0.0, 0.0, 0.0, 0.0, 0.0, 0.0, 0.0, 0.0, 0.0, 0.0, 0.0, 0.0, 0.0, 0.0, 0.0, 0.0, 0.0, 0.0, 0.0, 0.0, 0.0]}, "gradients/attention_2.lin_l.weight": {"_type": "histogram", "values": [0.0, 0.0, 0.0, 0.0, 0.0, 0.0, 0.0, 0.0, 0.0, 0.0, 0.0, 0.0, 0.0, 0.0, 0.0, 0.0, 0.0, 0.0, 0.0, 0.0, 0.0, 0.0, 0.0, 0.0, 0.0, 0.0, 0.0, 0.0, 0.0, 0.0, 0.0, 0.0, 1600.0, 0.0, 0.0, 0.0, 0.0, 0.0, 0.0, 0.0, 0.0, 0.0, 0.0, 0.0, 0.0, 0.0, 0.0, 0.0, 0.0, 0.0, 0.0, 0.0, 0.0, 0.0, 0.0, 0.0, 0.0, 0.0, 0.0, 0.0, 0.0, 0.0, 0.0, 0.0], "bins": [0.0, 0.0, 0.0, 0.0, 0.0, 0.0, 0.0, 0.0, 0.0, 0.0, 0.0, 0.0, 0.0, 0.0, 0.0, 0.0, 0.0, 0.0, 0.0, 0.0, 0.0, 0.0, 0.0, 0.0, 0.0, 0.0, 0.0, 0.0, 0.0, 0.0, 0.0, 0.0, 0.0, 0.0, 0.0, 0.0, 0.0, 0.0, 0.0, 0.0, 0.0, 0.0, 0.0, 0.0, 0.0, 0.0, 0.0, 0.0, 0.0, 0.0, 0.0, 0.0, 0.0, 0.0, 0.0, 0.0, 0.0, 0.0, 0.0, 0.0, 0.0, 0.0, 0.0, 0.0, 0.0]}, "gradients/attention_1.bias": {"_type": "histogram", "values": [1.0, 0.0, 0.0, 0.0, 0.0, 0.0, 0.0, 0.0, 0.0, 0.0, 0.0, 0.0, 0.0, 0.0, 0.0, 0.0, 0.0, 0.0, 0.0, 1.0, 0.0, 0.0, 0.0, 0.0, 0.0, 2.0, 1.0, 1.0, 1.0, 2.0, 22.0, 1.0, 1.0, 0.0, 0.0, 0.0, 0.0, 0.0, 0.0, 1.0, 0.0, 0.0, 0.0, 0.0, 0.0, 0.0, 1.0, 0.0, 0.0, 1.0, 0.0, 2.0, 0.0, 0.0, 1.0, 0.0, 0.0, 0.0, 0.0, 0.0, 0.0, 0.0, 0.0, 1.0], "bins": [-2.946461918895693e-08, -2.848591762472097e-08, -2.7507216060485007e-08, -2.6528514496249045e-08, -2.5549812932013083e-08, -2.457111136777712e-08, -2.359240802718432e-08, -2.2613706462948358e-08, -2.1635004898712396e-08, -2.0656303334476434e-08, -1.967760177024047e-08, -1.869890020600451e-08, -1.7720196865411708e-08, -1.6741495301175746e-08, -1.5762793736939784e-08, -1.4784092172703822e-08, -1.380539060846786e-08, -1.2826689044231898e-08, -1.1847987479995936e-08, -1.0869285027581554e-08, -9.890583463345592e-09, -8.91188189910963e-09, -7.933179446695249e-09, -6.954477882459287e-09, -5.975776318223325e-09, -4.997074753987363e-09, -4.018372745662191e-09, -3.039670959381624e-09, -2.060969173101057e-09, -1.082267608865095e-09, -1.0356560053992325e-10, 8.751364077852486e-10, 1.8538379720212106e-09, 2.8325397583017775e-09, 3.8112415445823444e-09, 4.789943552907516e-09, 5.768645117143478e-09, 6.74734668137944e-09, 7.726049133793822e-09, 8.704750698029784e-09, 9.683452262265746e-09, 1.0662153826501708e-08, 1.164085539073767e-08, 1.2619557843152052e-08, 1.3598259407388014e-08, 1.4576960971623976e-08, 1.5555663424038357e-08, 1.653436498827432e-08, 1.751306655251028e-08, 1.8491768116746243e-08, 1.9470469680982205e-08, 2.0449171245218167e-08, 2.142787280945413e-08, 2.240657437369009e-08, 2.3385277714282893e-08, 2.4363979278518855e-08, 2.5342680842754817e-08, 2.632138240699078e-08, 2.730008397122674e-08, 2.8278785535462703e-08, 2.9257488876055504e-08, 3.0236190440291466e-08, 3.121489200452743e-08, 3.219359356876339e-08, 3.317229513299935e-08]}, "gradients/attention_1.att_r": {"_type": "histogram", "values": [0.0, 0.0, 0.0, 0.0, 0.0, 0.0, 0.0, 0.0, 0.0, 0.0, 0.0, 0.0, 0.0, 0.0, 0.0, 0.0, 0.0, 0.0, 0.0, 0.0, 0.0, 0.0, 0.0, 0.0, 0.0, 0.0, 0.0, 0.0, 0.0, 0.0, 0.0, 0.0, 40.0, 0.0, 0.0, 0.0, 0.0, 0.0, 0.0, 0.0, 0.0, 0.0, 0.0, 0.0, 0.0, 0.0, 0.0, 0.0, 0.0, 0.0, 0.0, 0.0, 0.0, 0.0, 0.0, 0.0, 0.0, 0.0, 0.0, 0.0, 0.0, 0.0, 0.0, 0.0], "bins": [0.0, 0.0, 0.0, 0.0, 0.0, 0.0, 0.0, 0.0, 0.0, 0.0, 0.0, 0.0, 0.0, 0.0, 0.0, 0.0, 0.0, 0.0, 0.0, 0.0, 0.0, 0.0, 0.0, 0.0, 0.0, 0.0, 0.0, 0.0, 0.0, 0.0, 0.0, 0.0, 0.0, 0.0, 0.0, 0.0, 0.0, 0.0, 0.0, 0.0, 0.0, 0.0, 0.0, 0.0, 0.0, 0.0, 0.0, 0.0, 0.0, 0.0, 0.0, 0.0, 0.0, 0.0, 0.0, 0.0, 0.0, 0.0, 0.0, 0.0, 0.0, 0.0, 0.0, 0.0, 0.0]}, "gradients/attention_1.att_l": {"_type": "histogram", "values": [0.0, 0.0, 0.0, 0.0, 0.0, 0.0, 0.0, 0.0, 0.0, 0.0, 0.0, 0.0, 0.0, 0.0, 0.0, 0.0, 0.0, 0.0, 0.0, 0.0, 0.0, 0.0, 0.0, 0.0, 0.0, 0.0, 0.0, 0.0, 0.0, 0.0, 0.0, 0.0, 40.0, 0.0, 0.0, 0.0, 0.0, 0.0, 0.0, 0.0, 0.0, 0.0, 0.0, 0.0, 0.0, 0.0, 0.0, 0.0, 0.0, 0.0, 0.0, 0.0, 0.0, 0.0, 0.0, 0.0, 0.0, 0.0, 0.0, 0.0, 0.0, 0.0, 0.0, 0.0], "bins": [0.0, 0.0, 0.0, 0.0, 0.0, 0.0, 0.0, 0.0, 0.0, 0.0, 0.0, 0.0, 0.0, 0.0, 0.0, 0.0, 0.0, 0.0, 0.0, 0.0, 0.0, 0.0, 0.0, 0.0, 0.0, 0.0, 0.0, 0.0, 0.0, 0.0, 0.0, 0.0, 0.0, 0.0, 0.0, 0.0, 0.0, 0.0, 0.0, 0.0, 0.0, 0.0, 0.0, 0.0, 0.0, 0.0, 0.0, 0.0, 0.0, 0.0, 0.0, 0.0, 0.0, 0.0, 0.0, 0.0, 0.0, 0.0, 0.0, 0.0, 0.0, 0.0, 0.0, 0.0, 0.0]}, "gradients/attention_1.lin_l.weight": {"_type": "histogram", "values": [0.0, 0.0, 0.0, 0.0, 0.0, 0.0, 0.0, 0.0, 0.0, 0.0, 0.0, 0.0, 0.0, 0.0, 0.0, 0.0, 0.0, 0.0, 0.0, 0.0, 0.0, 0.0, 0.0, 0.0, 0.0, 0.0, 0.0, 0.0, 0.0, 0.0, 0.0, 0.0, 1600.0, 0.0, 0.0, 0.0, 0.0, 0.0, 0.0, 0.0, 0.0, 0.0, 0.0, 0.0, 0.0, 0.0, 0.0, 0.0, 0.0, 0.0, 0.0, 0.0, 0.0, 0.0, 0.0, 0.0, 0.0, 0.0, 0.0, 0.0, 0.0, 0.0, 0.0, 0.0], "bins": [0.0, 0.0, 0.0, 0.0, 0.0, 0.0, 0.0, 0.0, 0.0, 0.0, 0.0, 0.0, 0.0, 0.0, 0.0, 0.0, 0.0, 0.0, 0.0, 0.0, 0.0, 0.0, 0.0, 0.0, 0.0, 0.0, 0.0, 0.0, 0.0, 0.0, 0.0, 0.0, 0.0, 0.0, 0.0, 0.0, 0.0, 0.0, 0.0, 0.0, 0.0, 0.0, 0.0, 0.0, 0.0, 0.0, 0.0, 0.0, 0.0, 0.0, 0.0, 0.0, 0.0, 0.0, 0.0, 0.0, 0.0, 0.0, 0.0, 0.0, 0.0, 0.0, 0.0, 0.0, 0.0]}, "gradients/attention_0.bias": {"_type": "histogram", "values": [1.0, 0.0, 0.0, 0.0, 0.0, 0.0, 0.0, 0.0, 0.0, 0.0, 0.0, 0.0, 0.0, 0.0, 0.0, 0.0, 0.0, 0.0, 0.0, 1.0, 0.0, 0.0, 0.0, 0.0, 0.0, 1.0, 1.0, 1.0, 2.0, 2.0, 23.0, 1.0, 0.0, 0.0, 0.0, 0.0, 0.0, 0.0, 0.0, 1.0, 0.0, 0.0, 0.0, 0.0, 1.0, 0.0, 0.0, 0.0, 0.0, 2.0, 0.0, 1.0, 0.0, 0.0, 1.0, 0.0, 0.0, 0.0, 0.0, 0.0, 0.0, 0.0, 0.0, 1.0], "bins": [-2.946461918895693e-08, -2.848591762472097e-08, -2.7507216060485007e-08, -2.6528514496249045e-08, -2.5549812932013083e-08, -2.457111136777712e-08, -2.359240802718432e-08, -2.2613706462948358e-08, -2.1635004898712396e-08, -2.0656303334476434e-08, -1.967760177024047e-08, -1.869890020600451e-08, -1.7720196865411708e-08, -1.6741495301175746e-08, -1.5762793736939784e-08, -1.4784092172703822e-08, -1.380539060846786e-08, -1.2826689044231898e-08, -1.1847987479995936e-08, -1.0869285027581554e-08, -9.890583463345592e-09, -8.91188189910963e-09, -7.933179446695249e-09, -6.954477882459287e-09, -5.975776318223325e-09, -4.997074753987363e-09, -4.018372745662191e-09, -3.039670959381624e-09, -2.060969173101057e-09, -1.082267608865095e-09, -1.0356560053992325e-10, 8.751364077852486e-10, 1.8538379720212106e-09, 2.8325397583017775e-09, 3.8112415445823444e-09, 4.789943552907516e-09, 5.768645117143478e-09, 6.74734668137944e-09, 7.726049133793822e-09, 8.704750698029784e-09, 9.683452262265746e-09, 1.0662153826501708e-08, 1.164085539073767e-08, 1.2619557843152052e-08, 1.3598259407388014e-08, 1.4576960971623976e-08, 1.5555663424038357e-08, 1.653436498827432e-08, 1.751306655251028e-08, 1.8491768116746243e-08, 1.9470469680982205e-08, 2.0449171245218167e-08, 2.142787280945413e-08, 2.240657437369009e-08, 2.3385277714282893e-08, 2.4363979278518855e-08, 2.5342680842754817e-08, 2.632138240699078e-08, 2.730008397122674e-08, 2.8278785535462703e-08, 2.9257488876055504e-08, 3.0236190440291466e-08, 3.121489200452743e-08, 3.219359356876339e-08, 3.317229513299935e-08]}, "gradients/attention_0.att_r": {"_type": "histogram", "values": [1.0, 0.0, 0.0, 0.0, 0.0, 0.0, 0.0, 0.0, 0.0, 0.0, 0.0, 0.0, 0.0, 0.0, 0.0, 0.0, 0.0, 0.0, 0.0, 0.0, 0.0, 0.0, 0.0, 0.0, 0.0, 1.0, 0.0, 0.0, 0.0, 1.0, 1.0, 0.0, 0.0, 0.0, 0.0, 0.0, 0.0, 0.0, 1.0, 0.0, 1.0, 1.0, 0.0, 1.0, 2.0, 5.0, 15.0, 3.0, 0.0, 0.0, 0.0, 2.0, 0.0, 2.0, 1.0, 0.0, 1.0, 0.0, 0.0, 0.0, 0.0, 0.0, 0.0, 1.0], "bins": [-7.555666704274488e-13, -7.392803817035665e-13, -7.229940387695755e-13, -7.067076958355845e-13, -6.904214071117021e-13, -6.741351183878197e-13, -6.578487754538287e-13, -6.415624325198377e-13, -6.252761437959553e-13, -6.089898550720729e-13, -5.927035121380819e-13, -5.764171692040909e-13, -5.601308804802085e-13, -5.438445917563262e-13, -5.275582488223352e-13, -5.112719058883441e-13, -4.949856171644618e-13, -4.786993284405794e-13, -4.624129855065884e-13, -4.461266696776517e-13, -4.29840353848715e-13, -4.135540380197783e-13, -3.972677221908416e-13, -3.809814063619049e-13, -3.646950905329682e-13, -3.4840877470403153e-13, -3.3212245887509484e-13, -3.1583614304615815e-13, -2.9954982721722145e-13, -2.8326351138828476e-13, -2.6697719555934807e-13, -2.506908797304114e-13, -2.3440450969136606e-13, -2.1811819386242937e-13, -2.0183187803349267e-13, -1.8554556220455598e-13, -1.692592463756193e-13, -1.529729305466826e-13, -1.366866147177459e-13, -1.204002988888092e-13, -1.0411398305987252e-13, -8.782766723093582e-14, -7.154135140199913e-14, -5.525503557306244e-14, -3.8968719744125746e-14, -2.2682403915189053e-14, -6.3960880862523606e-15, 9.890227742684332e-15, 2.6176543571621025e-14, 4.246285940055772e-14, 5.874917522949441e-14, 7.50354910584311e-14, 9.13218068873678e-14, 1.0760812271630449e-13, 1.2389443854524118e-13, 1.4018075437417787e-13, 1.5646707020311457e-13, 1.7275338603205126e-13, 1.8903970186098795e-13, 2.0532601768992464e-13, 2.2161233351886134e-13, 2.3789864934779803e-13, 2.541849651767347e-13, 2.704712810056714e-13, 2.867575968346081e-13]}, "gradients/attention_0.att_l": {"_type": "histogram", "values": [1.0, 0.0, 0.0, 0.0, 0.0, 0.0, 1.0, 0.0, 0.0, 0.0, 0.0, 0.0, 1.0, 0.0, 0.0, 0.0, 0.0, 0.0, 0.0, 0.0, 0.0, 0.0, 0.0, 0.0, 0.0, 0.0, 0.0, 0.0, 0.0, 1.0, 0.0, 0.0, 31.0, 0.0, 1.0, 0.0, 0.0, 0.0, 1.0, 0.0, 0.0, 0.0, 1.0, 0.0, 0.0, 0.0, 0.0, 0.0, 0.0, 0.0, 0.0, 0.0, 0.0, 0.0, 0.0, 0.0, 1.0, 0.0, 0.0, 0.0, 0.0, 0.0, 0.0, 1.0], "bins": [-4.901141298363498e-11, -4.750471890857533e-11, -4.599802483351567e-11, -4.4491330758456016e-11, -4.298463668339636e-11, -4.1477942608336704e-11, -3.997124853327705e-11, -3.846455445821739e-11, -3.695786038315774e-11, -3.545116630809808e-11, -3.3944472233038425e-11, -3.243777815797877e-11, -3.0931084082919114e-11, -2.942439000785946e-11, -2.7917695932799802e-11, -2.6411001857740146e-11, -2.490430778268049e-11, -2.3397613707620835e-11, -2.189091963256118e-11, -2.0384225557501523e-11, -1.8877531482441867e-11, -1.737083740738221e-11, -1.5864143332322556e-11, -1.43574492572629e-11, -1.2850755182203244e-11, -1.1344061107143588e-11, -9.837367032083932e-12, -8.330672957024277e-12, -6.823978881964621e-12, -5.317284806904965e-12, -3.810590731845309e-12, -2.3038966567856534e-12, -7.972025817259976e-13, 7.094914933336582e-13, 2.216185568393314e-12, 3.72287964345297e-12, 5.229573718512626e-12, 6.7362677935722814e-12, 8.242961868631937e-12, 9.749655943691593e-12, 1.1256350018751249e-11, 1.2763044093810905e-11, 1.426973816887056e-11, 1.5776432243930216e-11, 1.7283126318989872e-11, 1.8789820394049528e-11, 2.0296514469109184e-11, 2.180320854416884e-11, 2.3309902619228495e-11, 2.481659669428815e-11, 2.6323290769347807e-11, 2.7829984844407463e-11, 2.933667891946712e-11, 3.0843372994526774e-11, 3.235006706958643e-11, 3.3856761144646086e-11, 3.536345521970574e-11, 3.68701492947654e-11, 3.8376843369825053e-11, 3.988353744488471e-11, 4.1390231519944365e-11, 4.289692559500402e-11, 4.4403619670063676e-11, 4.591031374512333e-11, 4.741700782018299e-11]}, "gradients/attention_0.lin_l.weight": {"_type": "histogram", "values": [1.0, 0.0, 0.0, 0.0, 0.0, 0.0, 0.0, 0.0, 0.0, 0.0, 0.0, 0.0, 0.0, 0.0, 0.0, 0.0, 1.0, 0.0, 0.0, 1.0, 0.0, 0.0, 0.0, 0.0, 0.0, 1.0, 0.0, 0.0, 0.0, 0.0, 551.0, 0.0, 0.0, 0.0, 0.0, 1.0, 0.0, 0.0, 0.0, 0.0, 0.0, 0.0, 1.0, 0.0, 1.0, 1.0, 0.0, 0.0, 0.0, 0.0, 0.0, 0.0, 0.0, 0.0, 0.0, 0.0, 0.0, 0.0, 0.0, 0.0, 0.0, 0.0, 0.0, 1.0], "bins": [-1.2514852869571769e-06, -1.2099162631784566e-06, -1.1683471257128986e-06, -1.1267781019341783e-06, -1.0852089644686203e-06, -1.0436399406899e-06, -1.002070803224342e-06, -9.605017794456217e-07, -9.189326419800636e-07, -8.773635613579245e-07, -8.357944807357853e-07, -7.942254001136462e-07, -7.52656319491507e-07, -7.110872388693679e-07, -6.695181582472287e-07, -6.279491344685084e-07, -5.863800538463693e-07, -5.448109732242301e-07, -5.03241892602091e-07, -4.616728119799518e-07, -4.2010373135781265e-07, -3.785346507356735e-07, -3.3696559853524377e-07, -2.953965179131046e-07, -2.5382743729096546e-07, -2.122583566688263e-07, -1.7068927604668716e-07, -1.2912020963540272e-07, -8.755112901326356e-08, -4.598204839112441e-08, -4.4129819798399694e-09, 3.7156098642299185e-08, 7.872517926443834e-08, 1.202942598865775e-07, 1.6186334050871665e-07, 2.0343240692000109e-07, 2.4500150175299495e-07, 2.865705823751341e-07, 3.2813963457556383e-07, 3.69708715197703e-07, 4.1127779581984214e-07, 4.528468764419813e-07, 4.94415928642411e-07, 5.359850092645502e-07, 5.775540898866893e-07, 6.191231705088285e-07, 6.606922511309676e-07, 7.022613317531068e-07, 7.438304123752459e-07, 7.853994929973851e-07, 8.269685736195242e-07, 8.685376542416634e-07, 9.101067348638026e-07, 9.516758154859417e-07, 9.93244839264662e-07, 1.03481397673022e-06, 1.0763830005089403e-06, 1.1179520242876606e-06, 1.1595211617532186e-06, 1.201090185531939e-06, 1.242659322997497e-06, 1.2842283467762172e-06, 1.3257974842417752e-06, 1.3673665080204955e-06, 1.4089356454860535e-06]}, "mean_loss": 14.933999061584473, "_wandb": {"runtime": 31190}}