{"parameters/attention_0.att_l": {"_type": "histogram", "values": [1.0, 0.0, 0.0, 1.0, 0.0, 2.0, 0.0, 0.0, 1.0, 2.0, 0.0, 0.0, 0.0, 1.0, 1.0, 0.0, 0.0, 0.0, 2.0, 0.0, 1.0, 0.0, 1.0, 1.0, 2.0, 0.0, 0.0, 1.0, 0.0, 0.0, 0.0, 2.0, 0.0, 1.0, 0.0, 0.0, 0.0, 2.0, 0.0, 0.0, 0.0, 0.0, 1.0, 1.0, 0.0, 0.0, 1.0, 1.0, 0.0, 0.0, 0.0, 1.0, 1.0, 0.0, 0.0, 1.0, 0.0, 3.0, 1.0, 2.0, 0.0, 2.0, 1.0, 2.0], "bins": [-0.6322199702262878, -0.6126578450202942, -0.5930957198143005, -0.5735335350036621, -0.5539714097976685, -0.5344092845916748, -0.5148471593856812, -0.4952850341796875, -0.47572290897369385, -0.4561607837677002, -0.43659862875938416, -0.4170365035533905, -0.39747437834739685, -0.3779122233390808, -0.35835009813308716, -0.3387879729270935, -0.31922581791877747, -0.2996636927127838, -0.2801015377044678, -0.2605394124984741, -0.24097728729248047, -0.22141514718532562, -0.20185300707817078, -0.18229088187217712, -0.16272874176502228, -0.14316660165786743, -0.12360447645187378, -0.10404233634471893, -0.08448020368814468, -0.06491807103157043, -0.04535593092441559, -0.025793805718421936, -0.00623166561126709, 0.013330468907952309, 0.03289260342717171, 0.052454739809036255, 0.0720168724656105, 0.09157900512218475, 0.1111411452293396, 0.13070327043533325, 0.1502654105424881, 0.16982755064964294, 0.1893896758556366, 0.20895181596279144, 0.2285139560699463, 0.24807608127593994, 0.2676382064819336, 0.28720033168792725, 0.3067624866962433, 0.32632461190223694, 0.345886766910553, 0.36544889211654663, 0.3850110173225403, 0.40457314252853394, 0.42413529753685, 0.44369742274284363, 0.46325957775115967, 0.4828217029571533, 0.502383828163147, 0.5219459533691406, 0.541508138179779, 0.5610702633857727, 0.5806323885917664, 0.60019451379776, 0.6197566390037537]}, "parameters/attention_0.att_r": {"_type": "histogram", "values": [2.0, 1.0, 0.0, 1.0, 0.0, 1.0, 0.0, 1.0, 0.0, 1.0, 0.0, 1.0, 1.0, 1.0, 0.0, 1.0, 0.0, 0.0, 0.0, 2.0, 0.0, 1.0, 0.0, 2.0, 2.0, 3.0, 1.0, 2.0, 0.0, 2.0, 0.0, 0.0, 0.0, 0.0, 2.0, 0.0, 0.0, 0.0, 0.0, 1.0, 0.0, 0.0, 0.0, 0.0, 0.0, 2.0, 0.0, 2.0, 1.0, 0.0, 0.0, 0.0, 1.0, 1.0, 0.0, 0.0, 0.0, 1.0, 0.0, 0.0, 1.0, 0.0, 0.0, 2.0], "bins": [-0.6300205588340759, -0.6105018258094788, -0.5909831523895264, -0.5714644193649292, -0.551945686340332, -0.5324269533157349, -0.5129082798957825, -0.4933895468711853, -0.4738708436489105, -0.45435214042663574, -0.4348334074020386, -0.4153147041797638, -0.395796000957489, -0.37627726793289185, -0.35675856471061707, -0.3372398614883423, -0.3177211284637451, -0.29820242524147034, -0.27868369221687317, -0.2591649889945984, -0.23964627087116241, -0.22012755274772644, -0.20060884952545166, -0.18109013140201569, -0.1615714132785797, -0.14205269515514374, -0.12253398448228836, -0.10301527380943298, -0.08349655568599701, -0.06397783756256104, -0.04445912688970566, -0.02494041621685028, -0.005421698093414307, 0.014097016304731369, 0.033615730702877045, 0.05313444510102272, 0.0726531594991684, 0.09217187762260437, 0.11169058829545975, 0.13120929896831512, 0.1507280170917511, 0.17024673521518707, 0.18976545333862305, 0.20928415656089783, 0.2288028746843338, 0.24832159280776978, 0.26784029603004456, 0.28735899925231934, 0.3068777322769165, 0.3263964354991913, 0.34591516852378845, 0.36543387174606323, 0.3849526047706604, 0.4044713079929352, 0.42399001121520996, 0.44350874423980713, 0.4630274474620819, 0.4825461506843567, 0.5020648837089539, 0.521583616733551, 0.5411022901535034, 0.5606210231781006, 0.5801397562026978, 0.5996584296226501, 0.6191771626472473]}, "parameters/attention_0.bias": {"_type": "histogram", "values": [0.0, 0.0, 0.0, 0.0, 0.0, 0.0, 0.0, 0.0, 0.0, 0.0, 0.0, 0.0, 0.0, 0.0, 0.0, 0.0, 0.0, 0.0, 0.0, 0.0, 0.0, 0.0, 0.0, 0.0, 0.0, 0.0, 0.0, 0.0, 0.0, 0.0, 0.0, 0.0, 40.0, 0.0, 0.0, 0.0, 0.0, 0.0, 0.0, 0.0, 0.0, 0.0, 0.0, 0.0, 0.0, 0.0, 0.0, 0.0, 0.0, 0.0, 0.0, 0.0, 0.0, 0.0, 0.0, 0.0, 0.0, 0.0, 0.0, 0.0, 0.0, 0.0, 0.0, 0.0], "bins": [0.0, 0.0, 0.0, 0.0, 0.0, 0.0, 0.0, 0.0, 0.0, 0.0, 0.0, 0.0, 0.0, 0.0, 0.0, 0.0, 0.0, 0.0, 0.0, 0.0, 0.0, 0.0, 0.0, 0.0, 0.0, 0.0, 0.0, 0.0, 0.0, 0.0, 0.0, 0.0, 0.0, 0.0, 0.0, 0.0, 0.0, 0.0, 0.0, 0.0, 0.0, 0.0, 0.0, 0.0, 0.0, 0.0, 0.0, 0.0, 0.0, 0.0, 0.0, 0.0, 0.0, 0.0, 0.0, 0.0, 0.0, 0.0, 0.0, 0.0, 0.0, 0.0, 0.0, 0.0, 0.0]}, "parameters/attention_0.lin_l.weight": {"_type": "histogram", "values": [6.0, 9.0, 10.0, 9.0, 11.0, 4.0, 5.0, 3.0, 5.0, 4.0, 8.0, 6.0, 7.0, 6.0, 6.0, 11.0, 5.0, 11.0, 9.0, 11.0, 8.0, 7.0, 7.0, 11.0, 10.0, 9.0, 9.0, 12.0, 8.0, 9.0, 8.0, 9.0, 9.0, 7.0, 6.0, 4.0, 5.0, 3.0, 2.0, 8.0, 9.0, 4.0, 14.0, 8.0, 5.0, 10.0, 8.0, 5.0, 7.0, 5.0, 5.0, 7.0, 12.0, 6.0, 4.0, 6.0, 7.0, 7.0, 13.0, 5.0, 9.0, 8.0, 10.0, 9.0], "bins": [-0.33801326155662537, -0.32742801308631897, -0.3168427348136902, -0.3062574863433838, -0.2956722378730774, -0.285086989402771, -0.2745017111301422, -0.2639164626598358, -0.25333118438720703, -0.24274592101573944, -0.23216067254543304, -0.22157540917396545, -0.21099016070365906, -0.20040489733219147, -0.18981963396072388, -0.17923438549041748, -0.16864913702011108, -0.1580638736486435, -0.1474786251783371, -0.1368933618068695, -0.1263081133365631, -0.11572284996509552, -0.10513758659362793, -0.09455233067274094, -0.08396707475185394, -0.07338181883096695, -0.06279656291007996, -0.052211299538612366, -0.04162604361772537, -0.03104078769683838, -0.02045552432537079, -0.009870268404483795, 0.0007149577140808105, 0.011300215497612953, 0.021885473281145096, 0.03247073292732239, 0.04305598884820938, 0.053641244769096375, 0.06422650814056396, 0.07481176406145096, 0.08539701998233795, 0.09598227590322495, 0.10656753182411194, 0.11715279519557953, 0.12773805856704712, 0.13832330703735352, 0.1489085704088211, 0.1594938337802887, 0.1700790822505951, 0.18066434562206268, 0.19124959409236908, 0.20183485746383667, 0.21242010593414307, 0.22300536930561066, 0.23359063267707825, 0.24417588114738464, 0.2547611594200134, 0.2653464078903198, 0.2759316861629486, 0.286516934633255, 0.2971021831035614, 0.3076874613761902, 0.3182727098464966, 0.328857958316803, 0.3394432067871094]}, "parameters/attention_1.att_l": {"_type": "histogram", "values": [1.0, 1.0, 0.0, 0.0, 2.0, 1.0, 0.0, 0.0, 1.0, 0.0, 0.0, 1.0, 0.0, 0.0, 2.0, 0.0, 0.0, 0.0, 0.0, 0.0, 0.0, 1.0, 1.0, 1.0, 1.0, 0.0, 0.0, 1.0, 0.0, 0.0, 2.0, 0.0, 1.0, 1.0, 0.0, 1.0, 0.0, 0.0, 1.0, 0.0, 1.0, 0.0, 0.0, 1.0, 0.0, 0.0, 2.0, 0.0, 0.0, 1.0, 0.0, 0.0, 0.0, 0.0, 0.0, 1.0, 2.0, 0.0, 4.0, 1.0, 2.0, 4.0, 0.0, 1.0], "bins": [-0.6434661149978638, -0.6250818967819214, -0.6066977381706238, -0.5883135199546814, -0.5699293613433838, -0.5515451431274414, -0.5331609845161438, -0.5147767663002014, -0.4963925778865814, -0.4780083894729614, -0.45962420105934143, -0.44124001264572144, -0.42285579442977905, -0.40447163581848145, -0.38608741760253906, -0.36770322918891907, -0.3493190407752991, -0.3309348523616791, -0.3125506639480591, -0.2941664755344391, -0.2757822871208191, -0.2573980689048767, -0.2390138804912567, -0.22062969207763672, -0.20224550366401672, -0.18386131525039673, -0.16547712683677673, -0.14709292352199554, -0.12870873510837555, -0.11032454669475555, -0.09194035083055496, -0.07355615496635437, -0.05517202615737915, -0.03678783401846886, -0.018403641879558563, -1.9449740648269653e-05, 0.018364742398262024, 0.03674893081188202, 0.05513312667608261, 0.0735173225402832, 0.0919015109539032, 0.1102856993675232, 0.1286698877811432, 0.14705409109592438, 0.16543827950954437, 0.18382246792316437, 0.20220667123794556, 0.22059085965156555, 0.23897504806518555, 0.25735923647880554, 0.27574342489242554, 0.29412761330604553, 0.3125118017196655, 0.3308960199356079, 0.3492802083492279, 0.3676643967628479, 0.3860485851764679, 0.4044327735900879, 0.4228169620037079, 0.4412011504173279, 0.45958536863327026, 0.47796952724456787, 0.49635374546051025, 0.5147379636764526, 0.5331221222877502]}, "parameters/attention_1.att_r": {"_type": "histogram", "values": [3.0, 0.0, 0.0, 0.0, 2.0, 0.0, 1.0, 0.0, 0.0, 1.0, 0.0, 1.0, 1.0, 1.0, 0.0, 2.0, 0.0, 1.0, 1.0, 0.0, 0.0, 2.0, 1.0, 2.0, 0.0, 1.0, 0.0, 0.0, 0.0, 1.0, 0.0, 1.0, 0.0, 0.0, 0.0, 1.0, 2.0, 1.0, 0.0, 0.0, 0.0, 0.0, 0.0, 1.0, 0.0, 0.0, 1.0, 3.0, 0.0, 1.0, 0.0, 1.0, 2.0, 0.0, 0.0, 0.0, 0.0, 0.0, 0.0, 0.0, 1.0, 1.0, 1.0, 2.0], "bins": [-0.6531662344932556, -0.6334786415100098, -0.6137911081314087, -0.5941035151481628, -0.574415922164917, -0.5547283887863159, -0.5350407958030701, -0.5153532028198242, -0.49566566944122314, -0.4759781062602997, -0.4562905430793762, -0.43660295009613037, -0.4169153869152069, -0.39722782373428345, -0.3775402307510376, -0.35785266757011414, -0.3381651043891907, -0.3184775412082672, -0.29878997802734375, -0.2791023850440979, -0.25941482186317444, -0.23972725868225098, -0.22003968060016632, -0.20035210251808167, -0.1806645393371582, -0.16097697615623474, -0.14128939807415009, -0.12160182744264603, -0.10191425681114197, -0.08222668617963791, -0.06253911554813385, -0.042851537466049194, -0.023163974285125732, -0.0034764036536216736, 0.016211166977882385, 0.035898737609386444, 0.0555863082408905, 0.07527387887239456, 0.09496144950389862, 0.11464902758598328, 0.13433659076690674, 0.1540241539478302, 0.17371173202991486, 0.1933993101119995, 0.21308687329292297, 0.23277443647384644, 0.2524620294570923, 0.27214959263801575, 0.2918371558189392, 0.31152471899986267, 0.33121228218078613, 0.350899875164032, 0.37058743834495544, 0.3902750015258789, 0.40996259450912476, 0.4296501576900482, 0.4493377208709717, 0.46902528405189514, 0.4887128472328186, 0.5084004402160645, 0.5280879735946655, 0.5477755665779114, 0.5674631595611572, 0.5871506929397583, 0.6068382859230042]}, "parameters/attention_1.bias": {"_type": "histogram", "values": [0.0, 0.0, 0.0, 0.0, 0.0, 0.0, 0.0, 0.0, 0.0, 0.0, 0.0, 0.0, 0.0, 0.0, 0.0, 0.0, 0.0, 0.0, 0.0, 0.0, 0.0, 0.0, 0.0, 0.0, 0.0, 0.0, 0.0, 0.0, 0.0, 0.0, 0.0, 0.0, 40.0, 0.0, 0.0, 0.0, 0.0, 0.0, 0.0, 0.0, 0.0, 0.0, 0.0, 0.0, 0.0, 0.0, 0.0, 0.0, 0.0, 0.0, 0.0, 0.0, 0.0, 0.0, 0.0, 0.0, 0.0, 0.0, 0.0, 0.0, 0.0, 0.0, 0.0, 0.0], "bins": [0.0, 0.0, 0.0, 0.0, 0.0, 0.0, 0.0, 0.0, 0.0, 0.0, 0.0, 0.0, 0.0, 0.0, 0.0, 0.0, 0.0, 0.0, 0.0, 0.0, 0.0, 0.0, 0.0, 0.0, 0.0, 0.0, 0.0, 0.0, 0.0, 0.0, 0.0, 0.0, 0.0, 0.0, 0.0, 0.0, 0.0, 0.0, 0.0, 0.0, 0.0, 0.0, 0.0, 0.0, 0.0, 0.0, 0.0, 0.0, 0.0, 0.0, 0.0, 0.0, 0.0, 0.0, 0.0, 0.0, 0.0, 0.0, 0.0, 0.0, 0.0, 0.0, 0.0, 0.0, 0.0]}, "parameters/attention_1.lin_l.weight": {"_type": "histogram", "values": [18.0, 33.0, 23.0, 23.0, 19.0, 24.0, 29.0, 22.0, 25.0, 33.0, 27.0, 25.0, 29.0, 25.0, 23.0, 23.0, 31.0, 35.0, 28.0, 28.0, 29.0, 21.0, 27.0, 21.0, 20.0, 23.0, 35.0, 27.0, 28.0, 24.0, 24.0, 35.0, 19.0, 22.0, 30.0, 17.0, 28.0, 30.0, 25.0, 24.0, 22.0, 21.0, 19.0, 21.0, 25.0, 14.0, 30.0, 19.0, 25.0, 27.0, 24.0, 32.0, 21.0, 26.0, 24.0, 27.0, 28.0, 25.0, 18.0, 24.0, 27.0, 22.0, 19.0, 28.0], "bins": [-0.2728263735771179, -0.2642849087715149, -0.25574347376823425, -0.24720200896263123, -0.2386605590581894, -0.23011910915374756, -0.22157764434814453, -0.2130361944437027, -0.20449474453926086, -0.19595329463481903, -0.1874118447303772, -0.17887037992477417, -0.17032893002033234, -0.1617874801158905, -0.15324601531028748, -0.14470456540584564, -0.1361631155014038, -0.12762166559696198, -0.11908020824193954, -0.11053875088691711, -0.10199730098247528, -0.09345585107803345, -0.08491439372301102, -0.07637293636798859, -0.06783148646354675, -0.05929003283381462, -0.05074857920408249, -0.04220712557435036, -0.033665671944618225, -0.025124218314886093, -0.01658276468515396, -0.00804131105542183, 0.0005001723766326904, 0.009041626006364822, 0.017583079636096954, 0.026124533265829086, 0.03466598689556122, 0.04320744052529335, 0.05174889415502548, 0.060290347784757614, 0.06883180141448975, 0.07737325131893158, 0.08591470867395401, 0.09445616602897644, 0.10299761593341827, 0.11153906583786011, 0.12008052319288254, 0.12862198054790497, 0.1371634304523468, 0.14570488035678864, 0.15424633026123047, 0.1627877950668335, 0.17132924497127533, 0.17987069487571716, 0.1884121596813202, 0.19695360958576202, 0.20549505949020386, 0.2140365093946457, 0.22257795929908752, 0.23111942410469055, 0.23966087400913239, 0.24820232391357422, 0.25674378871917725, 0.2652852237224579, 0.2738266885280609]}, "parameters/attention_2.att_l": {"_type": "histogram", "values": [1.0, 0.0, 0.0, 0.0, 2.0, 1.0, 0.0, 1.0, 1.0, 0.0, 0.0, 0.0, 0.0, 2.0, 1.0, 2.0, 0.0, 0.0, 2.0, 0.0, 0.0, 0.0, 2.0, 0.0, 0.0, 2.0, 0.0, 0.0, 0.0, 1.0, 1.0, 0.0, 0.0, 0.0, 0.0, 1.0, 1.0, 0.0, 1.0, 0.0, 0.0, 0.0, 0.0, 1.0, 2.0, 0.0, 0.0, 0.0, 1.0, 1.0, 2.0, 0.0, 1.0, 1.0, 0.0, 0.0, 1.0, 2.0, 1.0, 0.0, 0.0, 1.0, 1.0, 3.0], "bins": [-0.6274065971374512, -0.6078252196311951, -0.588243842124939, -0.5686624646186829, -0.5490810871124268, -0.5294997096061707, -0.5099183320999146, -0.49033698439598083, -0.47075560688972473, -0.45117422938346863, -0.4315928518772125, -0.4120114743709564, -0.3924301266670227, -0.3728487491607666, -0.3532673716545105, -0.3336859941482544, -0.3141046166419983, -0.2945232391357422, -0.2749418616294861, -0.25536048412323, -0.23577912151813507, -0.21619774401187897, -0.19661638140678406, -0.17703500390052795, -0.15745362639427185, -0.13787224888801575, -0.11829087883234024, -0.09870950877666473, -0.07912813127040863, -0.05954675376415253, -0.03996538370847702, -0.020384013652801514, -0.0008025765419006348, 0.01877879723906517, 0.038360171020030975, 0.05794154480099678, 0.07752291858196259, 0.09710429608821869, 0.1166856661438942, 0.1362670361995697, 0.1558484137058258, 0.1754297912120819, 0.195011168718338, 0.21459253132343292, 0.23417390882968903, 0.25375527143478394, 0.27333664894104004, 0.29291802644729614, 0.31249940395355225, 0.33208078145980835, 0.35166215896606445, 0.37124353647232056, 0.39082491397857666, 0.41040629148483276, 0.4299876391887665, 0.4495690166950226, 0.4691503942012787, 0.4887317717075348, 0.5083131194114685, 0.5278944969177246, 0.5474758744239807, 0.5670572519302368, 0.5866386294364929, 0.606220006942749, 0.6258013844490051]}, "parameters/attention_2.att_r": {"_type": "histogram", "values": [1.0, 0.0, 0.0, 1.0, 0.0, 1.0, 1.0, 2.0, 1.0, 1.0, 0.0, 0.0, 2.0, 1.0, 0.0, 1.0, 0.0, 0.0, 0.0, 1.0, 0.0, 2.0, 1.0, 1.0, 0.0, 0.0, 2.0, 0.0, 0.0, 1.0, 2.0, 0.0, 0.0, 0.0, 1.0, 0.0, 1.0, 0.0, 0.0, 1.0, 2.0, 2.0, 0.0, 1.0, 0.0, 0.0, 1.0, 0.0, 0.0, 1.0, 0.0, 0.0, 0.0, 1.0, 1.0, 0.0, 0.0, 0.0, 1.0, 1.0, 0.0, 2.0, 1.0, 1.0], "bins": [-0.6241268515586853, -0.6052256226539612, -0.5863243341445923, -0.5674231052398682, -0.548521876335144, -0.5296206474304199, -0.510719358921051, -0.4918181300163269, -0.4729168713092804, -0.4540156126022339, -0.43511438369750977, -0.41621312499046326, -0.39731186628341675, -0.3784106373786926, -0.3595093786716461, -0.3406081199645996, -0.3217068910598755, -0.302805632352829, -0.28390440344810486, -0.26500314474105835, -0.24610190093517303, -0.22720065712928772, -0.2082993984222412, -0.1893981546163559, -0.17049691081047058, -0.15159566700458527, -0.13269442319869995, -0.11379316449165344, -0.09489192068576813, -0.07599067687988281, -0.0570894256234169, -0.03818817436695099, -0.01928699016571045, -0.0003857426345348358, 0.018515504896640778, 0.03741675242781639, 0.056317999958992004, 0.07521924376487732, 0.09412049502134323, 0.11302174627780914, 0.13192299008369446, 0.15082423388957977, 0.1697254776954651, 0.1886267364025116, 0.2075279802083969, 0.22642922401428223, 0.24533048272132874, 0.26423174142837524, 0.28313297033309937, 0.3020342290401459, 0.32093545794487, 0.3398367166519165, 0.3587379455566406, 0.37763920426368713, 0.39654046297073364, 0.41544169187545776, 0.4343429505825043, 0.4532442092895508, 0.4721454381942749, 0.4910466969013214, 0.5099479556083679, 0.528849184513092, 0.5477504134178162, 0.5666517019271851, 0.5855529308319092]}, "parameters/attention_2.bias": {"_type": "histogram", "values": [0.0, 0.0, 0.0, 0.0, 0.0, 0.0, 0.0, 0.0, 0.0, 0.0, 0.0, 0.0, 0.0, 0.0, 0.0, 0.0, 0.0, 0.0, 0.0, 0.0, 0.0, 0.0, 0.0, 0.0, 0.0, 0.0, 0.0, 0.0, 0.0, 0.0, 0.0, 0.0, 40.0, 0.0, 0.0, 0.0, 0.0, 0.0, 0.0, 0.0, 0.0, 0.0, 0.0, 0.0, 0.0, 0.0, 0.0, 0.0, 0.0, 0.0, 0.0, 0.0, 0.0, 0.0, 0.0, 0.0, 0.0, 0.0, 0.0, 0.0, 0.0, 0.0, 0.0, 0.0], "bins": [0.0, 0.0, 0.0, 0.0, 0.0, 0.0, 0.0, 0.0, 0.0, 0.0, 0.0, 0.0, 0.0, 0.0, 0.0, 0.0, 0.0, 0.0, 0.0, 0.0, 0.0, 0.0, 0.0, 0.0, 0.0, 0.0, 0.0, 0.0, 0.0, 0.0, 0.0, 0.0, 0.0, 0.0, 0.0, 0.0, 0.0, 0.0, 0.0, 0.0, 0.0, 0.0, 0.0, 0.0, 0.0, 0.0, 0.0, 0.0, 0.0, 0.0, 0.0, 0.0, 0.0, 0.0, 0.0, 0.0, 0.0, 0.0, 0.0, 0.0, 0.0, 0.0, 0.0, 0.0, 0.0]}, "parameters/attention_2.lin_l.weight": {"_type": "histogram", "values": [27.0, 25.0, 21.0, 22.0, 32.0, 22.0, 26.0, 27.0, 33.0, 23.0, 17.0, 26.0, 26.0, 26.0, 29.0, 28.0, 22.0, 24.0, 30.0, 29.0, 23.0, 27.0, 29.0, 24.0, 21.0, 21.0, 26.0, 33.0, 20.0, 25.0, 24.0, 20.0, 22.0, 20.0, 30.0, 29.0, 23.0, 22.0, 27.0, 24.0, 22.0, 31.0, 27.0, 19.0, 27.0, 29.0, 20.0, 24.0, 20.0, 20.0, 24.0, 15.0, 27.0, 30.0, 21.0, 21.0, 20.0, 24.0, 26.0, 27.0, 29.0, 39.0, 24.0, 29.0], "bins": [-0.27354177832603455, -0.26499396562576294, -0.25644615292549133, -0.24789834022521973, -0.23935052752494812, -0.2308027148246765, -0.2222549170255661, -0.2137071043252945, -0.2051592916250229, -0.19661147892475128, -0.18806366622447968, -0.17951585352420807, -0.17096805572509766, -0.16242024302482605, -0.15387243032455444, -0.14532461762428284, -0.13677680492401123, -0.12822899222373962, -0.11968117952346802, -0.11113337427377701, -0.1025855615735054, -0.0940377488732338, -0.08548994362354279, -0.07694213092327118, -0.06839431822299957, -0.059846505522727966, -0.05129869654774666, -0.04275088757276535, -0.034203074872493744, -0.025655262172222137, -0.01710745319724083, -0.008559644222259521, -1.1831521987915039e-05, 0.008535979315638542, 0.017083790153265, 0.025631600990891457, 0.034179411828517914, 0.04272722452878952, 0.05127503350377083, 0.059822842478752136, 0.06837065517902374, 0.07691846787929535, 0.08546628057956696, 0.09401408582925797, 0.10256189852952957, 0.11110971122980118, 0.11965751647949219, 0.1282053291797638, 0.1367531418800354, 0.145300954580307, 0.1538487672805786, 0.16239657998085022, 0.17094439268112183, 0.17949220538139343, 0.18804000318050385, 0.19658781588077545, 0.20513562858104706, 0.21368344128131866, 0.22223125398159027, 0.23077906668186188, 0.2393268644809723, 0.2478746771812439, 0.2564224898815155, 0.2649703025817871, 0.2735181152820587]}, "parameters/out_att.att_l": {"_type": "histogram", "values": [0.0, 0.0, 0.0, 0.0, 0.0, 0.0, 0.0, 0.0, 0.0, 0.0, 0.0, 0.0, 0.0, 0.0, 0.0, 0.0, 0.0, 0.0, 0.0, 0.0, 0.0, 0.0, 0.0, 0.0, 0.0, 0.0, 0.0, 0.0, 0.0, 0.0, 0.0, 1.0, 0.0, 0.0, 0.0, 0.0, 0.0, 0.0, 0.0, 0.0, 0.0, 0.0, 0.0, 0.0, 0.0, 0.0, 0.0, 0.0, 0.0, 0.0, 0.0, 0.0, 0.0, 0.0, 0.0, 0.0, 0.0, 0.0, 0.0, 0.0, 0.0, 0.0, 0.0, 0.0], "bins": [-1.6928902864456177, -1.6928902864456177, -1.6928902864456177, -1.6928902864456177, -1.6928902864456177, -1.6928902864456177, -1.6928902864456177, -1.6928902864456177, -1.6928902864456177, -1.6928902864456177, -1.6928902864456177, -1.6928902864456177, -1.6928902864456177, -1.6928902864456177, -1.6928902864456177, -1.6928902864456177, -1.6928902864456177, -1.6928902864456177, -1.6928902864456177, -1.6928902864456177, -1.6928902864456177, -1.6928902864456177, -1.6928902864456177, -1.6928902864456177, -1.6928902864456177, -1.6928902864456177, -1.6928902864456177, -1.6928902864456177, -1.6928902864456177, -1.6928902864456177, -1.6928902864456177, -1.6928902864456177, -1.6928902864456177, -1.6928902864456177, -1.6928902864456177, -1.6928902864456177, -1.6928902864456177, -1.6928902864456177, -1.6928902864456177, -1.6928902864456177, -1.6928902864456177, -1.6928902864456177, -1.6928902864456177, -1.6928902864456177, -1.6928902864456177, -1.6928902864456177, -1.6928902864456177, -1.6928902864456177, -1.6928902864456177, -1.6928902864456177, -1.6928902864456177, -1.6928902864456177, -1.6928902864456177, -1.6928902864456177, -1.6928902864456177, -1.6928902864456177, -1.6928902864456177, -1.6928902864456177, -1.6928902864456177, -1.6928902864456177, -1.6928902864456177, -1.6928902864456177, -1.6928902864456177, -1.6928902864456177, -1.6928902864456177]}, "parameters/out_att.att_r": {"_type": "histogram", "values": [0.0, 0.0, 0.0, 0.0, 0.0, 0.0, 0.0, 0.0, 0.0, 0.0, 0.0, 0.0, 0.0, 0.0, 0.0, 0.0, 0.0, 0.0, 0.0, 0.0, 0.0, 0.0, 0.0, 0.0, 0.0, 0.0, 0.0, 0.0, 0.0, 0.0, 0.0, 0.0, 1.0, 0.0, 0.0, 0.0, 0.0, 0.0, 0.0, 0.0, 0.0, 0.0, 0.0, 0.0, 0.0, 0.0, 0.0, 0.0, 0.0, 0.0, 0.0, 0.0, 0.0, 0.0, 0.0, 0.0, 0.0, 0.0, 0.0, 0.0, 0.0, 0.0, 0.0, 0.0], "bins": [-0.14716409146785736, -0.14716409146785736, -0.14716409146785736, -0.14716409146785736, -0.14716409146785736, -0.14716409146785736, -0.14716409146785736, -0.14716409146785736, -0.14716409146785736, -0.14716409146785736, -0.14716409146785736, -0.14716409146785736, -0.14716409146785736, -0.14716409146785736, -0.14716409146785736, -0.14716409146785736, -0.14716409146785736, -0.14716409146785736, -0.14716409146785736, -0.14716409146785736, -0.14716409146785736, -0.14716409146785736, -0.14716409146785736, -0.14716409146785736, -0.14716409146785736, -0.14716409146785736, -0.14716409146785736, -0.14716409146785736, -0.14716409146785736, -0.14716409146785736, -0.14716409146785736, -0.14716409146785736, -0.14716409146785736, -0.14716409146785736, -0.14716409146785736, -0.14716409146785736, -0.14716409146785736, -0.14716409146785736, -0.14716409146785736, -0.14716409146785736, -0.14716409146785736, -0.14716409146785736, -0.14716409146785736, -0.14716409146785736, -0.14716409146785736, -0.14716409146785736, -0.14716409146785736, -0.14716409146785736, -0.14716409146785736, -0.14716409146785736, -0.14716409146785736, -0.14716409146785736, -0.14716409146785736, -0.14716409146785736, -0.14716409146785736, -0.14716409146785736, -0.14716409146785736, -0.14716409146785736, -0.14716409146785736, -0.14716409146785736, -0.14716409146785736, -0.14716409146785736, -0.14716409146785736, -0.14716409146785736, -0.14716409146785736]}, "parameters/out_att.bias": {"_type": "histogram", "values": [0.0, 0.0, 0.0, 0.0, 0.0, 0.0, 0.0, 0.0, 0.0, 0.0, 0.0, 0.0, 0.0, 0.0, 0.0, 0.0, 0.0, 0.0, 0.0, 0.0, 0.0, 0.0, 0.0, 0.0, 0.0, 0.0, 0.0, 0.0, 0.0, 0.0, 0.0, 0.0, 1.0, 0.0, 0.0, 0.0, 0.0, 0.0, 0.0, 0.0, 0.0, 0.0, 0.0, 0.0, 0.0, 0.0, 0.0, 0.0, 0.0, 0.0, 0.0, 0.0, 0.0, 0.0, 0.0, 0.0, 0.0, 0.0, 0.0, 0.0, 0.0, 0.0, 0.0, 0.0], "bins": [0.0, 0.0, 0.0, 0.0, 0.0, 0.0, 0.0, 0.0, 0.0, 0.0, 0.0, 0.0, 0.0, 0.0, 0.0, 0.0, 0.0, 0.0, 0.0, 0.0, 0.0, 0.0, 0.0, 0.0, 0.0, 0.0, 0.0, 0.0, 0.0, 0.0, 0.0, 0.0, 0.0, 0.0, 0.0, 0.0, 0.0, 0.0, 0.0, 0.0, 0.0, 0.0, 0.0, 0.0, 0.0, 0.0, 0.0, 0.0, 0.0, 0.0, 0.0, 0.0, 0.0, 0.0, 0.0, 0.0, 0.0, 0.0, 0.0, 0.0, 0.0, 0.0, 0.0, 0.0, 0.0]}, "parameters/out_att.lin_l.weight": {"_type": "histogram", "values": [2.0, 0.0, 1.0, 2.0, 0.0, 1.0, 0.0, 0.0, 2.0, 0.0, 0.0, 1.0, 0.0, 0.0, 1.0, 0.0, 0.0, 0.0, 0.0, 2.0, 2.0, 0.0, 0.0, 0.0, 1.0, 2.0, 0.0, 0.0, 0.0, 1.0, 0.0, 2.0, 0.0, 0.0, 0.0, 1.0, 0.0, 0.0, 2.0, 2.0, 0.0, 1.0, 0.0, 2.0, 1.0, 0.0, 0.0, 0.0, 0.0, 1.0, 0.0, 0.0, 1.0, 1.0, 0.0, 0.0, 1.0, 1.0, 0.0, 2.0, 0.0, 0.0, 1.0, 3.0], "bins": [-0.372744619846344, -0.36133134365081787, -0.34991806745529175, -0.3385047912597656, -0.3270915150642395, -0.3156782388687134, -0.30426496267318726, -0.29285168647766113, -0.281438410282135, -0.2700251340866089, -0.25861185789108276, -0.24719858169555664, -0.23578530550003052, -0.2243720293045044, -0.21295875310897827, -0.20154547691345215, -0.19013218581676483, -0.1787189096212387, -0.16730563342571259, -0.15589235723018646, -0.14447908103466034, -0.13306580483913422, -0.1216525211930275, -0.11023924499750137, -0.09882596880197525, -0.08741269260644913, -0.075999416410923, -0.06458613276481628, -0.05317286029458046, -0.04175958409905434, -0.030346304178237915, -0.018933027982711792, -0.007519751787185669, 0.0038935253396630287, 0.015306802466511726, 0.026720080524683, 0.03813335672020912, 0.049546632915735245, 0.060959912836551666, 0.07237318903207779, 0.08378646522760391, 0.09519974142313004, 0.10661301761865616, 0.11802630126476288, 0.129439577460289, 0.14085285365581512, 0.15226612985134125, 0.16367940604686737, 0.1750926822423935, 0.18650595843791962, 0.19791923463344574, 0.20933251082897186, 0.22074578702449799, 0.2321590632200241, 0.24357235431671143, 0.25498563051223755, 0.26639890670776367, 0.2778121829032898, 0.2892254590988159, 0.30063873529434204, 0.31205201148986816, 0.3234652876853943, 0.3348785638809204, 0.34629184007644653, 0.35770511627197266]}, "_runtime": 1101, "_timestamp": 1641522662, "_step": 9, "Learning rate value": 0.006399999999999997, "Learning rate action": 0.006399999999999997, "epsilon": 0.9135172474836407, "action_probs": {"_type": "histogram", "values": [2, 0, 0, 0, 0, 0, 0, 0, 0, 0, 0, 2, 2, 0, 4, 2, 2, 2, 2, 0, 0, 2, 0, 0, 0, 0, 2, 2, 0, 0, 2, 0, 2, 2, 4, 2, 6, 0, 2, 2, 4, 0, 0, 2, 4, 2, 2, 0, 6, 0, 4, 2, 4, 0, 0, 2, 2, 0, 0, 0, 0, 0, 0, 4], "bins": [0.4101449251174927, 0.4127819240093231, 0.41541895270347595, 0.4180559515953064, 0.42069295048713684, 0.4233299493789673, 0.4259669780731201, 0.42860397696495056, 0.431240975856781, 0.43387800455093384, 0.4365150034427643, 0.4391520023345947, 0.44178900122642517, 0.444426029920578, 0.44706302881240845, 0.4497000277042389, 0.45233702659606934, 0.45497405529022217, 0.4576110541820526, 0.46024805307388306, 0.4628850817680359, 0.46552208065986633, 0.4681590795516968, 0.4707960784435272, 0.47343310713768005, 0.4760701060295105, 0.47870710492134094, 0.4813441336154938, 0.4839811325073242, 0.48661813139915466, 0.4892551302909851, 0.49189215898513794, 0.4945291578769684, 0.49716615676879883, 0.49980318546295166, 0.5024401545524597, 0.5050771832466125, 0.5077142119407654, 0.5103511810302734, 0.5129882097244263, 0.5156252384185791, 0.5182622075080872, 0.52089923620224, 0.5235362648963928, 0.5261732339859009, 0.5288102626800537, 0.5314472317695618, 0.5340842604637146, 0.5367212891578674, 0.5393582582473755, 0.5419952869415283, 0.5446323156356812, 0.5472692847251892, 0.549906313419342, 0.5525433421134949, 0.5551803112030029, 0.5578173398971558, 0.5604543685913086, 0.5630913376808167, 0.5657283663749695, 0.5683653354644775, 0.5710023641586304, 0.5736393928527832, 0.5762763619422913, 0.5789133906364441]}, "stop_go_action": {"_type": "histogram", "values": [30, 0, 0, 0, 0, 0, 0, 0, 0, 0, 0, 0, 0, 0, 0, 0, 0, 0, 0, 0, 0, 0, 0, 0, 0, 0, 0, 0, 0, 0, 0, 0, 0, 0, 0, 0, 0, 0, 0, 0, 0, 0, 0, 0, 0, 0, 0, 0, 0, 0, 0, 0, 0, 0, 0, 0, 0, 0, 0, 0, 0, 0, 0, 54], "bins": [0.0, 0.015625, 0.03125, 0.046875, 0.0625, 0.078125, 0.09375, 0.109375, 0.125, 0.140625, 0.15625, 0.171875, 0.1875, 0.203125, 0.21875, 0.234375, 0.25, 0.265625, 0.28125, 0.296875, 0.3125, 0.328125, 0.34375, 0.359375, 0.375, 0.390625, 0.40625, 0.421875, 0.4375, 0.453125, 0.46875, 0.484375, 0.5, 0.515625, 0.53125, 0.546875, 0.5625, 0.578125, 0.59375, 0.609375, 0.625, 0.640625, 0.65625, 0.671875, 0.6875, 0.703125, 0.71875, 0.734375, 0.75, 0.765625, 0.78125, 0.796875, 0.8125, 0.828125, 0.84375, 0.859375, 0.875, 0.890625, 0.90625, 0.921875, 0.9375, 0.953125, 0.96875, 0.984375, 1.0]}, "node_values": {"_type": "histogram", "values": [1, 0, 0, 0, 0, 0, 0, 0, 0, 0, 1, 0, 0, 0, 0, 0, 0, 0, 0, 0, 0, 0, 5, 0, 0, 0, 0, 0, 0, 0, 2, 0, 2, 0, 0, 6, 6, 0, 0, 0, 4, 0, 0, 0, 0, 0, 0, 3, 1, 2, 0, 0, 0, 0, 0, 0, 0, 0, 0, 1, 1, 0, 3, 4], "bins": [-0.9491388201713562, -0.9379298957064748, -0.9267209712415934, -0.9155120467767119, -0.9043031223118305, -0.8930941978469491, -0.8818852733820677, -0.8706763489171863, -0.8594674244523048, -0.8482584999874234, -0.837049575522542, -0.8258406510576606, -0.8146317265927792, -0.8034228021278977, -0.7922138776630163, -0.7810049531981349, -0.7697960287332535, -0.7585871042683721, -0.7473781798034906, -0.7361692553386092, -0.7249603308737278, -0.7137514064088464, -0.702542481943965, -0.6913335574790835, -0.6801246330142021, -0.6689157085493207, -0.6577067840844393, -0.6464978596195579, -0.6352889351546764, -0.624080010689795, -0.6128710862249136, -0.6016621617600322, -0.5904532372951508, -0.5792443128302693, -0.5680353883653879, -0.5568264639005065, -0.5456175394356251, -0.5344086149707437, -0.5231996905058622, -0.5119907660409808, -0.5007818415760994, -0.489572917111218, -0.47836399264633656, -0.46715506818145514, -0.4559461437165737, -0.4447372192516923, -0.4335282947868109, -0.42231937032192945, -0.41111044585704803, -0.3999015213921666, -0.3886925969272852, -0.3774836724624038, -0.36627474799752235, -0.35506582353264093, -0.3438568990677595, -0.3326479746028781, -0.3214390501379967, -0.31023012567311525, -0.29902120120823383, -0.2878122767433524, -0.276603352278471, -0.2653944278135896, -0.25418550334870815, -0.24297657888382673, -0.2317676544189453]}, "episode_rewards": {"_type": "histogram", "values": [12, 0, 0, 0, 0, 0, 0, 0, 0, 0, 12, 0, 0, 0, 0, 0, 0, 0, 0, 0, 0, 0, 0, 0, 0, 0, 0, 0, 0, 0, 0, 0, 0, 0, 0, 0, 0, 0, 0, 0, 0, 0, 0, 0, 0, 0, 0, 0, 0, 0, 0, 14, 0, 0, 0, 0, 12, 0, 0, 0, 0, 4, 0, 4], "bins": [-25.0, -24.609375, -24.21875, -23.828125, -23.4375, -23.046875, -22.65625, -22.265625, -21.875, -21.484375, -21.09375, -20.703125, -20.3125, -19.921875, -19.53125, -19.140625, -18.75, -18.359375, -17.96875, -17.578125, -17.1875, -16.796875, -16.40625, -16.015625, -15.625, -15.234375, -14.84375, -14.453125, -14.0625, -13.671875, -13.28125, -12.890625, -12.5, -12.109375, -11.71875, -11.328125, -10.9375, -10.546875, -10.15625, -9.765625, -9.375, -8.984375, -8.59375, -8.203125, -7.8125, -7.421875, -7.03125, -6.640625, -6.25, -5.859375, -5.46875, -5.078125, -4.6875, -4.296875, -3.90625, -3.515625, -3.125, -2.734375, -2.34375, -1.953125, -1.5625, -1.171875, -0.78125, -0.390625, 0.0]}}