{"parameters/attention_0.att_l": {"_type": "histogram", "values": [1.0, 0.0, 0.0, 0.0, 1.0, 0.0, 1.0, 1.0, 0.0, 1.0, 0.0, 0.0, 3.0, 0.0, 1.0, 0.0, 0.0, 0.0, 0.0, 2.0, 0.0, 0.0, 0.0, 1.0, 0.0, 1.0, 0.0, 1.0, 0.0, 1.0, 1.0, 0.0, 0.0, 3.0, 0.0, 0.0, 0.0, 1.0, 0.0, 0.0, 2.0, 1.0, 0.0, 1.0, 0.0, 3.0, 2.0, 0.0, 0.0, 3.0, 0.0, 2.0, 1.0, 0.0, 0.0, 1.0, 0.0, 1.0, 1.0, 0.0, 0.0, 1.0, 0.0, 1.0], "bins": [-0.5817441940307617, -0.5626007318496704, -0.5434572696685791, -0.524313747882843, -0.5051702857017517, -0.4860268235206604, -0.4668833315372467, -0.447739839553833, -0.4285963773727417, -0.4094529151916504, -0.3903094232082367, -0.371165931224823, -0.3520224690437317, -0.3328790068626404, -0.3137355148792267, -0.294592022895813, -0.2754485607147217, -0.25630509853363037, -0.23716160655021667, -0.21801812946796417, -0.19887465238571167, -0.17973117530345917, -0.16058769822120667, -0.14144422113895416, -0.12230074405670166, -0.10315726697444916, -0.08401378989219666, -0.06487031280994415, -0.04572683572769165, -0.026583358645439148, -0.0074398815631866455, 0.011703595519065857, 0.030847012996673584, 0.049990490078926086, 0.06913396716117859, 0.08827744424343109, 0.1074209213256836, 0.1265643984079361, 0.1457078754901886, 0.1648513525724411, 0.1839948296546936, 0.2031383067369461, 0.2222817838191986, 0.2414252609014511, 0.2605687379837036, 0.2797122001647949, 0.2988556921482086, 0.3179991841316223, 0.3371426463127136, 0.35628610849380493, 0.37542960047721863, 0.3945730924606323, 0.41371655464172363, 0.43286001682281494, 0.45200350880622864, 0.47114700078964233, 0.49029046297073364, 0.509433925151825, 0.528577446937561, 0.5477209091186523, 0.5668643712997437, 0.586007833480835, 0.6051512956619263, 0.6242948174476624, 0.6434382796287537]}, "parameters/attention_0.att_r": {"_type": "histogram", "values": [2.0, 1.0, 1.0, 1.0, 0.0, 1.0, 0.0, 0.0, 1.0, 1.0, 1.0, 0.0, 1.0, 1.0, 0.0, 0.0, 0.0, 0.0, 1.0, 1.0, 0.0, 0.0, 0.0, 1.0, 2.0, 0.0, 1.0, 0.0, 0.0, 0.0, 0.0, 1.0, 0.0, 0.0, 2.0, 1.0, 1.0, 0.0, 1.0, 0.0, 0.0, 0.0, 0.0, 0.0, 2.0, 0.0, 2.0, 1.0, 1.0, 0.0, 1.0, 1.0, 0.0, 0.0, 1.0, 1.0, 1.0, 3.0, 1.0, 1.0, 0.0, 0.0, 0.0, 1.0], "bins": [-0.6459757089614868, -0.6262020468711853, -0.606428325176239, -0.5866546630859375, -0.566881000995636, -0.5471073389053345, -0.5273336172103882, -0.5075599551200867, -0.48778626322746277, -0.46801257133483887, -0.44823890924453735, -0.42846521735191345, -0.40869152545928955, -0.38891786336898804, -0.36914417147636414, -0.34937047958374023, -0.3295968174934387, -0.3098231256008148, -0.2900494635105133, -0.2702757716178894, -0.2505021095275879, -0.230728417634964, -0.2109547257423401, -0.19118104875087738, -0.17140737175941467, -0.15163369476795197, -0.13186001777648926, -0.11208632588386536, -0.09231264889240265, -0.07253897190093994, -0.05276528745889664, -0.03299160301685333, -0.01321786642074585, 0.006555814296007156, 0.026329495012760162, 0.04610317572951317, 0.06587685644626617, 0.08565053343772888, 0.10542421787977219, 0.1251979023218155, 0.1449715793132782, 0.1647452563047409, 0.1845189332962036, 0.20429262518882751, 0.22406630218029022, 0.24383997917175293, 0.26361367106437683, 0.28338736295700073, 0.30316102504730225, 0.32293471693992615, 0.34270837903022766, 0.36248207092285156, 0.3822557330131531, 0.402029424905777, 0.4218031167984009, 0.4415767788887024, 0.4613504707813263, 0.4811241626739502, 0.5008978247642517, 0.5206714868545532, 0.5404452085494995, 0.560218870639801, 0.5799925327301025, 0.5997662544250488, 0.6195399165153503]}, "parameters/attention_0.bias": {"_type": "histogram", "values": [0.0, 0.0, 0.0, 0.0, 0.0, 0.0, 0.0, 0.0, 0.0, 0.0, 0.0, 0.0, 0.0, 0.0, 0.0, 0.0, 0.0, 0.0, 0.0, 0.0, 0.0, 0.0, 0.0, 0.0, 0.0, 0.0, 0.0, 0.0, 0.0, 0.0, 0.0, 0.0, 40.0, 0.0, 0.0, 0.0, 0.0, 0.0, 0.0, 0.0, 0.0, 0.0, 0.0, 0.0, 0.0, 0.0, 0.0, 0.0, 0.0, 0.0, 0.0, 0.0, 0.0, 0.0, 0.0, 0.0, 0.0, 0.0, 0.0, 0.0, 0.0, 0.0, 0.0, 0.0], "bins": [0.0, 0.0, 0.0, 0.0, 0.0, 0.0, 0.0, 0.0, 0.0, 0.0, 0.0, 0.0, 0.0, 0.0, 0.0, 0.0, 0.0, 0.0, 0.0, 0.0, 0.0, 0.0, 0.0, 0.0, 0.0, 0.0, 0.0, 0.0, 0.0, 0.0, 0.0, 0.0, 0.0, 0.0, 0.0, 0.0, 0.0, 0.0, 0.0, 0.0, 0.0, 0.0, 0.0, 0.0, 0.0, 0.0, 0.0, 0.0, 0.0, 0.0, 0.0, 0.0, 0.0, 0.0, 0.0, 0.0, 0.0, 0.0, 0.0, 0.0, 0.0, 0.0, 0.0, 0.0, 0.0]}, "parameters/attention_0.lin_l.weight": {"_type": "histogram", "values": [11.0, 4.0, 8.0, 9.0, 11.0, 6.0, 8.0, 12.0, 10.0, 18.0, 9.0, 10.0, 7.0, 5.0, 9.0, 5.0, 6.0, 13.0, 6.0, 7.0, 10.0, 5.0, 7.0, 11.0, 8.0, 4.0, 6.0, 11.0, 8.0, 13.0, 12.0, 6.0, 9.0, 9.0, 13.0, 13.0, 9.0, 9.0, 4.0, 15.0, 8.0, 5.0, 10.0, 10.0, 8.0, 5.0, 9.0, 12.0, 12.0, 11.0, 10.0, 5.0, 9.0, 10.0, 4.0, 8.0, 7.0, 16.0, 8.0, 11.0, 7.0, 8.0, 7.0, 4.0], "bins": [-0.3332647979259491, -0.32287678122520447, -0.31248876452445984, -0.3021007478237152, -0.2917127311229706, -0.28132471442222595, -0.2709366977214813, -0.2605486512184143, -0.2501606345176697, -0.23977261781692505, -0.22938460111618042, -0.2189965844154358, -0.20860856771469116, -0.19822055101394653, -0.1878325194120407, -0.17744450271129608, -0.16705650091171265, -0.15666848421096802, -0.1462804675102234, -0.13589245080947876, -0.12550443410873413, -0.1151164099574089, -0.10472838580608368, -0.09434036910533905, -0.08395235240459442, -0.07356433570384979, -0.06317631900310516, -0.05278829485177994, -0.04240027815103531, -0.03201226145029068, -0.021624241024255753, -0.011236220598220825, -0.0008481740951538086, 0.00953984446823597, 0.019927863031625748, 0.030315881595015526, 0.040703900158405304, 0.05109191685914993, 0.06147993728518486, 0.07186795771121979, 0.08225597441196442, 0.09264399111270905, 0.10303200781345367, 0.1134200319647789, 0.12380804866552353, 0.13419607281684875, 0.14458408951759338, 0.154972106218338, 0.16536012291908264, 0.17574813961982727, 0.1861361563205719, 0.19652417302131653, 0.20691218972206116, 0.2173002064228058, 0.2276882380247116, 0.23807625472545624, 0.24846427142620087, 0.2588523030281067, 0.2692403197288513, 0.27962833642959595, 0.2900163531303406, 0.3004043698310852, 0.31079238653182983, 0.32118040323257446, 0.3315684199333191]}, "parameters/attention_1.att_l": {"_type": "histogram", "values": [1.0, 0.0, 1.0, 1.0, 1.0, 1.0, 1.0, 1.0, 0.0, 1.0, 0.0, 0.0, 2.0, 0.0, 1.0, 1.0, 0.0, 0.0, 0.0, 1.0, 0.0, 0.0, 1.0, 1.0, 0.0, 0.0, 0.0, 0.0, 1.0, 1.0, 0.0, 0.0, 0.0, 1.0, 0.0, 0.0, 0.0, 1.0, 1.0, 1.0, 2.0, 0.0, 2.0, 1.0, 1.0, 0.0, 0.0, 3.0, 0.0, 0.0, 0.0, 0.0, 2.0, 1.0, 0.0, 0.0, 1.0, 2.0, 0.0, 0.0, 1.0, 0.0, 1.0, 2.0], "bins": [-0.6508458852767944, -0.6307592988014221, -0.610672652721405, -0.5905860662460327, -0.5704994201660156, -0.5504128336906433, -0.5303261876106262, -0.5102396011352539, -0.4901529848575592, -0.4700663685798645, -0.4499797523021698, -0.4298931360244751, -0.4098065495491028, -0.3897199034690857, -0.3696333169937134, -0.3495467007160187, -0.329460084438324, -0.3093734681606293, -0.28928685188293457, -0.26920023560523987, -0.24911363422870636, -0.22902701795101166, -0.20894041657447815, -0.18885380029678345, -0.16876718401908875, -0.14868056774139404, -0.12859395146369934, -0.10850735008716583, -0.08842073380947113, -0.06833411753177643, -0.04824750870466232, -0.028160899877548218, -0.00807422399520874, 0.012012388557195663, 0.03209900110960007, 0.05218561366200447, 0.07227222621440887, 0.09235884249210358, 0.11244545131921768, 0.1325320601463318, 0.1526186764240265, 0.1727052927017212, 0.1927919089794159, 0.2128785103559494, 0.2329651266336441, 0.2530517578125, 0.2731383442878723, 0.293224960565567, 0.3133115768432617, 0.3333981931209564, 0.3534848093986511, 0.3735714256763458, 0.3936580419540405, 0.41374462842941284, 0.43383124470710754, 0.45391786098480225, 0.47400447726249695, 0.49409109354019165, 0.514177680015564, 0.534264326095581, 0.5543509125709534, 0.5744375586509705, 0.5945241451263428, 0.6146107912063599, 0.6346973776817322]}, "parameters/attention_1.att_r": {"_type": "histogram", "values": [4.0, 1.0, 0.0, 0.0, 0.0, 0.0, 1.0, 1.0, 1.0, 0.0, 0.0, 0.0, 0.0, 0.0, 1.0, 2.0, 0.0, 2.0, 0.0, 0.0, 0.0, 0.0, 0.0, 0.0, 0.0, 0.0, 0.0, 1.0, 1.0, 1.0, 1.0, 1.0, 2.0, 0.0, 1.0, 0.0, 1.0, 0.0, 1.0, 0.0, 0.0, 0.0, 0.0, 0.0, 1.0, 0.0, 1.0, 1.0, 0.0, 1.0, 0.0, 2.0, 0.0, 0.0, 3.0, 0.0, 1.0, 2.0, 2.0, 0.0, 0.0, 1.0, 0.0, 2.0], "bins": [-0.6204382181167603, -0.6007028818130493, -0.5809676051139832, -0.5612322688102722, -0.541496992111206, -0.5217616558074951, -0.502026379108429, -0.482291042804718, -0.46255576610565186, -0.4428204596042633, -0.42308515310287476, -0.4033498466014862, -0.38361454010009766, -0.3638792335987091, -0.34414392709732056, -0.3244085907936096, -0.30467328429222107, -0.2849379777908325, -0.26520267128944397, -0.24546736478805542, -0.22573205828666687, -0.20599675178527832, -0.18626143038272858, -0.16652612388134003, -0.14679081737995148, -0.12705551087856293, -0.10732020437717438, -0.08758489042520523, -0.06784958392381668, -0.04811427742242813, -0.028378963470458984, -0.008643656969070435, 0.011091649532318115, 0.030826957896351814, 0.05056226626038551, 0.07029757648706436, 0.09003288298845291, 0.10976818948984146, 0.1295035034418106, 0.14923880994319916, 0.1689741164445877, 0.18870942294597626, 0.2084447294473648, 0.22818005084991455, 0.2479153573513031, 0.26765066385269165, 0.2873859703540802, 0.30712127685546875, 0.3268565833568573, 0.34659188985824585, 0.3663271963596344, 0.38606250286102295, 0.4057978093624115, 0.42553311586380005, 0.445268452167511, 0.46500372886657715, 0.4847390651702881, 0.504474401473999, 0.5242096781730652, 0.5439450144767761, 0.5636802911758423, 0.5834156274795532, 0.6031509041786194, 0.6228862404823303, 0.6426215171813965]}, "parameters/attention_1.bias": {"_type": "histogram", "values": [0.0, 0.0, 0.0, 0.0, 0.0, 0.0, 0.0, 0.0, 0.0, 0.0, 0.0, 0.0, 0.0, 0.0, 0.0, 0.0, 0.0, 0.0, 0.0, 0.0, 0.0, 0.0, 0.0, 0.0, 0.0, 0.0, 0.0, 0.0, 0.0, 0.0, 0.0, 0.0, 40.0, 0.0, 0.0, 0.0, 0.0, 0.0, 0.0, 0.0, 0.0, 0.0, 0.0, 0.0, 0.0, 0.0, 0.0, 0.0, 0.0, 0.0, 0.0, 0.0, 0.0, 0.0, 0.0, 0.0, 0.0, 0.0, 0.0, 0.0, 0.0, 0.0, 0.0, 0.0], "bins": [0.0, 0.0, 0.0, 0.0, 0.0, 0.0, 0.0, 0.0, 0.0, 0.0, 0.0, 0.0, 0.0, 0.0, 0.0, 0.0, 0.0, 0.0, 0.0, 0.0, 0.0, 0.0, 0.0, 0.0, 0.0, 0.0, 0.0, 0.0, 0.0, 0.0, 0.0, 0.0, 0.0, 0.0, 0.0, 0.0, 0.0, 0.0, 0.0, 0.0, 0.0, 0.0, 0.0, 0.0, 0.0, 0.0, 0.0, 0.0, 0.0, 0.0, 0.0, 0.0, 0.0, 0.0, 0.0, 0.0, 0.0, 0.0, 0.0, 0.0, 0.0, 0.0, 0.0, 0.0, 0.0]}, "parameters/attention_1.lin_l.weight": {"_type": "histogram", "values": [26.0, 28.0, 27.0, 26.0, 33.0, 26.0, 24.0, 22.0, 29.0, 27.0, 25.0, 30.0, 24.0, 27.0, 23.0, 26.0, 21.0, 23.0, 26.0, 24.0, 19.0, 27.0, 30.0, 27.0, 27.0, 23.0, 18.0, 21.0, 15.0, 30.0, 24.0, 23.0, 28.0, 28.0, 34.0, 31.0, 23.0, 25.0, 24.0, 29.0, 15.0, 23.0, 30.0, 19.0, 27.0, 28.0, 31.0, 24.0, 24.0, 20.0, 16.0, 21.0, 21.0, 23.0, 27.0, 27.0, 25.0, 31.0, 20.0, 20.0, 20.0, 32.0, 27.0, 26.0], "bins": [-0.2735460102558136, -0.26499366760253906, -0.25644129514694214, -0.2478889524936676, -0.23933660984039307, -0.23078426718711853, -0.2222319096326828, -0.21367955207824707, -0.20512720942497253, -0.196574866771698, -0.18802250921726227, -0.17947015166282654, -0.170917809009552, -0.16236546635627747, -0.15381310880184174, -0.145260751247406, -0.13670840859413147, -0.12815606594085693, -0.1196037083864212, -0.11105135828256607, -0.10249900817871094, -0.0939466580748558, -0.08539430797100067, -0.07684195786714554, -0.0682896077632904, -0.05973725765943527, -0.05118490755558014, -0.042632557451725006, -0.03408020734786987, -0.02552785724401474, -0.016975507140159607, -0.008423157036304474, 0.00012919306755065918, 0.008681543171405792, 0.017233893275260925, 0.02578624337911606, 0.03433859348297119, 0.042890943586826324, 0.05144329369068146, 0.05999564379453659, 0.06854799389839172, 0.07710034400224686, 0.08565269410610199, 0.09420504420995712, 0.10275739431381226, 0.11130974441766739, 0.11986209452152252, 0.12841445207595825, 0.1369667947292328, 0.14551913738250732, 0.15407149493694305, 0.16262385249137878, 0.17117619514465332, 0.17972853779792786, 0.1882808953523636, 0.19683325290679932, 0.20538559556007385, 0.2139379382133484, 0.22249029576778412, 0.23104265332221985, 0.23959499597549438, 0.24814733862876892, 0.25669968128204346, 0.2652520537376404, 0.2738043963909149]}, "parameters/attention_2.att_l": {"_type": "histogram", "values": [1.0, 0.0, 1.0, 0.0, 1.0, 1.0, 0.0, 2.0, 0.0, 0.0, 0.0, 0.0, 0.0, 1.0, 2.0, 1.0, 1.0, 0.0, 1.0, 0.0, 0.0, 1.0, 1.0, 1.0, 0.0, 0.0, 0.0, 0.0, 0.0, 0.0, 2.0, 0.0, 0.0, 0.0, 2.0, 0.0, 0.0, 1.0, 1.0, 1.0, 0.0, 4.0, 1.0, 0.0, 1.0, 3.0, 0.0, 0.0, 1.0, 0.0, 1.0, 0.0, 0.0, 0.0, 0.0, 0.0, 2.0, 2.0, 0.0, 0.0, 0.0, 1.0, 0.0, 2.0], "bins": [-0.6260813474655151, -0.6063030362129211, -0.5865247249603271, -0.5667463541030884, -0.5469680428504944, -0.5271897315979004, -0.5074114203453064, -0.4876331090927124, -0.467854768037796, -0.448076456785202, -0.42829811573028564, -0.40851980447769165, -0.38874149322509766, -0.3689631521701813, -0.3491848409175873, -0.3294064998626709, -0.3096281886100769, -0.2898498773574829, -0.27007153630256653, -0.25029322504997253, -0.23051489889621735, -0.21073657274246216, -0.19095826148986816, -0.17117993533611298, -0.1514016091823578, -0.1316232830286026, -0.11184496432542801, -0.09206664562225342, -0.07228831946849823, -0.05250999331474304, -0.03273167461156845, -0.01295335590839386, 0.0068250298500061035, 0.026603352278470993, 0.04638167470693588, 0.06615999341011047, 0.08593831956386566, 0.10571664571762085, 0.12549495697021484, 0.14527328312397003, 0.16505160927772522, 0.1848299354314804, 0.2046082615852356, 0.2243865728378296, 0.24416489899158478, 0.26394322514533997, 0.28372153639793396, 0.30349987745285034, 0.32327818870544434, 0.34305649995803833, 0.3628348410129547, 0.3826131522655487, 0.4023914933204651, 0.4221698045730591, 0.4419481158256531, 0.46172642707824707, 0.48150476813316345, 0.5012831091880798, 0.5210614204406738, 0.5408397316932678, 0.5606180429458618, 0.5803964138031006, 0.6001747250556946, 0.6199530363082886, 0.6397313475608826]}, "parameters/attention_2.att_r": {"_type": "histogram", "values": [1.0, 2.0, 2.0, 0.0, 1.0, 0.0, 0.0, 0.0, 0.0, 0.0, 3.0, 0.0, 1.0, 1.0, 0.0, 1.0, 0.0, 0.0, 0.0, 1.0, 0.0, 1.0, 1.0, 0.0, 0.0, 1.0, 1.0, 0.0, 1.0, 0.0, 0.0, 0.0, 0.0, 0.0, 0.0, 1.0, 2.0, 0.0, 0.0, 1.0, 0.0, 0.0, 1.0, 2.0, 1.0, 0.0, 1.0, 1.0, 0.0, 0.0, 1.0, 2.0, 0.0, 1.0, 1.0, 0.0, 0.0, 0.0, 1.0, 3.0, 2.0, 0.0, 0.0, 1.0], "bins": [-0.64091956615448, -0.6211735010147095, -0.601427435874939, -0.5816813707351685, -0.561935305595398, -0.5421892404556274, -0.5224431753158569, -0.5026971101760864, -0.4829510450363159, -0.4632049798965454, -0.4434589147567749, -0.4237128496170044, -0.4039667844772339, -0.3842207193374634, -0.36447465419769287, -0.34472858905792236, -0.32498252391815186, -0.30523645877838135, -0.28549039363861084, -0.26574432849884033, -0.24599826335906982, -0.22625219821929932, -0.2065061330795288, -0.1867600679397583, -0.1670140027999878, -0.14726793766021729, -0.12752187252044678, -0.10777580738067627, -0.08802974224090576, -0.06828367710113525, -0.048537611961364746, -0.02879154682159424, -0.009045541286468506, 0.010700523853302002, 0.03044658899307251, 0.05019265413284302, 0.06993871927261353, 0.08968478441238403, 0.10943084955215454, 0.12917691469192505, 0.14892297983169556, 0.16866904497146606, 0.18841511011123657, 0.20816117525100708, 0.2279072403907776, 0.2476533055305481, 0.2673993706703186, 0.2871454358100891, 0.3068915009498596, 0.3266375660896301, 0.34638363122940063, 0.36612969636917114, 0.38587576150894165, 0.40562182664871216, 0.42536789178848267, 0.4451139569282532, 0.4648600220680237, 0.4846060872077942, 0.5043521523475647, 0.5240982174873352, 0.5438442826271057, 0.5635903477668762, 0.5833364129066467, 0.6030824780464172, 0.6228285431861877]}, "parameters/attention_2.bias": {"_type": "histogram", "values": [0.0, 0.0, 0.0, 0.0, 0.0, 0.0, 0.0, 0.0, 0.0, 0.0, 0.0, 0.0, 0.0, 0.0, 0.0, 0.0, 0.0, 0.0, 0.0, 0.0, 0.0, 0.0, 0.0, 0.0, 0.0, 0.0, 0.0, 0.0, 0.0, 0.0, 0.0, 0.0, 40.0, 0.0, 0.0, 0.0, 0.0, 0.0, 0.0, 0.0, 0.0, 0.0, 0.0, 0.0, 0.0, 0.0, 0.0, 0.0, 0.0, 0.0, 0.0, 0.0, 0.0, 0.0, 0.0, 0.0, 0.0, 0.0, 0.0, 0.0, 0.0, 0.0, 0.0, 0.0], "bins": [0.0, 0.0, 0.0, 0.0, 0.0, 0.0, 0.0, 0.0, 0.0, 0.0, 0.0, 0.0, 0.0, 0.0, 0.0, 0.0, 0.0, 0.0, 0.0, 0.0, 0.0, 0.0, 0.0, 0.0, 0.0, 0.0, 0.0, 0.0, 0.0, 0.0, 0.0, 0.0, 0.0, 0.0, 0.0, 0.0, 0.0, 0.0, 0.0, 0.0, 0.0, 0.0, 0.0, 0.0, 0.0, 0.0, 0.0, 0.0, 0.0, 0.0, 0.0, 0.0, 0.0, 0.0, 0.0, 0.0, 0.0, 0.0, 0.0, 0.0, 0.0, 0.0, 0.0, 0.0, 0.0]}, "parameters/attention_2.lin_l.weight": {"_type": "histogram", "values": [26.0, 26.0, 29.0, 19.0, 18.0, 25.0, 29.0, 27.0, 16.0, 26.0, 30.0, 25.0, 30.0, 19.0, 15.0, 24.0, 37.0, 22.0, 27.0, 20.0, 22.0, 27.0, 27.0, 24.0, 27.0, 23.0, 36.0, 23.0, 18.0, 23.0, 31.0, 25.0, 25.0, 19.0, 25.0, 20.0, 20.0, 25.0, 25.0, 25.0, 38.0, 25.0, 21.0, 31.0, 34.0, 25.0, 28.0, 29.0, 28.0, 19.0, 23.0, 28.0, 24.0, 21.0, 18.0, 23.0, 22.0, 23.0, 32.0, 24.0, 22.0, 22.0, 32.0, 28.0], "bins": [-0.27306902408599854, -0.264532208442688, -0.25599539279937744, -0.2474585771560669, -0.23892176151275635, -0.2303849458694458, -0.22184813022613525, -0.2133113145828247, -0.20477449893951416, -0.1962376832962036, -0.18770086765289307, -0.17916405200958252, -0.17062723636627197, -0.16209042072296143, -0.15355360507965088, -0.14501678943634033, -0.1364799588918686, -0.12794314324855804, -0.1194063276052475, -0.11086951196193695, -0.1023326963186264, -0.09379588067531586, -0.08525905758142471, -0.07672224193811417, -0.06818542629480362, -0.05964861065149307, -0.051111795008182526, -0.04257497563958168, -0.03403815999627113, -0.025501344352960587, -0.01696452498435974, -0.008427709341049194, 0.00010910630226135254, 0.008645922876894474, 0.017182739451527596, 0.02571955695748329, 0.03425637260079384, 0.042793188244104385, 0.05133000761270523, 0.05986682325601578, 0.06840363889932632, 0.07694045454263687, 0.08547727018594742, 0.09401409327983856, 0.10255090892314911, 0.11108772456645966, 0.1196245402097702, 0.12816135585308075, 0.1366981714963913, 0.14523498713970184, 0.1537718027830124, 0.16230861842632294, 0.17084543406963348, 0.17938224971294403, 0.18791908025741577, 0.19645589590072632, 0.20499271154403687, 0.2135295271873474, 0.22206634283065796, 0.2306031584739685, 0.23913997411727905, 0.2476767897605896, 0.25621360540390015, 0.2647504210472107, 0.27328723669052124]}, "parameters/out_att.att_l": {"_type": "histogram", "values": [0.0, 0.0, 0.0, 0.0, 0.0, 0.0, 0.0, 0.0, 0.0, 0.0, 0.0, 0.0, 0.0, 0.0, 0.0, 0.0, 0.0, 0.0, 0.0, 0.0, 0.0, 0.0, 0.0, 0.0, 0.0, 0.0, 0.0, 0.0, 0.0, 0.0, 0.0, 1.0, 0.0, 0.0, 0.0, 0.0, 0.0, 0.0, 0.0, 0.0, 0.0, 0.0, 0.0, 0.0, 0.0, 0.0, 0.0, 0.0, 0.0, 0.0, 0.0, 0.0, 0.0, 0.0, 0.0, 0.0, 0.0, 0.0, 0.0, 0.0, 0.0, 0.0, 0.0, 0.0], "bins": [-1.2161017656326294, -1.2161017656326294, -1.2161017656326294, -1.2161017656326294, -1.2161017656326294, -1.2161017656326294, -1.2161017656326294, -1.2161017656326294, -1.2161017656326294, -1.2161017656326294, -1.2161017656326294, -1.2161017656326294, -1.2161017656326294, -1.2161017656326294, -1.2161017656326294, -1.2161017656326294, -1.2161017656326294, -1.2161017656326294, -1.2161017656326294, -1.2161017656326294, -1.2161017656326294, -1.2161017656326294, -1.2161017656326294, -1.2161017656326294, -1.2161017656326294, -1.2161017656326294, -1.2161017656326294, -1.2161017656326294, -1.2161017656326294, -1.2161017656326294, -1.2161017656326294, -1.2161017656326294, -1.2161017656326294, -1.2161017656326294, -1.2161017656326294, -1.2161017656326294, -1.2161017656326294, -1.2161017656326294, -1.2161017656326294, -1.2161017656326294, -1.2161017656326294, -1.2161017656326294, -1.2161017656326294, -1.2161017656326294, -1.2161017656326294, -1.2161017656326294, -1.2161017656326294, -1.2161017656326294, -1.2161017656326294, -1.2161017656326294, -1.2161017656326294, -1.2161017656326294, -1.2161017656326294, -1.2161017656326294, -1.2161017656326294, -1.2161017656326294, -1.2161017656326294, -1.2161017656326294, -1.2161017656326294, -1.2161017656326294, -1.2161017656326294, -1.2161017656326294, -1.2161017656326294, -1.2161017656326294, -1.2161017656326294]}, "parameters/out_att.att_r": {"_type": "histogram", "values": [0.0, 0.0, 0.0, 0.0, 0.0, 0.0, 0.0, 0.0, 0.0, 0.0, 0.0, 0.0, 0.0, 0.0, 0.0, 0.0, 0.0, 0.0, 0.0, 0.0, 0.0, 0.0, 0.0, 0.0, 0.0, 0.0, 0.0, 0.0, 0.0, 0.0, 0.0, 0.0, 1.0, 0.0, 0.0, 0.0, 0.0, 0.0, 0.0, 0.0, 0.0, 0.0, 0.0, 0.0, 0.0, 0.0, 0.0, 0.0, 0.0, 0.0, 0.0, 0.0, 0.0, 0.0, 0.0, 0.0, 0.0, 0.0, 0.0, 0.0, 0.0, 0.0, 0.0, 0.0], "bins": [1.377535343170166, 1.377535343170166, 1.377535343170166, 1.377535343170166, 1.377535343170166, 1.377535343170166, 1.377535343170166, 1.377535343170166, 1.377535343170166, 1.377535343170166, 1.377535343170166, 1.377535343170166, 1.377535343170166, 1.377535343170166, 1.377535343170166, 1.377535343170166, 1.377535343170166, 1.377535343170166, 1.377535343170166, 1.377535343170166, 1.377535343170166, 1.377535343170166, 1.377535343170166, 1.377535343170166, 1.377535343170166, 1.377535343170166, 1.377535343170166, 1.377535343170166, 1.377535343170166, 1.377535343170166, 1.377535343170166, 1.377535343170166, 1.377535343170166, 1.377535343170166, 1.377535343170166, 1.377535343170166, 1.377535343170166, 1.377535343170166, 1.377535343170166, 1.377535343170166, 1.377535343170166, 1.377535343170166, 1.377535343170166, 1.377535343170166, 1.377535343170166, 1.377535343170166, 1.377535343170166, 1.377535343170166, 1.377535343170166, 1.377535343170166, 1.377535343170166, 1.377535343170166, 1.377535343170166, 1.377535343170166, 1.377535343170166, 1.377535343170166, 1.377535343170166, 1.377535343170166, 1.377535343170166, 1.377535343170166, 1.377535343170166, 1.377535343170166, 1.377535343170166, 1.377535343170166, 1.377535343170166]}, "parameters/out_att.bias": {"_type": "histogram", "values": [0.0, 0.0, 0.0, 0.0, 0.0, 0.0, 0.0, 0.0, 0.0, 0.0, 0.0, 0.0, 0.0, 0.0, 0.0, 0.0, 0.0, 0.0, 0.0, 0.0, 0.0, 0.0, 0.0, 0.0, 0.0, 0.0, 0.0, 0.0, 0.0, 0.0, 0.0, 0.0, 1.0, 0.0, 0.0, 0.0, 0.0, 0.0, 0.0, 0.0, 0.0, 0.0, 0.0, 0.0, 0.0, 0.0, 0.0, 0.0, 0.0, 0.0, 0.0, 0.0, 0.0, 0.0, 0.0, 0.0, 0.0, 0.0, 0.0, 0.0, 0.0, 0.0, 0.0, 0.0], "bins": [0.0, 0.0, 0.0, 0.0, 0.0, 0.0, 0.0, 0.0, 0.0, 0.0, 0.0, 0.0, 0.0, 0.0, 0.0, 0.0, 0.0, 0.0, 0.0, 0.0, 0.0, 0.0, 0.0, 0.0, 0.0, 0.0, 0.0, 0.0, 0.0, 0.0, 0.0, 0.0, 0.0, 0.0, 0.0, 0.0, 0.0, 0.0, 0.0, 0.0, 0.0, 0.0, 0.0, 0.0, 0.0, 0.0, 0.0, 0.0, 0.0, 0.0, 0.0, 0.0, 0.0, 0.0, 0.0, 0.0, 0.0, 0.0, 0.0, 0.0, 0.0, 0.0, 0.0, 0.0, 0.0]}, "parameters/out_att.lin_l.weight": {"_type": "histogram", "values": [3.0, 3.0, 0.0, 1.0, 0.0, 0.0, 0.0, 0.0, 0.0, 0.0, 1.0, 0.0, 0.0, 1.0, 1.0, 0.0, 1.0, 0.0, 0.0, 1.0, 0.0, 2.0, 2.0, 0.0, 1.0, 0.0, 0.0, 0.0, 0.0, 1.0, 0.0, 0.0, 1.0, 1.0, 0.0, 0.0, 0.0, 2.0, 0.0, 2.0, 0.0, 0.0, 1.0, 0.0, 1.0, 0.0, 0.0, 0.0, 0.0, 2.0, 0.0, 1.0, 0.0, 2.0, 1.0, 0.0, 0.0, 0.0, 0.0, 2.0, 1.0, 0.0, 2.0, 3.0], "bins": [-0.34794843196868896, -0.3366926610469818, -0.32543689012527466, -0.3141810894012451, -0.30292531847953796, -0.2916695475578308, -0.28041374683380127, -0.2691579759120941, -0.25790220499038696, -0.2466464340686798, -0.23539064824581146, -0.22413486242294312, -0.21287909150123596, -0.2016233205795288, -0.19036753475666046, -0.17911174893379211, -0.16785597801208496, -0.1566002070903778, -0.14534442126750946, -0.1340886354446411, -0.12283286452293396, -0.11157708615064621, -0.10032130777835846, -0.08906552940607071, -0.07780975103378296, -0.06655397266149521, -0.05529819428920746, -0.04404241591691971, -0.03278663754463196, -0.021530859172344208, -0.010275080800056458, 0.0009806975722312927, 0.012236475944519043, 0.023492254316806793, 0.03474803268909454, 0.046003811061382294, 0.057259589433670044, 0.0685153678059578, 0.07977114617824554, 0.0910269245505333, 0.10228270292282104, 0.1135384812951088, 0.12479425966739655, 0.1360500454902649, 0.14730581641197205, 0.1585615873336792, 0.16981737315654755, 0.1810731589794159, 0.19232892990112305, 0.2035847008228302, 0.21484048664569855, 0.2260962724685669, 0.23735204339027405, 0.2486078143119812, 0.25986361503601074, 0.2711193859577179, 0.28237515687942505, 0.2936309278011322, 0.30488669872283936, 0.3161424994468689, 0.32739827036857605, 0.3386540412902832, 0.34990984201431274, 0.3611656129360199, 0.37242138385772705]}, "_runtime": 58645, "_timestamp": 1639017571, "_step": 159, "Learning rate value": 7.8125e-05, "Learning rate action": 7.8125e-05, "action_probs": {"_type": "histogram", "values": [8, 0, 0, 0, 0, 0, 0, 0, 0, 0, 0, 0, 0, 0, 0, 144, 0, 0, 0, 0, 0, 0, 0, 0, 0, 0, 0, 0, 0, 0, 0, 0, 0, 0, 0, 0, 0, 0, 0, 0, 0, 0, 0, 0, 0, 0, 0, 0, 0, 0, 0, 0, 0, 0, 0, 0, 0, 0, 0, 0, 8, 0, 0, 16], "bins": [0.3345542848110199, 0.344951868057251, 0.35534945130348206, 0.3657470643520355, 0.3761446475982666, 0.3865422308444977, 0.39693981409072876, 0.40733739733695984, 0.4177350103855133, 0.4281325936317444, 0.43853017687797546, 0.44892776012420654, 0.4593253433704376, 0.4697229564189911, 0.48012053966522217, 0.49051812291145325, 0.5009157061576843, 0.5113133192062378, 0.5217108726501465, 0.5321084856987, 0.5425060987472534, 0.5529036521911621, 0.5633012652397156, 0.5736988186836243, 0.5840964317321777, 0.5944940447807312, 0.6048915982246399, 0.6152892112731934, 0.625686764717102, 0.6360843777656555, 0.646481990814209, 0.6568795442581177, 0.6672771573066711, 0.6776747107505798, 0.6880723237991333, 0.6984699368476868, 0.7088674902915955, 0.7192651033401489, 0.7296626567840576, 0.7400602698326111, 0.7504578828811646, 0.7608554363250732, 0.7712530493736267, 0.7816506028175354, 0.7920482158660889, 0.8024458289146423, 0.812843382358551, 0.8232409954071045, 0.8336385488510132, 0.8440361618995667, 0.8544337749481201, 0.8648313283920288, 0.8752289414405823, 0.885626494884491, 0.8960241079330444, 0.9064217209815979, 0.9168192744255066, 0.9272168874740601, 0.9376144409179688, 0.9480120539665222, 0.9584096670150757, 0.9688072204589844, 0.9792048335075378, 0.9896023869514465, 1.0]}, "stop_go_action": {"_type": "histogram", "values": [64, 0, 0, 0, 0, 0, 0, 0, 0, 0, 0, 0, 0, 0, 0, 0, 0, 0, 0, 0, 0, 0, 0, 0, 0, 0, 0, 0, 0, 0, 0, 0, 0, 0, 0, 0, 0, 0, 0, 0, 0, 0, 0, 0, 0, 0, 0, 0, 0, 0, 0, 0, 0, 0, 0, 0, 0, 0, 0, 0, 0, 0, 0, 112], "bins": [0.0, 0.015625, 0.03125, 0.046875, 0.0625, 0.078125, 0.09375, 0.109375, 0.125, 0.140625, 0.15625, 0.171875, 0.1875, 0.203125, 0.21875, 0.234375, 0.25, 0.265625, 0.28125, 0.296875, 0.3125, 0.328125, 0.34375, 0.359375, 0.375, 0.390625, 0.40625, 0.421875, 0.4375, 0.453125, 0.46875, 0.484375, 0.5, 0.515625, 0.53125, 0.546875, 0.5625, 0.578125, 0.59375, 0.609375, 0.625, 0.640625, 0.65625, 0.671875, 0.6875, 0.703125, 0.71875, 0.734375, 0.75, 0.765625, 0.78125, 0.796875, 0.8125, 0.828125, 0.84375, 0.859375, 0.875, 0.890625, 0.90625, 0.921875, 0.9375, 0.953125, 0.96875, 0.984375, 1.0]}, "node_values": {"_type": "histogram", "values": [1, 0, 0, 0, 0, 0, 0, 0, 0, 0, 1, 0, 1, 2, 1, 1, 1, 0, 3, 1, 0, 0, 0, 0, 1, 1, 0, 0, 1, 0, 0, 0, 1, 0, 1, 0, 0, 0, 0, 0, 0, 2, 0, 0, 0, 0, 0, 0, 0, 0, 0, 1, 0, 0, 0, 0, 0, 0, 1, 0, 0, 0, 0, 1], "bins": [0.9783613681793213, 1.0384659208357334, 1.0985704734921455, 1.1586750261485577, 1.2187795788049698, 1.278884131461382, 1.338988684117794, 1.3990932367742062, 1.4591977894306183, 1.5193023420870304, 1.5794068947434425, 1.6395114473998547, 1.6996160000562668, 1.759720552712679, 1.819825105369091, 1.8799296580255032, 1.9400342106819153, 2.0001387633383274, 2.0602433159947395, 2.1203478686511517, 2.180452421307564, 2.240556973963976, 2.300661526620388, 2.3607660792768, 2.4208706319332123, 2.4809751845896244, 2.5410797372460365, 2.6011842899024487, 2.661288842558861, 2.721393395215273, 2.781497947871685, 2.841602500528097, 2.9017070531845093, 2.9618116058409214, 3.0219161584973335, 3.0820207111537457, 3.1421252638101578, 3.20222981646657, 3.262334369122982, 3.322438921779394, 3.3825434744358063, 3.4426480270922184, 3.5027525797486305, 3.5628571324050426, 3.6229616850614548, 3.683066237717867, 3.743170790374279, 3.803275343030691, 3.8633798956871033, 3.9234844483435154, 3.9835890009999275, 4.04369355365634, 4.103798106312752, 4.163902658969164, 4.224007211625576, 4.284111764281988, 4.3442163169384, 4.404320869594812, 4.4644254222512245, 4.524529974907637, 4.584634527564049, 4.644739080220461, 4.704843632876873, 4.764948185533285, 4.825052738189697]}, "episode_rewards": {"_type": "histogram", "values": [8, 0, 0, 0, 0, 0, 0, 0, 0, 0, 0, 0, 0, 0, 0, 0, 0, 0, 0, 0, 0, 0, 0, 0, 0, 0, 0, 0, 0, 0, 0, 0, 0, 0, 0, 0, 0, 0, 0, 0, 0, 0, 0, 0, 0, 0, 0, 0, 0, 0, 0, 0, 0, 0, 24, 0, 0, 8, 0, 0, 0, 0, 0, 32], "bins": [-21.0, -20.6875, -20.375, -20.0625, -19.75, -19.4375, -19.125, -18.8125, -18.5, -18.1875, -17.875, -17.5625, -17.25, -16.9375, -16.625, -16.3125, -16.0, -15.6875, -15.375, -15.0625, -14.75, -14.4375, -14.125, -13.8125, -13.5, -13.1875, -12.875, -12.5625, -12.25, -11.9375, -11.625, -11.3125, -11.0, -10.6875, -10.375, -10.0625, -9.75, -9.4375, -9.125, -8.8125, -8.5, -8.1875, -7.875, -7.5625, -7.25, -6.9375, -6.625, -6.3125, -6.0, -5.6875, -5.375, -5.0625, -4.75, -4.4375, -4.125, -3.8125, -3.5, -3.1875, -2.875, -2.5625, -2.25, -1.9375, -1.625, -1.3125, -1.0]}, "avg_reward": -1897.5, "done_agents": 0.0, "deadlock_agents": 0.41785714285714287, "_wandb": {"runtime": 58645}}