{"parameters/attention_0.att_l": {"_type": "histogram", "values": [1.0, 0.0, 1.0, 1.0, 1.0, 0.0, 0.0, 0.0, 2.0, 2.0, 1.0, 0.0, 1.0, 0.0, 0.0, 2.0, 0.0, 0.0, 0.0, 0.0, 0.0, 0.0, 0.0, 1.0, 0.0, 0.0, 0.0, 0.0, 1.0, 0.0, 0.0, 0.0, 3.0, 0.0, 2.0, 1.0, 1.0, 1.0, 2.0, 0.0, 0.0, 0.0, 0.0, 1.0, 1.0, 0.0, 0.0, 0.0, 0.0, 0.0, 2.0, 0.0, 1.0, 1.0, 0.0, 1.0, 4.0, 0.0, 1.0, 1.0, 0.0, 1.0, 1.0, 1.0], "bins": [-0.629050612449646, -0.6099646687507629, -0.5908786654472351, -0.571792721748352, -0.5527067184448242, -0.5336207747459412, -0.5145347714424133, -0.4954488277435303, -0.47636285424232483, -0.4572768807411194, -0.43819090723991394, -0.4191049337387085, -0.40001899003982544, -0.3809329867362976, -0.36184704303741455, -0.3427610695362091, -0.32367509603500366, -0.3045891225337982, -0.2855031490325928, -0.26641717553138733, -0.24733121693134308, -0.22824524343013763, -0.20915928483009338, -0.19007331132888794, -0.1709873378276825, -0.15190136432647705, -0.1328153908252716, -0.11372943222522736, -0.09464345872402191, -0.07555748522281647, -0.05647151917219162, -0.03738555312156677, -0.018299639225006104, 0.0007863305509090424, 0.019872300326824188, 0.038958270102739334, 0.05804423987865448, 0.07713021337985992, 0.09621617943048477, 0.11530214548110962, 0.13438811898231506, 0.1534740924835205, 0.17256006598472595, 0.1916460245847702, 0.21073199808597565, 0.2298179715871811, 0.24890393018722534, 0.2679899036884308, 0.28707587718963623, 0.3061618506908417, 0.3252478241920471, 0.34433379769325256, 0.363419771194458, 0.38250571489334106, 0.4015916883945465, 0.42067766189575195, 0.4397636353969574, 0.45884960889816284, 0.4779355823993683, 0.49702155590057373, 0.5161074995994568, 0.5351935029029846, 0.5542794466018677, 0.5733654499053955, 0.5924513936042786]}, "parameters/attention_0.att_r": {"_type": "histogram", "values": [1.0, 0.0, 0.0, 1.0, 1.0, 1.0, 0.0, 2.0, 2.0, 1.0, 1.0, 0.0, 1.0, 2.0, 2.0, 0.0, 0.0, 0.0, 0.0, 0.0, 0.0, 1.0, 0.0, 1.0, 0.0, 0.0, 1.0, 0.0, 0.0, 1.0, 1.0, 1.0, 1.0, 2.0, 1.0, 0.0, 0.0, 0.0, 0.0, 0.0, 0.0, 1.0, 2.0, 1.0, 0.0, 0.0, 0.0, 0.0, 1.0, 1.0, 0.0, 1.0, 0.0, 0.0, 1.0, 1.0, 0.0, 0.0, 0.0, 1.0, 0.0, 1.0, 3.0, 1.0], "bins": [-0.617560088634491, -0.5985735058784485, -0.579586923122406, -0.5606003403663635, -0.5416136980056763, -0.5226271152496338, -0.5036405324935913, -0.48465394973754883, -0.46566736698150635, -0.44668078422546387, -0.4276942014694214, -0.4087075889110565, -0.38972100615501404, -0.37073442339897156, -0.3517478108406067, -0.3327612280845642, -0.31377464532852173, -0.29478806257247925, -0.27580147981643677, -0.2568148672580719, -0.23782828450202942, -0.21884170174598694, -0.19985510408878326, -0.1808685064315796, -0.1618819236755371, -0.14289534091949463, -0.12390874326229095, -0.10492215305566788, -0.0859355628490448, -0.06694897264242172, -0.047962382435798645, -0.02897578477859497, -0.009989261627197266, 0.008997328579425812, 0.02798391878604889, 0.04697050899267197, 0.06595709919929504, 0.08494368940591812, 0.1039302796125412, 0.12291687726974487, 0.14190346002578735, 0.16089004278182983, 0.1798766404390335, 0.19886323809623718, 0.21784982085227966, 0.23683640360832214, 0.255823016166687, 0.2748095989227295, 0.293796181678772, 0.31278276443481445, 0.33176934719085693, 0.3507559597492218, 0.3697425425052643, 0.38872912526130676, 0.40771573781967163, 0.4267023205757141, 0.4456889033317566, 0.4646754860877991, 0.48366206884384155, 0.502648651599884, 0.5216352939605713, 0.5406218767166138, 0.5596084594726562, 0.5785950422286987, 0.5975816249847412]}, "parameters/attention_0.bias": {"_type": "histogram", "values": [0.0, 0.0, 0.0, 0.0, 0.0, 0.0, 0.0, 0.0, 0.0, 0.0, 0.0, 0.0, 0.0, 0.0, 0.0, 0.0, 0.0, 0.0, 0.0, 0.0, 0.0, 0.0, 0.0, 0.0, 0.0, 0.0, 0.0, 0.0, 0.0, 0.0, 0.0, 0.0, 40.0, 0.0, 0.0, 0.0, 0.0, 0.0, 0.0, 0.0, 0.0, 0.0, 0.0, 0.0, 0.0, 0.0, 0.0, 0.0, 0.0, 0.0, 0.0, 0.0, 0.0, 0.0, 0.0, 0.0, 0.0, 0.0, 0.0, 0.0, 0.0, 0.0, 0.0, 0.0], "bins": [0.0, 0.0, 0.0, 0.0, 0.0, 0.0, 0.0, 0.0, 0.0, 0.0, 0.0, 0.0, 0.0, 0.0, 0.0, 0.0, 0.0, 0.0, 0.0, 0.0, 0.0, 0.0, 0.0, 0.0, 0.0, 0.0, 0.0, 0.0, 0.0, 0.0, 0.0, 0.0, 0.0, 0.0, 0.0, 0.0, 0.0, 0.0, 0.0, 0.0, 0.0, 0.0, 0.0, 0.0, 0.0, 0.0, 0.0, 0.0, 0.0, 0.0, 0.0, 0.0, 0.0, 0.0, 0.0, 0.0, 0.0, 0.0, 0.0, 0.0, 0.0, 0.0, 0.0, 0.0, 0.0]}, "parameters/attention_0.lin_l.weight": {"_type": "histogram", "values": [11.0, 14.0, 9.0, 6.0, 5.0, 8.0, 10.0, 10.0, 8.0, 9.0, 9.0, 2.0, 6.0, 10.0, 7.0, 8.0, 10.0, 6.0, 8.0, 4.0, 8.0, 9.0, 8.0, 7.0, 3.0, 10.0, 8.0, 4.0, 5.0, 8.0, 4.0, 13.0, 9.0, 13.0, 10.0, 6.0, 9.0, 7.0, 4.0, 5.0, 8.0, 3.0, 4.0, 6.0, 6.0, 11.0, 8.0, 11.0, 8.0, 8.0, 6.0, 6.0, 11.0, 5.0, 5.0, 4.0, 6.0, 12.0, 6.0, 5.0, 13.0, 7.0, 5.0, 6.0], "bins": [-0.3394258916378021, -0.32884421944618225, -0.31826251745224, -0.3076808452606201, -0.29709914326667786, -0.286517471075058, -0.2759357690811157, -0.26535409688949585, -0.2547723948955536, -0.24419070780277252, -0.23360902070999146, -0.2230273336172104, -0.21244564652442932, -0.20186395943164825, -0.1912822723388672, -0.18070060014724731, -0.17011891305446625, -0.15953722596168518, -0.1489555388689041, -0.13837385177612305, -0.12779216468334198, -0.11721047759056091, -0.10662879794836044, -0.09604711085557938, -0.08546542376279831, -0.07488373667001724, -0.06430204957723618, -0.05372036620974541, -0.04313867911696434, -0.03255699202418327, -0.021975308656692505, -0.011393621563911438, -0.0008119344711303711, 0.009769751690328121, 0.020351437851786613, 0.03093312308192253, 0.0415148101747036, 0.052096497267484665, 0.06267818063497543, 0.0732598677277565, 0.08384155482053757, 0.09442324191331863, 0.1050049290060997, 0.11558660864830017, 0.12616829574108124, 0.1367499828338623, 0.14733166992664337, 0.15791335701942444, 0.1684950441122055, 0.17907673120498657, 0.18965841829776764, 0.2002401053905487, 0.21082179248332977, 0.22140347957611084, 0.2319851517677307, 0.24256685376167297, 0.25314852595329285, 0.2637301981449127, 0.274311900138855, 0.28489357233047485, 0.2954752743244171, 0.306056946516037, 0.31663864850997925, 0.3272203207015991, 0.3378020226955414]}, "parameters/attention_1.att_l": {"_type": "histogram", "values": [1.0, 1.0, 0.0, 0.0, 0.0, 0.0, 1.0, 0.0, 0.0, 0.0, 0.0, 1.0, 1.0, 1.0, 0.0, 0.0, 4.0, 0.0, 0.0, 1.0, 0.0, 1.0, 0.0, 1.0, 1.0, 0.0, 0.0, 1.0, 1.0, 1.0, 0.0, 0.0, 0.0, 0.0, 1.0, 0.0, 2.0, 0.0, 1.0, 2.0, 0.0, 2.0, 1.0, 0.0, 0.0, 0.0, 0.0, 0.0, 3.0, 0.0, 0.0, 0.0, 0.0, 0.0, 1.0, 2.0, 0.0, 0.0, 2.0, 2.0, 0.0, 0.0, 1.0, 3.0], "bins": [-0.6478428840637207, -0.6276811361312866, -0.6075193881988525, -0.5873576402664185, -0.5671958923339844, -0.5470341444015503, -0.5268723964691162, -0.5067107081413269, -0.4865489602088928, -0.46638721227645874, -0.44622546434402466, -0.4260637164115906, -0.4059019982814789, -0.3857402503490448, -0.3655785024166107, -0.345416784286499, -0.32525500655174255, -0.30509325861930847, -0.2849315106868744, -0.2647697925567627, -0.2446080446243286, -0.22444629669189453, -0.20428454875946045, -0.18412281572818756, -0.16396106779575348, -0.1437993198633194, -0.12363758683204651, -0.10347583889961243, -0.08331409841775894, -0.06315235793590546, -0.042990610003471375, -0.022828876972198486, -0.0026671290397644043, 0.01749461330473423, 0.037656355649232864, 0.05781809985637665, 0.07797984033823013, 0.09814158082008362, 0.1183033287525177, 0.1384650617837906, 0.15862680971622467, 0.17878855764865875, 0.19895029067993164, 0.21911203861236572, 0.2392737865447998, 0.2594355344772339, 0.27959728240966797, 0.29975900053977966, 0.31992074847221375, 0.3400824964046478, 0.3602442443370819, 0.3804059624671936, 0.4005677103996277, 0.42072945833206177, 0.44089120626449585, 0.46105295419692993, 0.481214702129364, 0.5013764500617981, 0.5215381979942322, 0.5416999459266663, 0.5618616938591003, 0.5820233821868896, 0.6021851301193237, 0.6223468780517578, 0.6425086259841919]}, "parameters/attention_1.att_r": {"_type": "histogram", "values": [1.0, 2.0, 2.0, 1.0, 0.0, 0.0, 1.0, 0.0, 0.0, 1.0, 0.0, 1.0, 1.0, 0.0, 0.0, 2.0, 0.0, 1.0, 0.0, 1.0, 0.0, 0.0, 0.0, 0.0, 2.0, 0.0, 1.0, 2.0, 1.0, 0.0, 0.0, 0.0, 1.0, 1.0, 1.0, 0.0, 0.0, 0.0, 0.0, 0.0, 3.0, 0.0, 0.0, 0.0, 1.0, 1.0, 0.0, 0.0, 2.0, 1.0, 2.0, 0.0, 0.0, 0.0, 2.0, 0.0, 0.0, 1.0, 0.0, 1.0, 0.0, 2.0, 0.0, 1.0], "bins": [-0.5884637832641602, -0.5697621703147888, -0.5510606169700623, -0.5323590040206909, -0.5136573910713196, -0.49495580792427063, -0.4762542247772217, -0.45755261182785034, -0.4388510286808014, -0.42014944553375244, -0.4014478325843811, -0.38274624943733215, -0.3640446662902832, -0.34534305334091187, -0.3266414701938629, -0.30793988704681396, -0.2892382740974426, -0.2705366909503937, -0.25183507800102234, -0.2331334948539734, -0.21443189680576324, -0.1957302987575531, -0.17702871561050415, -0.158327117562294, -0.13962551951408386, -0.12092392146587372, -0.10222233086824417, -0.08352074027061462, -0.06481914222240448, -0.046117544174194336, -0.02741595357656479, -0.008714362978935242, 0.009987294673919678, 0.028688888996839523, 0.04739048331975937, 0.06609207391738892, 0.08479367196559906, 0.1034952700138092, 0.12219686061143875, 0.1408984512090683, 0.15960004925727844, 0.1783016473054886, 0.19700324535369873, 0.21570482850074768, 0.23440642654895782, 0.25310802459716797, 0.2718096077442169, 0.29051119089126587, 0.3092128038406372, 0.32791438698768616, 0.3466159999370575, 0.36531758308410645, 0.3840191960334778, 0.40272077918052673, 0.4214223623275757, 0.440123975276947, 0.45882555842399597, 0.4775271415710449, 0.49622875452041626, 0.5149303674697876, 0.5336319208145142, 0.5523335337638855, 0.5710351467132568, 0.5897367000579834, 0.6084383130073547]}, "parameters/attention_1.bias": {"_type": "histogram", "values": [0.0, 0.0, 0.0, 0.0, 0.0, 0.0, 0.0, 0.0, 0.0, 0.0, 0.0, 0.0, 0.0, 0.0, 0.0, 0.0, 0.0, 0.0, 0.0, 0.0, 0.0, 0.0, 0.0, 0.0, 0.0, 0.0, 0.0, 0.0, 0.0, 0.0, 0.0, 0.0, 40.0, 0.0, 0.0, 0.0, 0.0, 0.0, 0.0, 0.0, 0.0, 0.0, 0.0, 0.0, 0.0, 0.0, 0.0, 0.0, 0.0, 0.0, 0.0, 0.0, 0.0, 0.0, 0.0, 0.0, 0.0, 0.0, 0.0, 0.0, 0.0, 0.0, 0.0, 0.0], "bins": [0.0, 0.0, 0.0, 0.0, 0.0, 0.0, 0.0, 0.0, 0.0, 0.0, 0.0, 0.0, 0.0, 0.0, 0.0, 0.0, 0.0, 0.0, 0.0, 0.0, 0.0, 0.0, 0.0, 0.0, 0.0, 0.0, 0.0, 0.0, 0.0, 0.0, 0.0, 0.0, 0.0, 0.0, 0.0, 0.0, 0.0, 0.0, 0.0, 0.0, 0.0, 0.0, 0.0, 0.0, 0.0, 0.0, 0.0, 0.0, 0.0, 0.0, 0.0, 0.0, 0.0, 0.0, 0.0, 0.0, 0.0, 0.0, 0.0, 0.0, 0.0, 0.0, 0.0, 0.0, 0.0]}, "parameters/attention_1.lin_l.weight": {"_type": "histogram", "values": [31.0, 24.0, 30.0, 25.0, 20.0, 19.0, 37.0, 21.0, 25.0, 26.0, 14.0, 32.0, 32.0, 31.0, 25.0, 20.0, 32.0, 22.0, 19.0, 23.0, 19.0, 33.0, 26.0, 24.0, 20.0, 24.0, 26.0, 17.0, 31.0, 34.0, 17.0, 24.0, 18.0, 20.0, 18.0, 34.0, 26.0, 29.0, 28.0, 23.0, 34.0, 26.0, 16.0, 19.0, 28.0, 19.0, 27.0, 22.0, 30.0, 35.0, 29.0, 16.0, 22.0, 23.0, 28.0, 26.0, 28.0, 32.0, 26.0, 20.0, 22.0, 28.0, 23.0, 22.0], "bins": [-0.27351298928260803, -0.26496046781539917, -0.2564079165458679, -0.24785539507865906, -0.2393028736114502, -0.23075033724308014, -0.22219780087471008, -0.21364527940750122, -0.20509275794029236, -0.1965402215719223, -0.18798770010471344, -0.17943516373634338, -0.17088264226913452, -0.16233010590076447, -0.1537775695323944, -0.14522504806518555, -0.1366725116968155, -0.12811997532844543, -0.11956745386123657, -0.11101491749286652, -0.10246239602565765, -0.0939098596572876, -0.08535733073949814, -0.07680480182170868, -0.06825227290391922, -0.05969974398612976, -0.0511472150683403, -0.042594682425260544, -0.034042153507471085, -0.025489624589681625, -0.016937091946601868, -0.008384563028812408, 0.00016796588897705078, 0.008720495738089085, 0.01727302558720112, 0.025825556367635727, 0.034378085285425186, 0.042930614203214645, 0.0514831468462944, 0.06003567576408386, 0.06858820468187332, 0.07714073359966278, 0.08569326251745224, 0.0942457914352417, 0.10279832780361176, 0.11135084927082062, 0.11990338563919067, 0.12845590710639954, 0.1370084434747696, 0.14556097984313965, 0.1541135013103485, 0.16266603767871857, 0.17121855914592743, 0.17977109551429749, 0.18832361698150635, 0.1968761533498764, 0.20542868971824646, 0.21398122608661652, 0.22253374755382538, 0.23108628392219543, 0.2396388053894043, 0.24819134175777435, 0.2567438781261444, 0.26529639959335327, 0.27384892106056213]}, "parameters/attention_2.att_l": {"_type": "histogram", "values": [1.0, 0.0, 0.0, 0.0, 0.0, 0.0, 0.0, 1.0, 0.0, 1.0, 3.0, 0.0, 1.0, 2.0, 2.0, 0.0, 1.0, 1.0, 0.0, 1.0, 0.0, 0.0, 0.0, 0.0, 2.0, 0.0, 1.0, 0.0, 1.0, 2.0, 0.0, 0.0, 1.0, 2.0, 1.0, 1.0, 0.0, 1.0, 0.0, 0.0, 0.0, 0.0, 0.0, 0.0, 0.0, 2.0, 0.0, 1.0, 1.0, 0.0, 0.0, 0.0, 0.0, 1.0, 3.0, 0.0, 1.0, 0.0, 1.0, 1.0, 2.0, 0.0, 0.0, 1.0], "bins": [-0.6319100856781006, -0.6120148301124573, -0.592119574546814, -0.5722242593765259, -0.5523290038108826, -0.5324337482452393, -0.512538492679596, -0.49264323711395264, -0.47274795174598694, -0.45285269618034363, -0.43295741081237793, -0.4130621552467346, -0.3931668996810913, -0.3732716143131256, -0.3533763587474823, -0.3334810733795166, -0.3135858178138733, -0.29369056224823, -0.2737952768802643, -0.25390002131462097, -0.23400475084781647, -0.21410948038101196, -0.19421422481536865, -0.17431895434856415, -0.15442368388175964, -0.13452841341495514, -0.11463315039873123, -0.09473788738250732, -0.07484261691570282, -0.054947346448898315, -0.03505208343267441, -0.0151568204164505, 0.004738509654998779, 0.024633776396512985, 0.04452904313802719, 0.0644243061542511, 0.0843195766210556, 0.10421484708786011, 0.12411011010408401, 0.14400537312030792, 0.16390064358711243, 0.18379591405391693, 0.20369118452072144, 0.22358644008636475, 0.24348171055316925, 0.26337698101997375, 0.28327223658561707, 0.30316752195358276, 0.3230627775192261, 0.3429580330848694, 0.3628533184528351, 0.3827485740184784, 0.4026438593864441, 0.4225391149520874, 0.4424343705177307, 0.462329626083374, 0.4822249114513397, 0.5021201968193054, 0.5220154523849487, 0.541910707950592, 0.5618059635162354, 0.5817012786865234, 0.6015965342521667, 0.6214917898178101, 0.6413870453834534]}, "parameters/attention_2.att_r": {"_type": "histogram", "values": [2.0, 1.0, 1.0, 1.0, 1.0, 1.0, 1.0, 0.0, 0.0, 0.0, 0.0, 0.0, 2.0, 1.0, 1.0, 0.0, 0.0, 0.0, 1.0, 0.0, 0.0, 0.0, 0.0, 0.0, 1.0, 0.0, 0.0, 0.0, 0.0, 1.0, 1.0, 0.0, 1.0, 2.0, 0.0, 0.0, 0.0, 2.0, 3.0, 0.0, 0.0, 0.0, 1.0, 0.0, 0.0, 0.0, 0.0, 1.0, 3.0, 1.0, 0.0, 0.0, 1.0, 0.0, 1.0, 0.0, 0.0, 0.0, 1.0, 0.0, 3.0, 1.0, 1.0, 2.0], "bins": [-0.6368041634559631, -0.6168442964553833, -0.5968844890594482, -0.5769246220588684, -0.5569648146629333, -0.5370049476623535, -0.5170451402664185, -0.4970852732658386, -0.4771254062652588, -0.45716556906700134, -0.4372057318687439, -0.41724586486816406, -0.3972860276699066, -0.37732619047164917, -0.3573663532733917, -0.3374065160751343, -0.31744667887687683, -0.2974868416786194, -0.27752700448036194, -0.2575671672821045, -0.23760730028152466, -0.2176474630832672, -0.19768762588500977, -0.17772777378559113, -0.15776793658733368, -0.13780809938907623, -0.11784824728965759, -0.09788841009140015, -0.0779285654425621, -0.05796872079372406, -0.038008883595466614, -0.018049031496047974, 0.0019108057022094727, 0.021870648488402367, 0.04183049127459526, 0.061790332198143005, 0.08175017684698105, 0.10171002149581909, 0.12166985869407654, 0.14162971079349518, 0.16158954799175262, 0.18154938519001007, 0.2015092372894287, 0.22146907448768616, 0.2414289116859436, 0.26138877868652344, 0.2813485860824585, 0.30130845308303833, 0.3212682902812958, 0.3412281274795532, 0.36118796467781067, 0.3811478018760681, 0.40110766887664795, 0.4210675060749054, 0.44102734327316284, 0.4609872102737427, 0.48094701766967773, 0.5009068846702576, 0.5208666920661926, 0.5408265590667725, 0.5607863664627075, 0.5807462334632874, 0.6007061004638672, 0.6206659078598022, 0.6406257748603821]}, "parameters/attention_2.bias": {"_type": "histogram", "values": [0.0, 0.0, 0.0, 0.0, 0.0, 0.0, 0.0, 0.0, 0.0, 0.0, 0.0, 0.0, 0.0, 0.0, 0.0, 0.0, 0.0, 0.0, 0.0, 0.0, 0.0, 0.0, 0.0, 0.0, 0.0, 0.0, 0.0, 0.0, 0.0, 0.0, 0.0, 0.0, 40.0, 0.0, 0.0, 0.0, 0.0, 0.0, 0.0, 0.0, 0.0, 0.0, 0.0, 0.0, 0.0, 0.0, 0.0, 0.0, 0.0, 0.0, 0.0, 0.0, 0.0, 0.0, 0.0, 0.0, 0.0, 0.0, 0.0, 0.0, 0.0, 0.0, 0.0, 0.0], "bins": [0.0, 0.0, 0.0, 0.0, 0.0, 0.0, 0.0, 0.0, 0.0, 0.0, 0.0, 0.0, 0.0, 0.0, 0.0, 0.0, 0.0, 0.0, 0.0, 0.0, 0.0, 0.0, 0.0, 0.0, 0.0, 0.0, 0.0, 0.0, 0.0, 0.0, 0.0, 0.0, 0.0, 0.0, 0.0, 0.0, 0.0, 0.0, 0.0, 0.0, 0.0, 0.0, 0.0, 0.0, 0.0, 0.0, 0.0, 0.0, 0.0, 0.0, 0.0, 0.0, 0.0, 0.0, 0.0, 0.0, 0.0, 0.0, 0.0, 0.0, 0.0, 0.0, 0.0, 0.0, 0.0]}, "parameters/attention_2.lin_l.weight": {"_type": "histogram", "values": [22.0, 22.0, 24.0, 18.0, 27.0, 33.0, 24.0, 25.0, 21.0, 18.0, 26.0, 23.0, 30.0, 33.0, 35.0, 24.0, 26.0, 17.0, 23.0, 18.0, 29.0, 20.0, 26.0, 30.0, 29.0, 24.0, 32.0, 22.0, 26.0, 22.0, 18.0, 23.0, 18.0, 24.0, 20.0, 24.0, 28.0, 22.0, 28.0, 27.0, 18.0, 27.0, 26.0, 28.0, 29.0, 21.0, 29.0, 27.0, 21.0, 23.0, 32.0, 23.0, 23.0, 33.0, 22.0, 29.0, 31.0, 28.0, 29.0, 24.0, 17.0, 28.0, 24.0, 27.0], "bins": [-0.2727135717868805, -0.26419517397880554, -0.2556767761707306, -0.24715837836265564, -0.2386399805545807, -0.23012158274650574, -0.22160319983959198, -0.21308480203151703, -0.20456640422344208, -0.19604800641536713, -0.18752960860729218, -0.17901121079921722, -0.17049282789230347, -0.16197443008422852, -0.15345603227615356, -0.1449376344680786, -0.13641923666000366, -0.1279008388519287, -0.11938244104385376, -0.1108640506863594, -0.10234565287828445, -0.0938272550702095, -0.08530886471271515, -0.0767904669046402, -0.06827206909656525, -0.059753671288490295, -0.05123527720570564, -0.04271688312292099, -0.03419848531484604, -0.025680087506771088, -0.017161693423986435, -0.008643299341201782, -0.00012490153312683105, 0.008393494412302971, 0.016911890357732773, 0.025430286303162575, 0.03394868224859238, 0.04246708005666733, 0.05098547413945198, 0.05950386822223663, 0.06802226603031158, 0.07654066383838654, 0.08505906164646149, 0.09357745200395584, 0.10209584981203079, 0.11061424762010574, 0.1191326379776001, 0.12765103578567505, 0.13616943359375, 0.14468783140182495, 0.1532062292098999, 0.16172462701797485, 0.1702430248260498, 0.17876142263412476, 0.1872798055410385, 0.19579820334911346, 0.20431660115718842, 0.21283499896526337, 0.22135339677333832, 0.22987179458141327, 0.23839017748832703, 0.24690857529640198, 0.25542697310447693, 0.2639453709125519, 0.27246376872062683]}, "parameters/out_att.att_l": {"_type": "histogram", "values": [0.0, 0.0, 0.0, 0.0, 0.0, 0.0, 0.0, 0.0, 0.0, 0.0, 0.0, 0.0, 0.0, 0.0, 0.0, 0.0, 0.0, 0.0, 0.0, 0.0, 0.0, 0.0, 0.0, 0.0, 0.0, 0.0, 0.0, 0.0, 0.0, 0.0, 0.0, 0.0, 1.0, 0.0, 0.0, 0.0, 0.0, 0.0, 0.0, 0.0, 0.0, 0.0, 0.0, 0.0, 0.0, 0.0, 0.0, 0.0, 0.0, 0.0, 0.0, 0.0, 0.0, 0.0, 0.0, 0.0, 0.0, 0.0, 0.0, 0.0, 0.0, 0.0, 0.0, 0.0], "bins": [-0.10901238769292831, -0.10901238769292831, -0.10901238769292831, -0.10901238769292831, -0.10901238769292831, -0.10901238769292831, -0.10901238769292831, -0.10901238769292831, -0.10901238769292831, -0.10901238769292831, -0.10901238769292831, -0.10901238769292831, -0.10901238769292831, -0.10901238769292831, -0.10901238769292831, -0.10901238769292831, -0.10901238769292831, -0.10901238769292831, -0.10901238769292831, -0.10901238769292831, -0.10901238769292831, -0.10901238769292831, -0.10901238769292831, -0.10901238769292831, -0.10901238769292831, -0.10901238769292831, -0.10901238769292831, -0.10901238769292831, -0.10901238769292831, -0.10901238769292831, -0.10901238769292831, -0.10901238769292831, -0.10901238769292831, -0.10901238769292831, -0.10901238769292831, -0.10901238769292831, -0.10901238769292831, -0.10901238769292831, -0.10901238769292831, -0.10901238769292831, -0.10901238769292831, -0.10901238769292831, -0.10901238769292831, -0.10901238769292831, -0.10901238769292831, -0.10901238769292831, -0.10901238769292831, -0.10901238769292831, -0.10901238769292831, -0.10901238769292831, -0.10901238769292831, -0.10901238769292831, -0.10901238769292831, -0.10901238769292831, -0.10901238769292831, -0.10901238769292831, -0.10901238769292831, -0.10901238769292831, -0.10901238769292831, -0.10901238769292831, -0.10901238769292831, -0.10901238769292831, -0.10901238769292831, -0.10901238769292831, -0.10901238769292831]}, "parameters/out_att.att_r": {"_type": "histogram", "values": [0.0, 0.0, 0.0, 0.0, 0.0, 0.0, 0.0, 0.0, 0.0, 0.0, 0.0, 0.0, 0.0, 0.0, 0.0, 0.0, 0.0, 0.0, 0.0, 0.0, 0.0, 0.0, 0.0, 0.0, 0.0, 0.0, 0.0, 0.0, 0.0, 0.0, 0.0, 0.0, 1.0, 0.0, 0.0, 0.0, 0.0, 0.0, 0.0, 0.0, 0.0, 0.0, 0.0, 0.0, 0.0, 0.0, 0.0, 0.0, 0.0, 0.0, 0.0, 0.0, 0.0, 0.0, 0.0, 0.0, 0.0, 0.0, 0.0, 0.0, 0.0, 0.0, 0.0, 0.0], "bins": [-0.8960439562797546, -0.8960439562797546, -0.8960439562797546, -0.8960439562797546, -0.8960439562797546, -0.8960439562797546, -0.8960439562797546, -0.8960439562797546, -0.8960439562797546, -0.8960439562797546, -0.8960439562797546, -0.8960439562797546, -0.8960439562797546, -0.8960439562797546, -0.8960439562797546, -0.8960439562797546, -0.8960439562797546, -0.8960439562797546, -0.8960439562797546, -0.8960439562797546, -0.8960439562797546, -0.8960439562797546, -0.8960439562797546, -0.8960439562797546, -0.8960439562797546, -0.8960439562797546, -0.8960439562797546, -0.8960439562797546, -0.8960439562797546, -0.8960439562797546, -0.8960439562797546, -0.8960439562797546, -0.8960439562797546, -0.8960439562797546, -0.8960439562797546, -0.8960439562797546, -0.8960439562797546, -0.8960439562797546, -0.8960439562797546, -0.8960439562797546, -0.8960439562797546, -0.8960439562797546, -0.8960439562797546, -0.8960439562797546, -0.8960439562797546, -0.8960439562797546, -0.8960439562797546, -0.8960439562797546, -0.8960439562797546, -0.8960439562797546, -0.8960439562797546, -0.8960439562797546, -0.8960439562797546, -0.8960439562797546, -0.8960439562797546, -0.8960439562797546, -0.8960439562797546, -0.8960439562797546, -0.8960439562797546, -0.8960439562797546, -0.8960439562797546, -0.8960439562797546, -0.8960439562797546, -0.8960439562797546, -0.8960439562797546]}, "parameters/out_att.bias": {"_type": "histogram", "values": [0.0, 0.0, 0.0, 0.0, 0.0, 0.0, 0.0, 0.0, 0.0, 0.0, 0.0, 0.0, 0.0, 0.0, 0.0, 0.0, 0.0, 0.0, 0.0, 0.0, 0.0, 0.0, 0.0, 0.0, 0.0, 0.0, 0.0, 0.0, 0.0, 0.0, 0.0, 0.0, 1.0, 0.0, 0.0, 0.0, 0.0, 0.0, 0.0, 0.0, 0.0, 0.0, 0.0, 0.0, 0.0, 0.0, 0.0, 0.0, 0.0, 0.0, 0.0, 0.0, 0.0, 0.0, 0.0, 0.0, 0.0, 0.0, 0.0, 0.0, 0.0, 0.0, 0.0, 0.0], "bins": [0.0, 0.0, 0.0, 0.0, 0.0, 0.0, 0.0, 0.0, 0.0, 0.0, 0.0, 0.0, 0.0, 0.0, 0.0, 0.0, 0.0, 0.0, 0.0, 0.0, 0.0, 0.0, 0.0, 0.0, 0.0, 0.0, 0.0, 0.0, 0.0, 0.0, 0.0, 0.0, 0.0, 0.0, 0.0, 0.0, 0.0, 0.0, 0.0, 0.0, 0.0, 0.0, 0.0, 0.0, 0.0, 0.0, 0.0, 0.0, 0.0, 0.0, 0.0, 0.0, 0.0, 0.0, 0.0, 0.0, 0.0, 0.0, 0.0, 0.0, 0.0, 0.0, 0.0, 0.0, 0.0]}, "parameters/out_att.lin_l.weight": {"_type": "histogram", "values": [1.0, 1.0, 0.0, 0.0, 0.0, 0.0, 0.0, 0.0, 1.0, 3.0, 0.0, 1.0, 1.0, 1.0, 0.0, 1.0, 0.0, 1.0, 1.0, 1.0, 0.0, 0.0, 0.0, 2.0, 0.0, 0.0, 2.0, 0.0, 0.0, 0.0, 0.0, 0.0, 2.0, 0.0, 0.0, 0.0, 1.0, 1.0, 0.0, 1.0, 1.0, 1.0, 0.0, 1.0, 0.0, 1.0, 2.0, 1.0, 0.0, 0.0, 1.0, 3.0, 1.0, 0.0, 2.0, 0.0, 0.0, 0.0, 0.0, 0.0, 1.0, 0.0, 2.0, 1.0], "bins": [-0.36070716381073, -0.34970903396606445, -0.3387109041213989, -0.3277127742767334, -0.31671464443206787, -0.30571651458740234, -0.2947183847427368, -0.2837202548980713, -0.27272212505340576, -0.26172399520874023, -0.2507258653640747, -0.23972773551940918, -0.22872960567474365, -0.21773147583007812, -0.2067333459854126, -0.19573521614074707, -0.18473707139492035, -0.17373894155025482, -0.1627408117055893, -0.15174268186092377, -0.14074455201625824, -0.1297464221715927, -0.11874828487634659, -0.10775015503168106, -0.09675202518701553, -0.08575389534235, -0.07475576549768448, -0.06375762820243835, -0.052759502083063126, -0.0417613722383976, -0.030763238668441772, -0.019765108823776245, -0.008766978979110718, 0.002231151796877384, 0.013229282572865486, 0.024227414280176163, 0.03522554412484169, 0.04622367396950722, 0.05722180753946304, 0.06821993738412857, 0.0792180672287941, 0.09021619707345963, 0.10121432691812515, 0.11221246421337128, 0.1232105940580368, 0.13420872390270233, 0.14520685374736786, 0.1562049835920334, 0.1672031134366989, 0.17820124328136444, 0.18919937312602997, 0.2001975029706955, 0.21119563281536102, 0.22219376266002655, 0.23319190740585327, 0.2441900372505188, 0.2551881670951843, 0.26618629693984985, 0.2771844267845154, 0.2881825566291809, 0.29918068647384644, 0.31017881631851196, 0.3211769461631775, 0.332175076007843, 0.34317320585250854]}, "_runtime": 751, "_timestamp": 1642081777, "_step": 9, "Learning rate value": 0.015999999999999997, "Learning rate action": 0.015999999999999997, "epsilon": 0.9135172474836407, "action_probs": {"_type": "histogram", "values": [2, 0, 0, 0, 2, 2, 0, 2, 0, 0, 0, 0, 0, 0, 0, 0, 0, 0, 0, 0, 0, 0, 0, 0, 0, 0, 0, 0, 0, 0, 0, 0, 0, 0, 0, 0, 0, 0, 0, 0, 0, 0, 0, 0, 0, 0, 0, 0, 0, 0, 0, 2, 0, 0, 0, 0, 2, 0, 0, 0, 0, 0, 0, 2], "bins": [0.27084481716156006, 0.2772345244884491, 0.2836242616176605, 0.29001396894454956, 0.296403706073761, 0.30279341340065, 0.30918312072753906, 0.3155728578567505, 0.3219625651836395, 0.32835227251052856, 0.33474200963974, 0.34113171696662903, 0.34752142429351807, 0.3539111614227295, 0.36030086874961853, 0.36669060587882996, 0.373080313205719, 0.37947002053260803, 0.38585975766181946, 0.3922494649887085, 0.3986392021179199, 0.40502890944480896, 0.411418616771698, 0.4178083539009094, 0.42419806122779846, 0.4305877685546875, 0.4369775056838989, 0.44336721301078796, 0.449756920337677, 0.4561466574668884, 0.46253636479377747, 0.4689261019229889, 0.47531580924987793, 0.48170551657676697, 0.4880952537059784, 0.49448496103286743, 0.5008746981620789, 0.5072643756866455, 0.5136541128158569, 0.5200438499450684, 0.5264335870742798, 0.5328232645988464, 0.5392130017280579, 0.5456027388572693, 0.5519924163818359, 0.5583821535110474, 0.5647718906402588, 0.5711615681648254, 0.5775513052940369, 0.5839410424232483, 0.5903307199478149, 0.5967204570770264, 0.6031101942062378, 0.6094998717308044, 0.6158896088600159, 0.6222793459892273, 0.628669023513794, 0.6350587606430054, 0.6414484977722168, 0.6478382349014282, 0.6542279124259949, 0.6606176495552063, 0.6670073866844177, 0.6733970642089844, 0.6797868013381958]}, "stop_go_action": {"_type": "histogram", "values": [6, 0, 0, 0, 0, 0, 0, 0, 0, 0, 0, 0, 0, 0, 0, 0, 0, 0, 0, 0, 0, 0, 0, 0, 0, 0, 0, 0, 0, 0, 0, 0, 0, 0, 0, 0, 0, 0, 0, 0, 0, 0, 0, 0, 0, 0, 0, 0, 0, 0, 0, 0, 0, 0, 0, 0, 0, 0, 0, 0, 0, 0, 0, 8], "bins": [0.0, 0.015625, 0.03125, 0.046875, 0.0625, 0.078125, 0.09375, 0.109375, 0.125, 0.140625, 0.15625, 0.171875, 0.1875, 0.203125, 0.21875, 0.234375, 0.25, 0.265625, 0.28125, 0.296875, 0.3125, 0.328125, 0.34375, 0.359375, 0.375, 0.390625, 0.40625, 0.421875, 0.4375, 0.453125, 0.46875, 0.484375, 0.5, 0.515625, 0.53125, 0.546875, 0.5625, 0.578125, 0.59375, 0.609375, 0.625, 0.640625, 0.65625, 0.671875, 0.6875, 0.703125, 0.71875, 0.734375, 0.75, 0.765625, 0.78125, 0.796875, 0.8125, 0.828125, 0.84375, 0.859375, 0.875, 0.890625, 0.90625, 0.921875, 0.9375, 0.953125, 0.96875, 0.984375, 1.0]}, "node_values": {"_type": "histogram", "values": [1, 0, 0, 0, 0, 0, 0, 0, 0, 0, 0, 0, 0, 0, 0, 0, 0, 0, 0, 0, 0, 0, 1, 0, 1, 1, 0, 0, 0, 1, 0, 0, 0, 0, 0, 0, 0, 0, 0, 0, 0, 0, 0, 0, 0, 0, 0, 0, 0, 0, 0, 0, 0, 0, 0, 0, 0, 0, 0, 1, 0, 0, 0, 1], "bins": [-2.460357189178467, -2.4501983858644962, -2.4400395825505257, -2.429880779236555, -2.4197219759225845, -2.409563172608614, -2.3994043692946434, -2.389245565980673, -2.3790867626667023, -2.3689279593527317, -2.358769156038761, -2.3486103527247906, -2.33845154941082, -2.3282927460968494, -2.318133942782879, -2.3079751394689083, -2.2978163361549377, -2.287657532840967, -2.2774987295269966, -2.267339926213026, -2.2571811228990555, -2.247022319585085, -2.2368635162711143, -2.226704712957144, -2.216545909643173, -2.2063871063292027, -2.196228303015232, -2.1860694997012615, -2.175910696387291, -2.1657518930733204, -2.15559308975935, -2.1454342864453793, -2.1352754831314087, -2.125116679817438, -2.1149578765034676, -2.104799073189497, -2.0946402698755264, -2.084481466561556, -2.0743226632475853, -2.0641638599336147, -2.054005056619644, -2.0438462533056736, -2.033687449991703, -2.0235286466777325, -2.013369843363762, -2.0032110400497913, -1.9930522367358208, -1.9828934334218502, -1.9727346301078796, -1.962575826793909, -1.9524170234799385, -1.942258220165968, -1.9320994168519974, -1.9219406135380268, -1.9117818102240562, -1.9016230069100857, -1.8914642035961151, -1.8813054002821445, -1.871146596968174, -1.8609877936542034, -1.8508289903402328, -1.8406701870262623, -1.8305113837122917, -1.8203525803983212, -1.8101937770843506]}, "episode_rewards": {"_type": "histogram", "values": [2, 0, 0, 0, 0, 0, 0, 0, 0, 0, 2, 0, 0, 0, 0, 0, 0, 0, 0, 0, 0, 0, 0, 0, 0, 0, 0, 0, 0, 0, 0, 0, 0, 0, 0, 0, 0, 0, 0, 0, 0, 0, 0, 0, 0, 0, 0, 0, 0, 0, 0, 0, 0, 2, 0, 0, 0, 0, 0, 0, 0, 0, 0, 4], "bins": [-25.0, -24.625, -24.25, -23.875, -23.5, -23.125, -22.75, -22.375, -22.0, -21.625, -21.25, -20.875, -20.5, -20.125, -19.75, -19.375, -19.0, -18.625, -18.25, -17.875, -17.5, -17.125, -16.75, -16.375, -16.0, -15.625, -15.25, -14.875, -14.5, -14.125, -13.75, -13.375, -13.0, -12.625, -12.25, -11.875, -11.5, -11.125, -10.75, -10.375, -10.0, -9.625, -9.25, -8.875, -8.5, -8.125, -7.75, -7.375, -7.0, -6.625, -6.25, -5.875, -5.5, -5.125, -4.75, -4.375, -4.0, -3.625, -3.25, -2.875, -2.5, -2.125, -1.75, -1.375, -1.0]}, "_wandb": {"runtime": 751}}