{"parameters/attention_0.att_l": {"_type": "histogram", "values": [2.0, 0.0, 3.0, 1.0, 0.0, 0.0, 0.0, 0.0, 0.0, 2.0, 0.0, 0.0, 0.0, 0.0, 0.0, 1.0, 0.0, 0.0, 1.0, 1.0, 1.0, 0.0, 1.0, 1.0, 1.0, 0.0, 1.0, 0.0, 1.0, 0.0, 0.0, 3.0, 0.0, 0.0, 0.0, 1.0, 0.0, 2.0, 0.0, 1.0, 2.0, 0.0, 0.0, 2.0, 1.0, 0.0, 1.0, 0.0, 1.0, 1.0, 1.0, 0.0, 1.0, 2.0, 1.0, 0.0, 1.0, 0.0, 0.0, 0.0, 0.0, 1.0, 0.0, 1.0], "bins": [-0.6097877025604248, -0.5902932286262512, -0.5707987546920776, -0.551304280757904, -0.5318098068237305, -0.5123153328895569, -0.4928208291530609, -0.47332635521888733, -0.45383188128471375, -0.43433740735054016, -0.4148429334163666, -0.395348459482193, -0.375853955745697, -0.35635948181152344, -0.33686500787734985, -0.31737053394317627, -0.2978760600090027, -0.2783815860748291, -0.2588871121406555, -0.23939262330532074, -0.21989814937114716, -0.20040367543697357, -0.1809091866016388, -0.1614147126674652, -0.14192023873329163, -0.12242576479911804, -0.10293128341436386, -0.08343680202960968, -0.0639423280954361, -0.04444785416126251, -0.02495337277650833, -0.00545889139175415, 0.014035642147064209, 0.03353011980652809, 0.053024597465991974, 0.07251907885074615, 0.09201355278491974, 0.11150802671909332, 0.1310025155544281, 0.15049698948860168, 0.16999146342277527, 0.18948593735694885, 0.20898041129112244, 0.22847490012645721, 0.2479693740606308, 0.2674638628959656, 0.28695833683013916, 0.30645281076431274, 0.32594728469848633, 0.3454417586326599, 0.3649362325668335, 0.3844307065010071, 0.40392518043518066, 0.42341965436935425, 0.4429141581058502, 0.4624086320400238, 0.4819031059741974, 0.5013976097106934, 0.5208920836448669, 0.5403865575790405, 0.5598810315132141, 0.5793755054473877, 0.5988699793815613, 0.6183644533157349, 0.6378589272499084]}, "parameters/attention_0.att_r": {"_type": "histogram", "values": [1.0, 1.0, 0.0, 0.0, 0.0, 2.0, 0.0, 2.0, 0.0, 2.0, 1.0, 0.0, 0.0, 1.0, 0.0, 1.0, 2.0, 1.0, 0.0, 0.0, 1.0, 2.0, 0.0, 1.0, 0.0, 1.0, 0.0, 2.0, 0.0, 0.0, 0.0, 1.0, 0.0, 0.0, 0.0, 1.0, 0.0, 0.0, 1.0, 0.0, 1.0, 0.0, 0.0, 2.0, 1.0, 1.0, 1.0, 0.0, 0.0, 0.0, 2.0, 1.0, 0.0, 0.0, 0.0, 2.0, 0.0, 1.0, 1.0, 0.0, 1.0, 0.0, 1.0, 1.0], "bins": [-0.6513083577156067, -0.6311020851135254, -0.6108958125114441, -0.5906895399093628, -0.5704832673072815, -0.5502769947052002, -0.5300707221031189, -0.5098644495010376, -0.4896581470966339, -0.4694518744945526, -0.4492456018924713, -0.42903932929039, -0.40883302688598633, -0.38862675428390503, -0.36842048168182373, -0.34821420907974243, -0.32800793647766113, -0.30780166387557983, -0.28759539127349854, -0.26738911867141724, -0.24718283116817474, -0.22697655856609344, -0.20677027106285095, -0.18656399846076965, -0.16635772585868835, -0.14615145325660706, -0.12594518065452576, -0.10573889315128326, -0.08553262054920197, -0.06532634794712067, -0.04512006789445877, -0.024913787841796875, -0.004707455635070801, 0.015498820692300797, 0.035705097019672394, 0.05591137334704399, 0.07611764967441559, 0.09632392227649689, 0.11653020232915878, 0.13673648238182068, 0.15694275498390198, 0.17714902758598328, 0.19735530018806458, 0.21756158769130707, 0.23776786029338837, 0.25797414779663086, 0.27818042039871216, 0.29838669300079346, 0.31859296560287476, 0.33879923820495605, 0.35900551080703735, 0.37921178340911865, 0.39941805601119995, 0.41962432861328125, 0.43983063101768494, 0.46003690361976624, 0.48024317622184753, 0.5004494786262512, 0.5206557512283325, 0.5408620238304138, 0.5610682964324951, 0.5812745690345764, 0.6014808416366577, 0.621687114238739, 0.6418933868408203]}, "parameters/attention_0.bias": {"_type": "histogram", "values": [0.0, 0.0, 0.0, 0.0, 0.0, 0.0, 0.0, 0.0, 0.0, 0.0, 0.0, 0.0, 0.0, 0.0, 0.0, 0.0, 0.0, 0.0, 0.0, 0.0, 0.0, 0.0, 0.0, 0.0, 0.0, 0.0, 0.0, 0.0, 0.0, 0.0, 0.0, 0.0, 40.0, 0.0, 0.0, 0.0, 0.0, 0.0, 0.0, 0.0, 0.0, 0.0, 0.0, 0.0, 0.0, 0.0, 0.0, 0.0, 0.0, 0.0, 0.0, 0.0, 0.0, 0.0, 0.0, 0.0, 0.0, 0.0, 0.0, 0.0, 0.0, 0.0, 0.0, 0.0], "bins": [0.0, 0.0, 0.0, 0.0, 0.0, 0.0, 0.0, 0.0, 0.0, 0.0, 0.0, 0.0, 0.0, 0.0, 0.0, 0.0, 0.0, 0.0, 0.0, 0.0, 0.0, 0.0, 0.0, 0.0, 0.0, 0.0, 0.0, 0.0, 0.0, 0.0, 0.0, 0.0, 0.0, 0.0, 0.0, 0.0, 0.0, 0.0, 0.0, 0.0, 0.0, 0.0, 0.0, 0.0, 0.0, 0.0, 0.0, 0.0, 0.0, 0.0, 0.0, 0.0, 0.0, 0.0, 0.0, 0.0, 0.0, 0.0, 0.0, 0.0, 0.0, 0.0, 0.0, 0.0, 0.0]}, "parameters/attention_0.lin_l.weight": {"_type": "histogram", "values": [10.0, 8.0, 5.0, 8.0, 9.0, 8.0, 8.0, 11.0, 7.0, 9.0, 9.0, 7.0, 8.0, 6.0, 7.0, 6.0, 4.0, 6.0, 6.0, 8.0, 11.0, 9.0, 6.0, 4.0, 11.0, 8.0, 7.0, 8.0, 5.0, 10.0, 9.0, 5.0, 4.0, 7.0, 9.0, 8.0, 4.0, 5.0, 7.0, 12.0, 6.0, 6.0, 2.0, 3.0, 10.0, 9.0, 11.0, 5.0, 6.0, 7.0, 5.0, 8.0, 1.0, 7.0, 4.0, 7.0, 7.0, 9.0, 14.0, 14.0, 10.0, 6.0, 11.0, 13.0], "bins": [-0.336716890335083, -0.3261494040489197, -0.31558191776275635, -0.305014431476593, -0.2944469153881073, -0.28387942910194397, -0.27331194281578064, -0.2627444565296173, -0.2521769404411316, -0.24160945415496826, -0.23104195296764374, -0.2204744666814804, -0.20990696549415588, -0.19933947920799255, -0.18877199292182922, -0.1782045066356659, -0.16763702034950256, -0.15706953406333923, -0.1465020328760147, -0.13593454658985138, -0.12536704540252686, -0.11479955911636353, -0.1042320728302002, -0.09366457909345627, -0.08309708535671234, -0.07252959161996841, -0.061962101608514786, -0.05139461159706116, -0.04082711786031723, -0.030259624123573303, -0.019692137837409973, -0.009124644100666046, 0.0014428794384002686, 0.012010371312499046, 0.022577863186597824, 0.03314535319805145, 0.04371284693479538, 0.05428034067153931, 0.06484782695770264, 0.07541532069444656, 0.08598281443119049, 0.09655030816793442, 0.10711780190467834, 0.11768528819084167, 0.128252774477005, 0.13882027566432953, 0.14938776195049286, 0.15995526313781738, 0.1705227494239807, 0.18109023571014404, 0.19165773689746857, 0.2022252231836319, 0.21279272437095642, 0.22336021065711975, 0.23392769694328308, 0.2444951832294464, 0.25506269931793213, 0.26563018560409546, 0.2761976718902588, 0.2867651581764221, 0.29733267426490784, 0.30790016055107117, 0.3184676468372345, 0.3290351331233978, 0.33960261940956116]}, "parameters/attention_1.att_l": {"_type": "histogram", "values": [1.0, 1.0, 0.0, 0.0, 0.0, 3.0, 0.0, 0.0, 0.0, 1.0, 1.0, 1.0, 0.0, 0.0, 0.0, 0.0, 0.0, 0.0, 0.0, 0.0, 0.0, 0.0, 0.0, 1.0, 1.0, 0.0, 1.0, 1.0, 2.0, 0.0, 0.0, 1.0, 1.0, 4.0, 1.0, 0.0, 0.0, 1.0, 0.0, 1.0, 0.0, 1.0, 0.0, 0.0, 1.0, 2.0, 1.0, 0.0, 1.0, 0.0, 1.0, 0.0, 1.0, 1.0, 0.0, 0.0, 1.0, 2.0, 0.0, 1.0, 1.0, 1.0, 1.0, 1.0], "bins": [-0.6366318464279175, -0.6167986392974854, -0.596965491771698, -0.5771323442459106, -0.5572991371154785, -0.5374659299850464, -0.517632782459259, -0.4977996051311493, -0.47796642780303955, -0.4581332504749298, -0.43830007314682007, -0.4184668958187103, -0.3986337184906006, -0.37880054116249084, -0.3589673638343811, -0.33913418650627136, -0.3193010091781616, -0.2994678318500519, -0.27963465452194214, -0.2598014771938324, -0.23996829986572266, -0.22013512253761292, -0.20030194520950317, -0.18046876788139343, -0.1606355905532837, -0.14080241322517395, -0.12096923589706421, -0.10113605856895447, -0.08130288124084473, -0.061469703912734985, -0.041636526584625244, -0.021803349256515503, -0.001970231533050537, 0.017862945795059204, 0.037696123123168945, 0.057529300451278687, 0.07736247777938843, 0.09719565510749817, 0.11702883243560791, 0.13686200976371765, 0.1566951870918274, 0.17652836441993713, 0.19636154174804688, 0.21619471907615662, 0.23602789640426636, 0.2558610737323761, 0.27569425106048584, 0.2955274283885956, 0.3153606057167053, 0.33519378304481506, 0.3550269603729248, 0.37486013770103455, 0.3946933150291443, 0.41452649235725403, 0.43435966968536377, 0.4541928470134735, 0.47402602434158325, 0.493859201669693, 0.5136923789978027, 0.5335255861282349, 0.5533587336540222, 0.5731918811798096, 0.5930250883102417, 0.6128582954406738, 0.6326914429664612]}, "parameters/attention_1.att_r": {"_type": "histogram", "values": [2.0, 0.0, 0.0, 0.0, 0.0, 1.0, 1.0, 0.0, 0.0, 1.0, 0.0, 0.0, 2.0, 0.0, 0.0, 3.0, 0.0, 0.0, 0.0, 1.0, 0.0, 1.0, 1.0, 0.0, 1.0, 0.0, 0.0, 2.0, 1.0, 0.0, 1.0, 0.0, 0.0, 1.0, 0.0, 0.0, 1.0, 0.0, 1.0, 1.0, 0.0, 0.0, 0.0, 2.0, 1.0, 3.0, 1.0, 0.0, 1.0, 1.0, 1.0, 0.0, 2.0, 0.0, 1.0, 0.0, 0.0, 1.0, 0.0, 0.0, 1.0, 0.0, 1.0, 2.0], "bins": [-0.6455276608467102, -0.6259914040565491, -0.6064552068710327, -0.5869189500808716, -0.5673827528953552, -0.5478464961051941, -0.5283102989196777, -0.5087740421295166, -0.48923778533935547, -0.4697015583515167, -0.450165331363678, -0.43062907457351685, -0.4110928475856781, -0.39155662059783936, -0.3720203936100006, -0.35248416662216187, -0.3329479396343231, -0.3134117126464844, -0.29387548565864563, -0.2743392586708069, -0.25480300188064575, -0.235266774892807, -0.21573054790496826, -0.19619430601596832, -0.17665807902812958, -0.15712185204029083, -0.1375856101512909, -0.11804938316345215, -0.0985131487250328, -0.07897691428661346, -0.05944068729877472, -0.03990444540977478, -0.020368218421936035, -0.0008319858461618423, 0.01870424672961235, 0.038240477442741394, 0.057776711881160736, 0.07731294631958008, 0.09684917330741882, 0.11638541519641876, 0.1359216421842575, 0.15545786917209625, 0.1749941110610962, 0.19453033804893494, 0.21406656503677368, 0.23360280692577362, 0.25313901901245117, 0.2726752758026123, 0.29221150279045105, 0.3117477297782898, 0.33128395676612854, 0.3508201837539673, 0.3703564405441284, 0.38989266753196716, 0.4094288945198059, 0.42896515130996704, 0.4485013484954834, 0.46803757548332214, 0.4875738024711609, 0.507110059261322, 0.5266462564468384, 0.5461825132369995, 0.5657187700271606, 0.585254967212677, 0.6047912240028381]}, "parameters/attention_1.bias": {"_type": "histogram", "values": [0.0, 0.0, 0.0, 0.0, 0.0, 0.0, 0.0, 0.0, 0.0, 0.0, 0.0, 0.0, 0.0, 0.0, 0.0, 0.0, 0.0, 0.0, 0.0, 0.0, 0.0, 0.0, 0.0, 0.0, 0.0, 0.0, 0.0, 0.0, 0.0, 0.0, 0.0, 0.0, 40.0, 0.0, 0.0, 0.0, 0.0, 0.0, 0.0, 0.0, 0.0, 0.0, 0.0, 0.0, 0.0, 0.0, 0.0, 0.0, 0.0, 0.0, 0.0, 0.0, 0.0, 0.0, 0.0, 0.0, 0.0, 0.0, 0.0, 0.0, 0.0, 0.0, 0.0, 0.0], "bins": [0.0, 0.0, 0.0, 0.0, 0.0, 0.0, 0.0, 0.0, 0.0, 0.0, 0.0, 0.0, 0.0, 0.0, 0.0, 0.0, 0.0, 0.0, 0.0, 0.0, 0.0, 0.0, 0.0, 0.0, 0.0, 0.0, 0.0, 0.0, 0.0, 0.0, 0.0, 0.0, 0.0, 0.0, 0.0, 0.0, 0.0, 0.0, 0.0, 0.0, 0.0, 0.0, 0.0, 0.0, 0.0, 0.0, 0.0, 0.0, 0.0, 0.0, 0.0, 0.0, 0.0, 0.0, 0.0, 0.0, 0.0, 0.0, 0.0, 0.0, 0.0, 0.0, 0.0, 0.0, 0.0]}, "parameters/attention_1.lin_l.weight": {"_type": "histogram", "values": [30.0, 32.0, 21.0, 22.0, 22.0, 22.0, 26.0, 36.0, 23.0, 26.0, 31.0, 20.0, 23.0, 22.0, 25.0, 23.0, 25.0, 21.0, 25.0, 27.0, 29.0, 30.0, 31.0, 16.0, 28.0, 28.0, 25.0, 24.0, 21.0, 23.0, 27.0, 20.0, 21.0, 29.0, 30.0, 25.0, 18.0, 21.0, 22.0, 25.0, 17.0, 26.0, 29.0, 24.0, 30.0, 20.0, 32.0, 32.0, 20.0, 23.0, 25.0, 31.0, 22.0, 24.0, 19.0, 22.0, 32.0, 24.0, 22.0, 34.0, 23.0, 25.0, 27.0, 22.0], "bins": [-0.2733154296875, -0.26476943492889404, -0.2562234103679657, -0.24767740070819855, -0.2391313910484314, -0.23058539628982544, -0.2220393866300583, -0.21349337697029114, -0.204947367310524, -0.19640135765075684, -0.18785534799098969, -0.17930933833122253, -0.17076334357261658, -0.16221731901168823, -0.15367132425308228, -0.14512531459331512, -0.13657930493354797, -0.12803329527378082, -0.11948728561401367, -0.11094128340482712, -0.10239527374505997, -0.09384926408529282, -0.08530326187610626, -0.07675725221633911, -0.06821124255657196, -0.05966523289680481, -0.05111922696232796, -0.042573221027851105, -0.034027211368083954, -0.025481201708316803, -0.01693519577383995, -0.008389189839363098, 0.00015681982040405273, 0.008702827617526054, 0.017248835414648056, 0.025794843211770058, 0.03434085100889206, 0.04288686066865921, 0.05143286660313606, 0.059978872537612915, 0.06852488219738007, 0.07707089185714722, 0.08561690151691437, 0.09416290372610092, 0.10270891338586807, 0.11125492304563522, 0.11980092525482178, 0.12834693491458893, 0.13689294457435608, 0.14543895423412323, 0.15398496389389038, 0.16253097355365753, 0.17107698321342468, 0.17962297797203064, 0.1881689876317978, 0.19671499729156494, 0.2052610069513321, 0.21380701661109924, 0.2223530262708664, 0.23089903593063354, 0.2394450306892395, 0.24799105525016785, 0.2565370500087738, 0.26508307456970215, 0.2736290693283081]}, "parameters/attention_2.att_l": {"_type": "histogram", "values": [2.0, 0.0, 0.0, 0.0, 0.0, 1.0, 0.0, 0.0, 1.0, 0.0, 1.0, 0.0, 0.0, 1.0, 2.0, 1.0, 0.0, 0.0, 2.0, 0.0, 0.0, 1.0, 0.0, 0.0, 2.0, 1.0, 0.0, 2.0, 1.0, 1.0, 1.0, 1.0, 0.0, 0.0, 0.0, 1.0, 1.0, 1.0, 2.0, 2.0, 0.0, 1.0, 1.0, 0.0, 1.0, 0.0, 1.0, 3.0, 0.0, 0.0, 0.0, 1.0, 0.0, 0.0, 2.0, 0.0, 0.0, 0.0, 1.0, 0.0, 0.0, 0.0, 0.0, 1.0], "bins": [-0.653610348701477, -0.6337089538574219, -0.6138075590133667, -0.5939061641693115, -0.5740047693252563, -0.554103434085846, -0.5342020392417908, -0.5143006443977356, -0.4943992495536804, -0.47449785470962524, -0.45459645986557007, -0.4346950948238373, -0.4147936999797821, -0.39489230513572693, -0.37499094009399414, -0.35508954524993896, -0.3351881504058838, -0.3152867555618286, -0.29538536071777344, -0.27548399567604065, -0.2555826008319855, -0.2356812059879303, -0.21577982604503632, -0.19587844610214233, -0.17597705125808716, -0.15607565641403198, -0.136174276471138, -0.11627288907766342, -0.09637150168418884, -0.07647011429071426, -0.056568726897239685, -0.0366673469543457, -0.016766011714935303, 0.003135375678539276, 0.023036763072013855, 0.042938150465488434, 0.06283953785896301, 0.08274092525243759, 0.10264231264591217, 0.12254369258880615, 0.14244508743286133, 0.1623464822769165, 0.18224786221981049, 0.20214924216270447, 0.22205063700675964, 0.24195203185081482, 0.2618533968925476, 0.2817547917366028, 0.30165618658065796, 0.32155758142471313, 0.3414589762687683, 0.3613603413105011, 0.3812617361545563, 0.40116313099861145, 0.42106449604034424, 0.4409658908843994, 0.4608672857284546, 0.48076868057250977, 0.5006700754165649, 0.5205714702606201, 0.5404728651046753, 0.5603742003440857, 0.5802755951881409, 0.600176990032196, 0.6200783848762512]}, "parameters/attention_2.att_r": {"_type": "histogram", "values": [2.0, 0.0, 0.0, 2.0, 3.0, 0.0, 2.0, 1.0, 1.0, 0.0, 0.0, 0.0, 0.0, 1.0, 0.0, 0.0, 0.0, 0.0, 2.0, 0.0, 1.0, 1.0, 1.0, 0.0, 0.0, 1.0, 1.0, 0.0, 0.0, 2.0, 2.0, 0.0, 0.0, 0.0, 1.0, 0.0, 0.0, 2.0, 0.0, 0.0, 0.0, 0.0, 3.0, 0.0, 0.0, 1.0, 0.0, 0.0, 1.0, 0.0, 0.0, 0.0, 0.0, 1.0, 0.0, 1.0, 0.0, 3.0, 2.0, 0.0, 0.0, 0.0, 0.0, 2.0], "bins": [-0.5456066131591797, -0.5273417234420776, -0.5090768337249756, -0.4908119738101959, -0.47254711389541626, -0.4542822241783142, -0.43601733446121216, -0.4177524447441101, -0.39948758482933044, -0.3812226951122284, -0.36295783519744873, -0.3446929454803467, -0.32642805576324463, -0.30816319584846497, -0.2898983061313629, -0.27163344621658325, -0.2533685564994812, -0.23510368168354034, -0.2168388068675995, -0.19857391715049744, -0.18030904233455658, -0.16204416751861572, -0.14377927780151367, -0.12551440298557281, -0.10724952816963196, -0.0889846533536911, -0.07071977108716965, -0.05245489254593849, -0.034190014004707336, -0.01592513918876648, 0.0023397430777549744, 0.020604625344276428, 0.03886944055557251, 0.057134319096803665, 0.07539919763803482, 0.09366407990455627, 0.11192895472049713, 0.130193829536438, 0.14845871925354004, 0.1667235940694809, 0.18498846888542175, 0.2032533437013626, 0.22151821851730347, 0.23978310823440552, 0.25804799795150757, 0.27631285786628723, 0.2945777475833893, 0.31284260749816895, 0.331107497215271, 0.34937238693237305, 0.3676372468471527, 0.38590213656425476, 0.4041669964790344, 0.4224318861961365, 0.4406967759132385, 0.4589616656303406, 0.47722652554512024, 0.4954914152622223, 0.513756275177002, 0.532021164894104, 0.550286054611206, 0.5685509443283081, 0.5868157744407654, 0.6050806641578674, 0.6233455538749695]}, "parameters/attention_2.bias": {"_type": "histogram", "values": [0.0, 0.0, 0.0, 0.0, 0.0, 0.0, 0.0, 0.0, 0.0, 0.0, 0.0, 0.0, 0.0, 0.0, 0.0, 0.0, 0.0, 0.0, 0.0, 0.0, 0.0, 0.0, 0.0, 0.0, 0.0, 0.0, 0.0, 0.0, 0.0, 0.0, 0.0, 0.0, 40.0, 0.0, 0.0, 0.0, 0.0, 0.0, 0.0, 0.0, 0.0, 0.0, 0.0, 0.0, 0.0, 0.0, 0.0, 0.0, 0.0, 0.0, 0.0, 0.0, 0.0, 0.0, 0.0, 0.0, 0.0, 0.0, 0.0, 0.0, 0.0, 0.0, 0.0, 0.0], "bins": [0.0, 0.0, 0.0, 0.0, 0.0, 0.0, 0.0, 0.0, 0.0, 0.0, 0.0, 0.0, 0.0, 0.0, 0.0, 0.0, 0.0, 0.0, 0.0, 0.0, 0.0, 0.0, 0.0, 0.0, 0.0, 0.0, 0.0, 0.0, 0.0, 0.0, 0.0, 0.0, 0.0, 0.0, 0.0, 0.0, 0.0, 0.0, 0.0, 0.0, 0.0, 0.0, 0.0, 0.0, 0.0, 0.0, 0.0, 0.0, 0.0, 0.0, 0.0, 0.0, 0.0, 0.0, 0.0, 0.0, 0.0, 0.0, 0.0, 0.0, 0.0, 0.0, 0.0, 0.0, 0.0]}, "parameters/attention_2.lin_l.weight": {"_type": "histogram", "values": [30.0, 26.0, 20.0, 19.0, 21.0, 26.0, 19.0, 25.0, 27.0, 24.0, 29.0, 25.0, 22.0, 24.0, 27.0, 28.0, 23.0, 27.0, 35.0, 29.0, 30.0, 23.0, 26.0, 25.0, 23.0, 29.0, 20.0, 19.0, 29.0, 31.0, 35.0, 23.0, 17.0, 26.0, 28.0, 14.0, 31.0, 33.0, 22.0, 20.0, 25.0, 23.0, 21.0, 19.0, 25.0, 33.0, 18.0, 23.0, 23.0, 20.0, 25.0, 22.0, 26.0, 14.0, 20.0, 28.0, 31.0, 40.0, 24.0, 27.0, 33.0, 25.0, 16.0, 29.0], "bins": [-0.2737661600112915, -0.2652134895324707, -0.2566607892513275, -0.2481081187725067, -0.23955543339252472, -0.23100274801254272, -0.22245007753372192, -0.21389739215373993, -0.20534470677375793, -0.19679202139377594, -0.18823935091495514, -0.17968666553497314, -0.17113398015499115, -0.16258129477500916, -0.15402862429618835, -0.14547593891620636, -0.13692326843738556, -0.12837058305740356, -0.11981790512800217, -0.11126522719860077, -0.10271254181861877, -0.09415986388921738, -0.08560718595981598, -0.07705450057983398, -0.06850182265043259, -0.05994914099574089, -0.051396459341049194, -0.0428437814116478, -0.0342910997569561, -0.025738418102264404, -0.017185740172863007, -0.00863305851817131, -8.037686347961426e-05, 0.008472303859889507, 0.01702498458325863, 0.025577664375305176, 0.03413034602999687, 0.04268302768468857, 0.051235705614089966, 0.05978838726878166, 0.06834106892347336, 0.07689374685287476, 0.08544643223285675, 0.09399911016225815, 0.10255178809165955, 0.11110447347164154, 0.11965715140104294, 0.12820982933044434, 0.13676251471042633, 0.14531520009040833, 0.15386787056922913, 0.16242055594921112, 0.17097324132919312, 0.17952591180801392, 0.1880785971879959, 0.1966312825679779, 0.2051839530467987, 0.2137366384267807, 0.2222893089056015, 0.2308419942855835, 0.2393946796655655, 0.24794736504554749, 0.2565000355243683, 0.2650527060031891, 0.2736054062843323]}, "parameters/out_att.att_l": {"_type": "histogram", "values": [0.0, 0.0, 0.0, 0.0, 0.0, 0.0, 0.0, 0.0, 0.0, 0.0, 0.0, 0.0, 0.0, 0.0, 0.0, 0.0, 0.0, 0.0, 0.0, 0.0, 0.0, 0.0, 0.0, 0.0, 0.0, 0.0, 0.0, 0.0, 0.0, 0.0, 0.0, 0.0, 1.0, 0.0, 0.0, 0.0, 0.0, 0.0, 0.0, 0.0, 0.0, 0.0, 0.0, 0.0, 0.0, 0.0, 0.0, 0.0, 0.0, 0.0, 0.0, 0.0, 0.0, 0.0, 0.0, 0.0, 0.0, 0.0, 0.0, 0.0, 0.0, 0.0, 0.0, 0.0], "bins": [-1.0586050748825073, -1.0586050748825073, -1.0586050748825073, -1.0586050748825073, -1.0586050748825073, -1.0586050748825073, -1.0586050748825073, -1.0586050748825073, -1.0586050748825073, -1.0586050748825073, -1.0586050748825073, -1.0586050748825073, -1.0586050748825073, -1.0586050748825073, -1.0586050748825073, -1.0586050748825073, -1.0586050748825073, -1.0586050748825073, -1.0586050748825073, -1.0586050748825073, -1.0586050748825073, -1.0586050748825073, -1.0586050748825073, -1.0586050748825073, -1.0586050748825073, -1.0586050748825073, -1.0586050748825073, -1.0586050748825073, -1.0586050748825073, -1.0586050748825073, -1.0586050748825073, -1.0586050748825073, -1.0586050748825073, -1.0586050748825073, -1.0586050748825073, -1.0586050748825073, -1.0586050748825073, -1.0586050748825073, -1.0586050748825073, -1.0586050748825073, -1.0586050748825073, -1.0586050748825073, -1.0586050748825073, -1.0586050748825073, -1.0586050748825073, -1.0586050748825073, -1.0586050748825073, -1.0586050748825073, -1.0586050748825073, -1.0586050748825073, -1.0586050748825073, -1.0586050748825073, -1.0586050748825073, -1.0586050748825073, -1.0586050748825073, -1.0586050748825073, -1.0586050748825073, -1.0586050748825073, -1.0586050748825073, -1.0586050748825073, -1.0586050748825073, -1.0586050748825073, -1.0586050748825073, -1.0586050748825073, -1.0586050748825073]}, "parameters/out_att.att_r": {"_type": "histogram", "values": [0.0, 0.0, 0.0, 0.0, 0.0, 0.0, 0.0, 0.0, 0.0, 0.0, 0.0, 0.0, 0.0, 0.0, 0.0, 0.0, 0.0, 0.0, 0.0, 0.0, 0.0, 0.0, 0.0, 0.0, 0.0, 0.0, 0.0, 0.0, 0.0, 0.0, 0.0, 0.0, 1.0, 0.0, 0.0, 0.0, 0.0, 0.0, 0.0, 0.0, 0.0, 0.0, 0.0, 0.0, 0.0, 0.0, 0.0, 0.0, 0.0, 0.0, 0.0, 0.0, 0.0, 0.0, 0.0, 0.0, 0.0, 0.0, 0.0, 0.0, 0.0, 0.0, 0.0, 0.0], "bins": [0.77796870470047, 0.77796870470047, 0.77796870470047, 0.77796870470047, 0.77796870470047, 0.77796870470047, 0.77796870470047, 0.77796870470047, 0.77796870470047, 0.77796870470047, 0.77796870470047, 0.77796870470047, 0.77796870470047, 0.77796870470047, 0.77796870470047, 0.77796870470047, 0.77796870470047, 0.77796870470047, 0.77796870470047, 0.77796870470047, 0.77796870470047, 0.77796870470047, 0.77796870470047, 0.77796870470047, 0.77796870470047, 0.77796870470047, 0.77796870470047, 0.77796870470047, 0.77796870470047, 0.77796870470047, 0.77796870470047, 0.77796870470047, 0.77796870470047, 0.77796870470047, 0.77796870470047, 0.77796870470047, 0.77796870470047, 0.77796870470047, 0.77796870470047, 0.77796870470047, 0.77796870470047, 0.77796870470047, 0.77796870470047, 0.77796870470047, 0.77796870470047, 0.77796870470047, 0.77796870470047, 0.77796870470047, 0.77796870470047, 0.77796870470047, 0.77796870470047, 0.77796870470047, 0.77796870470047, 0.77796870470047, 0.77796870470047, 0.77796870470047, 0.77796870470047, 0.77796870470047, 0.77796870470047, 0.77796870470047, 0.77796870470047, 0.77796870470047, 0.77796870470047, 0.77796870470047, 0.77796870470047]}, "parameters/out_att.bias": {"_type": "histogram", "values": [0.0, 0.0, 0.0, 0.0, 0.0, 0.0, 0.0, 0.0, 0.0, 0.0, 0.0, 0.0, 0.0, 0.0, 0.0, 0.0, 0.0, 0.0, 0.0, 0.0, 0.0, 0.0, 0.0, 0.0, 0.0, 0.0, 0.0, 0.0, 0.0, 0.0, 0.0, 0.0, 1.0, 0.0, 0.0, 0.0, 0.0, 0.0, 0.0, 0.0, 0.0, 0.0, 0.0, 0.0, 0.0, 0.0, 0.0, 0.0, 0.0, 0.0, 0.0, 0.0, 0.0, 0.0, 0.0, 0.0, 0.0, 0.0, 0.0, 0.0, 0.0, 0.0, 0.0, 0.0], "bins": [0.0, 0.0, 0.0, 0.0, 0.0, 0.0, 0.0, 0.0, 0.0, 0.0, 0.0, 0.0, 0.0, 0.0, 0.0, 0.0, 0.0, 0.0, 0.0, 0.0, 0.0, 0.0, 0.0, 0.0, 0.0, 0.0, 0.0, 0.0, 0.0, 0.0, 0.0, 0.0, 0.0, 0.0, 0.0, 0.0, 0.0, 0.0, 0.0, 0.0, 0.0, 0.0, 0.0, 0.0, 0.0, 0.0, 0.0, 0.0, 0.0, 0.0, 0.0, 0.0, 0.0, 0.0, 0.0, 0.0, 0.0, 0.0, 0.0, 0.0, 0.0, 0.0, 0.0, 0.0, 0.0]}, "parameters/out_att.lin_l.weight": {"_type": "histogram", "values": [2.0, 1.0, 0.0, 0.0, 2.0, 1.0, 0.0, 2.0, 1.0, 0.0, 1.0, 0.0, 1.0, 1.0, 0.0, 1.0, 2.0, 0.0, 0.0, 0.0, 1.0, 1.0, 2.0, 1.0, 0.0, 0.0, 0.0, 0.0, 0.0, 1.0, 0.0, 0.0, 1.0, 0.0, 0.0, 3.0, 1.0, 0.0, 0.0, 1.0, 2.0, 1.0, 1.0, 0.0, 0.0, 0.0, 1.0, 1.0, 1.0, 0.0, 0.0, 1.0, 0.0, 0.0, 0.0, 2.0, 0.0, 0.0, 0.0, 0.0, 1.0, 1.0, 0.0, 1.0], "bins": [-0.37871333956718445, -0.366955429315567, -0.3551974892616272, -0.34343957901000977, -0.33168166875839233, -0.3199237585067749, -0.30816584825515747, -0.29640790820121765, -0.2846499979496002, -0.2728920876979828, -0.26113414764404297, -0.24937623739242554, -0.2376183271408081, -0.22586041688919067, -0.21410249173641205, -0.20234456658363342, -0.190586656332016, -0.17882874608039856, -0.16707082092761993, -0.1553128957748413, -0.14355498552322388, -0.13179707527160645, -0.12003915011882782, -0.10828123241662979, -0.09652331471443176, -0.08476539701223373, -0.0730074793100357, -0.06124956160783768, -0.04949164390563965, -0.03773372620344162, -0.02597580850124359, -0.014217890799045563, -0.002459973096847534, 0.009297944605350494, 0.021055862307548523, 0.03281378000974655, 0.04457169771194458, 0.05632961541414261, 0.06808753311634064, 0.07984545081853867, 0.0916033685207367, 0.10336128622293472, 0.11511920392513275, 0.12687712907791138, 0.1386350393295288, 0.15039294958114624, 0.16215087473392487, 0.1739087998867035, 0.18566671013832092, 0.19742462038993835, 0.20918254554271698, 0.2209404706954956, 0.23269838094711304, 0.24445629119873047, 0.2562142014503479, 0.2679721415042877, 0.27973005175590515, 0.2914879620075226, 0.3032459020614624, 0.31500381231307983, 0.32676172256469727, 0.3385196328163147, 0.35027754306793213, 0.36203548312187195, 0.3737933933734894]}, "_runtime": 205, "_timestamp": 1637080765, "_step": 18, "Learning rate value": 0.005, "Learning rate action": 0.005, "action_probs": {"_type": "histogram", "values": [3, 0, 0, 0, 30, 0, 0, 0, 0, 0, 0, 0, 0, 0, 0, 0, 0, 0, 0, 0, 0, 0, 0, 0, 0, 0, 0, 0, 0, 0, 0, 0, 0, 0, 0, 0, 0, 0, 0, 0, 0, 0, 0, 0, 0, 0, 0, 0, 0, 0, 0, 0, 0, 0, 0, 0, 0, 0, 0, 0, 0, 0, 0, 6], "bins": [0.4630591869354248, 0.47144845128059387, 0.4798377454280853, 0.4882270097732544, 0.49661630392074585, 0.5050055980682373, 0.513394832611084, 0.5217841267585754, 0.5301734209060669, 0.5385626554489136, 0.546951949596405, 0.5553412437438965, 0.5637305378913879, 0.5721197724342346, 0.5805090665817261, 0.5888983607292175, 0.597287654876709, 0.6056768894195557, 0.6140661835670471, 0.6224554777145386, 0.6308447122573853, 0.6392340064048767, 0.6476233005523682, 0.6560125946998596, 0.6644018292427063, 0.6727911233901978, 0.6811804175376892, 0.6895696520805359, 0.6979589462280273, 0.7063482403755188, 0.7147375345230103, 0.7231267690658569, 0.7315160632133484, 0.7399053573608398, 0.7482945919036865, 0.756683886051178, 0.7650731801986694, 0.7734624743461609, 0.7818517088890076, 0.790241003036499, 0.7986302971839905, 0.8070195317268372, 0.8154088258743286, 0.8237981200218201, 0.8321874141693115, 0.8405766487121582, 0.8489659428596497, 0.8573552370071411, 0.8657444715499878, 0.8741337656974792, 0.8825230598449707, 0.8909123539924622, 0.8993015885353088, 0.9076908826828003, 0.9160801768302917, 0.9244694709777832, 0.9328587055206299, 0.9412479996681213, 0.9496372938156128, 0.9580265283584595, 0.9664158225059509, 0.9748051166534424, 0.9831944108009338, 0.9915836453437805, 0.999972939491272]}, "stop_go_action": {"_type": "histogram", "values": [21, 0, 0, 0, 0, 0, 0, 0, 0, 0, 0, 0, 0, 0, 0, 0, 0, 0, 0, 0, 0, 0, 0, 0, 0, 0, 0, 0, 0, 0, 0, 0, 0, 0, 0, 0, 0, 0, 0, 0, 0, 0, 0, 0, 0, 0, 0, 0, 0, 0, 0, 0, 0, 0, 0, 0, 0, 0, 0, 0, 0, 0, 0, 18], "bins": [0.0, 0.015625, 0.03125, 0.046875, 0.0625, 0.078125, 0.09375, 0.109375, 0.125, 0.140625, 0.15625, 0.171875, 0.1875, 0.203125, 0.21875, 0.234375, 0.25, 0.265625, 0.28125, 0.296875, 0.3125, 0.328125, 0.34375, 0.359375, 0.375, 0.390625, 0.40625, 0.421875, 0.4375, 0.453125, 0.46875, 0.484375, 0.5, 0.515625, 0.53125, 0.546875, 0.5625, 0.578125, 0.59375, 0.609375, 0.625, 0.640625, 0.65625, 0.671875, 0.6875, 0.703125, 0.71875, 0.734375, 0.75, 0.765625, 0.78125, 0.796875, 0.8125, 0.828125, 0.84375, 0.859375, 0.875, 0.890625, 0.90625, 0.921875, 0.9375, 0.953125, 0.96875, 0.984375, 1.0]}, "node_values": {"_type": "histogram", "values": [1, 0, 0, 0, 0, 0, 0, 0, 1, 0, 0, 0, 0, 0, 0, 0, 0, 0, 0, 0, 0, 0, 0, 0, 0, 0, 0, 0, 0, 0, 0, 0, 0, 0, 0, 0, 0, 0, 1, 1, 1, 1, 1, 0, 1, 0, 2, 0, 0, 0, 0, 0, 0, 0, 1, 0, 0, 0, 0, 0, 0, 1, 0, 1], "bins": [-1.065284252166748, -1.0502223627408966, -1.0351604733150452, -1.0200985838891938, -1.0050366944633424, -0.989974805037491, -0.9749129156116396, -0.9598510261857882, -0.9447891367599368, -0.9297272473340854, -0.914665357908234, -0.8996034684823826, -0.8845415790565312, -0.8694796896306798, -0.8544178002048284, -0.839355910778977, -0.8242940213531256, -0.8092321319272742, -0.7941702425014228, -0.7791083530755714, -0.76404646364972, -0.7489845742238685, -0.7339226847980171, -0.7188607953721657, -0.7037989059463143, -0.6887370165204629, -0.6736751270946115, -0.6586132376687601, -0.6435513482429087, -0.6284894588170573, -0.6134275693912059, -0.5983656799653545, -0.5833037905395031, -0.5682419011136517, -0.5531800116878003, -0.5381181222619489, -0.5230562328360975, -0.5079943434102461, -0.49293245398439467, -0.47787056455854326, -0.46280867513269186, -0.44774678570684046, -0.43268489628098905, -0.41762300685513765, -0.40256111742928624, -0.38749922800343484, -0.37243733857758343, -0.357375449151732, -0.3423135597258806, -0.3272516703000292, -0.3121897808741778, -0.2971278914483264, -0.282066002022475, -0.2670041125966236, -0.2519422231707722, -0.2368803337449208, -0.22181844431906939, -0.20675655489321798, -0.19169466546736658, -0.17663277604151517, -0.16157088661566377, -0.14650899718981236, -0.13144710776396096, -0.11638521833810955, -0.10132332891225815]}, "episode_rewards": {"_type": "histogram", "values": [6, 0, 0, 0, 0, 0, 0, 0, 0, 0, 0, 0, 0, 0, 0, 0, 0, 0, 0, 0, 0, 0, 3, 0, 0, 0, 0, 0, 0, 0, 0, 0, 0, 0, 0, 0, 0, 0, 0, 0, 0, 0, 0, 0, 0, 0, 0, 0, 0, 0, 0, 0, 0, 0, 0, 3, 0, 0, 0, 0, 0, 9, 0, 9], "bins": [-23.0, -22.640625, -22.28125, -21.921875, -21.5625, -21.203125, -20.84375, -20.484375, -20.125, -19.765625, -19.40625, -19.046875, -18.6875, -18.328125, -17.96875, -17.609375, -17.25, -16.890625, -16.53125, -16.171875, -15.8125, -15.453125, -15.09375, -14.734375, -14.375, -14.015625, -13.65625, -13.296875, -12.9375, -12.578125, -12.21875, -11.859375, -11.5, -11.140625, -10.78125, -10.421875, -10.0625, -9.703125, -9.34375, -8.984375, -8.625, -8.265625, -7.90625, -7.546875, -7.1875, -6.828125, -6.46875, -6.109375, -5.75, -5.390625, -5.03125, -4.671875, -4.3125, -3.953125, -3.59375, -3.234375, -2.875, -2.515625, -2.15625, -1.796875, -1.4375, -1.078125, -0.71875, -0.359375, 0.0]}, "avg_reward": -892.125, "done_agents": 0.5958829365079366, "deadlock_agents": 0.14285714285714285, "_wandb": {"runtime": 205}}