{"parameters/attention_0.att_l": {"_type": "histogram", "values": [1.0, 2.0, 3.0, 1.0, 1.0, 0.0, 1.0, 1.0, 0.0, 1.0, 0.0, 3.0, 1.0, 1.0, 1.0, 0.0, 1.0, 0.0, 1.0, 1.0, 0.0, 0.0, 1.0, 2.0, 0.0, 0.0, 0.0, 1.0, 0.0, 0.0, 0.0, 0.0, 1.0, 1.0, 0.0, 1.0, 0.0, 1.0, 0.0, 0.0, 0.0, 0.0, 0.0, 1.0, 0.0, 1.0, 0.0, 1.0, 0.0, 0.0, 1.0, 0.0, 1.0, 1.0, 0.0, 1.0, 0.0, 0.0, 3.0, 0.0, 1.0, 0.0, 0.0, 1.0], "bins": [-0.6404236555099487, -0.6217275857925415, -0.6030315160751343, -0.5843355059623718, -0.5656394362449646, -0.5469433665275574, -0.5282472968101501, -0.5095512866973877, -0.49085521697998047, -0.47215914726257324, -0.4534631073474884, -0.4347670376300812, -0.41607099771499634, -0.3973749279975891, -0.3786788582801819, -0.35998281836509705, -0.3412867486476898, -0.3225906789302826, -0.30389463901519775, -0.2851985692977905, -0.2665025293827057, -0.24780645966529846, -0.22911040484905243, -0.2104143500328064, -0.19171829521656036, -0.17302224040031433, -0.1543261855840683, -0.13563013076782227, -0.11693406850099564, -0.0982380136847496, -0.07954195141792297, -0.06084589660167694, -0.04214984178543091, -0.023453785106539726, -0.004757728427648544, 0.013938330113887787, 0.03263438493013382, 0.05133043974637985, 0.07002650201320648, 0.08872255682945251, 0.10741861164569855, 0.12611466646194458, 0.1448107212781906, 0.16350677609443665, 0.18220284581184387, 0.2008988857269287, 0.21959495544433594, 0.23829101026058197, 0.256987065076828, 0.27568313479423523, 0.29437917470932007, 0.3130752444267273, 0.33177128434181213, 0.35046735405921936, 0.3691633939743042, 0.3878594636917114, 0.40655553340911865, 0.4252516031265259, 0.4439476430416107, 0.46264371275901794, 0.4813397526741028, 0.50003582239151, 0.5187318921089172, 0.5374279022216797, 0.5561239719390869]}, "parameters/attention_0.att_r": {"_type": "histogram", "values": [1.0, 0.0, 2.0, 1.0, 0.0, 3.0, 0.0, 0.0, 0.0, 0.0, 0.0, 1.0, 0.0, 1.0, 0.0, 1.0, 0.0, 0.0, 3.0, 0.0, 2.0, 0.0, 0.0, 0.0, 0.0, 0.0, 0.0, 1.0, 0.0, 0.0, 2.0, 0.0, 0.0, 0.0, 1.0, 1.0, 0.0, 0.0, 0.0, 1.0, 1.0, 0.0, 1.0, 3.0, 1.0, 1.0, 1.0, 1.0, 0.0, 0.0, 0.0, 0.0, 0.0, 1.0, 0.0, 1.0, 0.0, 1.0, 2.0, 0.0, 0.0, 3.0, 0.0, 2.0], "bins": [-0.6424130201339722, -0.6227932572364807, -0.6031734347343445, -0.583553671836853, -0.5639339089393616, -0.5443140864372253, -0.5246943235397339, -0.5050745010375977, -0.4854547381401062, -0.46583494544029236, -0.4462151825428009, -0.42659538984298706, -0.4069755971431732, -0.3873558044433594, -0.3677360415458679, -0.3481162488460541, -0.3284964859485626, -0.3088766932487488, -0.2892569303512573, -0.2696371376514435, -0.25001734495162964, -0.230397567152977, -0.21077778935432434, -0.1911579966545105, -0.17153821885585785, -0.1519184410572052, -0.13229864835739136, -0.11267887055873871, -0.09305908530950546, -0.07343930006027222, -0.05381952226161957, -0.034199729561805725, -0.014579951763153076, 0.0050398316234350204, 0.024659615010023117, 0.044279396533966064, 0.06389918178319931, 0.08351896703243256, 0.1031387448310852, 0.12275853753089905, 0.1423783153295517, 0.16199809312820435, 0.1816178858280182, 0.20123766362667084, 0.2208574414253235, 0.24047723412513733, 0.26009702682495117, 0.2797167897224426, 0.29933658242225647, 0.3189563751220703, 0.33857613801956177, 0.3581959307193756, 0.37781572341918945, 0.3974354863166809, 0.41705527901649475, 0.4366750717163086, 0.45629483461380005, 0.4759146273136139, 0.49553439021110535, 0.5151541829109192, 0.5347739458084106, 0.5543937683105469, 0.5740135312080383, 0.5936332941055298, 0.613253116607666]}, "parameters/attention_0.bias": {"_type": "histogram", "values": [0.0, 0.0, 0.0, 0.0, 0.0, 0.0, 0.0, 0.0, 0.0, 0.0, 0.0, 0.0, 0.0, 0.0, 0.0, 0.0, 0.0, 0.0, 0.0, 0.0, 0.0, 0.0, 0.0, 0.0, 0.0, 0.0, 0.0, 0.0, 0.0, 0.0, 0.0, 0.0, 40.0, 0.0, 0.0, 0.0, 0.0, 0.0, 0.0, 0.0, 0.0, 0.0, 0.0, 0.0, 0.0, 0.0, 0.0, 0.0, 0.0, 0.0, 0.0, 0.0, 0.0, 0.0, 0.0, 0.0, 0.0, 0.0, 0.0, 0.0, 0.0, 0.0, 0.0, 0.0], "bins": [0.0, 0.0, 0.0, 0.0, 0.0, 0.0, 0.0, 0.0, 0.0, 0.0, 0.0, 0.0, 0.0, 0.0, 0.0, 0.0, 0.0, 0.0, 0.0, 0.0, 0.0, 0.0, 0.0, 0.0, 0.0, 0.0, 0.0, 0.0, 0.0, 0.0, 0.0, 0.0, 0.0, 0.0, 0.0, 0.0, 0.0, 0.0, 0.0, 0.0, 0.0, 0.0, 0.0, 0.0, 0.0, 0.0, 0.0, 0.0, 0.0, 0.0, 0.0, 0.0, 0.0, 0.0, 0.0, 0.0, 0.0, 0.0, 0.0, 0.0, 0.0, 0.0, 0.0, 0.0, 0.0]}, "parameters/attention_0.lin_l.weight": {"_type": "histogram", "values": [11.0, 9.0, 10.0, 8.0, 3.0, 9.0, 7.0, 9.0, 9.0, 13.0, 6.0, 15.0, 12.0, 6.0, 7.0, 7.0, 13.0, 12.0, 10.0, 14.0, 8.0, 6.0, 6.0, 13.0, 13.0, 8.0, 10.0, 7.0, 6.0, 12.0, 13.0, 9.0, 8.0, 7.0, 11.0, 8.0, 12.0, 4.0, 6.0, 7.0, 7.0, 6.0, 8.0, 6.0, 3.0, 9.0, 10.0, 7.0, 5.0, 7.0, 14.0, 9.0, 7.0, 7.0, 6.0, 12.0, 9.0, 12.0, 9.0, 9.0, 9.0, 7.0, 7.0, 11.0], "bins": [-0.33296287059783936, -0.3225632905960083, -0.31216371059417725, -0.3017641305923462, -0.29136455059051514, -0.2809649705886841, -0.270565390586853, -0.260165810585022, -0.24976623058319092, -0.23936665058135986, -0.2289670705795288, -0.21856749057769775, -0.2081679105758667, -0.19776833057403564, -0.1873687505722046, -0.17696917057037354, -0.16656960546970367, -0.15617002546787262, -0.14577044546604156, -0.1353708654642105, -0.12497128546237946, -0.1145717054605484, -0.10417213290929794, -0.09377255290746689, -0.08337297290563583, -0.07297339290380478, -0.06257381290197372, -0.05217423662543297, -0.04177465662360191, -0.03137507662177086, -0.020975500345230103, -0.010575920343399048, -0.00017634034156799316, 0.010223238728940487, 0.020622817799448967, 0.031022395938634872, 0.04142197594046593, 0.05182155594229698, 0.06222113221883774, 0.07262071222066879, 0.08302029222249985, 0.0934198722243309, 0.10381945222616196, 0.11421902477741241, 0.12461860477924347, 0.13501818478107452, 0.14541776478290558, 0.15581734478473663, 0.1662169247865677, 0.17661650478839874, 0.1870160847902298, 0.19741566479206085, 0.2078152447938919, 0.21821482479572296, 0.22861438989639282, 0.23901396989822388, 0.24941354990005493, 0.259813129901886, 0.27021270990371704, 0.2806122899055481, 0.29101186990737915, 0.3014114499092102, 0.31181102991104126, 0.3222106099128723, 0.33261018991470337]}, "parameters/attention_1.att_l": {"_type": "histogram", "values": [2.0, 0.0, 2.0, 1.0, 0.0, 0.0, 0.0, 2.0, 1.0, 1.0, 0.0, 0.0, 1.0, 1.0, 0.0, 1.0, 3.0, 0.0, 1.0, 0.0, 1.0, 0.0, 1.0, 1.0, 0.0, 0.0, 1.0, 0.0, 0.0, 1.0, 2.0, 0.0, 0.0, 0.0, 0.0, 0.0, 2.0, 0.0, 0.0, 1.0, 0.0, 1.0, 1.0, 0.0, 1.0, 0.0, 1.0, 0.0, 1.0, 1.0, 1.0, 0.0, 1.0, 0.0, 0.0, 1.0, 0.0, 0.0, 0.0, 1.0, 0.0, 1.0, 2.0, 1.0], "bins": [-0.6254901885986328, -0.6057204008102417, -0.5859506726264954, -0.5661808848381042, -0.5464111566543579, -0.5266413688659668, -0.5068715810775757, -0.48710182309150696, -0.46733206510543823, -0.4475623071193695, -0.4277925491333008, -0.40802276134490967, -0.38825300335884094, -0.3684832453727722, -0.3487134575843811, -0.3289436995983124, -0.30917394161224365, -0.2894041836261749, -0.2696344256401062, -0.2498646378517151, -0.23009487986564636, -0.21032512187957764, -0.19055534899234772, -0.1707855761051178, -0.15101581811904907, -0.13124606013298035, -0.11147628724575043, -0.0917065218091011, -0.07193675637245178, -0.05216699093580246, -0.03239722549915314, -0.012627452611923218, 0.007142245769500732, 0.026912011206150055, 0.04668177664279938, 0.0664515420794487, 0.08622130751609802, 0.10599107295274734, 0.12576083838939667, 0.1455306112766266, 0.1653003692626953, 0.18507012724876404, 0.20483990013599396, 0.22460967302322388, 0.2443794310092926, 0.26414918899536133, 0.28391897678375244, 0.30368873476982117, 0.3234584927558899, 0.3432282507419586, 0.36299800872802734, 0.38276779651641846, 0.4025375545024872, 0.4223073124885559, 0.442077100276947, 0.46184685826301575, 0.4816166162490845, 0.5013864040374756, 0.5211561322212219, 0.540925920009613, 0.5606956481933594, 0.5804654359817505, 0.6002352237701416, 0.6200050115585327, 0.639774739742279]}, "parameters/attention_1.att_r": {"_type": "histogram", "values": [2.0, 0.0, 0.0, 1.0, 0.0, 2.0, 1.0, 2.0, 1.0, 0.0, 1.0, 1.0, 0.0, 1.0, 0.0, 1.0, 0.0, 0.0, 1.0, 0.0, 0.0, 2.0, 0.0, 0.0, 0.0, 1.0, 0.0, 0.0, 0.0, 1.0, 1.0, 0.0, 0.0, 2.0, 0.0, 0.0, 0.0, 0.0, 0.0, 1.0, 3.0, 0.0, 0.0, 0.0, 0.0, 0.0, 0.0, 1.0, 0.0, 0.0, 1.0, 0.0, 1.0, 1.0, 0.0, 4.0, 1.0, 0.0, 1.0, 1.0, 0.0, 1.0, 2.0, 1.0], "bins": [-0.609782874584198, -0.5901272296905518, -0.5704716444015503, -0.550815999507904, -0.5311603546142578, -0.5115047693252563, -0.4918491244316101, -0.47219347953796387, -0.45253786444664, -0.43288224935531616, -0.4132266044616699, -0.39357098937034607, -0.3739153742790222, -0.354259729385376, -0.3346041142940521, -0.31494849920272827, -0.29529285430908203, -0.2756372392177582, -0.25598159432411194, -0.23632597923278809, -0.21667034924030304, -0.197014719247818, -0.17735910415649414, -0.1577034741640091, -0.13804784417152405, -0.118392214179039, -0.09873659163713455, -0.0790809690952301, -0.059425339102745056, -0.03976970911026001, -0.02011408656835556, -0.00045846402645111084, 0.01919710636138916, 0.03885273262858391, 0.058508358895778656, 0.0781639814376831, 0.09781961143016815, 0.1174752414226532, 0.13713085651397705, 0.1567864865064621, 0.17644211649894714, 0.1960977464914322, 0.21575337648391724, 0.2354089915752411, 0.25506460666656494, 0.2747202515602112, 0.29437586665153503, 0.3140314817428589, 0.3336871266365051, 0.353342741727829, 0.3729983866214752, 0.3926540017127991, 0.4123096466064453, 0.43196526169776917, 0.451620876789093, 0.47127652168273926, 0.4909321367740631, 0.510587751865387, 0.5302433967590332, 0.5498990416526794, 0.5695546269416809, 0.5892102718353271, 0.6088659167289734, 0.6285215020179749, 0.6481771469116211]}, "parameters/attention_1.bias": {"_type": "histogram", "values": [0.0, 0.0, 0.0, 0.0, 0.0, 0.0, 0.0, 0.0, 0.0, 0.0, 0.0, 0.0, 0.0, 0.0, 0.0, 0.0, 0.0, 0.0, 0.0, 0.0, 0.0, 0.0, 0.0, 0.0, 0.0, 0.0, 0.0, 0.0, 0.0, 0.0, 0.0, 0.0, 40.0, 0.0, 0.0, 0.0, 0.0, 0.0, 0.0, 0.0, 0.0, 0.0, 0.0, 0.0, 0.0, 0.0, 0.0, 0.0, 0.0, 0.0, 0.0, 0.0, 0.0, 0.0, 0.0, 0.0, 0.0, 0.0, 0.0, 0.0, 0.0, 0.0, 0.0, 0.0], "bins": [0.0, 0.0, 0.0, 0.0, 0.0, 0.0, 0.0, 0.0, 0.0, 0.0, 0.0, 0.0, 0.0, 0.0, 0.0, 0.0, 0.0, 0.0, 0.0, 0.0, 0.0, 0.0, 0.0, 0.0, 0.0, 0.0, 0.0, 0.0, 0.0, 0.0, 0.0, 0.0, 0.0, 0.0, 0.0, 0.0, 0.0, 0.0, 0.0, 0.0, 0.0, 0.0, 0.0, 0.0, 0.0, 0.0, 0.0, 0.0, 0.0, 0.0, 0.0, 0.0, 0.0, 0.0, 0.0, 0.0, 0.0, 0.0, 0.0, 0.0, 0.0, 0.0, 0.0, 0.0, 0.0]}, "parameters/attention_1.lin_l.weight": {"_type": "histogram", "values": [38.0, 19.0, 26.0, 26.0, 25.0, 22.0, 30.0, 25.0, 23.0, 26.0, 26.0, 17.0, 36.0, 25.0, 18.0, 16.0, 34.0, 19.0, 27.0, 38.0, 22.0, 31.0, 18.0, 21.0, 30.0, 29.0, 25.0, 23.0, 28.0, 26.0, 29.0, 22.0, 31.0, 31.0, 28.0, 33.0, 28.0, 26.0, 20.0, 16.0, 20.0, 24.0, 26.0, 22.0, 20.0, 13.0, 21.0, 26.0, 19.0, 26.0, 34.0, 25.0, 25.0, 21.0, 28.0, 25.0, 31.0, 15.0, 28.0, 21.0, 22.0, 29.0, 23.0, 23.0], "bins": [-0.27381300926208496, -0.2652584910392761, -0.2567039430141449, -0.24814940989017487, -0.23959487676620483, -0.2310403436422348, -0.22248581051826477, -0.21393127739429474, -0.2053767442703247, -0.19682221114635468, -0.18826767802238464, -0.1797131448984146, -0.17115861177444458, -0.16260407865047455, -0.15404954552650452, -0.14549501240253448, -0.13694047927856445, -0.12838594615459442, -0.11983141303062439, -0.11127687990665436, -0.10272234678268433, -0.0941678136587143, -0.08561328053474426, -0.07705874741077423, -0.0685042142868042, -0.05994968116283417, -0.051395148038864136, -0.042840614914894104, -0.03428608179092407, -0.02573154866695404, -0.01717701554298401, -0.008622482419013977, -6.791949272155762e-05, 0.008486613631248474, 0.017041146755218506, 0.025595679879188538, 0.03415021300315857, 0.0427047461271286, 0.05125927925109863, 0.059813812375068665, 0.0683683454990387, 0.07692287862300873, 0.08547741174697876, 0.09403194487094879, 0.10258647799491882, 0.11114101111888885, 0.11969554424285889, 0.12825007736682892, 0.13680461049079895, 0.14535914361476898, 0.153913676738739, 0.16246820986270905, 0.17102274298667908, 0.1795772761106491, 0.18813180923461914, 0.19668634235858917, 0.2052408754825592, 0.21379540860652924, 0.22234994173049927, 0.2309044748544693, 0.23945900797843933, 0.24801354110240936, 0.2565680742263794, 0.26512259244918823, 0.27367714047431946]}, "parameters/attention_2.att_l": {"_type": "histogram", "values": [1.0, 1.0, 0.0, 0.0, 0.0, 0.0, 1.0, 1.0, 0.0, 0.0, 0.0, 0.0, 1.0, 0.0, 1.0, 0.0, 0.0, 0.0, 0.0, 1.0, 1.0, 0.0, 1.0, 1.0, 0.0, 0.0, 2.0, 1.0, 0.0, 0.0, 0.0, 1.0, 1.0, 0.0, 1.0, 0.0, 0.0, 0.0, 0.0, 1.0, 2.0, 1.0, 0.0, 0.0, 0.0, 0.0, 1.0, 0.0, 0.0, 0.0, 0.0, 2.0, 0.0, 0.0, 1.0, 1.0, 1.0, 0.0, 1.0, 1.0, 5.0, 1.0, 3.0, 3.0], "bins": [-0.6054290533065796, -0.5858100652694702, -0.5661910772323608, -0.5465720891952515, -0.5269531011581421, -0.5073341131210327, -0.48771509528160095, -0.4680960774421692, -0.4484770894050598, -0.42885810136795044, -0.40923911333084106, -0.3896201252937317, -0.3700011074542999, -0.35038211941719055, -0.3307631313800812, -0.3111441135406494, -0.2915251553058624, -0.27190616726875305, -0.2522871792316437, -0.2326681762933731, -0.21304917335510254, -0.19343018531799316, -0.1738111972808838, -0.15419219434261322, -0.13457320630550385, -0.11495421081781387, -0.0953352153301239, -0.07571622729301453, -0.056097231805324554, -0.03647823631763458, -0.016859248280525208, 0.0027597546577453613, 0.022378742694854736, 0.04199773818254471, 0.06161672994494438, 0.08123572170734406, 0.10085471719503403, 0.120473712682724, 0.14009270071983337, 0.15971170365810394, 0.17933069169521332, 0.1989496797323227, 0.21856868267059326, 0.23818767070770264, 0.257806658744812, 0.2774256467819214, 0.29704463481903076, 0.3166636526584625, 0.3362826406955719, 0.3559016287326813, 0.37552061676979065, 0.3951396346092224, 0.4147586226463318, 0.43437761068344116, 0.45399659872055054, 0.4736155867576599, 0.4932345747947693, 0.5128535628318787, 0.532472550868988, 0.5520915389060974, 0.5717105269432068, 0.5913295745849609, 0.6109485626220703, 0.6305675506591797, 0.6501865386962891]}, "parameters/attention_2.att_r": {"_type": "histogram", "values": [2.0, 0.0, 1.0, 0.0, 0.0, 0.0, 0.0, 1.0, 1.0, 0.0, 1.0, 0.0, 1.0, 0.0, 1.0, 1.0, 1.0, 1.0, 1.0, 1.0, 0.0, 0.0, 1.0, 0.0, 1.0, 3.0, 0.0, 0.0, 0.0, 0.0, 0.0, 1.0, 0.0, 0.0, 1.0, 3.0, 1.0, 0.0, 1.0, 1.0, 0.0, 0.0, 0.0, 1.0, 0.0, 1.0, 1.0, 0.0, 0.0, 1.0, 0.0, 0.0, 3.0, 0.0, 0.0, 1.0, 0.0, 2.0, 0.0, 0.0, 1.0, 1.0, 0.0, 2.0], "bins": [-0.6421020030975342, -0.6246137619018555, -0.6071255207061768, -0.589637279510498, -0.5721490383148193, -0.5546608567237854, -0.5371726155281067, -0.519684374332428, -0.5021961331367493, -0.48470789194107056, -0.46721965074539185, -0.4497314393520355, -0.4322431981563568, -0.4147549569606781, -0.3972667455673218, -0.37977850437164307, -0.36229026317596436, -0.34480202198028564, -0.32731378078460693, -0.3098255693912506, -0.2923373281955719, -0.2748490869998932, -0.25736087560653687, -0.23987263441085815, -0.22238439321517944, -0.20489615201950073, -0.18740792572498322, -0.1699196994304657, -0.152431458234787, -0.13494321703910828, -0.11745499074459076, -0.09996675699949265, -0.08247852325439453, -0.06499028950929642, -0.0475020557641983, -0.03001382201910019, -0.012525588274002075, 0.004962645471096039, 0.022450879216194153, 0.03993911296129227, 0.05742734670639038, 0.0749155804514885, 0.09240381419658661, 0.10989204794168472, 0.12738028168678284, 0.14486852288246155, 0.16235674917697906, 0.17984497547149658, 0.1973332166671753, 0.214821457862854, 0.23230968415737152, 0.24979791045188904, 0.26728615164756775, 0.28477439284324646, 0.3022626042366028, 0.3197508454322815, 0.3372390866279602, 0.3547273278236389, 0.3722155690193176, 0.38970378041267395, 0.40719202160835266, 0.42468026280403137, 0.4421684741973877, 0.4596567153930664, 0.4771449565887451]}, "parameters/attention_2.bias": {"_type": "histogram", "values": [0.0, 0.0, 0.0, 0.0, 0.0, 0.0, 0.0, 0.0, 0.0, 0.0, 0.0, 0.0, 0.0, 0.0, 0.0, 0.0, 0.0, 0.0, 0.0, 0.0, 0.0, 0.0, 0.0, 0.0, 0.0, 0.0, 0.0, 0.0, 0.0, 0.0, 0.0, 0.0, 40.0, 0.0, 0.0, 0.0, 0.0, 0.0, 0.0, 0.0, 0.0, 0.0, 0.0, 0.0, 0.0, 0.0, 0.0, 0.0, 0.0, 0.0, 0.0, 0.0, 0.0, 0.0, 0.0, 0.0, 0.0, 0.0, 0.0, 0.0, 0.0, 0.0, 0.0, 0.0], "bins": [0.0, 0.0, 0.0, 0.0, 0.0, 0.0, 0.0, 0.0, 0.0, 0.0, 0.0, 0.0, 0.0, 0.0, 0.0, 0.0, 0.0, 0.0, 0.0, 0.0, 0.0, 0.0, 0.0, 0.0, 0.0, 0.0, 0.0, 0.0, 0.0, 0.0, 0.0, 0.0, 0.0, 0.0, 0.0, 0.0, 0.0, 0.0, 0.0, 0.0, 0.0, 0.0, 0.0, 0.0, 0.0, 0.0, 0.0, 0.0, 0.0, 0.0, 0.0, 0.0, 0.0, 0.0, 0.0, 0.0, 0.0, 0.0, 0.0, 0.0, 0.0, 0.0, 0.0, 0.0, 0.0]}, "parameters/attention_2.lin_l.weight": {"_type": "histogram", "values": [30.0, 23.0, 28.0, 29.0, 23.0, 19.0, 33.0, 29.0, 29.0, 22.0, 15.0, 37.0, 19.0, 16.0, 28.0, 21.0, 24.0, 31.0, 32.0, 25.0, 29.0, 29.0, 20.0, 20.0, 22.0, 28.0, 30.0, 26.0, 36.0, 31.0, 28.0, 23.0, 22.0, 19.0, 24.0, 19.0, 30.0, 31.0, 30.0, 25.0, 26.0, 26.0, 26.0, 22.0, 27.0, 17.0, 21.0, 22.0, 30.0, 21.0, 28.0, 28.0, 25.0, 19.0, 24.0, 34.0, 30.0, 28.0, 14.0, 18.0, 12.0, 16.0, 22.0, 29.0], "bins": [-0.2736075520515442, -0.2650655210018158, -0.2565235197544098, -0.2479814887046814, -0.239439457654953, -0.2308974415063858, -0.2223554253578186, -0.2138133943080902, -0.20527136325836182, -0.19672934710979462, -0.18818731606006622, -0.17964529991149902, -0.17110326886177063, -0.16256125271320343, -0.15401923656463623, -0.14547720551490784, -0.13693518936634064, -0.12839317321777344, -0.11985114216804504, -0.11130912601947784, -0.10276709496974945, -0.09422507882118225, -0.08568305522203445, -0.07714103162288666, -0.06859900802373886, -0.060056984424591064, -0.05151496082544327, -0.04297294095158577, -0.03443091735243797, -0.025888893753290176, -0.017346873879432678, -0.008804850280284882, -0.00026282668113708496, 0.008279195986688137, 0.01682121865451336, 0.025363240391016006, 0.0339052639901638, 0.0424472875893116, 0.0509893074631691, 0.059531331062316895, 0.06807335466146469, 0.07661537826061249, 0.08515740185976028, 0.09369942545890808, 0.10224144160747528, 0.11078347265720367, 0.11932548880577087, 0.12786751985549927, 0.13640953600406647, 0.14495155215263367, 0.15349358320236206, 0.16203559935092926, 0.17057763040065765, 0.17911964654922485, 0.18766167759895325, 0.19620369374752045, 0.20474570989608765, 0.21328772604465485, 0.22182975709438324, 0.23037177324295044, 0.23891380429267883, 0.24745582044124603, 0.25599783658981323, 0.2645398676395416, 0.27308189868927]}, "parameters/out_att.att_l": {"_type": "histogram", "values": [0.0, 0.0, 0.0, 0.0, 0.0, 0.0, 0.0, 0.0, 0.0, 0.0, 0.0, 0.0, 0.0, 0.0, 0.0, 0.0, 0.0, 0.0, 0.0, 0.0, 0.0, 0.0, 0.0, 0.0, 0.0, 0.0, 0.0, 0.0, 0.0, 0.0, 0.0, 0.0, 1.0, 0.0, 0.0, 0.0, 0.0, 0.0, 0.0, 0.0, 0.0, 0.0, 0.0, 0.0, 0.0, 0.0, 0.0, 0.0, 0.0, 0.0, 0.0, 0.0, 0.0, 0.0, 0.0, 0.0, 0.0, 0.0, 0.0, 0.0, 0.0, 0.0, 0.0, 0.0], "bins": [-1.5106209516525269, -1.5106209516525269, -1.5106209516525269, -1.5106209516525269, -1.5106209516525269, -1.5106209516525269, -1.5106209516525269, -1.5106209516525269, -1.5106209516525269, -1.5106209516525269, -1.5106209516525269, -1.5106209516525269, -1.5106209516525269, -1.5106209516525269, -1.5106209516525269, -1.5106209516525269, -1.5106209516525269, -1.5106209516525269, -1.5106209516525269, -1.5106209516525269, -1.5106209516525269, -1.5106209516525269, -1.5106209516525269, -1.5106209516525269, -1.5106209516525269, -1.5106209516525269, -1.5106209516525269, -1.5106209516525269, -1.5106209516525269, -1.5106209516525269, -1.5106209516525269, -1.5106209516525269, -1.5106209516525269, -1.5106209516525269, -1.5106209516525269, -1.5106209516525269, -1.5106209516525269, -1.5106209516525269, -1.5106209516525269, -1.5106209516525269, -1.5106209516525269, -1.5106209516525269, -1.5106209516525269, -1.5106209516525269, -1.5106209516525269, -1.5106209516525269, -1.5106209516525269, -1.5106209516525269, -1.5106209516525269, -1.5106209516525269, -1.5106209516525269, -1.5106209516525269, -1.5106209516525269, -1.5106209516525269, -1.5106209516525269, -1.5106209516525269, -1.5106209516525269, -1.5106209516525269, -1.5106209516525269, -1.5106209516525269, -1.5106209516525269, -1.5106209516525269, -1.5106209516525269, -1.5106209516525269, -1.5106209516525269]}, "parameters/out_att.att_r": {"_type": "histogram", "values": [0.0, 0.0, 0.0, 0.0, 0.0, 0.0, 0.0, 0.0, 0.0, 0.0, 0.0, 0.0, 0.0, 0.0, 0.0, 0.0, 0.0, 0.0, 0.0, 0.0, 0.0, 0.0, 0.0, 0.0, 0.0, 0.0, 0.0, 0.0, 0.0, 0.0, 0.0, 0.0, 1.0, 0.0, 0.0, 0.0, 0.0, 0.0, 0.0, 0.0, 0.0, 0.0, 0.0, 0.0, 0.0, 0.0, 0.0, 0.0, 0.0, 0.0, 0.0, 0.0, 0.0, 0.0, 0.0, 0.0, 0.0, 0.0, 0.0, 0.0, 0.0, 0.0, 0.0, 0.0], "bins": [-0.17615732550621033, -0.17615732550621033, -0.17615732550621033, -0.17615732550621033, -0.17615732550621033, -0.17615732550621033, -0.17615732550621033, -0.17615732550621033, -0.17615732550621033, -0.17615732550621033, -0.17615732550621033, -0.17615732550621033, -0.17615732550621033, -0.17615732550621033, -0.17615732550621033, -0.17615732550621033, -0.17615732550621033, -0.17615732550621033, -0.17615732550621033, -0.17615732550621033, -0.17615732550621033, -0.17615732550621033, -0.17615732550621033, -0.17615732550621033, -0.17615732550621033, -0.17615732550621033, -0.17615732550621033, -0.17615732550621033, -0.17615732550621033, -0.17615732550621033, -0.17615732550621033, -0.17615732550621033, -0.17615732550621033, -0.17615732550621033, -0.17615732550621033, -0.17615732550621033, -0.17615732550621033, -0.17615732550621033, -0.17615732550621033, -0.17615732550621033, -0.17615732550621033, -0.17615732550621033, -0.17615732550621033, -0.17615732550621033, -0.17615732550621033, -0.17615732550621033, -0.17615732550621033, -0.17615732550621033, -0.17615732550621033, -0.17615732550621033, -0.17615732550621033, -0.17615732550621033, -0.17615732550621033, -0.17615732550621033, -0.17615732550621033, -0.17615732550621033, -0.17615732550621033, -0.17615732550621033, -0.17615732550621033, -0.17615732550621033, -0.17615732550621033, -0.17615732550621033, -0.17615732550621033, -0.17615732550621033, -0.17615732550621033]}, "parameters/out_att.bias": {"_type": "histogram", "values": [0.0, 0.0, 0.0, 0.0, 0.0, 0.0, 0.0, 0.0, 0.0, 0.0, 0.0, 0.0, 0.0, 0.0, 0.0, 0.0, 0.0, 0.0, 0.0, 0.0, 0.0, 0.0, 0.0, 0.0, 0.0, 0.0, 0.0, 0.0, 0.0, 0.0, 0.0, 0.0, 1.0, 0.0, 0.0, 0.0, 0.0, 0.0, 0.0, 0.0, 0.0, 0.0, 0.0, 0.0, 0.0, 0.0, 0.0, 0.0, 0.0, 0.0, 0.0, 0.0, 0.0, 0.0, 0.0, 0.0, 0.0, 0.0, 0.0, 0.0, 0.0, 0.0, 0.0, 0.0], "bins": [0.0, 0.0, 0.0, 0.0, 0.0, 0.0, 0.0, 0.0, 0.0, 0.0, 0.0, 0.0, 0.0, 0.0, 0.0, 0.0, 0.0, 0.0, 0.0, 0.0, 0.0, 0.0, 0.0, 0.0, 0.0, 0.0, 0.0, 0.0, 0.0, 0.0, 0.0, 0.0, 0.0, 0.0, 0.0, 0.0, 0.0, 0.0, 0.0, 0.0, 0.0, 0.0, 0.0, 0.0, 0.0, 0.0, 0.0, 0.0, 0.0, 0.0, 0.0, 0.0, 0.0, 0.0, 0.0, 0.0, 0.0, 0.0, 0.0, 0.0, 0.0, 0.0, 0.0, 0.0, 0.0]}, "parameters/out_att.lin_l.weight": {"_type": "histogram", "values": [1.0, 0.0, 0.0, 1.0, 1.0, 0.0, 0.0, 0.0, 0.0, 0.0, 2.0, 3.0, 0.0, 2.0, 0.0, 1.0, 0.0, 0.0, 0.0, 0.0, 0.0, 3.0, 1.0, 1.0, 1.0, 1.0, 0.0, 1.0, 0.0, 0.0, 1.0, 1.0, 0.0, 1.0, 1.0, 1.0, 0.0, 0.0, 0.0, 0.0, 0.0, 0.0, 0.0, 2.0, 1.0, 2.0, 1.0, 0.0, 1.0, 1.0, 0.0, 0.0, 1.0, 1.0, 0.0, 1.0, 2.0, 0.0, 0.0, 1.0, 0.0, 0.0, 1.0, 1.0], "bins": [-0.3815075159072876, -0.37024056911468506, -0.3589736521244049, -0.34770670533180237, -0.3364397883415222, -0.3251728415489197, -0.31390589475631714, -0.302638977766037, -0.29137203097343445, -0.2801050841808319, -0.26883816719055176, -0.2575712203979492, -0.24630428850650787, -0.23503735661506653, -0.22377042472362518, -0.21250349283218384, -0.2012365609407425, -0.18996962904930115, -0.1787026971578598, -0.16743576526641846, -0.15616881847381592, -0.14490188658237457, -0.13363495469093323, -0.12236801534891129, -0.11110108345746994, -0.0998341515660286, -0.08856721222400665, -0.07730028033256531, -0.06603334844112396, -0.05476640909910202, -0.043499477207660675, -0.03223253786563873, -0.020965605974197388, -0.009698671288788319, 0.0015682633966207504, 0.012835197150707245, 0.02410213276743889, 0.03536906838417053, 0.04663600027561188, 0.05790293961763382, 0.06916987150907516, 0.08043680340051651, 0.09170374274253845, 0.1029706746339798, 0.11423760652542114, 0.12550455331802368, 0.13677147030830383, 0.14803841710090637, 0.15930534899234772, 0.17057228088378906, 0.1818392127752304, 0.19310614466667175, 0.2043730914592743, 0.21564002335071564, 0.22690695524215698, 0.23817390203475952, 0.24944081902503967, 0.2607077658176422, 0.27197468280792236, 0.2832416296005249, 0.29450854659080505, 0.3057754933834076, 0.31704241037368774, 0.3283093571662903, 0.3395763039588928]}, "_runtime": 14, "_timestamp": 1638803347, "_step": 0, "_wandb": {"runtime": 12}}