{"parameters/attention_0.att_l": {"_type": "histogram", "values": [1.0, 0.0, 0.0, 0.0, 0.0, 0.0, 0.0, 0.0, 0.0, 0.0, 0.0, 0.0, 1.0, 1.0, 1.0, 0.0, 2.0, 1.0, 0.0, 0.0, 1.0, 1.0, 2.0, 0.0, 1.0, 0.0, 0.0, 1.0, 1.0, 0.0, 1.0, 0.0, 0.0, 3.0, 0.0, 2.0, 4.0, 1.0, 0.0, 1.0, 0.0, 2.0, 1.0, 2.0, 1.0, 1.0, 1.0, 0.0, 0.0, 1.0, 0.0, 1.0, 0.0, 2.0, 0.0, 0.0, 0.0, 0.0, 1.0, 0.0, 0.0, 0.0, 0.0, 1.0], "bins": [-1.0696439743041992, -1.040166974067688, -1.0106899738311768, -0.9812129735946655, -0.9517359733581543, -0.9222589731216431, -0.8927819728851318, -0.8633050322532654, -0.8338280320167542, -0.8043510317802429, -0.7748740315437317, -0.7453970313072205, -0.7159200310707092, -0.6864430904388428, -0.6569660902023315, -0.6274890899658203, -0.5980120897293091, -0.5685350894927979, -0.5390580892562866, -0.5095810890197754, -0.48010411858558655, -0.4506271183490753, -0.4211501181125641, -0.39167314767837524, -0.36219608783721924, -0.332719087600708, -0.3032420873641968, -0.27376508712768555, -0.2442881166934967, -0.21481111645698547, -0.18533411622047424, -0.1558571308851242, -0.12638014554977417, -0.09690315276384354, -0.0674261599779129, -0.03794915974140167, -0.008472166955471039, 0.021004825830459595, 0.050481826066970825, 0.07995881140232086, 0.10943581163883209, 0.13891281187534332, 0.16838979721069336, 0.1978667974472046, 0.22734379768371582, 0.25682079792022705, 0.2862977981567383, 0.3157747685909271, 0.34525176882743835, 0.3747287690639496, 0.4042057693004608, 0.43368273973464966, 0.4631597399711609, 0.4926367402076721, 0.5221137404441833, 0.5515907406806946, 0.5810677409172058, 0.610544741153717, 0.6400217413902283, 0.6694987416267395, 0.6989757418632507, 0.7284526824951172, 0.7579296827316284, 0.7874066829681396, 0.8168836832046509]}, "parameters/attention_0.att_r": {"_type": "histogram", "values": [1.0, 0.0, 0.0, 0.0, 0.0, 0.0, 1.0, 0.0, 1.0, 0.0, 0.0, 0.0, 1.0, 1.0, 2.0, 1.0, 1.0, 1.0, 0.0, 1.0, 0.0, 0.0, 1.0, 0.0, 0.0, 0.0, 0.0, 1.0, 3.0, 0.0, 2.0, 1.0, 1.0, 0.0, 3.0, 1.0, 1.0, 1.0, 0.0, 2.0, 1.0, 0.0, 0.0, 0.0, 0.0, 0.0, 0.0, 2.0, 2.0, 2.0, 1.0, 0.0, 1.0, 0.0, 0.0, 0.0, 0.0, 1.0, 0.0, 0.0, 0.0, 0.0, 1.0, 1.0], "bins": [-0.8266322016716003, -0.8010748028755188, -0.7755173444747925, -0.7499599456787109, -0.7244025468826294, -0.6988451480865479, -0.6732876896858215, -0.64773029088974, -0.6221728324890137, -0.5966154336929321, -0.5710579752922058, -0.5455005764961243, -0.5199431777000427, -0.4943857491016388, -0.46882832050323486, -0.4432709217071533, -0.4177135229110718, -0.39215609431266785, -0.3665986955165863, -0.3410412669181824, -0.31548386812210083, -0.2899264395236969, -0.26436901092529297, -0.23881159722805023, -0.2132541835308075, -0.18769676983356476, -0.16213935613632202, -0.1365819275379181, -0.11102451384067535, -0.08546710014343262, -0.059909671545028687, -0.03435225784778595, -0.008794903755187988, 0.016762513667345047, 0.04231993108987808, 0.06787735223770142, 0.09343476593494415, 0.11899217963218689, 0.14454960823059082, 0.17010702192783356, 0.1956644356250763, 0.22122184932231903, 0.24677926301956177, 0.2723366916179657, 0.29789412021636963, 0.32345151901245117, 0.3490089476108551, 0.37456637620925903, 0.4001237750053406, 0.4256812036037445, 0.45123860239982605, 0.47679603099823, 0.5023534297943115, 0.5279108285903931, 0.5534682869911194, 0.5790256857872009, 0.6045831441879272, 0.6301405429840088, 0.6556980013847351, 0.6812554001808167, 0.7068127989768982, 0.7323702573776245, 0.757927656173706, 0.7834850549697876, 0.8090424537658691]}, "parameters/attention_0.bias": {"_type": "histogram", "values": [1.0, 0.0, 0.0, 0.0, 0.0, 0.0, 0.0, 0.0, 0.0, 0.0, 0.0, 0.0, 0.0, 0.0, 0.0, 0.0, 0.0, 0.0, 0.0, 0.0, 1.0, 0.0, 1.0, 0.0, 0.0, 3.0, 2.0, 3.0, 1.0, 2.0, 0.0, 2.0, 1.0, 1.0, 3.0, 0.0, 2.0, 2.0, 1.0, 1.0, 1.0, 0.0, 0.0, 0.0, 1.0, 0.0, 0.0, 0.0, 1.0, 1.0, 0.0, 1.0, 1.0, 1.0, 1.0, 0.0, 0.0, 0.0, 0.0, 0.0, 2.0, 2.0, 0.0, 1.0], "bins": [-0.3740290701389313, -0.3636344075202942, -0.3532397449016571, -0.3428451120853424, -0.3324504494667053, -0.32205578684806824, -0.31166112422943115, -0.30126646161079407, -0.290871798992157, -0.2804771363735199, -0.2700824737548828, -0.2596878409385681, -0.24929317831993103, -0.23889851570129395, -0.22850385308265686, -0.21810919046401978, -0.20771455764770508, -0.197319895029068, -0.1869252473115921, -0.17653058469295502, -0.16613593697547913, -0.15574127435684204, -0.14534661173820496, -0.13495194911956787, -0.12455730140209198, -0.11416264623403549, -0.103767991065979, -0.09337332844734192, -0.08297867327928543, -0.07258401811122894, -0.062189359217882156, -0.05179470032453537, -0.04140004515647888, -0.031005388125777245, -0.020610731095075607, -0.01021607406437397, 0.00017858296632766724, 0.010573238134384155, 0.020967897027730942, 0.03136255592107773, 0.041757211089134216, 0.052151866257190704, 0.06254652142524719, 0.07294118404388428, 0.08333583921194077, 0.09373049437999725, 0.10412515699863434, 0.11451981216669083, 0.12491446733474731, 0.1353091299533844, 0.1457037776708603, 0.15609844028949738, 0.16649308800697327, 0.17688775062561035, 0.18728241324424744, 0.19767707586288452, 0.2080717235803604, 0.2184663861989975, 0.2288610339164734, 0.23925569653511047, 0.24965035915374756, 0.26004499197006226, 0.27043965458869934, 0.2808343172073364, 0.2912289798259735]}, "parameters/attention_0.lin_l.weight": {"_type": "histogram", "values": [1.0, 0.0, 0.0, 0.0, 0.0, 0.0, 1.0, 1.0, 0.0, 0.0, 1.0, 1.0, 2.0, 3.0, 0.0, 1.0, 2.0, 3.0, 4.0, 1.0, 1.0, 7.0, 6.0, 8.0, 10.0, 9.0, 15.0, 13.0, 18.0, 18.0, 27.0, 22.0, 26.0, 22.0, 36.0, 19.0, 21.0, 25.0, 17.0, 21.0, 22.0, 12.0, 15.0, 15.0, 13.0, 12.0, 11.0, 8.0, 2.0, 1.0, 4.0, 1.0, 0.0, 0.0, 0.0, 0.0, 1.0, 0.0, 0.0, 0.0, 0.0, 0.0, 0.0, 1.0], "bins": [-1.0280760526657104, -0.9995527863502502, -0.97102952003479, -0.9425062537193298, -0.9139829874038696, -0.8854597210884094, -0.8569364547729492, -0.828413188457489, -0.7998899221420288, -0.7713666558265686, -0.7428433895111084, -0.7143201231956482, -0.685796856880188, -0.6572735905647278, -0.6287503242492676, -0.6002270579338074, -0.5717037916183472, -0.543180525302887, -0.5146572589874268, -0.48613399267196655, -0.45761072635650635, -0.42908746004104614, -0.40056419372558594, -0.37204092741012573, -0.3435176610946655, -0.3149943947792053, -0.2864711284637451, -0.2579478621482849, -0.2294245958328247, -0.2009013295173645, -0.1723780632019043, -0.1438547968864441, -0.11533147096633911, -0.0868082046508789, -0.0582849383354187, -0.029761672019958496, -0.001238405704498291, 0.027284860610961914, 0.05580812692642212, 0.08433139324188232, 0.11285465955734253, 0.14137792587280273, 0.16990119218826294, 0.19842445850372314, 0.22694772481918335, 0.25547099113464355, 0.28399425745010376, 0.31251752376556396, 0.34104079008102417, 0.3695640563964844, 0.3980873227119446, 0.4266105890274048, 0.455133855342865, 0.4836571216583252, 0.5121803879737854, 0.5407036542892456, 0.5692269206047058, 0.597750186920166, 0.6262734532356262, 0.6547967195510864, 0.6833199858665466, 0.7118432521820068, 0.740366518497467, 0.7688897848129272, 0.7974130511283875]}, "parameters/attention_1.att_l": {"_type": "histogram", "values": [1.0, 0.0, 0.0, 0.0, 0.0, 2.0, 0.0, 2.0, 2.0, 0.0, 0.0, 0.0, 1.0, 0.0, 1.0, 0.0, 0.0, 0.0, 0.0, 1.0, 3.0, 1.0, 2.0, 0.0, 0.0, 1.0, 0.0, 0.0, 1.0, 1.0, 1.0, 2.0, 0.0, 0.0, 1.0, 0.0, 0.0, 0.0, 1.0, 0.0, 0.0, 0.0, 1.0, 0.0, 1.0, 1.0, 0.0, 0.0, 1.0, 1.0, 0.0, 1.0, 2.0, 1.0, 2.0, 1.0, 0.0, 0.0, 1.0, 0.0, 0.0, 1.0, 1.0, 1.0], "bins": [-0.6878995895385742, -0.6645093560218811, -0.641119122505188, -0.6177289485931396, -0.5943387150764465, -0.5709484815597534, -0.5475582480430603, -0.5241680145263672, -0.5007778406143188, -0.47738760709762573, -0.453997403383255, -0.4306071698665619, -0.40721696615219116, -0.38382673263549805, -0.36043649911880493, -0.3370462954044342, -0.3136560618877411, -0.290265828371048, -0.26687562465667725, -0.24348539113998413, -0.2200951874256134, -0.1967049539089203, -0.17331473529338837, -0.14992451667785645, -0.12653429806232452, -0.1031440794467926, -0.07975386083126068, -0.05636363476514816, -0.03297341614961624, -0.00958319753408432, 0.013807028532028198, 0.03719724714756012, 0.06058746576309204, 0.08397768437862396, 0.10736790299415588, 0.130758136510849, 0.15414834022521973, 0.17753857374191284, 0.20092879235744476, 0.22431901097297668, 0.2477092295885086, 0.2710994482040405, 0.29448968172073364, 0.31787988543510437, 0.3412701189517975, 0.3646603226661682, 0.38805055618286133, 0.41144078969955444, 0.43483099341392517, 0.4582212269306183, 0.481611430644989, 0.5050016641616821, 0.5283918976783752, 0.5517820715904236, 0.5751723051071167, 0.5985625386238098, 0.6219527721405029, 0.645343005657196, 0.6687332391738892, 0.6921234130859375, 0.7155136466026306, 0.7389038801193237, 0.7622941136360168, 0.78568434715271, 0.8090745210647583]}, "parameters/attention_1.att_r": {"_type": "histogram", "values": [2.0, 1.0, 1.0, 1.0, 0.0, 1.0, 2.0, 1.0, 0.0, 2.0, 0.0, 1.0, 1.0, 0.0, 1.0, 0.0, 1.0, 1.0, 1.0, 0.0, 0.0, 0.0, 2.0, 1.0, 1.0, 0.0, 0.0, 1.0, 0.0, 0.0, 0.0, 0.0, 1.0, 0.0, 0.0, 0.0, 2.0, 0.0, 0.0, 0.0, 3.0, 0.0, 1.0, 1.0, 1.0, 2.0, 1.0, 0.0, 1.0, 1.0, 0.0, 0.0, 1.0, 0.0, 0.0, 0.0, 0.0, 0.0, 1.0, 1.0, 0.0, 0.0, 0.0, 1.0], "bins": [-0.5053563117980957, -0.4837641716003418, -0.4621720314025879, -0.440579891204834, -0.4189877510070801, -0.39739561080932617, -0.37580347061157227, -0.35421133041381836, -0.33261919021606445, -0.31102705001831055, -0.28943490982055664, -0.26784276962280273, -0.24625062942504883, -0.22465848922729492, -0.20306634902954102, -0.1814742088317871, -0.1598820686340332, -0.1382899284362793, -0.11669778823852539, -0.09510564804077148, -0.07351350784301758, -0.05192136764526367, -0.030329227447509766, -0.00873708724975586, 0.012855052947998047, 0.03444719314575195, 0.05603933334350586, 0.07763147354125977, 0.09922361373901367, 0.12081575393676758, 0.14240789413452148, 0.1640000343322754, 0.18559211492538452, 0.20718425512313843, 0.22877639532089233, 0.25036853551864624, 0.27196067571640015, 0.29355281591415405, 0.31514495611190796, 0.33673709630966187, 0.35832923650741577, 0.3799213767051697, 0.4015135169029236, 0.4231056571006775, 0.4446977972984314, 0.4662899374961853, 0.4878820776939392, 0.5094742178916931, 0.531066358089447, 0.5526584982872009, 0.5742506384849548, 0.5958427786827087, 0.6174349188804626, 0.6390270590782166, 0.6606191992759705, 0.6822113394737244, 0.7038034796714783, 0.7253956198692322, 0.7469877600669861, 0.76857990026474, 0.7901720404624939, 0.8117641806602478, 0.8333563208580017, 0.8549484610557556, 0.8765406012535095]}, "parameters/attention_1.bias": {"_type": "histogram", "values": [1.0, 0.0, 0.0, 0.0, 0.0, 0.0, 0.0, 0.0, 0.0, 3.0, 0.0, 1.0, 1.0, 0.0, 0.0, 0.0, 0.0, 1.0, 1.0, 1.0, 0.0, 2.0, 1.0, 1.0, 0.0, 2.0, 0.0, 0.0, 0.0, 1.0, 0.0, 0.0, 2.0, 2.0, 1.0, 2.0, 0.0, 1.0, 1.0, 1.0, 1.0, 0.0, 2.0, 1.0, 1.0, 0.0, 0.0, 3.0, 0.0, 0.0, 1.0, 1.0, 1.0, 0.0, 0.0, 0.0, 0.0, 0.0, 1.0, 1.0, 0.0, 0.0, 0.0, 1.0], "bins": [-0.36822158098220825, -0.3557944595813751, -0.3433673679828644, -0.33094024658203125, -0.3185131549835205, -0.3060860335826874, -0.29365891218185425, -0.2812318205833435, -0.2688046991825104, -0.25637757778167725, -0.2439504861831665, -0.23152336478233337, -0.21909625828266144, -0.2066691517829895, -0.19424203038215637, -0.18181492388248444, -0.1693878173828125, -0.15696071088314056, -0.14453360438346863, -0.1321064829826355, -0.11967937648296356, -0.10725226998329163, -0.09482515603303909, -0.08239804208278656, -0.06997093558311462, -0.05754382535815239, -0.045116715133190155, -0.03268960490822792, -0.020262494683265686, -0.007835384458303452, 0.004591725766658783, 0.017018839716911316, 0.02944597601890564, 0.041873086243867874, 0.05430019646883011, 0.06672731041908264, 0.07915441691875458, 0.09158152341842651, 0.10400863736867905, 0.11643575131893158, 0.12886285781860352, 0.14128996431827545, 0.1537170708179474, 0.16614419221878052, 0.17857129871845245, 0.1909984052181244, 0.20342552661895752, 0.21585263311862946, 0.2282797396183014, 0.24070684611797333, 0.25313395261764526, 0.2655610740184784, 0.2779881954193115, 0.29041528701782227, 0.3028424084186554, 0.3152695298194885, 0.32769662141799927, 0.3401237428188324, 0.35255083441734314, 0.36497795581817627, 0.377405047416687, 0.38983216881752014, 0.40225929021835327, 0.414686381816864, 0.42711350321769714]}, "parameters/attention_1.lin_l.weight": {"_type": "histogram", "values": [1.0, 0.0, 2.0, 3.0, 4.0, 8.0, 7.0, 7.0, 10.0, 6.0, 6.0, 15.0, 21.0, 18.0, 32.0, 19.0, 21.0, 26.0, 37.0, 21.0, 38.0, 40.0, 44.0, 38.0, 47.0, 51.0, 44.0, 54.0, 48.0, 51.0, 39.0, 57.0, 34.0, 53.0, 39.0, 36.0, 59.0, 53.0, 50.0, 42.0, 43.0, 38.0, 30.0, 20.0, 34.0, 40.0, 26.0, 24.0, 28.0, 16.0, 15.0, 11.0, 12.0, 13.0, 14.0, 14.0, 6.0, 7.0, 4.0, 6.0, 11.0, 3.0, 2.0, 2.0], "bins": [-0.8183498978614807, -0.7940202951431274, -0.7696906924247742, -0.7453610897064209, -0.7210314273834229, -0.6967018246650696, -0.6723722219467163, -0.648042619228363, -0.6237130165100098, -0.5993834137916565, -0.5750538110733032, -0.55072420835495, -0.5263946056365967, -0.5020649433135986, -0.47773534059524536, -0.4534057378768921, -0.4290761351585388, -0.40474653244018555, -0.3804169297218323, -0.3560872972011566, -0.33175769448280334, -0.3074280917644501, -0.2830984592437744, -0.25876885652542114, -0.23443925380706787, -0.2101096510887146, -0.18578003346920013, -0.16145041584968567, -0.1371208131313324, -0.11279120296239853, -0.08846159279346466, -0.0641319751739502, -0.03980231285095215, -0.01547270268201828, 0.008856907486915588, 0.03318651765584946, 0.057516127824783325, 0.0818457379937172, 0.10617534816265106, 0.13050496578216553, 0.1548345685005188, 0.17916417121887207, 0.20349378883838654, 0.227823406457901, 0.2521530091762543, 0.27648261189460754, 0.3008122444152832, 0.3251418471336365, 0.34947144985198975, 0.373801052570343, 0.3981306552886963, 0.42246028780937195, 0.4467898905277252, 0.4711194932460785, 0.49544912576675415, 0.5197787284851074, 0.5441083312034607, 0.568437933921814, 0.5927675366401672, 0.6170971393585205, 0.6414268016815186, 0.6657564043998718, 0.6900860071182251, 0.7144156098365784, 0.7387452125549316]}, "parameters/attention_2.att_l": {"_type": "histogram", "values": [1.0, 2.0, 1.0, 0.0, 0.0, 0.0, 0.0, 0.0, 2.0, 0.0, 1.0, 1.0, 2.0, 1.0, 2.0, 0.0, 1.0, 0.0, 0.0, 0.0, 0.0, 1.0, 0.0, 1.0, 5.0, 1.0, 0.0, 0.0, 0.0, 3.0, 1.0, 0.0, 1.0, 2.0, 0.0, 2.0, 0.0, 0.0, 0.0, 0.0, 0.0, 2.0, 0.0, 1.0, 1.0, 0.0, 0.0, 0.0, 1.0, 0.0, 1.0, 1.0, 0.0, 0.0, 0.0, 0.0, 0.0, 0.0, 0.0, 1.0, 0.0, 0.0, 0.0, 1.0], "bins": [-0.7944937944412231, -0.7656205296516418, -0.7367472052574158, -0.7078739404678345, -0.6790006160736084, -0.6501273512840271, -0.621254026889801, -0.5923807621002197, -0.5635074377059937, -0.5346341729164124, -0.5057608485221863, -0.4768875539302826, -0.4480142593383789, -0.4191409945487976, -0.39026767015457153, -0.36139440536499023, -0.33252111077308655, -0.30364781618118286, -0.2747745215892792, -0.2459012269973755, -0.2170279324054718, -0.1881546527147293, -0.15928135812282562, -0.13040806353092194, -0.10153476893901825, -0.07266147434711456, -0.043788183480501175, -0.014914892613887787, 0.0139584019780159, 0.04283168911933899, 0.07170498371124268, 0.10057827830314636, 0.12945157289505005, 0.15832486748695374, 0.18719816207885742, 0.2160714566707611, 0.2449447512626648, 0.2738180160522461, 0.30269134044647217, 0.33156460523605347, 0.36043792963027954, 0.3893112242221832, 0.4181845188140869, 0.4470578134059906, 0.4759311079978943, 0.5048043727874756, 0.5336776971817017, 0.562550961971283, 0.5914242267608643, 0.6202974915504456, 0.6491708159446716, 0.6780440807342529, 0.706917405128479, 0.7357906699180603, 0.7646639943122864, 0.7935372591018677, 0.8224105834960938, 0.851283848285675, 0.8801571726799011, 0.9090304374694824, 0.9379037618637085, 0.9667770266532898, 0.9956503510475159, 1.0245236158370972, 1.0533969402313232]}, "parameters/attention_2.att_r": {"_type": "histogram", "values": [1.0, 0.0, 0.0, 1.0, 0.0, 1.0, 2.0, 1.0, 0.0, 0.0, 2.0, 0.0, 0.0, 2.0, 0.0, 1.0, 2.0, 0.0, 2.0, 1.0, 0.0, 1.0, 0.0, 2.0, 0.0, 2.0, 0.0, 0.0, 0.0, 1.0, 0.0, 0.0, 1.0, 0.0, 3.0, 1.0, 0.0, 0.0, 3.0, 2.0, 0.0, 1.0, 2.0, 0.0, 1.0, 1.0, 0.0, 0.0, 1.0, 0.0, 0.0, 0.0, 0.0, 0.0, 1.0, 0.0, 0.0, 0.0, 0.0, 0.0, 0.0, 0.0, 0.0, 1.0], "bins": [-0.9329700469970703, -0.9022282958030701, -0.8714865446090698, -0.8407447934150696, -0.8100030422210693, -0.7792613506317139, -0.7485195994377136, -0.7177778482437134, -0.6870360970497131, -0.6562943458557129, -0.6255525946617126, -0.5948108434677124, -0.5640691518783569, -0.5333273410797119, -0.5025856494903564, -0.4718438982963562, -0.44110214710235596, -0.4103603959083557, -0.37961864471435547, -0.3488769233226776, -0.31813517212867737, -0.2873934209346771, -0.25665169954299927, -0.22590994834899902, -0.19516819715499878, -0.16442644596099854, -0.13368470966815948, -0.10294296592473984, -0.07220122218132019, -0.041459470987319946, -0.010717734694480896, 0.020024001598358154, 0.0507657527923584, 0.08150749653577805, 0.11224924027919769, 0.14299097657203674, 0.173732727766037, 0.20447447896003723, 0.23521621525287628, 0.26595795154571533, 0.2966997027397156, 0.3274414539337158, 0.35818320512771606, 0.3889249265193939, 0.41966667771339417, 0.4504084289073944, 0.48115015029907227, 0.5118919014930725, 0.5426336526870728, 0.573375403881073, 0.6041171550750732, 0.6348589062690735, 0.6656006574630737, 0.6963423490524292, 0.7270841002464294, 0.7578258514404297, 0.7885676026344299, 0.8193093538284302, 0.8500511050224304, 0.8807928562164307, 0.9115345478057861, 0.9422763586044312, 0.9730180501937866, 1.0037598609924316, 1.034501552581787]}, "parameters/attention_2.bias": {"_type": "histogram", "values": [1.0, 0.0, 0.0, 0.0, 0.0, 0.0, 1.0, 0.0, 0.0, 0.0, 0.0, 0.0, 0.0, 1.0, 0.0, 3.0, 1.0, 0.0, 0.0, 1.0, 1.0, 0.0, 0.0, 1.0, 2.0, 0.0, 2.0, 1.0, 1.0, 1.0, 1.0, 0.0, 0.0, 0.0, 0.0, 0.0, 0.0, 0.0, 1.0, 1.0, 0.0, 1.0, 1.0, 4.0, 0.0, 2.0, 0.0, 2.0, 1.0, 1.0, 2.0, 1.0, 0.0, 0.0, 0.0, 0.0, 2.0, 1.0, 1.0, 0.0, 0.0, 0.0, 0.0, 1.0], "bins": [-0.4437423348426819, -0.4302404820919037, -0.4167386293411255, -0.4032367765903473, -0.3897349238395691, -0.3762330412864685, -0.3627311885356903, -0.3492293357849121, -0.3357274830341339, -0.3222256302833557, -0.3087237775325775, -0.2952219247817993, -0.28172004222869873, -0.2682182192802429, -0.25471633672714233, -0.24121448397636414, -0.22771263122558594, -0.21421077847480774, -0.20070892572402954, -0.18720705807209015, -0.17370520532131195, -0.16020335257053375, -0.14670148491859436, -0.13319963216781616, -0.11969777941703796, -0.10619592666625977, -0.09269406646490097, -0.07919220626354218, -0.06569035351276398, -0.05218850076198578, -0.038686640560626984, -0.02518478035926819, -0.01168292760848999, 0.0018189288675785065, 0.015320785343647003, 0.0288226418197155, 0.042324498295784, 0.055826351046562195, 0.06932821124792099, 0.08283007144927979, 0.09633192420005798, 0.10983377695083618, 0.12333563715219498, 0.13683749735355377, 0.15033935010433197, 0.16384120285511017, 0.17734307050704956, 0.19084492325782776, 0.20434677600860596, 0.21784862875938416, 0.23135048151016235, 0.24485234916210175, 0.25835418701171875, 0.27185606956481934, 0.28535792231559753, 0.29885977506637573, 0.31236162781715393, 0.32586348056793213, 0.3393653333187103, 0.3528671860694885, 0.3663690686225891, 0.3798708915710449, 0.3933727741241455, 0.4068746268749237, 0.4203764796257019]}, "parameters/attention_2.lin_l.weight": {"_type": "histogram", "values": [2.0, 1.0, 2.0, 6.0, 5.0, 4.0, 10.0, 10.0, 15.0, 18.0, 26.0, 16.0, 21.0, 29.0, 32.0, 38.0, 32.0, 43.0, 46.0, 39.0, 49.0, 29.0, 33.0, 46.0, 38.0, 49.0, 39.0, 44.0, 35.0, 40.0, 40.0, 36.0, 34.0, 37.0, 36.0, 36.0, 41.0, 40.0, 42.0, 43.0, 40.0, 40.0, 34.0, 36.0, 38.0, 23.0, 32.0, 31.0, 23.0, 22.0, 22.0, 16.0, 20.0, 14.0, 3.0, 13.0, 3.0, 5.0, 1.0, 0.0, 0.0, 0.0, 1.0, 1.0], "bins": [-0.8128324747085571, -0.7866806387901306, -0.7605288028717041, -0.7343769669532776, -0.7082251310348511, -0.6820732951164246, -0.655921459197998, -0.6297696828842163, -0.603617787361145, -0.5774659514427185, -0.551314115524292, -0.5251622796058655, -0.49901044368743896, -0.47285860776901245, -0.4467068016529083, -0.4205549657344818, -0.3944031596183777, -0.36825132369995117, -0.34209948778152466, -0.31594765186309814, -0.28979581594467163, -0.2636439800262451, -0.237492173910141, -0.21134033799171448, -0.18518850207328796, -0.15903666615486145, -0.13288483023643494, -0.10673300921916962, -0.0805811733007431, -0.05442933738231659, -0.02827751636505127, -0.002125680446624756, 0.024026215076446533, 0.05017804726958275, 0.07632987946271896, 0.10248170793056488, 0.1286335438489914, 0.1547853797674179, 0.18093720078468323, 0.20708903670310974, 0.23324087262153625, 0.25939270853996277, 0.2855445444583893, 0.3116963505744934, 0.3378481864929199, 0.36400002241134644, 0.39015185832977295, 0.41630369424819946, 0.442455530166626, 0.4686073660850525, 0.494759202003479, 0.5209110379219055, 0.547062873840332, 0.5732147097587585, 0.5993665456771851, 0.6255183219909668, 0.6516702175140381, 0.6778220534324646, 0.7039738893508911, 0.7301257252693176, 0.7562775611877441, 0.7824293971061707, 0.8085812330245972, 0.8347330093383789, 0.8608848452568054]}, "parameters/out_att.att_l": {"_type": "histogram", "values": [0.0, 0.0, 0.0, 0.0, 0.0, 0.0, 0.0, 0.0, 0.0, 0.0, 0.0, 0.0, 0.0, 0.0, 0.0, 0.0, 0.0, 0.0, 0.0, 0.0, 0.0, 0.0, 0.0, 0.0, 0.0, 0.0, 0.0, 0.0, 0.0, 0.0, 0.0, 0.0, 1.0, 0.0, 0.0, 0.0, 0.0, 0.0, 0.0, 0.0, 0.0, 0.0, 0.0, 0.0, 0.0, 0.0, 0.0, 0.0, 0.0, 0.0, 0.0, 0.0, 0.0, 0.0, 0.0, 0.0, 0.0, 0.0, 0.0, 0.0, 0.0, 0.0, 0.0, 0.0], "bins": [1.864886999130249, 1.864886999130249, 1.864886999130249, 1.864886999130249, 1.864886999130249, 1.864886999130249, 1.864886999130249, 1.864886999130249, 1.864886999130249, 1.864886999130249, 1.864886999130249, 1.864886999130249, 1.864886999130249, 1.864886999130249, 1.864886999130249, 1.864886999130249, 1.864886999130249, 1.864886999130249, 1.864886999130249, 1.864886999130249, 1.864886999130249, 1.864886999130249, 1.864886999130249, 1.864886999130249, 1.864886999130249, 1.864886999130249, 1.864886999130249, 1.864886999130249, 1.864886999130249, 1.864886999130249, 1.864886999130249, 1.864886999130249, 1.864886999130249, 1.864886999130249, 1.864886999130249, 1.864886999130249, 1.864886999130249, 1.864886999130249, 1.864886999130249, 1.864886999130249, 1.864886999130249, 1.864886999130249, 1.864886999130249, 1.864886999130249, 1.864886999130249, 1.864886999130249, 1.864886999130249, 1.864886999130249, 1.864886999130249, 1.864886999130249, 1.864886999130249, 1.864886999130249, 1.864886999130249, 1.864886999130249, 1.864886999130249, 1.864886999130249, 1.864886999130249, 1.864886999130249, 1.864886999130249, 1.864886999130249, 1.864886999130249, 1.864886999130249, 1.864886999130249, 1.864886999130249, 1.864886999130249]}, "parameters/out_att.att_r": {"_type": "histogram", "values": [0.0, 0.0, 0.0, 0.0, 0.0, 0.0, 0.0, 0.0, 0.0, 0.0, 0.0, 0.0, 0.0, 0.0, 0.0, 0.0, 0.0, 0.0, 0.0, 0.0, 0.0, 0.0, 0.0, 0.0, 0.0, 0.0, 0.0, 0.0, 0.0, 0.0, 0.0, 0.0, 1.0, 0.0, 0.0, 0.0, 0.0, 0.0, 0.0, 0.0, 0.0, 0.0, 0.0, 0.0, 0.0, 0.0, 0.0, 0.0, 0.0, 0.0, 0.0, 0.0, 0.0, 0.0, 0.0, 0.0, 0.0, 0.0, 0.0, 0.0, 0.0, 0.0, 0.0, 0.0], "bins": [0.787993848323822, 0.787993848323822, 0.787993848323822, 0.787993848323822, 0.787993848323822, 0.787993848323822, 0.787993848323822, 0.787993848323822, 0.787993848323822, 0.787993848323822, 0.787993848323822, 0.787993848323822, 0.787993848323822, 0.787993848323822, 0.787993848323822, 0.787993848323822, 0.787993848323822, 0.787993848323822, 0.787993848323822, 0.787993848323822, 0.787993848323822, 0.787993848323822, 0.787993848323822, 0.787993848323822, 0.787993848323822, 0.787993848323822, 0.787993848323822, 0.787993848323822, 0.787993848323822, 0.787993848323822, 0.787993848323822, 0.787993848323822, 0.787993848323822, 0.787993848323822, 0.787993848323822, 0.787993848323822, 0.787993848323822, 0.787993848323822, 0.787993848323822, 0.787993848323822, 0.787993848323822, 0.787993848323822, 0.787993848323822, 0.787993848323822, 0.787993848323822, 0.787993848323822, 0.787993848323822, 0.787993848323822, 0.787993848323822, 0.787993848323822, 0.787993848323822, 0.787993848323822, 0.787993848323822, 0.787993848323822, 0.787993848323822, 0.787993848323822, 0.787993848323822, 0.787993848323822, 0.787993848323822, 0.787993848323822, 0.787993848323822, 0.787993848323822, 0.787993848323822, 0.787993848323822, 0.787993848323822]}, "parameters/out_att.bias": {"_type": "histogram", "values": [0.0, 0.0, 0.0, 0.0, 0.0, 0.0, 0.0, 0.0, 0.0, 0.0, 0.0, 0.0, 0.0, 0.0, 0.0, 0.0, 0.0, 0.0, 0.0, 0.0, 0.0, 0.0, 0.0, 0.0, 0.0, 0.0, 0.0, 0.0, 0.0, 0.0, 0.0, 0.0, 1.0, 0.0, 0.0, 0.0, 0.0, 0.0, 0.0, 0.0, 0.0, 0.0, 0.0, 0.0, 0.0, 0.0, 0.0, 0.0, 0.0, 0.0, 0.0, 0.0, 0.0, 0.0, 0.0, 0.0, 0.0, 0.0, 0.0, 0.0, 0.0, 0.0, 0.0, 0.0], "bins": [-2.11276912689209, -2.11276912689209, -2.11276912689209, -2.11276912689209, -2.11276912689209, -2.11276912689209, -2.11276912689209, -2.11276912689209, -2.11276912689209, -2.11276912689209, -2.11276912689209, -2.11276912689209, -2.11276912689209, -2.11276912689209, -2.11276912689209, -2.11276912689209, -2.11276912689209, -2.11276912689209, -2.11276912689209, -2.11276912689209, -2.11276912689209, -2.11276912689209, -2.11276912689209, -2.11276912689209, -2.11276912689209, -2.11276912689209, -2.11276912689209, -2.11276912689209, -2.11276912689209, -2.11276912689209, -2.11276912689209, -2.11276912689209, -2.11276912689209, -2.11276912689209, -2.11276912689209, -2.11276912689209, -2.11276912689209, -2.11276912689209, -2.11276912689209, -2.11276912689209, -2.11276912689209, -2.11276912689209, -2.11276912689209, -2.11276912689209, -2.11276912689209, -2.11276912689209, -2.11276912689209, -2.11276912689209, -2.11276912689209, -2.11276912689209, -2.11276912689209, -2.11276912689209, -2.11276912689209, -2.11276912689209, -2.11276912689209, -2.11276912689209, -2.11276912689209, -2.11276912689209, -2.11276912689209, -2.11276912689209, -2.11276912689209, -2.11276912689209, -2.11276912689209, -2.11276912689209, -2.11276912689209]}, "parameters/out_att.lin_l.weight": {"_type": "histogram", "values": [1.0, 1.0, 0.0, 0.0, 1.0, 1.0, 0.0, 0.0, 1.0, 0.0, 0.0, 2.0, 1.0, 2.0, 4.0, 0.0, 0.0, 2.0, 3.0, 2.0, 1.0, 0.0, 1.0, 1.0, 2.0, 1.0, 0.0, 2.0, 0.0, 1.0, 0.0, 2.0, 0.0, 0.0, 0.0, 0.0, 0.0, 1.0, 2.0, 0.0, 0.0, 0.0, 1.0, 0.0, 0.0, 1.0, 0.0, 1.0, 0.0, 0.0, 0.0, 1.0, 0.0, 0.0, 0.0, 0.0, 0.0, 0.0, 0.0, 0.0, 0.0, 0.0, 0.0, 1.0], "bins": [-0.1699650138616562, -0.16254523396492004, -0.1551254391670227, -0.14770564436912537, -0.14028586447238922, -0.13286608457565308, -0.12544628977775574, -0.118026502430439, -0.11060671508312225, -0.10318692773580551, -0.09576714038848877, -0.08834735304117203, -0.08092756569385529, -0.07350777834653854, -0.0660879909992218, -0.05866820365190506, -0.05124841630458832, -0.043828628957271576, -0.036408841609954834, -0.028989054262638092, -0.02156926691532135, -0.014149479568004608, -0.006729692220687866, 0.0006900951266288757, 0.008109882473945618, 0.01552966982126236, 0.0229494571685791, 0.030369244515895844, 0.037789031863212585, 0.04520881921052933, 0.05262860655784607, 0.06004839390516281, 0.06746819615364075, 0.07488798350095749, 0.08230777084827423, 0.08972755819559097, 0.09714734554290771, 0.10456713289022446, 0.1119869202375412, 0.11940670758485794, 0.12682649493217468, 0.13424628973007202, 0.14166606962680817, 0.1490858495235443, 0.15650564432144165, 0.163925439119339, 0.17134521901607513, 0.17876499891281128, 0.18618479371070862, 0.19360458850860596, 0.2010243684053421, 0.20844414830207825, 0.21586394309997559, 0.22328373789787292, 0.23070351779460907, 0.23812329769134521, 0.24554309248924255, 0.2529628872871399, 0.26038265228271484, 0.2678024470806122, 0.2752222418785095, 0.28264203667640686, 0.2900618314743042, 0.29748159646987915, 0.3049013912677765]}, "_runtime": 38672, "_timestamp": 1640260753, "_step": 200, "Learning rate value": 3.0826662668719254e-05, "Learning rate action": 3.0826662668719254e-05, "action_probs": {"_type": "histogram", "values": [1, 0, 0, 0, 0, 1, 0, 1, 1, 0, 0, 0, 1, 0, 0, 1, 0, 0, 3, 2, 0, 2, 2, 2, 2, 0, 1, 1, 0, 0, 1, 2, 0, 0, 0, 1, 0, 1, 1, 1, 1, 0, 1, 0, 0, 1, 0, 0, 1, 1, 0, 1, 0, 0, 1, 0, 1, 0, 1, 0, 0, 0, 0, 1], "bins": [0.4050500988960266, 0.40816736221313477, 0.4112846255302429, 0.4144018888473511, 0.41751915216445923, 0.4206364154815674, 0.42375367879867554, 0.4268709421157837, 0.42998820543289185, 0.4331054389476776, 0.43622270226478577, 0.4393399655818939, 0.4424572288990021, 0.44557449221611023, 0.4486917555332184, 0.45180901885032654, 0.4549262821674347, 0.45804354548454285, 0.461160808801651, 0.46427807211875916, 0.4673953354358673, 0.47051259875297546, 0.4736298620700836, 0.4767471253871918, 0.47986435890197754, 0.4829816222190857, 0.48609888553619385, 0.489216148853302, 0.49233341217041016, 0.4954506754875183, 0.49856793880462646, 0.5016852021217346, 0.5048024654388428, 0.5079197287559509, 0.5110369920730591, 0.5141542553901672, 0.5172715187072754, 0.5203887820243835, 0.5235060453414917, 0.5266233086585999, 0.529740571975708, 0.5328578352928162, 0.5359750986099243, 0.5390923619270325, 0.5422096252441406, 0.5453268885612488, 0.5484441518783569, 0.5515614151954651, 0.5546786785125732, 0.5577958822250366, 0.5609131455421448, 0.5640304088592529, 0.5671476721763611, 0.5702649354934692, 0.5733821988105774, 0.5764994621276855, 0.5796167254447937, 0.5827339887619019, 0.58585125207901, 0.5889685153961182, 0.5920857787132263, 0.5952030420303345, 0.5983203053474426, 0.6014375686645508, 0.6045548319816589]}, "stop_go_action": {"_type": "histogram", "values": [17, 0, 0, 0, 0, 0, 0, 0, 0, 0, 0, 0, 0, 0, 0, 0, 0, 0, 0, 0, 0, 0, 0, 0, 0, 0, 0, 0, 0, 0, 0, 0, 0, 0, 0, 0, 0, 0, 0, 0, 0, 0, 0, 0, 0, 0, 0, 0, 0, 0, 0, 0, 0, 0, 0, 0, 0, 0, 0, 0, 0, 0, 0, 21], "bins": [0.0, 0.015625, 0.03125, 0.046875, 0.0625, 0.078125, 0.09375, 0.109375, 0.125, 0.140625, 0.15625, 0.171875, 0.1875, 0.203125, 0.21875, 0.234375, 0.25, 0.265625, 0.28125, 0.296875, 0.3125, 0.328125, 0.34375, 0.359375, 0.375, 0.390625, 0.40625, 0.421875, 0.4375, 0.453125, 0.46875, 0.484375, 0.5, 0.515625, 0.53125, 0.546875, 0.5625, 0.578125, 0.59375, 0.609375, 0.625, 0.640625, 0.65625, 0.671875, 0.6875, 0.703125, 0.71875, 0.734375, 0.75, 0.765625, 0.78125, 0.796875, 0.8125, 0.828125, 0.84375, 0.859375, 0.875, 0.890625, 0.90625, 0.921875, 0.9375, 0.953125, 0.96875, 0.984375, 1.0]}, "node_values": {"_type": "histogram", "values": [1, 0, 0, 0, 0, 0, 0, 0, 0, 0, 4, 3, 0, 0, 0, 0, 0, 6, 0, 0, 0, 0, 0, 0, 0, 0, 0, 0, 0, 0, 0, 0, 0, 0, 0, 0, 0, 0, 0, 0, 0, 0, 0, 0, 0, 0, 0, 0, 0, 0, 0, 0, 0, 0, 0, 0, 0, 7, 5, 0, 0, 3, 3, 6], "bins": [-2.6947553157806396, -2.6939389146864414, -2.693122513592243, -2.692306112498045, -2.6914897114038467, -2.6906733103096485, -2.6898569092154503, -2.689040508121252, -2.688224107027054, -2.6874077059328556, -2.6865913048386574, -2.685774903744459, -2.684958502650261, -2.6841421015560627, -2.6833257004618645, -2.6825092993676662, -2.681692898273468, -2.68087649717927, -2.6800600960850716, -2.6792436949908733, -2.678427293896675, -2.677610892802477, -2.6767944917082787, -2.6759780906140804, -2.675161689519882, -2.674345288425684, -2.6735288873314857, -2.6727124862372875, -2.6718960851430893, -2.671079684048891, -2.670263282954693, -2.6694468818604946, -2.6686304807662964, -2.667814079672098, -2.6669976785779, -2.6661812774837017, -2.6653648763895035, -2.6645484752953053, -2.663732074201107, -2.662915673106909, -2.6620992720127106, -2.6612828709185123, -2.660466469824314, -2.659650068730116, -2.6588336676359177, -2.6580172665417194, -2.657200865447521, -2.656384464353323, -2.6555680632591248, -2.6547516621649265, -2.6539352610707283, -2.65311885997653, -2.652302458882332, -2.6514860577881336, -2.6506696566939354, -2.649853255599737, -2.649036854505539, -2.6482204534113407, -2.6474040523171425, -2.6465876512229443, -2.645771250128746, -2.644954849034548, -2.6441384479403496, -2.6433220468461514, -2.642505645751953]}, "episode_rewards": {"_type": "histogram", "values": [6, 0, 0, 0, 0, 6, 0, 0, 0, 0, 0, 0, 0, 0, 0, 0, 0, 0, 0, 0, 0, 0, 0, 0, 0, 0, 0, 0, 0, 0, 0, 0, 0, 0, 0, 0, 0, 0, 0, 0, 0, 0, 0, 0, 0, 0, 0, 0, 0, 0, 0, 0, 0, 0, 0, 0, 0, 0, 18, 0, 0, 0, 0, 1], "bins": [-23.0, -22.65625, -22.3125, -21.96875, -21.625, -21.28125, -20.9375, -20.59375, -20.25, -19.90625, -19.5625, -19.21875, -18.875, -18.53125, -18.1875, -17.84375, -17.5, -17.15625, -16.8125, -16.46875, -16.125, -15.78125, -15.4375, -15.09375, -14.75, -14.40625, -14.0625, -13.71875, -13.375, -13.03125, -12.6875, -12.34375, -12.0, -11.65625, -11.3125, -10.96875, -10.625, -10.28125, -9.9375, -9.59375, -9.25, -8.90625, -8.5625, -8.21875, -7.875, -7.53125, -7.1875, -6.84375, -6.5, -6.15625, -5.8125, -5.46875, -5.125, -4.78125, -4.4375, -4.09375, -3.75, -3.40625, -3.0625, -2.71875, -2.375, -2.03125, -1.6875, -1.34375, -1.0]}, "avg_reward": -1765.25, "done_agents": 0.05992063492063491, "deadlock_agents": 0.5198412698412699, "gradients/out_att.bias": {"_type": "histogram", "values": [0.0, 0.0, 0.0, 0.0, 0.0, 0.0, 0.0, 0.0, 0.0, 0.0, 0.0, 0.0, 0.0, 0.0, 0.0, 0.0, 0.0, 0.0, 0.0, 0.0, 0.0, 0.0, 0.0, 0.0, 0.0, 0.0, 0.0, 0.0, 0.0, 0.0, 0.0, 0.0, 1.0, 0.0, 0.0, 0.0, 0.0, 0.0, 0.0, 0.0, 0.0, 0.0, 0.0, 0.0, 0.0, 0.0, 0.0, 0.0, 0.0, 0.0, 0.0, 0.0, 0.0, 0.0, 0.0, 0.0, 0.0, 0.0, 0.0, 0.0, 0.0, 0.0, 0.0, 0.0], "bins": [0.012893791310489178, 0.012893791310489178, 0.012893791310489178, 0.012893791310489178, 0.012893791310489178, 0.012893791310489178, 0.012893791310489178, 0.012893791310489178, 0.012893791310489178, 0.012893791310489178, 0.012893791310489178, 0.012893791310489178, 0.012893791310489178, 0.012893791310489178, 0.012893791310489178, 0.012893791310489178, 0.012893791310489178, 0.012893791310489178, 0.012893791310489178, 0.012893791310489178, 0.012893791310489178, 0.012893791310489178, 0.012893791310489178, 0.012893791310489178, 0.012893791310489178, 0.012893791310489178, 0.012893791310489178, 0.012893791310489178, 0.012893791310489178, 0.012893791310489178, 0.012893791310489178, 0.012893791310489178, 0.012893791310489178, 0.012893791310489178, 0.012893791310489178, 0.012893791310489178, 0.012893791310489178, 0.012893791310489178, 0.012893791310489178, 0.012893791310489178, 0.012893791310489178, 0.012893791310489178, 0.012893791310489178, 0.012893791310489178, 0.012893791310489178, 0.012893791310489178, 0.012893791310489178, 0.012893791310489178, 0.012893791310489178, 0.012893791310489178, 0.012893791310489178, 0.012893791310489178, 0.012893791310489178, 0.012893791310489178, 0.012893791310489178, 0.012893791310489178, 0.012893791310489178, 0.012893791310489178, 0.012893791310489178, 0.012893791310489178, 0.012893791310489178, 0.012893791310489178, 0.012893791310489178, 0.012893791310489178, 0.012893791310489178]}, "gradients/out_att.att_r": {"_type": "histogram", "values": [0.0, 0.0, 0.0, 0.0, 0.0, 0.0, 0.0, 0.0, 0.0, 0.0, 0.0, 0.0, 0.0, 0.0, 0.0, 0.0, 0.0, 0.0, 0.0, 0.0, 0.0, 0.0, 0.0, 0.0, 0.0, 0.0, 0.0, 0.0, 0.0, 0.0, 0.0, 0.0, 1.0, 0.0, 0.0, 0.0, 0.0, 0.0, 0.0, 0.0, 0.0, 0.0, 0.0, 0.0, 0.0, 0.0, 0.0, 0.0, 0.0, 0.0, 0.0, 0.0, 0.0, 0.0, 0.0, 0.0, 0.0, 0.0, 0.0, 0.0, 0.0, 0.0, 0.0, 0.0], "bins": [5.633439825736275e-10, 5.633439825736275e-10, 5.633439825736275e-10, 5.633439825736275e-10, 5.633439825736275e-10, 5.633439825736275e-10, 5.633439825736275e-10, 5.633439825736275e-10, 5.633439825736275e-10, 5.633439825736275e-10, 5.633439825736275e-10, 5.633439825736275e-10, 5.633439825736275e-10, 5.633439825736275e-10, 5.633439825736275e-10, 5.633439825736275e-10, 5.633439825736275e-10, 5.633439825736275e-10, 5.633439825736275e-10, 5.633439825736275e-10, 5.633439825736275e-10, 5.633439825736275e-10, 5.633439825736275e-10, 5.633439825736275e-10, 5.633439825736275e-10, 5.633439825736275e-10, 5.633439825736275e-10, 5.633439825736275e-10, 5.633439825736275e-10, 5.633439825736275e-10, 5.633439825736275e-10, 5.633439825736275e-10, 5.633439825736275e-10, 5.633439825736275e-10, 5.633439825736275e-10, 5.633439825736275e-10, 5.633439825736275e-10, 5.633439825736275e-10, 5.633439825736275e-10, 5.633439825736275e-10, 5.633439825736275e-10, 5.633439825736275e-10, 5.633439825736275e-10, 5.633439825736275e-10, 5.633439825736275e-10, 5.633439825736275e-10, 5.633439825736275e-10, 5.633439825736275e-10, 5.633439825736275e-10, 5.633439825736275e-10, 5.633439825736275e-10, 5.633439825736275e-10, 5.633439825736275e-10, 5.633439825736275e-10, 5.633439825736275e-10, 5.633439825736275e-10, 5.633439825736275e-10, 5.633439825736275e-10, 5.633439825736275e-10, 5.633439825736275e-10, 5.633439825736275e-10, 5.633439825736275e-10, 5.633439825736275e-10, 5.633439825736275e-10, 5.633439825736275e-10]}, "gradients/out_att.att_l": {"_type": "histogram", "values": [0.0, 0.0, 0.0, 0.0, 0.0, 0.0, 0.0, 0.0, 0.0, 0.0, 0.0, 0.0, 0.0, 0.0, 0.0, 0.0, 0.0, 0.0, 0.0, 0.0, 0.0, 0.0, 0.0, 0.0, 0.0, 0.0, 0.0, 0.0, 0.0, 0.0, 0.0, 0.0, 1.0, 0.0, 0.0, 0.0, 0.0, 0.0, 0.0, 0.0, 0.0, 0.0, 0.0, 0.0, 0.0, 0.0, 0.0, 0.0, 0.0, 0.0, 0.0, 0.0, 0.0, 0.0, 0.0, 0.0, 0.0, 0.0, 0.0, 0.0, 0.0, 0.0, 0.0, 0.0], "bins": [5.633439825736275e-10, 5.633439825736275e-10, 5.633439825736275e-10, 5.633439825736275e-10, 5.633439825736275e-10, 5.633439825736275e-10, 5.633439825736275e-10, 5.633439825736275e-10, 5.633439825736275e-10, 5.633439825736275e-10, 5.633439825736275e-10, 5.633439825736275e-10, 5.633439825736275e-10, 5.633439825736275e-10, 5.633439825736275e-10, 5.633439825736275e-10, 5.633439825736275e-10, 5.633439825736275e-10, 5.633439825736275e-10, 5.633439825736275e-10, 5.633439825736275e-10, 5.633439825736275e-10, 5.633439825736275e-10, 5.633439825736275e-10, 5.633439825736275e-10, 5.633439825736275e-10, 5.633439825736275e-10, 5.633439825736275e-10, 5.633439825736275e-10, 5.633439825736275e-10, 5.633439825736275e-10, 5.633439825736275e-10, 5.633439825736275e-10, 5.633439825736275e-10, 5.633439825736275e-10, 5.633439825736275e-10, 5.633439825736275e-10, 5.633439825736275e-10, 5.633439825736275e-10, 5.633439825736275e-10, 5.633439825736275e-10, 5.633439825736275e-10, 5.633439825736275e-10, 5.633439825736275e-10, 5.633439825736275e-10, 5.633439825736275e-10, 5.633439825736275e-10, 5.633439825736275e-10, 5.633439825736275e-10, 5.633439825736275e-10, 5.633439825736275e-10, 5.633439825736275e-10, 5.633439825736275e-10, 5.633439825736275e-10, 5.633439825736275e-10, 5.633439825736275e-10, 5.633439825736275e-10, 5.633439825736275e-10, 5.633439825736275e-10, 5.633439825736275e-10, 5.633439825736275e-10, 5.633439825736275e-10, 5.633439825736275e-10, 5.633439825736275e-10, 5.633439825736275e-10]}, "gradients/out_att.lin_l.weight": {"_type": "histogram", "values": [1.0, 1.0, 0.0, 0.0, 0.0, 0.0, 0.0, 0.0, 0.0, 0.0, 0.0, 0.0, 0.0, 0.0, 0.0, 0.0, 0.0, 1.0, 1.0, 0.0, 1.0, 0.0, 2.0, 1.0, 2.0, 2.0, 2.0, 1.0, 3.0, 1.0, 0.0, 3.0, 2.0, 1.0, 2.0, 1.0, 0.0, 0.0, 0.0, 2.0, 0.0, 2.0, 0.0, 0.0, 2.0, 1.0, 2.0, 0.0, 0.0, 0.0, 1.0, 0.0, 0.0, 0.0, 0.0, 0.0, 0.0, 1.0, 0.0, 0.0, 0.0, 0.0, 0.0, 1.0], "bins": [-0.11203077435493469, -0.10858495533466339, -0.10513914376497269, -0.10169333219528198, -0.09824751317501068, -0.09480169415473938, -0.09135588258504868, -0.08791007101535797, -0.08446425199508667, -0.08101843297481537, -0.07757262140512466, -0.07412680983543396, -0.07068099081516266, -0.06723517179489136, -0.06378936022520065, -0.06034354493021965, -0.05689772963523865, -0.053451914340257645, -0.05000609904527664, -0.04656028375029564, -0.043114468455314636, -0.03966865316033363, -0.03622283786535263, -0.03277702257037163, -0.029331207275390625, -0.025885391980409622, -0.02243957668542862, -0.018993761390447617, -0.015547946095466614, -0.012102130800485611, -0.008656315505504608, -0.005210500210523605, -0.0017646774649620056, 0.0016811378300189972, 0.005126953125, 0.008572768419981003, 0.012018583714962006, 0.015464399009943008, 0.01891021430492401, 0.022356029599905014, 0.025801844894886017, 0.02924766018986702, 0.03269347548484802, 0.036139290779829025, 0.03958510607481003, 0.04303092136979103, 0.046476736664772034, 0.049922551959753036, 0.05336836725473404, 0.05681418254971504, 0.060259997844696045, 0.06370581686496735, 0.06715162843465805, 0.07059744000434875, 0.07404325902462006, 0.07748907804489136, 0.08093488961458206, 0.08438070118427277, 0.08782652020454407, 0.09127233922481537, 0.09471815079450607, 0.09816396236419678, 0.10160978138446808, 0.10505560040473938, 0.10850141197443008]}, "gradients/attention_2.bias": {"_type": "histogram", "values": [1.0, 0.0, 0.0, 0.0, 0.0, 0.0, 0.0, 0.0, 0.0, 0.0, 0.0, 0.0, 0.0, 0.0, 0.0, 0.0, 0.0, 0.0, 0.0, 0.0, 0.0, 0.0, 1.0, 1.0, 1.0, 0.0, 0.0, 0.0, 0.0, 1.0, 1.0, 4.0, 1.0, 0.0, 3.0, 4.0, 3.0, 6.0, 3.0, 5.0, 1.0, 1.0, 1.0, 0.0, 0.0, 0.0, 1.0, 0.0, 0.0, 0.0, 0.0, 0.0, 0.0, 0.0, 0.0, 0.0, 0.0, 0.0, 0.0, 0.0, 0.0, 0.0, 0.0, 1.0], "bins": [-0.04742521047592163, -0.04609490931034088, -0.04476460814476013, -0.04343430697917938, -0.04210400581359863, -0.04077370464801788, -0.039443403482437134, -0.038113102316856384, -0.036782801151275635, -0.035452499985694885, -0.034122198820114136, -0.032791897654533386, -0.03146159648895264, -0.030131295323371887, -0.028800994157791138, -0.027470692992210388, -0.02614039182662964, -0.02481009066104889, -0.02347978949546814, -0.02214948832988739, -0.02081918716430664, -0.01948888599872589, -0.01815858483314514, -0.016828283667564392, -0.015497982501983643, -0.014167681336402893, -0.012837380170822144, -0.011507079005241394, -0.010176777839660645, -0.008846476674079895, -0.0075161755084991455, -0.006185874342918396, -0.0048555731773376465, -0.003525272011756897, -0.0021949708461761475, -0.000864669680595398, 0.00046563148498535156, 0.001795932650566101, 0.0031262338161468506, 0.0044565349817276, 0.00578683614730835, 0.007117137312889099, 0.008447438478469849, 0.009777739644050598, 0.011108040809631348, 0.012438341975212097, 0.013768643140792847, 0.015098944306373596, 0.016429245471954346, 0.017759546637535095, 0.019089847803115845, 0.020420148968696594, 0.021750450134277344, 0.023080751299858093, 0.024411052465438843, 0.025741353631019592, 0.027071654796600342, 0.02840195596218109, 0.02973225712776184, 0.03106255829334259, 0.03239285945892334, 0.03372316062450409, 0.03505346179008484, 0.03638376295566559, 0.03771406412124634]}, "gradients/attention_2.att_r": {"_type": "histogram", "values": [0.0, 0.0, 0.0, 0.0, 0.0, 0.0, 0.0, 0.0, 0.0, 0.0, 0.0, 0.0, 0.0, 0.0, 0.0, 0.0, 0.0, 0.0, 0.0, 0.0, 0.0, 0.0, 0.0, 0.0, 0.0, 0.0, 0.0, 0.0, 0.0, 0.0, 0.0, 0.0, 40.0, 0.0, 0.0, 0.0, 0.0, 0.0, 0.0, 0.0, 0.0, 0.0, 0.0, 0.0, 0.0, 0.0, 0.0, 0.0, 0.0, 0.0, 0.0, 0.0, 0.0, 0.0, 0.0, 0.0, 0.0, 0.0, 0.0, 0.0, 0.0, 0.0, 0.0, 0.0], "bins": [0.0, 0.0, 0.0, 0.0, 0.0, 0.0, 0.0, 0.0, 0.0, 0.0, 0.0, 0.0, 0.0, 0.0, 0.0, 0.0, 0.0, 0.0, 0.0, 0.0, 0.0, 0.0, 0.0, 0.0, 0.0, 0.0, 0.0, 0.0, 0.0, 0.0, 0.0, 0.0, 0.0, 0.0, 0.0, 0.0, 0.0, 0.0, 0.0, 0.0, 0.0, 0.0, 0.0, 0.0, 0.0, 0.0, 0.0, 0.0, 0.0, 0.0, 0.0, 0.0, 0.0, 0.0, 0.0, 0.0, 0.0, 0.0, 0.0, 0.0, 0.0, 0.0, 0.0, 0.0, 0.0]}, "gradients/attention_2.att_l": {"_type": "histogram", "values": [0.0, 0.0, 0.0, 0.0, 0.0, 0.0, 0.0, 0.0, 0.0, 0.0, 0.0, 0.0, 0.0, 0.0, 0.0, 0.0, 0.0, 0.0, 0.0, 0.0, 0.0, 0.0, 0.0, 0.0, 0.0, 0.0, 0.0, 0.0, 0.0, 0.0, 0.0, 0.0, 40.0, 0.0, 0.0, 0.0, 0.0, 0.0, 0.0, 0.0, 0.0, 0.0, 0.0, 0.0, 0.0, 0.0, 0.0, 0.0, 0.0, 0.0, 0.0, 0.0, 0.0, 0.0, 0.0, 0.0, 0.0, 0.0, 0.0, 0.0, 0.0, 0.0, 0.0, 0.0], "bins": [0.0, 0.0, 0.0, 0.0, 0.0, 0.0, 0.0, 0.0, 0.0, 0.0, 0.0, 0.0, 0.0, 0.0, 0.0, 0.0, 0.0, 0.0, 0.0, 0.0, 0.0, 0.0, 0.0, 0.0, 0.0, 0.0, 0.0, 0.0, 0.0, 0.0, 0.0, 0.0, 0.0, 0.0, 0.0, 0.0, 0.0, 0.0, 0.0, 0.0, 0.0, 0.0, 0.0, 0.0, 0.0, 0.0, 0.0, 0.0, 0.0, 0.0, 0.0, 0.0, 0.0, 0.0, 0.0, 0.0, 0.0, 0.0, 0.0, 0.0, 0.0, 0.0, 0.0, 0.0, 0.0]}, "gradients/attention_2.lin_l.weight": {"_type": "histogram", "values": [0.0, 0.0, 0.0, 0.0, 0.0, 0.0, 0.0, 0.0, 0.0, 0.0, 0.0, 0.0, 0.0, 0.0, 0.0, 0.0, 0.0, 0.0, 0.0, 0.0, 0.0, 0.0, 0.0, 0.0, 0.0, 0.0, 0.0, 0.0, 0.0, 0.0, 0.0, 0.0, 1600.0, 0.0, 0.0, 0.0, 0.0, 0.0, 0.0, 0.0, 0.0, 0.0, 0.0, 0.0, 0.0, 0.0, 0.0, 0.0, 0.0, 0.0, 0.0, 0.0, 0.0, 0.0, 0.0, 0.0, 0.0, 0.0, 0.0, 0.0, 0.0, 0.0, 0.0, 0.0], "bins": [0.0, 0.0, 0.0, 0.0, 0.0, 0.0, 0.0, 0.0, 0.0, 0.0, 0.0, 0.0, 0.0, 0.0, 0.0, 0.0, 0.0, 0.0, 0.0, 0.0, 0.0, 0.0, 0.0, 0.0, 0.0, 0.0, 0.0, 0.0, 0.0, 0.0, 0.0, 0.0, 0.0, 0.0, 0.0, 0.0, 0.0, 0.0, 0.0, 0.0, 0.0, 0.0, 0.0, 0.0, 0.0, 0.0, 0.0, 0.0, 0.0, 0.0, 0.0, 0.0, 0.0, 0.0, 0.0, 0.0, 0.0, 0.0, 0.0, 0.0, 0.0, 0.0, 0.0, 0.0, 0.0]}, "gradients/attention_1.bias": {"_type": "histogram", "values": [1.0, 0.0, 0.0, 0.0, 0.0, 0.0, 0.0, 0.0, 0.0, 0.0, 0.0, 0.0, 0.0, 0.0, 0.0, 0.0, 0.0, 0.0, 0.0, 0.0, 0.0, 0.0, 0.0, 0.0, 0.0, 1.0, 1.0, 1.0, 0.0, 0.0, 0.0, 3.0, 2.0, 2.0, 1.0, 2.0, 6.0, 2.0, 6.0, 5.0, 3.0, 1.0, 0.0, 1.0, 0.0, 0.0, 0.0, 1.0, 0.0, 0.0, 0.0, 0.0, 0.0, 0.0, 0.0, 0.0, 0.0, 0.0, 0.0, 0.0, 0.0, 0.0, 0.0, 1.0], "bins": [-0.04742521047592163, -0.0461207740008831, -0.044816337525844574, -0.043511904776096344, -0.042207468301057816, -0.04090303182601929, -0.03959859535098076, -0.03829415887594223, -0.0369897224009037, -0.03568528592586517, -0.034380849450826645, -0.033076412975788116, -0.031771980226039886, -0.030467543751001358, -0.02916310727596283, -0.0278586708009243, -0.026554236188530922, -0.025249799713492393, -0.023945365101099014, -0.022640928626060486, -0.021336492151021957, -0.02003205567598343, -0.01872762106359005, -0.01742318458855152, -0.016118749976158142, -0.014814314432442188, -0.01350987795740366, -0.012205442413687706, -0.010901005938649178, -0.009596570394933224, -0.00829213485121727, -0.0069876983761787415, -0.005683261901140213, -0.004378825891762972, -0.0030743901152163744, -0.001769954338669777, -0.0004655183292925358, 0.0008389176800847054, 0.002143353223800659, 0.0034477896988391876, 0.0047522252425551414, 0.006056661251932383, 0.007361097261309624, 0.008665532805025578, 0.009969968348741531, 0.01127440482378006, 0.012578840367496014, 0.013883276842534542, 0.015187712386250496, 0.016492148861289024, 0.017796583473682404, 0.019101019948720932, 0.02040545642375946, 0.02170989289879799, 0.023014327511191368, 0.024318763986229897, 0.025623198598623276, 0.026927635073661804, 0.028232069686055183, 0.029536506161093712, 0.03084094263613224, 0.03214537724852562, 0.03344981372356415, 0.034754250198602676, 0.036058686673641205]}, "gradients/attention_1.att_r": {"_type": "histogram", "values": [1.0, 1.0, 0.0, 0.0, 1.0, 0.0, 0.0, 0.0, 0.0, 0.0, 0.0, 0.0, 0.0, 0.0, 0.0, 1.0, 0.0, 0.0, 0.0, 1.0, 30.0, 0.0, 1.0, 0.0, 1.0, 0.0, 1.0, 0.0, 0.0, 0.0, 0.0, 0.0, 0.0, 0.0, 0.0, 0.0, 0.0, 0.0, 0.0, 0.0, 0.0, 1.0, 0.0, 0.0, 0.0, 0.0, 0.0, 0.0, 0.0, 0.0, 0.0, 0.0, 0.0, 0.0, 0.0, 0.0, 0.0, 0.0, 0.0, 0.0, 0.0, 0.0, 0.0, 1.0], "bins": [-1.1665451073330144e-17, -1.108858110439995e-17, -1.0511710308289144e-17, -9.93484033935895e-18, -9.357970370428757e-18, -8.781099574317951e-18, -8.204229605387757e-18, -7.627359636457564e-18, -7.050488840346757e-18, -6.4736184578262574e-18, -5.8967480753057575e-18, -5.319878106375564e-18, -4.743007723855064e-18, -4.166137341334564e-18, -3.5892673724043705e-18, -3.0123969898838706e-18, -2.4355266073633706e-18, -1.8586562248428707e-18, -1.281786049117524e-18, -7.049157699946006e-19, -1.280454908716773e-19, 4.488248916488226e-19, 1.0256950673741694e-18, 1.6025652430995161e-18, 2.179435625620016e-18, 2.756306008140516e-18, 3.3331761838658627e-18, 3.9100463595912095e-18, 4.4869167421117094e-18, 5.063787124632209e-18, 5.640657093562403e-18, 6.217527476082903e-18, 6.794398685784015e-18, 7.371268654714209e-18, 7.948139450825015e-18, 8.525009419755209e-18, 9.101880215866015e-18, 9.678750184796209e-18, 1.0255620153726402e-17, 1.0832490949837208e-17, 1.1409360918767402e-17, 1.1986230887697596e-17, 1.2563101683808402e-17, 1.3139971652738595e-17, 1.3716841621668789e-17, 1.4293712417779595e-17, 1.48705832138904e-17, 1.5447452355639982e-17, 1.602432315175079e-17, 1.6601193947861595e-17, 1.7178063089611176e-17, 1.7754933885721982e-17, 1.8331804681832788e-17, 1.890867382358237e-17, 1.9485544619693176e-17, 2.0062415415803982e-17, 2.0639284557553563e-17, 2.121615535366437e-17, 2.179302449541395e-17, 2.2369895291524756e-17, 2.2946766087635562e-17, 2.352363688374637e-17, 2.410050602549595e-17, 2.4677376821606756e-17, 2.5254247617717562e-17]}, "gradients/attention_1.att_l": {"_type": "histogram", "values": [1.0, 1.0, 0.0, 0.0, 1.0, 0.0, 0.0, 0.0, 0.0, 0.0, 0.0, 0.0, 0.0, 0.0, 0.0, 1.0, 0.0, 0.0, 0.0, 1.0, 30.0, 0.0, 1.0, 0.0, 1.0, 0.0, 1.0, 0.0, 0.0, 0.0, 0.0, 0.0, 0.0, 0.0, 0.0, 0.0, 0.0, 0.0, 0.0, 0.0, 0.0, 1.0, 0.0, 0.0, 0.0, 0.0, 0.0, 0.0, 0.0, 0.0, 0.0, 0.0, 0.0, 0.0, 0.0, 0.0, 0.0, 0.0, 0.0, 0.0, 0.0, 0.0, 0.0, 1.0], "bins": [-1.1665451073330144e-17, -1.108858110439995e-17, -1.0511710308289144e-17, -9.93484033935895e-18, -9.357970370428757e-18, -8.781099574317951e-18, -8.204229605387757e-18, -7.627359636457564e-18, -7.050488840346757e-18, -6.4736184578262574e-18, -5.8967480753057575e-18, -5.319878106375564e-18, -4.743007723855064e-18, -4.166137341334564e-18, -3.5892673724043705e-18, -3.0123969898838706e-18, -2.4355266073633706e-18, -1.8586562248428707e-18, -1.281786049117524e-18, -7.049157699946006e-19, -1.280454908716773e-19, 4.488248916488226e-19, 1.0256950673741694e-18, 1.6025652430995161e-18, 2.179435625620016e-18, 2.756306008140516e-18, 3.3331761838658627e-18, 3.9100463595912095e-18, 4.4869167421117094e-18, 5.063787124632209e-18, 5.640657093562403e-18, 6.217527476082903e-18, 6.794398685784015e-18, 7.371268654714209e-18, 7.948139450825015e-18, 8.525009419755209e-18, 9.101880215866015e-18, 9.678750184796209e-18, 1.0255620153726402e-17, 1.0832490949837208e-17, 1.1409360918767402e-17, 1.1986230887697596e-17, 1.2563101683808402e-17, 1.3139971652738595e-17, 1.3716841621668789e-17, 1.4293712417779595e-17, 1.48705832138904e-17, 1.5447452355639982e-17, 1.602432315175079e-17, 1.6601193947861595e-17, 1.7178063089611176e-17, 1.7754933885721982e-17, 1.8331804681832788e-17, 1.890867382358237e-17, 1.9485544619693176e-17, 2.0062415415803982e-17, 2.0639284557553563e-17, 2.121615535366437e-17, 2.179302449541395e-17, 2.2369895291524756e-17, 2.2946766087635562e-17, 2.352363688374637e-17, 2.410050602549595e-17, 2.4677376821606756e-17, 2.5254247617717562e-17]}, "gradients/attention_1.lin_l.weight": {"_type": "histogram", "values": [1.0, 2.0, 0.0, 0.0, 0.0, 0.0, 0.0, 0.0, 1.0, 0.0, 0.0, 0.0, 0.0, 0.0, 0.0, 0.0, 0.0, 0.0, 0.0, 1.0, 2.0, 0.0, 0.0, 1.0, 4.0, 0.0, 1.0, 0.0, 1.0, 1.0, 2.0, 1546.0, 28.0, 0.0, 0.0, 1.0, 0.0, 1.0, 1.0, 1.0, 0.0, 1.0, 0.0, 1.0, 0.0, 0.0, 1.0, 0.0, 0.0, 0.0, 0.0, 0.0, 0.0, 0.0, 0.0, 0.0, 0.0, 0.0, 0.0, 1.0, 0.0, 0.0, 0.0, 1.0], "bins": [-7.108652541426791e-17, -6.88540774375506e-17, -6.662162284338838e-17, -6.438917486667107e-17, -6.215672027250885e-17, -5.992427229579154e-17, -5.769181770162932e-17, -5.545936972491201e-17, -5.322691843947224e-17, -5.099446715403248e-17, -4.8762015868592713e-17, -4.652956458315295e-17, -4.4297116606435634e-17, -4.206466201227342e-17, -3.9832214035556105e-17, -3.759976275011634e-17, -3.5367311464676575e-17, -3.313486017923681e-17, -3.0902408893797046e-17, -2.866995760835728e-17, -2.6437507977278742e-17, -2.4205056691838977e-17, -2.1972607060760437e-17, -1.9740155775320673e-17, -1.7507704489880908e-17, -1.5275253204441143e-17, -1.3042802746181991e-17, -1.0810352287922839e-17, -8.577901002483074e-18, -6.34544971704331e-18, -4.1129992587841576e-18, -1.8805488005250054e-18, 3.5190248491475925e-19, 2.5843533567642177e-18, 4.816804228613676e-18, 7.049254686872828e-18, 9.281705972312593e-18, 1.1514157257752358e-17, 1.374660771601151e-17, 1.5979058174270662e-17, 1.8211509459710427e-17, 2.044396074515019e-17, 2.2676412030589956e-17, 2.4908861661668496e-17, 2.714131294710826e-17, 2.937376588690925e-17, 3.1606213863626565e-17, 3.383866514906633e-17, 3.6071116434506094e-17, 3.830356771994586e-17, 4.0536019005385623e-17, 4.276847029082539e-17, 4.500092157626515e-17, 4.723336955298247e-17, 4.946582083842223e-17, 5.1698272123861997e-17, 5.393072340930176e-17, 5.616317469474153e-17, 5.839562267145884e-17, 6.062807726562106e-17, 6.286052524233837e-17, 6.509297983650058e-17, 6.73254278132179e-17, 6.955788240738011e-17, 7.179033038409743e-17]}, "gradients/attention_0.bias": {"_type": "histogram", "values": [1.0, 0.0, 0.0, 0.0, 0.0, 0.0, 0.0, 0.0, 0.0, 0.0, 0.0, 0.0, 0.0, 0.0, 0.0, 0.0, 0.0, 0.0, 0.0, 0.0, 0.0, 0.0, 0.0, 0.0, 0.0, 0.0, 1.0, 1.0, 0.0, 1.0, 0.0, 0.0, 4.0, 1.0, 2.0, 2.0, 2.0, 6.0, 3.0, 5.0, 6.0, 2.0, 0.0, 1.0, 0.0, 0.0, 0.0, 0.0, 1.0, 0.0, 0.0, 0.0, 0.0, 0.0, 0.0, 0.0, 0.0, 0.0, 0.0, 0.0, 0.0, 0.0, 0.0, 1.0], "bins": [-0.04742521047592163, -0.04614563658833504, -0.044866062700748444, -0.04358649253845215, -0.042306918650865555, -0.04102734476327896, -0.03974777087569237, -0.038468196988105774, -0.03718862682580948, -0.035909052938222885, -0.03462947905063629, -0.033349908888339996, -0.0320703350007534, -0.03079076111316681, -0.029511187225580215, -0.028231613337993622, -0.026952039450407028, -0.025672465562820435, -0.02439289353787899, -0.023113319650292397, -0.021833747625350952, -0.02055417373776436, -0.019274599850177765, -0.01799502596259117, -0.016715453937649727, -0.015435880981385708, -0.014156308025121689, -0.012876734137535095, -0.011597161181271076, -0.010317588225007057, -0.009038014337420464, -0.0077584413811564445, -0.0064788684248924255, -0.0051992954686284065, -0.0039197220467031, -0.0026401488576084375, -0.0013605756685137749, -8.100271224975586e-05, 0.0011985707096755505, 0.0024781441316008568, 0.003757717087864876, 0.005037290044128895, 0.006316863466054201, 0.0075964368879795074, 0.008876009844243526, 0.010155582800507545, 0.011435156688094139, 0.012714729644358158, 0.013994302600622177, 0.015273875556886196, 0.016553448513150215, 0.01783302240073681, 0.019112594425678253, 0.020392168313264847, 0.02167174220085144, 0.022951316088438034, 0.02423088811337948, 0.025510462000966072, 0.026790034025907516, 0.02806960791349411, 0.029349181801080704, 0.030628753826022148, 0.03190832585096359, 0.033187899738550186, 0.03446747362613678]}, "gradients/attention_0.att_r": {"_type": "histogram", "values": [1.0, 0.0, 0.0, 0.0, 0.0, 0.0, 0.0, 1.0, 0.0, 0.0, 0.0, 1.0, 0.0, 0.0, 1.0, 1.0, 0.0, 0.0, 0.0, 0.0, 0.0, 0.0, 0.0, 0.0, 0.0, 1.0, 0.0, 0.0, 0.0, 0.0, 0.0, 0.0, 0.0, 0.0, 0.0, 0.0, 0.0, 31.0, 0.0, 1.0, 0.0, 0.0, 0.0, 0.0, 0.0, 1.0, 0.0, 0.0, 0.0, 0.0, 0.0, 0.0, 0.0, 0.0, 0.0, 0.0, 0.0, 0.0, 0.0, 0.0, 0.0, 0.0, 0.0, 1.0], "bins": [-3.0190996369583445e-08, -2.9394508160862642e-08, -2.859801995214184e-08, -2.7801531743421037e-08, -2.7005043534700235e-08, -2.6208553549622593e-08, -2.541206534090179e-08, -2.4615577132180988e-08, -2.3819088923460185e-08, -2.3022600714739383e-08, -2.222611250601858e-08, -2.1429624297297778e-08, -2.0633134312220136e-08, -1.9836647879856173e-08, -1.904015789477853e-08, -1.824366968605773e-08, -1.7447181477336926e-08, -1.6650693268616124e-08, -1.585420505989532e-08, -1.505771685117452e-08, -1.4261227754275296e-08, -1.3464739545554494e-08, -1.2668250448655272e-08, -1.1871762239934469e-08, -1.1075274031213667e-08, -1.0278785822492864e-08, -9.482297613772062e-09, -8.68580851687284e-09, -7.889320308152037e-09, -7.092832099431234e-09, -6.296343446621222e-09, -5.49985479381121e-09, -4.703366585090407e-09, -3.906878376369605e-09, -3.1103897235595923e-09, -2.313901292794185e-09, -1.5174128620287775e-09, -7.20924653307975e-10, 7.55639995020374e-11, 8.720526523120498e-10, 1.6685408610328523e-09, 2.4650292917982597e-09, 3.261517722563667e-09, 4.0580063753736795e-09, 4.854494584094482e-09, 5.6509827928152845e-09, 6.447471445625297e-09, 7.243960098435309e-09, 8.040448307156112e-09, 8.836936515876914e-09, 9.633424724597717e-09, 1.0429913821496939e-08, 1.1226402030217741e-08, 1.2022890238938544e-08, 1.2819379335837766e-08, 1.3615867544558569e-08, 1.4412355753279371e-08, 1.5208843962000174e-08, 1.6005332170720976e-08, 1.680182037944178e-08, 1.759831036451942e-08, 1.8394796796883384e-08, 1.9191286781961026e-08, 1.9987774990681828e-08, 2.078426319940263e-08]}, "gradients/attention_0.att_l": {"_type": "histogram", "values": [1.0, 0.0, 0.0, 0.0, 0.0, 0.0, 0.0, 1.0, 0.0, 0.0, 0.0, 1.0, 0.0, 0.0, 1.0, 1.0, 0.0, 0.0, 0.0, 0.0, 0.0, 0.0, 0.0, 0.0, 0.0, 1.0, 0.0, 0.0, 0.0, 0.0, 0.0, 0.0, 0.0, 0.0, 0.0, 0.0, 0.0, 31.0, 0.0, 1.0, 0.0, 0.0, 0.0, 0.0, 0.0, 1.0, 0.0, 0.0, 0.0, 0.0, 0.0, 0.0, 0.0, 0.0, 0.0, 0.0, 0.0, 0.0, 0.0, 0.0, 0.0, 0.0, 0.0, 1.0], "bins": [-3.0190996369583445e-08, -2.9394508160862642e-08, -2.859801995214184e-08, -2.7801531743421037e-08, -2.7005043534700235e-08, -2.6208553549622593e-08, -2.541206534090179e-08, -2.4615577132180988e-08, -2.3819088923460185e-08, -2.3022600714739383e-08, -2.222611250601858e-08, -2.1429624297297778e-08, -2.0633134312220136e-08, -1.9836647879856173e-08, -1.904015789477853e-08, -1.824366968605773e-08, -1.7447181477336926e-08, -1.6650693268616124e-08, -1.585420505989532e-08, -1.505771685117452e-08, -1.4261227754275296e-08, -1.3464739545554494e-08, -1.2668250448655272e-08, -1.1871762239934469e-08, -1.1075274031213667e-08, -1.0278785822492864e-08, -9.482297613772062e-09, -8.68580851687284e-09, -7.889320308152037e-09, -7.092832099431234e-09, -6.296343446621222e-09, -5.49985479381121e-09, -4.703366585090407e-09, -3.906878376369605e-09, -3.1103897235595923e-09, -2.313901292794185e-09, -1.5174128620287775e-09, -7.20924653307975e-10, 7.55639995020374e-11, 8.720526523120498e-10, 1.6685408610328523e-09, 2.4650292917982597e-09, 3.261517722563667e-09, 4.0580063753736795e-09, 4.854494584094482e-09, 5.6509827928152845e-09, 6.447471445625297e-09, 7.243960098435309e-09, 8.040448307156112e-09, 8.836936515876914e-09, 9.633424724597717e-09, 1.0429913821496939e-08, 1.1226402030217741e-08, 1.2022890238938544e-08, 1.2819379335837766e-08, 1.3615867544558569e-08, 1.4412355753279371e-08, 1.5208843962000174e-08, 1.6005332170720976e-08, 1.680182037944178e-08, 1.759831036451942e-08, 1.8394796796883384e-08, 1.9191286781961026e-08, 1.9987774990681828e-08, 2.078426319940263e-08]}, "gradients/attention_0.lin_l.weight": {"_type": "histogram", "values": [1.0, 0.0, 0.0, 0.0, 0.0, 0.0, 0.0, 0.0, 0.0, 0.0, 1.0, 0.0, 0.0, 2.0, 0.0, 0.0, 0.0, 1.0, 0.0, 0.0, 2.0, 0.0, 1.0, 1.0, 0.0, 1.0, 1.0, 0.0, 1.0, 1.0, 0.0, 0.0, 0.0, 0.0, 0.0, 0.0, 0.0, 0.0, 462.0, 0.0, 1.0, 1.0, 0.0, 0.0, 0.0, 0.0, 0.0, 1.0, 0.0, 0.0, 0.0, 0.0, 0.0, 0.0, 0.0, 0.0, 1.0, 0.0, 0.0, 0.0, 0.0, 0.0, 0.0, 1.0], "bins": [-4.631636585372689e-08, -4.510832596338332e-08, -4.390028607303975e-08, -4.269224618269618e-08, -4.148420629235261e-08, -4.027616640200904e-08, -3.906812651166547e-08, -3.78600866213219e-08, -3.665204673097833e-08, -3.5444006840634756e-08, -3.4235966950291186e-08, -3.3027927059947615e-08, -3.1819887169604044e-08, -3.0611847279260473e-08, -2.9403807388916903e-08, -2.8195767498573332e-08, -2.69877293845866e-08, -2.577968949424303e-08, -2.457164960389946e-08, -2.336360971355589e-08, -2.2155569823212318e-08, -2.0947529932868747e-08, -1.9739491818882016e-08, -1.8531451928538445e-08, -1.7323412038194874e-08, -1.6115372147851303e-08, -1.4907332257507733e-08, -1.3699292367164162e-08, -1.2491252476820591e-08, -1.128321258647702e-08, -1.007517358431187e-08, -8.867133693968299e-09, -7.659092915446308e-09, -6.451053025102738e-09, -5.243013134759167e-09, -4.034973688504806e-09, -2.8269337981612352e-09, -1.6188939078176645e-09, -4.1085446156330363e-10, 7.971854287802671e-10, 2.005225319123838e-09, 3.2132652094674086e-09, 4.421305099810979e-09, 5.62934454606534e-09, 6.837384436408911e-09, 8.045423882663272e-09, 9.253463773006843e-09, 1.0461503663350413e-08, 1.1669543553693984e-08, 1.2877583444037555e-08, 1.4085623334381125e-08, 1.5293663224724696e-08, 1.6501703115068267e-08, 1.7709743005411838e-08, 1.891778111939857e-08, 2.012582100974214e-08, 2.133386090008571e-08, 2.254190079042928e-08, 2.3749940680772852e-08, 2.4957980571116423e-08, 2.6166020461459993e-08, 2.7374060351803564e-08, 2.8582100242147135e-08, 2.9790140132490706e-08, 3.0998180022834276e-08]}, "mean_loss": 0.3872796793778737, "_wandb": {"runtime": 38671}}