{"parameters/attention_0.att_l": {"_type": "histogram", "values": [1.0, 0.0, 0.0, 2.0, 0.0, 1.0, 0.0, 0.0, 0.0, 1.0, 0.0, 2.0, 0.0, 0.0, 0.0, 0.0, 0.0, 0.0, 1.0, 2.0, 1.0, 1.0, 1.0, 0.0, 1.0, 0.0, 0.0, 0.0, 1.0, 1.0, 1.0, 0.0, 0.0, 0.0, 1.0, 1.0, 0.0, 1.0, 1.0, 0.0, 1.0, 2.0, 1.0, 1.0, 0.0, 1.0, 1.0, 0.0, 1.0, 1.0, 2.0, 0.0, 0.0, 0.0, 0.0, 3.0, 1.0, 0.0, 1.0, 1.0, 1.0, 0.0, 0.0, 1.0], "bins": [-0.6509725451469421, -0.6319791078567505, -0.6129856109619141, -0.5939921736717224, -0.5749987363815308, -0.5560052990913391, -0.5370118618011475, -0.518018364906311, -0.4990249276161194, -0.48003149032592773, -0.4610380232334137, -0.44204455614089966, -0.423051118850708, -0.40405768156051636, -0.3850642144680023, -0.3660707473754883, -0.34707731008529663, -0.328083872795105, -0.30909040570259094, -0.2900969386100769, -0.27110350131988525, -0.2521100640296936, -0.23311659693717957, -0.21412314474582672, -0.19512969255447388, -0.17613624036312103, -0.1571427881717682, -0.13814933598041534, -0.1191558837890625, -0.10016243159770966, -0.08116897940635681, -0.06217552721500397, -0.0431821346282959, -0.024188682436943054, -0.00519523024559021, 0.013798221945762634, 0.03279167413711548, 0.05178512632846832, 0.07077857851982117, 0.08977203071117401, 0.10876548290252686, 0.1277589350938797, 0.14675238728523254, 0.1657458394765854, 0.18473929166793823, 0.20373274385929108, 0.22272619605064392, 0.24171964824199677, 0.2607131004333496, 0.27970653772354126, 0.2987000048160553, 0.31769347190856934, 0.336686909198761, 0.35568034648895264, 0.3746738135814667, 0.3936672806739807, 0.41266071796417236, 0.431654155254364, 0.45064762234687805, 0.4696410894393921, 0.48863452672958374, 0.5076279640197754, 0.5266214609146118, 0.5456148982048035, 0.5646083354949951]}, "parameters/attention_0.att_r": {"_type": "histogram", "values": [2.0, 2.0, 1.0, 1.0, 0.0, 0.0, 0.0, 1.0, 1.0, 0.0, 0.0, 1.0, 0.0, 0.0, 1.0, 0.0, 0.0, 2.0, 0.0, 2.0, 1.0, 0.0, 0.0, 0.0, 0.0, 1.0, 2.0, 2.0, 0.0, 1.0, 0.0, 1.0, 0.0, 0.0, 0.0, 0.0, 0.0, 0.0, 0.0, 0.0, 1.0, 0.0, 1.0, 0.0, 2.0, 1.0, 2.0, 0.0, 0.0, 1.0, 1.0, 0.0, 0.0, 0.0, 1.0, 1.0, 0.0, 0.0, 2.0, 0.0, 1.0, 1.0, 1.0, 2.0], "bins": [-0.6528283953666687, -0.63241046667099, -0.611992597579956, -0.5915746688842773, -0.5711567401885986, -0.5507388710975647, -0.530320942401886, -0.509903073310852, -0.48948514461517334, -0.469067245721817, -0.4486493468284607, -0.428231418132782, -0.40781351923942566, -0.38739562034606934, -0.3669776916503906, -0.3465597927570343, -0.326141893863678, -0.30572399497032166, -0.28530609607696533, -0.2648881673812866, -0.2444702684879303, -0.22405236959457397, -0.20363445580005646, -0.18321654200553894, -0.16279864311218262, -0.1423807442188263, -0.12196283042430878, -0.10154492408037186, -0.08112701773643494, -0.060709111392498016, -0.040291205048561096, -0.01987329125404358, 0.0005446672439575195, 0.02096257358789444, 0.04138047993183136, 0.06179838627576828, 0.0822162926197052, 0.10263419896364212, 0.12305210530757904, 0.14347001910209656, 0.16388791799545288, 0.1843058168888092, 0.20472373068332672, 0.22514164447784424, 0.24555954337120056, 0.2659774422645569, 0.2863953709602356, 0.3068132698535919, 0.32723116874694824, 0.34764906764030457, 0.3680669665336609, 0.3884848952293396, 0.4089027941226959, 0.42932069301605225, 0.44973862171173096, 0.4701565206050873, 0.4905744194984436, 0.5109923481941223, 0.5314102172851562, 0.551828145980835, 0.5722460746765137, 0.5926639437675476, 0.6130818724632263, 0.6334997415542603, 0.653917670249939]}, "parameters/attention_0.bias": {"_type": "histogram", "values": [0.0, 0.0, 0.0, 0.0, 0.0, 0.0, 0.0, 0.0, 0.0, 0.0, 0.0, 0.0, 0.0, 0.0, 0.0, 0.0, 0.0, 0.0, 0.0, 0.0, 0.0, 0.0, 0.0, 0.0, 0.0, 0.0, 0.0, 0.0, 0.0, 0.0, 0.0, 0.0, 40.0, 0.0, 0.0, 0.0, 0.0, 0.0, 0.0, 0.0, 0.0, 0.0, 0.0, 0.0, 0.0, 0.0, 0.0, 0.0, 0.0, 0.0, 0.0, 0.0, 0.0, 0.0, 0.0, 0.0, 0.0, 0.0, 0.0, 0.0, 0.0, 0.0, 0.0, 0.0], "bins": [0.0, 0.0, 0.0, 0.0, 0.0, 0.0, 0.0, 0.0, 0.0, 0.0, 0.0, 0.0, 0.0, 0.0, 0.0, 0.0, 0.0, 0.0, 0.0, 0.0, 0.0, 0.0, 0.0, 0.0, 0.0, 0.0, 0.0, 0.0, 0.0, 0.0, 0.0, 0.0, 0.0, 0.0, 0.0, 0.0, 0.0, 0.0, 0.0, 0.0, 0.0, 0.0, 0.0, 0.0, 0.0, 0.0, 0.0, 0.0, 0.0, 0.0, 0.0, 0.0, 0.0, 0.0, 0.0, 0.0, 0.0, 0.0, 0.0, 0.0, 0.0, 0.0, 0.0, 0.0, 0.0]}, "parameters/attention_0.lin_l.weight": {"_type": "histogram", "values": [3.0, 8.0, 11.0, 9.0, 13.0, 7.0, 4.0, 10.0, 7.0, 5.0, 5.0, 7.0, 8.0, 12.0, 13.0, 7.0, 11.0, 7.0, 9.0, 10.0, 7.0, 5.0, 7.0, 12.0, 9.0, 9.0, 6.0, 6.0, 9.0, 10.0, 5.0, 4.0, 10.0, 5.0, 7.0, 8.0, 4.0, 4.0, 1.0, 5.0, 4.0, 7.0, 8.0, 5.0, 8.0, 12.0, 10.0, 8.0, 7.0, 12.0, 11.0, 4.0, 6.0, 6.0, 6.0, 7.0, 7.0, 8.0, 7.0, 7.0, 6.0, 10.0, 7.0, 8.0], "bins": [-0.33616748452186584, -0.32561683654785156, -0.3150661587715149, -0.3045155107975006, -0.29396483302116394, -0.28341418504714966, -0.272863507270813, -0.2623128592967987, -0.2517622113227844, -0.24121154844760895, -0.23066088557243347, -0.2201102375984192, -0.20955955982208252, -0.19900891184806824, -0.18845824897289276, -0.17790758609771729, -0.16735690832138062, -0.15680624544620514, -0.14625558257102966, -0.13570493459701538, -0.1251542568206787, -0.11460360139608383, -0.10405294597148895, -0.09350228309631348, -0.082951620221138, -0.07240095734596252, -0.06185029819607735, -0.05129963904619217, -0.04074897617101669, -0.030198313295841217, -0.019647657871246338, -0.009096994996070862, 0.001453697681427002, 0.012004358693957329, 0.022555019706487656, 0.03310567885637283, 0.04365634173154831, 0.054207004606723785, 0.06475766003131866, 0.07530832290649414, 0.08585898578166962, 0.09640964865684509, 0.10696031153202057, 0.11751096695661545, 0.12806162238121033, 0.138612300157547, 0.14916294813156128, 0.15971361100673676, 0.17026427388191223, 0.1808149367570877, 0.19136559963226318, 0.20191624760627747, 0.21246692538261414, 0.22301757335662842, 0.2335682362318039, 0.24411889910697937, 0.25466954708099365, 0.26522019505500793, 0.2757708728313446, 0.2863215208053589, 0.29687219858169556, 0.30742284655570984, 0.3179734945297241, 0.3285241723060608, 0.33907485008239746]}, "parameters/attention_1.att_l": {"_type": "histogram", "values": [1.0, 2.0, 3.0, 0.0, 0.0, 0.0, 2.0, 0.0, 0.0, 1.0, 1.0, 1.0, 0.0, 1.0, 0.0, 0.0, 0.0, 1.0, 1.0, 1.0, 0.0, 0.0, 0.0, 0.0, 0.0, 1.0, 0.0, 0.0, 1.0, 2.0, 1.0, 1.0, 1.0, 0.0, 1.0, 0.0, 0.0, 0.0, 0.0, 0.0, 1.0, 1.0, 1.0, 2.0, 0.0, 1.0, 1.0, 1.0, 0.0, 0.0, 0.0, 1.0, 0.0, 2.0, 0.0, 0.0, 1.0, 1.0, 0.0, 0.0, 0.0, 3.0, 0.0, 1.0], "bins": [-0.6033751964569092, -0.5844300985336304, -0.5654850006103516, -0.5465399622917175, -0.5275948643684387, -0.5086497664451599, -0.4897046685218811, -0.4707595705986023, -0.4518145024776459, -0.43286940455436707, -0.41392433643341064, -0.39497923851013184, -0.376034140586853, -0.3570890724658966, -0.3381439745426178, -0.3191989064216614, -0.30025380849838257, -0.28130871057510376, -0.26236364245414734, -0.24341854453086853, -0.22447346150875092, -0.2055283784866333, -0.1865832805633545, -0.16763819754123688, -0.14869311451911926, -0.12974803149700165, -0.11080294102430344, -0.09185785055160522, -0.07291276752948761, -0.053967684507369995, -0.03502259403467178, -0.016077503561973572, 0.002867579460144043, 0.021812666207551956, 0.04075775295495987, 0.05970283970236778, 0.0786479264497757, 0.09759300947189331, 0.11653809994459152, 0.13548319041728973, 0.15442827343940735, 0.17337335646152496, 0.19231843948364258, 0.2112635374069214, 0.230208620429039, 0.24915370345115662, 0.2680988013744354, 0.28704386949539185, 0.30598896741867065, 0.32493406534194946, 0.3438791334629059, 0.3628242313861847, 0.3817692995071411, 0.4007143974304199, 0.41965949535369873, 0.43860459327697754, 0.45754966139793396, 0.47649475932121277, 0.4954398274421692, 0.514384925365448, 0.5333300232887268, 0.5522750616073608, 0.5712201595306396, 0.5901652574539185, 0.6091103553771973]}, "parameters/attention_1.att_r": {"_type": "histogram", "values": [1.0, 1.0, 2.0, 0.0, 0.0, 3.0, 1.0, 0.0, 0.0, 1.0, 1.0, 2.0, 1.0, 0.0, 1.0, 1.0, 1.0, 0.0, 0.0, 1.0, 0.0, 1.0, 0.0, 0.0, 0.0, 1.0, 0.0, 1.0, 0.0, 1.0, 0.0, 0.0, 1.0, 1.0, 0.0, 0.0, 0.0, 1.0, 2.0, 0.0, 0.0, 1.0, 2.0, 1.0, 2.0, 0.0, 0.0, 0.0, 1.0, 0.0, 1.0, 2.0, 0.0, 0.0, 0.0, 0.0, 1.0, 0.0, 0.0, 1.0, 0.0, 0.0, 1.0, 1.0], "bins": [-0.6354247331619263, -0.6156680583953857, -0.5959113836288452, -0.5761546492576599, -0.5563979744911194, -0.5366412997245789, -0.5168846249580383, -0.4971279501914978, -0.4773712456226349, -0.45761457085609436, -0.43785786628723145, -0.4181011915206909, -0.3983445167541504, -0.3785878121852875, -0.35883113741874695, -0.33907443284988403, -0.3193177580833435, -0.299561083316803, -0.27980437874794006, -0.26004770398139954, -0.24029101431369781, -0.2205343246459961, -0.20077764987945557, -0.18102096021175385, -0.16126427054405212, -0.1415075808763504, -0.12175089865922928, -0.10199421644210815, -0.08223752677440643, -0.06248083710670471, -0.04272415488958359, -0.022967472672462463, -0.003210723400115967, 0.016545962542295456, 0.03630264848470688, 0.0560593344271183, 0.07581602036952972, 0.09557271003723145, 0.11532939225435257, 0.1350860744714737, 0.15484276413917542, 0.17459945380687714, 0.19435614347457886, 0.21411281824111938, 0.2338695079088211, 0.2536261975765228, 0.27338287234306335, 0.29313957691192627, 0.3128962516784668, 0.3326529264450073, 0.35240963101387024, 0.37216630578041077, 0.3919230103492737, 0.4116796851158142, 0.43143635988235474, 0.45119303464889526, 0.4709497392177582, 0.4907064139842987, 0.5104631185531616, 0.5302197933197021, 0.5499764680862427, 0.5697331428527832, 0.5894898772239685, 0.609246551990509, 0.6290032267570496]}, "parameters/attention_1.bias": {"_type": "histogram", "values": [0.0, 0.0, 0.0, 0.0, 0.0, 0.0, 0.0, 0.0, 0.0, 0.0, 0.0, 0.0, 0.0, 0.0, 0.0, 0.0, 0.0, 0.0, 0.0, 0.0, 0.0, 0.0, 0.0, 0.0, 0.0, 0.0, 0.0, 0.0, 0.0, 0.0, 0.0, 0.0, 40.0, 0.0, 0.0, 0.0, 0.0, 0.0, 0.0, 0.0, 0.0, 0.0, 0.0, 0.0, 0.0, 0.0, 0.0, 0.0, 0.0, 0.0, 0.0, 0.0, 0.0, 0.0, 0.0, 0.0, 0.0, 0.0, 0.0, 0.0, 0.0, 0.0, 0.0, 0.0], "bins": [0.0, 0.0, 0.0, 0.0, 0.0, 0.0, 0.0, 0.0, 0.0, 0.0, 0.0, 0.0, 0.0, 0.0, 0.0, 0.0, 0.0, 0.0, 0.0, 0.0, 0.0, 0.0, 0.0, 0.0, 0.0, 0.0, 0.0, 0.0, 0.0, 0.0, 0.0, 0.0, 0.0, 0.0, 0.0, 0.0, 0.0, 0.0, 0.0, 0.0, 0.0, 0.0, 0.0, 0.0, 0.0, 0.0, 0.0, 0.0, 0.0, 0.0, 0.0, 0.0, 0.0, 0.0, 0.0, 0.0, 0.0, 0.0, 0.0, 0.0, 0.0, 0.0, 0.0, 0.0, 0.0]}, "parameters/attention_1.lin_l.weight": {"_type": "histogram", "values": [28.0, 25.0, 29.0, 23.0, 30.0, 25.0, 24.0, 31.0, 24.0, 30.0, 24.0, 26.0, 25.0, 32.0, 26.0, 21.0, 22.0, 24.0, 27.0, 26.0, 23.0, 27.0, 21.0, 27.0, 26.0, 18.0, 26.0, 23.0, 22.0, 21.0, 33.0, 23.0, 21.0, 34.0, 21.0, 24.0, 27.0, 36.0, 16.0, 27.0, 18.0, 22.0, 27.0, 25.0, 22.0, 27.0, 25.0, 20.0, 17.0, 16.0, 24.0, 25.0, 35.0, 27.0, 29.0, 26.0, 33.0, 16.0, 18.0, 24.0, 26.0, 27.0, 30.0, 23.0], "bins": [-0.2737654745578766, -0.265214204788208, -0.25666293501853943, -0.24811166524887085, -0.23956038057804108, -0.2310091108083725, -0.22245784103870392, -0.21390657126903534, -0.20535528659820557, -0.196804016828537, -0.1882527470588684, -0.17970147728919983, -0.17115019261837006, -0.16259892284870148, -0.1540476530790329, -0.14549638330936432, -0.13694511353969574, -0.12839384377002716, -0.11984256654977798, -0.1112912967801094, -0.10274001955986023, -0.09418874979019165, -0.08563748002052307, -0.07708621025085449, -0.06853493303060532, -0.05998365953564644, -0.05143238604068756, -0.04288111627101898, -0.034329842776060104, -0.025778569281101227, -0.017227299511432648, -0.00867602601647377, -0.00012475252151489258, 0.00842652004212141, 0.016977792605757713, 0.02552906423807144, 0.03408033773303032, 0.0426316112279892, 0.051182880997657776, 0.05973415449261665, 0.06828542798757553, 0.07683669775724411, 0.08538797497749329, 0.09393924474716187, 0.10249051451683044, 0.11104179173707962, 0.1195930615067482, 0.12814433872699738, 0.13669560849666595, 0.14524687826633453, 0.1537981480360031, 0.16234943270683289, 0.17090070247650146, 0.17945197224617004, 0.18800324201583862, 0.1965545117855072, 0.20510578155517578, 0.21365705132484436, 0.22220832109451294, 0.23075959086418152, 0.2393108755350113, 0.24786214530467987, 0.25641340017318726, 0.2649646997451782, 0.2735159695148468]}, "parameters/attention_2.att_l": {"_type": "histogram", "values": [1.0, 0.0, 0.0, 0.0, 2.0, 1.0, 1.0, 1.0, 1.0, 1.0, 0.0, 0.0, 0.0, 1.0, 0.0, 0.0, 1.0, 0.0, 1.0, 0.0, 0.0, 1.0, 1.0, 1.0, 0.0, 2.0, 1.0, 1.0, 0.0, 1.0, 0.0, 0.0, 2.0, 1.0, 1.0, 0.0, 0.0, 0.0, 0.0, 0.0, 0.0, 1.0, 0.0, 2.0, 1.0, 0.0, 0.0, 1.0, 0.0, 1.0, 2.0, 0.0, 1.0, 0.0, 2.0, 1.0, 1.0, 1.0, 0.0, 0.0, 0.0, 1.0, 1.0, 1.0], "bins": [-0.6419934034347534, -0.6226397156715393, -0.6032859683036804, -0.5839322805404663, -0.5645785331726074, -0.5452248454093933, -0.5258710980415344, -0.5065174102783203, -0.4871636927127838, -0.4678099751472473, -0.4484562575817108, -0.4291025400161743, -0.4097488522529602, -0.3903951048851013, -0.3710414171218872, -0.3516876995563507, -0.3323339819908142, -0.3129802644252777, -0.2936265468597412, -0.2742728292942047, -0.2549191117286682, -0.2355654090642929, -0.2162117063999176, -0.1968579888343811, -0.1775042712688446, -0.1581505537033081, -0.1387968361377716, -0.1194431334733963, -0.1000894159078598, -0.0807356983423233, -0.0613819882273674, -0.0420282781124115, -0.022674560546875, -0.0033208467066287994, 0.0160328671336174, 0.0353865809738636, 0.0547402948141098, 0.0740940123796463, 0.0934477224946022, 0.1128014326095581, 0.1321551501750946, 0.1515088677406311, 0.1708625853061676, 0.1902162879705429, 0.2095700055360794, 0.2289237231016159, 0.2482774257659912, 0.2676311433315277, 0.2869848608970642, 0.3063385784626007, 0.3256922960281372, 0.3450460135936737, 0.3643997311592102, 0.3837534189224243, 0.4031071364879608, 0.4224608540534973, 0.4418145716190338, 0.4611682891845703, 0.4805220067501068, 0.4998757243156433, 0.5192294120788574, 0.5385831594467163, 0.5579368472099304, 0.5772905349731445, 0.5966442823410034]}, "parameters/attention_2.att_r": {"_type": "histogram", "values": [1.0, 1.0, 2.0, 1.0, 1.0, 0.0, 0.0, 0.0, 1.0, 0.0, 0.0, 0.0, 0.0, 1.0, 0.0, 1.0, 2.0, 0.0, 0.0, 0.0, 0.0, 1.0, 1.0, 1.0, 0.0, 0.0, 0.0, 1.0, 1.0, 0.0, 2.0, 1.0, 0.0, 1.0, 1.0, 0.0, 1.0, 0.0, 0.0, 0.0, 1.0, 0.0, 0.0, 0.0, 1.0, 1.0, 1.0, 0.0, 1.0, 1.0, 1.0, 1.0, 1.0, 1.0, 1.0, 0.0, 2.0, 0.0, 1.0, 2.0, 0.0, 1.0, 0.0, 1.0], "bins": [-0.6190905570983887, -0.5994645953178406, -0.5798386335372925, -0.5602126717567444, -0.5405867099761963, -0.5209607481956482, -0.5013347864151001, -0.4817087948322296, -0.4620828330516815, -0.4424568712711334, -0.4228309094905853, -0.40320494771003723, -0.38357895612716675, -0.36395299434661865, -0.34432703256607056, -0.32470107078552246, -0.30507510900497437, -0.28544914722442627, -0.2658231854438782, -0.24619720876216888, -0.2265712469816208, -0.2069452852010727, -0.1873193085193634, -0.1676933467388153, -0.1480673849582672, -0.12844142317771912, -0.10881545394659042, -0.08918948471546173, -0.06956352293491364, -0.04993756115436554, -0.030311591923236847, -0.010685622692108154, 0.008940279483795166, 0.02856624498963356, 0.048192210495471954, 0.06781817972660065, 0.08744414150714874, 0.10707010328769684, 0.12669607996940613, 0.14632204174995422, 0.16594800353050232, 0.18557396531105042, 0.2051999270915985, 0.2248259037733078, 0.2444518655538559, 0.2640778422355652, 0.2837038040161133, 0.3033297657966614, 0.3229557275772095, 0.34258168935775757, 0.36220765113830566, 0.38183361291885376, 0.40145957469940186, 0.42108553647994995, 0.44071152806282043, 0.46033748984336853, 0.4799634516239166, 0.4995894134044647, 0.5192154049873352, 0.5388413667678833, 0.5584673285484314, 0.5780932903289795, 0.5977192521095276, 0.6173452138900757, 0.6369711756706238]}, "parameters/attention_2.bias": {"_type": "histogram", "values": [0.0, 0.0, 0.0, 0.0, 0.0, 0.0, 0.0, 0.0, 0.0, 0.0, 0.0, 0.0, 0.0, 0.0, 0.0, 0.0, 0.0, 0.0, 0.0, 0.0, 0.0, 0.0, 0.0, 0.0, 0.0, 0.0, 0.0, 0.0, 0.0, 0.0, 0.0, 0.0, 40.0, 0.0, 0.0, 0.0, 0.0, 0.0, 0.0, 0.0, 0.0, 0.0, 0.0, 0.0, 0.0, 0.0, 0.0, 0.0, 0.0, 0.0, 0.0, 0.0, 0.0, 0.0, 0.0, 0.0, 0.0, 0.0, 0.0, 0.0, 0.0, 0.0, 0.0, 0.0], "bins": [0.0, 0.0, 0.0, 0.0, 0.0, 0.0, 0.0, 0.0, 0.0, 0.0, 0.0, 0.0, 0.0, 0.0, 0.0, 0.0, 0.0, 0.0, 0.0, 0.0, 0.0, 0.0, 0.0, 0.0, 0.0, 0.0, 0.0, 0.0, 0.0, 0.0, 0.0, 0.0, 0.0, 0.0, 0.0, 0.0, 0.0, 0.0, 0.0, 0.0, 0.0, 0.0, 0.0, 0.0, 0.0, 0.0, 0.0, 0.0, 0.0, 0.0, 0.0, 0.0, 0.0, 0.0, 0.0, 0.0, 0.0, 0.0, 0.0, 0.0, 0.0, 0.0, 0.0, 0.0, 0.0]}, "parameters/attention_2.lin_l.weight": {"_type": "histogram", "values": [20.0, 25.0, 28.0, 19.0, 30.0, 39.0, 25.0, 23.0, 25.0, 28.0, 31.0, 14.0, 23.0, 23.0, 30.0, 29.0, 35.0, 31.0, 21.0, 25.0, 24.0, 24.0, 23.0, 29.0, 27.0, 17.0, 33.0, 24.0, 29.0, 22.0, 25.0, 29.0, 23.0, 28.0, 13.0, 30.0, 15.0, 25.0, 29.0, 21.0, 21.0, 26.0, 23.0, 21.0, 21.0, 26.0, 31.0, 15.0, 19.0, 32.0, 21.0, 24.0, 20.0, 24.0, 29.0, 23.0, 23.0, 32.0, 30.0, 18.0, 29.0, 24.0, 29.0, 25.0], "bins": [-0.27379110455513, -0.26523518562316895, -0.2566792666912079, -0.24812336266040802, -0.23956744372844696, -0.2310115247964859, -0.22245562076568604, -0.21389970183372498, -0.20534378290176392, -0.19678786396980286, -0.1882319450378418, -0.17967604100704193, -0.17112012207508087, -0.1625642031431198, -0.15400829911231995, -0.1454523801803589, -0.13689646124839783, -0.12834054231643677, -0.1197846308350563, -0.11122871935367584, -0.10267280042171478, -0.09411688148975372, -0.08556097000837326, -0.0770050585269928, -0.06844913959503174, -0.05989322438836098, -0.051337309181690216, -0.042781393975019455, -0.034225478768348694, -0.025669563561677933, -0.01711364835500717, -0.00855773314833641, -1.8477439880371094e-06, 0.008554067462682724, 0.017109982669353485, 0.025665897876024246, 0.03422181308269501, 0.04277772828936577, 0.05133364349603653, 0.05988955870270729, 0.06844547390937805, 0.07700139284133911, 0.08555730432271957, 0.09411321580410004, 0.1026691347360611, 0.11122505366802216, 0.11978096514940262, 0.12833687663078308, 0.13689279556274414, 0.1454487144947052, 0.15400463342666626, 0.16256053745746613, 0.17111645638942719, 0.17967237532138824, 0.1882282793521881, 0.19678419828414917, 0.20534011721611023, 0.2138960361480713, 0.22245195508003235, 0.23100785911083221, 0.23956377804279327, 0.24811969697475433, 0.2566756010055542, 0.26523151993751526, 0.2737874388694763]}, "parameters/out_att.att_l": {"_type": "histogram", "values": [0.0, 0.0, 0.0, 0.0, 0.0, 0.0, 0.0, 0.0, 0.0, 0.0, 0.0, 0.0, 0.0, 0.0, 0.0, 0.0, 0.0, 0.0, 0.0, 0.0, 0.0, 0.0, 0.0, 0.0, 0.0, 0.0, 0.0, 0.0, 0.0, 0.0, 0.0, 1.0, 0.0, 0.0, 0.0, 0.0, 0.0, 0.0, 0.0, 0.0, 0.0, 0.0, 0.0, 0.0, 0.0, 0.0, 0.0, 0.0, 0.0, 0.0, 0.0, 0.0, 0.0, 0.0, 0.0, 0.0, 0.0, 0.0, 0.0, 0.0, 0.0, 0.0, 0.0, 0.0], "bins": [-1.4612327814102173, -1.4612327814102173, -1.4612327814102173, -1.4612327814102173, -1.4612327814102173, -1.4612327814102173, -1.4612327814102173, -1.4612327814102173, -1.4612327814102173, -1.4612327814102173, -1.4612327814102173, -1.4612327814102173, -1.4612327814102173, -1.4612327814102173, -1.4612327814102173, -1.4612327814102173, -1.4612327814102173, -1.4612327814102173, -1.4612327814102173, -1.4612327814102173, -1.4612327814102173, -1.4612327814102173, -1.4612327814102173, -1.4612327814102173, -1.4612327814102173, -1.4612327814102173, -1.4612327814102173, -1.4612327814102173, -1.4612327814102173, -1.4612327814102173, -1.4612327814102173, -1.4612327814102173, -1.4612327814102173, -1.4612327814102173, -1.4612327814102173, -1.4612327814102173, -1.4612327814102173, -1.4612327814102173, -1.4612327814102173, -1.4612327814102173, -1.4612327814102173, -1.4612327814102173, -1.4612327814102173, -1.4612327814102173, -1.4612327814102173, -1.4612327814102173, -1.4612327814102173, -1.4612327814102173, -1.4612327814102173, -1.4612327814102173, -1.4612327814102173, -1.4612327814102173, -1.4612327814102173, -1.4612327814102173, -1.4612327814102173, -1.4612327814102173, -1.4612327814102173, -1.4612327814102173, -1.4612327814102173, -1.4612327814102173, -1.4612327814102173, -1.4612327814102173, -1.4612327814102173, -1.4612327814102173, -1.4612327814102173]}, "parameters/out_att.att_r": {"_type": "histogram", "values": [0.0, 0.0, 0.0, 0.0, 0.0, 0.0, 0.0, 0.0, 0.0, 0.0, 0.0, 0.0, 0.0, 0.0, 0.0, 0.0, 0.0, 0.0, 0.0, 0.0, 0.0, 0.0, 0.0, 0.0, 0.0, 0.0, 0.0, 0.0, 0.0, 0.0, 0.0, 0.0, 1.0, 0.0, 0.0, 0.0, 0.0, 0.0, 0.0, 0.0, 0.0, 0.0, 0.0, 0.0, 0.0, 0.0, 0.0, 0.0, 0.0, 0.0, 0.0, 0.0, 0.0, 0.0, 0.0, 0.0, 0.0, 0.0, 0.0, 0.0, 0.0, 0.0, 0.0, 0.0], "bins": [-1.5169495344161987, -1.5169495344161987, -1.5169495344161987, -1.5169495344161987, -1.5169495344161987, -1.5169495344161987, -1.5169495344161987, -1.5169495344161987, -1.5169495344161987, -1.5169495344161987, -1.5169495344161987, -1.5169495344161987, -1.5169495344161987, -1.5169495344161987, -1.5169495344161987, -1.5169495344161987, -1.5169495344161987, -1.5169495344161987, -1.5169495344161987, -1.5169495344161987, -1.5169495344161987, -1.5169495344161987, -1.5169495344161987, -1.5169495344161987, -1.5169495344161987, -1.5169495344161987, -1.5169495344161987, -1.5169495344161987, -1.5169495344161987, -1.5169495344161987, -1.5169495344161987, -1.5169495344161987, -1.5169495344161987, -1.5169495344161987, -1.5169495344161987, -1.5169495344161987, -1.5169495344161987, -1.5169495344161987, -1.5169495344161987, -1.5169495344161987, -1.5169495344161987, -1.5169495344161987, -1.5169495344161987, -1.5169495344161987, -1.5169495344161987, -1.5169495344161987, -1.5169495344161987, -1.5169495344161987, -1.5169495344161987, -1.5169495344161987, -1.5169495344161987, -1.5169495344161987, -1.5169495344161987, -1.5169495344161987, -1.5169495344161987, -1.5169495344161987, -1.5169495344161987, -1.5169495344161987, -1.5169495344161987, -1.5169495344161987, -1.5169495344161987, -1.5169495344161987, -1.5169495344161987, -1.5169495344161987, -1.5169495344161987]}, "parameters/out_att.bias": {"_type": "histogram", "values": [0.0, 0.0, 0.0, 0.0, 0.0, 0.0, 0.0, 0.0, 0.0, 0.0, 0.0, 0.0, 0.0, 0.0, 0.0, 0.0, 0.0, 0.0, 0.0, 0.0, 0.0, 0.0, 0.0, 0.0, 0.0, 0.0, 0.0, 0.0, 0.0, 0.0, 0.0, 0.0, 1.0, 0.0, 0.0, 0.0, 0.0, 0.0, 0.0, 0.0, 0.0, 0.0, 0.0, 0.0, 0.0, 0.0, 0.0, 0.0, 0.0, 0.0, 0.0, 0.0, 0.0, 0.0, 0.0, 0.0, 0.0, 0.0, 0.0, 0.0, 0.0, 0.0, 0.0, 0.0], "bins": [0.0, 0.0, 0.0, 0.0, 0.0, 0.0, 0.0, 0.0, 0.0, 0.0, 0.0, 0.0, 0.0, 0.0, 0.0, 0.0, 0.0, 0.0, 0.0, 0.0, 0.0, 0.0, 0.0, 0.0, 0.0, 0.0, 0.0, 0.0, 0.0, 0.0, 0.0, 0.0, 0.0, 0.0, 0.0, 0.0, 0.0, 0.0, 0.0, 0.0, 0.0, 0.0, 0.0, 0.0, 0.0, 0.0, 0.0, 0.0, 0.0, 0.0, 0.0, 0.0, 0.0, 0.0, 0.0, 0.0, 0.0, 0.0, 0.0, 0.0, 0.0, 0.0, 0.0, 0.0, 0.0]}, "parameters/out_att.lin_l.weight": {"_type": "histogram", "values": [2.0, 0.0, 2.0, 0.0, 1.0, 2.0, 0.0, 1.0, 0.0, 0.0, 1.0, 0.0, 1.0, 1.0, 0.0, 1.0, 0.0, 0.0, 0.0, 0.0, 0.0, 2.0, 0.0, 1.0, 0.0, 1.0, 0.0, 0.0, 1.0, 0.0, 2.0, 0.0, 0.0, 0.0, 3.0, 2.0, 1.0, 4.0, 0.0, 2.0, 1.0, 0.0, 0.0, 1.0, 0.0, 0.0, 0.0, 0.0, 0.0, 2.0, 1.0, 1.0, 0.0, 0.0, 0.0, 0.0, 0.0, 0.0, 0.0, 2.0, 0.0, 0.0, 0.0, 1.0], "bins": [-0.37157708406448364, -0.35988104343414307, -0.3481850028038025, -0.3364889621734619, -0.32479292154312134, -0.31309688091278076, -0.3014008402824402, -0.2897047996520996, -0.27800875902175903, -0.26631271839141846, -0.2546166777610779, -0.2429206371307373, -0.23122459650039673, -0.21952855587005615, -0.20783253014087677, -0.1961364895105362, -0.1844404637813568, -0.17274442315101624, -0.16104838252067566, -0.14935234189033508, -0.1376563012599945, -0.12596026062965393, -0.11426423490047455, -0.10256819427013397, -0.0908721536397934, -0.07917611300945282, -0.06748007237911224, -0.055784039199352264, -0.04408799856901169, -0.03239195793867111, -0.020695924758911133, -0.008999884128570557, 0.002696126699447632, 0.014392165467143059, 0.026088204234838486, 0.03778424113988876, 0.04948028177022934, 0.061176322400569916, 0.0728723555803299, 0.08456839621067047, 0.09626443684101105, 0.10796047747135162, 0.1196565181016922, 0.13135254383087158, 0.14304858446121216, 0.15474462509155273, 0.1664406657218933, 0.1781367063522339, 0.18983274698257446, 0.20152878761291504, 0.21322482824325562, 0.2249208688735962, 0.23661690950393677, 0.24831295013427734, 0.2600089907646179, 0.2717050313949585, 0.2834010720252991, 0.29509711265563965, 0.3067931532859802, 0.3184891939163208, 0.3301852345466614, 0.34188127517700195, 0.35357731580734253, 0.3652733564376831, 0.3769693672657013]}, "_runtime": 1201, "_timestamp": 1641393337, "_step": 12, "Learning rate value": 0.008799999999999999, "Learning rate action": 0.008799999999999999, "epsilon": 0.988065780494209, "action_probs": {"_type": "histogram", "values": [5, 0, 0, 10, 0, 5, 5, 5, 0, 0, 5, 5, 5, 0, 0, 0, 5, 0, 0, 0, 0, 0, 0, 0, 0, 0, 0, 0, 0, 0, 0, 0, 0, 0, 0, 0, 0, 0, 0, 0, 0, 0, 0, 0, 0, 0, 0, 5, 0, 10, 5, 0, 0, 10, 5, 0, 20, 5, 5, 5, 5, 0, 0, 10], "bins": [0.30844834446907043, 0.31437844038009644, 0.32030853629112244, 0.32623863220214844, 0.33216872811317444, 0.33809882402420044, 0.34402891993522644, 0.34995901584625244, 0.35588911175727844, 0.36181920766830444, 0.36774930357933044, 0.37367942929267883, 0.37960952520370483, 0.38553962111473083, 0.39146971702575684, 0.39739981293678284, 0.40332990884780884, 0.40926000475883484, 0.41519010066986084, 0.42112019658088684, 0.42705029249191284, 0.43298038840293884, 0.43891048431396484, 0.44484058022499084, 0.45077067613601685, 0.45670077204704285, 0.46263086795806885, 0.46856096386909485, 0.47449105978012085, 0.48042115569114685, 0.48635125160217285, 0.49228134751319885, 0.49821144342422485, 0.5041415691375732, 0.5100716352462769, 0.5160017609596252, 0.5219318270683289, 0.5278619527816772, 0.5337920188903809, 0.5397221446037292, 0.5456522107124329, 0.5515823364257812, 0.5575124025344849, 0.5634425282478333, 0.5693726539611816, 0.5753027200698853, 0.5812328457832336, 0.5871629118919373, 0.5930930376052856, 0.5990231037139893, 0.6049532294273376, 0.6108832955360413, 0.6168134212493896, 0.6227434873580933, 0.6286736130714417, 0.6346036791801453, 0.6405338048934937, 0.6464638710021973, 0.6523939967155457, 0.6583240628242493, 0.6642541885375977, 0.6701842546463013, 0.6761143803596497, 0.6820444464683533, 0.6879745721817017]}, "stop_go_action": {"_type": "histogram", "values": [50, 0, 0, 0, 0, 0, 0, 0, 0, 0, 0, 0, 0, 0, 0, 0, 0, 0, 0, 0, 0, 0, 0, 0, 0, 0, 0, 0, 0, 0, 0, 0, 0, 0, 0, 0, 0, 0, 0, 0, 0, 0, 0, 0, 0, 0, 0, 0, 0, 0, 0, 0, 0, 0, 0, 0, 0, 0, 0, 0, 0, 0, 0, 85], "bins": [0.0, 0.015625, 0.03125, 0.046875, 0.0625, 0.078125, 0.09375, 0.109375, 0.125, 0.140625, 0.15625, 0.171875, 0.1875, 0.203125, 0.21875, 0.234375, 0.25, 0.265625, 0.28125, 0.296875, 0.3125, 0.328125, 0.34375, 0.359375, 0.375, 0.390625, 0.40625, 0.421875, 0.4375, 0.453125, 0.46875, 0.484375, 0.5, 0.515625, 0.53125, 0.546875, 0.5625, 0.578125, 0.59375, 0.609375, 0.625, 0.640625, 0.65625, 0.671875, 0.6875, 0.703125, 0.71875, 0.734375, 0.75, 0.765625, 0.78125, 0.796875, 0.8125, 0.828125, 0.84375, 0.859375, 0.875, 0.890625, 0.90625, 0.921875, 0.9375, 0.953125, 0.96875, 0.984375, 1.0]}, "node_values": {"_type": "histogram", "values": [1, 0, 0, 0, 0, 0, 0, 0, 0, 0, 0, 0, 0, 0, 0, 0, 0, 0, 0, 0, 0, 0, 0, 0, 0, 0, 1, 2, 3, 0, 0, 0, 0, 0, 0, 2, 0, 0, 0, 1, 3, 3, 2, 1, 2, 1, 0, 1, 0, 1, 0, 0, 0, 0, 1, 0, 0, 1, 0, 0, 0, 0, 0, 1], "bins": [-0.2352735996246338, -0.21995628345757723, -0.20463896729052067, -0.1893216511234641, -0.17400433495640755, -0.158687018789351, -0.14336970262229443, -0.12805238645523787, -0.1127350702881813, -0.09741775412112474, -0.08210043795406818, -0.06678312178701162, -0.05146580561995506, -0.0361484894528985, -0.020831173285841942, -0.005513857118785381, 0.00980345904827118, 0.02512077521532774, 0.0404380913823843, 0.05575540754944086, 0.07107272371649742, 0.08639003988355398, 0.10170735605061054, 0.1170246722176671, 0.13234198838472366, 0.14765930455178022, 0.16297662071883678, 0.17829393688589334, 0.1936112530529499, 0.20892856922000647, 0.22424588538706303, 0.2395632015541196, 0.25488051772117615, 0.2701978338882327, 0.28551515005528927, 0.30083246622234583, 0.3161497823894024, 0.33146709855645895, 0.3467844147235155, 0.36210173089057207, 0.37741904705762863, 0.3927363632246852, 0.40805367939174175, 0.4233709955587983, 0.4386883117258549, 0.45400562789291143, 0.469322944059968, 0.48464026022702456, 0.4999575763940811, 0.5152748925611377, 0.5305922087281942, 0.5459095248952508, 0.5612268410623074, 0.5765441572293639, 0.5918614733964205, 0.607178789563477, 0.6224961057305336, 0.6378134218975902, 0.6531307380646467, 0.6684480542317033, 0.6837653703987598, 0.6990826865658164, 0.714400002732873, 0.7297173188999295, 0.7450346350669861]}, "episode_rewards": {"_type": "histogram", "values": [10, 0, 0, 10, 0, 0, 0, 5, 0, 0, 0, 0, 0, 0, 0, 0, 0, 0, 0, 0, 0, 0, 0, 0, 0, 0, 0, 0, 0, 0, 0, 0, 0, 0, 0, 0, 0, 0, 0, 0, 0, 0, 0, 0, 0, 0, 0, 0, 5, 0, 0, 0, 25, 0, 0, 0, 0, 0, 0, 0, 25, 0, 0, 5], "bins": [-17.0, -16.734375, -16.46875, -16.203125, -15.9375, -15.671875, -15.40625, -15.140625, -14.875, -14.609375, -14.34375, -14.078125, -13.8125, -13.546875, -13.28125, -13.015625, -12.75, -12.484375, -12.21875, -11.953125, -11.6875, -11.421875, -11.15625, -10.890625, -10.625, -10.359375, -10.09375, -9.828125, -9.5625, -9.296875, -9.03125, -8.765625, -8.5, -8.234375, -7.96875, -7.703125, -7.4375, -7.171875, -6.90625, -6.640625, -6.375, -6.109375, -5.84375, -5.578125, -5.3125, -5.046875, -4.78125, -4.515625, -4.25, -3.984375, -3.71875, -3.453125, -3.1875, -2.921875, -2.65625, -2.390625, -2.125, -1.859375, -1.59375, -1.328125, -1.0625, -0.796875, -0.53125, -0.265625, 0.0]}, "avg_reward": -1646.6666666666667, "done_agents": 0.2972222222222222, "deadlock_agents": 0.5154761904761904, "_wandb": {"runtime": 1200}}