{"parameters/attention_0.att_l": {"_type": "histogram", "values": [2.0, 1.0, 0.0, 1.0, 0.0, 0.0, 0.0, 2.0, 1.0, 0.0, 1.0, 0.0, 0.0, 0.0, 1.0, 1.0, 0.0, 2.0, 0.0, 0.0, 0.0, 1.0, 2.0, 0.0, 1.0, 3.0, 1.0, 2.0, 0.0, 1.0, 1.0, 0.0, 0.0, 1.0, 0.0, 0.0, 0.0, 0.0, 1.0, 0.0, 2.0, 2.0, 0.0, 0.0, 0.0, 0.0, 0.0, 0.0, 1.0, 1.0, 1.0, 0.0, 0.0, 0.0, 0.0, 0.0, 0.0, 1.0, 0.0, 0.0, 1.0, 0.0, 3.0, 2.0], "bins": [-0.40047159790992737, -0.3841160237789154, -0.36776041984558105, -0.3514048457145691, -0.33504927158355713, -0.31869369745254517, -0.3023381233215332, -0.28598251938819885, -0.2696269452571869, -0.2532713711261749, -0.23691578209400177, -0.2205601930618286, -0.20420461893081665, -0.1878490447998047, -0.17149345576763153, -0.15513786673545837, -0.1387822926044464, -0.12242671102285385, -0.10607112944126129, -0.08971554785966873, -0.07335996627807617, -0.05700438469648361, -0.04064880311489105, -0.024293221533298492, -0.007937639951705933, 0.008417941629886627, 0.024773523211479187, 0.04112910479307175, 0.05748468637466431, 0.07384026795625687, 0.09019584953784943, 0.10655143111944199, 0.12290698289871216, 0.13926255702972412, 0.15561814606189728, 0.17197373509407043, 0.1883293092250824, 0.20468488335609436, 0.22104047238826752, 0.23739606142044067, 0.25375163555145264, 0.2701072096824646, 0.28646278381347656, 0.3028183877468109, 0.3191739618778229, 0.33552953600883484, 0.3518851399421692, 0.36824071407318115, 0.3845962882041931, 0.4009518623352051, 0.41730743646621704, 0.4336630403995514, 0.45001861453056335, 0.4663741886615753, 0.48272979259490967, 0.49908536672592163, 0.5154409408569336, 0.5317965149879456, 0.5481520891189575, 0.5645076632499695, 0.5808632373809814, 0.5972188711166382, 0.6135744452476501, 0.6299300193786621, 0.6462855935096741]}, "parameters/attention_0.att_r": {"_type": "histogram", "values": [1.0, 1.0, 1.0, 1.0, 2.0, 0.0, 0.0, 1.0, 1.0, 0.0, 0.0, 1.0, 1.0, 1.0, 1.0, 0.0, 3.0, 1.0, 1.0, 0.0, 1.0, 1.0, 0.0, 1.0, 2.0, 0.0, 0.0, 0.0, 0.0, 1.0, 0.0, 1.0, 0.0, 1.0, 1.0, 0.0, 1.0, 0.0, 1.0, 0.0, 1.0, 0.0, 0.0, 0.0, 1.0, 2.0, 0.0, 0.0, 1.0, 0.0, 0.0, 1.0, 0.0, 0.0, 1.0, 1.0, 0.0, 1.0, 1.0, 0.0, 0.0, 0.0, 0.0, 2.0], "bins": [-0.5994886755943298, -0.5804786682128906, -0.5614686012268066, -0.5424585938453674, -0.5234485268592834, -0.5044385194778442, -0.48542848229408264, -0.46641844511032104, -0.44740840792655945, -0.42839837074279785, -0.40938833355903625, -0.39037829637527466, -0.37136828899383545, -0.35235822200775146, -0.33334821462631226, -0.31433817744255066, -0.29532814025878906, -0.27631810307502747, -0.25730806589126587, -0.23829804360866547, -0.21928800642490387, -0.20027796924114227, -0.18126794695854187, -0.16225790977478027, -0.14324787259101868, -0.12423783540725708, -0.10522780567407608, -0.08621777594089508, -0.06720773875713348, -0.04819770157337189, -0.029187671840190887, -0.010177642107009888, 0.008832335472106934, 0.027842368930578232, 0.04685240238904953, 0.06586243212223053, 0.08487246930599213, 0.10388250648975372, 0.12289253622293472, 0.14190256595611572, 0.16091260313987732, 0.17992264032363892, 0.1989326775074005, 0.21794269979000092, 0.2369527369737625, 0.2559627890586853, 0.2749727964401245, 0.2939828336238861, 0.3129928708076477, 0.3320029079914093, 0.3510129451751709, 0.3700229823589325, 0.3890330195426941, 0.4080430269241333, 0.4270530641078949, 0.4460631012916565, 0.4650731384754181, 0.4840831756591797, 0.5030931830406189, 0.5221032500267029, 0.5411132574081421, 0.5601233243942261, 0.5791333317756653, 0.5981433391571045, 0.6171534061431885]}, "parameters/attention_0.bias": {"_type": "histogram", "values": [0.0, 0.0, 0.0, 0.0, 0.0, 0.0, 0.0, 0.0, 0.0, 0.0, 0.0, 0.0, 0.0, 0.0, 0.0, 0.0, 0.0, 0.0, 0.0, 0.0, 0.0, 0.0, 0.0, 0.0, 0.0, 0.0, 0.0, 0.0, 0.0, 0.0, 0.0, 0.0, 40.0, 0.0, 0.0, 0.0, 0.0, 0.0, 0.0, 0.0, 0.0, 0.0, 0.0, 0.0, 0.0, 0.0, 0.0, 0.0, 0.0, 0.0, 0.0, 0.0, 0.0, 0.0, 0.0, 0.0, 0.0, 0.0, 0.0, 0.0, 0.0, 0.0, 0.0, 0.0], "bins": [0.0, 0.0, 0.0, 0.0, 0.0, 0.0, 0.0, 0.0, 0.0, 0.0, 0.0, 0.0, 0.0, 0.0, 0.0, 0.0, 0.0, 0.0, 0.0, 0.0, 0.0, 0.0, 0.0, 0.0, 0.0, 0.0, 0.0, 0.0, 0.0, 0.0, 0.0, 0.0, 0.0, 0.0, 0.0, 0.0, 0.0, 0.0, 0.0, 0.0, 0.0, 0.0, 0.0, 0.0, 0.0, 0.0, 0.0, 0.0, 0.0, 0.0, 0.0, 0.0, 0.0, 0.0, 0.0, 0.0, 0.0, 0.0, 0.0, 0.0, 0.0, 0.0, 0.0, 0.0, 0.0]}, "parameters/attention_0.lin_l.weight": {"_type": "histogram", "values": [5.0, 8.0, 5.0, 5.0, 2.0, 6.0, 5.0, 6.0, 10.0, 9.0, 8.0, 5.0, 5.0, 8.0, 10.0, 7.0, 3.0, 10.0, 8.0, 7.0, 6.0, 7.0, 11.0, 7.0, 7.0, 6.0, 7.0, 8.0, 12.0, 4.0, 7.0, 6.0, 10.0, 10.0, 9.0, 6.0, 8.0, 8.0, 10.0, 8.0, 11.0, 10.0, 7.0, 3.0, 7.0, 11.0, 9.0, 5.0, 9.0, 12.0, 5.0, 8.0, 7.0, 9.0, 7.0, 10.0, 10.0, 3.0, 10.0, 6.0, 3.0, 9.0, 10.0, 10.0], "bins": [-0.33927011489868164, -0.32867231965065, -0.318074494600296, -0.3074766993522644, -0.2968788743019104, -0.2862810790538788, -0.2756832540035248, -0.26508545875549316, -0.25448763370513916, -0.24388982355594635, -0.23329201340675354, -0.22269420325756073, -0.21209639310836792, -0.2014985829591751, -0.1909007728099823, -0.18030297756195068, -0.16970516741275787, -0.15910735726356506, -0.14850954711437225, -0.13791173696517944, -0.12731392681598663, -0.11671611666679382, -0.10611831396818161, -0.0955205038189888, -0.08492269366979599, -0.07432488352060318, -0.06372707337141037, -0.05312926694750786, -0.04253145679831505, -0.03193364664912224, -0.021335840225219727, -0.010738030076026917, -0.00014021992683410645, 0.010457589291036129, 0.021055398508906364, 0.031653206795454025, 0.042251016944646835, 0.052848827093839645, 0.06344663351774216, 0.07404444366693497, 0.08464225381612778, 0.09524006396532059, 0.1058378741145134, 0.11643567681312561, 0.12703348696231842, 0.13763129711151123, 0.14822910726070404, 0.15882691740989685, 0.16942472755908966, 0.18002253770828247, 0.19062034785747528, 0.2012181580066681, 0.2118159681558609, 0.2224137783050537, 0.23301157355308533, 0.24360939860343933, 0.25420719385147095, 0.26480498909950256, 0.27540281414985657, 0.2860006093978882, 0.2965984344482422, 0.3071962296962738, 0.3177940547466278, 0.3283918499946594, 0.3389896750450134]}, "parameters/attention_1.att_l": {"_type": "histogram", "values": [2.0, 0.0, 0.0, 1.0, 1.0, 0.0, 1.0, 0.0, 0.0, 0.0, 1.0, 2.0, 0.0, 1.0, 1.0, 1.0, 0.0, 0.0, 0.0, 1.0, 1.0, 0.0, 1.0, 0.0, 0.0, 0.0, 1.0, 0.0, 2.0, 2.0, 1.0, 0.0, 2.0, 0.0, 0.0, 0.0, 1.0, 0.0, 0.0, 1.0, 0.0, 1.0, 1.0, 1.0, 1.0, 0.0, 2.0, 0.0, 0.0, 2.0, 0.0, 1.0, 2.0, 1.0, 0.0, 0.0, 0.0, 1.0, 0.0, 0.0, 0.0, 0.0, 2.0, 1.0], "bins": [-0.6147480607032776, -0.5953367948532104, -0.5759255886077881, -0.556514322757721, -0.5371030569076538, -0.5176917910575867, -0.4982805550098419, -0.47886931896209717, -0.45945805311203003, -0.4400467872619629, -0.42063555121421814, -0.4012243151664734, -0.38181304931640625, -0.3624017834663391, -0.34299054741859436, -0.3235793113708496, -0.30416804552078247, -0.28475677967071533, -0.2653455436229706, -0.24593429267406464, -0.2265230417251587, -0.20711179077625275, -0.1877005398273468, -0.16828928887844086, -0.1488780379295349, -0.12946678698062897, -0.11005553603172302, -0.09064428508281708, -0.07123303413391113, -0.05182178318500519, -0.03241053223609924, -0.012999281287193298, 0.006411910057067871, 0.025823161005973816, 0.04523441195487976, 0.0646456629037857, 0.08405691385269165, 0.1034681648015976, 0.12287941575050354, 0.14229066669940948, 0.16170191764831543, 0.18111316859722137, 0.20052441954612732, 0.21993567049503326, 0.2393469214439392, 0.25875818729400635, 0.2781694233417511, 0.29758065938949585, 0.316991925239563, 0.3364031910896301, 0.3558144271373749, 0.37522566318511963, 0.39463692903518677, 0.4140481948852539, 0.43345943093299866, 0.4528706669807434, 0.47228193283081055, 0.4916931986808777, 0.5111044645309448, 0.5305156707763672, 0.5499269366264343, 0.5693382024765015, 0.5887494087219238, 0.608160674571991, 0.6275719404220581]}, "parameters/attention_1.att_r": {"_type": "histogram", "values": [2.0, 0.0, 3.0, 0.0, 1.0, 1.0, 1.0, 1.0, 1.0, 0.0, 1.0, 0.0, 2.0, 0.0, 0.0, 0.0, 0.0, 1.0, 0.0, 1.0, 1.0, 0.0, 1.0, 0.0, 0.0, 0.0, 1.0, 0.0, 0.0, 0.0, 1.0, 0.0, 0.0, 1.0, 0.0, 0.0, 0.0, 0.0, 1.0, 1.0, 1.0, 0.0, 1.0, 1.0, 1.0, 1.0, 0.0, 2.0, 1.0, 2.0, 0.0, 0.0, 0.0, 0.0, 0.0, 1.0, 1.0, 0.0, 0.0, 2.0, 1.0, 2.0, 0.0, 1.0], "bins": [-0.6177676320075989, -0.5981650948524475, -0.5785625576972961, -0.5589600801467896, -0.5393575429916382, -0.5197550058364868, -0.5001524686813354, -0.4805499315261841, -0.4609474241733551, -0.44134488701820374, -0.42174237966537476, -0.4021398425102234, -0.382537305355072, -0.36293479800224304, -0.3433322608470917, -0.3237297534942627, -0.30412721633911133, -0.28452467918395996, -0.264922171831131, -0.24531963467597961, -0.22571711242198944, -0.20611459016799927, -0.1865120530128479, -0.16690953075885773, -0.14730700850486755, -0.12770448625087738, -0.10810195654630661, -0.08849942684173584, -0.06889690458774567, -0.04929438233375549, -0.029691852629184723, -0.010089322924613953, 0.009513139724731445, 0.029115665704011917, 0.04871819168329239, 0.06832072138786316, 0.08792324364185333, 0.1075257658958435, 0.12712830305099487, 0.14673082530498505, 0.16633334755897522, 0.1859358698129654, 0.20553839206695557, 0.22514092922210693, 0.2447434514760971, 0.2643459737300873, 0.28394851088523865, 0.3035510182380676, 0.323153555393219, 0.34275609254837036, 0.36235859990119934, 0.3819611370563507, 0.4015636444091797, 0.42116618156433105, 0.4407687187194824, 0.4603712558746338, 0.47997376322746277, 0.49957630038261414, 0.5191788077354431, 0.5387813448905945, 0.5583838820457458, 0.5779863595962524, 0.5975888967514038, 0.6171914339065552, 0.6367939710617065]}, "parameters/attention_1.bias": {"_type": "histogram", "values": [0.0, 0.0, 0.0, 0.0, 0.0, 0.0, 0.0, 0.0, 0.0, 0.0, 0.0, 0.0, 0.0, 0.0, 0.0, 0.0, 0.0, 0.0, 0.0, 0.0, 0.0, 0.0, 0.0, 0.0, 0.0, 0.0, 0.0, 0.0, 0.0, 0.0, 0.0, 0.0, 40.0, 0.0, 0.0, 0.0, 0.0, 0.0, 0.0, 0.0, 0.0, 0.0, 0.0, 0.0, 0.0, 0.0, 0.0, 0.0, 0.0, 0.0, 0.0, 0.0, 0.0, 0.0, 0.0, 0.0, 0.0, 0.0, 0.0, 0.0, 0.0, 0.0, 0.0, 0.0], "bins": [0.0, 0.0, 0.0, 0.0, 0.0, 0.0, 0.0, 0.0, 0.0, 0.0, 0.0, 0.0, 0.0, 0.0, 0.0, 0.0, 0.0, 0.0, 0.0, 0.0, 0.0, 0.0, 0.0, 0.0, 0.0, 0.0, 0.0, 0.0, 0.0, 0.0, 0.0, 0.0, 0.0, 0.0, 0.0, 0.0, 0.0, 0.0, 0.0, 0.0, 0.0, 0.0, 0.0, 0.0, 0.0, 0.0, 0.0, 0.0, 0.0, 0.0, 0.0, 0.0, 0.0, 0.0, 0.0, 0.0, 0.0, 0.0, 0.0, 0.0, 0.0, 0.0, 0.0, 0.0, 0.0]}, "parameters/attention_1.lin_l.weight": {"_type": "histogram", "values": [19.0, 27.0, 13.0, 28.0, 26.0, 21.0, 27.0, 23.0, 31.0, 27.0, 19.0, 20.0, 28.0, 31.0, 24.0, 29.0, 18.0, 31.0, 28.0, 28.0, 28.0, 20.0, 25.0, 19.0, 28.0, 26.0, 28.0, 32.0, 19.0, 29.0, 34.0, 33.0, 24.0, 21.0, 31.0, 20.0, 21.0, 29.0, 25.0, 31.0, 21.0, 22.0, 26.0, 21.0, 34.0, 18.0, 31.0, 33.0, 17.0, 23.0, 16.0, 26.0, 39.0, 26.0, 22.0, 21.0, 22.0, 19.0, 27.0, 19.0, 22.0, 33.0, 21.0, 20.0], "bins": [-0.27318960428237915, -0.26465222239494324, -0.2561148405075073, -0.2475774884223938, -0.23904010653495789, -0.23050272464752197, -0.22196535766124725, -0.21342799067497253, -0.20489060878753662, -0.1963532269001007, -0.187815859913826, -0.17927849292755127, -0.17074111104011536, -0.16220372915267944, -0.15366636216640472, -0.14512899518013, -0.1365916132926941, -0.12805423140525818, -0.11951686441898346, -0.11097948998212814, -0.10244211554527283, -0.09390474110841751, -0.0853673666715622, -0.07682999223470688, -0.06829261779785156, -0.059755243360996246, -0.05121786892414093, -0.042680494487285614, -0.0341431200504303, -0.02560574561357498, -0.017068371176719666, -0.00853099673986435, 6.407499313354492e-06, 0.00854378193616867, 0.017081156373023987, 0.025618530809879303, 0.03415590524673462, 0.042693279683589935, 0.05123065412044525, 0.05976802855730057, 0.06830540299415588, 0.0768427774310112, 0.08538015186786652, 0.09391752630472183, 0.10245490074157715, 0.11099227517843246, 0.11952964961528778, 0.1280670166015625, 0.1366043984889984, 0.14514178037643433, 0.15367914736270905, 0.16221651434898376, 0.17075389623641968, 0.1792912781238556, 0.1878286451101303, 0.19636601209640503, 0.20490339398384094, 0.21344077587127686, 0.22197814285755157, 0.2305155098438263, 0.2390528917312622, 0.24759027361869812, 0.25612765550613403, 0.26466500759124756, 0.27320238947868347]}, "parameters/attention_2.att_l": {"_type": "histogram", "values": [3.0, 0.0, 0.0, 0.0, 0.0, 0.0, 0.0, 0.0, 0.0, 0.0, 0.0, 2.0, 1.0, 0.0, 1.0, 1.0, 0.0, 1.0, 1.0, 1.0, 2.0, 0.0, 0.0, 1.0, 2.0, 1.0, 0.0, 0.0, 0.0, 1.0, 3.0, 0.0, 0.0, 1.0, 0.0, 0.0, 0.0, 0.0, 1.0, 1.0, 1.0, 0.0, 1.0, 0.0, 0.0, 1.0, 1.0, 1.0, 0.0, 0.0, 1.0, 0.0, 1.0, 1.0, 0.0, 2.0, 0.0, 0.0, 0.0, 2.0, 0.0, 2.0, 1.0, 1.0], "bins": [-0.6289424300193787, -0.6092419624328613, -0.589541494846344, -0.5698410272598267, -0.5501406192779541, -0.5304401516914368, -0.5107396841049194, -0.4910392165184021, -0.47133874893188477, -0.45163828134536743, -0.4319378137588501, -0.41223737597465515, -0.3925369083881378, -0.3728364408016205, -0.35313600301742554, -0.3334355354309082, -0.31373506784439087, -0.29403460025787354, -0.2743341326713562, -0.25463369488716125, -0.23493322730064392, -0.2152327597141266, -0.19553230702877045, -0.1758318543434143, -0.15613138675689697, -0.13643091917037964, -0.1167304664850235, -0.09703000634908676, -0.07732954621315002, -0.05762908607721329, -0.03792862594127655, -0.01822817325592041, 0.0014722347259521484, 0.021172694861888885, 0.04087315499782562, 0.06057361513376236, 0.0802740752696991, 0.09997453540563583, 0.11967499554157257, 0.1393754482269287, 0.15907591581344604, 0.17877638339996338, 0.19847683608531952, 0.21817728877067566, 0.237877756357193, 0.2575782239437103, 0.2772786617279053, 0.2969791293144226, 0.31667959690093994, 0.3363800644874573, 0.3560805320739746, 0.37578096985816956, 0.3954814374446869, 0.4151819050312042, 0.43488234281539917, 0.4545828104019165, 0.47428327798843384, 0.49398374557495117, 0.5136842131614685, 0.5333846807479858, 0.5530850887298584, 0.5727855563163757, 0.5924860239028931, 0.6121864914894104, 0.6318869590759277]}, "parameters/attention_2.att_r": {"_type": "histogram", "values": [1.0, 0.0, 1.0, 0.0, 1.0, 2.0, 0.0, 0.0, 1.0, 1.0, 1.0, 0.0, 3.0, 0.0, 0.0, 1.0, 2.0, 1.0, 1.0, 0.0, 1.0, 0.0, 0.0, 0.0, 0.0, 0.0, 1.0, 0.0, 0.0, 4.0, 1.0, 1.0, 0.0, 0.0, 2.0, 1.0, 1.0, 0.0, 0.0, 0.0, 0.0, 0.0, 1.0, 0.0, 1.0, 0.0, 0.0, 0.0, 0.0, 0.0, 0.0, 1.0, 1.0, 2.0, 0.0, 0.0, 2.0, 1.0, 1.0, 1.0, 0.0, 0.0, 0.0, 1.0], "bins": [-0.524714469909668, -0.506485104560852, -0.48825573921203613, -0.4700263738632202, -0.4517970085144043, -0.4335676431655884, -0.41533827781677246, -0.39710891246795654, -0.3788795471191406, -0.3606501817703247, -0.3424208164215088, -0.32419145107269287, -0.30596208572387695, -0.28773272037506104, -0.2695033550262451, -0.2512739896774292, -0.23304462432861328, -0.21481525897979736, -0.19658589363098145, -0.17835652828216553, -0.1601271629333496, -0.1418977975845337, -0.12366843223571777, -0.10543906688690186, -0.08720970153808594, -0.06898033618927002, -0.0507509708404541, -0.032521605491638184, -0.014292240142822266, 0.003937125205993652, 0.02216649055480957, 0.04039585590362549, 0.058625221252441406, 0.07685458660125732, 0.09508395195007324, 0.11331331729888916, 0.13154268264770508, 0.149772047996521, 0.16800141334533691, 0.18623077869415283, 0.20446014404296875, 0.22268950939178467, 0.24091887474060059, 0.2591482400894165, 0.2773776054382324, 0.29560697078704834, 0.31383633613586426, 0.3320657014846802, 0.3502950668334961, 0.368524432182312, 0.38675379753112793, 0.40498316287994385, 0.42321252822875977, 0.4414418935775757, 0.4596712589263916, 0.4779006242752075, 0.49612998962402344, 0.5143593549728394, 0.5325887203216553, 0.5508180856704712, 0.5690474510192871, 0.587276816368103, 0.605506181716919, 0.6237355470657349, 0.6419649124145508]}, "parameters/attention_2.bias": {"_type": "histogram", "values": [0.0, 0.0, 0.0, 0.0, 0.0, 0.0, 0.0, 0.0, 0.0, 0.0, 0.0, 0.0, 0.0, 0.0, 0.0, 0.0, 0.0, 0.0, 0.0, 0.0, 0.0, 0.0, 0.0, 0.0, 0.0, 0.0, 0.0, 0.0, 0.0, 0.0, 0.0, 0.0, 40.0, 0.0, 0.0, 0.0, 0.0, 0.0, 0.0, 0.0, 0.0, 0.0, 0.0, 0.0, 0.0, 0.0, 0.0, 0.0, 0.0, 0.0, 0.0, 0.0, 0.0, 0.0, 0.0, 0.0, 0.0, 0.0, 0.0, 0.0, 0.0, 0.0, 0.0, 0.0], "bins": [0.0, 0.0, 0.0, 0.0, 0.0, 0.0, 0.0, 0.0, 0.0, 0.0, 0.0, 0.0, 0.0, 0.0, 0.0, 0.0, 0.0, 0.0, 0.0, 0.0, 0.0, 0.0, 0.0, 0.0, 0.0, 0.0, 0.0, 0.0, 0.0, 0.0, 0.0, 0.0, 0.0, 0.0, 0.0, 0.0, 0.0, 0.0, 0.0, 0.0, 0.0, 0.0, 0.0, 0.0, 0.0, 0.0, 0.0, 0.0, 0.0, 0.0, 0.0, 0.0, 0.0, 0.0, 0.0, 0.0, 0.0, 0.0, 0.0, 0.0, 0.0, 0.0, 0.0, 0.0, 0.0]}, "parameters/attention_2.lin_l.weight": {"_type": "histogram", "values": [27.0, 25.0, 30.0, 30.0, 33.0, 17.0, 27.0, 20.0, 20.0, 27.0, 21.0, 25.0, 24.0, 16.0, 30.0, 32.0, 24.0, 26.0, 29.0, 23.0, 25.0, 16.0, 21.0, 31.0, 22.0, 21.0, 27.0, 20.0, 23.0, 35.0, 32.0, 33.0, 16.0, 22.0, 24.0, 27.0, 22.0, 29.0, 25.0, 18.0, 27.0, 22.0, 27.0, 31.0, 23.0, 29.0, 25.0, 32.0, 23.0, 28.0, 22.0, 31.0, 23.0, 17.0, 35.0, 14.0, 29.0, 20.0, 22.0, 27.0, 25.0, 25.0, 24.0, 24.0], "bins": [-0.2738451063632965, -0.26530158519744873, -0.25675809383392334, -0.24821458756923676, -0.23967108130455017, -0.2311275750398636, -0.222584068775177, -0.21404056251049042, -0.20549705624580383, -0.19695354998111725, -0.18841004371643066, -0.17986653745174408, -0.1713230311870575, -0.1627795249223709, -0.15423601865768433, -0.14569251239299774, -0.13714900612831116, -0.12860549986362457, -0.12006199359893799, -0.1115184873342514, -0.10297498106956482, -0.09443147480487823, -0.08588796854019165, -0.07734446227550507, -0.06880095601081848, -0.0602574497461319, -0.05171394348144531, -0.04317043721675873, -0.034626930952072144, -0.02608342468738556, -0.017539918422698975, -0.00899641215801239, -0.00045293569564819336, 0.008090570569038391, 0.016634076833724976, 0.02517758309841156, 0.033721089363098145, 0.04226459562778473, 0.050808101892471313, 0.0593516081571579, 0.06789511442184448, 0.07643862068653107, 0.08498212695121765, 0.09352563321590424, 0.10206913948059082, 0.1106126457452774, 0.11915615200996399, 0.12769965827465057, 0.13624316453933716, 0.14478667080402374, 0.15333017706871033, 0.1618736833333969, 0.1704171895980835, 0.17896069586277008, 0.18750420212745667, 0.19604770839214325, 0.20459121465682983, 0.21313472092151642, 0.221678227186203, 0.2302217334508896, 0.23876523971557617, 0.24730874598026276, 0.25585225224494934, 0.2643957734107971, 0.2729392647743225]}, "parameters/out_att.att_l": {"_type": "histogram", "values": [0.0, 0.0, 0.0, 0.0, 0.0, 0.0, 0.0, 0.0, 0.0, 0.0, 0.0, 0.0, 0.0, 0.0, 0.0, 0.0, 0.0, 0.0, 0.0, 0.0, 0.0, 0.0, 0.0, 0.0, 0.0, 0.0, 0.0, 0.0, 0.0, 0.0, 0.0, 0.0, 1.0, 0.0, 0.0, 0.0, 0.0, 0.0, 0.0, 0.0, 0.0, 0.0, 0.0, 0.0, 0.0, 0.0, 0.0, 0.0, 0.0, 0.0, 0.0, 0.0, 0.0, 0.0, 0.0, 0.0, 0.0, 0.0, 0.0, 0.0, 0.0, 0.0, 0.0, 0.0], "bins": [-0.1827203780412674, -0.1827203780412674, -0.1827203780412674, -0.1827203780412674, -0.1827203780412674, -0.1827203780412674, -0.1827203780412674, -0.1827203780412674, -0.1827203780412674, -0.1827203780412674, -0.1827203780412674, -0.1827203780412674, -0.1827203780412674, -0.1827203780412674, -0.1827203780412674, -0.1827203780412674, -0.1827203780412674, -0.1827203780412674, -0.1827203780412674, -0.1827203780412674, -0.1827203780412674, -0.1827203780412674, -0.1827203780412674, -0.1827203780412674, -0.1827203780412674, -0.1827203780412674, -0.1827203780412674, -0.1827203780412674, -0.1827203780412674, -0.1827203780412674, -0.1827203780412674, -0.1827203780412674, -0.1827203780412674, -0.1827203780412674, -0.1827203780412674, -0.1827203780412674, -0.1827203780412674, -0.1827203780412674, -0.1827203780412674, -0.1827203780412674, -0.1827203780412674, -0.1827203780412674, -0.1827203780412674, -0.1827203780412674, -0.1827203780412674, -0.1827203780412674, -0.1827203780412674, -0.1827203780412674, -0.1827203780412674, -0.1827203780412674, -0.1827203780412674, -0.1827203780412674, -0.1827203780412674, -0.1827203780412674, -0.1827203780412674, -0.1827203780412674, -0.1827203780412674, -0.1827203780412674, -0.1827203780412674, -0.1827203780412674, -0.1827203780412674, -0.1827203780412674, -0.1827203780412674, -0.1827203780412674, -0.1827203780412674]}, "parameters/out_att.att_r": {"_type": "histogram", "values": [0.0, 0.0, 0.0, 0.0, 0.0, 0.0, 0.0, 0.0, 0.0, 0.0, 0.0, 0.0, 0.0, 0.0, 0.0, 0.0, 0.0, 0.0, 0.0, 0.0, 0.0, 0.0, 0.0, 0.0, 0.0, 0.0, 0.0, 0.0, 0.0, 0.0, 0.0, 1.0, 0.0, 0.0, 0.0, 0.0, 0.0, 0.0, 0.0, 0.0, 0.0, 0.0, 0.0, 0.0, 0.0, 0.0, 0.0, 0.0, 0.0, 0.0, 0.0, 0.0, 0.0, 0.0, 0.0, 0.0, 0.0, 0.0, 0.0, 0.0, 0.0, 0.0, 0.0, 0.0], "bins": [-1.3660293817520142, -1.3660293817520142, -1.3660293817520142, -1.3660293817520142, -1.3660293817520142, -1.3660293817520142, -1.3660293817520142, -1.3660293817520142, -1.3660293817520142, -1.3660293817520142, -1.3660293817520142, -1.3660293817520142, -1.3660293817520142, -1.3660293817520142, -1.3660293817520142, -1.3660293817520142, -1.3660293817520142, -1.3660293817520142, -1.3660293817520142, -1.3660293817520142, -1.3660293817520142, -1.3660293817520142, -1.3660293817520142, -1.3660293817520142, -1.3660293817520142, -1.3660293817520142, -1.3660293817520142, -1.3660293817520142, -1.3660293817520142, -1.3660293817520142, -1.3660293817520142, -1.3660293817520142, -1.3660293817520142, -1.3660293817520142, -1.3660293817520142, -1.3660293817520142, -1.3660293817520142, -1.3660293817520142, -1.3660293817520142, -1.3660293817520142, -1.3660293817520142, -1.3660293817520142, -1.3660293817520142, -1.3660293817520142, -1.3660293817520142, -1.3660293817520142, -1.3660293817520142, -1.3660293817520142, -1.3660293817520142, -1.3660293817520142, -1.3660293817520142, -1.3660293817520142, -1.3660293817520142, -1.3660293817520142, -1.3660293817520142, -1.3660293817520142, -1.3660293817520142, -1.3660293817520142, -1.3660293817520142, -1.3660293817520142, -1.3660293817520142, -1.3660293817520142, -1.3660293817520142, -1.3660293817520142, -1.3660293817520142]}, "parameters/out_att.bias": {"_type": "histogram", "values": [0.0, 0.0, 0.0, 0.0, 0.0, 0.0, 0.0, 0.0, 0.0, 0.0, 0.0, 0.0, 0.0, 0.0, 0.0, 0.0, 0.0, 0.0, 0.0, 0.0, 0.0, 0.0, 0.0, 0.0, 0.0, 0.0, 0.0, 0.0, 0.0, 0.0, 0.0, 0.0, 1.0, 0.0, 0.0, 0.0, 0.0, 0.0, 0.0, 0.0, 0.0, 0.0, 0.0, 0.0, 0.0, 0.0, 0.0, 0.0, 0.0, 0.0, 0.0, 0.0, 0.0, 0.0, 0.0, 0.0, 0.0, 0.0, 0.0, 0.0, 0.0, 0.0, 0.0, 0.0], "bins": [0.0, 0.0, 0.0, 0.0, 0.0, 0.0, 0.0, 0.0, 0.0, 0.0, 0.0, 0.0, 0.0, 0.0, 0.0, 0.0, 0.0, 0.0, 0.0, 0.0, 0.0, 0.0, 0.0, 0.0, 0.0, 0.0, 0.0, 0.0, 0.0, 0.0, 0.0, 0.0, 0.0, 0.0, 0.0, 0.0, 0.0, 0.0, 0.0, 0.0, 0.0, 0.0, 0.0, 0.0, 0.0, 0.0, 0.0, 0.0, 0.0, 0.0, 0.0, 0.0, 0.0, 0.0, 0.0, 0.0, 0.0, 0.0, 0.0, 0.0, 0.0, 0.0, 0.0, 0.0, 0.0]}, "parameters/out_att.lin_l.weight": {"_type": "histogram", "values": [3.0, 1.0, 2.0, 2.0, 0.0, 0.0, 0.0, 0.0, 0.0, 0.0, 1.0, 2.0, 2.0, 1.0, 0.0, 0.0, 0.0, 1.0, 0.0, 0.0, 0.0, 0.0, 0.0, 0.0, 2.0, 0.0, 1.0, 0.0, 1.0, 0.0, 1.0, 0.0, 1.0, 0.0, 2.0, 2.0, 2.0, 0.0, 0.0, 1.0, 1.0, 1.0, 0.0, 1.0, 0.0, 0.0, 1.0, 0.0, 0.0, 0.0, 1.0, 0.0, 0.0, 0.0, 0.0, 0.0, 2.0, 0.0, 0.0, 1.0, 3.0, 0.0, 0.0, 1.0], "bins": [-0.3525769114494324, -0.3417588770389557, -0.330940842628479, -0.3201228082180023, -0.30930477380752563, -0.29848673939704895, -0.28766870498657227, -0.27685070037841797, -0.2660326361656189, -0.2552146017551422, -0.24439656734466553, -0.23357853293418884, -0.22276049852371216, -0.21194246411323547, -0.20112444460391998, -0.1903064101934433, -0.1794883906841278, -0.16867035627365112, -0.15785232186317444, -0.14703428745269775, -0.13621625304222107, -0.12539821863174438, -0.1145801991224289, -0.10376216471195221, -0.09294413030147552, -0.08212609589099884, -0.07130806148052216, -0.06049003452062607, -0.049672000110149384, -0.0388539656996727, -0.02803593873977661, -0.017217904329299927, -0.006399869918823242, 0.004418162629008293, 0.015236195176839828, 0.026054225862026215, 0.0368722602725029, 0.047690294682979584, 0.05850832164287567, 0.06932635605335236, 0.08014439046382904, 0.09096242487430573, 0.10178045928478241, 0.1125984862446785, 0.12341652065515518, 0.13423454761505127, 0.14505258202552795, 0.15587061643600464, 0.16668865084648132, 0.177506685256958, 0.1883247196674347, 0.19914275407791138, 0.20996078848838806, 0.22077882289886475, 0.23159684240818024, 0.24241487681865692, 0.2532328963279724, 0.2640509307384491, 0.2748689651489258, 0.28568699955940247, 0.29650503396987915, 0.30732306838035583, 0.3181411027908325, 0.3289591073989868, 0.3397771716117859]}, "_runtime": 35, "_timestamp": 1640275049, "_step": 2, "Learning rate value": 0.01996917333733128, "Learning rate action": 0.01996917333733128, "action_probs": {"_type": "histogram", "values": [3, 0, 0, 0, 0, 3, 0, 0, 0, 0, 0, 0, 0, 6, 0, 6, 0, 0, 0, 3, 0, 0, 0, 0, 0, 0, 0, 0, 0, 0, 0, 0, 0, 0, 0, 0, 0, 0, 0, 0, 3, 3, 0, 3, 3, 9, 0, 0, 0, 0, 3, 0, 0, 0, 0, 0, 0, 0, 0, 0, 0, 0, 0, 3], "bins": [0.39570194482803345, 0.3993079364299774, 0.4029139280319214, 0.40651991963386536, 0.4101259112358093, 0.4137319028377533, 0.41733789443969727, 0.42094388604164124, 0.4245498776435852, 0.42815589904785156, 0.43176189064979553, 0.4353678822517395, 0.43897387385368347, 0.44257986545562744, 0.4461858570575714, 0.4497918486595154, 0.45339784026145935, 0.4570038318634033, 0.4606098234653473, 0.46421581506729126, 0.46782180666923523, 0.4714277982711792, 0.47503378987312317, 0.47863978147506714, 0.4822458028793335, 0.48585179448127747, 0.48945778608322144, 0.4930637776851654, 0.4966697692871094, 0.500275731086731, 0.5038817524909973, 0.5074877142906189, 0.5110937356948853, 0.5146997570991516, 0.5183057188987732, 0.5219117403030396, 0.5255177021026611, 0.5291237235069275, 0.5327296853065491, 0.5363357067108154, 0.539941668510437, 0.5435476899147034, 0.547153651714325, 0.5507596731185913, 0.5543656349182129, 0.5579716563224792, 0.5615776181221008, 0.5651836395263672, 0.5687896013259888, 0.5723956227302551, 0.5760016441345215, 0.5796076059341431, 0.5832136273384094, 0.586819589138031, 0.5904256105422974, 0.594031572341919, 0.5976375937461853, 0.6012435555458069, 0.6048495769500732, 0.6084555387496948, 0.6120615601539612, 0.6156675219535828, 0.6192735433578491, 0.6228795051574707, 0.6264855265617371]}, "stop_go_action": {"_type": "histogram", "values": [27, 0, 0, 0, 0, 0, 0, 0, 0, 0, 0, 0, 0, 0, 0, 0, 0, 0, 0, 0, 0, 0, 0, 0, 0, 0, 0, 0, 0, 0, 0, 0, 0, 0, 0, 0, 0, 0, 0, 0, 0, 0, 0, 0, 0, 0, 0, 0, 0, 0, 0, 0, 0, 0, 0, 0, 0, 0, 0, 0, 0, 0, 0, 21], "bins": [0.0, 0.015625, 0.03125, 0.046875, 0.0625, 0.078125, 0.09375, 0.109375, 0.125, 0.140625, 0.15625, 0.171875, 0.1875, 0.203125, 0.21875, 0.234375, 0.25, 0.265625, 0.28125, 0.296875, 0.3125, 0.328125, 0.34375, 0.359375, 0.375, 0.390625, 0.40625, 0.421875, 0.4375, 0.453125, 0.46875, 0.484375, 0.5, 0.515625, 0.53125, 0.546875, 0.5625, 0.578125, 0.59375, 0.609375, 0.625, 0.640625, 0.65625, 0.671875, 0.6875, 0.703125, 0.71875, 0.734375, 0.75, 0.765625, 0.78125, 0.796875, 0.8125, 0.828125, 0.84375, 0.859375, 0.875, 0.890625, 0.90625, 0.921875, 0.9375, 0.953125, 0.96875, 0.984375, 1.0]}, "node_values": {"_type": "histogram", "values": [5, 0, 0, 0, 0, 2, 0, 0, 0, 0, 0, 2, 4, 0, 0, 0, 0, 0, 1, 0, 0, 0, 0, 0, 0, 0, 0, 0, 0, 0, 0, 0, 0, 0, 0, 0, 0, 0, 0, 0, 0, 0, 0, 0, 0, 0, 0, 0, 0, 0, 0, 0, 0, 0, 0, 0, 0, 0, 1, 0, 0, 0, 0, 1], "bins": [-0.1713932454586029, -0.1539871538989246, -0.13658106233924627, -0.11917497077956796, -0.10176887921988964, -0.08436278766021132, -0.06695669610053301, -0.04955060454085469, -0.032144512981176376, -0.01473842142149806, 0.002667670138180256, 0.020073761697858572, 0.03747985325753689, 0.054885944817215204, 0.07229203637689352, 0.08969812793657184, 0.10710421949625015, 0.12451031105592847, 0.14191640261560678, 0.1593224941752851, 0.17672858573496342, 0.19413467729464173, 0.21154076885432005, 0.22894686041399837, 0.24635295197367668, 0.263759043533355, 0.2811651350930333, 0.29857122665271163, 0.31597731821238995, 0.33338340977206826, 0.3507895013317466, 0.3681955928914249, 0.3856016844511032, 0.4030077760107815, 0.42041386757045984, 0.43781995913013816, 0.4552260506898165, 0.4726321422494948, 0.4900382338091731, 0.5074443253688514, 0.5248504169285297, 0.542256508488208, 0.5596626000478864, 0.5770686916075647, 0.594474783167243, 0.6118808747269213, 0.6292869662865996, 0.646693057846278, 0.6640991494059563, 0.6815052409656346, 0.6989113325253129, 0.7163174240849912, 0.7337235156446695, 0.7511296072043478, 0.7685356987640262, 0.7859417903237045, 0.8033478818833828, 0.8207539734430611, 0.8381600650027394, 0.8555661565624177, 0.8729722481220961, 0.8903783396817744, 0.9077844312414527, 0.925190522801131, 0.9425966143608093]}, "episode_rewards": {"_type": "histogram", "values": [3, 0, 0, 0, 0, 0, 0, 0, 0, 0, 0, 0, 0, 0, 0, 0, 0, 0, 0, 0, 0, 0, 0, 0, 0, 0, 0, 0, 0, 0, 0, 0, 0, 0, 0, 0, 0, 0, 0, 0, 0, 0, 0, 0, 0, 0, 0, 0, 15, 0, 0, 0, 0, 0, 0, 0, 0, 0, 0, 0, 3, 0, 0, 9], "bins": [-16.0, -15.75, -15.5, -15.25, -15.0, -14.75, -14.5, -14.25, -14.0, -13.75, -13.5, -13.25, -13.0, -12.75, -12.5, -12.25, -12.0, -11.75, -11.5, -11.25, -11.0, -10.75, -10.5, -10.25, -10.0, -9.75, -9.5, -9.25, -9.0, -8.75, -8.5, -8.25, -8.0, -7.75, -7.5, -7.25, -7.0, -6.75, -6.5, -6.25, -6.0, -5.75, -5.5, -5.25, -5.0, -4.75, -4.5, -4.25, -4.0, -3.75, -3.5, -3.25, -3.0, -2.75, -2.5, -2.25, -2.0, -1.75, -1.5, -1.25, -1.0, -0.75, -0.5, -0.25, 0.0]}, "_wandb": {"runtime": 32}}