{"parameters/attention_0.att_l": {"_type": "histogram", "values": [1.0, 0.0, 0.0, 0.0, 1.0, 0.0, 0.0, 0.0, 2.0, 0.0, 1.0, 0.0, 3.0, 3.0, 0.0, 0.0, 0.0, 0.0, 0.0, 0.0, 0.0, 0.0, 1.0, 0.0, 1.0, 0.0, 1.0, 0.0, 1.0, 2.0, 2.0, 2.0, 1.0, 0.0, 0.0, 1.0, 0.0, 1.0, 0.0, 2.0, 2.0, 2.0, 2.0, 0.0, 1.0, 0.0, 0.0, 0.0, 2.0, 0.0, 2.0, 0.0, 1.0, 0.0, 0.0, 1.0, 0.0, 0.0, 0.0, 0.0, 0.0, 0.0, 0.0, 1.0], "bins": [-0.6609655618667603, -0.6389775276184082, -0.6169894933700562, -0.5950014591217041, -0.573013424873352, -0.551025390625, -0.529037356376648, -0.5070493221282959, -0.48506128787994385, -0.4630732536315918, -0.44108521938323975, -0.4190971851348877, -0.39710915088653564, -0.3751211166381836, -0.35313308238983154, -0.3311450481414795, -0.30915704369544983, -0.2871690094470978, -0.2651809751987457, -0.24319294095039368, -0.22120490670204163, -0.19921687245368958, -0.17722885310649872, -0.15524081885814667, -0.13325278460979462, -0.11126475036144257, -0.08927671611309052, -0.06728868931531906, -0.04530065506696701, -0.02331262081861496, -0.0013245940208435059, 0.020663440227508545, 0.042651474475860596, 0.06463950872421265, 0.0866275429725647, 0.10861556977033615, 0.1306036114692688, 0.15259164571762085, 0.1745796650648117, 0.19656769931316376, 0.2185557335615158, 0.24054376780986786, 0.2625317871570587, 0.28451982140541077, 0.3065078556537628, 0.32849588990211487, 0.3504839241504669, 0.37247195839881897, 0.394459992647171, 0.41644802689552307, 0.4384360611438751, 0.4604240953922272, 0.4824121296405792, 0.5044001340866089, 0.5263881683349609, 0.548376202583313, 0.570364236831665, 0.5923522710800171, 0.6143403053283691, 0.6363283395767212, 0.6583163738250732, 0.6803044080734253, 0.7022924423217773, 0.7242804765701294, 0.7462685108184814]}, "parameters/attention_0.att_r": {"_type": "histogram", "values": [2.0, 0.0, 1.0, 0.0, 1.0, 0.0, 0.0, 0.0, 0.0, 0.0, 0.0, 1.0, 0.0, 0.0, 1.0, 0.0, 0.0, 1.0, 2.0, 0.0, 0.0, 1.0, 2.0, 0.0, 1.0, 0.0, 3.0, 0.0, 1.0, 0.0, 2.0, 0.0, 2.0, 1.0, 1.0, 0.0, 0.0, 0.0, 1.0, 1.0, 1.0, 0.0, 0.0, 0.0, 1.0, 1.0, 1.0, 2.0, 0.0, 0.0, 1.0, 0.0, 0.0, 0.0, 2.0, 0.0, 1.0, 0.0, 0.0, 1.0, 0.0, 1.0, 2.0, 1.0], "bins": [-0.6094002723693848, -0.5896728038787842, -0.5699452757835388, -0.5502178072929382, -0.5304902791976929, -0.5107628107070923, -0.4910353422164917, -0.4713078439235687, -0.45158034563064575, -0.4318528473377228, -0.4121253490447998, -0.3923978805541992, -0.37267038226127625, -0.35294288396835327, -0.3332154154777527, -0.3134879171848297, -0.29376041889190674, -0.27403292059898376, -0.2543054223060608, -0.2345779538154602, -0.21485045552253723, -0.19512295722961426, -0.17539547383785248, -0.1556679904460907, -0.13594049215316772, -0.11621300131082535, -0.09648551046848297, -0.0767580196261406, -0.05703052878379822, -0.03730303794145584, -0.017575547099113464, 0.0021519362926483154, 0.021879494190216064, 0.04160698503255844, 0.06133447587490082, 0.0810619667172432, 0.10078945755958557, 0.12051694840192795, 0.14024443924427032, 0.1599719226360321, 0.17969942092895508, 0.19942691922187805, 0.21915440261363983, 0.2388818860054016, 0.2586093842983246, 0.27833688259124756, 0.29806435108184814, 0.3177918493747711, 0.3375193476676941, 0.35724684596061707, 0.37697434425354004, 0.3967018127441406, 0.4164293110370636, 0.4361568093299866, 0.45588427782058716, 0.47561177611351013, 0.4953392744064331, 0.5150667428970337, 0.534794270992279, 0.5545217394828796, 0.574249267578125, 0.5939767360687256, 0.6137042045593262, 0.6334316730499268, 0.6531592011451721]}, "parameters/attention_0.bias": {"_type": "histogram", "values": [1.0, 0.0, 0.0, 0.0, 0.0, 1.0, 1.0, 1.0, 0.0, 0.0, 1.0, 2.0, 2.0, 0.0, 0.0, 1.0, 2.0, 2.0, 3.0, 1.0, 0.0, 2.0, 1.0, 0.0, 0.0, 0.0, 0.0, 1.0, 2.0, 1.0, 0.0, 0.0, 2.0, 0.0, 0.0, 0.0, 0.0, 0.0, 2.0, 0.0, 1.0, 0.0, 1.0, 0.0, 1.0, 3.0, 1.0, 0.0, 0.0, 0.0, 1.0, 0.0, 0.0, 0.0, 0.0, 0.0, 0.0, 1.0, 0.0, 0.0, 1.0, 0.0, 0.0, 1.0], "bins": [-0.0893353670835495, -0.08650954067707062, -0.08368371427059174, -0.08085789531469345, -0.07803206890821457, -0.07520624250173569, -0.0723804235458374, -0.06955459713935852, -0.06672877073287964, -0.06390294432640076, -0.06107712164521217, -0.05825129896402359, -0.05542547255754471, -0.052599646151065826, -0.04977382346987724, -0.04694800078868866, -0.04412217438220978, -0.041296347975730896, -0.03847052529454231, -0.03564470261335373, -0.03281887620687485, -0.029993051663041115, -0.027167227119207382, -0.02434140257537365, -0.021515578031539917, -0.018689753487706184, -0.015863928943872452, -0.01303810440003872, -0.010212279856204987, -0.007386455312371254, -0.004560630768537521, -0.0017348062247037888, 0.0010910257697105408, 0.003916850313544273, 0.006742674857378006, 0.009568499401211739, 0.012394323945045471, 0.015220148488879204, 0.018045973032712936, 0.02087179757654667, 0.0236976221203804, 0.026523446664214134, 0.029349271208047867, 0.03217509388923645, 0.03500092029571533, 0.037826746702194214, 0.0406525693833828, 0.04347839206457138, 0.04630421847105026, 0.049130044877529144, 0.05195586755871773, 0.05478169023990631, 0.05760751664638519, 0.060433343052864075, 0.06325916945934296, 0.06608498841524124, 0.06891081482172012, 0.071736641228199, 0.07456246018409729, 0.07738828659057617, 0.08021411299705505, 0.08303993940353394, 0.08586576581001282, 0.0886915847659111, 0.09151741117238998]}, "parameters/attention_0.lin_l.weight": {"_type": "histogram", "values": [2.0, 2.0, 5.0, 14.0, 15.0, 11.0, 16.0, 16.0, 18.0, 18.0, 17.0, 15.0, 11.0, 20.0, 15.0, 22.0, 16.0, 11.0, 15.0, 8.0, 16.0, 16.0, 13.0, 19.0, 14.0, 17.0, 19.0, 21.0, 8.0, 21.0, 14.0, 17.0, 14.0, 20.0, 11.0, 10.0, 16.0, 25.0, 23.0, 20.0, 14.0, 14.0, 15.0, 15.0, 12.0, 13.0, 17.0, 14.0, 11.0, 22.0, 23.0, 14.0, 10.0, 2.0, 1.0, 0.0, 1.0, 0.0, 0.0, 0.0, 0.0, 0.0, 0.0, 1.0], "bins": [-0.35009893774986267, -0.3374636471271515, -0.3248283863067627, -0.3121930956840515, -0.29955780506134033, -0.28692251443862915, -0.27428725361824036, -0.2616519629955292, -0.2490166872739792, -0.2363814115524292, -0.22374612092971802, -0.21111084520816803, -0.19847556948661804, -0.18584027886390686, -0.17320500314235687, -0.16056972742080688, -0.1479344367980957, -0.13529916107654572, -0.12266387045383453, -0.11002859473228455, -0.09739331156015396, -0.08475802838802338, -0.07212275266647339, -0.059487469494342804, -0.04685218632221222, -0.034216903150081635, -0.02158162370324135, -0.008946344256401062, 0.0036889389157295227, 0.016324222087860107, 0.028959497809410095, 0.04159478098154068, 0.05423003435134888, 0.06686531752347946, 0.07950060069561005, 0.09213587641716003, 0.10477115958929062, 0.1174064427614212, 0.1300417184829712, 0.14267700910568237, 0.15531228482723236, 0.16794756054878235, 0.18058285117149353, 0.19321812689304352, 0.2058534026145935, 0.2184886932373047, 0.23112396895885468, 0.24375924468040466, 0.25639453530311584, 0.269029825925827, 0.2816650867462158, 0.294300377368927, 0.3069356679916382, 0.31957095861434937, 0.33220621943473816, 0.34484151005744934, 0.35747677087783813, 0.3701120615005493, 0.3827473223209381, 0.3953826129436493, 0.4080179035663605, 0.42065316438674927, 0.43328845500946045, 0.44592374563217163, 0.4585590362548828]}, "parameters/attention_1.att_l": {"_type": "histogram", "values": [3.0, 1.0, 0.0, 0.0, 0.0, 1.0, 0.0, 0.0, 2.0, 1.0, 2.0, 0.0, 1.0, 1.0, 2.0, 2.0, 0.0, 1.0, 1.0, 1.0, 0.0, 0.0, 0.0, 0.0, 1.0, 0.0, 0.0, 0.0, 1.0, 2.0, 1.0, 0.0, 1.0, 0.0, 1.0, 0.0, 0.0, 1.0, 0.0, 1.0, 2.0, 0.0, 0.0, 0.0, 0.0, 2.0, 0.0, 0.0, 0.0, 1.0, 2.0, 0.0, 0.0, 1.0, 0.0, 1.0, 1.0, 0.0, 0.0, 0.0, 0.0, 0.0, 1.0, 1.0], "bins": [-0.6086365580558777, -0.588958740234375, -0.5692809820175171, -0.5496031641960144, -0.5299253463745117, -0.5102475881576538, -0.4905697703361511, -0.4708919823169708, -0.4512141942977905, -0.43153640627861023, -0.41185861825942993, -0.39218080043792725, -0.37250301241874695, -0.35282522439956665, -0.33314740657806396, -0.31346961855888367, -0.29379183053970337, -0.27411404252052307, -0.2544362545013428, -0.2347584366798401, -0.2150806486606598, -0.1954028606414795, -0.175725057721138, -0.1560472548007965, -0.1363694667816162, -0.11669167131185532, -0.09701387584209442, -0.07733608037233353, -0.05765828490257263, -0.03798048943281174, -0.018302693963050842, 0.0013751089572906494, 0.021052896976470947, 0.04073069244623184, 0.06040848791599274, 0.08008628338575363, 0.09976407885551453, 0.11944187432527542, 0.13911966979503632, 0.1587974727153778, 0.1784752607345581, 0.1981530487537384, 0.2178308516740799, 0.2375086545944214, 0.2571864426136017, 0.276864230632782, 0.29654204845428467, 0.31621983647346497, 0.33589762449264526, 0.35557541251182556, 0.37525320053100586, 0.39493101835250854, 0.41460880637168884, 0.43428659439086914, 0.4539644122123718, 0.4736422002315521, 0.4933199882507324, 0.5129978060722351, 0.532675564289093, 0.5523533821105957, 0.5720311403274536, 0.5917089581489563, 0.611386775970459, 0.6310645341873169, 0.6507423520088196]}, "parameters/attention_1.att_r": {"_type": "histogram", "values": [1.0, 1.0, 2.0, 0.0, 0.0, 0.0, 1.0, 1.0, 2.0, 0.0, 1.0, 2.0, 0.0, 0.0, 0.0, 0.0, 1.0, 1.0, 2.0, 0.0, 0.0, 1.0, 0.0, 0.0, 0.0, 0.0, 2.0, 1.0, 1.0, 1.0, 1.0, 0.0, 2.0, 1.0, 1.0, 0.0, 1.0, 0.0, 0.0, 0.0, 0.0, 0.0, 0.0, 0.0, 0.0, 1.0, 1.0, 0.0, 4.0, 0.0, 0.0, 0.0, 1.0, 0.0, 0.0, 1.0, 0.0, 3.0, 0.0, 1.0, 0.0, 0.0, 0.0, 1.0], "bins": [-0.640589714050293, -0.6221664547920227, -0.6037431955337524, -0.5853199362754822, -0.5668966770172119, -0.5484734177589417, -0.5300501585006714, -0.5116268992424011, -0.49320363998413086, -0.4747803807258606, -0.45635712146759033, -0.43793386220932007, -0.4195106029510498, -0.40108734369277954, -0.3826640844345093, -0.364240825176239, -0.34581756591796875, -0.3273943066596985, -0.3089710474014282, -0.29054778814315796, -0.2721245288848877, -0.25370126962661743, -0.23527801036834717, -0.2168547511100769, -0.19843149185180664, -0.18000823259353638, -0.1615849733352661, -0.14316171407699585, -0.12473845481872559, -0.10631519556045532, -0.08789193630218506, -0.0694686770439148, -0.05104547739028931, -0.03262221813201904, -0.01419895887374878, 0.004224300384521484, 0.022647559642791748, 0.04107081890106201, 0.059494078159332275, 0.07791733741760254, 0.0963405966758728, 0.11476385593414307, 0.13318711519241333, 0.1516103744506836, 0.17003363370895386, 0.18845689296722412, 0.20688015222549438, 0.22530341148376465, 0.2437266707420349, 0.2621499300003052, 0.28057318925857544, 0.2989964485168457, 0.31741970777511597, 0.33584296703338623, 0.3542662262916565, 0.37268948554992676, 0.391112744808197, 0.4095360040664673, 0.42795926332473755, 0.4463825225830078, 0.4648057818412781, 0.48322904109954834, 0.5016523003578186, 0.5200755596160889, 0.5384988188743591]}, "parameters/attention_1.bias": {"_type": "histogram", "values": [1.0, 0.0, 0.0, 0.0, 0.0, 1.0, 1.0, 0.0, 1.0, 1.0, 0.0, 1.0, 0.0, 0.0, 1.0, 0.0, 0.0, 0.0, 0.0, 1.0, 1.0, 0.0, 0.0, 0.0, 0.0, 0.0, 0.0, 0.0, 0.0, 0.0, 0.0, 2.0, 2.0, 11.0, 1.0, 1.0, 0.0, 2.0, 1.0, 0.0, 2.0, 2.0, 0.0, 0.0, 2.0, 0.0, 0.0, 0.0, 0.0, 0.0, 1.0, 0.0, 1.0, 0.0, 0.0, 0.0, 0.0, 0.0, 1.0, 0.0, 0.0, 1.0, 0.0, 1.0], "bins": [-0.06139674410223961, -0.059559211134910583, -0.05772167816758156, -0.05588414520025253, -0.05404660850763321, -0.052209075540304184, -0.05037154257297516, -0.04853400960564613, -0.04669647663831711, -0.04485894367098808, -0.04302141070365906, -0.041183874011039734, -0.03934634104371071, -0.03750880807638168, -0.03567127510905266, -0.03383374214172363, -0.03199620544910431, -0.030158672481775284, -0.02832113765180111, -0.026483604684472084, -0.02464606985449791, -0.022808536887168884, -0.02097100391983986, -0.019133470952510834, -0.01729593612253666, -0.01545840222388506, -0.01362086832523346, -0.011783335357904434, -0.009945801459252834, -0.008108267560601234, -0.006270734593272209, -0.004433200694620609, -0.002595670521259308, -0.0007581368554383516, 0.0010793968103826046, 0.002916930243372917, 0.004754464142024517, 0.006591998040676117, 0.008429531008005142, 0.010267064906656742, 0.012104598805308342, 0.013942132703959942, 0.015779666602611542, 0.017617199569940567, 0.019454732537269592, 0.021292267367243767, 0.023129800334572792, 0.024967335164546967, 0.026804868131875992, 0.028642401099205017, 0.03047993592917919, 0.03231746703386307, 0.03415500372648239, 0.03599253669381142, 0.03783006966114044, 0.03966760262846947, 0.04150513559579849, 0.04334266856312752, 0.04518020153045654, 0.04701773822307587, 0.04885527119040489, 0.05069280415773392, 0.05253033712506294, 0.05436787009239197, 0.05620540678501129]}, "parameters/attention_1.lin_l.weight": {"_type": "histogram", "values": [4.0, 2.0, 26.0, 16.0, 33.0, 24.0, 36.0, 22.0, 21.0, 30.0, 19.0, 24.0, 35.0, 30.0, 25.0, 37.0, 42.0, 21.0, 34.0, 30.0, 33.0, 35.0, 25.0, 43.0, 27.0, 27.0, 28.0, 31.0, 19.0, 25.0, 32.0, 22.0, 39.0, 20.0, 30.0, 29.0, 29.0, 28.0, 32.0, 29.0, 27.0, 25.0, 27.0, 35.0, 28.0, 22.0, 28.0, 27.0, 31.0, 24.0, 36.0, 29.0, 28.0, 22.0, 30.0, 30.0, 22.0, 26.0, 2.0, 3.0, 1.0, 1.0, 0.0, 2.0], "bins": [-0.295791357755661, -0.28593385219573975, -0.2760763168334961, -0.26621881127357483, -0.25636130571365356, -0.2465038001537323, -0.23664627969264984, -0.22678875923156738, -0.21693125367164612, -0.20707374811172485, -0.1972162276506424, -0.18735870718955994, -0.17750120162963867, -0.1676436960697174, -0.15778617560863495, -0.1479286551475525, -0.13807114958763123, -0.12821364402770996, -0.1183561235666275, -0.10849861055612564, -0.09864109754562378, -0.08878358453512192, -0.07892607152462006, -0.0690685585141182, -0.05921104550361633, -0.04935353249311447, -0.03949601948261261, -0.02963850647211075, -0.019780993461608887, -0.009923480451107025, -6.596744060516357e-05, 0.009791545569896698, 0.01964905858039856, 0.02950657159090042, 0.03936408460140228, 0.049221597611904144, 0.059079110622406006, 0.06893662363290787, 0.07879413664340973, 0.08865164965391159, 0.09850916266441345, 0.10836667567491531, 0.11822418868541718, 0.12808170914649963, 0.1379392147064209, 0.14779672026634216, 0.15765424072742462, 0.16751176118850708, 0.17736926674842834, 0.1872267723083496, 0.19708429276943207, 0.20694181323051453, 0.2167993187904358, 0.22665682435035706, 0.23651434481143951, 0.24637186527252197, 0.25622937083244324, 0.2660868763923645, 0.27594441175460815, 0.2858019173145294, 0.2956594228744507, 0.30551692843437195, 0.3153744339942932, 0.32523196935653687, 0.33508947491645813]}, "parameters/attention_2.att_l": {"_type": "histogram", "values": [1.0, 0.0, 0.0, 0.0, 0.0, 3.0, 0.0, 0.0, 0.0, 0.0, 0.0, 0.0, 2.0, 0.0, 0.0, 0.0, 0.0, 0.0, 1.0, 0.0, 0.0, 0.0, 3.0, 3.0, 0.0, 1.0, 0.0, 1.0, 0.0, 0.0, 4.0, 2.0, 1.0, 1.0, 1.0, 0.0, 0.0, 1.0, 1.0, 0.0, 0.0, 0.0, 1.0, 0.0, 1.0, 0.0, 2.0, 2.0, 0.0, 1.0, 0.0, 3.0, 0.0, 0.0, 0.0, 1.0, 0.0, 0.0, 0.0, 0.0, 0.0, 1.0, 1.0, 1.0], "bins": [-0.6507179737091064, -0.6310684084892273, -0.6114188432693481, -0.591769278049469, -0.5721197128295898, -0.5524702072143555, -0.5328206419944763, -0.5131710767745972, -0.493521511554718, -0.47387194633483887, -0.4542223811149597, -0.43457284569740295, -0.4149232804775238, -0.39527371525764465, -0.3756241798400879, -0.35597461462020874, -0.3363250494003296, -0.31667548418045044, -0.2970259189605713, -0.2773763835430145, -0.2577268183231354, -0.23807725310325623, -0.21842770278453827, -0.1987781524658203, -0.17912858724594116, -0.159479022026062, -0.13982947170734406, -0.1201799139380455, -0.10053035616874695, -0.0808807983994484, -0.06123124063014984, -0.041581690311431885, -0.02193206548690796, -0.0022825077176094055, 0.017367050051689148, 0.0370166078209877, 0.056666165590286255, 0.07631572335958481, 0.09596528112888336, 0.11561483144760132, 0.13526439666748047, 0.15491396188735962, 0.17456351220607758, 0.19421306252479553, 0.21386262774467468, 0.23351219296455383, 0.2531617283821106, 0.27281129360198975, 0.2924608588218689, 0.31211042404174805, 0.3317599892616272, 0.35140952467918396, 0.3710590898990631, 0.39070865511894226, 0.410358190536499, 0.4300077557563782, 0.4496573209762573, 0.4693068861961365, 0.4889564514160156, 0.5086060166358948, 0.5282555818557739, 0.5479050874710083, 0.5675546526908875, 0.5872042179107666, 0.6068537831306458]}, "parameters/attention_2.att_r": {"_type": "histogram", "values": [2.0, 0.0, 1.0, 0.0, 2.0, 1.0, 0.0, 0.0, 0.0, 1.0, 2.0, 1.0, 0.0, 1.0, 0.0, 0.0, 0.0, 0.0, 0.0, 0.0, 0.0, 1.0, 0.0, 0.0, 0.0, 0.0, 0.0, 0.0, 1.0, 0.0, 2.0, 0.0, 0.0, 0.0, 0.0, 1.0, 3.0, 1.0, 2.0, 0.0, 0.0, 1.0, 0.0, 0.0, 2.0, 0.0, 1.0, 0.0, 1.0, 0.0, 2.0, 0.0, 3.0, 2.0, 0.0, 0.0, 0.0, 1.0, 0.0, 1.0, 2.0, 0.0, 1.0, 1.0], "bins": [-0.6443471312522888, -0.624144971370697, -0.6039428114891052, -0.5837407112121582, -0.5635385513305664, -0.5433363914489746, -0.5231342315673828, -0.502932071685791, -0.482729971408844, -0.4625278115272522, -0.4423256814479828, -0.422123521566391, -0.4019213914871216, -0.3817192316055298, -0.361517071723938, -0.3413149416446686, -0.3211127817630768, -0.300910621881485, -0.2807084918022156, -0.2605063319206238, -0.24030420184135437, -0.22010204195976257, -0.19989989697933197, -0.17969775199890137, -0.15949560701847076, -0.13929346203804016, -0.11909131705760956, -0.09888916462659836, -0.07868701964616776, -0.05848487466573715, -0.03828272223472595, -0.01808057725429535, 0.002121567726135254, 0.022323714569211006, 0.04252586141228676, 0.06272801011800766, 0.08293015509843826, 0.10313230007886887, 0.12333445250988007, 0.14353659749031067, 0.16373874247074127, 0.18394088745117188, 0.20414303243160248, 0.22434517741203308, 0.24454733729362488, 0.2647494673728943, 0.2849516272544861, 0.3051537871360779, 0.3253559172153473, 0.3455580770969391, 0.3657602071762085, 0.3859623670578003, 0.4061644971370697, 0.4263666570186615, 0.4465687870979309, 0.4667709469795227, 0.4869731068611145, 0.5071752667427063, 0.5273774266242981, 0.5475795269012451, 0.5677816867828369, 0.5879838466644287, 0.6081860065460205, 0.6283881664276123, 0.6485902667045593]}, "parameters/attention_2.bias": {"_type": "histogram", "values": [1.0, 0.0, 0.0, 1.0, 1.0, 0.0, 1.0, 0.0, 1.0, 1.0, 0.0, 0.0, 0.0, 0.0, 1.0, 0.0, 0.0, 0.0, 0.0, 1.0, 0.0, 0.0, 2.0, 0.0, 0.0, 0.0, 0.0, 0.0, 1.0, 0.0, 0.0, 1.0, 1.0, 9.0, 1.0, 0.0, 1.0, 1.0, 3.0, 1.0, 1.0, 2.0, 0.0, 0.0, 1.0, 0.0, 0.0, 0.0, 1.0, 1.0, 0.0, 0.0, 1.0, 0.0, 0.0, 0.0, 0.0, 0.0, 2.0, 0.0, 0.0, 1.0, 0.0, 1.0], "bins": [-0.06139053776860237, -0.05955306440591812, -0.05771558731794357, -0.05587811395525932, -0.05404064059257507, -0.05220316722989082, -0.050365693867206573, -0.048528216779232025, -0.046690743416547775, -0.044853270053863525, -0.04301579296588898, -0.04117831960320473, -0.03934084624052048, -0.03750337287783623, -0.03566589951515198, -0.03382842242717743, -0.03199094906449318, -0.03015347570180893, -0.02831600047647953, -0.02647852525115013, -0.02464105188846588, -0.02280357852578163, -0.020966103300452232, -0.019128628075122833, -0.017291154712438583, -0.015453680418431759, -0.013616206124424934, -0.01177873183041811, -0.009941257536411285, -0.008103783242404461, -0.006266308948397636, -0.004428834654390812, -0.0025913603603839874, -0.0007538860663771629, 0.0010835882276296616, 0.002921062521636486, 0.0047585368156433105, 0.006596011109650135, 0.00843348540365696, 0.010270959697663784, 0.012108433991670609, 0.013945908285677433, 0.015783382579684258, 0.017620857805013657, 0.019458331167697906, 0.021295804530382156, 0.023133279755711555, 0.024970754981040955, 0.026808228343725204, 0.028645701706409454, 0.030483176931738853, 0.03232065215706825, 0.0341581255197525, 0.03599559888243675, 0.037833072245121, 0.03967054933309555, 0.0415080226957798, 0.04334549605846405, 0.0451829731464386, 0.04702044650912285, 0.0488579198718071, 0.05069539323449135, 0.0525328665971756, 0.054370343685150146, 0.056207817047834396]}, "parameters/attention_2.lin_l.weight": {"_type": "histogram", "values": [22.0, 28.0, 28.0, 22.0, 30.0, 25.0, 29.0, 24.0, 22.0, 21.0, 16.0, 25.0, 23.0, 18.0, 25.0, 23.0, 17.0, 25.0, 31.0, 27.0, 34.0, 28.0, 31.0, 27.0, 30.0, 24.0, 21.0, 22.0, 21.0, 29.0, 28.0, 33.0, 25.0, 23.0, 28.0, 18.0, 27.0, 31.0, 29.0, 28.0, 26.0, 21.0, 26.0, 29.0, 25.0, 24.0, 29.0, 26.0, 17.0, 26.0, 32.0, 24.0, 25.0, 21.0, 25.0, 25.0, 26.0, 17.0, 31.0, 22.0, 19.0, 18.0, 24.0, 24.0], "bins": [-0.27379000186920166, -0.26523345708847046, -0.25667688250541687, -0.24812033772468567, -0.23956377804279327, -0.23100721836090088, -0.22245065867900848, -0.2138940989971161, -0.2053375542163849, -0.1967809945344925, -0.1882244348526001, -0.1796678900718689, -0.1711113303899765, -0.1625547707080841, -0.1539982110261917, -0.14544165134429932, -0.13688509166240692, -0.12832853198051453, -0.11977197974920273, -0.11121542006731033, -0.10265886783599854, -0.09410230815410614, -0.08554574847221375, -0.07698918879032135, -0.06843263655900955, -0.059876080602407455, -0.05131952464580536, -0.042762964963912964, -0.03420640900731087, -0.02564985305070877, -0.017093293368816376, -0.00853673741221428, 1.9818544387817383e-05, 0.008576375432312489, 0.01713293232023716, 0.025689490139484406, 0.0342460460960865, 0.0428026020526886, 0.051359161734580994, 0.05991571769118309, 0.06847227364778519, 0.07702883332967758, 0.08558538556098938, 0.09414194524288177, 0.10269850492477417, 0.11125505715608597, 0.11981161683797836, 0.12836816906929016, 0.13692472875118256, 0.14548128843307495, 0.15403784811496735, 0.16259440779685974, 0.17115095257759094, 0.17970751225948334, 0.18826407194137573, 0.19682063162326813, 0.20537719130516052, 0.21393375098705292, 0.2224903106689453, 0.2310468554496765, 0.2396034151315689, 0.2481599748134613, 0.2567165493965149, 0.2652730941772461, 0.2738296389579773]}, "parameters/out_att.att_l": {"_type": "histogram", "values": [0.0, 0.0, 0.0, 0.0, 0.0, 0.0, 0.0, 0.0, 0.0, 0.0, 0.0, 0.0, 0.0, 0.0, 0.0, 0.0, 0.0, 0.0, 0.0, 0.0, 0.0, 0.0, 0.0, 0.0, 0.0, 0.0, 0.0, 0.0, 0.0, 0.0, 0.0, 0.0, 1.0, 0.0, 0.0, 0.0, 0.0, 0.0, 0.0, 0.0, 0.0, 0.0, 0.0, 0.0, 0.0, 0.0, 0.0, 0.0, 0.0, 0.0, 0.0, 0.0, 0.0, 0.0, 0.0, 0.0, 0.0, 0.0, 0.0, 0.0, 0.0, 0.0, 0.0, 0.0], "bins": [1.5695521831512451, 1.5695521831512451, 1.5695521831512451, 1.5695521831512451, 1.5695521831512451, 1.5695521831512451, 1.5695521831512451, 1.5695521831512451, 1.5695521831512451, 1.5695521831512451, 1.5695521831512451, 1.5695521831512451, 1.5695521831512451, 1.5695521831512451, 1.5695521831512451, 1.5695521831512451, 1.5695521831512451, 1.5695521831512451, 1.5695521831512451, 1.5695521831512451, 1.5695521831512451, 1.5695521831512451, 1.5695521831512451, 1.5695521831512451, 1.5695521831512451, 1.5695521831512451, 1.5695521831512451, 1.5695521831512451, 1.5695521831512451, 1.5695521831512451, 1.5695521831512451, 1.5695521831512451, 1.5695521831512451, 1.5695521831512451, 1.5695521831512451, 1.5695521831512451, 1.5695521831512451, 1.5695521831512451, 1.5695521831512451, 1.5695521831512451, 1.5695521831512451, 1.5695521831512451, 1.5695521831512451, 1.5695521831512451, 1.5695521831512451, 1.5695521831512451, 1.5695521831512451, 1.5695521831512451, 1.5695521831512451, 1.5695521831512451, 1.5695521831512451, 1.5695521831512451, 1.5695521831512451, 1.5695521831512451, 1.5695521831512451, 1.5695521831512451, 1.5695521831512451, 1.5695521831512451, 1.5695521831512451, 1.5695521831512451, 1.5695521831512451, 1.5695521831512451, 1.5695521831512451, 1.5695521831512451, 1.5695521831512451]}, "parameters/out_att.att_r": {"_type": "histogram", "values": [0.0, 0.0, 0.0, 0.0, 0.0, 0.0, 0.0, 0.0, 0.0, 0.0, 0.0, 0.0, 0.0, 0.0, 0.0, 0.0, 0.0, 0.0, 0.0, 0.0, 0.0, 0.0, 0.0, 0.0, 0.0, 0.0, 0.0, 0.0, 0.0, 0.0, 0.0, 0.0, 1.0, 0.0, 0.0, 0.0, 0.0, 0.0, 0.0, 0.0, 0.0, 0.0, 0.0, 0.0, 0.0, 0.0, 0.0, 0.0, 0.0, 0.0, 0.0, 0.0, 0.0, 0.0, 0.0, 0.0, 0.0, 0.0, 0.0, 0.0, 0.0, 0.0, 0.0, 0.0], "bins": [-0.7313084602355957, -0.7313084602355957, -0.7313084602355957, -0.7313084602355957, -0.7313084602355957, -0.7313084602355957, -0.7313084602355957, -0.7313084602355957, -0.7313084602355957, -0.7313084602355957, -0.7313084602355957, -0.7313084602355957, -0.7313084602355957, -0.7313084602355957, -0.7313084602355957, -0.7313084602355957, -0.7313084602355957, -0.7313084602355957, -0.7313084602355957, -0.7313084602355957, -0.7313084602355957, -0.7313084602355957, -0.7313084602355957, -0.7313084602355957, -0.7313084602355957, -0.7313084602355957, -0.7313084602355957, -0.7313084602355957, -0.7313084602355957, -0.7313084602355957, -0.7313084602355957, -0.7313084602355957, -0.7313084602355957, -0.7313084602355957, -0.7313084602355957, -0.7313084602355957, -0.7313084602355957, -0.7313084602355957, -0.7313084602355957, -0.7313084602355957, -0.7313084602355957, -0.7313084602355957, -0.7313084602355957, -0.7313084602355957, -0.7313084602355957, -0.7313084602355957, -0.7313084602355957, -0.7313084602355957, -0.7313084602355957, -0.7313084602355957, -0.7313084602355957, -0.7313084602355957, -0.7313084602355957, -0.7313084602355957, -0.7313084602355957, -0.7313084602355957, -0.7313084602355957, -0.7313084602355957, -0.7313084602355957, -0.7313084602355957, -0.7313084602355957, -0.7313084602355957, -0.7313084602355957, -0.7313084602355957, -0.7313084602355957]}, "parameters/out_att.bias": {"_type": "histogram", "values": [0.0, 0.0, 0.0, 0.0, 0.0, 0.0, 0.0, 0.0, 0.0, 0.0, 0.0, 0.0, 0.0, 0.0, 0.0, 0.0, 0.0, 0.0, 0.0, 0.0, 0.0, 0.0, 0.0, 0.0, 0.0, 0.0, 0.0, 0.0, 0.0, 0.0, 0.0, 0.0, 1.0, 0.0, 0.0, 0.0, 0.0, 0.0, 0.0, 0.0, 0.0, 0.0, 0.0, 0.0, 0.0, 0.0, 0.0, 0.0, 0.0, 0.0, 0.0, 0.0, 0.0, 0.0, 0.0, 0.0, 0.0, 0.0, 0.0, 0.0, 0.0, 0.0, 0.0, 0.0], "bins": [1.074074625968933, 1.074074625968933, 1.074074625968933, 1.074074625968933, 1.074074625968933, 1.074074625968933, 1.074074625968933, 1.074074625968933, 1.074074625968933, 1.074074625968933, 1.074074625968933, 1.074074625968933, 1.074074625968933, 1.074074625968933, 1.074074625968933, 1.074074625968933, 1.074074625968933, 1.074074625968933, 1.074074625968933, 1.074074625968933, 1.074074625968933, 1.074074625968933, 1.074074625968933, 1.074074625968933, 1.074074625968933, 1.074074625968933, 1.074074625968933, 1.074074625968933, 1.074074625968933, 1.074074625968933, 1.074074625968933, 1.074074625968933, 1.074074625968933, 1.074074625968933, 1.074074625968933, 1.074074625968933, 1.074074625968933, 1.074074625968933, 1.074074625968933, 1.074074625968933, 1.074074625968933, 1.074074625968933, 1.074074625968933, 1.074074625968933, 1.074074625968933, 1.074074625968933, 1.074074625968933, 1.074074625968933, 1.074074625968933, 1.074074625968933, 1.074074625968933, 1.074074625968933, 1.074074625968933, 1.074074625968933, 1.074074625968933, 1.074074625968933, 1.074074625968933, 1.074074625968933, 1.074074625968933, 1.074074625968933, 1.074074625968933, 1.074074625968933, 1.074074625968933, 1.074074625968933, 1.074074625968933]}, "parameters/out_att.lin_l.weight": {"_type": "histogram", "values": [1.0, 0.0, 0.0, 1.0, 0.0, 0.0, 2.0, 0.0, 0.0, 1.0, 2.0, 0.0, 0.0, 1.0, 1.0, 2.0, 1.0, 2.0, 2.0, 1.0, 0.0, 2.0, 1.0, 0.0, 0.0, 1.0, 0.0, 0.0, 1.0, 0.0, 1.0, 2.0, 0.0, 0.0, 0.0, 0.0, 3.0, 0.0, 0.0, 0.0, 0.0, 1.0, 1.0, 1.0, 1.0, 1.0, 0.0, 1.0, 1.0, 1.0, 0.0, 0.0, 1.0, 1.0, 1.0, 0.0, 0.0, 0.0, 0.0, 0.0, 0.0, 0.0, 0.0, 1.0], "bins": [-0.3551005423069, -0.34139159321784973, -0.32768264412879944, -0.31397366523742676, -0.30026471614837646, -0.28655576705932617, -0.2728468179702759, -0.2591378688812256, -0.2454289048910141, -0.2317199558019638, -0.21801099181175232, -0.20430204272270203, -0.19059309363365173, -0.17688412964344025, -0.16317518055438995, -0.14946621656417847, -0.13575726747512817, -0.12204831093549728, -0.1083393543958664, -0.0946304053068161, -0.08092144876718521, -0.06721249222755432, -0.05350354313850403, -0.03979458659887314, -0.02608563005924225, -0.012376675382256508, 0.0013322792947292328, 0.015041232109069824, 0.028750188648700714, 0.042459145188331604, 0.0561680942773819, 0.06987705081701279, 0.08358603715896606, 0.09729499369859695, 0.11100395023822784, 0.12471289932727814, 0.13842186331748962, 0.15213081240653992, 0.1658397614955902, 0.1795487105846405, 0.193257674574852, 0.20696662366390228, 0.22067558765411377, 0.23438453674316406, 0.24809348583221436, 0.26180243492126465, 0.27551138401031494, 0.2892203629016876, 0.3029293119907379, 0.3166382610797882, 0.3303472101688385, 0.3440561890602112, 0.3577651381492615, 0.37147408723831177, 0.38518303632736206, 0.39889198541641235, 0.41260093450546265, 0.42630988359451294, 0.44001883268356323, 0.4537277817726135, 0.4674367606639862, 0.4811457097530365, 0.4948546588420868, 0.5085636377334595, 0.5222725868225098]}, "_runtime": 33507, "_timestamp": 1641998062, "_step": 190, "Learning rate value": 0.0016500000000000048, "Learning rate action": 0.0016500000000000048, "epsilon": 0.21737906143493968, "action_probs": {"_type": "histogram", "values": [7, 0, 0, 0, 0, 0, 0, 0, 0, 0, 0, 0, 0, 0, 0, 77, 0, 7, 0, 0, 0, 0, 0, 0, 0, 0, 84, 0, 7, 0, 0, 0, 0, 0, 0, 0, 0, 0, 7, 0, 7, 0, 0, 0, 0, 7, 0, 7, 0, 7, 0, 0, 7, 14, 7, 7, 0, 0, 7, 7, 14, 14, 35, 49], "bins": [0.25103020668029785, 0.2627328634262085, 0.27443552017211914, 0.2861381769180298, 0.29784083366394043, 0.3095434606075287, 0.32124611735343933, 0.33294877409935, 0.3446514308452606, 0.35635408759117126, 0.3680567443370819, 0.37975940108299255, 0.3914620280265808, 0.40316468477249146, 0.4148673415184021, 0.42656999826431274, 0.4382726550102234, 0.44997531175613403, 0.4616779685020447, 0.4733806252479553, 0.48508328199386597, 0.4967859089374542, 0.5084885954856873, 0.5201912522315979, 0.5318938493728638, 0.5435965061187744, 0.5552991628646851, 0.5670018196105957, 0.5787044763565063, 0.590407133102417, 0.6021097898483276, 0.6138124465942383, 0.6255151033401489, 0.6372177600860596, 0.6489204168319702, 0.6606230735778809, 0.6723257303237915, 0.6840283870697021, 0.6957310438156128, 0.7074337005615234, 0.7191363573074341, 0.7308389544487, 0.7425416111946106, 0.7542442679405212, 0.7659469246864319, 0.7776495814323425, 0.7893522381782532, 0.8010548949241638, 0.8127575516700745, 0.8244602084159851, 0.8361628651618958, 0.8478655219078064, 0.859568178653717, 0.8712708353996277, 0.8829734921455383, 0.894676148891449, 0.9063787460327148, 0.9180814027786255, 0.9297840595245361, 0.9414867162704468, 0.9531893730163574, 0.9648920297622681, 0.9765946865081787, 0.9882973432540894, 1.0]}, "stop_go_action": {"_type": "histogram", "values": [119, 0, 0, 0, 0, 0, 0, 0, 0, 0, 0, 0, 0, 0, 0, 0, 0, 0, 0, 0, 0, 0, 0, 0, 0, 0, 0, 0, 0, 0, 0, 0, 0, 0, 0, 0, 0, 0, 0, 0, 0, 0, 0, 0, 0, 0, 0, 0, 0, 0, 0, 0, 0, 0, 0, 0, 0, 0, 0, 0, 0, 0, 0, 259], "bins": [0.0, 0.015625, 0.03125, 0.046875, 0.0625, 0.078125, 0.09375, 0.109375, 0.125, 0.140625, 0.15625, 0.171875, 0.1875, 0.203125, 0.21875, 0.234375, 0.25, 0.265625, 0.28125, 0.296875, 0.3125, 0.328125, 0.34375, 0.359375, 0.375, 0.390625, 0.40625, 0.421875, 0.4375, 0.453125, 0.46875, 0.484375, 0.5, 0.515625, 0.53125, 0.546875, 0.5625, 0.578125, 0.59375, 0.609375, 0.625, 0.640625, 0.65625, 0.671875, 0.6875, 0.703125, 0.71875, 0.734375, 0.75, 0.765625, 0.78125, 0.796875, 0.8125, 0.828125, 0.84375, 0.859375, 0.875, 0.890625, 0.90625, 0.921875, 0.9375, 0.953125, 0.96875, 0.984375, 1.0]}, "node_values": {"_type": "histogram", "values": [1, 0, 0, 1, 0, 0, 0, 0, 0, 0, 0, 0, 0, 2, 1, 0, 2, 0, 0, 0, 0, 0, 0, 0, 2, 1, 2, 1, 1, 0, 1, 3, 2, 0, 1, 2, 1, 2, 1, 3, 1, 3, 1, 1, 0, 2, 1, 0, 2, 1, 1, 1, 2, 1, 0, 1, 0, 1, 2, 1, 0, 1, 0, 1], "bins": [1.288875937461853, 1.327544579282403, 1.366213221102953, 1.404881862923503, 1.4435505047440529, 1.4822191465646029, 1.5208877883851528, 1.5595564302057028, 1.5982250720262527, 1.6368937138468027, 1.6755623556673527, 1.7142309974879026, 1.7528996393084526, 1.7915682811290026, 1.8302369229495525, 1.8689055647701025, 1.9075742065906525, 1.9462428484112024, 1.9849114902317524, 2.0235801320523024, 2.0622487738728523, 2.1009174156934023, 2.1395860575139523, 2.178254699334502, 2.216923341155052, 2.255591982975602, 2.294260624796152, 2.332929266616702, 2.371597908437252, 2.410266550257802, 2.448935192078352, 2.487603833898902, 2.526272475719452, 2.564941117540002, 2.603609759360552, 2.642278401181102, 2.6809470430016518, 2.7196156848222017, 2.7582843266427517, 2.7969529684633017, 2.8356216102838516, 2.8742902521044016, 2.9129588939249516, 2.9516275357455015, 2.9902961775660515, 3.0289648193866014, 3.0676334612071514, 3.1063021030277014, 3.1449707448482513, 3.1836393866688013, 3.2223080284893513, 3.2609766703099012, 3.299645312130451, 3.338313953951001, 3.376982595771551, 3.415651237592101, 3.454319879412651, 3.492988521233201, 3.531657163053751, 3.570325804874301, 3.608994446694851, 3.647663088515401, 3.686331730335951, 3.725000372156501, 3.763669013977051]}, "episode_rewards": {"_type": "histogram", "values": [35, 0, 0, 0, 0, 0, 0, 0, 0, 0, 0, 0, 0, 0, 0, 0, 0, 0, 0, 0, 28, 0, 0, 0, 0, 0, 0, 0, 0, 7, 0, 0, 0, 0, 0, 0, 0, 0, 0, 0, 0, 0, 0, 0, 0, 0, 0, 0, 0, 0, 0, 0, 21, 0, 56, 0, 0, 21, 0, 0, 0, 42, 0, 14], "bins": [-28.0, -27.5625, -27.125, -26.6875, -26.25, -25.8125, -25.375, -24.9375, -24.5, -24.0625, -23.625, -23.1875, -22.75, -22.3125, -21.875, -21.4375, -21.0, -20.5625, -20.125, -19.6875, -19.25, -18.8125, -18.375, -17.9375, -17.5, -17.0625, -16.625, -16.1875, -15.75, -15.3125, -14.875, -14.4375, -14.0, -13.5625, -13.125, -12.6875, -12.25, -11.8125, -11.375, -10.9375, -10.5, -10.0625, -9.625, -9.1875, -8.75, -8.3125, -7.875, -7.4375, -7.0, -6.5625, -6.125, -5.6875, -5.25, -4.8125, -4.375, -3.9375, -3.5, -3.0625, -2.625, -2.1875, -1.75, -1.3125, -0.875, -0.4375, 0.0]}, "avg_reward": -1622.4166666666667, "done_agents": 0.330952380952381, "deadlock_agents": 0.4345238095238095, "gradients/out_att.bias": {"_type": "histogram", "values": [0.0, 0.0, 0.0, 0.0, 0.0, 0.0, 0.0, 0.0, 0.0, 0.0, 0.0, 0.0, 0.0, 0.0, 0.0, 0.0, 0.0, 0.0, 0.0, 0.0, 0.0, 0.0, 0.0, 0.0, 0.0, 0.0, 0.0, 0.0, 0.0, 0.0, 0.0, 1.0, 0.0, 0.0, 0.0, 0.0, 0.0, 0.0, 0.0, 0.0, 0.0, 0.0, 0.0, 0.0, 0.0, 0.0, 0.0, 0.0, 0.0, 0.0, 0.0, 0.0, 0.0, 0.0, 0.0, 0.0, 0.0, 0.0, 0.0, 0.0, 0.0, 0.0, 0.0, 0.0], "bins": [-0.11940722167491913, -0.11940722167491913, -0.11940722167491913, -0.11940722167491913, -0.11940722167491913, -0.11940722167491913, -0.11940722167491913, -0.11940722167491913, -0.11940722167491913, -0.11940722167491913, -0.11940722167491913, -0.11940722167491913, -0.11940722167491913, -0.11940722167491913, -0.11940722167491913, -0.11940722167491913, -0.11940722167491913, -0.11940722167491913, -0.11940722167491913, -0.11940722167491913, -0.11940722167491913, -0.11940722167491913, -0.11940722167491913, -0.11940722167491913, -0.11940722167491913, -0.11940722167491913, -0.11940722167491913, -0.11940722167491913, -0.11940722167491913, -0.11940722167491913, -0.11940722167491913, -0.11940722167491913, -0.11940722167491913, -0.11940722167491913, -0.11940722167491913, -0.11940722167491913, -0.11940722167491913, -0.11940722167491913, -0.11940722167491913, -0.11940722167491913, -0.11940722167491913, -0.11940722167491913, -0.11940722167491913, -0.11940722167491913, -0.11940722167491913, -0.11940722167491913, -0.11940722167491913, -0.11940722167491913, -0.11940722167491913, -0.11940722167491913, -0.11940722167491913, -0.11940722167491913, -0.11940722167491913, -0.11940722167491913, -0.11940722167491913, -0.11940722167491913, -0.11940722167491913, -0.11940722167491913, -0.11940722167491913, -0.11940722167491913, -0.11940722167491913, -0.11940722167491913, -0.11940722167491913, -0.11940722167491913, -0.11940722167491913]}, "gradients/out_att.att_r": {"_type": "histogram", "values": [0.0, 0.0, 0.0, 0.0, 0.0, 0.0, 0.0, 0.0, 0.0, 0.0, 0.0, 0.0, 0.0, 0.0, 0.0, 0.0, 0.0, 0.0, 0.0, 0.0, 0.0, 0.0, 0.0, 0.0, 0.0, 0.0, 0.0, 0.0, 0.0, 0.0, 0.0, 0.0, 1.0, 0.0, 0.0, 0.0, 0.0, 0.0, 0.0, 0.0, 0.0, 0.0, 0.0, 0.0, 0.0, 0.0, 0.0, 0.0, 0.0, 0.0, 0.0, 0.0, 0.0, 0.0, 0.0, 0.0, 0.0, 0.0, 0.0, 0.0, 0.0, 0.0, 0.0, 0.0], "bins": [0.0, 0.0, 0.0, 0.0, 0.0, 0.0, 0.0, 0.0, 0.0, 0.0, 0.0, 0.0, 0.0, 0.0, 0.0, 0.0, 0.0, 0.0, 0.0, 0.0, 0.0, 0.0, 0.0, 0.0, 0.0, 0.0, 0.0, 0.0, 0.0, 0.0, 0.0, 0.0, 0.0, 0.0, 0.0, 0.0, 0.0, 0.0, 0.0, 0.0, 0.0, 0.0, 0.0, 0.0, 0.0, 0.0, 0.0, 0.0, 0.0, 0.0, 0.0, 0.0, 0.0, 0.0, 0.0, 0.0, 0.0, 0.0, 0.0, 0.0, 0.0, 0.0, 0.0, 0.0, 0.0]}, "gradients/out_att.att_l": {"_type": "histogram", "values": [0.0, 0.0, 0.0, 0.0, 0.0, 0.0, 0.0, 0.0, 0.0, 0.0, 0.0, 0.0, 0.0, 0.0, 0.0, 0.0, 0.0, 0.0, 0.0, 0.0, 0.0, 0.0, 0.0, 0.0, 0.0, 0.0, 0.0, 0.0, 0.0, 0.0, 0.0, 0.0, 1.0, 0.0, 0.0, 0.0, 0.0, 0.0, 0.0, 0.0, 0.0, 0.0, 0.0, 0.0, 0.0, 0.0, 0.0, 0.0, 0.0, 0.0, 0.0, 0.0, 0.0, 0.0, 0.0, 0.0, 0.0, 0.0, 0.0, 0.0, 0.0, 0.0, 0.0, 0.0], "bins": [0.0, 0.0, 0.0, 0.0, 0.0, 0.0, 0.0, 0.0, 0.0, 0.0, 0.0, 0.0, 0.0, 0.0, 0.0, 0.0, 0.0, 0.0, 0.0, 0.0, 0.0, 0.0, 0.0, 0.0, 0.0, 0.0, 0.0, 0.0, 0.0, 0.0, 0.0, 0.0, 0.0, 0.0, 0.0, 0.0, 0.0, 0.0, 0.0, 0.0, 0.0, 0.0, 0.0, 0.0, 0.0, 0.0, 0.0, 0.0, 0.0, 0.0, 0.0, 0.0, 0.0, 0.0, 0.0, 0.0, 0.0, 0.0, 0.0, 0.0, 0.0, 0.0, 0.0, 0.0, 0.0]}, "gradients/out_att.lin_l.weight": {"_type": "histogram", "values": [0.0, 0.0, 0.0, 0.0, 0.0, 0.0, 0.0, 0.0, 0.0, 0.0, 0.0, 0.0, 0.0, 0.0, 0.0, 0.0, 0.0, 0.0, 0.0, 0.0, 0.0, 0.0, 0.0, 0.0, 0.0, 0.0, 0.0, 0.0, 0.0, 0.0, 0.0, 0.0, 40.0, 0.0, 0.0, 0.0, 0.0, 0.0, 0.0, 0.0, 0.0, 0.0, 0.0, 0.0, 0.0, 0.0, 0.0, 0.0, 0.0, 0.0, 0.0, 0.0, 0.0, 0.0, 0.0, 0.0, 0.0, 0.0, 0.0, 0.0, 0.0, 0.0, 0.0, 0.0], "bins": [0.0, 0.0, 0.0, 0.0, 0.0, 0.0, 0.0, 0.0, 0.0, 0.0, 0.0, 0.0, 0.0, 0.0, 0.0, 0.0, 0.0, 0.0, 0.0, 0.0, 0.0, 0.0, 0.0, 0.0, 0.0, 0.0, 0.0, 0.0, 0.0, 0.0, 0.0, 0.0, 0.0, 0.0, 0.0, 0.0, 0.0, 0.0, 0.0, 0.0, 0.0, 0.0, 0.0, 0.0, 0.0, 0.0, 0.0, 0.0, 0.0, 0.0, 0.0, 0.0, 0.0, 0.0, 0.0, 0.0, 0.0, 0.0, 0.0, 0.0, 0.0, 0.0, 0.0, 0.0, 0.0]}, "gradients/attention_2.bias": {"_type": "histogram", "values": [0.0, 0.0, 0.0, 0.0, 0.0, 0.0, 0.0, 0.0, 0.0, 0.0, 0.0, 0.0, 0.0, 0.0, 0.0, 0.0, 0.0, 0.0, 0.0, 0.0, 0.0, 0.0, 0.0, 0.0, 0.0, 0.0, 0.0, 0.0, 0.0, 0.0, 0.0, 0.0, 40.0, 0.0, 0.0, 0.0, 0.0, 0.0, 0.0, 0.0, 0.0, 0.0, 0.0, 0.0, 0.0, 0.0, 0.0, 0.0, 0.0, 0.0, 0.0, 0.0, 0.0, 0.0, 0.0, 0.0, 0.0, 0.0, 0.0, 0.0, 0.0, 0.0, 0.0, 0.0], "bins": [0.0, 0.0, 0.0, 0.0, 0.0, 0.0, 0.0, 0.0, 0.0, 0.0, 0.0, 0.0, 0.0, 0.0, 0.0, 0.0, 0.0, 0.0, 0.0, 0.0, 0.0, 0.0, 0.0, 0.0, 0.0, 0.0, 0.0, 0.0, 0.0, 0.0, 0.0, 0.0, 0.0, 0.0, 0.0, 0.0, 0.0, 0.0, 0.0, 0.0, 0.0, 0.0, 0.0, 0.0, 0.0, 0.0, 0.0, 0.0, 0.0, 0.0, 0.0, 0.0, 0.0, 0.0, 0.0, 0.0, 0.0, 0.0, 0.0, 0.0, 0.0, 0.0, 0.0, 0.0, 0.0]}, "gradients/attention_2.att_r": {"_type": "histogram", "values": [0.0, 0.0, 0.0, 0.0, 0.0, 0.0, 0.0, 0.0, 0.0, 0.0, 0.0, 0.0, 0.0, 0.0, 0.0, 0.0, 0.0, 0.0, 0.0, 0.0, 0.0, 0.0, 0.0, 0.0, 0.0, 0.0, 0.0, 0.0, 0.0, 0.0, 0.0, 0.0, 40.0, 0.0, 0.0, 0.0, 0.0, 0.0, 0.0, 0.0, 0.0, 0.0, 0.0, 0.0, 0.0, 0.0, 0.0, 0.0, 0.0, 0.0, 0.0, 0.0, 0.0, 0.0, 0.0, 0.0, 0.0, 0.0, 0.0, 0.0, 0.0, 0.0, 0.0, 0.0], "bins": [0.0, 0.0, 0.0, 0.0, 0.0, 0.0, 0.0, 0.0, 0.0, 0.0, 0.0, 0.0, 0.0, 0.0, 0.0, 0.0, 0.0, 0.0, 0.0, 0.0, 0.0, 0.0, 0.0, 0.0, 0.0, 0.0, 0.0, 0.0, 0.0, 0.0, 0.0, 0.0, 0.0, 0.0, 0.0, 0.0, 0.0, 0.0, 0.0, 0.0, 0.0, 0.0, 0.0, 0.0, 0.0, 0.0, 0.0, 0.0, 0.0, 0.0, 0.0, 0.0, 0.0, 0.0, 0.0, 0.0, 0.0, 0.0, 0.0, 0.0, 0.0, 0.0, 0.0, 0.0, 0.0]}, "gradients/attention_2.att_l": {"_type": "histogram", "values": [0.0, 0.0, 0.0, 0.0, 0.0, 0.0, 0.0, 0.0, 0.0, 0.0, 0.0, 0.0, 0.0, 0.0, 0.0, 0.0, 0.0, 0.0, 0.0, 0.0, 0.0, 0.0, 0.0, 0.0, 0.0, 0.0, 0.0, 0.0, 0.0, 0.0, 0.0, 0.0, 40.0, 0.0, 0.0, 0.0, 0.0, 0.0, 0.0, 0.0, 0.0, 0.0, 0.0, 0.0, 0.0, 0.0, 0.0, 0.0, 0.0, 0.0, 0.0, 0.0, 0.0, 0.0, 0.0, 0.0, 0.0, 0.0, 0.0, 0.0, 0.0, 0.0, 0.0, 0.0], "bins": [0.0, 0.0, 0.0, 0.0, 0.0, 0.0, 0.0, 0.0, 0.0, 0.0, 0.0, 0.0, 0.0, 0.0, 0.0, 0.0, 0.0, 0.0, 0.0, 0.0, 0.0, 0.0, 0.0, 0.0, 0.0, 0.0, 0.0, 0.0, 0.0, 0.0, 0.0, 0.0, 0.0, 0.0, 0.0, 0.0, 0.0, 0.0, 0.0, 0.0, 0.0, 0.0, 0.0, 0.0, 0.0, 0.0, 0.0, 0.0, 0.0, 0.0, 0.0, 0.0, 0.0, 0.0, 0.0, 0.0, 0.0, 0.0, 0.0, 0.0, 0.0, 0.0, 0.0, 0.0, 0.0]}, "gradients/attention_2.lin_l.weight": {"_type": "histogram", "values": [0.0, 0.0, 0.0, 0.0, 0.0, 0.0, 0.0, 0.0, 0.0, 0.0, 0.0, 0.0, 0.0, 0.0, 0.0, 0.0, 0.0, 0.0, 0.0, 0.0, 0.0, 0.0, 0.0, 0.0, 0.0, 0.0, 0.0, 0.0, 0.0, 0.0, 0.0, 0.0, 1600.0, 0.0, 0.0, 0.0, 0.0, 0.0, 0.0, 0.0, 0.0, 0.0, 0.0, 0.0, 0.0, 0.0, 0.0, 0.0, 0.0, 0.0, 0.0, 0.0, 0.0, 0.0, 0.0, 0.0, 0.0, 0.0, 0.0, 0.0, 0.0, 0.0, 0.0, 0.0], "bins": [0.0, 0.0, 0.0, 0.0, 0.0, 0.0, 0.0, 0.0, 0.0, 0.0, 0.0, 0.0, 0.0, 0.0, 0.0, 0.0, 0.0, 0.0, 0.0, 0.0, 0.0, 0.0, 0.0, 0.0, 0.0, 0.0, 0.0, 0.0, 0.0, 0.0, 0.0, 0.0, 0.0, 0.0, 0.0, 0.0, 0.0, 0.0, 0.0, 0.0, 0.0, 0.0, 0.0, 0.0, 0.0, 0.0, 0.0, 0.0, 0.0, 0.0, 0.0, 0.0, 0.0, 0.0, 0.0, 0.0, 0.0, 0.0, 0.0, 0.0, 0.0, 0.0, 0.0, 0.0, 0.0]}, "gradients/attention_1.bias": {"_type": "histogram", "values": [0.0, 0.0, 0.0, 0.0, 0.0, 0.0, 0.0, 0.0, 0.0, 0.0, 0.0, 0.0, 0.0, 0.0, 0.0, 0.0, 0.0, 0.0, 0.0, 0.0, 0.0, 0.0, 0.0, 0.0, 0.0, 0.0, 0.0, 0.0, 0.0, 0.0, 0.0, 0.0, 40.0, 0.0, 0.0, 0.0, 0.0, 0.0, 0.0, 0.0, 0.0, 0.0, 0.0, 0.0, 0.0, 0.0, 0.0, 0.0, 0.0, 0.0, 0.0, 0.0, 0.0, 0.0, 0.0, 0.0, 0.0, 0.0, 0.0, 0.0, 0.0, 0.0, 0.0, 0.0], "bins": [0.0, 0.0, 0.0, 0.0, 0.0, 0.0, 0.0, 0.0, 0.0, 0.0, 0.0, 0.0, 0.0, 0.0, 0.0, 0.0, 0.0, 0.0, 0.0, 0.0, 0.0, 0.0, 0.0, 0.0, 0.0, 0.0, 0.0, 0.0, 0.0, 0.0, 0.0, 0.0, 0.0, 0.0, 0.0, 0.0, 0.0, 0.0, 0.0, 0.0, 0.0, 0.0, 0.0, 0.0, 0.0, 0.0, 0.0, 0.0, 0.0, 0.0, 0.0, 0.0, 0.0, 0.0, 0.0, 0.0, 0.0, 0.0, 0.0, 0.0, 0.0, 0.0, 0.0, 0.0, 0.0]}, "gradients/attention_1.att_r": {"_type": "histogram", "values": [0.0, 0.0, 0.0, 0.0, 0.0, 0.0, 0.0, 0.0, 0.0, 0.0, 0.0, 0.0, 0.0, 0.0, 0.0, 0.0, 0.0, 0.0, 0.0, 0.0, 0.0, 0.0, 0.0, 0.0, 0.0, 0.0, 0.0, 0.0, 0.0, 0.0, 0.0, 0.0, 40.0, 0.0, 0.0, 0.0, 0.0, 0.0, 0.0, 0.0, 0.0, 0.0, 0.0, 0.0, 0.0, 0.0, 0.0, 0.0, 0.0, 0.0, 0.0, 0.0, 0.0, 0.0, 0.0, 0.0, 0.0, 0.0, 0.0, 0.0, 0.0, 0.0, 0.0, 0.0], "bins": [0.0, 0.0, 0.0, 0.0, 0.0, 0.0, 0.0, 0.0, 0.0, 0.0, 0.0, 0.0, 0.0, 0.0, 0.0, 0.0, 0.0, 0.0, 0.0, 0.0, 0.0, 0.0, 0.0, 0.0, 0.0, 0.0, 0.0, 0.0, 0.0, 0.0, 0.0, 0.0, 0.0, 0.0, 0.0, 0.0, 0.0, 0.0, 0.0, 0.0, 0.0, 0.0, 0.0, 0.0, 0.0, 0.0, 0.0, 0.0, 0.0, 0.0, 0.0, 0.0, 0.0, 0.0, 0.0, 0.0, 0.0, 0.0, 0.0, 0.0, 0.0, 0.0, 0.0, 0.0, 0.0]}, "gradients/attention_1.att_l": {"_type": "histogram", "values": [0.0, 0.0, 0.0, 0.0, 0.0, 0.0, 0.0, 0.0, 0.0, 0.0, 0.0, 0.0, 0.0, 0.0, 0.0, 0.0, 0.0, 0.0, 0.0, 0.0, 0.0, 0.0, 0.0, 0.0, 0.0, 0.0, 0.0, 0.0, 0.0, 0.0, 0.0, 0.0, 40.0, 0.0, 0.0, 0.0, 0.0, 0.0, 0.0, 0.0, 0.0, 0.0, 0.0, 0.0, 0.0, 0.0, 0.0, 0.0, 0.0, 0.0, 0.0, 0.0, 0.0, 0.0, 0.0, 0.0, 0.0, 0.0, 0.0, 0.0, 0.0, 0.0, 0.0, 0.0], "bins": [0.0, 0.0, 0.0, 0.0, 0.0, 0.0, 0.0, 0.0, 0.0, 0.0, 0.0, 0.0, 0.0, 0.0, 0.0, 0.0, 0.0, 0.0, 0.0, 0.0, 0.0, 0.0, 0.0, 0.0, 0.0, 0.0, 0.0, 0.0, 0.0, 0.0, 0.0, 0.0, 0.0, 0.0, 0.0, 0.0, 0.0, 0.0, 0.0, 0.0, 0.0, 0.0, 0.0, 0.0, 0.0, 0.0, 0.0, 0.0, 0.0, 0.0, 0.0, 0.0, 0.0, 0.0, 0.0, 0.0, 0.0, 0.0, 0.0, 0.0, 0.0, 0.0, 0.0, 0.0, 0.0]}, "gradients/attention_1.lin_l.weight": {"_type": "histogram", "values": [0.0, 0.0, 0.0, 0.0, 0.0, 0.0, 0.0, 0.0, 0.0, 0.0, 0.0, 0.0, 0.0, 0.0, 0.0, 0.0, 0.0, 0.0, 0.0, 0.0, 0.0, 0.0, 0.0, 0.0, 0.0, 0.0, 0.0, 0.0, 0.0, 0.0, 0.0, 0.0, 1600.0, 0.0, 0.0, 0.0, 0.0, 0.0, 0.0, 0.0, 0.0, 0.0, 0.0, 0.0, 0.0, 0.0, 0.0, 0.0, 0.0, 0.0, 0.0, 0.0, 0.0, 0.0, 0.0, 0.0, 0.0, 0.0, 0.0, 0.0, 0.0, 0.0, 0.0, 0.0], "bins": [0.0, 0.0, 0.0, 0.0, 0.0, 0.0, 0.0, 0.0, 0.0, 0.0, 0.0, 0.0, 0.0, 0.0, 0.0, 0.0, 0.0, 0.0, 0.0, 0.0, 0.0, 0.0, 0.0, 0.0, 0.0, 0.0, 0.0, 0.0, 0.0, 0.0, 0.0, 0.0, 0.0, 0.0, 0.0, 0.0, 0.0, 0.0, 0.0, 0.0, 0.0, 0.0, 0.0, 0.0, 0.0, 0.0, 0.0, 0.0, 0.0, 0.0, 0.0, 0.0, 0.0, 0.0, 0.0, 0.0, 0.0, 0.0, 0.0, 0.0, 0.0, 0.0, 0.0, 0.0, 0.0]}, "gradients/attention_0.bias": {"_type": "histogram", "values": [0.0, 0.0, 0.0, 0.0, 0.0, 0.0, 0.0, 0.0, 0.0, 0.0, 0.0, 0.0, 0.0, 0.0, 0.0, 0.0, 0.0, 0.0, 0.0, 0.0, 0.0, 0.0, 0.0, 0.0, 0.0, 0.0, 0.0, 0.0, 0.0, 0.0, 0.0, 0.0, 40.0, 0.0, 0.0, 0.0, 0.0, 0.0, 0.0, 0.0, 0.0, 0.0, 0.0, 0.0, 0.0, 0.0, 0.0, 0.0, 0.0, 0.0, 0.0, 0.0, 0.0, 0.0, 0.0, 0.0, 0.0, 0.0, 0.0, 0.0, 0.0, 0.0, 0.0, 0.0], "bins": [0.0, 0.0, 0.0, 0.0, 0.0, 0.0, 0.0, 0.0, 0.0, 0.0, 0.0, 0.0, 0.0, 0.0, 0.0, 0.0, 0.0, 0.0, 0.0, 0.0, 0.0, 0.0, 0.0, 0.0, 0.0, 0.0, 0.0, 0.0, 0.0, 0.0, 0.0, 0.0, 0.0, 0.0, 0.0, 0.0, 0.0, 0.0, 0.0, 0.0, 0.0, 0.0, 0.0, 0.0, 0.0, 0.0, 0.0, 0.0, 0.0, 0.0, 0.0, 0.0, 0.0, 0.0, 0.0, 0.0, 0.0, 0.0, 0.0, 0.0, 0.0, 0.0, 0.0, 0.0, 0.0]}, "gradients/attention_0.att_r": {"_type": "histogram", "values": [0.0, 0.0, 0.0, 0.0, 0.0, 0.0, 0.0, 0.0, 0.0, 0.0, 0.0, 0.0, 0.0, 0.0, 0.0, 0.0, 0.0, 0.0, 0.0, 0.0, 0.0, 0.0, 0.0, 0.0, 0.0, 0.0, 0.0, 0.0, 0.0, 0.0, 0.0, 0.0, 40.0, 0.0, 0.0, 0.0, 0.0, 0.0, 0.0, 0.0, 0.0, 0.0, 0.0, 0.0, 0.0, 0.0, 0.0, 0.0, 0.0, 0.0, 0.0, 0.0, 0.0, 0.0, 0.0, 0.0, 0.0, 0.0, 0.0, 0.0, 0.0, 0.0, 0.0, 0.0], "bins": [0.0, 0.0, 0.0, 0.0, 0.0, 0.0, 0.0, 0.0, 0.0, 0.0, 0.0, 0.0, 0.0, 0.0, 0.0, 0.0, 0.0, 0.0, 0.0, 0.0, 0.0, 0.0, 0.0, 0.0, 0.0, 0.0, 0.0, 0.0, 0.0, 0.0, 0.0, 0.0, 0.0, 0.0, 0.0, 0.0, 0.0, 0.0, 0.0, 0.0, 0.0, 0.0, 0.0, 0.0, 0.0, 0.0, 0.0, 0.0, 0.0, 0.0, 0.0, 0.0, 0.0, 0.0, 0.0, 0.0, 0.0, 0.0, 0.0, 0.0, 0.0, 0.0, 0.0, 0.0, 0.0]}, "gradients/attention_0.att_l": {"_type": "histogram", "values": [0.0, 0.0, 0.0, 0.0, 0.0, 0.0, 0.0, 0.0, 0.0, 0.0, 0.0, 0.0, 0.0, 0.0, 0.0, 0.0, 0.0, 0.0, 0.0, 0.0, 0.0, 0.0, 0.0, 0.0, 0.0, 0.0, 0.0, 0.0, 0.0, 0.0, 0.0, 0.0, 40.0, 0.0, 0.0, 0.0, 0.0, 0.0, 0.0, 0.0, 0.0, 0.0, 0.0, 0.0, 0.0, 0.0, 0.0, 0.0, 0.0, 0.0, 0.0, 0.0, 0.0, 0.0, 0.0, 0.0, 0.0, 0.0, 0.0, 0.0, 0.0, 0.0, 0.0, 0.0], "bins": [0.0, 0.0, 0.0, 0.0, 0.0, 0.0, 0.0, 0.0, 0.0, 0.0, 0.0, 0.0, 0.0, 0.0, 0.0, 0.0, 0.0, 0.0, 0.0, 0.0, 0.0, 0.0, 0.0, 0.0, 0.0, 0.0, 0.0, 0.0, 0.0, 0.0, 0.0, 0.0, 0.0, 0.0, 0.0, 0.0, 0.0, 0.0, 0.0, 0.0, 0.0, 0.0, 0.0, 0.0, 0.0, 0.0, 0.0, 0.0, 0.0, 0.0, 0.0, 0.0, 0.0, 0.0, 0.0, 0.0, 0.0, 0.0, 0.0, 0.0, 0.0, 0.0, 0.0, 0.0, 0.0]}, "gradients/attention_0.lin_l.weight": {"_type": "histogram", "values": [0.0, 0.0, 0.0, 0.0, 0.0, 0.0, 0.0, 0.0, 0.0, 0.0, 0.0, 0.0, 0.0, 0.0, 0.0, 0.0, 0.0, 0.0, 0.0, 0.0, 0.0, 0.0, 0.0, 0.0, 0.0, 0.0, 0.0, 0.0, 0.0, 0.0, 0.0, 0.0, 800.0, 0.0, 0.0, 0.0, 0.0, 0.0, 0.0, 0.0, 0.0, 0.0, 0.0, 0.0, 0.0, 0.0, 0.0, 0.0, 0.0, 0.0, 0.0, 0.0, 0.0, 0.0, 0.0, 0.0, 0.0, 0.0, 0.0, 0.0, 0.0, 0.0, 0.0, 0.0], "bins": [0.0, 0.0, 0.0, 0.0, 0.0, 0.0, 0.0, 0.0, 0.0, 0.0, 0.0, 0.0, 0.0, 0.0, 0.0, 0.0, 0.0, 0.0, 0.0, 0.0, 0.0, 0.0, 0.0, 0.0, 0.0, 0.0, 0.0, 0.0, 0.0, 0.0, 0.0, 0.0, 0.0, 0.0, 0.0, 0.0, 0.0, 0.0, 0.0, 0.0, 0.0, 0.0, 0.0, 0.0, 0.0, 0.0, 0.0, 0.0, 0.0, 0.0, 0.0, 0.0, 0.0, 0.0, 0.0, 0.0, 0.0, 0.0, 0.0, 0.0, 0.0, 0.0, 0.0, 0.0, 0.0]}, "mean_loss": 0.7163988351821899, "_wandb": {"runtime": 33507}}