{"parameters/attention_0.att_l": {"_type": "histogram", "values": [3.0, 0.0, 0.0, 0.0, 0.0, 0.0, 1.0, 1.0, 0.0, 0.0, 1.0, 2.0, 0.0, 0.0, 1.0, 0.0, 0.0, 0.0, 1.0, 0.0, 1.0, 2.0, 1.0, 0.0, 1.0, 2.0, 1.0, 1.0, 0.0, 0.0, 0.0, 1.0, 1.0, 1.0, 0.0, 0.0, 1.0, 2.0, 1.0, 1.0, 0.0, 1.0, 2.0, 0.0, 2.0, 0.0, 0.0, 0.0, 1.0, 1.0, 1.0, 0.0, 0.0, 0.0, 0.0, 1.0, 0.0, 0.0, 0.0, 0.0, 1.0, 0.0, 1.0, 2.0], "bins": [-0.6501911878585815, -0.630078911781311, -0.6099666357040405, -0.5898543000221252, -0.5697420239448547, -0.5496297478675842, -0.529517412185669, -0.5094051361083984, -0.48929286003112793, -0.4691805839538574, -0.4490682780742645, -0.42895597219467163, -0.4088436961174011, -0.3887314200401306, -0.3686191141605377, -0.3485068082809448, -0.3283945322036743, -0.3082822561264038, -0.2881699502468109, -0.268057644367218, -0.2479453682899475, -0.2278330773115158, -0.2077207863330841, -0.1876084953546524, -0.1674962043762207, -0.147383913397789, -0.1272716224193573, -0.1071593314409256, -0.0870470404624939, -0.0669347494840622, -0.04682245850563049, -0.02671016752719879, -0.006597936153411865, 0.013514354825019836, 0.03362664580345154, 0.05373893678188324, 0.07385122776031494, 0.09396351873874664, 0.11407580971717834, 0.13418810069561005, 0.15430039167404175, 0.17441268265247345, 0.19452497363090515, 0.21463726460933685, 0.23474955558776855, 0.25486183166503906, 0.27497413754463196, 0.29508644342422485, 0.31519871950149536, 0.33531099557876587, 0.35542330145835876, 0.37553560733795166, 0.39564788341522217, 0.4157601594924927, 0.43587246537208557, 0.45598477125167847, 0.476097047328949, 0.4962093234062195, 0.5163216590881348, 0.5364339351654053, 0.5565462112426758, 0.5766584873199463, 0.5967707633972168, 0.6168830990791321, 0.6369953751564026]}, "parameters/attention_0.att_r": {"_type": "histogram", "values": [1.0, 2.0, 2.0, 0.0, 1.0, 0.0, 0.0, 1.0, 0.0, 1.0, 0.0, 0.0, 0.0, 1.0, 2.0, 0.0, 2.0, 1.0, 0.0, 1.0, 0.0, 1.0, 0.0, 1.0, 2.0, 2.0, 0.0, 1.0, 0.0, 0.0, 1.0, 1.0, 1.0, 1.0, 1.0, 0.0, 0.0, 0.0, 0.0, 0.0, 3.0, 1.0, 1.0, 0.0, 0.0, 1.0, 0.0, 0.0, 1.0, 0.0, 1.0, 0.0, 0.0, 0.0, 0.0, 1.0, 1.0, 0.0, 0.0, 0.0, 0.0, 0.0, 1.0, 2.0], "bins": [-0.6534936428070068, -0.633259654045105, -0.6130256652832031, -0.592791736125946, -0.5725577473640442, -0.5523237586021423, -0.5320897698402405, -0.5118557810783386, -0.49162182211875916, -0.4713878333568573, -0.45115387439727783, -0.430919885635376, -0.4106858968734741, -0.39045193791389465, -0.3702179491519928, -0.34998399019241333, -0.3297500014305115, -0.3095160126686096, -0.28928205370903015, -0.2690480649471283, -0.24881409108638763, -0.22858011722564697, -0.20834612846374512, -0.18811215460300446, -0.1678781807422638, -0.14764420688152313, -0.12741023302078247, -0.10717624425888062, -0.08694227039813995, -0.06670829653739929, -0.04647431522607803, -0.026240333914756775, -0.006006300449371338, 0.014227677136659622, 0.03446165472269058, 0.05469563230872154, 0.0749296098947525, 0.09516358375549316, 0.11539756506681442, 0.13563154637813568, 0.15586552023887634, 0.176099494099617, 0.19633346796035767, 0.21656745672225952, 0.23680143058300018, 0.25703540444374084, 0.2772693932056427, 0.29750335216522217, 0.317737340927124, 0.3379713296890259, 0.35820528864860535, 0.3784392774105072, 0.39867323637008667, 0.4189072251319885, 0.4391412138938904, 0.45937520265579224, 0.4796091616153717, 0.49984315037727356, 0.520077109336853, 0.5403110980987549, 0.5605450868606567, 0.5807790756225586, 0.6010130047798157, 0.6212469935417175, 0.6414809823036194]}, "parameters/attention_0.bias": {"_type": "histogram", "values": [0.0, 0.0, 0.0, 0.0, 0.0, 0.0, 0.0, 0.0, 0.0, 0.0, 0.0, 0.0, 0.0, 0.0, 0.0, 0.0, 0.0, 0.0, 0.0, 0.0, 0.0, 0.0, 0.0, 0.0, 0.0, 0.0, 0.0, 0.0, 0.0, 0.0, 0.0, 0.0, 40.0, 0.0, 0.0, 0.0, 0.0, 0.0, 0.0, 0.0, 0.0, 0.0, 0.0, 0.0, 0.0, 0.0, 0.0, 0.0, 0.0, 0.0, 0.0, 0.0, 0.0, 0.0, 0.0, 0.0, 0.0, 0.0, 0.0, 0.0, 0.0, 0.0, 0.0, 0.0], "bins": [0.0, 0.0, 0.0, 0.0, 0.0, 0.0, 0.0, 0.0, 0.0, 0.0, 0.0, 0.0, 0.0, 0.0, 0.0, 0.0, 0.0, 0.0, 0.0, 0.0, 0.0, 0.0, 0.0, 0.0, 0.0, 0.0, 0.0, 0.0, 0.0, 0.0, 0.0, 0.0, 0.0, 0.0, 0.0, 0.0, 0.0, 0.0, 0.0, 0.0, 0.0, 0.0, 0.0, 0.0, 0.0, 0.0, 0.0, 0.0, 0.0, 0.0, 0.0, 0.0, 0.0, 0.0, 0.0, 0.0, 0.0, 0.0, 0.0, 0.0, 0.0, 0.0, 0.0, 0.0, 0.0]}, "parameters/attention_0.lin_l.weight": {"_type": "histogram", "values": [10.0, 11.0, 5.0, 9.0, 7.0, 16.0, 7.0, 9.0, 3.0, 9.0, 7.0, 9.0, 7.0, 8.0, 2.0, 8.0, 6.0, 8.0, 13.0, 11.0, 6.0, 12.0, 4.0, 6.0, 9.0, 2.0, 4.0, 7.0, 7.0, 9.0, 8.0, 9.0, 5.0, 9.0, 7.0, 14.0, 4.0, 5.0, 9.0, 8.0, 12.0, 6.0, 9.0, 6.0, 3.0, 7.0, 5.0, 7.0, 4.0, 3.0, 4.0, 9.0, 12.0, 10.0, 7.0, 6.0, 7.0, 5.0, 6.0, 9.0, 11.0, 5.0, 10.0, 8.0], "bins": [-0.3386676609516144, -0.32811304926872253, -0.3175584375858307, -0.30700382590293884, -0.296449214220047, -0.28589460253715515, -0.2753399908542633, -0.26478537917137146, -0.2542307674884796, -0.24367615580558777, -0.23312154412269592, -0.22256693243980408, -0.21201232075691223, -0.20145770907402039, -0.19090309739112854, -0.1803484857082367, -0.16979387402534485, -0.159239262342453, -0.14868465065956116, -0.1381300389766693, -0.12757542729377747, -0.11702081561088562, -0.10646620392799377, -0.09591159224510193, -0.08535698056221008, -0.07480236887931824, -0.06424775719642639, -0.053693145513534546, -0.0431385338306427, -0.032583922147750854, -0.02202931046485901, -0.011474698781967163, -0.0009200870990753174, 0.009634524583816528, 0.020189136266708374, 0.03074374794960022, 0.041298359632492065, 0.05185297131538391, 0.06240758299827576, 0.0729621946811676, 0.08351680636405945, 0.0940714180469513, 0.10462602972984314, 0.11518064141273499, 0.12573525309562683, 0.13628986477851868, 0.14684447646141052, 0.15739908814430237, 0.1679536998271942, 0.17850831151008606, 0.1890629231929779, 0.19961753487586975, 0.2101721465587616, 0.22072675824165344, 0.2312813699245453, 0.24183598160743713, 0.252390593290329, 0.2629452049732208, 0.27349981665611267, 0.2840544283390045, 0.29460904002189636, 0.3051636517047882, 0.31571826338768005, 0.3262728750705719, 0.33682748675346375]}, "parameters/attention_1.att_l": {"_type": "histogram", "values": [3.0, 0.0, 2.0, 0.0, 1.0, 1.0, 0.0, 0.0, 0.0, 0.0, 1.0, 0.0, 1.0, 2.0, 0.0, 1.0, 0.0, 0.0, 0.0, 0.0, 1.0, 0.0, 0.0, 1.0, 1.0, 0.0, 1.0, 0.0, 0.0, 0.0, 1.0, 1.0, 0.0, 2.0, 0.0, 0.0, 1.0, 0.0, 1.0, 1.0, 2.0, 0.0, 1.0, 1.0, 0.0, 2.0, 2.0, 0.0, 0.0, 0.0, 0.0, 1.0, 0.0, 1.0, 1.0, 1.0, 0.0, 0.0, 0.0, 1.0, 1.0, 0.0, 1.0, 2.0], "bins": [-0.647270917892456, -0.6275550127029419, -0.6078391075134277, -0.5881232023239136, -0.5684072971343994, -0.54869145154953, -0.5289755463600159, -0.5092596411705017, -0.48954373598098755, -0.4698278307914734, -0.45011192560195923, -0.43039605021476746, -0.4106801450252533, -0.39096423983573914, -0.37124836444854736, -0.3515324592590332, -0.33181655406951904, -0.3121006488800049, -0.2923847436904907, -0.27266886830329895, -0.2529529631137848, -0.23323705792427063, -0.21352116763591766, -0.1938052773475647, -0.17408937215805054, -0.15437346696853638, -0.1346575766801834, -0.11494167894124985, -0.09522578120231628, -0.07550988346338272, -0.05579398572444916, -0.03607809543609619, -0.016362249851226807, 0.0033536478877067566, 0.02306954562664032, 0.04278544336557388, 0.06250134110450745, 0.08221723884344101, 0.10193313658237457, 0.12164902687072754, 0.1413649320602417, 0.16108083724975586, 0.18079672753810883, 0.2005126178264618, 0.22022852301597595, 0.2399444282054901, 0.2596603035926819, 0.27937620878219604, 0.2990921139717102, 0.31880801916122437, 0.3385239243507385, 0.3582397997379303, 0.37795570492744446, 0.3976716101169586, 0.4173874855041504, 0.43710339069366455, 0.4568192958831787, 0.47653520107269287, 0.49625110626220703, 0.5159670114517212, 0.5356829166412354, 0.5553987622261047, 0.5751146674156189, 0.5948305726051331, 0.6145464777946472]}, "parameters/attention_1.att_r": {"_type": "histogram", "values": [1.0, 0.0, 0.0, 1.0, 0.0, 0.0, 0.0, 0.0, 0.0, 0.0, 1.0, 2.0, 1.0, 0.0, 1.0, 0.0, 0.0, 0.0, 0.0, 2.0, 0.0, 1.0, 2.0, 1.0, 0.0, 1.0, 0.0, 0.0, 1.0, 1.0, 1.0, 2.0, 0.0, 0.0, 1.0, 1.0, 2.0, 1.0, 0.0, 2.0, 0.0, 0.0, 2.0, 2.0, 0.0, 0.0, 3.0, 0.0, 0.0, 1.0, 2.0, 0.0, 0.0, 0.0, 1.0, 0.0, 0.0, 0.0, 0.0, 0.0, 0.0, 0.0, 2.0, 1.0], "bins": [-0.6087804436683655, -0.5895835757255554, -0.5703867077827454, -0.5511898398399353, -0.5319929718971252, -0.5127961039543152, -0.4935992360115051, -0.47440236806869507, -0.455205500125885, -0.43600863218307495, -0.4168117642402649, -0.39761489629745483, -0.3784180283546448, -0.3592211604118347, -0.34002429246902466, -0.3208274245262146, -0.30163058638572693, -0.28243371844291687, -0.2632368505001068, -0.24403998255729675, -0.2248431146144867, -0.20564624667167664, -0.18644939363002777, -0.1672525256872177, -0.14805565774440765, -0.1288587898015976, -0.10966192185878754, -0.09046506136655807, -0.07126819342374802, -0.05207132548093796, -0.032874464988708496, -0.013677597045898438, 0.005519270896911621, 0.02471613697707653, 0.04391300305724144, 0.0631098672747612, 0.08230673521757126, 0.10150360316038132, 0.12070046365261078, 0.13989733159542084, 0.1590941995382309, 0.17829106748104095, 0.197487935423851, 0.21668478846549988, 0.23588165640830994, 0.25507852435112, 0.27427539229393005, 0.2934722602367401, 0.31266912817955017, 0.33186599612236023, 0.3510628640651703, 0.37025973200798035, 0.3894565999507904, 0.40865346789360046, 0.42785030603408813, 0.4470471739768982, 0.46624404191970825, 0.4854409098625183, 0.5046377778053284, 0.5238346457481384, 0.5430315136909485, 0.5622283816337585, 0.5814252495765686, 0.6006221175193787, 0.6198189854621887]}, "parameters/attention_1.bias": {"_type": "histogram", "values": [0.0, 0.0, 0.0, 0.0, 0.0, 0.0, 0.0, 0.0, 0.0, 0.0, 0.0, 0.0, 0.0, 0.0, 0.0, 0.0, 0.0, 0.0, 0.0, 0.0, 0.0, 0.0, 0.0, 0.0, 0.0, 0.0, 0.0, 0.0, 0.0, 0.0, 0.0, 0.0, 40.0, 0.0, 0.0, 0.0, 0.0, 0.0, 0.0, 0.0, 0.0, 0.0, 0.0, 0.0, 0.0, 0.0, 0.0, 0.0, 0.0, 0.0, 0.0, 0.0, 0.0, 0.0, 0.0, 0.0, 0.0, 0.0, 0.0, 0.0, 0.0, 0.0, 0.0, 0.0], "bins": [0.0, 0.0, 0.0, 0.0, 0.0, 0.0, 0.0, 0.0, 0.0, 0.0, 0.0, 0.0, 0.0, 0.0, 0.0, 0.0, 0.0, 0.0, 0.0, 0.0, 0.0, 0.0, 0.0, 0.0, 0.0, 0.0, 0.0, 0.0, 0.0, 0.0, 0.0, 0.0, 0.0, 0.0, 0.0, 0.0, 0.0, 0.0, 0.0, 0.0, 0.0, 0.0, 0.0, 0.0, 0.0, 0.0, 0.0, 0.0, 0.0, 0.0, 0.0, 0.0, 0.0, 0.0, 0.0, 0.0, 0.0, 0.0, 0.0, 0.0, 0.0, 0.0, 0.0, 0.0, 0.0]}, "parameters/attention_1.lin_l.weight": {"_type": "histogram", "values": [31.0, 27.0, 24.0, 21.0, 20.0, 24.0, 28.0, 25.0, 14.0, 30.0, 23.0, 27.0, 30.0, 30.0, 24.0, 26.0, 22.0, 17.0, 30.0, 19.0, 26.0, 31.0, 29.0, 29.0, 17.0, 15.0, 23.0, 23.0, 24.0, 21.0, 24.0, 32.0, 29.0, 28.0, 25.0, 23.0, 24.0, 32.0, 22.0, 21.0, 23.0, 23.0, 24.0, 21.0, 28.0, 22.0, 28.0, 25.0, 29.0, 30.0, 27.0, 24.0, 26.0, 19.0, 28.0, 21.0, 27.0, 32.0, 29.0, 28.0, 21.0, 25.0, 24.0, 26.0], "bins": [-0.27318868041038513, -0.26464295387268066, -0.2560972273349762, -0.24755151569843292, -0.23900580406188965, -0.23046007752418518, -0.2219143509864807, -0.21336863934993744, -0.20482292771339417, -0.1962772011756897, -0.18773148953914642, -0.17918576300144196, -0.17064005136489868, -0.1620943248271942, -0.15354859828948975, -0.14500288665294647, -0.136457160115242, -0.12791143357753754, -0.11936572194099426, -0.1108199954032898, -0.10227428376674652, -0.09372855722904205, -0.08518283814191818, -0.07663711905479431, -0.06809139996767044, -0.05954568088054657, -0.0509999617934227, -0.04245423898100853, -0.03390851989388466, -0.025362800806760788, -0.01681707799434662, -0.008271358907222748, 0.00027436017990112305, 0.008820080198347569, 0.017365800216794014, 0.025911521166563034, 0.034457240253686905, 0.043002959340810776, 0.051548682153224945, 0.060094401240348816, 0.06864012032747269, 0.07718583941459656, 0.08573155850172043, 0.0942772775888443, 0.10282300412654877, 0.11136871576309204, 0.11991444230079651, 0.12846016883850098, 0.13700588047504425, 0.14555160701274872, 0.154097318649292, 0.16264304518699646, 0.17118875682353973, 0.1797344833612442, 0.18828019499778748, 0.19682592153549194, 0.2053716480731964, 0.21391737461090088, 0.22246308624744415, 0.23100881278514862, 0.2395545244216919, 0.24810025095939636, 0.25664597749710083, 0.2651916742324829, 0.2737374007701874]}, "parameters/attention_2.att_l": {"_type": "histogram", "values": [1.0, 1.0, 0.0, 2.0, 0.0, 1.0, 0.0, 1.0, 1.0, 0.0, 0.0, 2.0, 0.0, 0.0, 1.0, 0.0, 0.0, 0.0, 2.0, 1.0, 0.0, 0.0, 0.0, 1.0, 1.0, 0.0, 1.0, 1.0, 1.0, 0.0, 1.0, 0.0, 0.0, 1.0, 1.0, 0.0, 0.0, 1.0, 0.0, 2.0, 2.0, 2.0, 0.0, 0.0, 0.0, 1.0, 0.0, 2.0, 1.0, 0.0, 1.0, 0.0, 0.0, 0.0, 1.0, 1.0, 0.0, 1.0, 2.0, 0.0, 1.0, 0.0, 0.0, 1.0], "bins": [-0.6152992248535156, -0.5957993268966675, -0.5762994289398193, -0.5567995309829712, -0.537299633026123, -0.5177997350692749, -0.49829986691474915, -0.478799968957901, -0.45930007100105286, -0.4398001730442047, -0.42030027508735657, -0.4008003771305084, -0.38130050897598267, -0.3618006110191345, -0.3423007130622864, -0.32280081510543823, -0.3033009171485901, -0.28380101919174194, -0.2643011212348938, -0.24480123817920685, -0.2253013402223587, -0.20580144226551056, -0.1863015592098236, -0.16680166125297546, -0.14730176329612732, -0.12780186533927917, -0.10830197483301163, -0.08880208432674408, -0.06930218636989594, -0.04980228841304779, -0.030302397906780243, -0.010802507400512695, 0.00869739055633545, 0.028197284787893295, 0.04769717901945114, 0.06719706952571869, 0.08669696748256683, 0.10619686543941498, 0.12569674849510193, 0.14519664645195007, 0.16469654440879822, 0.18419644236564636, 0.2036963403224945, 0.22319622337818146, 0.2426961213350296, 0.26219600439071655, 0.2816959023475647, 0.30119580030441284, 0.320695698261261, 0.34019559621810913, 0.3596954941749573, 0.3791953921318054, 0.39869529008865356, 0.4181951880455017, 0.43769505620002747, 0.4571949541568756, 0.47669485211372375, 0.4961947500705719, 0.5156946182250977, 0.5351945161819458, 0.554694414138794, 0.5741943120956421, 0.5936942100524902, 0.6131941080093384, 0.6326940059661865]}, "parameters/attention_2.att_r": {"_type": "histogram", "values": [3.0, 0.0, 3.0, 0.0, 1.0, 1.0, 1.0, 0.0, 0.0, 0.0, 0.0, 0.0, 0.0, 1.0, 0.0, 1.0, 0.0, 0.0, 0.0, 2.0, 2.0, 0.0, 0.0, 1.0, 1.0, 1.0, 0.0, 0.0, 1.0, 0.0, 2.0, 0.0, 1.0, 0.0, 0.0, 0.0, 2.0, 0.0, 1.0, 0.0, 0.0, 0.0, 0.0, 0.0, 0.0, 0.0, 0.0, 0.0, 1.0, 0.0, 1.0, 1.0, 1.0, 3.0, 0.0, 1.0, 0.0, 1.0, 2.0, 1.0, 0.0, 1.0, 0.0, 2.0], "bins": [-0.6442070007324219, -0.6239556670188904, -0.6037043333053589, -0.5834529399871826, -0.5632016062736511, -0.5429502725601196, -0.5226988792419434, -0.5024475455284119, -0.48219621181488037, -0.4619448781013489, -0.441693514585495, -0.4214421510696411, -0.4011908173561096, -0.3809394836425781, -0.36068812012672424, -0.34043675661087036, -0.32018542289733887, -0.2999340891838074, -0.2796827256679535, -0.2594313621520996, -0.23918002843856812, -0.21892867982387543, -0.19867733120918274, -0.17842598259449005, -0.15817463397979736, -0.13792328536510468, -0.11767193675041199, -0.0974205881357193, -0.07716923952102661, -0.05691789090633392, -0.036666542291641235, -0.016415193676948547, 0.003836214542388916, 0.024087563157081604, 0.04433891177177429, 0.06459026038646698, 0.08484160900115967, 0.10509295761585236, 0.12534430623054504, 0.14559565484523773, 0.16584700345993042, 0.1860983520746231, 0.2063497006893158, 0.22660104930400848, 0.24685239791870117, 0.26710373163223267, 0.28735509514808655, 0.30760645866394043, 0.3278577923774719, 0.3481091260910034, 0.3683604896068573, 0.3886118531227112, 0.4088631868362427, 0.42911452054977417, 0.44936588406562805, 0.46961724758148193, 0.4898685812950134, 0.5101199150085449, 0.5303713083267212, 0.5506226420402527, 0.5708739757537842, 0.5911253094673157, 0.6113766431808472, 0.6316280364990234, 0.6518793702125549]}, "parameters/attention_2.bias": {"_type": "histogram", "values": [0.0, 0.0, 0.0, 0.0, 0.0, 0.0, 0.0, 0.0, 0.0, 0.0, 0.0, 0.0, 0.0, 0.0, 0.0, 0.0, 0.0, 0.0, 0.0, 0.0, 0.0, 0.0, 0.0, 0.0, 0.0, 0.0, 0.0, 0.0, 0.0, 0.0, 0.0, 0.0, 40.0, 0.0, 0.0, 0.0, 0.0, 0.0, 0.0, 0.0, 0.0, 0.0, 0.0, 0.0, 0.0, 0.0, 0.0, 0.0, 0.0, 0.0, 0.0, 0.0, 0.0, 0.0, 0.0, 0.0, 0.0, 0.0, 0.0, 0.0, 0.0, 0.0, 0.0, 0.0], "bins": [0.0, 0.0, 0.0, 0.0, 0.0, 0.0, 0.0, 0.0, 0.0, 0.0, 0.0, 0.0, 0.0, 0.0, 0.0, 0.0, 0.0, 0.0, 0.0, 0.0, 0.0, 0.0, 0.0, 0.0, 0.0, 0.0, 0.0, 0.0, 0.0, 0.0, 0.0, 0.0, 0.0, 0.0, 0.0, 0.0, 0.0, 0.0, 0.0, 0.0, 0.0, 0.0, 0.0, 0.0, 0.0, 0.0, 0.0, 0.0, 0.0, 0.0, 0.0, 0.0, 0.0, 0.0, 0.0, 0.0, 0.0, 0.0, 0.0, 0.0, 0.0, 0.0, 0.0, 0.0, 0.0]}, "parameters/attention_2.lin_l.weight": {"_type": "histogram", "values": [28.0, 23.0, 29.0, 20.0, 27.0, 23.0, 32.0, 30.0, 28.0, 28.0, 29.0, 17.0, 25.0, 19.0, 34.0, 18.0, 33.0, 21.0, 17.0, 16.0, 26.0, 25.0, 25.0, 13.0, 27.0, 30.0, 28.0, 16.0, 26.0, 20.0, 17.0, 33.0, 27.0, 16.0, 24.0, 19.0, 31.0, 26.0, 30.0, 17.0, 29.0, 30.0, 28.0, 26.0, 19.0, 23.0, 24.0, 26.0, 25.0, 30.0, 27.0, 20.0, 30.0, 27.0, 22.0, 39.0, 20.0, 28.0, 26.0, 28.0, 25.0, 27.0, 25.0, 23.0], "bins": [-0.2737657129764557, -0.26521533727645874, -0.2566649913787842, -0.24811461567878723, -0.23956425487995148, -0.23101389408111572, -0.22246351838111877, -0.21391315758228302, -0.20536279678344727, -0.1968124359846115, -0.18826207518577576, -0.1797116994857788, -0.17116133868694305, -0.1626109778881073, -0.15406060218811035, -0.1455102413892746, -0.13695988059043884, -0.1284095197916031, -0.11985915154218674, -0.11130878329277039, -0.10275842249393463, -0.09420806169509888, -0.08565769344568253, -0.07710732519626617, -0.06855696439743042, -0.06000659987330437, -0.051456235349178314, -0.04290587082505226, -0.03435550630092621, -0.025805141776800156, -0.017254777252674103, -0.00870441272854805, -0.00015407800674438477, 0.008396286517381668, 0.01694665104150772, 0.025497015565633774, 0.03404738008975983, 0.04259774461388588, 0.05114810913801193, 0.059698473662137985, 0.06824883818626404, 0.07679919898509979, 0.08534956723451614, 0.0938999354839325, 0.10245029628276825, 0.111000657081604, 0.11955102533102036, 0.1281013935804367, 0.13665175437927246, 0.14520211517810822, 0.15375247597694397, 0.16230285167694092, 0.17085321247577667, 0.17940357327461243, 0.18795394897460938, 0.19650430977344513, 0.20505467057228088, 0.21360503137111664, 0.2221553921699524, 0.23070576786994934, 0.2392561286687851, 0.24780648946762085, 0.2563568651676178, 0.26490721106529236, 0.2734575867652893]}, "parameters/out_att.att_l": {"_type": "histogram", "values": [0.0, 0.0, 0.0, 0.0, 0.0, 0.0, 0.0, 0.0, 0.0, 0.0, 0.0, 0.0, 0.0, 0.0, 0.0, 0.0, 0.0, 0.0, 0.0, 0.0, 0.0, 0.0, 0.0, 0.0, 0.0, 0.0, 0.0, 0.0, 0.0, 0.0, 0.0, 1.0, 0.0, 0.0, 0.0, 0.0, 0.0, 0.0, 0.0, 0.0, 0.0, 0.0, 0.0, 0.0, 0.0, 0.0, 0.0, 0.0, 0.0, 0.0, 0.0, 0.0, 0.0, 0.0, 0.0, 0.0, 0.0, 0.0, 0.0, 0.0, 0.0, 0.0, 0.0, 0.0], "bins": [-0.2291765809059143, -0.2291765809059143, -0.2291765809059143, -0.2291765809059143, -0.2291765809059143, -0.2291765809059143, -0.2291765809059143, -0.2291765809059143, -0.2291765809059143, -0.2291765809059143, -0.2291765809059143, -0.2291765809059143, -0.2291765809059143, -0.2291765809059143, -0.2291765809059143, -0.2291765809059143, -0.2291765809059143, -0.2291765809059143, -0.2291765809059143, -0.2291765809059143, -0.2291765809059143, -0.2291765809059143, -0.2291765809059143, -0.2291765809059143, -0.2291765809059143, -0.2291765809059143, -0.2291765809059143, -0.2291765809059143, -0.2291765809059143, -0.2291765809059143, -0.2291765809059143, -0.2291765809059143, -0.2291765809059143, -0.2291765809059143, -0.2291765809059143, -0.2291765809059143, -0.2291765809059143, -0.2291765809059143, -0.2291765809059143, -0.2291765809059143, -0.2291765809059143, -0.2291765809059143, -0.2291765809059143, -0.2291765809059143, -0.2291765809059143, -0.2291765809059143, -0.2291765809059143, -0.2291765809059143, -0.2291765809059143, -0.2291765809059143, -0.2291765809059143, -0.2291765809059143, -0.2291765809059143, -0.2291765809059143, -0.2291765809059143, -0.2291765809059143, -0.2291765809059143, -0.2291765809059143, -0.2291765809059143, -0.2291765809059143, -0.2291765809059143, -0.2291765809059143, -0.2291765809059143, -0.2291765809059143, -0.2291765809059143]}, "parameters/out_att.att_r": {"_type": "histogram", "values": [0.0, 0.0, 0.0, 0.0, 0.0, 0.0, 0.0, 0.0, 0.0, 0.0, 0.0, 0.0, 0.0, 0.0, 0.0, 0.0, 0.0, 0.0, 0.0, 0.0, 0.0, 0.0, 0.0, 0.0, 0.0, 0.0, 0.0, 0.0, 0.0, 0.0, 0.0, 0.0, 1.0, 0.0, 0.0, 0.0, 0.0, 0.0, 0.0, 0.0, 0.0, 0.0, 0.0, 0.0, 0.0, 0.0, 0.0, 0.0, 0.0, 0.0, 0.0, 0.0, 0.0, 0.0, 0.0, 0.0, 0.0, 0.0, 0.0, 0.0, 0.0, 0.0, 0.0, 0.0], "bins": [1.504621148109436, 1.504621148109436, 1.504621148109436, 1.504621148109436, 1.504621148109436, 1.504621148109436, 1.504621148109436, 1.504621148109436, 1.504621148109436, 1.504621148109436, 1.504621148109436, 1.504621148109436, 1.504621148109436, 1.504621148109436, 1.504621148109436, 1.504621148109436, 1.504621148109436, 1.504621148109436, 1.504621148109436, 1.504621148109436, 1.504621148109436, 1.504621148109436, 1.504621148109436, 1.504621148109436, 1.504621148109436, 1.504621148109436, 1.504621148109436, 1.504621148109436, 1.504621148109436, 1.504621148109436, 1.504621148109436, 1.504621148109436, 1.504621148109436, 1.504621148109436, 1.504621148109436, 1.504621148109436, 1.504621148109436, 1.504621148109436, 1.504621148109436, 1.504621148109436, 1.504621148109436, 1.504621148109436, 1.504621148109436, 1.504621148109436, 1.504621148109436, 1.504621148109436, 1.504621148109436, 1.504621148109436, 1.504621148109436, 1.504621148109436, 1.504621148109436, 1.504621148109436, 1.504621148109436, 1.504621148109436, 1.504621148109436, 1.504621148109436, 1.504621148109436, 1.504621148109436, 1.504621148109436, 1.504621148109436, 1.504621148109436, 1.504621148109436, 1.504621148109436, 1.504621148109436, 1.504621148109436]}, "parameters/out_att.bias": {"_type": "histogram", "values": [0.0, 0.0, 0.0, 0.0, 0.0, 0.0, 0.0, 0.0, 0.0, 0.0, 0.0, 0.0, 0.0, 0.0, 0.0, 0.0, 0.0, 0.0, 0.0, 0.0, 0.0, 0.0, 0.0, 0.0, 0.0, 0.0, 0.0, 0.0, 0.0, 0.0, 0.0, 0.0, 1.0, 0.0, 0.0, 0.0, 0.0, 0.0, 0.0, 0.0, 0.0, 0.0, 0.0, 0.0, 0.0, 0.0, 0.0, 0.0, 0.0, 0.0, 0.0, 0.0, 0.0, 0.0, 0.0, 0.0, 0.0, 0.0, 0.0, 0.0, 0.0, 0.0, 0.0, 0.0], "bins": [0.0, 0.0, 0.0, 0.0, 0.0, 0.0, 0.0, 0.0, 0.0, 0.0, 0.0, 0.0, 0.0, 0.0, 0.0, 0.0, 0.0, 0.0, 0.0, 0.0, 0.0, 0.0, 0.0, 0.0, 0.0, 0.0, 0.0, 0.0, 0.0, 0.0, 0.0, 0.0, 0.0, 0.0, 0.0, 0.0, 0.0, 0.0, 0.0, 0.0, 0.0, 0.0, 0.0, 0.0, 0.0, 0.0, 0.0, 0.0, 0.0, 0.0, 0.0, 0.0, 0.0, 0.0, 0.0, 0.0, 0.0, 0.0, 0.0, 0.0, 0.0, 0.0, 0.0, 0.0, 0.0]}, "parameters/out_att.lin_l.weight": {"_type": "histogram", "values": [1.0, 0.0, 0.0, 2.0, 0.0, 1.0, 0.0, 0.0, 0.0, 2.0, 1.0, 2.0, 1.0, 1.0, 1.0, 0.0, 2.0, 0.0, 0.0, 0.0, 0.0, 0.0, 1.0, 0.0, 1.0, 0.0, 1.0, 1.0, 1.0, 1.0, 2.0, 0.0, 0.0, 0.0, 0.0, 1.0, 0.0, 0.0, 1.0, 0.0, 1.0, 1.0, 0.0, 0.0, 0.0, 1.0, 0.0, 1.0, 1.0, 0.0, 1.0, 0.0, 0.0, 1.0, 1.0, 0.0, 3.0, 0.0, 2.0, 0.0, 1.0, 0.0, 1.0, 1.0], "bins": [-0.3577226996421814, -0.346545934677124, -0.33536919951438904, -0.32419243454933167, -0.3130156695842743, -0.3018389344215393, -0.29066216945648193, -0.27948540449142456, -0.2683086693286896, -0.2571319043636322, -0.24595515429973602, -0.23477840423583984, -0.22360165417194366, -0.21242490410804749, -0.2012481391429901, -0.19007138907909393, -0.17889462411403656, -0.16771787405014038, -0.156541109085083, -0.14536435902118683, -0.13418760895729065, -0.12301085144281387, -0.1118340939283371, -0.10065734386444092, -0.08948058634996414, -0.07830382883548737, -0.06712707877159119, -0.05595032125711441, -0.04477356746792793, -0.033596813678741455, -0.02242005616426468, -0.0112433061003685, -6.654858589172363e-05, 0.011110206134617329, 0.02228696085512638, 0.03346371650695801, 0.044640470296144485, 0.05581722408533096, 0.06699398159980774, 0.07817073166370392, 0.0893474891781807, 0.10052424669265747, 0.11170099675655365, 0.12287775427103043, 0.1340545117855072, 0.14523126184940338, 0.15640801191329956, 0.16758477687835693, 0.1787615269422531, 0.1899382770061493, 0.20111504197120667, 0.21229179203510284, 0.22346854209899902, 0.2346453070640564, 0.24582205712795258, 0.25699880719184875, 0.26817557215690613, 0.2793523371219635, 0.2905290722846985, 0.30170583724975586, 0.31288260221481323, 0.3240593373775482, 0.3352361023426056, 0.3464128375053406, 0.35758960247039795]}, "_runtime": 252, "_timestamp": 1637074684, "_step": 20, "Learning rate value": 0.005, "Learning rate action": 0.005, "action_probs": {"_type": "histogram", "values": [5, 0, 0, 0, 0, 0, 0, 0, 0, 0, 0, 0, 0, 0, 0, 0, 0, 0, 0, 0, 0, 0, 0, 0, 0, 0, 0, 0, 0, 0, 0, 0, 0, 0, 0, 0, 0, 0, 0, 0, 0, 0, 0, 0, 0, 0, 0, 0, 0, 0, 0, 0, 0, 0, 0, 0, 0, 0, 0, 0, 0, 0, 0, 155], "bins": [0.4657014310359955, 0.466237336397171, 0.46677327156066895, 0.4673091769218445, 0.46784508228302, 0.46838101744651794, 0.4689169228076935, 0.469452828168869, 0.46998876333236694, 0.4705246686935425, 0.471060574054718, 0.47159650921821594, 0.4721324145793915, 0.472668319940567, 0.47320425510406494, 0.4737401604652405, 0.474276065826416, 0.47481200098991394, 0.4753479063510895, 0.475883811712265, 0.47641974687576294, 0.4769556522369385, 0.477491557598114, 0.47802749276161194, 0.4785633981227875, 0.479099303483963, 0.47963523864746094, 0.4801711440086365, 0.480707049369812, 0.48124298453330994, 0.4817788898944855, 0.482314795255661, 0.48285073041915894, 0.4833866357803345, 0.48392254114151, 0.48445844650268555, 0.48499438166618347, 0.485530287027359, 0.48606619238853455, 0.48660212755203247, 0.487138032913208, 0.48767393827438354, 0.48820987343788147, 0.488745778799057, 0.48928168416023254, 0.48981761932373047, 0.490353524684906, 0.49088943004608154, 0.49142536520957947, 0.491961270570755, 0.49249717593193054, 0.49303311109542847, 0.493569016456604, 0.49410492181777954, 0.49464085698127747, 0.495176762342453, 0.49571266770362854, 0.49624860286712646, 0.496784508228302, 0.49732041358947754, 0.49785634875297546, 0.498392254114151, 0.49892815947532654, 0.49946409463882446, 0.5]}, "stop_go_action": {"_type": "histogram", "values": [90, 0, 0, 0, 0, 0, 0, 0, 0, 0, 0, 0, 0, 0, 0, 0, 0, 0, 0, 0, 0, 0, 0, 0, 0, 0, 0, 0, 0, 0, 0, 0, 0, 0, 0, 0, 0, 0, 0, 0, 0, 0, 0, 0, 0, 0, 0, 0, 0, 0, 0, 0, 0, 0, 0, 0, 0, 0, 0, 0, 0, 0, 0, 70], "bins": [0.0, 0.015625, 0.03125, 0.046875, 0.0625, 0.078125, 0.09375, 0.109375, 0.125, 0.140625, 0.15625, 0.171875, 0.1875, 0.203125, 0.21875, 0.234375, 0.25, 0.265625, 0.28125, 0.296875, 0.3125, 0.328125, 0.34375, 0.359375, 0.375, 0.390625, 0.40625, 0.421875, 0.4375, 0.453125, 0.46875, 0.484375, 0.5, 0.515625, 0.53125, 0.546875, 0.5625, 0.578125, 0.59375, 0.609375, 0.625, 0.640625, 0.65625, 0.671875, 0.6875, 0.703125, 0.71875, 0.734375, 0.75, 0.765625, 0.78125, 0.796875, 0.8125, 0.828125, 0.84375, 0.859375, 0.875, 0.890625, 0.90625, 0.921875, 0.9375, 0.953125, 0.96875, 0.984375, 1.0]}, "node_values": {"_type": "histogram", "values": [1, 0, 0, 0, 0, 0, 0, 0, 0, 0, 0, 0, 0, 0, 1, 0, 0, 0, 2, 0, 1, 0, 0, 0, 1, 0, 0, 0, 0, 0, 1, 2, 0, 3, 1, 0, 0, 3, 0, 2, 0, 0, 0, 1, 5, 0, 1, 2, 0, 0, 0, 2, 0, 0, 0, 0, 0, 0, 0, 0, 2, 0, 0, 1], "bins": [-1.4655133485794067, -1.4535833094269037, -1.4416532702744007, -1.4297232311218977, -1.4177931919693947, -1.4058631528168917, -1.3939331136643887, -1.3820030745118856, -1.3700730353593826, -1.3581429962068796, -1.3462129570543766, -1.3342829179018736, -1.3223528787493706, -1.3104228395968676, -1.2984928004443645, -1.2865627612918615, -1.2746327221393585, -1.2627026829868555, -1.2507726438343525, -1.2388426046818495, -1.2269125655293465, -1.2149825263768435, -1.2030524872243404, -1.1911224480718374, -1.1791924089193344, -1.1672623697668314, -1.1553323306143284, -1.1434022914618254, -1.1314722523093224, -1.1195422131568193, -1.1076121740043163, -1.0956821348518133, -1.0837520956993103, -1.0718220565468073, -1.0598920173943043, -1.0479619782418013, -1.0360319390892982, -1.0241018999367952, -1.0121718607842922, -1.0002418216317892, -0.9883117824792862, -0.9763817433267832, -0.9644517041742802, -0.9525216650217772, -0.9405916258692741, -0.9286615867167711, -0.9167315475642681, -0.9048015084117651, -0.8928714692592621, -0.8809414301067591, -0.8690113909542561, -0.857081351801753, -0.84515131264925, -0.833221273496747, -0.821291234344244, -0.809361195191741, -0.797431156039238, -0.785501116886735, -0.773571077734232, -0.7616410385817289, -0.7497109994292259, -0.7377809602767229, -0.7258509211242199, -0.7139208819717169, -0.7019908428192139]}, "episode_rewards": {"_type": "histogram", "values": [5, 0, 0, 0, 0, 0, 10, 0, 0, 0, 0, 0, 0, 0, 0, 0, 0, 0, 0, 0, 0, 0, 0, 0, 0, 10, 0, 0, 0, 0, 0, 0, 0, 0, 0, 0, 0, 0, 0, 0, 0, 0, 0, 0, 0, 0, 0, 0, 0, 0, 0, 0, 0, 0, 0, 0, 0, 15, 0, 0, 0, 0, 0, 25], "bins": [-21.0, -20.6875, -20.375, -20.0625, -19.75, -19.4375, -19.125, -18.8125, -18.5, -18.1875, -17.875, -17.5625, -17.25, -16.9375, -16.625, -16.3125, -16.0, -15.6875, -15.375, -15.0625, -14.75, -14.4375, -14.125, -13.8125, -13.5, -13.1875, -12.875, -12.5625, -12.25, -11.9375, -11.625, -11.3125, -11.0, -10.6875, -10.375, -10.0625, -9.75, -9.4375, -9.125, -8.8125, -8.5, -8.1875, -7.875, -7.5625, -7.25, -6.9375, -6.625, -6.3125, -6.0, -5.6875, -5.375, -5.0625, -4.75, -4.4375, -4.125, -3.8125, -3.5, -3.1875, -2.875, -2.5625, -2.25, -1.9375, -1.625, -1.3125, -1.0]}, "avg_reward": -1550.3333333333333, "done_agents": 0.34067460317460324, "deadlock_agents": 0.39558531746031744, "_wandb": {"runtime": 253}}