{"parameters/attention_0.att_l": {"_type": "histogram", "values": [1.0, 0.0, 0.0, 1.0, 0.0, 0.0, 1.0, 1.0, 0.0, 0.0, 3.0, 0.0, 3.0, 0.0, 1.0, 1.0, 3.0, 1.0, 0.0, 1.0, 1.0, 1.0, 0.0, 0.0, 2.0, 1.0, 0.0, 0.0, 0.0, 1.0, 0.0, 0.0, 1.0, 1.0, 0.0, 2.0, 2.0, 0.0, 0.0, 1.0, 0.0, 0.0, 2.0, 0.0, 0.0, 1.0, 1.0, 0.0, 0.0, 1.0, 2.0, 1.0, 0.0, 1.0, 0.0, 0.0, 0.0, 0.0, 0.0, 0.0, 0.0, 0.0, 0.0, 1.0], "bins": [-0.6870347261428833, -0.6640452742576599, -0.6410558223724365, -0.6180664300918579, -0.5950769782066345, -0.5720875263214111, -0.5490981340408325, -0.5261086821556091, -0.5031192302703857, -0.48012977838516235, -0.45714035630226135, -0.43415093421936035, -0.41116148233413696, -0.3881720304489136, -0.3651826083660126, -0.3421931862831116, -0.3192037343978882, -0.2962142825126648, -0.2732248604297638, -0.2502354383468628, -0.2272459864616394, -0.2042565494775772, -0.18126711249351501, -0.15827767550945282, -0.13528823852539062, -0.11229880154132843, -0.08930936455726624, -0.06631992757320404, -0.043330490589141846, -0.02034105360507965, 0.002648383378982544, 0.02563782036304474, 0.04862731695175171, 0.0716167539358139, 0.0946061909198761, 0.1175956279039383, 0.1405850648880005, 0.16357450187206268, 0.18656393885612488, 0.20955337584018707, 0.23254281282424927, 0.25553226470947266, 0.27852168679237366, 0.30151110887527466, 0.32450056076049805, 0.34749001264572144, 0.37047943472862244, 0.39346885681152344, 0.4164583086967468, 0.4394477605819702, 0.4624371826648712, 0.4854266047477722, 0.5084160566329956, 0.531405508518219, 0.5543949604034424, 0.577384352684021, 0.6003738045692444, 0.6233632564544678, 0.6463526487350464, 0.6693421006202698, 0.6923315525054932, 0.7153210043907166, 0.7383104562759399, 0.7612998485565186, 0.7842893004417419]}, "parameters/attention_0.att_r": {"_type": "histogram", "values": [2.0, 0.0, 0.0, 0.0, 0.0, 0.0, 0.0, 2.0, 2.0, 1.0, 0.0, 0.0, 2.0, 1.0, 0.0, 0.0, 0.0, 1.0, 0.0, 0.0, 1.0, 1.0, 1.0, 0.0, 1.0, 0.0, 0.0, 0.0, 0.0, 2.0, 1.0, 0.0, 2.0, 0.0, 1.0, 1.0, 1.0, 1.0, 0.0, 0.0, 1.0, 0.0, 1.0, 2.0, 2.0, 2.0, 0.0, 0.0, 1.0, 0.0, 1.0, 1.0, 0.0, 0.0, 0.0, 0.0, 1.0, 0.0, 0.0, 1.0, 0.0, 2.0, 0.0, 1.0], "bins": [-0.6283517479896545, -0.6074680685997009, -0.5865843296051025, -0.5657006502151489, -0.5448169708251953, -0.5239332914352417, -0.5030495524406433, -0.4821658730506897, -0.4612821638584137, -0.4403984546661377, -0.4195147752761841, -0.3986310660839081, -0.3777473568916321, -0.35686367750167847, -0.33597996830940247, -0.31509625911712646, -0.29421257972717285, -0.27332887053489685, -0.25244519114494324, -0.23156148195266724, -0.21067778766155243, -0.18979409337043762, -0.16891038417816162, -0.14802668988704681, -0.127142995595932, -0.1062593013048172, -0.0853755995631218, -0.06449189782142639, -0.043608203530311584, -0.022724509239196777, -0.0018408000469207764, 0.01904289424419403, 0.03992664813995361, 0.06081034615635872, 0.08169404417276382, 0.10257774591445923, 0.12346144020557404, 0.14434513449668884, 0.16522884368896484, 0.18611253798007965, 0.20699623227119446, 0.22787992656230927, 0.24876362085342407, 0.2696473300457001, 0.2905310392379761, 0.3114147186279297, 0.3322984278202057, 0.3531821370124817, 0.3740658164024353, 0.3949495255947113, 0.4158332049846649, 0.4367169141769409, 0.45760059356689453, 0.47848430275917053, 0.49936801195144653, 0.5202516913414001, 0.5411354303359985, 0.5620191097259521, 0.5829028487205505, 0.6037865281105042, 0.6246702075004578, 0.6455539464950562, 0.6664376258850098, 0.6873213052749634, 0.708204984664917]}, "parameters/attention_0.bias": {"_type": "histogram", "values": [1.0, 1.0, 0.0, 0.0, 1.0, 0.0, 1.0, 2.0, 1.0, 0.0, 1.0, 1.0, 1.0, 1.0, 0.0, 0.0, 3.0, 0.0, 0.0, 3.0, 0.0, 1.0, 1.0, 0.0, 1.0, 2.0, 1.0, 0.0, 0.0, 0.0, 1.0, 1.0, 0.0, 1.0, 0.0, 1.0, 1.0, 0.0, 0.0, 1.0, 0.0, 0.0, 0.0, 0.0, 0.0, 2.0, 1.0, 1.0, 0.0, 0.0, 0.0, 0.0, 0.0, 0.0, 0.0, 0.0, 1.0, 3.0, 0.0, 0.0, 0.0, 1.0, 0.0, 2.0], "bins": [-0.3719254732131958, -0.36218225955963135, -0.3524390459060669, -0.34269580245018005, -0.3329525887966156, -0.32320937514305115, -0.3134661614894867, -0.30372294783592224, -0.2939797043800354, -0.28423649072647095, -0.2744932770729065, -0.26475003361701965, -0.2550068199634552, -0.24526360630989075, -0.2355203926563263, -0.22577717900276184, -0.2160339653491974, -0.20629075169563293, -0.1965475231409073, -0.18680430948734283, -0.1770610809326172, -0.16731786727905273, -0.15757465362548828, -0.14783143997192383, -0.13808821141719818, -0.12834499776363373, -0.11860176920890808, -0.10885855555534363, -0.09911533445119858, -0.08937211334705353, -0.07962889969348907, -0.06988567858934402, -0.06014242768287659, -0.05039920657873154, -0.040655989199876785, -0.030912769958376884, -0.021169550716876984, -0.011426329612731934, -0.001683112233877182, 0.00806010514497757, 0.01780332624912262, 0.02754654549062252, 0.03728976473212242, 0.04703298211097717, 0.05677620321512222, 0.06651942431926727, 0.07626263797283173, 0.08600585907697678, 0.09574908018112183, 0.10549230128526688, 0.11523552238941193, 0.12497873604297638, 0.13472196459770203, 0.14446517825126648, 0.15420839190483093, 0.16395160555839539, 0.17369483411312103, 0.18343804776668549, 0.19318127632141113, 0.20292448997497559, 0.21266770362854004, 0.22241093218326569, 0.23215414583683014, 0.2418973743915558, 0.25164058804512024]}, "parameters/attention_0.lin_l.weight": {"_type": "histogram", "values": [2.0, 0.0, 0.0, 4.0, 1.0, 1.0, 4.0, 1.0, 3.0, 5.0, 3.0, 2.0, 5.0, 4.0, 7.0, 9.0, 8.0, 8.0, 6.0, 21.0, 5.0, 8.0, 8.0, 17.0, 9.0, 10.0, 19.0, 15.0, 14.0, 13.0, 15.0, 14.0, 16.0, 29.0, 19.0, 22.0, 13.0, 15.0, 9.0, 11.0, 10.0, 5.0, 6.0, 10.0, 9.0, 4.0, 4.0, 6.0, 5.0, 8.0, 5.0, 3.0, 3.0, 8.0, 3.0, 4.0, 5.0, 4.0, 0.0, 0.0, 1.0, 0.0, 0.0, 2.0], "bins": [-0.5282949209213257, -0.5134381055831909, -0.49858132004737854, -0.4837245047092438, -0.4688677191734314, -0.45401090383529663, -0.43915408849716187, -0.4242972731590271, -0.4094404876232147, -0.39458367228507996, -0.3797268867492676, -0.3648700714111328, -0.35001325607299805, -0.33515647053718567, -0.3202996551990509, -0.3054428696632385, -0.29058605432510376, -0.275729238986969, -0.2608724534511566, -0.24601563811302185, -0.23115883767604828, -0.2163020372390747, -0.20144522190093994, -0.18658842146396637, -0.1717316210269928, -0.15687482059001923, -0.14201802015304565, -0.1271612048149109, -0.11230440437793732, -0.09744760394096375, -0.08259079605340958, -0.06773398816585541, -0.05287715792655945, -0.03802035376429558, -0.023163549602031708, -0.008306745439767838, 0.006550058722496033, 0.021406859159469604, 0.03626366704702377, 0.05112047493457794, 0.06597727537155151, 0.08083407580852509, 0.09569088369607925, 0.11054769158363342, 0.125404492020607, 0.14026129245758057, 0.15511810779571533, 0.1699749082326889, 0.18483170866966248, 0.19968850910663605, 0.21454530954360962, 0.22940212488174438, 0.24425892531871796, 0.25911572575569153, 0.2739725410938263, 0.28882932662963867, 0.30368614196777344, 0.3185429573059082, 0.3333997428417206, 0.34825655817985535, 0.3631133437156677, 0.3779701590538025, 0.39282697439193726, 0.407683789730072, 0.4225405752658844]}, "parameters/attention_1.att_l": {"_type": "histogram", "values": [1.0, 1.0, 1.0, 1.0, 0.0, 0.0, 0.0, 0.0, 0.0, 0.0, 0.0, 0.0, 0.0, 2.0, 0.0, 0.0, 2.0, 1.0, 1.0, 0.0, 1.0, 3.0, 1.0, 0.0, 2.0, 2.0, 0.0, 0.0, 0.0, 2.0, 1.0, 1.0, 1.0, 1.0, 0.0, 0.0, 1.0, 0.0, 0.0, 1.0, 0.0, 0.0, 3.0, 1.0, 2.0, 1.0, 0.0, 0.0, 1.0, 1.0, 1.0, 0.0, 1.0, 1.0, 0.0, 0.0, 0.0, 0.0, 0.0, 0.0, 0.0, 0.0, 0.0, 1.0], "bins": [-0.7898452281951904, -0.7633665204048157, -0.7368878126144409, -0.7104091048240662, -0.6839303970336914, -0.6574516296386719, -0.6309729218482971, -0.6044942140579224, -0.5780155062675476, -0.5515367984771729, -0.5250580906867981, -0.49857935309410095, -0.4721006453037262, -0.44562193751335144, -0.4191431999206543, -0.39266449213027954, -0.3661857843399048, -0.33970707654953003, -0.3132283687591553, -0.28674963116645813, -0.2602709233760834, -0.23379221558570862, -0.20731349289417267, -0.18083477020263672, -0.15435606241226196, -0.1278773546218872, -0.10139863193035126, -0.0749199166893959, -0.04844120144844055, -0.021962493658065796, 0.004516229033470154, 0.030994951725006104, 0.05747365951538086, 0.08395237475633621, 0.11043108999729156, 0.13690981268882751, 0.16338852047920227, 0.18986722826957703, 0.21634595096111298, 0.24282467365264893, 0.2693033814430237, 0.29578208923339844, 0.3222607970237732, 0.34873953461647034, 0.3752182424068451, 0.40169695019721985, 0.428175687789917, 0.45465439558029175, 0.4811331033706665, 0.5076118111610413, 0.534090518951416, 0.5605692267417908, 0.5870479345321655, 0.6135267019271851, 0.6400054097175598, 0.6664841175079346, 0.6929628252983093, 0.7194415330886841, 0.7459202408790588, 0.7723989486694336, 0.7988777160644531, 0.8253563642501831, 0.8518351316452026, 0.8783138394355774, 0.9047925472259521]}, "parameters/attention_1.att_r": {"_type": "histogram", "values": [1.0, 0.0, 1.0, 0.0, 0.0, 0.0, 0.0, 0.0, 0.0, 1.0, 0.0, 0.0, 0.0, 2.0, 0.0, 0.0, 2.0, 0.0, 0.0, 1.0, 2.0, 1.0, 2.0, 0.0, 1.0, 0.0, 0.0, 0.0, 1.0, 0.0, 0.0, 0.0, 0.0, 1.0, 0.0, 2.0, 1.0, 0.0, 1.0, 0.0, 1.0, 1.0, 0.0, 1.0, 0.0, 1.0, 1.0, 3.0, 0.0, 3.0, 0.0, 0.0, 1.0, 1.0, 0.0, 0.0, 2.0, 0.0, 1.0, 0.0, 0.0, 1.0, 1.0, 2.0], "bins": [-0.9033501744270325, -0.8811074495315552, -0.8588647246360779, -0.8366219997406006, -0.8143792748451233, -0.792136549949646, -0.7698938250541687, -0.7476511001586914, -0.7254083752632141, -0.7031656503677368, -0.6809229254722595, -0.6586802005767822, -0.6364374756813049, -0.6141947507858276, -0.5919520258903503, -0.569709300994873, -0.547466516494751, -0.5252237915992737, -0.5029810667037964, -0.4807383418083191, -0.4584956169128418, -0.4362528920173645, -0.4140101671218872, -0.3917674422264099, -0.3695247173309326, -0.3472819924354553, -0.325039267539978, -0.30279654264450073, -0.28055381774902344, -0.25831109285354614, -0.23606835305690765, -0.21382562816143036, -0.19158291816711426, -0.16934019327163696, -0.14709746837615967, -0.12485473603010178, -0.10261201113462448, -0.08036928623914719, -0.058126553893089294, -0.035883828997612, -0.013641104102134705, 0.00860162265598774, 0.030844349414110184, 0.05308707803487778, 0.07532980293035507, 0.09757252782583237, 0.11981526017189026, 0.14205798506736755, 0.16430070996284485, 0.18654343485832214, 0.20878615975379944, 0.23102888464927673, 0.25327160954475403, 0.2755143344402313, 0.297757089138031, 0.3199998140335083, 0.3422425389289856, 0.3644852638244629, 0.3867279887199402, 0.4089707136154175, 0.4312134385108948, 0.45345616340637207, 0.47569888830184937, 0.49794161319732666, 0.520184338092804]}, "parameters/attention_1.bias": {"_type": "histogram", "values": [2.0, 2.0, 2.0, 1.0, 1.0, 1.0, 1.0, 3.0, 0.0, 1.0, 0.0, 1.0, 0.0, 0.0, 2.0, 0.0, 1.0, 0.0, 0.0, 2.0, 1.0, 1.0, 1.0, 1.0, 0.0, 0.0, 0.0, 0.0, 1.0, 0.0, 0.0, 0.0, 0.0, 0.0, 0.0, 1.0, 0.0, 0.0, 1.0, 1.0, 2.0, 1.0, 0.0, 1.0, 1.0, 0.0, 1.0, 1.0, 0.0, 0.0, 0.0, 1.0, 1.0, 1.0, 0.0, 1.0, 0.0, 0.0, 0.0, 0.0, 0.0, 0.0, 0.0, 1.0], "bins": [-0.45118582248687744, -0.4366278350353241, -0.42206987738609314, -0.4075118899345398, -0.39295393228530884, -0.3783959448337555, -0.36383795738220215, -0.3492799997329712, -0.33472201228141785, -0.3201640248298645, -0.30560606718063354, -0.2910480797290802, -0.27649009227752686, -0.2619321346282959, -0.24737414717674255, -0.2328161746263504, -0.21825820207595825, -0.2037002295255661, -0.18914225697517395, -0.1745842695236206, -0.16002629697322845, -0.1454683244228363, -0.13091033697128296, -0.11635236442089081, -0.10179439187049866, -0.0872364193201065, -0.07267843931913376, -0.05812046304345131, -0.04356248676776886, -0.02900451421737671, -0.014446534216403961, 0.00011144578456878662, 0.014669418334960938, 0.029227394610643387, 0.043785370886325836, 0.058343347162008286, 0.07290132343769073, 0.08745929598808289, 0.10201727598905563, 0.11657525599002838, 0.13113322854042053, 0.14569120109081268, 0.16024917364120483, 0.17480716109275818, 0.18936513364315033, 0.20392310619354248, 0.21848109364509583, 0.23303906619548798, 0.24759703874588013, 0.26215502619743347, 0.27671298384666443, 0.2912709712982178, 0.30582892894744873, 0.3203869163990021, 0.3349449038505554, 0.3495028614997864, 0.3640608489513397, 0.37861883640289307, 0.393176794052124, 0.40773478150367737, 0.4222927689552307, 0.43685072660446167, 0.451408714056015, 0.46596670150756836, 0.4805246591567993]}, "parameters/attention_1.lin_l.weight": {"_type": "histogram", "values": [1.0, 0.0, 0.0, 1.0, 0.0, 3.0, 2.0, 4.0, 6.0, 4.0, 6.0, 15.0, 11.0, 13.0, 24.0, 14.0, 20.0, 21.0, 26.0, 39.0, 27.0, 41.0, 26.0, 46.0, 48.0, 58.0, 43.0, 36.0, 53.0, 37.0, 49.0, 43.0, 51.0, 56.0, 58.0, 56.0, 60.0, 70.0, 65.0, 46.0, 48.0, 36.0, 43.0, 32.0, 23.0, 27.0, 33.0, 22.0, 26.0, 24.0, 23.0, 22.0, 11.0, 12.0, 10.0, 12.0, 3.0, 3.0, 5.0, 3.0, 0.0, 1.0, 0.0, 2.0], "bins": [-0.5802157521247864, -0.5625062584877014, -0.5447967648506165, -0.5270872712135315, -0.5093777775764465, -0.49166831374168396, -0.473958820104599, -0.45624932646751404, -0.43853986263275146, -0.4208303689956665, -0.40312087535858154, -0.3854113817214966, -0.367701917886734, -0.34999242424964905, -0.3322829306125641, -0.3145734369754791, -0.29686394333839417, -0.2791544497013092, -0.26144495606422424, -0.24373547732830048, -0.2260259985923767, -0.20831650495529175, -0.1906070113182068, -0.17289751768112183, -0.15518803894519806, -0.1374785453081131, -0.11976906657218933, -0.10205957293510437, -0.0843500867486, -0.06664060056209564, -0.04893110692501068, -0.031221620738506317, -0.013512134552001953, 0.00419735349714756, 0.021906841546297073, 0.039616331458091736, 0.0573258176445961, 0.07503530383110046, 0.09274479746818542, 0.11045428365468979, 0.12816376984119415, 0.1458732634782791, 0.16358274221420288, 0.18129223585128784, 0.1990017294883728, 0.21671120822429657, 0.23442070186138153, 0.2521301805973053, 0.26983967423439026, 0.2875491678714752, 0.3052586615085602, 0.32296812534332275, 0.3406776189804077, 0.3583871126174927, 0.37609660625457764, 0.3938060998916626, 0.41151559352874756, 0.4292250871658325, 0.4469345808029175, 0.46464407444000244, 0.482353538274765, 0.5000630617141724, 0.5177725553512573, 0.5354819893836975, 0.5531914830207825]}, "parameters/attention_2.att_l": {"_type": "histogram", "values": [1.0, 0.0, 1.0, 0.0, 0.0, 1.0, 1.0, 0.0, 0.0, 2.0, 0.0, 0.0, 0.0, 0.0, 0.0, 0.0, 1.0, 1.0, 1.0, 0.0, 0.0, 1.0, 1.0, 1.0, 0.0, 1.0, 0.0, 1.0, 1.0, 1.0, 0.0, 0.0, 0.0, 1.0, 0.0, 1.0, 0.0, 0.0, 1.0, 1.0, 2.0, 1.0, 0.0, 3.0, 0.0, 2.0, 0.0, 1.0, 1.0, 3.0, 1.0, 1.0, 1.0, 0.0, 0.0, 0.0, 0.0, 1.0, 2.0, 0.0, 0.0, 0.0, 0.0, 1.0], "bins": [-0.9442916512489319, -0.9189369082450867, -0.8935821652412415, -0.8682274222373962, -0.842872679233551, -0.8175179362297058, -0.7921631336212158, -0.7668083906173706, -0.7414536476135254, -0.7160989046096802, -0.690744161605835, -0.6653894186019897, -0.6400346755981445, -0.6146799325942993, -0.5893251895904541, -0.5639704465866089, -0.5386157035827637, -0.5132609605789185, -0.48790621757507324, -0.462551474571228, -0.4371967315673828, -0.4118419885635376, -0.38648721575737, -0.3611324727535248, -0.33577772974967957, -0.31042298674583435, -0.28506824374198914, -0.25971347093582153, -0.2343587428331375, -0.2090039998292923, -0.1836492419242859, -0.15829449892044067, -0.13293969631195068, -0.10758495330810547, -0.08223020285367966, -0.056875452399253845, -0.03152070939540863, -0.0061659663915634155, 0.019188791513442993, 0.04454353451728821, 0.06989827752113342, 0.09525302052497864, 0.12060777097940445, 0.14596252143383026, 0.17131726443767548, 0.1966720074415207, 0.2220267653465271, 0.24738150835037231, 0.27273625135421753, 0.29809099435806274, 0.32344573736190796, 0.3488004803657532, 0.3741552233695984, 0.3995099663734436, 0.4248647391796112, 0.4502194821834564, 0.47557422518730164, 0.5009289979934692, 0.5262837409973145, 0.5516384840011597, 0.5769932270050049, 0.6023479700088501, 0.6277027130126953, 0.6530574560165405, 0.6784121990203857]}, "parameters/attention_2.att_r": {"_type": "histogram", "values": [2.0, 0.0, 1.0, 1.0, 1.0, 0.0, 1.0, 1.0, 0.0, 0.0, 0.0, 1.0, 0.0, 0.0, 2.0, 0.0, 0.0, 1.0, 0.0, 0.0, 1.0, 0.0, 0.0, 1.0, 1.0, 1.0, 0.0, 0.0, 0.0, 1.0, 1.0, 0.0, 0.0, 0.0, 0.0, 0.0, 1.0, 0.0, 3.0, 4.0, 1.0, 1.0, 1.0, 0.0, 2.0, 1.0, 2.0, 1.0, 0.0, 1.0, 0.0, 0.0, 1.0, 0.0, 0.0, 0.0, 0.0, 1.0, 0.0, 0.0, 1.0, 1.0, 0.0, 1.0], "bins": [-0.6960324645042419, -0.6767373085021973, -0.6574421525001526, -0.6381469964981079, -0.6188518404960632, -0.5995566844940186, -0.5802615284919739, -0.5609663724899292, -0.5416711568832397, -0.5223760008811951, -0.5030808448791504, -0.4837856888771057, -0.46449053287506104, -0.44519537687301636, -0.4259001910686493, -0.4066050350666046, -0.3873099088668823, -0.36801475286483765, -0.34871959686279297, -0.3294244408607483, -0.3101292848587036, -0.29083412885665894, -0.27153894305229187, -0.2522437870502472, -0.23294863104820251, -0.21365347504615784, -0.19435831904411316, -0.1750631481409073, -0.1557679921388626, -0.13647283613681793, -0.11717767268419266, -0.09788250923156738, -0.07858729362487793, -0.059292133897542953, -0.03999697417020798, -0.020701814442873, -0.001406654715538025, 0.017888501286506653, 0.03718366473913193, 0.0564788281917572, 0.07577398419380188, 0.09506914019584656, 0.11436430364847183, 0.1336594671010971, 0.15295462310314178, 0.17224977910518646, 0.19154495000839233, 0.210840106010437, 0.2301352620124817, 0.24943041801452637, 0.26872557401657104, 0.2880207300186157, 0.3073158860206604, 0.3266110420227051, 0.34590622782707214, 0.3652013838291168, 0.3844965398311615, 0.4037916958332062, 0.42308685183525085, 0.44238200783729553, 0.4616771936416626, 0.4809723496437073, 0.500267505645752, 0.5195626616477966, 0.5388578176498413]}, "parameters/attention_2.bias": {"_type": "histogram", "values": [2.0, 1.0, 0.0, 1.0, 0.0, 2.0, 1.0, 1.0, 2.0, 3.0, 2.0, 2.0, 0.0, 0.0, 0.0, 1.0, 0.0, 0.0, 1.0, 0.0, 2.0, 0.0, 2.0, 0.0, 0.0, 0.0, 0.0, 0.0, 0.0, 0.0, 0.0, 0.0, 0.0, 0.0, 1.0, 0.0, 1.0, 0.0, 1.0, 1.0, 0.0, 1.0, 0.0, 0.0, 1.0, 1.0, 1.0, 1.0, 0.0, 1.0, 1.0, 0.0, 0.0, 1.0, 1.0, 1.0, 0.0, 1.0, 0.0, 1.0, 0.0, 0.0, 0.0, 1.0], "bins": [-0.44348791241645813, -0.4287663996219635, -0.4140448570251465, -0.39932334423065186, -0.3846018314361572, -0.3698803186416626, -0.35515880584716797, -0.34043726325035095, -0.3257157504558563, -0.3109942376613617, -0.2962726950645447, -0.28155118227005005, -0.2668296694755554, -0.2521081566810608, -0.23738662898540497, -0.22266510128974915, -0.20794358849525452, -0.1932220757007599, -0.17850054800510406, -0.16377902030944824, -0.1490575075149536, -0.13433599472045898, -0.11961446702480316, -0.10489294677972794, -0.09017142653465271, -0.07544990628957748, -0.06072838604450226, -0.04600686579942703, -0.03128534555435181, -0.01656382530927658, -0.001842305064201355, 0.01287921518087387, 0.02760070562362671, 0.042322225868701935, 0.05704374611377716, 0.07176526635885239, 0.08648678660392761, 0.10120830684900284, 0.11592982709407806, 0.1306513547897339, 0.14537286758422852, 0.16009438037872314, 0.17481590807437897, 0.1895374357700348, 0.20425894856452942, 0.21898046135902405, 0.23370198905467987, 0.2484235167503357, 0.2631450295448303, 0.27786654233932495, 0.2925880551338196, 0.3073095977306366, 0.3220311105251312, 0.33675262331962585, 0.35147416591644287, 0.3661956787109375, 0.38091719150543213, 0.39563870429992676, 0.4103602170944214, 0.4250817596912384, 0.43980327248573303, 0.45452478528022766, 0.4692463278770447, 0.4839678406715393, 0.49868935346603394]}, "parameters/attention_2.lin_l.weight": {"_type": "histogram", "values": [1.0, 0.0, 1.0, 2.0, 3.0, 1.0, 5.0, 6.0, 4.0, 8.0, 6.0, 8.0, 10.0, 21.0, 17.0, 25.0, 19.0, 17.0, 19.0, 36.0, 34.0, 32.0, 43.0, 57.0, 52.0, 50.0, 57.0, 53.0, 48.0, 46.0, 64.0, 51.0, 49.0, 62.0, 62.0, 71.0, 62.0, 57.0, 52.0, 48.0, 48.0, 33.0, 31.0, 35.0, 31.0, 23.0, 22.0, 21.0, 19.0, 16.0, 5.0, 10.0, 12.0, 11.0, 6.0, 2.0, 3.0, 2.0, 3.0, 3.0, 1.0, 1.0, 1.0, 2.0], "bins": [-0.6235318183898926, -0.6034508943557739, -0.5833699107170105, -0.5632889866828918, -0.5432080030441284, -0.5231270790100098, -0.5030460953712463, -0.4829651713371277, -0.46288421750068665, -0.4428032636642456, -0.42272230982780457, -0.4026413559913635, -0.3825604319572449, -0.36247944831848145, -0.3423985242843628, -0.32231757044792175, -0.3022366166114807, -0.2821556627750397, -0.26207470893859863, -0.2419937700033188, -0.22191281616687775, -0.2018318623304367, -0.18175092339515686, -0.16166996955871582, -0.14158901572227478, -0.12150806188583374, -0.1014271154999733, -0.08134616911411285, -0.061265215277671814, -0.041184261441230774, -0.02110331505537033, -0.0010223686695098877, 0.019058585166931152, 0.039139535278081894, 0.059220485389232635, 0.07930143177509308, 0.09938238561153412, 0.11946333944797516, 0.139544278383255, 0.15962523221969604, 0.17970618605613708, 0.19978713989257812, 0.21986809372901917, 0.239949032664299, 0.26002997159957886, 0.2801109552383423, 0.30019187927246094, 0.320272833108902, 0.340353786945343, 0.36043474078178406, 0.3805156946182251, 0.40059664845466614, 0.4206776022911072, 0.44075852632522583, 0.46083948016166687, 0.4809204339981079, 0.5010013580322266, 0.5210822820663452, 0.5411632657051086, 0.5612441897392273, 0.5813251733779907, 0.6014060974121094, 0.6214870810508728, 0.6415680050849915, 0.6616489887237549]}, "parameters/out_att.att_l": {"_type": "histogram", "values": [0.0, 0.0, 0.0, 0.0, 0.0, 0.0, 0.0, 0.0, 0.0, 0.0, 0.0, 0.0, 0.0, 0.0, 0.0, 0.0, 0.0, 0.0, 0.0, 0.0, 0.0, 0.0, 0.0, 0.0, 0.0, 0.0, 0.0, 0.0, 0.0, 0.0, 0.0, 0.0, 1.0, 0.0, 0.0, 0.0, 0.0, 0.0, 0.0, 0.0, 0.0, 0.0, 0.0, 0.0, 0.0, 0.0, 0.0, 0.0, 0.0, 0.0, 0.0, 0.0, 0.0, 0.0, 0.0, 0.0, 0.0, 0.0, 0.0, 0.0, 0.0, 0.0, 0.0, 0.0], "bins": [-0.33266881108283997, -0.33266881108283997, -0.33266881108283997, -0.33266881108283997, -0.33266881108283997, -0.33266881108283997, -0.33266881108283997, -0.33266881108283997, -0.33266881108283997, -0.33266881108283997, -0.33266881108283997, -0.33266881108283997, -0.33266881108283997, -0.33266881108283997, -0.33266881108283997, -0.33266881108283997, -0.33266881108283997, -0.33266881108283997, -0.33266881108283997, -0.33266881108283997, -0.33266881108283997, -0.33266881108283997, -0.33266881108283997, -0.33266881108283997, -0.33266881108283997, -0.33266881108283997, -0.33266881108283997, -0.33266881108283997, -0.33266881108283997, -0.33266881108283997, -0.33266881108283997, -0.33266881108283997, -0.33266881108283997, -0.33266881108283997, -0.33266881108283997, -0.33266881108283997, -0.33266881108283997, -0.33266881108283997, -0.33266881108283997, -0.33266881108283997, -0.33266881108283997, -0.33266881108283997, -0.33266881108283997, -0.33266881108283997, -0.33266881108283997, -0.33266881108283997, -0.33266881108283997, -0.33266881108283997, -0.33266881108283997, -0.33266881108283997, -0.33266881108283997, -0.33266881108283997, -0.33266881108283997, -0.33266881108283997, -0.33266881108283997, -0.33266881108283997, -0.33266881108283997, -0.33266881108283997, -0.33266881108283997, -0.33266881108283997, -0.33266881108283997, -0.33266881108283997, -0.33266881108283997, -0.33266881108283997, -0.33266881108283997]}, "parameters/out_att.att_r": {"_type": "histogram", "values": [0.0, 0.0, 0.0, 0.0, 0.0, 0.0, 0.0, 0.0, 0.0, 0.0, 0.0, 0.0, 0.0, 0.0, 0.0, 0.0, 0.0, 0.0, 0.0, 0.0, 0.0, 0.0, 0.0, 0.0, 0.0, 0.0, 0.0, 0.0, 0.0, 0.0, 0.0, 1.0, 0.0, 0.0, 0.0, 0.0, 0.0, 0.0, 0.0, 0.0, 0.0, 0.0, 0.0, 0.0, 0.0, 0.0, 0.0, 0.0, 0.0, 0.0, 0.0, 0.0, 0.0, 0.0, 0.0, 0.0, 0.0, 0.0, 0.0, 0.0, 0.0, 0.0, 0.0, 0.0], "bins": [-0.1415145993232727, -0.1415145993232727, -0.1415145993232727, -0.1415145993232727, -0.1415145993232727, -0.1415145993232727, -0.1415145993232727, -0.1415145993232727, -0.1415145993232727, -0.1415145993232727, -0.1415145993232727, -0.1415145993232727, -0.1415145993232727, -0.1415145993232727, -0.1415145993232727, -0.1415145993232727, -0.1415145993232727, -0.1415145993232727, -0.1415145993232727, -0.1415145993232727, -0.1415145993232727, -0.1415145993232727, -0.1415145993232727, -0.1415145993232727, -0.1415145993232727, -0.1415145993232727, -0.1415145993232727, -0.1415145993232727, -0.1415145993232727, -0.1415145993232727, -0.1415145993232727, -0.1415145993232727, -0.1415145993232727, -0.1415145993232727, -0.1415145993232727, -0.1415145993232727, -0.1415145993232727, -0.1415145993232727, -0.1415145993232727, -0.1415145993232727, -0.1415145993232727, -0.1415145993232727, -0.1415145993232727, -0.1415145993232727, -0.1415145993232727, -0.1415145993232727, -0.1415145993232727, -0.1415145993232727, -0.1415145993232727, -0.1415145993232727, -0.1415145993232727, -0.1415145993232727, -0.1415145993232727, -0.1415145993232727, -0.1415145993232727, -0.1415145993232727, -0.1415145993232727, -0.1415145993232727, -0.1415145993232727, -0.1415145993232727, -0.1415145993232727, -0.1415145993232727, -0.1415145993232727, -0.1415145993232727, -0.1415145993232727]}, "parameters/out_att.bias": {"_type": "histogram", "values": [0.0, 0.0, 0.0, 0.0, 0.0, 0.0, 0.0, 0.0, 0.0, 0.0, 0.0, 0.0, 0.0, 0.0, 0.0, 0.0, 0.0, 0.0, 0.0, 0.0, 0.0, 0.0, 0.0, 0.0, 0.0, 0.0, 0.0, 0.0, 0.0, 0.0, 0.0, 0.0, 1.0, 0.0, 0.0, 0.0, 0.0, 0.0, 0.0, 0.0, 0.0, 0.0, 0.0, 0.0, 0.0, 0.0, 0.0, 0.0, 0.0, 0.0, 0.0, 0.0, 0.0, 0.0, 0.0, 0.0, 0.0, 0.0, 0.0, 0.0, 0.0, 0.0, 0.0, 0.0], "bins": [-1.7652795314788818, -1.7652795314788818, -1.7652795314788818, -1.7652795314788818, -1.7652795314788818, -1.7652795314788818, -1.7652795314788818, -1.7652795314788818, -1.7652795314788818, -1.7652795314788818, -1.7652795314788818, -1.7652795314788818, -1.7652795314788818, -1.7652795314788818, -1.7652795314788818, -1.7652795314788818, -1.7652795314788818, -1.7652795314788818, -1.7652795314788818, -1.7652795314788818, -1.7652795314788818, -1.7652795314788818, -1.7652795314788818, -1.7652795314788818, -1.7652795314788818, -1.7652795314788818, -1.7652795314788818, -1.7652795314788818, -1.7652795314788818, -1.7652795314788818, -1.7652795314788818, -1.7652795314788818, -1.7652795314788818, -1.7652795314788818, -1.7652795314788818, -1.7652795314788818, -1.7652795314788818, -1.7652795314788818, -1.7652795314788818, -1.7652795314788818, -1.7652795314788818, -1.7652795314788818, -1.7652795314788818, -1.7652795314788818, -1.7652795314788818, -1.7652795314788818, -1.7652795314788818, -1.7652795314788818, -1.7652795314788818, -1.7652795314788818, -1.7652795314788818, -1.7652795314788818, -1.7652795314788818, -1.7652795314788818, -1.7652795314788818, -1.7652795314788818, -1.7652795314788818, -1.7652795314788818, -1.7652795314788818, -1.7652795314788818, -1.7652795314788818, -1.7652795314788818, -1.7652795314788818, -1.7652795314788818, -1.7652795314788818]}, "parameters/out_att.lin_l.weight": {"_type": "histogram", "values": [3.0, 0.0, 0.0, 1.0, 0.0, 0.0, 1.0, 0.0, 1.0, 1.0, 2.0, 1.0, 1.0, 0.0, 1.0, 1.0, 1.0, 0.0, 1.0, 0.0, 1.0, 0.0, 0.0, 2.0, 2.0, 0.0, 0.0, 0.0, 0.0, 0.0, 0.0, 0.0, 0.0, 0.0, 0.0, 1.0, 0.0, 0.0, 1.0, 0.0, 0.0, 0.0, 1.0, 2.0, 1.0, 0.0, 2.0, 3.0, 2.0, 1.0, 1.0, 2.0, 0.0, 0.0, 1.0, 0.0, 0.0, 1.0, 0.0, 0.0, 0.0, 0.0, 0.0, 1.0], "bins": [-0.04580083116889, -0.04387422651052475, -0.0419476181268692, -0.04002101346850395, -0.038094405084848404, -0.036167800426483154, -0.034241192042827606, -0.03231458738446236, -0.030387980863451958, -0.02846137434244156, -0.02653476782143116, -0.02460816130042076, -0.02268155664205551, -0.020754948258399963, -0.018828343600034714, -0.016901737079024315, -0.014975130558013916, -0.013048524037003517, -0.011121917515993118, -0.009195311926305294, -0.007268705405294895, -0.005342098884284496, -0.003415493294596672, -0.0014888867735862732, 0.00043771974742412567, 0.002364326035603881, 0.004290932323783636, 0.006217538379132748, 0.008144144900143147, 0.010070751421153545, 0.01199735701084137, 0.013923963531851768, 0.01585056632757187, 0.017777172848582268, 0.019703779369592667, 0.021630384027957916, 0.023556992411613464, 0.025483597069978714, 0.027410203590989113, 0.02933681011199951, 0.03126341849565506, 0.03319002315402031, 0.03511663153767586, 0.03704323619604111, 0.038969844579696655, 0.040896449238061905, 0.042823053896427155, 0.0447496622800827, 0.04667626693844795, 0.0486028715968132, 0.05052947998046875, 0.052456084638834, 0.05438269302248955, 0.0563092976808548, 0.058235906064510345, 0.060162510722875595, 0.062089115381240845, 0.06401572376489639, 0.06594232469797134, 0.06786893308162689, 0.06979554146528244, 0.07172214984893799, 0.07364875078201294, 0.07557535916566849, 0.07750196754932404]}, "_runtime": 24243, "_timestamp": 1641160873, "_step": 200, "Learning rate value": 1.2336751833941225e-06, "Learning rate action": 1.2336751833941225e-06, "action_probs": {"_type": "histogram", "values": [1, 0, 1, 0, 3, 1, 2, 3, 0, 2, 1, 1, 2, 3, 2, 0, 2, 0, 2, 2, 0, 1, 0, 0, 1, 1, 0, 1, 1, 0, 0, 2, 0, 0, 0, 0, 2, 2, 2, 2, 1, 1, 2, 1, 2, 1, 1, 1, 1, 2, 1, 2, 1, 1, 1, 3, 1, 2, 0, 1, 0, 1, 0, 2], "bins": [0.3471667766571045, 0.35213544964790344, 0.3571041226387024, 0.36207282543182373, 0.3670414984226227, 0.37201017141342163, 0.37697887420654297, 0.3819475471973419, 0.38691622018814087, 0.3918848931789398, 0.39685356616973877, 0.4018222689628601, 0.40679094195365906, 0.411759614944458, 0.41672831773757935, 0.4216969907283783, 0.42666566371917725, 0.4316343367099762, 0.43660300970077515, 0.4415717124938965, 0.44654038548469543, 0.4515090584754944, 0.4564777612686157, 0.4614464342594147, 0.4664151072502136, 0.4713837802410126, 0.4763524532318115, 0.48132115602493286, 0.4862898290157318, 0.49125850200653076, 0.4962272047996521, 0.5011958479881287, 0.50616455078125, 0.5111332535743713, 0.5161018967628479, 0.5210705995559692, 0.5260392427444458, 0.5310079455375671, 0.5359766483306885, 0.540945291519165, 0.5459139943122864, 0.5508826971054077, 0.5558513402938843, 0.5608200430870056, 0.565788745880127, 0.5707573890686035, 0.5757260918617249, 0.5806947350502014, 0.5856634378433228, 0.5906321406364441, 0.5956007838249207, 0.600569486618042, 0.6055381298065186, 0.6105068325996399, 0.6154755353927612, 0.6204441785812378, 0.6254128813743591, 0.6303815841674805, 0.635350227355957, 0.6403189301490784, 0.6452876329421997, 0.6502562761306763, 0.6552249789237976, 0.6601936221122742, 0.6651623249053955]}, "stop_go_action": {"_type": "histogram", "values": [33, 0, 0, 0, 0, 0, 0, 0, 0, 0, 0, 0, 0, 0, 0, 0, 0, 0, 0, 0, 0, 0, 0, 0, 0, 0, 0, 0, 0, 0, 0, 0, 0, 0, 0, 0, 0, 0, 0, 0, 0, 0, 0, 0, 0, 0, 0, 0, 0, 0, 0, 0, 0, 0, 0, 0, 0, 0, 0, 0, 0, 0, 0, 39], "bins": [0.0, 0.015625, 0.03125, 0.046875, 0.0625, 0.078125, 0.09375, 0.109375, 0.125, 0.140625, 0.15625, 0.171875, 0.1875, 0.203125, 0.21875, 0.234375, 0.25, 0.265625, 0.28125, 0.296875, 0.3125, 0.328125, 0.34375, 0.359375, 0.375, 0.390625, 0.40625, 0.421875, 0.4375, 0.453125, 0.46875, 0.484375, 0.5, 0.515625, 0.53125, 0.546875, 0.5625, 0.578125, 0.59375, 0.609375, 0.625, 0.640625, 0.65625, 0.671875, 0.6875, 0.703125, 0.71875, 0.734375, 0.75, 0.765625, 0.78125, 0.796875, 0.8125, 0.828125, 0.84375, 0.859375, 0.875, 0.890625, 0.90625, 0.921875, 0.9375, 0.953125, 0.96875, 0.984375, 1.0]}, "node_values": {"_type": "histogram", "values": [1, 0, 0, 0, 0, 0, 0, 0, 0, 0, 6, 0, 0, 0, 0, 0, 0, 0, 0, 0, 0, 0, 0, 0, 0, 0, 0, 0, 0, 0, 0, 0, 0, 0, 0, 0, 0, 0, 0, 7, 7, 0, 0, 1, 0, 0, 0, 0, 1, 7, 0, 0, 13, 0, 0, 0, 1, 0, 7, 7, 0, 7, 0, 7], "bins": [-2.3637664318084717, -2.3632633350789547, -2.3627602383494377, -2.3622571416199207, -2.3617540448904037, -2.3612509481608868, -2.36074785143137, -2.360244754701853, -2.359741657972336, -2.359238561242819, -2.358735464513302, -2.358232367783785, -2.357729271054268, -2.357226174324751, -2.356723077595234, -2.356219980865717, -2.3557168841362, -2.355213787406683, -2.354710690677166, -2.354207593947649, -2.353704497218132, -2.353201400488615, -2.352698303759098, -2.352195207029581, -2.351692110300064, -2.351189013570547, -2.35068591684103, -2.350182820111513, -2.349679723381996, -2.349176626652479, -2.348673529922962, -2.348170433193445, -2.3476673364639282, -2.3471642397344112, -2.3466611430048943, -2.3461580462753773, -2.3456549495458603, -2.3451518528163433, -2.3446487560868263, -2.3441456593573093, -2.3436425626277924, -2.3431394658982754, -2.3426363691687584, -2.3421332724392414, -2.3416301757097244, -2.3411270789802074, -2.3406239822506905, -2.3401208855211735, -2.3396177887916565, -2.3391146920621395, -2.3386115953326225, -2.3381084986031055, -2.3376054018735886, -2.3371023051440716, -2.3365992084145546, -2.3360961116850376, -2.3355930149555206, -2.3350899182260036, -2.3345868214964867, -2.3340837247669697, -2.3335806280374527, -2.3330775313079357, -2.3325744345784187, -2.3320713378489017, -2.3315682411193848]}, "episode_rewards": {"_type": "histogram", "values": [6, 0, 0, 0, 0, 0, 0, 0, 0, 0, 0, 0, 0, 0, 0, 0, 0, 0, 0, 0, 0, 0, 0, 0, 0, 0, 0, 0, 0, 0, 0, 0, 8, 0, 0, 0, 0, 0, 0, 0, 0, 0, 0, 0, 0, 0, 0, 0, 0, 0, 0, 0, 0, 0, 0, 0, 21, 0, 0, 0, 0, 0, 0, 1], "bins": [-17.0, -16.75, -16.5, -16.25, -16.0, -15.75, -15.5, -15.25, -15.0, -14.75, -14.5, -14.25, -14.0, -13.75, -13.5, -13.25, -13.0, -12.75, -12.5, -12.25, -12.0, -11.75, -11.5, -11.25, -11.0, -10.75, -10.5, -10.25, -10.0, -9.75, -9.5, -9.25, -9.0, -8.75, -8.5, -8.25, -8.0, -7.75, -7.5, -7.25, -7.0, -6.75, -6.5, -6.25, -6.0, -5.75, -5.5, -5.25, -5.0, -4.75, -4.5, -4.25, -4.0, -3.75, -3.5, -3.25, -3.0, -2.75, -2.5, -2.25, -2.0, -1.75, -1.5, -1.25, -1.0]}, "avg_reward": -1628.5416666666667, "done_agents": 0.18561507936507937, "deadlock_agents": 0.44032738095238094, "gradients/out_att.bias": {"_type": "histogram", "values": [0.0, 0.0, 0.0, 0.0, 0.0, 0.0, 0.0, 0.0, 0.0, 0.0, 0.0, 0.0, 0.0, 0.0, 0.0, 0.0, 0.0, 0.0, 0.0, 0.0, 0.0, 0.0, 0.0, 0.0, 0.0, 0.0, 0.0, 0.0, 0.0, 0.0, 0.0, 0.0, 1.0, 0.0, 0.0, 0.0, 0.0, 0.0, 0.0, 0.0, 0.0, 0.0, 0.0, 0.0, 0.0, 0.0, 0.0, 0.0, 0.0, 0.0, 0.0, 0.0, 0.0, 0.0, 0.0, 0.0, 0.0, 0.0, 0.0, 0.0, 0.0, 0.0, 0.0, 0.0], "bins": [0.15247203409671783, 0.15247203409671783, 0.15247203409671783, 0.15247203409671783, 0.15247203409671783, 0.15247203409671783, 0.15247203409671783, 0.15247203409671783, 0.15247203409671783, 0.15247203409671783, 0.15247203409671783, 0.15247203409671783, 0.15247203409671783, 0.15247203409671783, 0.15247203409671783, 0.15247203409671783, 0.15247203409671783, 0.15247203409671783, 0.15247203409671783, 0.15247203409671783, 0.15247203409671783, 0.15247203409671783, 0.15247203409671783, 0.15247203409671783, 0.15247203409671783, 0.15247203409671783, 0.15247203409671783, 0.15247203409671783, 0.15247203409671783, 0.15247203409671783, 0.15247203409671783, 0.15247203409671783, 0.15247203409671783, 0.15247203409671783, 0.15247203409671783, 0.15247203409671783, 0.15247203409671783, 0.15247203409671783, 0.15247203409671783, 0.15247203409671783, 0.15247203409671783, 0.15247203409671783, 0.15247203409671783, 0.15247203409671783, 0.15247203409671783, 0.15247203409671783, 0.15247203409671783, 0.15247203409671783, 0.15247203409671783, 0.15247203409671783, 0.15247203409671783, 0.15247203409671783, 0.15247203409671783, 0.15247203409671783, 0.15247203409671783, 0.15247203409671783, 0.15247203409671783, 0.15247203409671783, 0.15247203409671783, 0.15247203409671783, 0.15247203409671783, 0.15247203409671783, 0.15247203409671783, 0.15247203409671783, 0.15247203409671783]}, "gradients/out_att.att_r": {"_type": "histogram", "values": [0.0, 0.0, 0.0, 0.0, 0.0, 0.0, 0.0, 0.0, 0.0, 0.0, 0.0, 0.0, 0.0, 0.0, 0.0, 0.0, 0.0, 0.0, 0.0, 0.0, 0.0, 0.0, 0.0, 0.0, 0.0, 0.0, 0.0, 0.0, 0.0, 0.0, 0.0, 0.0, 1.0, 0.0, 0.0, 0.0, 0.0, 0.0, 0.0, 0.0, 0.0, 0.0, 0.0, 0.0, 0.0, 0.0, 0.0, 0.0, 0.0, 0.0, 0.0, 0.0, 0.0, 0.0, 0.0, 0.0, 0.0, 0.0, 0.0, 0.0, 0.0, 0.0, 0.0, 0.0], "bins": [8.343851165548699e-10, 8.343851165548699e-10, 8.343851165548699e-10, 8.343851165548699e-10, 8.343851165548699e-10, 8.343851165548699e-10, 8.343851165548699e-10, 8.343851165548699e-10, 8.343851165548699e-10, 8.343851165548699e-10, 8.343851165548699e-10, 8.343851165548699e-10, 8.343851165548699e-10, 8.343851165548699e-10, 8.343851165548699e-10, 8.343851165548699e-10, 8.343851165548699e-10, 8.343851165548699e-10, 8.343851165548699e-10, 8.343851165548699e-10, 8.343851165548699e-10, 8.343851165548699e-10, 8.343851165548699e-10, 8.343851165548699e-10, 8.343851165548699e-10, 8.343851165548699e-10, 8.343851165548699e-10, 8.343851165548699e-10, 8.343851165548699e-10, 8.343851165548699e-10, 8.343851165548699e-10, 8.343851165548699e-10, 8.343851165548699e-10, 8.343851165548699e-10, 8.343851165548699e-10, 8.343851165548699e-10, 8.343851165548699e-10, 8.343851165548699e-10, 8.343851165548699e-10, 8.343851165548699e-10, 8.343851165548699e-10, 8.343851165548699e-10, 8.343851165548699e-10, 8.343851165548699e-10, 8.343851165548699e-10, 8.343851165548699e-10, 8.343851165548699e-10, 8.343851165548699e-10, 8.343851165548699e-10, 8.343851165548699e-10, 8.343851165548699e-10, 8.343851165548699e-10, 8.343851165548699e-10, 8.343851165548699e-10, 8.343851165548699e-10, 8.343851165548699e-10, 8.343851165548699e-10, 8.343851165548699e-10, 8.343851165548699e-10, 8.343851165548699e-10, 8.343851165548699e-10, 8.343851165548699e-10, 8.343851165548699e-10, 8.343851165548699e-10, 8.343851165548699e-10]}, "gradients/out_att.att_l": {"_type": "histogram", "values": [0.0, 0.0, 0.0, 0.0, 0.0, 0.0, 0.0, 0.0, 0.0, 0.0, 0.0, 0.0, 0.0, 0.0, 0.0, 0.0, 0.0, 0.0, 0.0, 0.0, 0.0, 0.0, 0.0, 0.0, 0.0, 0.0, 0.0, 0.0, 0.0, 0.0, 0.0, 0.0, 1.0, 0.0, 0.0, 0.0, 0.0, 0.0, 0.0, 0.0, 0.0, 0.0, 0.0, 0.0, 0.0, 0.0, 0.0, 0.0, 0.0, 0.0, 0.0, 0.0, 0.0, 0.0, 0.0, 0.0, 0.0, 0.0, 0.0, 0.0, 0.0, 0.0, 0.0, 0.0], "bins": [8.343851165548699e-10, 8.343851165548699e-10, 8.343851165548699e-10, 8.343851165548699e-10, 8.343851165548699e-10, 8.343851165548699e-10, 8.343851165548699e-10, 8.343851165548699e-10, 8.343851165548699e-10, 8.343851165548699e-10, 8.343851165548699e-10, 8.343851165548699e-10, 8.343851165548699e-10, 8.343851165548699e-10, 8.343851165548699e-10, 8.343851165548699e-10, 8.343851165548699e-10, 8.343851165548699e-10, 8.343851165548699e-10, 8.343851165548699e-10, 8.343851165548699e-10, 8.343851165548699e-10, 8.343851165548699e-10, 8.343851165548699e-10, 8.343851165548699e-10, 8.343851165548699e-10, 8.343851165548699e-10, 8.343851165548699e-10, 8.343851165548699e-10, 8.343851165548699e-10, 8.343851165548699e-10, 8.343851165548699e-10, 8.343851165548699e-10, 8.343851165548699e-10, 8.343851165548699e-10, 8.343851165548699e-10, 8.343851165548699e-10, 8.343851165548699e-10, 8.343851165548699e-10, 8.343851165548699e-10, 8.343851165548699e-10, 8.343851165548699e-10, 8.343851165548699e-10, 8.343851165548699e-10, 8.343851165548699e-10, 8.343851165548699e-10, 8.343851165548699e-10, 8.343851165548699e-10, 8.343851165548699e-10, 8.343851165548699e-10, 8.343851165548699e-10, 8.343851165548699e-10, 8.343851165548699e-10, 8.343851165548699e-10, 8.343851165548699e-10, 8.343851165548699e-10, 8.343851165548699e-10, 8.343851165548699e-10, 8.343851165548699e-10, 8.343851165548699e-10, 8.343851165548699e-10, 8.343851165548699e-10, 8.343851165548699e-10, 8.343851165548699e-10, 8.343851165548699e-10]}, "gradients/out_att.lin_l.weight": {"_type": "histogram", "values": [1.0, 0.0, 0.0, 0.0, 0.0, 0.0, 0.0, 0.0, 0.0, 0.0, 0.0, 0.0, 0.0, 0.0, 0.0, 0.0, 0.0, 0.0, 0.0, 0.0, 0.0, 0.0, 0.0, 0.0, 0.0, 0.0, 2.0, 1.0, 1.0, 2.0, 1.0, 1.0, 5.0, 4.0, 2.0, 1.0, 2.0, 1.0, 1.0, 1.0, 1.0, 0.0, 0.0, 0.0, 2.0, 1.0, 2.0, 4.0, 1.0, 0.0, 0.0, 0.0, 1.0, 0.0, 0.0, 1.0, 0.0, 0.0, 0.0, 0.0, 0.0, 0.0, 0.0, 1.0], "bins": [-0.4047721028327942, -0.39388105273246765, -0.3829900026321411, -0.3720989227294922, -0.36120787262916565, -0.3503168225288391, -0.3394257426261902, -0.32853469252586365, -0.3176436424255371, -0.30675259232521057, -0.29586154222488403, -0.2849704623222351, -0.27407941222190857, -0.26318836212158203, -0.2522972822189331, -0.24140623211860657, -0.23051518201828003, -0.2196241319179535, -0.20873306691646576, -0.19784200191497803, -0.1869509518146515, -0.17605990171432495, -0.16516883671283722, -0.1542777717113495, -0.14338672161102295, -0.1324956715106964, -0.12160460650920868, -0.11071354895830154, -0.09982249140739441, -0.08893143385648727, -0.07804037630558014, -0.067149318754673, -0.05625829100608826, -0.04536723345518112, -0.03447617590427399, -0.023585118353366852, -0.012694060802459717, -0.0018030032515525818, 0.009088054299354553, 0.019979111850261688, 0.030870169401168823, 0.04176122695207596, 0.05265228450298309, 0.06354334205389023, 0.07443439960479736, 0.0853254571557045, 0.09621651470661163, 0.10710757225751877, 0.1179986298084259, 0.12888967990875244, 0.13978074491024017, 0.1506718099117279, 0.16156286001205444, 0.17245391011238098, 0.1833449751138687, 0.19423604011535645, 0.20512709021568298, 0.21601814031600952, 0.22690920531749725, 0.23780027031898499, 0.24869132041931152, 0.25958237051963806, 0.2704734206199646, 0.2813645005226135, 0.29225555062294006]}, "gradients/attention_2.bias": {"_type": "histogram", "values": [1.0, 0.0, 1.0, 0.0, 0.0, 0.0, 0.0, 0.0, 0.0, 0.0, 0.0, 0.0, 0.0, 1.0, 1.0, 0.0, 0.0, 1.0, 0.0, 1.0, 0.0, 2.0, 0.0, 1.0, 0.0, 0.0, 1.0, 0.0, 2.0, 0.0, 0.0, 2.0, 0.0, 0.0, 0.0, 1.0, 4.0, 1.0, 0.0, 2.0, 0.0, 1.0, 1.0, 2.0, 2.0, 1.0, 0.0, 1.0, 1.0, 1.0, 0.0, 0.0, 3.0, 0.0, 1.0, 0.0, 0.0, 2.0, 0.0, 0.0, 0.0, 0.0, 1.0, 1.0], "bins": [-0.008156216703355312, -0.0079306336119771, -0.007705051451921463, -0.007479468360543251, -0.007253885734826326, -0.007028303109109402, -0.006802720483392477, -0.006577137857675552, -0.00635155476629734, -0.006125972140580416, -0.005900389514863491, -0.005674806423485279, -0.005449223797768354, -0.00522364117205143, -0.004998058546334505, -0.00477247592061758, -0.004546893294900656, -0.004321310669183731, -0.004095728043466806, -0.003870145184919238, -0.0036445623263716698, -0.003418979700654745, -0.0031933970749378204, -0.0029678144492208958, -0.0027422315906733274, -0.0025166489649564028, -0.0022910661064088345, -0.00206548348069191, -0.0018399007385596633, -0.0016143179964274168, -0.0013887353707104921, -0.0011631526285782456, -0.0009375703521072865, -0.00071198760997504, -0.0004864049260504544, -0.0002608222421258688, -3.52394999936223e-05, 0.0001903432421386242, 0.00041592586785554886, 0.0006415086099877954, 0.0008670913521200418, 0.0010926740942522883, 0.0013182568363845348, 0.0015438394621014595, 0.001769422204233706, 0.0019950049463659525, 0.002220587572082877, 0.0024461704306304455, 0.00267175305634737, 0.002897335682064295, 0.003122918540611863, 0.003348501166328788, 0.003574084024876356, 0.003799666650593281, 0.0040252492763102055, 0.00425083190202713, 0.004476414993405342, 0.004701997619122267, 0.0049275802448391914, 0.005153163336217403, 0.005378745961934328, 0.005604328587651253, 0.005829911213368177, 0.006055493839085102, 0.006281076464802027]}, "gradients/attention_2.att_r": {"_type": "histogram", "values": [1.0, 0.0, 0.0, 0.0, 0.0, 0.0, 0.0, 0.0, 0.0, 0.0, 0.0, 0.0, 0.0, 1.0, 0.0, 0.0, 1.0, 0.0, 30.0, 0.0, 0.0, 0.0, 1.0, 0.0, 1.0, 0.0, 0.0, 0.0, 0.0, 0.0, 0.0, 0.0, 0.0, 0.0, 0.0, 0.0, 0.0, 0.0, 0.0, 0.0, 0.0, 0.0, 0.0, 1.0, 0.0, 0.0, 0.0, 1.0, 0.0, 0.0, 0.0, 1.0, 0.0, 0.0, 1.0, 0.0, 0.0, 0.0, 0.0, 0.0, 0.0, 0.0, 0.0, 1.0], "bins": [-4.295814412877278e-15, -4.060240997718701e-15, -3.824667582560124e-15, -3.589094167401547e-15, -3.353520540484733e-15, -3.117947125326156e-15, -2.882373498409342e-15, -2.646800083250765e-15, -2.411226668092188e-15, -2.175653252933611e-15, -1.940079837775034e-15, -1.7045062108582204e-15, -1.4689327956996434e-15, -1.2333593805410664e-15, -9.97785859503371e-16, -7.622123384656756e-16, -5.266389233070986e-16, -2.910654552089624e-16, -5.54919871108262e-17, 1.8008148098731e-16, 4.156549490854462e-16, 6.512283642440232e-16, 8.868018852817186e-16, 1.122375406319414e-15, 1.357948821477991e-15, 1.593522236636568e-15, 1.829095651795145e-15, 2.0646692787119588e-15, 2.3002426938705358e-15, 2.5358161090291128e-15, 2.7713897359459266e-15, 3.0069631511045036e-15, 3.242536142746607e-15, 3.478109557905184e-15, 3.713682973063761e-15, 3.949256388222338e-15, 4.184829803380915e-15, 4.420403218539492e-15, 4.6559770572145425e-15, 4.8915504723731195e-15, 5.1271238875316965e-15, 5.3626973026902735e-15, 5.5982707178488505e-15, 5.8338441330074275e-15, 6.069417971682478e-15, 6.304991386841055e-15, 6.540564801999632e-15, 6.776138217158209e-15, 7.011711632316786e-15, 7.247285047475363e-15, 7.48285846263394e-15, 7.718431877792517e-15, 7.954005292951094e-15, 8.189578708109671e-15, 8.425152123268248e-15, 8.660725538426825e-15, 8.896298953585402e-15, 9.131872368743979e-15, 9.367445783902556e-15, 9.603019199061133e-15, 9.83859261421971e-15, 1.0074166029378287e-14, 1.0309739444536864e-14, 1.0545312859695441e-14, 1.0780887121886965e-14]}, "gradients/attention_2.att_l": {"_type": "histogram", "values": [1.0, 0.0, 0.0, 0.0, 0.0, 0.0, 0.0, 0.0, 0.0, 0.0, 0.0, 0.0, 0.0, 1.0, 0.0, 0.0, 1.0, 0.0, 30.0, 0.0, 0.0, 0.0, 1.0, 0.0, 1.0, 0.0, 0.0, 0.0, 0.0, 0.0, 0.0, 0.0, 0.0, 0.0, 0.0, 0.0, 0.0, 0.0, 0.0, 0.0, 0.0, 0.0, 0.0, 1.0, 0.0, 0.0, 0.0, 1.0, 0.0, 0.0, 0.0, 1.0, 0.0, 0.0, 1.0, 0.0, 0.0, 0.0, 0.0, 0.0, 0.0, 0.0, 0.0, 1.0], "bins": [-4.295814412877278e-15, -4.060240997718701e-15, -3.824667582560124e-15, -3.589094167401547e-15, -3.353520540484733e-15, -3.117947125326156e-15, -2.882373498409342e-15, -2.646800083250765e-15, -2.411226668092188e-15, -2.175653252933611e-15, -1.940079837775034e-15, -1.7045062108582204e-15, -1.4689327956996434e-15, -1.2333593805410664e-15, -9.97785859503371e-16, -7.622123384656756e-16, -5.266389233070986e-16, -2.910654552089624e-16, -5.54919871108262e-17, 1.8008148098731e-16, 4.156549490854462e-16, 6.512283642440232e-16, 8.868018852817186e-16, 1.122375406319414e-15, 1.357948821477991e-15, 1.593522236636568e-15, 1.829095651795145e-15, 2.0646692787119588e-15, 2.3002426938705358e-15, 2.5358161090291128e-15, 2.7713897359459266e-15, 3.0069631511045036e-15, 3.242536142746607e-15, 3.478109557905184e-15, 3.713682973063761e-15, 3.949256388222338e-15, 4.184829803380915e-15, 4.420403218539492e-15, 4.6559770572145425e-15, 4.8915504723731195e-15, 5.1271238875316965e-15, 5.3626973026902735e-15, 5.5982707178488505e-15, 5.8338441330074275e-15, 6.069417971682478e-15, 6.304991386841055e-15, 6.540564801999632e-15, 6.776138217158209e-15, 7.011711632316786e-15, 7.247285047475363e-15, 7.48285846263394e-15, 7.718431877792517e-15, 7.954005292951094e-15, 8.189578708109671e-15, 8.425152123268248e-15, 8.660725538426825e-15, 8.896298953585402e-15, 9.131872368743979e-15, 9.367445783902556e-15, 9.603019199061133e-15, 9.83859261421971e-15, 1.0074166029378287e-14, 1.0309739444536864e-14, 1.0545312859695441e-14, 1.0780887121886965e-14]}, "gradients/attention_2.lin_l.weight": {"_type": "histogram", "values": [1.0, 1.0, 1.0, 0.0, 0.0, 1.0, 0.0, 1.0, 1.0, 1.0, 2.0, 2.0, 0.0, 2.0, 3.0, 1.0, 1.0, 3.0, 6.0, 19.0, 32.0, 78.0, 1352.0, 33.0, 21.0, 8.0, 4.0, 3.0, 2.0, 3.0, 4.0, 0.0, 0.0, 0.0, 2.0, 0.0, 2.0, 0.0, 0.0, 0.0, 0.0, 0.0, 0.0, 1.0, 0.0, 0.0, 1.0, 0.0, 0.0, 0.0, 0.0, 0.0, 0.0, 2.0, 0.0, 0.0, 0.0, 2.0, 1.0, 1.0, 0.0, 0.0, 0.0, 2.0], "bins": [-8.538386875788992e-15, -8.152995355117758e-15, -7.767603834446524e-15, -7.38221231377529e-15, -6.9968207931040555e-15, -6.611429272432821e-15, -6.226037751761587e-15, -5.840646231090353e-15, -5.455254710419119e-15, -5.069863189747885e-15, -4.684471669076651e-15, -4.299080148405417e-15, -3.9136886277341826e-15, -3.5282973188211853e-15, -3.142905798149951e-15, -2.757514277478717e-15, -2.3721229685657198e-15, -1.9867314478944856e-15, -1.6013399272232515e-15, -1.2159485124311358e-15, -8.305569917599017e-16, -4.45165576967786e-16, -5.977405629655191e-17, 3.256174643746822e-16, 7.110089850459163e-16, 1.0964005057171504e-15, 1.4817920263883845e-15, 1.867183335301382e-15, 2.252574855972616e-15, 2.63796637664385e-15, 3.023357897315084e-15, 3.4087494179863183e-15, 3.794140938657552e-15, 4.1795324593287865e-15, 4.564923980000021e-15, 4.950315500671255e-15, 5.335707021342489e-15, 5.721098542013723e-15, 6.106490062684957e-15, 6.491881583356191e-15, 6.877273104027425e-15, 7.26266462469866e-15, 7.648056145369894e-15, 8.033447666041128e-15, 8.418839186712362e-15, 8.804230707383596e-15, 9.18962222805483e-15, 9.575013748726064e-15, 9.960404422364351e-15, 1.0345795943035585e-14, 1.0731187463706819e-14, 1.1116578984378053e-14, 1.1501970505049287e-14, 1.1887362025720521e-14, 1.2272753546391756e-14, 1.265814506706299e-14, 1.3043536587734224e-14, 1.3428928108405458e-14, 1.3814319629076692e-14, 1.4199711149747926e-14, 1.458510267041916e-14, 1.4970494191090394e-14, 1.535588571176163e-14, 1.5741277232432863e-14, 1.6126668753104097e-14]}, "gradients/attention_1.bias": {"_type": "histogram", "values": [1.0, 0.0, 0.0, 1.0, 0.0, 0.0, 0.0, 0.0, 0.0, 0.0, 0.0, 0.0, 0.0, 1.0, 1.0, 0.0, 1.0, 0.0, 0.0, 0.0, 1.0, 0.0, 1.0, 1.0, 0.0, 1.0, 0.0, 0.0, 0.0, 0.0, 2.0, 0.0, 0.0, 1.0, 2.0, 0.0, 0.0, 1.0, 0.0, 2.0, 2.0, 0.0, 3.0, 3.0, 1.0, 0.0, 3.0, 1.0, 2.0, 1.0, 1.0, 0.0, 1.0, 0.0, 2.0, 0.0, 1.0, 0.0, 0.0, 0.0, 0.0, 0.0, 1.0, 1.0], "bins": [-0.007747328374534845, -0.0075534931384027, -0.0073596579022705555, -0.007165822666138411, -0.006971987430006266, -0.006778152193874121, -0.006584316957741976, -0.006390481721609831, -0.006196646485477686, -0.006002811249345541, -0.005808976013213396, -0.005615140777081251, -0.005421305540949106, -0.005227470304816961, -0.005033635068684816, -0.004839799832552671, -0.0046459645964205265, -0.004452129360288382, -0.004258294124156237, -0.004064458888024092, -0.003870623651891947, -0.003676788415759802, -0.003482953179627657, -0.003289117943495512, -0.003095282707363367, -0.002901447471231222, -0.0027076122350990772, -0.0025137769989669323, -0.0023199417628347874, -0.0021261065267026424, -0.0019322712905704975, -0.0017384360544383526, -0.001544601283967495, -0.00135076604783535, -0.0011569308117032051, -0.0009630955755710602, -0.0007692603394389153, -0.0005754251033067703, -0.0003815898671746254, -0.00018775463104248047, 6.080605089664459e-06, 0.0001999158412218094, 0.0003937510773539543, 0.0005875863134860992, 0.0007814215496182442, 0.0009752567857503891, 0.001169092021882534, 0.001362927258014679, 0.0015567624941468239, 0.0017505977302789688, 0.0019444329664111137, 0.0021382682025432587, 0.0023321034386754036, 0.0025259386748075485, 0.0027197739109396935, 0.0029136091470718384, 0.0031074443832039833, 0.0033012796193361282, 0.003495114855468273, 0.003688950091600418, 0.003882785327732563, 0.004076620563864708, 0.004270455799996853, 0.004464291036128998, 0.004658126272261143]}, "gradients/attention_1.att_r": {"_type": "histogram", "values": [1.0, 0.0, 0.0, 0.0, 1.0, 0.0, 0.0, 0.0, 0.0, 0.0, 0.0, 0.0, 0.0, 0.0, 0.0, 0.0, 0.0, 0.0, 0.0, 0.0, 0.0, 0.0, 0.0, 1.0, 0.0, 1.0, 1.0, 0.0, 0.0, 0.0, 0.0, 0.0, 0.0, 0.0, 0.0, 0.0, 0.0, 0.0, 0.0, 1.0, 0.0, 0.0, 0.0, 0.0, 0.0, 0.0, 0.0, 0.0, 0.0, 0.0, 0.0, 1.0, 2.0, 0.0, 0.0, 0.0, 0.0, 30.0, 0.0, 0.0, 0.0, 0.0, 0.0, 1.0], "bins": [-6.732889801241981e-08, -6.616438241735523e-08, -6.499986682229064e-08, -6.383535122722606e-08, -6.267083563216147e-08, -6.150631293166953e-08, -6.034179733660494e-08, -5.9177285294254034e-08, -5.801276614647577e-08, -5.6848250551411184e-08, -5.56837349563466e-08, -5.451921580856833e-08, -5.335470021350375e-08, -5.219018461843916e-08, -5.1025669023374576e-08, -4.986115342830999e-08, -4.8696637833245404e-08, -4.753212223818082e-08, -4.636760664311623e-08, -4.520308749533797e-08, -4.403857190027338e-08, -4.2874056305208796e-08, -4.170954071014421e-08, -4.0545025115079625e-08, -3.938050952001504e-08, -3.821599392495045e-08, -3.705147832988587e-08, -3.58869591821076e-08, -3.472244358704302e-08, -3.355792799197843e-08, -3.2393412396913845e-08, -3.122889680184926e-08, -3.0064377654070995e-08, -2.889986205900641e-08, -2.7735344687584984e-08, -2.6570829092520398e-08, -2.5406311721098973e-08, -2.4241796126034387e-08, -2.30772805309698e-08, -2.1912764935905216e-08, -2.074824578812695e-08, -1.9583730193062365e-08, -1.841921282164094e-08, -1.7254697226576354e-08, -1.609017985515493e-08, -1.4925664260090343e-08, -1.3761148665025758e-08, -1.2596632181782752e-08, -1.1432115698539747e-08, -1.0267599215296741e-08, -9.103082732053736e-09, -7.93856713698915e-09, -6.774050653746144e-09, -5.609534170503139e-09, -4.445018131349343e-09, -3.2805020921955474e-09, -2.115986053041752e-09, -9.514697918433512e-10, 2.1304646935504934e-10, 1.37756273055345e-09, 2.5420789917518505e-09, 3.706595474994856e-09, 4.871111514148652e-09, 6.035627553302447e-09, 7.200144036545453e-09]}, "gradients/attention_1.att_l": {"_type": "histogram", "values": [1.0, 0.0, 0.0, 0.0, 1.0, 0.0, 0.0, 0.0, 0.0, 0.0, 0.0, 0.0, 0.0, 0.0, 0.0, 0.0, 0.0, 0.0, 0.0, 0.0, 0.0, 0.0, 0.0, 1.0, 0.0, 1.0, 1.0, 0.0, 0.0, 0.0, 0.0, 0.0, 0.0, 0.0, 0.0, 0.0, 0.0, 0.0, 0.0, 1.0, 0.0, 0.0, 0.0, 0.0, 0.0, 0.0, 0.0, 0.0, 0.0, 0.0, 0.0, 1.0, 2.0, 0.0, 0.0, 0.0, 0.0, 30.0, 0.0, 0.0, 0.0, 0.0, 0.0, 1.0], "bins": [-6.732889801241981e-08, -6.616438241735523e-08, -6.499986682229064e-08, -6.383535122722606e-08, -6.267083563216147e-08, -6.150631293166953e-08, -6.034179733660494e-08, -5.9177285294254034e-08, -5.801276614647577e-08, -5.6848250551411184e-08, -5.56837349563466e-08, -5.451921580856833e-08, -5.335470021350375e-08, -5.219018461843916e-08, -5.1025669023374576e-08, -4.986115342830999e-08, -4.8696637833245404e-08, -4.753212223818082e-08, -4.636760664311623e-08, -4.520308749533797e-08, -4.403857190027338e-08, -4.2874056305208796e-08, -4.170954071014421e-08, -4.0545025115079625e-08, -3.938050952001504e-08, -3.821599392495045e-08, -3.705147832988587e-08, -3.58869591821076e-08, -3.472244358704302e-08, -3.355792799197843e-08, -3.2393412396913845e-08, -3.122889680184926e-08, -3.0064377654070995e-08, -2.889986205900641e-08, -2.7735344687584984e-08, -2.6570829092520398e-08, -2.5406311721098973e-08, -2.4241796126034387e-08, -2.30772805309698e-08, -2.1912764935905216e-08, -2.074824578812695e-08, -1.9583730193062365e-08, -1.841921282164094e-08, -1.7254697226576354e-08, -1.609017985515493e-08, -1.4925664260090343e-08, -1.3761148665025758e-08, -1.2596632181782752e-08, -1.1432115698539747e-08, -1.0267599215296741e-08, -9.103082732053736e-09, -7.93856713698915e-09, -6.774050653746144e-09, -5.609534170503139e-09, -4.445018131349343e-09, -3.2805020921955474e-09, -2.115986053041752e-09, -9.514697918433512e-10, 2.1304646935504934e-10, 1.37756273055345e-09, 2.5420789917518505e-09, 3.706595474994856e-09, 4.871111514148652e-09, 6.035627553302447e-09, 7.200144036545453e-09]}, "gradients/attention_1.lin_l.weight": {"_type": "histogram", "values": [13.0, 1.0, 1.0, 9.0, 1569.0, 3.0, 0.0, 0.0, 0.0, 0.0, 0.0, 0.0, 0.0, 0.0, 0.0, 2.0, 0.0, 0.0, 0.0, 0.0, 0.0, 0.0, 0.0, 0.0, 0.0, 0.0, 0.0, 0.0, 0.0, 0.0, 0.0, 0.0, 0.0, 0.0, 0.0, 0.0, 0.0, 0.0, 0.0, 0.0, 0.0, 0.0, 0.0, 0.0, 0.0, 0.0, 0.0, 0.0, 0.0, 0.0, 0.0, 0.0, 0.0, 0.0, 0.0, 1.0, 0.0, 0.0, 0.0, 0.0, 0.0, 0.0, 0.0, 1.0], "bins": [-0.006500634830445051, -0.0050716279074549675, -0.0036426205188035965, -0.002213613595813513, -0.0007846062071621418, 0.0006444011814892292, 0.0020734076388180256, 0.0035024150274693966, 0.004931422416120768, 0.006360429339110851, 0.007789436727762222, 0.009218443185091019, 0.010647451505064964, 0.01207645796239376, 0.013505464419722557, 0.014934472739696503, 0.0163634791970253, 0.017792485654354095, 0.01922149397432804, 0.020650500431656837, 0.022079508751630783, 0.02350851520895958, 0.024937521666288376, 0.026366528123617172, 0.027795536443591118, 0.029224542900919914, 0.03065355122089386, 0.032082557678222656, 0.03351156413555145, 0.03494057059288025, 0.036369577050209045, 0.03779858723282814, 0.039227597415447235, 0.04065660387277603, 0.04208561033010483, 0.043514616787433624, 0.04494362697005272, 0.046372633427381516, 0.04780163988471031, 0.04923064634203911, 0.0506596565246582, 0.052088662981987, 0.053517669439315796, 0.05494667589664459, 0.05637568607926369, 0.057804692536592484, 0.05923369899392128, 0.060662705451250076, 0.06209171190857887, 0.06352072209119797, 0.06494972854852676, 0.06637873500585556, 0.06780774146318436, 0.06923674792051315, 0.07066575437784195, 0.07209476083517075, 0.07352376729249954, 0.07495277374982834, 0.07638178020715714, 0.07781078666448593, 0.07923979312181473, 0.08066880702972412, 0.08209781348705292, 0.08352681994438171, 0.08495582640171051]}, "gradients/attention_0.bias": {"_type": "histogram", "values": [1.0, 0.0, 0.0, 1.0, 0.0, 0.0, 0.0, 0.0, 1.0, 0.0, 0.0, 1.0, 1.0, 0.0, 0.0, 0.0, 1.0, 0.0, 0.0, 2.0, 0.0, 1.0, 0.0, 0.0, 0.0, 0.0, 0.0, 0.0, 0.0, 0.0, 0.0, 1.0, 0.0, 1.0, 2.0, 0.0, 0.0, 1.0, 0.0, 3.0, 3.0, 2.0, 0.0, 1.0, 1.0, 4.0, 0.0, 0.0, 2.0, 1.0, 2.0, 0.0, 0.0, 0.0, 0.0, 1.0, 1.0, 0.0, 0.0, 0.0, 1.0, 2.0, 0.0, 2.0], "bins": [-0.0071486192755401134, -0.0069731115363538265, -0.006797604262828827, -0.00662209652364254, -0.006446588784456253, -0.006271081510931253, -0.0060955737717449665, -0.005920066498219967, -0.00574455875903368, -0.005569051019847393, -0.005393543746322393, -0.0052180360071361065, -0.005042528733611107, -0.00486702099442482, -0.004691513255238533, -0.004516005516052246, -0.0043404982425272465, -0.0041649905033409595, -0.00398948322981596, -0.003813975490629673, -0.0036384679842740297, -0.0034629604779183865, -0.0032874527387320995, -0.0031119452323764563, -0.002936437726020813, -0.0027609302196651697, -0.0025854227133095264, -0.0024099149741232395, -0.0022344074677675962, -0.002058899961411953, -0.0018833923386409879, -0.0017078847158700228, -0.0015323767438530922, -0.001356869237497449, -0.0011813616147264838, -0.0010058539919555187, -0.0008303464855998755, -0.0006548389210365713, -0.0004793313564732671, -0.000303823733702302, -0.0001283162273466587, 4.719133721664548e-05, 0.00022269890177994967, 0.00039820646634325385, 0.000573714030906558, 0.0007492215954698622, 0.0009247291600331664, 0.0011002367828041315, 0.0012757442891597748, 0.001451251795515418, 0.0016267594182863832, 0.0018022670410573483, 0.0019777745474129915, 0.002153282053768635, 0.0023287897929549217, 0.002504297299310565, 0.0026798048056662083, 0.0028553123120218515, 0.003030819818377495, 0.0032063275575637817, 0.003381835063919425, 0.0035573425702750683, 0.003732850309461355, 0.003908357582986355, 0.004083865322172642]}, "gradients/attention_0.att_r": {"_type": "histogram", "values": [1.0, 0.0, 0.0, 0.0, 0.0, 0.0, 0.0, 0.0, 0.0, 0.0, 0.0, 0.0, 0.0, 0.0, 0.0, 2.0, 1.0, 0.0, 0.0, 0.0, 0.0, 0.0, 0.0, 0.0, 0.0, 1.0, 1.0, 0.0, 0.0, 1.0, 1.0, 1.0, 2.0, 2.0, 0.0, 1.0, 2.0, 11.0, 1.0, 0.0, 2.0, 1.0, 1.0, 3.0, 1.0, 0.0, 2.0, 0.0, 1.0, 0.0, 0.0, 0.0, 0.0, 0.0, 0.0, 0.0, 0.0, 0.0, 0.0, 0.0, 0.0, 0.0, 0.0, 1.0], "bins": [-2.8287233666546285e-10, -2.7523089363157283e-10, -2.675894505976828e-10, -2.5994800756379277e-10, -2.5230659228547836e-10, -2.4466514925158833e-10, -2.370237062176983e-10, -2.2938226318380828e-10, -2.2174082014991825e-10, -2.1409937711602822e-10, -2.06457947959926e-10, -1.9881650492603598e-10, -1.9117506189214595e-10, -1.8353363273604373e-10, -1.758921897021537e-10, -1.6825074666826367e-10, -1.6060931751216145e-10, -1.5296787447827143e-10, -1.453264453221692e-10, -1.3768500228827918e-10, -1.3004355925438915e-10, -1.2240211622049912e-10, -1.147606870643969e-10, -1.0711924403050688e-10, -9.947780793551075e-11, -9.183637184051463e-11, -8.41949288066246e-11, -7.655349271162848e-11, -6.891205661663236e-11, -6.127061358274233e-11, -5.3629177487746205e-11, -4.598773792330313e-11, -3.8346298358860054e-11, -3.070485879441698e-11, -2.306342096469738e-11, -1.542198313497778e-11, -7.780543570534704e-12, -1.391040060916282e-13, 7.502332088904495e-12, 1.514377165334757e-11, 2.2785211217790646e-11, 3.042665078223372e-11, 3.80680903466768e-11, 4.570952644167292e-11, 5.3350966006115996e-11, 6.099240557055907e-11, 6.86338416655552e-11, 7.627527776055132e-11, 8.391672079444135e-11, 9.155815688943747e-11, 9.91995999233275e-11, 1.0684103601832362e-10, 1.1448247905221365e-10, 1.2212392208610368e-10, 1.297653512422059e-10, 1.3740679427609592e-10, 1.4504822343219814e-10, 1.5268966646608817e-10, 1.603310956221904e-10, 1.6797253865608042e-10, 1.7561398168997044e-10, 1.8325541084607266e-10, 1.908968538799627e-10, 1.9853829691385272e-10, 2.0617973994774275e-10]}, "gradients/attention_0.att_l": {"_type": "histogram", "values": [1.0, 0.0, 0.0, 0.0, 0.0, 0.0, 0.0, 0.0, 0.0, 0.0, 0.0, 0.0, 0.0, 1.0, 0.0, 0.0, 1.0, 1.0, 0.0, 0.0, 0.0, 0.0, 0.0, 1.0, 1.0, 0.0, 0.0, 0.0, 2.0, 4.0, 1.0, 1.0, 0.0, 0.0, 1.0, 1.0, 1.0, 1.0, 3.0, 11.0, 1.0, 1.0, 2.0, 0.0, 0.0, 0.0, 0.0, 0.0, 0.0, 0.0, 0.0, 1.0, 0.0, 0.0, 1.0, 0.0, 0.0, 0.0, 0.0, 0.0, 0.0, 1.0, 0.0, 1.0], "bins": [-3.072745113907871e-10, -2.994809400469478e-10, -2.9168739645868413e-10, -2.8389385287042046e-10, -2.7610028152658117e-10, -2.683067101827419e-10, -2.605131665944782e-10, -2.5271962300621453e-10, -2.4492605166237524e-10, -2.3713248031853595e-10, -2.2933893673027228e-10, -2.215453792642208e-10, -2.1375182179816932e-10, -2.0595826433211784e-10, -1.9816470686606635e-10, -1.9037114940001487e-10, -1.825775919339634e-10, -1.747840344679119e-10, -1.6699047700186043e-10, -1.5919691953580895e-10, -1.5140336206975746e-10, -1.4360980460370598e-10, -1.358162471376545e-10, -1.2802268967160302e-10, -1.2022913220555154e-10, -1.1243557473950005e-10, -1.0464201727344857e-10, -9.684845980739709e-11, -8.905490234134561e-11, -8.126134487529413e-11, -7.346778740924265e-11, -6.567422994319116e-11, -5.788067247713968e-11, -5.00871150110882e-11, -4.229355754503672e-11, -3.450000007898524e-11, -2.6706442612933756e-11, -1.8912885146882275e-11, -1.1119327680830793e-11, -3.325770214779311e-12, 4.4677872512721706e-12, 1.2261344717323652e-11, 2.0054902183375134e-11, 2.7848459649426616e-11, 3.56420171154781e-11, 4.343557458152958e-11, 5.122913204758106e-11, 5.902268951363254e-11, 6.681624697968402e-11, 7.46098044457355e-11, 8.240336191178699e-11, 9.019691937783847e-11, 9.799047684388995e-11, 1.0578403430994143e-10, 1.1357759177599291e-10, 1.213711492420444e-10, 1.2916470670809588e-10, 1.3695826417414736e-10, 1.4475182164019884e-10, 1.5254537910625032e-10, 1.603389365723018e-10, 1.6813249403835329e-10, 1.7592605150440477e-10, 1.8371960897045625e-10, 1.9151316643650773e-10]}, "gradients/attention_0.lin_l.weight": {"_type": "histogram", "values": [1.0, 0.0, 0.0, 0.0, 0.0, 0.0, 0.0, 0.0, 0.0, 0.0, 0.0, 0.0, 0.0, 0.0, 0.0, 0.0, 0.0, 0.0, 0.0, 0.0, 0.0, 0.0, 0.0, 0.0, 0.0, 0.0, 0.0, 1.0, 0.0, 0.0, 0.0, 0.0, 0.0, 1.0, 3.0, 1.0, 1.0, 1.0, 1.0, 3.0, 449.0, 9.0, 2.0, 0.0, 2.0, 0.0, 0.0, 1.0, 1.0, 0.0, 0.0, 0.0, 0.0, 0.0, 0.0, 0.0, 0.0, 0.0, 1.0, 1.0, 0.0, 0.0, 0.0, 1.0], "bins": [-0.13634561002254486, -0.13300612568855286, -0.12966662645339966, -0.12632714211940765, -0.12298764288425446, -0.11964815109968185, -0.11630865931510925, -0.11296917498111725, -0.10962967574596405, -0.10629018396139145, -0.10295069217681885, -0.09961120039224625, -0.09627170860767365, -0.09293221682310104, -0.08959272503852844, -0.08625324070453644, -0.08291374891996384, -0.07957425713539124, -0.07623476535081863, -0.07289527356624603, -0.06955578178167343, -0.06621628999710083, -0.06287680566310883, -0.059537310153245926, -0.056197818368673325, -0.05285832658410072, -0.04951883479952812, -0.04617934674024582, -0.04283985495567322, -0.039500363171100616, -0.036160871386528015, -0.032821379601955414, -0.029481887817382812, -0.02614239603281021, -0.02280290424823761, -0.019463414326310158, -0.016123922541737556, -0.012784430757164955, -0.009444940835237503, -0.006105449050664902, -0.0027659572660923004, 0.0005735340528190136, 0.003913025371730328, 0.007252516224980354, 0.010592008009552956, 0.013931499794125557, 0.01727098971605301, 0.02061048150062561, 0.02394997328519821, 0.027289465069770813, 0.030628956854343414, 0.033968448638916016, 0.03730794042348862, 0.04064743220806122, 0.04398692026734352, 0.04732641205191612, 0.050665903836488724, 0.054005395621061325, 0.057344887405633926, 0.06068437546491623, 0.06402386724948883, 0.06736335903406143, 0.07070285081863403, 0.07404234260320663, 0.07738183438777924]}, "mean_loss": 0.1550515115261078, "_wandb": {"runtime": 24216}}