{"parameters/attention_0.att_l": {"_type": "histogram", "values": [1.0, 0.0, 1.0, 0.0, 0.0, 1.0, 0.0, 1.0, 0.0, 2.0, 0.0, 0.0, 0.0, 0.0, 0.0, 0.0, 2.0, 1.0, 0.0, 0.0, 0.0, 1.0, 0.0, 1.0, 1.0, 0.0, 0.0, 0.0, 0.0, 1.0, 1.0, 1.0, 2.0, 1.0, 1.0, 1.0, 0.0, 1.0, 0.0, 2.0, 1.0, 2.0, 1.0, 2.0, 0.0, 3.0, 2.0, 1.0, 0.0, 1.0, 1.0, 0.0, 0.0, 0.0, 0.0, 0.0, 0.0, 0.0, 0.0, 0.0, 0.0, 2.0, 0.0, 1.0], "bins": [-0.9090394377708435, -0.8790213465690613, -0.849003255367279, -0.8189852237701416, -0.7889671325683594, -0.7589490413665771, -0.7289309501647949, -0.6989128589630127, -0.6688947677612305, -0.6388766765594482, -0.608858585357666, -0.5788404941558838, -0.5488224625587463, -0.5188043713569641, -0.4887862801551819, -0.45876818895339966, -0.4287501573562622, -0.39873206615448, -0.36871400475502014, -0.3386959135532379, -0.3086778521537781, -0.27865976095199585, -0.24864166975021362, -0.2186235934495926, -0.18860551714897156, -0.15858744084835052, -0.1285693645477295, -0.09855127334594727, -0.06853319704532623, -0.0385151207447052, -0.008497029542922974, 0.02152104675769806, 0.051539063453674316, 0.08155713975429535, 0.11157522350549698, 0.1415933072566986, 0.17161138355731964, 0.20162945985794067, 0.2316475510597229, 0.2616656422615051, 0.29168370366096497, 0.3217017948627472, 0.35171985626220703, 0.38173794746398926, 0.4117560386657715, 0.4417741000652313, 0.47179219126701355, 0.5018102526664734, 0.5318283438682556, 0.5618464350700378, 0.5918645262718201, 0.6218825578689575, 0.6519006490707397, 0.681918740272522, 0.7119368314743042, 0.7419549226760864, 0.7719730138778687, 0.8019911050796509, 0.8320091962814331, 0.8620272874832153, 0.8920453190803528, 0.922063410282135, 0.9520815014839172, 0.9820995926856995, 1.012117624282837]}, "parameters/attention_0.att_r": {"_type": "histogram", "values": [1.0, 0.0, 0.0, 0.0, 0.0, 0.0, 0.0, 1.0, 1.0, 0.0, 0.0, 0.0, 0.0, 0.0, 0.0, 2.0, 0.0, 2.0, 0.0, 2.0, 1.0, 0.0, 0.0, 0.0, 1.0, 1.0, 0.0, 1.0, 2.0, 2.0, 1.0, 1.0, 1.0, 2.0, 1.0, 0.0, 1.0, 0.0, 1.0, 1.0, 0.0, 0.0, 2.0, 0.0, 2.0, 1.0, 1.0, 1.0, 0.0, 1.0, 0.0, 0.0, 0.0, 0.0, 1.0, 1.0, 0.0, 0.0, 1.0, 0.0, 1.0, 1.0, 0.0, 1.0], "bins": [-1.1765958070755005, -1.1400256156921387, -1.1034554243087769, -1.066885232925415, -1.0303151607513428, -0.9937449097633362, -0.9571747779846191, -0.9206045866012573, -0.8840343952178955, -0.8474642038345337, -0.8108940124511719, -0.7743238806724548, -0.737753689289093, -0.7011834979057312, -0.6646133661270142, -0.6280431747436523, -0.5914729833602905, -0.5549027919769287, -0.5183326005935669, -0.48176246881484985, -0.44519227743148804, -0.4086220860481262, -0.3720519244670868, -0.33548176288604736, -0.29891157150268555, -0.26234138011932373, -0.2257712185382843, -0.18920104205608368, -0.15263086557388306, -0.11606068909168243, -0.07949051260948181, -0.04292035102844238, -0.006350278854370117, 0.030219897627830505, 0.06679007411003113, 0.10336025059223175, 0.13993042707443237, 0.176500603556633, 0.21307078003883362, 0.24964094161987305, 0.28621113300323486, 0.3227813243865967, 0.3593514859676361, 0.39592164754867554, 0.43249183893203735, 0.46906203031539917, 0.5056321620941162, 0.542202353477478, 0.5787725448608398, 0.6153427362442017, 0.6519129276275635, 0.6884830594062805, 0.7250532507896423, 0.7616234421730042, 0.7981935739517212, 0.834763765335083, 0.8713339567184448, 0.9079041481018066, 0.9444743394851685, 0.9810444712638855, 1.0176146030426025, 1.0541847944259644, 1.0907549858093262, 1.127325177192688, 1.1638953685760498]}, "parameters/attention_0.bias": {"_type": "histogram", "values": [1.0, 0.0, 0.0, 0.0, 0.0, 0.0, 0.0, 0.0, 0.0, 0.0, 0.0, 0.0, 0.0, 0.0, 0.0, 0.0, 0.0, 1.0, 0.0, 0.0, 0.0, 0.0, 1.0, 1.0, 0.0, 0.0, 0.0, 1.0, 0.0, 2.0, 1.0, 2.0, 0.0, 1.0, 1.0, 1.0, 0.0, 3.0, 0.0, 1.0, 0.0, 2.0, 4.0, 0.0, 4.0, 5.0, 0.0, 1.0, 0.0, 1.0, 1.0, 0.0, 2.0, 0.0, 0.0, 0.0, 1.0, 0.0, 0.0, 1.0, 0.0, 0.0, 0.0, 1.0], "bins": [-0.7327211499214172, -0.7152167558670044, -0.6977123022079468, -0.6802079081535339, -0.6627035140991211, -0.6451990604400635, -0.6276946663856506, -0.6101902723312378, -0.5926858186721802, -0.5751814246177673, -0.5576769709587097, -0.5401725769042969, -0.522668182849884, -0.5051637291908264, -0.4876593351364136, -0.47015491127967834, -0.4526505172252655, -0.4351460933685303, -0.41764169931411743, -0.4001372754573822, -0.382632851600647, -0.36512845754623413, -0.3476240336894989, -0.33011960983276367, -0.31261521577835083, -0.2951107919216156, -0.27760639786720276, -0.26010197401046753, -0.2425975501537323, -0.22509314119815826, -0.20758873224258423, -0.190084308385849, -0.17257991433143616, -0.15507550537586212, -0.1375710815191269, -0.12006667256355286, -0.10256225615739822, -0.08505783975124359, -0.06755343079566956, -0.05004901438951492, -0.03254459798336029, -0.015040183439850807, 0.002464231103658676, 0.01996864378452301, 0.03747306019067764, 0.054977476596832275, 0.07248188555240631, 0.08998630195856094, 0.10749071836471558, 0.12499513477087021, 0.14249955117702484, 0.16000396013259888, 0.1775083839893341, 0.19501279294490814, 0.21251720190048218, 0.2300216257572174, 0.24752603471279144, 0.2650304436683655, 0.2825348675251007, 0.30003929138183594, 0.3175436854362488, 0.335048109292984, 0.35255253314971924, 0.3700569272041321, 0.3875613510608673]}, "parameters/attention_0.lin_l.weight": {"_type": "histogram", "values": [1.0, 0.0, 2.0, 2.0, 1.0, 0.0, 0.0, 1.0, 0.0, 0.0, 0.0, 2.0, 0.0, 0.0, 0.0, 1.0, 5.0, 3.0, 1.0, 12.0, 20.0, 14.0, 15.0, 23.0, 20.0, 24.0, 20.0, 10.0, 12.0, 13.0, 21.0, 18.0, 16.0, 20.0, 20.0, 18.0, 23.0, 24.0, 14.0, 14.0, 13.0, 15.0, 15.0, 10.0, 14.0, 9.0, 6.0, 3.0, 1.0, 1.0, 0.0, 0.0, 1.0, 0.0, 0.0, 1.0, 0.0, 0.0, 0.0, 0.0, 0.0, 0.0, 0.0, 1.0], "bins": [-0.8300075531005859, -0.8041029572486877, -0.7781983613967896, -0.7522937059402466, -0.7263891100883484, -0.7004845142364502, -0.674579918384552, -0.6486753225326538, -0.6227706670761108, -0.5968660712242126, -0.5709614753723145, -0.5450568199157715, -0.5191522240638733, -0.4932476282119751, -0.4673430323600769, -0.4414384067058563, -0.41553381085395813, -0.38962921500205994, -0.36372458934783936, -0.33781999349594116, -0.3119153678417206, -0.2860107719898224, -0.2601061463356018, -0.2342015504837036, -0.20829693973064423, -0.18239232897758484, -0.15648771822452545, -0.13058310747146606, -0.10467850416898727, -0.07877390086650848, -0.0528692901134491, -0.02696467936038971, -0.0010600686073303223, 0.024844540283083916, 0.050749149173498154, 0.07665375620126724, 0.10255836695432663, 0.12846297025680542, 0.1543675810098648, 0.1802721917629242, 0.20617680251598358, 0.23208141326904297, 0.25798600912094116, 0.28389063477516174, 0.30979523062705994, 0.3356998562812805, 0.3616044521331787, 0.3875090479850769, 0.4134136736392975, 0.4393182694911957, 0.46522289514541626, 0.49112749099731445, 0.5170320868492126, 0.5429366827011108, 0.5688413381576538, 0.594745934009552, 0.6206505298614502, 0.6465551257133484, 0.6724597215652466, 0.6983643770217896, 0.7242689728736877, 0.7501735687255859, 0.7760781645774841, 0.8019827604293823, 0.8278874158859253]}, "parameters/attention_1.att_l": {"_type": "histogram", "values": [1.0, 0.0, 0.0, 1.0, 0.0, 0.0, 2.0, 2.0, 0.0, 0.0, 1.0, 1.0, 0.0, 1.0, 1.0, 0.0, 0.0, 0.0, 1.0, 0.0, 0.0, 0.0, 3.0, 1.0, 1.0, 0.0, 1.0, 2.0, 4.0, 0.0, 0.0, 0.0, 0.0, 1.0, 1.0, 0.0, 0.0, 0.0, 1.0, 0.0, 0.0, 1.0, 3.0, 0.0, 1.0, 0.0, 1.0, 1.0, 0.0, 0.0, 2.0, 1.0, 0.0, 1.0, 1.0, 0.0, 0.0, 0.0, 0.0, 0.0, 0.0, 0.0, 1.0, 1.0], "bins": [-0.8521801829338074, -0.8246399760246277, -0.7970998287200928, -0.7695596218109131, -0.7420194149017334, -0.7144792675971985, -0.6869390606880188, -0.6593989133834839, -0.6318587064743042, -0.6043184995651245, -0.5767783522605896, -0.5492381453514099, -0.521697998046875, -0.4941577911376953, -0.4666175842285156, -0.4390774071216583, -0.411537230014801, -0.3839970529079437, -0.3564568758010864, -0.32891666889190674, -0.30137649178504944, -0.27383631467819214, -0.24629612267017365, -0.21875593066215515, -0.19121575355529785, -0.16367557644844055, -0.13613538444042206, -0.10859519988298416, -0.08105501532554626, -0.053514838218688965, -0.02597464621067047, 0.0015655457973480225, 0.029105663299560547, 0.056645847856998444, 0.08418603241443634, 0.11172621697187424, 0.13926640152931213, 0.16680657863616943, 0.19434677064418793, 0.22188696265220642, 0.24942713975906372, 0.276967316865921, 0.3045074939727783, 0.332047700881958, 0.3595878779888153, 0.3871280550956726, 0.4146682620048523, 0.4422084391117096, 0.4697486162185669, 0.4972887933254242, 0.5248289704322815, 0.5523691773414612, 0.5799093246459961, 0.6074495315551758, 0.6349897384643555, 0.6625299453735352, 0.6900700926780701, 0.7176102995872498, 0.7451504468917847, 0.7726906538009644, 0.800230860710144, 0.827771008014679, 0.8553112149238586, 0.8828513622283936, 0.9103915691375732]}, "parameters/attention_1.att_r": {"_type": "histogram", "values": [1.0, 1.0, 0.0, 1.0, 0.0, 0.0, 1.0, 0.0, 0.0, 0.0, 0.0, 1.0, 0.0, 0.0, 1.0, 0.0, 1.0, 0.0, 2.0, 1.0, 0.0, 0.0, 0.0, 2.0, 1.0, 1.0, 0.0, 1.0, 0.0, 1.0, 1.0, 1.0, 2.0, 0.0, 0.0, 1.0, 0.0, 0.0, 1.0, 1.0, 0.0, 2.0, 3.0, 1.0, 1.0, 0.0, 1.0, 0.0, 1.0, 0.0, 2.0, 1.0, 0.0, 0.0, 0.0, 1.0, 1.0, 0.0, 0.0, 1.0, 1.0, 0.0, 0.0, 1.0], "bins": [-0.706217885017395, -0.6843103170394897, -0.6624027490615845, -0.640495240688324, -0.6185876727104187, -0.5966801047325134, -0.5747725963592529, -0.5528650283813477, -0.5309574604034424, -0.5090498924255371, -0.4871423542499542, -0.46523481607437134, -0.44332724809646606, -0.4214196801185608, -0.3995121419429779, -0.377604603767395, -0.35569703578948975, -0.3337894678115845, -0.3118819296360016, -0.2899743914604187, -0.2680668234825134, -0.24615927040576935, -0.22425171732902527, -0.2023441642522812, -0.1804366111755371, -0.15852905809879303, -0.13662150502204895, -0.11471395194530487, -0.09280639886856079, -0.07089884579181671, -0.04899129271507263, -0.027083739638328552, -0.005176186561584473, 0.016731366515159607, 0.038638919591903687, 0.060546472668647766, 0.08245402574539185, 0.10436157882213593, 0.12626913189888, 0.14817668497562408, 0.17008423805236816, 0.19199179112911224, 0.21389934420585632, 0.2358068972826004, 0.2577144503593445, 0.27962201833724976, 0.30152955651283264, 0.3234370946884155, 0.3453446626663208, 0.3672522306442261, 0.38915976881980896, 0.41106730699539185, 0.4329748749732971, 0.4548824429512024, 0.4767899811267853, 0.49869751930236816, 0.5206050872802734, 0.5425126552581787, 0.564420223236084, 0.5863277316093445, 0.6082352995872498, 0.630142867565155, 0.6520503759384155, 0.6739579439163208, 0.6958655118942261]}, "parameters/attention_1.bias": {"_type": "histogram", "values": [1.0, 0.0, 0.0, 0.0, 0.0, 1.0, 0.0, 1.0, 0.0, 0.0, 0.0, 0.0, 1.0, 0.0, 1.0, 1.0, 0.0, 0.0, 0.0, 1.0, 0.0, 2.0, 4.0, 0.0, 3.0, 3.0, 0.0, 1.0, 0.0, 0.0, 1.0, 0.0, 0.0, 0.0, 0.0, 0.0, 0.0, 0.0, 0.0, 0.0, 0.0, 0.0, 0.0, 0.0, 0.0, 0.0, 0.0, 0.0, 1.0, 0.0, 0.0, 2.0, 3.0, 2.0, 0.0, 1.0, 1.0, 3.0, 1.0, 1.0, 2.0, 1.0, 0.0, 1.0], "bins": [-0.908993124961853, -0.8869606852531433, -0.8649283051490784, -0.8428958654403687, -0.8208634853363037, -0.798831045627594, -0.7767986059188843, -0.7547662258148193, -0.7327337861061096, -0.7107013463973999, -0.688668966293335, -0.6666365265846252, -0.6446040868759155, -0.6225717067718506, -0.6005392670631409, -0.5785068273544312, -0.5564744472503662, -0.5344420075416565, -0.5124096274375916, -0.49037718772888184, -0.4683447778224945, -0.4463123679161072, -0.42427992820739746, -0.40224751830101013, -0.3802151083946228, -0.3581826984882355, -0.33615028858184814, -0.3141178488731384, -0.2920854389667511, -0.27005302906036377, -0.24802060425281525, -0.22598817944526672, -0.20395570993423462, -0.1819233000278473, -0.15989087522029877, -0.13785845041275024, -0.11582604050636292, -0.09379362314939499, -0.07176120579242706, -0.04972878098487854, -0.02769637107849121, -0.005663953721523285, 0.01636846363544464, 0.03840088099241257, 0.06043329834938049, 0.08246571570634842, 0.10449813306331635, 0.12653055787086487, 0.1485629677772522, 0.17059537768363953, 0.19262780249118805, 0.21466022729873657, 0.2366926372051239, 0.25872504711151123, 0.28075748682022095, 0.3027898967266083, 0.3248223066329956, 0.34685471653938293, 0.36888712644577026, 0.39091956615448, 0.4129519760608673, 0.43498438596725464, 0.45701682567596436, 0.4790492355823517, 0.501081645488739]}, "parameters/attention_1.lin_l.weight": {"_type": "histogram", "values": [1.0, 1.0, 0.0, 0.0, 0.0, 4.0, 2.0, 2.0, 2.0, 4.0, 5.0, 5.0, 8.0, 11.0, 12.0, 16.0, 15.0, 21.0, 23.0, 31.0, 27.0, 47.0, 38.0, 33.0, 40.0, 52.0, 54.0, 48.0, 60.0, 51.0, 39.0, 58.0, 55.0, 60.0, 76.0, 61.0, 43.0, 45.0, 44.0, 60.0, 44.0, 46.0, 31.0, 47.0, 43.0, 29.0, 34.0, 27.0, 21.0, 19.0, 14.0, 14.0, 16.0, 11.0, 7.0, 8.0, 7.0, 4.0, 6.0, 5.0, 3.0, 2.0, 4.0, 4.0], "bins": [-0.713329017162323, -0.69190514087677, -0.670481264591217, -0.6490573883056641, -0.6276335120201111, -0.6062096357345581, -0.5847856998443604, -0.5633618831634521, -0.5419379472732544, -0.5205140709877014, -0.49909019470214844, -0.47766631841659546, -0.4562424421310425, -0.4348185658454895, -0.41339465975761414, -0.39197078347206116, -0.37054693698883057, -0.3491230607032776, -0.3276991844177246, -0.30627530813217163, -0.28485143184661865, -0.2634275555610657, -0.2420036494731903, -0.22057977318763733, -0.19915589690208435, -0.17773202061653137, -0.1563081443309784, -0.13488425314426422, -0.11346037685871124, -0.09203650057315826, -0.07061260938644409, -0.04918873310089111, -0.02776479721069336, -0.006340917199850082, 0.015082962810993195, 0.03650684654712677, 0.05793072283267975, 0.07935459911823273, 0.1007784903049469, 0.12220236659049988, 0.14362624287605286, 0.16505011916160583, 0.1864739954471588, 0.20789788663387299, 0.22932176291942596, 0.25074565410614014, 0.2721695303916931, 0.2935934066772461, 0.3150172829627991, 0.33644115924835205, 0.35786503553390503, 0.379288911819458, 0.400712788105011, 0.42213666439056396, 0.44356057047843933, 0.4649844467639923, 0.4864083230495453, 0.5078322291374207, 0.5292561054229736, 0.5506799817085266, 0.5721038579940796, 0.5935277342796326, 0.6149516105651855, 0.6363754868507385, 0.6577993631362915]}, "parameters/attention_2.att_l": {"_type": "histogram", "values": [1.0, 0.0, 0.0, 0.0, 1.0, 0.0, 0.0, 0.0, 0.0, 0.0, 0.0, 0.0, 1.0, 0.0, 0.0, 1.0, 0.0, 0.0, 1.0, 1.0, 0.0, 3.0, 0.0, 0.0, 1.0, 1.0, 0.0, 4.0, 0.0, 0.0, 0.0, 1.0, 2.0, 1.0, 2.0, 1.0, 0.0, 2.0, 0.0, 1.0, 0.0, 1.0, 0.0, 1.0, 1.0, 1.0, 1.0, 0.0, 0.0, 1.0, 1.0, 0.0, 0.0, 2.0, 0.0, 1.0, 0.0, 1.0, 0.0, 1.0, 2.0, 0.0, 0.0, 1.0], "bins": [-1.1184245347976685, -1.089082956314087, -1.0597413778305054, -1.0303997993469238, -1.0010581016540527, -0.9717165231704712, -0.9423749446868896, -0.9130333662033081, -0.8836917877197266, -0.854350209236145, -0.8250085711479187, -0.7956669926643372, -0.7663254141807556, -0.7369837760925293, -0.7076421976089478, -0.6783006191253662, -0.6489589810371399, -0.6196174025535583, -0.590275764465332, -0.5609341859817505, -0.531592607498169, -0.5022510290145874, -0.4729093909263611, -0.44356781244277954, -0.4142262041568756, -0.3848845958709717, -0.35554301738739014, -0.3262014091014862, -0.2968598008155823, -0.26751822233200073, -0.2381766140460968, -0.20883502066135406, -0.17949336767196655, -0.15015177428722382, -0.12081017345190048, -0.09146857261657715, -0.06212697923183441, -0.032785385847091675, -0.003443777561187744, 0.025897815823554993, 0.05523940920829773, 0.08458100259304047, 0.1139226034283638, 0.14326420426368713, 0.17260579764842987, 0.2019473910331726, 0.23128899931907654, 0.26063060760498047, 0.289972186088562, 0.31931379437446594, 0.3486553728580475, 0.3779969811439514, 0.40733855962753296, 0.4366801679134369, 0.4660217761993408, 0.49536335468292236, 0.5247049331665039, 0.5540465116500854, 0.5833881497383118, 0.6127297282218933, 0.6420713067054749, 0.6714129447937012, 0.7007545232772827, 0.7300961017608643, 0.7594377398490906]}, "parameters/attention_2.att_r": {"_type": "histogram", "values": [1.0, 0.0, 0.0, 0.0, 0.0, 0.0, 1.0, 1.0, 0.0, 1.0, 0.0, 0.0, 0.0, 2.0, 0.0, 1.0, 0.0, 0.0, 0.0, 1.0, 0.0, 0.0, 3.0, 0.0, 0.0, 2.0, 0.0, 1.0, 3.0, 1.0, 1.0, 1.0, 1.0, 1.0, 0.0, 2.0, 0.0, 1.0, 2.0, 0.0, 0.0, 1.0, 1.0, 1.0, 1.0, 0.0, 1.0, 1.0, 0.0, 0.0, 1.0, 0.0, 0.0, 0.0, 0.0, 2.0, 1.0, 0.0, 0.0, 0.0, 0.0, 0.0, 0.0, 3.0], "bins": [-1.0867937803268433, -1.0569734573364258, -1.0271531343460083, -0.9973328709602356, -0.9675125479698181, -0.9376922845840454, -0.9078719615936279, -0.8780516386032104, -0.848231315612793, -0.8184109926223755, -0.7885907292366028, -0.7587704062461853, -0.7289500832557678, -0.6991298198699951, -0.6693094968795776, -0.6394891738891602, -0.6096689105033875, -0.57984858751297, -0.5500283241271973, -0.5202080011367798, -0.4903876781463623, -0.4605673849582672, -0.4307470917701721, -0.40092676877975464, -0.37110647559165955, -0.34128618240356445, -0.311465859413147, -0.2816455662250519, -0.2518252730369568, -0.2220049500465393, -0.1921846568584442, -0.16236434876918793, -0.13254410028457642, -0.10272379219532013, -0.07290349155664444, -0.04308319091796875, -0.013262882828712463, 0.016557425260543823, 0.046377718448638916, 0.0761980265378952, 0.10601833462715149, 0.13583864271640778, 0.16565895080566406, 0.19547924399375916, 0.22529955208301544, 0.25511986017227173, 0.2849401533603668, 0.3147604465484619, 0.3445807695388794, 0.3744010627269745, 0.40422138571739197, 0.43404167890548706, 0.46386200189590454, 0.49368229508399963, 0.5235025882720947, 0.5533229112625122, 0.5831432342529297, 0.6129635572433472, 0.6427838206291199, 0.6726041436195374, 0.7024244666099548, 0.7322447299957275, 0.762065052986145, 0.7918853759765625, 0.8217056393623352]}, "parameters/attention_2.bias": {"_type": "histogram", "values": [1.0, 1.0, 0.0, 0.0, 0.0, 0.0, 0.0, 1.0, 0.0, 0.0, 0.0, 2.0, 2.0, 0.0, 1.0, 2.0, 3.0, 1.0, 3.0, 2.0, 1.0, 1.0, 0.0, 0.0, 0.0, 0.0, 0.0, 0.0, 0.0, 0.0, 0.0, 0.0, 0.0, 0.0, 0.0, 0.0, 0.0, 0.0, 0.0, 0.0, 0.0, 0.0, 0.0, 0.0, 0.0, 0.0, 2.0, 1.0, 4.0, 4.0, 1.0, 2.0, 1.0, 0.0, 1.0, 0.0, 0.0, 0.0, 0.0, 1.0, 1.0, 0.0, 0.0, 1.0], "bins": [-1.161773920059204, -1.1295572519302368, -1.0973405838012695, -1.0651239156723022, -1.032907247543335, -1.0006906986236572, -0.9684740304946899, -0.9362573623657227, -0.9040406942367554, -0.8718240261077881, -0.8396073579788208, -0.8073907494544983, -0.775174081325531, -0.7429574131965637, -0.7107408046722412, -0.6785241365432739, -0.6463074684143066, -0.6140908002853394, -0.5818741321563721, -0.5496575236320496, -0.5174408555030823, -0.485224187374115, -0.4530075490474701, -0.4207909107208252, -0.3885742425918579, -0.3563575744628906, -0.3241409361362457, -0.29192429780960083, -0.25970762968063354, -0.22749097645282745, -0.19527432322502136, -0.16305766999721527, -0.1308409571647644, -0.09862430393695831, -0.06640765070915222, -0.03419099748134613, -0.001974344253540039, 0.030242308974266052, 0.062458962202072144, 0.09467561542987823, 0.12689226865768433, 0.15910892188549042, 0.1913255751132965, 0.2235422283411026, 0.2557588815689087, 0.287975549697876, 0.3201921880245209, 0.35240882635116577, 0.38462549448013306, 0.41684216260910034, 0.44905880093574524, 0.48127543926239014, 0.5134921073913574, 0.5457087755203247, 0.577925443649292, 0.6101420521736145, 0.6423587203025818, 0.6745753884315491, 0.7067919969558716, 0.7390086650848389, 0.7712253332138062, 0.8034420013427734, 0.8356586694717407, 0.8678752779960632, 0.9000919461250305]}, "parameters/attention_2.lin_l.weight": {"_type": "histogram", "values": [1.0, 0.0, 0.0, 0.0, 0.0, 0.0, 4.0, 3.0, 0.0, 3.0, 1.0, 4.0, 3.0, 8.0, 8.0, 7.0, 11.0, 10.0, 21.0, 17.0, 25.0, 33.0, 35.0, 34.0, 49.0, 49.0, 49.0, 68.0, 71.0, 61.0, 64.0, 78.0, 63.0, 72.0, 68.0, 60.0, 75.0, 66.0, 65.0, 62.0, 63.0, 55.0, 46.0, 38.0, 33.0, 31.0, 14.0, 30.0, 9.0, 5.0, 10.0, 4.0, 3.0, 4.0, 1.0, 0.0, 1.0, 1.0, 0.0, 1.0, 1.0, 1.0, 0.0, 1.0], "bins": [-0.8195537328720093, -0.7947045564651489, -0.7698553800582886, -0.7450062036514282, -0.7201570868492126, -0.6953079104423523, -0.6704587340354919, -0.6456095576286316, -0.6207603812217712, -0.5959112048149109, -0.5710620284080505, -0.546212911605835, -0.5213637351989746, -0.49651455879211426, -0.4716653823852539, -0.44681620597839355, -0.4219670593738556, -0.39711788296699524, -0.3722687363624573, -0.3474195599555969, -0.3225703835487366, -0.2977212071418762, -0.27287206053733826, -0.2480228841304779, -0.22317372262477875, -0.1983245611190796, -0.17347538471221924, -0.14862622320652008, -0.12377705425024033, -0.09892788529396057, -0.07407872378826141, -0.04922954738140106, -0.024380385875701904, 0.0004687812179327011, 0.025317948311567307, 0.05016711354255676, 0.07501628249883652, 0.09986545145511627, 0.12471461296081543, 0.14956378936767578, 0.17441295087337494, 0.1992621123790741, 0.22411128878593445, 0.2489604502916336, 0.27380961179733276, 0.2986587882041931, 0.32350796461105347, 0.3483571410179138, 0.3732062876224518, 0.39805546402931213, 0.4229046106338501, 0.44775378704071045, 0.4726029634475708, 0.49745213985443115, 0.5223013162612915, 0.5471504926681519, 0.5719996094703674, 0.5968487858772278, 0.6216979622840881, 0.6465470790863037, 0.6713962554931641, 0.6962454319000244, 0.7210946083068848, 0.7459437847137451, 0.7707929611206055]}, "parameters/out_att.att_l": {"_type": "histogram", "values": [0.0, 0.0, 0.0, 0.0, 0.0, 0.0, 0.0, 0.0, 0.0, 0.0, 0.0, 0.0, 0.0, 0.0, 0.0, 0.0, 0.0, 0.0, 0.0, 0.0, 0.0, 0.0, 0.0, 0.0, 0.0, 0.0, 0.0, 0.0, 0.0, 0.0, 0.0, 0.0, 1.0, 0.0, 0.0, 0.0, 0.0, 0.0, 0.0, 0.0, 0.0, 0.0, 0.0, 0.0, 0.0, 0.0, 0.0, 0.0, 0.0, 0.0, 0.0, 0.0, 0.0, 0.0, 0.0, 0.0, 0.0, 0.0, 0.0, 0.0, 0.0, 0.0, 0.0, 0.0], "bins": [0.494812548160553, 0.494812548160553, 0.494812548160553, 0.494812548160553, 0.494812548160553, 0.494812548160553, 0.494812548160553, 0.494812548160553, 0.494812548160553, 0.494812548160553, 0.494812548160553, 0.494812548160553, 0.494812548160553, 0.494812548160553, 0.494812548160553, 0.494812548160553, 0.494812548160553, 0.494812548160553, 0.494812548160553, 0.494812548160553, 0.494812548160553, 0.494812548160553, 0.494812548160553, 0.494812548160553, 0.494812548160553, 0.494812548160553, 0.494812548160553, 0.494812548160553, 0.494812548160553, 0.494812548160553, 0.494812548160553, 0.494812548160553, 0.494812548160553, 0.494812548160553, 0.494812548160553, 0.494812548160553, 0.494812548160553, 0.494812548160553, 0.494812548160553, 0.494812548160553, 0.494812548160553, 0.494812548160553, 0.494812548160553, 0.494812548160553, 0.494812548160553, 0.494812548160553, 0.494812548160553, 0.494812548160553, 0.494812548160553, 0.494812548160553, 0.494812548160553, 0.494812548160553, 0.494812548160553, 0.494812548160553, 0.494812548160553, 0.494812548160553, 0.494812548160553, 0.494812548160553, 0.494812548160553, 0.494812548160553, 0.494812548160553, 0.494812548160553, 0.494812548160553, 0.494812548160553, 0.494812548160553]}, "parameters/out_att.att_r": {"_type": "histogram", "values": [0.0, 0.0, 0.0, 0.0, 0.0, 0.0, 0.0, 0.0, 0.0, 0.0, 0.0, 0.0, 0.0, 0.0, 0.0, 0.0, 0.0, 0.0, 0.0, 0.0, 0.0, 0.0, 0.0, 0.0, 0.0, 0.0, 0.0, 0.0, 0.0, 0.0, 0.0, 0.0, 1.0, 0.0, 0.0, 0.0, 0.0, 0.0, 0.0, 0.0, 0.0, 0.0, 0.0, 0.0, 0.0, 0.0, 0.0, 0.0, 0.0, 0.0, 0.0, 0.0, 0.0, 0.0, 0.0, 0.0, 0.0, 0.0, 0.0, 0.0, 0.0, 0.0, 0.0, 0.0], "bins": [1.5414669513702393, 1.5414669513702393, 1.5414669513702393, 1.5414669513702393, 1.5414669513702393, 1.5414669513702393, 1.5414669513702393, 1.5414669513702393, 1.5414669513702393, 1.5414669513702393, 1.5414669513702393, 1.5414669513702393, 1.5414669513702393, 1.5414669513702393, 1.5414669513702393, 1.5414669513702393, 1.5414669513702393, 1.5414669513702393, 1.5414669513702393, 1.5414669513702393, 1.5414669513702393, 1.5414669513702393, 1.5414669513702393, 1.5414669513702393, 1.5414669513702393, 1.5414669513702393, 1.5414669513702393, 1.5414669513702393, 1.5414669513702393, 1.5414669513702393, 1.5414669513702393, 1.5414669513702393, 1.5414669513702393, 1.5414669513702393, 1.5414669513702393, 1.5414669513702393, 1.5414669513702393, 1.5414669513702393, 1.5414669513702393, 1.5414669513702393, 1.5414669513702393, 1.5414669513702393, 1.5414669513702393, 1.5414669513702393, 1.5414669513702393, 1.5414669513702393, 1.5414669513702393, 1.5414669513702393, 1.5414669513702393, 1.5414669513702393, 1.5414669513702393, 1.5414669513702393, 1.5414669513702393, 1.5414669513702393, 1.5414669513702393, 1.5414669513702393, 1.5414669513702393, 1.5414669513702393, 1.5414669513702393, 1.5414669513702393, 1.5414669513702393, 1.5414669513702393, 1.5414669513702393, 1.5414669513702393, 1.5414669513702393]}, "parameters/out_att.bias": {"_type": "histogram", "values": [0.0, 0.0, 0.0, 0.0, 0.0, 0.0, 0.0, 0.0, 0.0, 0.0, 0.0, 0.0, 0.0, 0.0, 0.0, 0.0, 0.0, 0.0, 0.0, 0.0, 0.0, 0.0, 0.0, 0.0, 0.0, 0.0, 0.0, 0.0, 0.0, 0.0, 0.0, 0.0, 1.0, 0.0, 0.0, 0.0, 0.0, 0.0, 0.0, 0.0, 0.0, 0.0, 0.0, 0.0, 0.0, 0.0, 0.0, 0.0, 0.0, 0.0, 0.0, 0.0, 0.0, 0.0, 0.0, 0.0, 0.0, 0.0, 0.0, 0.0, 0.0, 0.0, 0.0, 0.0], "bins": [-4.0814032554626465, -4.0814032554626465, -4.0814032554626465, -4.0814032554626465, -4.0814032554626465, -4.0814032554626465, -4.0814032554626465, -4.0814032554626465, -4.0814032554626465, -4.0814032554626465, -4.0814032554626465, -4.0814032554626465, -4.0814032554626465, -4.0814032554626465, -4.0814032554626465, -4.0814032554626465, -4.0814032554626465, -4.0814032554626465, -4.0814032554626465, -4.0814032554626465, -4.0814032554626465, -4.0814032554626465, -4.0814032554626465, -4.0814032554626465, -4.0814032554626465, -4.0814032554626465, -4.0814032554626465, -4.0814032554626465, -4.0814032554626465, -4.0814032554626465, -4.0814032554626465, -4.0814032554626465, -4.0814032554626465, -4.0814032554626465, -4.0814032554626465, -4.0814032554626465, -4.0814032554626465, -4.0814032554626465, -4.0814032554626465, -4.0814032554626465, -4.0814032554626465, -4.0814032554626465, -4.0814032554626465, -4.0814032554626465, -4.0814032554626465, -4.0814032554626465, -4.0814032554626465, -4.0814032554626465, -4.0814032554626465, -4.0814032554626465, -4.0814032554626465, -4.0814032554626465, -4.0814032554626465, -4.0814032554626465, -4.0814032554626465, -4.0814032554626465, -4.0814032554626465, -4.0814032554626465, -4.0814032554626465, -4.0814032554626465, -4.0814032554626465, -4.0814032554626465, -4.0814032554626465, -4.0814032554626465, -4.0814032554626465]}, "parameters/out_att.lin_l.weight": {"_type": "histogram", "values": [1.0, 1.0, 1.0, 0.0, 2.0, 1.0, 3.0, 1.0, 2.0, 3.0, 1.0, 0.0, 1.0, 1.0, 1.0, 0.0, 0.0, 0.0, 0.0, 0.0, 0.0, 0.0, 0.0, 0.0, 0.0, 0.0, 0.0, 0.0, 0.0, 0.0, 0.0, 0.0, 0.0, 0.0, 0.0, 0.0, 0.0, 0.0, 0.0, 0.0, 0.0, 0.0, 0.0, 0.0, 0.0, 0.0, 0.0, 1.0, 0.0, 0.0, 1.0, 2.0, 0.0, 0.0, 1.0, 1.0, 2.0, 1.0, 1.0, 1.0, 3.0, 2.0, 1.0, 4.0], "bins": [-0.575598955154419, -0.5560582280158997, -0.5365175008773804, -0.5169767737388611, -0.4974360466003418, -0.4778953194618225, -0.4583546221256256, -0.4388138949871063, -0.41927316784858704, -0.39973244071006775, -0.38019171357154846, -0.3606509864330292, -0.3411102890968323, -0.321569561958313, -0.3020288348197937, -0.2824881076812744, -0.2629473805427551, -0.24340665340423584, -0.22386592626571655, -0.20432521402835846, -0.18478448688983917, -0.16524375975131989, -0.1457030475139618, -0.1261623203754425, -0.10662159323692322, -0.08708086609840393, -0.06754014641046524, -0.04799942299723625, -0.028458699584007263, -0.008917972445487976, 0.010622747242450714, 0.030163466930389404, 0.04970425367355347, 0.06924498081207275, 0.08878570050001144, 0.10832642018795013, 0.12786714732646942, 0.1474078744649887, 0.1669485867023468, 0.1864893138408661, 0.20603004097938538, 0.22557076811790466, 0.24511149525642395, 0.26465222239494324, 0.28419291973114014, 0.3037336468696594, 0.3232743740081787, 0.342815101146698, 0.3623558282852173, 0.3818965554237366, 0.40143728256225586, 0.42097800970077515, 0.44051873683929443, 0.4600594639778137, 0.4796001613140106, 0.4991408884525299, 0.5186816453933716, 0.5382223725318909, 0.5577630996704102, 0.5773038268089294, 0.5968445539474487, 0.616385281085968, 0.6359260082244873, 0.6554666757583618, 0.6750074028968811]}, "_runtime": 22977, "_timestamp": 1641188967, "_step": 200, "Learning rate value": 0.005631249999999998, "Learning rate action": 0.005631249999999998, "action_probs": {"_type": "histogram", "values": [2, 1, 0, 1, 0, 0, 1, 0, 1, 0, 0, 0, 0, 0, 1, 0, 0, 1, 0, 1, 0, 0, 0, 0, 0, 0, 1, 0, 0, 1, 1, 3, 0, 0, 0, 1, 0, 1, 0, 1, 0, 0, 3, 1, 1, 1, 2, 1, 1, 1, 1, 1, 1, 0, 3, 2, 0, 1, 2, 2, 3, 2, 0, 3], "bins": [0.08915510028600693, 0.10319776087999344, 0.11724042147397995, 0.13128307461738586, 0.14532573521137238, 0.1593683958053589, 0.1734110563993454, 0.1874537169933319, 0.20149637758731842, 0.21553903818130493, 0.22958169877529144, 0.24362435936927795, 0.25766700506210327, 0.271709680557251, 0.2857523262500763, 0.299795001745224, 0.3138376474380493, 0.327880322933197, 0.34192296862602234, 0.35596561431884766, 0.37000828981399536, 0.3840509355068207, 0.3980936110019684, 0.4121362566947937, 0.4261789321899414, 0.4402215778827667, 0.45426425337791443, 0.46830689907073975, 0.48234957456588745, 0.49639222025871277, 0.5104348659515381, 0.5244775414466858, 0.5385202169418335, 0.5525628328323364, 0.5666055083274841, 0.5806481838226318, 0.5946908593177795, 0.6087334752082825, 0.6227761507034302, 0.6368188261985779, 0.6508615016937256, 0.6649041175842285, 0.6789467930793762, 0.6929894685745239, 0.7070320844650269, 0.7210747599601746, 0.7351174354553223, 0.74916011095047, 0.7632027268409729, 0.7772454023361206, 0.7912880778312683, 0.805330753326416, 0.819373369216919, 0.8334160447120667, 0.8474587202072144, 0.8615013360977173, 0.875544011592865, 0.8895866870880127, 0.9036293625831604, 0.9176719784736633, 0.931714653968811, 0.9457573294639587, 0.9598000049591064, 0.9738426208496094, 0.9878852963447571]}, "stop_go_action": {"_type": "histogram", "values": [37, 0, 0, 0, 0, 0, 0, 0, 0, 0, 0, 0, 0, 0, 0, 0, 0, 0, 0, 0, 0, 0, 0, 0, 0, 0, 0, 0, 0, 0, 0, 0, 0, 0, 0, 0, 0, 0, 0, 0, 0, 0, 0, 0, 0, 0, 0, 0, 0, 0, 0, 0, 0, 0, 0, 0, 0, 0, 0, 0, 0, 0, 0, 13], "bins": [0.0, 0.015625, 0.03125, 0.046875, 0.0625, 0.078125, 0.09375, 0.109375, 0.125, 0.140625, 0.15625, 0.171875, 0.1875, 0.203125, 0.21875, 0.234375, 0.25, 0.265625, 0.28125, 0.296875, 0.3125, 0.328125, 0.34375, 0.359375, 0.375, 0.390625, 0.40625, 0.421875, 0.4375, 0.453125, 0.46875, 0.484375, 0.5, 0.515625, 0.53125, 0.546875, 0.5625, 0.578125, 0.59375, 0.609375, 0.625, 0.640625, 0.65625, 0.671875, 0.6875, 0.703125, 0.71875, 0.734375, 0.75, 0.765625, 0.78125, 0.796875, 0.8125, 0.828125, 0.84375, 0.859375, 0.875, 0.890625, 0.90625, 0.921875, 0.9375, 0.953125, 0.96875, 0.984375, 1.0]}, "node_values": {"_type": "histogram", "values": [13, 0, 0, 0, 0, 0, 0, 0, 0, 0, 0, 0, 0, 0, 0, 0, 0, 0, 0, 0, 0, 0, 0, 0, 0, 0, 0, 0, 0, 0, 0, 0, 0, 0, 0, 0, 0, 0, 0, 12, 0, 0, 0, 0, 0, 0, 0, 0, 0, 0, 0, 0, 0, 12, 0, 0, 0, 0, 0, 0, 0, 0, 0, 13], "bins": [-36.666175842285156, -36.58578625321388, -36.50539666414261, -36.425007075071335, -36.34461748600006, -36.26422789692879, -36.18383830785751, -36.10344871878624, -36.023059129714966, -35.94266954064369, -35.86227995157242, -35.781890362501144, -35.70150077342987, -35.6211111843586, -35.54072159528732, -35.46033200621605, -35.379942417144775, -35.2995528280735, -35.21916323900223, -35.138773649930954, -35.05838406085968, -34.977994471788406, -34.89760488271713, -34.81721529364586, -34.736825704574585, -34.65643611550331, -34.57604652643204, -34.49565693736076, -34.41526734828949, -34.334877759218216, -34.25448817014694, -34.17409858107567, -34.093708992004395, -34.01331940293312, -33.93292981386185, -33.85254022479057, -33.7721506357193, -33.691761046648026, -33.61137145757675, -33.53098186850548, -33.450592279434204, -33.37020269036293, -33.28981310129166, -33.20942351222038, -33.12903392314911, -33.048644334077835, -32.96825474500656, -32.88786515593529, -32.807475566864014, -32.72708597779274, -32.646696388721466, -32.56630679965019, -32.48591721057892, -32.405527621507645, -32.32513803243637, -32.2447484433651, -32.16435885429382, -32.08396926522255, -32.003579676151276, -31.923190087080002, -31.842800498008728, -31.762410908937454, -31.68202131986618, -31.601631730794907, -31.521242141723633]}, "episode_rewards": {"_type": "histogram", "values": [12, 0, 0, 0, 0, 0, 0, 0, 0, 0, 0, 0, 0, 0, 0, 0, 0, 0, 0, 0, 0, 0, 0, 0, 0, 0, 0, 0, 0, 0, 0, 0, 0, 0, 0, 0, 0, 0, 0, 0, 0, 0, 0, 0, 0, 0, 0, 0, 0, 0, 0, 0, 0, 0, 0, 0, 0, 0, 0, 0, 0, 0, 0, 1], "bins": [-16.0, -15.765625, -15.53125, -15.296875, -15.0625, -14.828125, -14.59375, -14.359375, -14.125, -13.890625, -13.65625, -13.421875, -13.1875, -12.953125, -12.71875, -12.484375, -12.25, -12.015625, -11.78125, -11.546875, -11.3125, -11.078125, -10.84375, -10.609375, -10.375, -10.140625, -9.90625, -9.671875, -9.4375, -9.203125, -8.96875, -8.734375, -8.5, -8.265625, -8.03125, -7.796875, -7.5625, -7.328125, -7.09375, -6.859375, -6.625, -6.390625, -6.15625, -5.921875, -5.6875, -5.453125, -5.21875, -4.984375, -4.75, -4.515625, -4.28125, -4.046875, -3.8125, -3.578125, -3.34375, -3.109375, -2.875, -2.640625, -2.40625, -2.171875, -1.9375, -1.703125, -1.46875, -1.234375, -1.0]}, "avg_reward": -1500.5833333333333, "done_agents": 0.4139384920634919, "deadlock_agents": 0.42504960317460316, "gradients/out_att.bias": {"_type": "histogram", "values": [0.0, 0.0, 0.0, 0.0, 0.0, 0.0, 0.0, 0.0, 0.0, 0.0, 0.0, 0.0, 0.0, 0.0, 0.0, 0.0, 0.0, 0.0, 0.0, 0.0, 0.0, 0.0, 0.0, 0.0, 0.0, 0.0, 0.0, 0.0, 0.0, 0.0, 0.0, 0.0, 1.0, 0.0, 0.0, 0.0, 0.0, 0.0, 0.0, 0.0, 0.0, 0.0, 0.0, 0.0, 0.0, 0.0, 0.0, 0.0, 0.0, 0.0, 0.0, 0.0, 0.0, 0.0, 0.0, 0.0, 0.0, 0.0, 0.0, 0.0, 0.0, 0.0, 0.0, 0.0], "bins": [0.2482190728187561, 0.2482190728187561, 0.2482190728187561, 0.2482190728187561, 0.2482190728187561, 0.2482190728187561, 0.2482190728187561, 0.2482190728187561, 0.2482190728187561, 0.2482190728187561, 0.2482190728187561, 0.2482190728187561, 0.2482190728187561, 0.2482190728187561, 0.2482190728187561, 0.2482190728187561, 0.2482190728187561, 0.2482190728187561, 0.2482190728187561, 0.2482190728187561, 0.2482190728187561, 0.2482190728187561, 0.2482190728187561, 0.2482190728187561, 0.2482190728187561, 0.2482190728187561, 0.2482190728187561, 0.2482190728187561, 0.2482190728187561, 0.2482190728187561, 0.2482190728187561, 0.2482190728187561, 0.2482190728187561, 0.2482190728187561, 0.2482190728187561, 0.2482190728187561, 0.2482190728187561, 0.2482190728187561, 0.2482190728187561, 0.2482190728187561, 0.2482190728187561, 0.2482190728187561, 0.2482190728187561, 0.2482190728187561, 0.2482190728187561, 0.2482190728187561, 0.2482190728187561, 0.2482190728187561, 0.2482190728187561, 0.2482190728187561, 0.2482190728187561, 0.2482190728187561, 0.2482190728187561, 0.2482190728187561, 0.2482190728187561, 0.2482190728187561, 0.2482190728187561, 0.2482190728187561, 0.2482190728187561, 0.2482190728187561, 0.2482190728187561, 0.2482190728187561, 0.2482190728187561, 0.2482190728187561, 0.2482190728187561]}, "gradients/out_att.att_r": {"_type": "histogram", "values": [0.0, 0.0, 0.0, 0.0, 0.0, 0.0, 0.0, 0.0, 0.0, 0.0, 0.0, 0.0, 0.0, 0.0, 0.0, 0.0, 0.0, 0.0, 0.0, 0.0, 0.0, 0.0, 0.0, 0.0, 0.0, 0.0, 0.0, 0.0, 0.0, 0.0, 0.0, 0.0, 1.0, 0.0, 0.0, 0.0, 0.0, 0.0, 0.0, 0.0, 0.0, 0.0, 0.0, 0.0, 0.0, 0.0, 0.0, 0.0, 0.0, 0.0, 0.0, 0.0, 0.0, 0.0, 0.0, 0.0, 0.0, 0.0, 0.0, 0.0, 0.0, 0.0, 0.0, 0.0], "bins": [-1.0865029764772771e-07, -1.0865029764772771e-07, -1.0865029764772771e-07, -1.0865029764772771e-07, -1.0865029764772771e-07, -1.0865029764772771e-07, -1.0865029764772771e-07, -1.0865029764772771e-07, -1.0865029764772771e-07, -1.0865029764772771e-07, -1.0865029764772771e-07, -1.0865029764772771e-07, -1.0865029764772771e-07, -1.0865029764772771e-07, -1.0865029764772771e-07, -1.0865029764772771e-07, -1.0865029764772771e-07, -1.0865029764772771e-07, -1.0865029764772771e-07, -1.0865029764772771e-07, -1.0865029764772771e-07, -1.0865029764772771e-07, -1.0865029764772771e-07, -1.0865029764772771e-07, -1.0865029764772771e-07, -1.0865029764772771e-07, -1.0865029764772771e-07, -1.0865029764772771e-07, -1.0865029764772771e-07, -1.0865029764772771e-07, -1.0865029764772771e-07, -1.0865029764772771e-07, -1.0865029764772771e-07, -1.0865029764772771e-07, -1.0865029764772771e-07, -1.0865029764772771e-07, -1.0865029764772771e-07, -1.0865029764772771e-07, -1.0865029764772771e-07, -1.0865029764772771e-07, -1.0865029764772771e-07, -1.0865029764772771e-07, -1.0865029764772771e-07, -1.0865029764772771e-07, -1.0865029764772771e-07, -1.0865029764772771e-07, -1.0865029764772771e-07, -1.0865029764772771e-07, -1.0865029764772771e-07, -1.0865029764772771e-07, -1.0865029764772771e-07, -1.0865029764772771e-07, -1.0865029764772771e-07, -1.0865029764772771e-07, -1.0865029764772771e-07, -1.0865029764772771e-07, -1.0865029764772771e-07, -1.0865029764772771e-07, -1.0865029764772771e-07, -1.0865029764772771e-07, -1.0865029764772771e-07, -1.0865029764772771e-07, -1.0865029764772771e-07, -1.0865029764772771e-07, -1.0865029764772771e-07]}, "gradients/out_att.att_l": {"_type": "histogram", "values": [0.0, 0.0, 0.0, 0.0, 0.0, 0.0, 0.0, 0.0, 0.0, 0.0, 0.0, 0.0, 0.0, 0.0, 0.0, 0.0, 0.0, 0.0, 0.0, 0.0, 0.0, 0.0, 0.0, 0.0, 0.0, 0.0, 0.0, 0.0, 0.0, 0.0, 0.0, 0.0, 1.0, 0.0, 0.0, 0.0, 0.0, 0.0, 0.0, 0.0, 0.0, 0.0, 0.0, 0.0, 0.0, 0.0, 0.0, 0.0, 0.0, 0.0, 0.0, 0.0, 0.0, 0.0, 0.0, 0.0, 0.0, 0.0, 0.0, 0.0, 0.0, 0.0, 0.0, 0.0], "bins": [0.0008991265785880387, 0.0008991265785880387, 0.0008991265785880387, 0.0008991265785880387, 0.0008991265785880387, 0.0008991265785880387, 0.0008991265785880387, 0.0008991265785880387, 0.0008991265785880387, 0.0008991265785880387, 0.0008991265785880387, 0.0008991265785880387, 0.0008991265785880387, 0.0008991265785880387, 0.0008991265785880387, 0.0008991265785880387, 0.0008991265785880387, 0.0008991265785880387, 0.0008991265785880387, 0.0008991265785880387, 0.0008991265785880387, 0.0008991265785880387, 0.0008991265785880387, 0.0008991265785880387, 0.0008991265785880387, 0.0008991265785880387, 0.0008991265785880387, 0.0008991265785880387, 0.0008991265785880387, 0.0008991265785880387, 0.0008991265785880387, 0.0008991265785880387, 0.0008991265785880387, 0.0008991265785880387, 0.0008991265785880387, 0.0008991265785880387, 0.0008991265785880387, 0.0008991265785880387, 0.0008991265785880387, 0.0008991265785880387, 0.0008991265785880387, 0.0008991265785880387, 0.0008991265785880387, 0.0008991265785880387, 0.0008991265785880387, 0.0008991265785880387, 0.0008991265785880387, 0.0008991265785880387, 0.0008991265785880387, 0.0008991265785880387, 0.0008991265785880387, 0.0008991265785880387, 0.0008991265785880387, 0.0008991265785880387, 0.0008991265785880387, 0.0008991265785880387, 0.0008991265785880387, 0.0008991265785880387, 0.0008991265785880387, 0.0008991265785880387, 0.0008991265785880387, 0.0008991265785880387, 0.0008991265785880387, 0.0008991265785880387, 0.0008991265785880387]}, "gradients/out_att.lin_l.weight": {"_type": "histogram", "values": [1.0, 0.0, 0.0, 0.0, 0.0, 0.0, 0.0, 0.0, 0.0, 0.0, 0.0, 0.0, 0.0, 1.0, 1.0, 1.0, 2.0, 0.0, 0.0, 1.0, 1.0, 1.0, 1.0, 0.0, 1.0, 2.0, 3.0, 2.0, 2.0, 0.0, 1.0, 0.0, 2.0, 0.0, 1.0, 1.0, 3.0, 0.0, 1.0, 0.0, 0.0, 1.0, 0.0, 1.0, 0.0, 1.0, 0.0, 0.0, 0.0, 0.0, 1.0, 1.0, 1.0, 0.0, 0.0, 1.0, 0.0, 0.0, 1.0, 1.0, 0.0, 0.0, 1.0, 1.0], "bins": [-0.3736172318458557, -0.36174502968788147, -0.3498728573322296, -0.33800065517425537, -0.3261284828186035, -0.3142562806606293, -0.30238407850265503, -0.2905119061470032, -0.2786397337913513, -0.2667675316333771, -0.2548953592777252, -0.24302315711975098, -0.23115098476409912, -0.21927878260612488, -0.20740659534931183, -0.19553440809249878, -0.18366220593452454, -0.1717900186777115, -0.15991783142089844, -0.1480456292629242, -0.13617345690727234, -0.12430126219987869, -0.11242906749248505, -0.100556880235672, -0.08868469297885895, -0.0768125057220459, -0.06494031846523285, -0.0530681237578392, -0.041195936501026154, -0.029323749244213104, -0.017451554536819458, -0.005579367280006409, 0.006292819976806641, 0.01816500909626484, 0.030037198215723038, 0.041909389197826385, 0.053781576454639435, 0.06565376371145248, 0.07752595841884613, 0.08939814567565918, 0.10127033293247223, 0.11314252018928528, 0.12501470744609833, 0.13688689470291138, 0.14875909686088562, 0.16063126921653748, 0.17250347137451172, 0.18437565863132477, 0.19624784588813782, 0.20812003314495087, 0.21999222040176392, 0.23186442255973816, 0.24373659491539001, 0.25560879707336426, 0.2674809694290161, 0.27935317158699036, 0.2912253737449646, 0.30309757590293884, 0.3149697482585907, 0.32684195041656494, 0.3387141227722168, 0.35058632493019104, 0.3624585270881653, 0.37433069944381714, 0.386202871799469]}, "gradients/attention_2.bias": {"_type": "histogram", "values": [1.0, 0.0, 0.0, 0.0, 1.0, 2.0, 0.0, 0.0, 0.0, 0.0, 1.0, 0.0, 0.0, 0.0, 0.0, 0.0, 1.0, 0.0, 0.0, 0.0, 0.0, 0.0, 0.0, 0.0, 0.0, 0.0, 0.0, 1.0, 0.0, 1.0, 1.0, 0.0, 0.0, 0.0, 2.0, 2.0, 1.0, 0.0, 1.0, 0.0, 0.0, 1.0, 1.0, 0.0, 2.0, 0.0, 1.0, 0.0, 4.0, 2.0, 1.0, 2.0, 2.0, 1.0, 3.0, 1.0, 0.0, 1.0, 0.0, 0.0, 2.0, 0.0, 0.0, 1.0], "bins": [-0.18777258694171906, -0.1836651861667633, -0.17955778539180756, -0.1754503697156906, -0.17134296894073486, -0.1672355681657791, -0.16312816739082336, -0.15902076661586761, -0.15491336584091187, -0.15080596506595612, -0.14669856429100037, -0.14259114861488342, -0.13848374783992767, -0.13437634706497192, -0.13026894629001617, -0.12616154551506042, -0.12205412983894348, -0.11794672906398773, -0.11383932083845139, -0.10973192006349564, -0.10562451183795929, -0.10151711106300354, -0.09740971028804779, -0.09330230951309204, -0.0891949012875557, -0.08508750051259995, -0.0809800922870636, -0.07687269151210785, -0.0727652907371521, -0.06865788251161575, -0.06455048173666, -0.060443077236413956, -0.05633567273616791, -0.05222826823592186, -0.04812086373567581, -0.04401346296072006, -0.039906058460474014, -0.035798653960227966, -0.03169125318527222, -0.02758384868502617, -0.02347644418478012, -0.019369039684534073, -0.015261637046933174, -0.0111542334780097, -0.007046829909086227, -0.0029394254088401794, 0.0011679772287607193, 0.005275379866361618, 0.009382784366607666, 0.01349018793553114, 0.017597591504454613, 0.02170499414205551, 0.02581239864230156, 0.029919803142547607, 0.03402720391750336, 0.038134608417749405, 0.04224201291799545, 0.0463494174182415, 0.05045682191848755, 0.0545642226934433, 0.058671627193689346, 0.0627790316939354, 0.06688643246889114, 0.07099384069442749, 0.07510124146938324]}, "gradients/attention_2.att_r": {"_type": "histogram", "values": [0.0, 0.0, 0.0, 0.0, 0.0, 0.0, 0.0, 0.0, 0.0, 0.0, 0.0, 0.0, 0.0, 0.0, 0.0, 0.0, 0.0, 0.0, 0.0, 0.0, 0.0, 0.0, 0.0, 0.0, 0.0, 0.0, 0.0, 0.0, 0.0, 0.0, 0.0, 0.0, 40.0, 0.0, 0.0, 0.0, 0.0, 0.0, 0.0, 0.0, 0.0, 0.0, 0.0, 0.0, 0.0, 0.0, 0.0, 0.0, 0.0, 0.0, 0.0, 0.0, 0.0, 0.0, 0.0, 0.0, 0.0, 0.0, 0.0, 0.0, 0.0, 0.0, 0.0, 0.0], "bins": [0.0, 0.0, 0.0, 0.0, 0.0, 0.0, 0.0, 0.0, 0.0, 0.0, 0.0, 0.0, 0.0, 0.0, 0.0, 0.0, 0.0, 0.0, 0.0, 0.0, 0.0, 0.0, 0.0, 0.0, 0.0, 0.0, 0.0, 0.0, 0.0, 0.0, 0.0, 0.0, 0.0, 0.0, 0.0, 0.0, 0.0, 0.0, 0.0, 0.0, 0.0, 0.0, 0.0, 0.0, 0.0, 0.0, 0.0, 0.0, 0.0, 0.0, 0.0, 0.0, 0.0, 0.0, 0.0, 0.0, 0.0, 0.0, 0.0, 0.0, 0.0, 0.0, 0.0, 0.0, 0.0]}, "gradients/attention_2.att_l": {"_type": "histogram", "values": [0.0, 0.0, 0.0, 0.0, 0.0, 0.0, 0.0, 0.0, 0.0, 0.0, 0.0, 0.0, 0.0, 0.0, 0.0, 0.0, 0.0, 0.0, 0.0, 0.0, 0.0, 0.0, 0.0, 0.0, 0.0, 0.0, 0.0, 0.0, 0.0, 0.0, 0.0, 0.0, 40.0, 0.0, 0.0, 0.0, 0.0, 0.0, 0.0, 0.0, 0.0, 0.0, 0.0, 0.0, 0.0, 0.0, 0.0, 0.0, 0.0, 0.0, 0.0, 0.0, 0.0, 0.0, 0.0, 0.0, 0.0, 0.0, 0.0, 0.0, 0.0, 0.0, 0.0, 0.0], "bins": [0.0, 0.0, 0.0, 0.0, 0.0, 0.0, 0.0, 0.0, 0.0, 0.0, 0.0, 0.0, 0.0, 0.0, 0.0, 0.0, 0.0, 0.0, 0.0, 0.0, 0.0, 0.0, 0.0, 0.0, 0.0, 0.0, 0.0, 0.0, 0.0, 0.0, 0.0, 0.0, 0.0, 0.0, 0.0, 0.0, 0.0, 0.0, 0.0, 0.0, 0.0, 0.0, 0.0, 0.0, 0.0, 0.0, 0.0, 0.0, 0.0, 0.0, 0.0, 0.0, 0.0, 0.0, 0.0, 0.0, 0.0, 0.0, 0.0, 0.0, 0.0, 0.0, 0.0, 0.0, 0.0]}, "gradients/attention_2.lin_l.weight": {"_type": "histogram", "values": [0.0, 0.0, 0.0, 0.0, 0.0, 0.0, 0.0, 0.0, 0.0, 0.0, 0.0, 0.0, 0.0, 0.0, 0.0, 0.0, 0.0, 0.0, 0.0, 0.0, 0.0, 0.0, 0.0, 0.0, 0.0, 0.0, 0.0, 0.0, 0.0, 0.0, 0.0, 0.0, 1600.0, 0.0, 0.0, 0.0, 0.0, 0.0, 0.0, 0.0, 0.0, 0.0, 0.0, 0.0, 0.0, 0.0, 0.0, 0.0, 0.0, 0.0, 0.0, 0.0, 0.0, 0.0, 0.0, 0.0, 0.0, 0.0, 0.0, 0.0, 0.0, 0.0, 0.0, 0.0], "bins": [0.0, 0.0, 0.0, 0.0, 0.0, 0.0, 0.0, 0.0, 0.0, 0.0, 0.0, 0.0, 0.0, 0.0, 0.0, 0.0, 0.0, 0.0, 0.0, 0.0, 0.0, 0.0, 0.0, 0.0, 0.0, 0.0, 0.0, 0.0, 0.0, 0.0, 0.0, 0.0, 0.0, 0.0, 0.0, 0.0, 0.0, 0.0, 0.0, 0.0, 0.0, 0.0, 0.0, 0.0, 0.0, 0.0, 0.0, 0.0, 0.0, 0.0, 0.0, 0.0, 0.0, 0.0, 0.0, 0.0, 0.0, 0.0, 0.0, 0.0, 0.0, 0.0, 0.0, 0.0, 0.0]}, "gradients/attention_1.bias": {"_type": "histogram", "values": [1.0, 0.0, 0.0, 0.0, 1.0, 0.0, 2.0, 0.0, 0.0, 0.0, 0.0, 1.0, 0.0, 0.0, 0.0, 0.0, 0.0, 0.0, 1.0, 0.0, 0.0, 0.0, 0.0, 0.0, 0.0, 0.0, 0.0, 0.0, 0.0, 0.0, 0.0, 0.0, 1.0, 0.0, 0.0, 0.0, 0.0, 0.0, 0.0, 1.0, 2.0, 1.0, 2.0, 0.0, 1.0, 0.0, 0.0, 2.0, 0.0, 0.0, 2.0, 1.0, 0.0, 2.0, 2.0, 2.0, 3.0, 3.0, 2.0, 2.0, 0.0, 2.0, 0.0, 3.0], "bins": [-0.18777258694171906, -0.18421825766563416, -0.18066392838954926, -0.17710959911346436, -0.17355526983737946, -0.17000094056129456, -0.16644662618637085, -0.16289229691028595, -0.15933796763420105, -0.15578363835811615, -0.15222930908203125, -0.14867497980594635, -0.14512065052986145, -0.14156633615493774, -0.13801200687885284, -0.13445767760276794, -0.13090334832668304, -0.12734901905059814, -0.12379468977451324, -0.12024036794900894, -0.11668603867292404, -0.11313170939683914, -0.10957738012075424, -0.10602305829524994, -0.10246872156858444, -0.09891439229249954, -0.09536006301641464, -0.09180574119091034, -0.08825141191482544, -0.08469708263874054, -0.08114275336265564, -0.07758842408657074, -0.07403410971164703, -0.07047978043556213, -0.06692545115947723, -0.06337112933397293, -0.05981680005788803, -0.05626247078180313, -0.05270814150571823, -0.04915381595492363, -0.04559948295354843, -0.04204515367746353, -0.03849082812666893, -0.03493649885058403, -0.03138217329978943, -0.02782784402370453, -0.024273516610264778, -0.020719189196825027, -0.017164863646030426, -0.013610536232590675, -0.010056208819150925, -0.006501880474388599, -0.0029475530609488487, 0.0006067752838134766, 0.004161102697253227, 0.007715430110692978, 0.011269757524132729, 0.01482408493757248, 0.01837841235101223, 0.02193273976445198, 0.02548706904053688, 0.02904139645397663, 0.03259572386741638, 0.03615005314350128, 0.03970437869429588]}, "gradients/attention_1.att_r": {"_type": "histogram", "values": [0.0, 0.0, 0.0, 0.0, 0.0, 0.0, 0.0, 0.0, 0.0, 0.0, 0.0, 0.0, 0.0, 0.0, 0.0, 0.0, 0.0, 0.0, 0.0, 0.0, 0.0, 0.0, 0.0, 0.0, 0.0, 0.0, 0.0, 0.0, 0.0, 0.0, 0.0, 0.0, 40.0, 0.0, 0.0, 0.0, 0.0, 0.0, 0.0, 0.0, 0.0, 0.0, 0.0, 0.0, 0.0, 0.0, 0.0, 0.0, 0.0, 0.0, 0.0, 0.0, 0.0, 0.0, 0.0, 0.0, 0.0, 0.0, 0.0, 0.0, 0.0, 0.0, 0.0, 0.0], "bins": [0.0, 0.0, 0.0, 0.0, 0.0, 0.0, 0.0, 0.0, 0.0, 0.0, 0.0, 0.0, 0.0, 0.0, 0.0, 0.0, 0.0, 0.0, 0.0, 0.0, 0.0, 0.0, 0.0, 0.0, 0.0, 0.0, 0.0, 0.0, 0.0, 0.0, 0.0, 0.0, 0.0, 0.0, 0.0, 0.0, 0.0, 0.0, 0.0, 0.0, 0.0, 0.0, 0.0, 0.0, 0.0, 0.0, 0.0, 0.0, 0.0, 0.0, 0.0, 0.0, 0.0, 0.0, 0.0, 0.0, 0.0, 0.0, 0.0, 0.0, 0.0, 0.0, 0.0, 0.0, 0.0]}, "gradients/attention_1.att_l": {"_type": "histogram", "values": [0.0, 0.0, 0.0, 0.0, 0.0, 0.0, 0.0, 0.0, 0.0, 0.0, 0.0, 0.0, 0.0, 0.0, 0.0, 0.0, 0.0, 0.0, 0.0, 0.0, 0.0, 0.0, 0.0, 0.0, 0.0, 0.0, 0.0, 0.0, 0.0, 0.0, 0.0, 0.0, 40.0, 0.0, 0.0, 0.0, 0.0, 0.0, 0.0, 0.0, 0.0, 0.0, 0.0, 0.0, 0.0, 0.0, 0.0, 0.0, 0.0, 0.0, 0.0, 0.0, 0.0, 0.0, 0.0, 0.0, 0.0, 0.0, 0.0, 0.0, 0.0, 0.0, 0.0, 0.0], "bins": [0.0, 0.0, 0.0, 0.0, 0.0, 0.0, 0.0, 0.0, 0.0, 0.0, 0.0, 0.0, 0.0, 0.0, 0.0, 0.0, 0.0, 0.0, 0.0, 0.0, 0.0, 0.0, 0.0, 0.0, 0.0, 0.0, 0.0, 0.0, 0.0, 0.0, 0.0, 0.0, 0.0, 0.0, 0.0, 0.0, 0.0, 0.0, 0.0, 0.0, 0.0, 0.0, 0.0, 0.0, 0.0, 0.0, 0.0, 0.0, 0.0, 0.0, 0.0, 0.0, 0.0, 0.0, 0.0, 0.0, 0.0, 0.0, 0.0, 0.0, 0.0, 0.0, 0.0, 0.0, 0.0]}, "gradients/attention_1.lin_l.weight": {"_type": "histogram", "values": [0.0, 0.0, 0.0, 0.0, 0.0, 0.0, 0.0, 0.0, 0.0, 0.0, 0.0, 0.0, 0.0, 0.0, 0.0, 0.0, 0.0, 0.0, 0.0, 0.0, 0.0, 0.0, 0.0, 0.0, 0.0, 0.0, 0.0, 0.0, 0.0, 0.0, 0.0, 0.0, 1600.0, 0.0, 0.0, 0.0, 0.0, 0.0, 0.0, 0.0, 0.0, 0.0, 0.0, 0.0, 0.0, 0.0, 0.0, 0.0, 0.0, 0.0, 0.0, 0.0, 0.0, 0.0, 0.0, 0.0, 0.0, 0.0, 0.0, 0.0, 0.0, 0.0, 0.0, 0.0], "bins": [0.0, 0.0, 0.0, 0.0, 0.0, 0.0, 0.0, 0.0, 0.0, 0.0, 0.0, 0.0, 0.0, 0.0, 0.0, 0.0, 0.0, 0.0, 0.0, 0.0, 0.0, 0.0, 0.0, 0.0, 0.0, 0.0, 0.0, 0.0, 0.0, 0.0, 0.0, 0.0, 0.0, 0.0, 0.0, 0.0, 0.0, 0.0, 0.0, 0.0, 0.0, 0.0, 0.0, 0.0, 0.0, 0.0, 0.0, 0.0, 0.0, 0.0, 0.0, 0.0, 0.0, 0.0, 0.0, 0.0, 0.0, 0.0, 0.0, 0.0, 0.0, 0.0, 0.0, 0.0, 0.0]}, "gradients/attention_0.bias": {"_type": "histogram", "values": [1.0, 1.0, 0.0, 2.0, 0.0, 0.0, 0.0, 0.0, 1.0, 0.0, 0.0, 0.0, 0.0, 0.0, 0.0, 0.0, 0.0, 0.0, 1.0, 0.0, 0.0, 0.0, 0.0, 0.0, 0.0, 0.0, 0.0, 0.0, 0.0, 0.0, 1.0, 0.0, 0.0, 0.0, 0.0, 0.0, 0.0, 0.0, 1.0, 3.0, 0.0, 1.0, 0.0, 2.0, 0.0, 0.0, 1.0, 1.0, 0.0, 1.0, 1.0, 1.0, 1.0, 3.0, 2.0, 4.0, 3.0, 0.0, 2.0, 1.0, 1.0, 2.0, 0.0, 2.0], "bins": [-0.17537403106689453, -0.17201697826385498, -0.16865992546081543, -0.16530285775661469, -0.16194580495357513, -0.15858875215053558, -0.15523168444633484, -0.1518746316432953, -0.14851757884025574, -0.1451605260372162, -0.14180347323417664, -0.1384464055299759, -0.13508935272693634, -0.1317322999238968, -0.12837523221969604, -0.1250181794166565, -0.12166112661361694, -0.11830407381057739, -0.11494701355695724, -0.1115899533033371, -0.10823290050029755, -0.104875847697258, -0.10151878744363785, -0.0981617271900177, -0.09480467438697815, -0.0914476215839386, -0.08809056133031845, -0.0847335010766983, -0.08137644827365875, -0.0780193954706192, -0.07466233521699905, -0.0713052749633789, -0.06794822216033936, -0.0645911693572998, -0.06123410910367966, -0.05787705257534981, -0.05451999604701996, -0.05116293951869011, -0.04780588299036026, -0.04444882646203041, -0.04109177365899086, -0.03773471713066101, -0.03437766060233116, -0.031020604074001312, -0.027663547545671463, -0.024306491017341614, -0.020949434489011765, -0.017592377960681915, -0.014235321432352066, -0.010878264904022217, -0.0075212083756923676, -0.004164151847362518, -0.0008070953190326691, 0.00254996120929718, 0.005907017737627029, 0.009264074265956879, 0.012621130794286728, 0.015978187322616577, 0.019335243850946426, 0.022692300379276276, 0.026049356907606125, 0.029406413435935974, 0.03276346996426582, 0.03612052649259567, 0.03947758302092552]}, "gradients/attention_0.att_r": {"_type": "histogram", "values": [1.0, 0.0, 0.0, 0.0, 0.0, 0.0, 0.0, 1.0, 0.0, 0.0, 0.0, 0.0, 0.0, 0.0, 0.0, 0.0, 0.0, 0.0, 0.0, 0.0, 0.0, 0.0, 0.0, 0.0, 0.0, 0.0, 0.0, 0.0, 0.0, 0.0, 0.0, 0.0, 0.0, 32.0, 0.0, 0.0, 2.0, 0.0, 0.0, 0.0, 0.0, 0.0, 0.0, 1.0, 1.0, 0.0, 0.0, 0.0, 0.0, 0.0, 0.0, 0.0, 0.0, 0.0, 1.0, 0.0, 0.0, 0.0, 0.0, 0.0, 0.0, 0.0, 0.0, 1.0], "bins": [-7.691726409662506e-23, -7.463174472758254e-23, -7.234623166942726e-23, -7.006071230038473e-23, -6.777519293134221e-23, -6.548967987318693e-23, -6.32041605041444e-23, -6.091864113510188e-23, -5.86331280769466e-23, -5.634760870790407e-23, -5.406209564974879e-23, -5.1776576280706263e-23, -4.949106006710736e-23, -4.7205543853508456e-23, -4.492002448446593e-23, -4.263450827086703e-23, -4.0348992057268126e-23, -3.806347584366922e-23, -3.577795963007032e-23, -3.3492440261027795e-23, -3.120692404742889e-23, -2.892140783382999e-23, -2.6635888464787464e-23, -2.435037225118856e-23, -2.2064856037589657e-23, -1.9779339823990754e-23, -1.749382203267004e-23, -1.5208304241349326e-23, -1.2922788027750423e-23, -1.0637271025290614e-23, -8.351754022830805e-24, -6.0662362315100916e-24, -3.780720017911188e-24, -1.4952030154513797e-24, 7.903139870084289e-25, 3.0758309894682375e-24, 5.361347991928046e-24, 7.646864994387855e-24, 9.932381996847663e-24, 1.2217899788168377e-23, 1.450341600176728e-23, 1.6788932215366184e-23, 1.9074450006686898e-23, 2.135996779800761e-23, 2.3645484011606515e-23, 2.5931000225205418e-23, 2.821651959424794e-23, 3.0502035807846846e-23, 3.278755202144575e-23, 3.507306823504465e-23, 3.7358584448643556e-23, 3.964410381768608e-23, 4.1929620031284983e-23, 4.4215136244883887e-23, 4.650065561392641e-23, 4.8786171827525314e-23, 5.107168804112422e-23, 5.335720741016674e-23, 5.564272046832202e-23, 5.792823983736455e-23, 6.021375289551983e-23, 6.249927226456236e-23, 6.478479163360488e-23, 6.707030469176016e-23, 6.935582406080269e-23]}, "gradients/attention_0.att_l": {"_type": "histogram", "values": [1.0, 0.0, 0.0, 0.0, 0.0, 0.0, 0.0, 1.0, 0.0, 0.0, 0.0, 0.0, 0.0, 0.0, 0.0, 0.0, 0.0, 0.0, 0.0, 0.0, 0.0, 0.0, 0.0, 0.0, 0.0, 0.0, 0.0, 0.0, 0.0, 0.0, 0.0, 0.0, 0.0, 32.0, 0.0, 0.0, 2.0, 0.0, 0.0, 0.0, 0.0, 0.0, 0.0, 1.0, 1.0, 0.0, 0.0, 0.0, 0.0, 0.0, 0.0, 0.0, 0.0, 0.0, 1.0, 0.0, 0.0, 0.0, 0.0, 0.0, 0.0, 0.0, 0.0, 1.0], "bins": [-7.691726409662506e-23, -7.463174472758254e-23, -7.234623166942726e-23, -7.006071230038473e-23, -6.777519293134221e-23, -6.548967987318693e-23, -6.32041605041444e-23, -6.091864113510188e-23, -5.86331280769466e-23, -5.634760870790407e-23, -5.406209564974879e-23, -5.1776576280706263e-23, -4.949106006710736e-23, -4.7205543853508456e-23, -4.492002448446593e-23, -4.263450827086703e-23, -4.0348992057268126e-23, -3.806347584366922e-23, -3.577795963007032e-23, -3.3492440261027795e-23, -3.120692404742889e-23, -2.892140783382999e-23, -2.6635888464787464e-23, -2.435037225118856e-23, -2.2064856037589657e-23, -1.9779339823990754e-23, -1.749382203267004e-23, -1.5208304241349326e-23, -1.2922788027750423e-23, -1.0637271025290614e-23, -8.351754022830805e-24, -6.0662362315100916e-24, -3.780720017911188e-24, -1.4952030154513797e-24, 7.903139870084289e-25, 3.0758309894682375e-24, 5.361347991928046e-24, 7.646864994387855e-24, 9.932381996847663e-24, 1.2217899788168377e-23, 1.450341600176728e-23, 1.6788932215366184e-23, 1.9074450006686898e-23, 2.135996779800761e-23, 2.3645484011606515e-23, 2.5931000225205418e-23, 2.821651959424794e-23, 3.0502035807846846e-23, 3.278755202144575e-23, 3.507306823504465e-23, 3.7358584448643556e-23, 3.964410381768608e-23, 4.1929620031284983e-23, 4.4215136244883887e-23, 4.650065561392641e-23, 4.8786171827525314e-23, 5.107168804112422e-23, 5.335720741016674e-23, 5.564272046832202e-23, 5.792823983736455e-23, 6.021375289551983e-23, 6.249927226456236e-23, 6.478479163360488e-23, 6.707030469176016e-23, 6.935582406080269e-23]}, "gradients/attention_0.lin_l.weight": {"_type": "histogram", "values": [1.0, 0.0, 0.0, 0.0, 0.0, 0.0, 2.0, 0.0, 0.0, 0.0, 0.0, 0.0, 1.0, 0.0, 0.0, 0.0, 0.0, 0.0, 0.0, 0.0, 0.0, 0.0, 0.0, 0.0, 0.0, 0.0, 0.0, 0.0, 0.0, 0.0, 0.0, 0.0, 2.0, 458.0, 0.0, 0.0, 0.0, 0.0, 0.0, 0.0, 0.0, 0.0, 0.0, 0.0, 0.0, 0.0, 0.0, 1.0, 0.0, 2.0, 2.0, 2.0, 0.0, 1.0, 1.0, 1.0, 3.0, 1.0, 0.0, 1.0, 0.0, 0.0, 0.0, 1.0], "bins": [-1.1238221003039093e-22, -1.0900777862221753e-22, -1.0563334721404413e-22, -1.0225892211675797e-22, -9.888449070858457e-23, -9.551005930041117e-23, -9.213563420312501e-23, -8.876120279495161e-23, -8.538677138677821e-23, -8.201233997860481e-23, -7.863790857043141e-23, -7.526348347314525e-23, -7.188905206497185e-23, -6.851462065679845e-23, -6.514019555951229e-23, -6.176576415133889e-23, -5.839133274316549e-23, -5.501690133499209e-23, -5.164247308226231e-23, -4.826804482953253e-23, -4.489361342135913e-23, -4.151918201318573e-23, -3.8144753760455953e-23, -3.4770325507726174e-23, -3.1395894099552774e-23, -2.8021462691379374e-23, -2.4647034438649595e-23, -2.1272604608198005e-23, -1.7898174777746416e-23, -1.4523744947294826e-23, -1.1149315116843236e-23, -7.774885286391647e-24, -4.400449145052815e-24, -1.0260193146012255e-24, 2.3484105158503642e-24, 5.722840346301954e-24, 9.097270176753544e-24, 1.2471700007205133e-23, 1.5846129837656723e-23, 1.9220559668108312e-23, 2.2594989498559902e-23, 2.5969419329011492e-23, 2.934384915946308e-23, 3.271827741219286e-23, 3.609270882036626e-23, 3.946714022853966e-23, 4.284156848126944e-23, 4.621599673399922e-23, 4.959042814217262e-23, 5.296485955034602e-23, 5.633928464763218e-23, 5.971371605580558e-23, 6.308814746397898e-23, 6.646257887215238e-23, 6.983701028032578e-23, 7.321143537761194e-23, 7.658586678578534e-23, 7.996029819395874e-23, 8.33347232912449e-23, 8.67091546994183e-23, 9.00835861075917e-23, 9.34580175157651e-23, 9.68324489239385e-23, 1.0020687402122465e-22, 1.0358130542939805e-22]}, "mean_loss": 55.134758631388344, "_wandb": {"runtime": 22976}}