{"parameters/attention_0.att_l": {"_type": "histogram", "values": [1.0, 0.0, 1.0, 0.0, 0.0, 0.0, 1.0, 0.0, 0.0, 0.0, 2.0, 0.0, 0.0, 0.0, 0.0, 1.0, 1.0, 1.0, 1.0, 2.0, 0.0, 1.0, 0.0, 3.0, 1.0, 0.0, 2.0, 1.0, 2.0, 0.0, 1.0, 2.0, 0.0, 1.0, 0.0, 1.0, 1.0, 0.0, 0.0, 1.0, 1.0, 2.0, 0.0, 0.0, 1.0, 2.0, 0.0, 0.0, 1.0, 0.0, 0.0, 0.0, 0.0, 0.0, 1.0, 0.0, 0.0, 0.0, 2.0, 0.0, 1.0, 0.0, 0.0, 1.0], "bins": [-0.9972094893455505, -0.9680909514427185, -0.9389724135398865, -0.9098538756370544, -0.8807353377342224, -0.8516167998313904, -0.8224982619285583, -0.7933797240257263, -0.7642611861228943, -0.7351426482200623, -0.7060241103172302, -0.6769055724143982, -0.6477870345115662, -0.6186684966087341, -0.5895499587059021, -0.5604314208030701, -0.531312882900238, -0.502194344997406, -0.473075807094574, -0.44395726919174194, -0.4148387312889099, -0.3857201933860779, -0.35660165548324585, -0.3274831175804138, -0.2983645796775818, -0.26924604177474976, -0.24012750387191772, -0.2110089659690857, -0.18189042806625366, -0.15277189016342163, -0.1236533522605896, -0.09453481435775757, -0.06541621685028076, -0.03629767894744873, -0.007179141044616699, 0.021939396858215332, 0.05105793476104736, 0.0801764726638794, 0.10929501056671143, 0.13841354846954346, 0.1675320863723755, 0.19665062427520752, 0.22576916217803955, 0.2548877000808716, 0.2840062379837036, 0.31312477588653564, 0.3422433137893677, 0.3713618516921997, 0.40048038959503174, 0.42959892749786377, 0.4587174654006958, 0.48783600330352783, 0.5169545412063599, 0.5460730791091919, 0.5751916170120239, 0.604310154914856, 0.633428692817688, 0.66254723072052, 0.691665768623352, 0.7207843065261841, 0.7499028444290161, 0.7790213823318481, 0.8081399202346802, 0.8372584581375122, 0.8663769960403442]}, "parameters/attention_0.att_r": {"_type": "histogram", "values": [1.0, 0.0, 0.0, 0.0, 1.0, 0.0, 0.0, 0.0, 1.0, 0.0, 1.0, 0.0, 1.0, 1.0, 3.0, 1.0, 1.0, 1.0, 1.0, 0.0, 0.0, 2.0, 0.0, 0.0, 0.0, 2.0, 2.0, 1.0, 0.0, 3.0, 1.0, 1.0, 1.0, 0.0, 0.0, 0.0, 0.0, 3.0, 0.0, 1.0, 1.0, 2.0, 1.0, 1.0, 1.0, 0.0, 1.0, 0.0, 1.0, 0.0, 0.0, 0.0, 0.0, 0.0, 1.0, 0.0, 0.0, 0.0, 0.0, 0.0, 0.0, 0.0, 0.0, 1.0], "bins": [-1.1398905515670776, -1.1056303977966309, -1.0713701248168945, -1.0371099710464478, -1.002849817276001, -0.9685895442962646, -0.9343293905258179, -0.9000691771507263, -0.8658089637756348, -0.8315487504005432, -0.7972885370254517, -0.7630283832550049, -0.7287681698799133, -0.6945079565048218, -0.660247802734375, -0.6259875893592834, -0.5917273759841919, -0.5574671626091003, -0.5232069492340088, -0.488946795463562, -0.45468658208847046, -0.4204263687133789, -0.38616618514060974, -0.3519060015678406, -0.317645788192749, -0.28338557481765747, -0.2491253912448883, -0.21486519277095795, -0.1806049942970276, -0.14634479582309723, -0.11208459734916687, -0.07782439887523651, -0.0435643196105957, -0.009304121136665344, 0.024956077337265015, 0.059216275811195374, 0.09347647428512573, 0.1277366727590561, 0.16199687123298645, 0.1962570697069168, 0.23051726818084717, 0.2647774815559387, 0.2990376651287079, 0.33329784870147705, 0.3675580620765686, 0.40181827545166016, 0.4360784590244293, 0.4703386425971985, 0.50459885597229, 0.5388590693473816, 0.5731192827224731, 0.6073794364929199, 0.6416396498680115, 0.675899863243103, 0.7101600170135498, 0.7444202303886414, 0.7786804437637329, 0.8129406571388245, 0.847200870513916, 0.8814610242843628, 0.9157212376594543, 0.9499814510345459, 0.9842416048049927, 1.018501877784729, 1.0527620315551758]}, "parameters/attention_0.bias": {"_type": "histogram", "values": [1.0, 0.0, 0.0, 0.0, 1.0, 0.0, 0.0, 0.0, 1.0, 0.0, 0.0, 0.0, 1.0, 0.0, 0.0, 0.0, 0.0, 1.0, 0.0, 1.0, 1.0, 0.0, 1.0, 0.0, 0.0, 1.0, 0.0, 3.0, 0.0, 1.0, 3.0, 0.0, 0.0, 1.0, 1.0, 2.0, 0.0, 1.0, 4.0, 1.0, 0.0, 2.0, 0.0, 0.0, 1.0, 1.0, 1.0, 0.0, 0.0, 3.0, 1.0, 2.0, 2.0, 0.0, 0.0, 0.0, 0.0, 0.0, 0.0, 0.0, 0.0, 0.0, 0.0, 1.0], "bins": [-0.17293713986873627, -0.1682804971933365, -0.1636238694190979, -0.15896722674369812, -0.15431058406829834, -0.14965394139289856, -0.14499731361865997, -0.1403406709432602, -0.1356840431690216, -0.13102740049362183, -0.12637077271938324, -0.12171413004398346, -0.11705748736858368, -0.1124008521437645, -0.10774421691894531, -0.10308757424354553, -0.09843093156814575, -0.09377429634332657, -0.08911765366792679, -0.0844610184431076, -0.07980437576770782, -0.07514774054288864, -0.07049110531806946, -0.06583446264266968, -0.061177827417850494, -0.05652118846774101, -0.05186454951763153, -0.04720791429281235, -0.042551275342702866, -0.037894636392593384, -0.0332380011677742, -0.02858136221766472, -0.023924708366394043, -0.01926806941628456, -0.014611432328820229, -0.009954794310033321, -0.005298156291246414, -0.0006415173411369324, 0.0040151197463274, 0.008671756833791733, 0.013328395783901215, 0.017985034734010696, 0.02264167182147503, 0.02729830890893936, 0.03195494785904884, 0.036611586809158325, 0.04126822203397751, 0.04592486098408699, 0.05058149993419647, 0.055238138884305954, 0.059894777834415436, 0.06455141305923462, 0.0692080557346344, 0.07386469095945358, 0.07852132618427277, 0.08317796885967255, 0.08783460408449173, 0.09249123930931091, 0.0971478819847107, 0.10180451720952988, 0.10646115243434906, 0.11111779510974884, 0.11577443033456802, 0.12043106555938721, 0.125087708234787]}, "parameters/attention_0.lin_l.weight": {"_type": "histogram", "values": [1.0, 0.0, 0.0, 0.0, 1.0, 0.0, 0.0, 0.0, 1.0, 1.0, 0.0, 0.0, 0.0, 2.0, 1.0, 0.0, 0.0, 1.0, 1.0, 0.0, 1.0, 2.0, 6.0, 6.0, 6.0, 6.0, 11.0, 15.0, 8.0, 16.0, 21.0, 11.0, 20.0, 13.0, 21.0, 22.0, 24.0, 22.0, 17.0, 20.0, 19.0, 18.0, 18.0, 31.0, 15.0, 19.0, 11.0, 20.0, 8.0, 13.0, 8.0, 7.0, 5.0, 2.0, 2.0, 3.0, 0.0, 1.0, 1.0, 1.0, 0.0, 0.0, 0.0, 1.0], "bins": [-1.0291863679885864, -1.002800464630127, -0.9764146208763123, -0.9500287175178528, -0.9236428141593933, -0.8972569704055786, -0.8708710670471191, -0.8444851636886597, -0.8180992603302002, -0.7917133569717407, -0.765327513217926, -0.7389416098594666, -0.7125557065010071, -0.6861698627471924, -0.6597839593887329, -0.6333980560302734, -0.6070122122764587, -0.5806263089179993, -0.5542404651641846, -0.5278545618057251, -0.5014686584472656, -0.47508278489112854, -0.44869691133499146, -0.422311007976532, -0.3959251344203949, -0.3695392608642578, -0.34315335750579834, -0.31676748394966125, -0.29038161039352417, -0.2639957070350647, -0.2376098334789276, -0.21122394502162933, -0.18483805656433105, -0.15845216810703278, -0.1320662796497345, -0.10568040609359741, -0.07929451763629913, -0.052908629179000854, -0.02652275562286377, -0.00013686716556549072, 0.026249021291732788, 0.05263490602374077, 0.07902079075574875, 0.10540667176246643, 0.1317925602197647, 0.158178448677063, 0.18456432223320007, 0.21095021069049835, 0.23733609914779663, 0.2637219727039337, 0.2901078760623932, 0.3164937496185303, 0.34287965297698975, 0.36926552653312683, 0.3956514000892639, 0.4220373034477234, 0.4484231770038605, 0.47480905055999756, 0.501194953918457, 0.5275808572769165, 0.5539667010307312, 0.5803526043891907, 0.6067384481430054, 0.6331243515014648, 0.6595102548599243]}, "parameters/attention_1.att_l": {"_type": "histogram", "values": [1.0, 0.0, 0.0, 0.0, 0.0, 0.0, 1.0, 0.0, 0.0, 0.0, 0.0, 1.0, 1.0, 2.0, 0.0, 1.0, 1.0, 0.0, 2.0, 1.0, 3.0, 0.0, 0.0, 2.0, 2.0, 1.0, 0.0, 1.0, 0.0, 0.0, 1.0, 1.0, 1.0, 1.0, 0.0, 0.0, 0.0, 1.0, 1.0, 0.0, 1.0, 0.0, 0.0, 0.0, 0.0, 0.0, 1.0, 1.0, 1.0, 1.0, 0.0, 0.0, 0.0, 1.0, 0.0, 1.0, 0.0, 0.0, 2.0, 0.0, 1.0, 0.0, 2.0, 2.0], "bins": [-0.8314396142959595, -0.8079102039337158, -0.7843807935714722, -0.7608513832092285, -0.7373219728469849, -0.7137925624847412, -0.6902631521224976, -0.6667337417602539, -0.6432043313980103, -0.6196749210357666, -0.596145510673523, -0.5726161003112793, -0.5490866899490356, -0.525557279586792, -0.5020278692245483, -0.4784984588623047, -0.45496904850006104, -0.4314396381378174, -0.40791022777557373, -0.3843808174133301, -0.3608514070510864, -0.3373219966888428, -0.3137925863265991, -0.29026317596435547, -0.2667337656021118, -0.24320435523986816, -0.2196749448776245, -0.19614553451538086, -0.1726161241531372, -0.14908671379089355, -0.1255573034286499, -0.10202789306640625, -0.07849842309951782, -0.05496901273727417, -0.03143960237503052, -0.007910192012786865, 0.015619218349456787, 0.03914862871170044, 0.06267803907394409, 0.08620744943618774, 0.1097368597984314, 0.13326627016067505, 0.1567956805229187, 0.18032509088516235, 0.203854501247406, 0.22738391160964966, 0.2509133219718933, 0.27444273233413696, 0.2979721426963806, 0.32150155305862427, 0.3450309634208679, 0.3685603737831116, 0.3920897841453552, 0.4156191945075989, 0.43914860486984253, 0.4626780152320862, 0.48620742559432983, 0.5097368359565735, 0.5332662463188171, 0.5567956566810608, 0.5803250670433044, 0.6038544774055481, 0.6273838877677917, 0.6509132981300354, 0.674442708492279]}, "parameters/attention_1.att_r": {"_type": "histogram", "values": [1.0, 0.0, 0.0, 0.0, 1.0, 0.0, 1.0, 1.0, 0.0, 0.0, 2.0, 1.0, 1.0, 1.0, 0.0, 1.0, 1.0, 1.0, 2.0, 1.0, 0.0, 1.0, 0.0, 1.0, 1.0, 0.0, 0.0, 1.0, 0.0, 2.0, 1.0, 0.0, 1.0, 1.0, 1.0, 0.0, 0.0, 0.0, 1.0, 1.0, 0.0, 1.0, 1.0, 1.0, 1.0, 0.0, 0.0, 0.0, 1.0, 1.0, 1.0, 0.0, 0.0, 2.0, 0.0, 0.0, 1.0, 1.0, 0.0, 0.0, 0.0, 0.0, 0.0, 2.0], "bins": [-0.8179006576538086, -0.7934396266937256, -0.7689786553382874, -0.7445176243782043, -0.7200566530227661, -0.6955956220626831, -0.6711345911026001, -0.6466736197471619, -0.6222126483917236, -0.5977516174316406, -0.5732906460762024, -0.5488296151161194, -0.5243686437606812, -0.49990761280059814, -0.4754466116428375, -0.4509856104850769, -0.4265245795249939, -0.4020635783672333, -0.37760257720947266, -0.35314154624938965, -0.3286805748939514, -0.3042195439338684, -0.2797585427761078, -0.25529754161834717, -0.23083654046058655, -0.20637553930282593, -0.1819145381450653, -0.1574535220861435, -0.13299252092838287, -0.10853151977062225, -0.08407050371170044, -0.05960950255393982, -0.0351485013961792, -0.01068749651312828, 0.013773508369922638, 0.038234516978263855, 0.06269551813602448, 0.0871565192937851, 0.11161753535270691, 0.13607853651046753, 0.16053953766822815, 0.18500053882598877, 0.2094615399837494, 0.2339225560426712, 0.258383572101593, 0.28284454345703125, 0.30730557441711426, 0.3317665755748749, 0.3562275767326355, 0.3806885778903961, 0.40514957904815674, 0.42961061000823975, 0.454071581363678, 0.478532612323761, 0.5029935836791992, 0.5274546146392822, 0.5519156455993652, 0.5763766765594482, 0.6008376479148865, 0.6252986788749695, 0.6497596502304077, 0.6742206811904907, 0.6986817121505737, 0.723142683506012, 0.7476036548614502]}, "parameters/attention_1.bias": {"_type": "histogram", "values": [1.0, 0.0, 1.0, 0.0, 0.0, 0.0, 0.0, 2.0, 2.0, 0.0, 0.0, 1.0, 1.0, 1.0, 1.0, 1.0, 1.0, 2.0, 1.0, 1.0, 1.0, 1.0, 2.0, 0.0, 2.0, 1.0, 0.0, 1.0, 0.0, 0.0, 0.0, 0.0, 0.0, 0.0, 0.0, 0.0, 0.0, 0.0, 0.0, 0.0, 1.0, 0.0, 1.0, 0.0, 0.0, 0.0, 2.0, 0.0, 0.0, 4.0, 0.0, 1.0, 1.0, 0.0, 1.0, 1.0, 1.0, 0.0, 1.0, 0.0, 0.0, 0.0, 1.0, 1.0], "bins": [-0.4492274522781372, -0.4367526173591614, -0.42427778244018555, -0.4118029475212097, -0.3993281126022339, -0.38685327768325806, -0.3743784427642822, -0.3619036078453064, -0.34942877292633057, -0.33695393800735474, -0.3244791030883789, -0.3120042681694031, -0.29952943325042725, -0.2870545983314514, -0.2745797634124756, -0.26210492849349976, -0.24963006377220154, -0.2371552288532257, -0.22468039393424988, -0.21220555901527405, -0.19973072409629822, -0.1872558891773224, -0.17478103935718536, -0.16230620443820953, -0.1498313695192337, -0.13735653460025787, -0.12488169968128204, -0.11240685731172562, -0.09993202239274979, -0.08745718747377396, -0.07498234510421753, -0.0625075101852417, -0.05003264546394348, -0.03755781054496765, -0.025082971900701523, -0.012608133256435394, -0.0001332983374595642, 0.012341536581516266, 0.024816378951072693, 0.03729121387004852, 0.04976604878902435, 0.06224088370800018, 0.07471571862697601, 0.08719056099653244, 0.09966539591550827, 0.1121402308344841, 0.12461507320404053, 0.13708990812301636, 0.1495647430419922, 0.16203957796096802, 0.17451441287994385, 0.18698924779891968, 0.1994640827178955, 0.21193891763687134, 0.22441376745700836, 0.2368886023759842, 0.24936343729496002, 0.26183828711509705, 0.2743131220340729, 0.2867879569530487, 0.29926279187202454, 0.31173762679100037, 0.3242124617099762, 0.336687296628952, 0.34916213154792786]}, "parameters/attention_1.lin_l.weight": {"_type": "histogram", "values": [2.0, 0.0, 4.0, 3.0, 4.0, 5.0, 6.0, 11.0, 9.0, 15.0, 14.0, 25.0, 14.0, 19.0, 23.0, 34.0, 35.0, 31.0, 38.0, 43.0, 34.0, 58.0, 43.0, 52.0, 64.0, 42.0, 46.0, 44.0, 56.0, 47.0, 35.0, 54.0, 54.0, 48.0, 69.0, 45.0, 49.0, 55.0, 31.0, 37.0, 39.0, 36.0, 32.0, 31.0, 26.0, 19.0, 14.0, 20.0, 18.0, 23.0, 15.0, 5.0, 6.0, 5.0, 5.0, 1.0, 1.0, 2.0, 1.0, 0.0, 1.0, 0.0, 1.0, 1.0], "bins": [-0.5084056258201599, -0.49142351746559143, -0.47444140911102295, -0.45745933055877686, -0.4404772222042084, -0.4234951138496399, -0.4065130352973938, -0.3895309269428253, -0.37254881858825684, -0.35556671023368835, -0.3385846018791199, -0.3216025233268738, -0.3046204149723053, -0.2876383066177368, -0.2706562280654907, -0.25367411971092224, -0.23669201135635376, -0.21970990300178528, -0.202727809548378, -0.1857457160949707, -0.16876360774040222, -0.15178149938583374, -0.13479940593242645, -0.11781730502843857, -0.10083520412445068, -0.0838531032204628, -0.06687100231647491, -0.04988890141248703, -0.032906800508499146, -0.01592469960451126, 0.0010574012994766235, 0.018039502203464508, 0.03502154350280762, 0.0520036444067955, 0.06898574531078339, 0.08596784621477127, 0.10294994711875916, 0.11993204802274704, 0.13691414892673492, 0.1538962423801422, 0.1708783507347107, 0.18786045908927917, 0.20484255254268646, 0.22182464599609375, 0.23880675435066223, 0.2557888627052307, 0.2727709412574768, 0.2897530496120453, 0.30673515796661377, 0.32371726632118225, 0.34069937467575073, 0.3576814532279968, 0.3746635615825653, 0.3916456699371338, 0.4086277484893799, 0.42560985684394836, 0.44259196519851685, 0.4595740735530853, 0.4765561819076538, 0.4935382604598999, 0.510520339012146, 0.5275024771690369, 0.544484555721283, 0.5614666938781738, 0.5784487724304199]}, "parameters/attention_2.att_l": {"_type": "histogram", "values": [1.0, 0.0, 0.0, 0.0, 1.0, 0.0, 1.0, 0.0, 0.0, 1.0, 0.0, 1.0, 0.0, 2.0, 1.0, 1.0, 3.0, 1.0, 3.0, 1.0, 1.0, 0.0, 0.0, 0.0, 0.0, 0.0, 2.0, 2.0, 0.0, 0.0, 2.0, 0.0, 2.0, 0.0, 0.0, 1.0, 1.0, 0.0, 1.0, 3.0, 0.0, 0.0, 0.0, 1.0, 2.0, 0.0, 0.0, 0.0, 0.0, 0.0, 1.0, 0.0, 1.0, 0.0, 1.0, 0.0, 0.0, 0.0, 0.0, 1.0, 0.0, 0.0, 0.0, 1.0], "bins": [-0.829011082649231, -0.8003383874893188, -0.7716657519340515, -0.7429930567741394, -0.7143203616142273, -0.68564772605896, -0.6569750308990479, -0.6283023357391357, -0.5996296405792236, -0.5709569454193115, -0.5422843098640442, -0.5136116147041321, -0.48493891954421997, -0.45626625418663025, -0.4275935888290405, -0.3989208936691284, -0.3702482283115387, -0.341575562953949, -0.31290286779403687, -0.28423020243644714, -0.25555750727653503, -0.2268848419189453, -0.1982121616601944, -0.16953948140144348, -0.14086680114269257, -0.11219412088394165, -0.08352144062519073, -0.054848767817020416, -0.0261760875582695, 0.002496585249900818, 0.031169265508651733, 0.05984194576740265, 0.08851462602615356, 0.11718730628490448, 0.1458599865436554, 0.17453265190124512, 0.20320534706115723, 0.23187801241874695, 0.26055067777633667, 0.2892233729362488, 0.3178960680961609, 0.3465687334537506, 0.3752414286136627, 0.40391409397125244, 0.43258678913116455, 0.4612594544887543, 0.489932119846344, 0.5186048150062561, 0.5472774505615234, 0.5759501457214355, 0.6046227812767029, 0.633295476436615, 0.6619681715965271, 0.6906408071517944, 0.7193135023117065, 0.7479861974716187, 0.7766588926315308, 0.8053315877914429, 0.8340042233467102, 0.8626769185066223, 0.8913496136665344, 0.9200222492218018, 0.9486949443817139, 0.977367639541626, 1.006040334701538]}, "parameters/attention_2.att_r": {"_type": "histogram", "values": [1.0, 1.0, 0.0, 2.0, 1.0, 0.0, 1.0, 2.0, 0.0, 1.0, 0.0, 2.0, 0.0, 1.0, 0.0, 0.0, 1.0, 1.0, 0.0, 0.0, 0.0, 2.0, 1.0, 0.0, 1.0, 0.0, 0.0, 1.0, 0.0, 1.0, 0.0, 0.0, 0.0, 0.0, 1.0, 0.0, 0.0, 1.0, 1.0, 0.0, 0.0, 2.0, 1.0, 0.0, 3.0, 1.0, 0.0, 2.0, 0.0, 0.0, 3.0, 1.0, 0.0, 1.0, 0.0, 0.0, 1.0, 0.0, 1.0, 0.0, 0.0, 0.0, 0.0, 1.0], "bins": [-0.7524438500404358, -0.727505087852478, -0.702566385269165, -0.6776276230812073, -0.6526889204978943, -0.6277501583099365, -0.6028114557266235, -0.5778726935386658, -0.552933931350708, -0.5279951691627502, -0.5030564665794373, -0.4781177043914795, -0.4531790018081665, -0.42824023962020874, -0.40330150723457336, -0.378362774848938, -0.353424072265625, -0.3284853398799896, -0.30354660749435425, -0.2786078453063965, -0.2536691427230835, -0.22873039543628693, -0.20379164814949036, -0.17885291576385498, -0.1539141833782196, -0.12897545099258423, -0.10403671115636826, -0.07909797132015228, -0.05415923893451691, -0.02922050654888153, -0.004281759262084961, 0.020656973123550415, 0.045595765113830566, 0.07053449749946594, 0.09547323733568192, 0.12041197717189789, 0.14535070955753326, 0.17028944194316864, 0.1952281892299652, 0.22016692161560059, 0.24510565400123596, 0.27004438638687134, 0.2949831187725067, 0.3199218511581421, 0.34486061334609985, 0.36979931592941284, 0.3947380781173706, 0.419676810503006, 0.44461554288864136, 0.46955427527427673, 0.4944930076599121, 0.5194317698478699, 0.5443704724311829, 0.5693092346191406, 0.5942479372024536, 0.6191866993904114, 0.6441254615783691, 0.6690642237663269, 0.6940029263496399, 0.7189416885375977, 0.7438803911209106, 0.7688191533088684, 0.7937579154968262, 0.8186966180801392, 0.8436353206634521]}, "parameters/attention_2.bias": {"_type": "histogram", "values": [1.0, 0.0, 0.0, 1.0, 0.0, 2.0, 1.0, 4.0, 3.0, 4.0, 3.0, 2.0, 1.0, 1.0, 0.0, 0.0, 1.0, 0.0, 0.0, 0.0, 0.0, 0.0, 0.0, 0.0, 0.0, 0.0, 0.0, 0.0, 0.0, 0.0, 0.0, 0.0, 0.0, 0.0, 0.0, 0.0, 0.0, 0.0, 1.0, 0.0, 0.0, 0.0, 1.0, 1.0, 0.0, 0.0, 1.0, 0.0, 2.0, 1.0, 0.0, 1.0, 1.0, 2.0, 0.0, 1.0, 1.0, 0.0, 2.0, 0.0, 0.0, 0.0, 0.0, 1.0], "bins": [-0.6288692951202393, -0.6077248454093933, -0.5865803956985474, -0.5654360055923462, -0.5442915558815002, -0.5231471061706543, -0.5020027160644531, -0.4808582663536072, -0.45971381664276123, -0.4385693669319153, -0.4174249470233917, -0.39628052711486816, -0.3751360774040222, -0.35399162769317627, -0.3328472077846527, -0.31170278787612915, -0.2905583381652832, -0.26941388845443726, -0.2482694685459137, -0.22712503373622894, -0.2059805989265442, -0.18483616411685944, -0.16369172930717468, -0.14254729449748993, -0.12140285968780518, -0.10025842487812042, -0.07911399006843567, -0.057969555258750916, -0.03682512044906616, -0.01568068563938141, 0.005463749170303345, 0.026608183979988098, 0.04775267839431763, 0.06889711320400238, 0.09004154801368713, 0.11118598282337189, 0.13233041763305664, 0.1534748524427414, 0.17461928725242615, 0.1957637220621109, 0.21690815687179565, 0.2380525916814804, 0.25919702649116516, 0.2803414463996887, 0.30148589611053467, 0.3226303458213806, 0.3437747657299042, 0.36491918563842773, 0.3860636353492737, 0.40720808506011963, 0.4283525049686432, 0.44949692487716675, 0.4706413745880127, 0.49178582429885864, 0.5129302740097046, 0.5340746641159058, 0.5552191138267517, 0.5763635635375977, 0.5975079536437988, 0.6186524033546448, 0.6397968530654907, 0.6609413027763367, 0.6820857524871826, 0.7032301425933838, 0.7243745923042297]}, "parameters/attention_2.lin_l.weight": {"_type": "histogram", "values": [1.0, 0.0, 0.0, 0.0, 0.0, 0.0, 0.0, 0.0, 0.0, 0.0, 0.0, 1.0, 1.0, 1.0, 2.0, 3.0, 1.0, 7.0, 5.0, 11.0, 11.0, 15.0, 17.0, 26.0, 34.0, 31.0, 33.0, 41.0, 44.0, 51.0, 70.0, 66.0, 53.0, 60.0, 73.0, 84.0, 68.0, 68.0, 72.0, 70.0, 60.0, 73.0, 65.0, 54.0, 47.0, 49.0, 34.0, 31.0, 43.0, 22.0, 19.0, 26.0, 16.0, 12.0, 11.0, 5.0, 4.0, 1.0, 2.0, 2.0, 1.0, 1.0, 0.0, 2.0], "bins": [-0.9181053042411804, -0.8927599787712097, -0.8674147129058838, -0.8420693874359131, -0.8167240619659424, -0.7913787364959717, -0.7660334706306458, -0.740688145160675, -0.7153428792953491, -0.6899975538253784, -0.6646522879600525, -0.6393069624900818, -0.6139616370201111, -0.5886163711547852, -0.5632710456848145, -0.5379257202148438, -0.512580394744873, -0.48723509907722473, -0.46188977360725403, -0.4365444779396057, -0.411199152469635, -0.3858538568019867, -0.3605085611343384, -0.3351632356643677, -0.30981793999671936, -0.28447264432907104, -0.25912731885910034, -0.23378202319145203, -0.20843671262264252, -0.183091402053833, -0.1577461063861847, -0.13240079581737518, -0.1070554256439209, -0.08171011507511139, -0.05636481195688248, -0.031019508838653564, -0.005674198269844055, 0.019671112298965454, 0.04501640796661377, 0.07036171853542328, 0.09570702910423279, 0.1210523396730423, 0.1463976502418518, 0.17174294590950012, 0.19708825647830963, 0.22243356704711914, 0.24777886271476746, 0.27312415838241577, 0.2984694838523865, 0.3238147795200348, 0.3491601049900055, 0.3745054006576538, 0.3998507261276245, 0.4251960217952728, 0.45054131746292114, 0.47588664293289185, 0.5012319087982178, 0.5265772342681885, 0.5519225001335144, 0.5772678256034851, 0.6026131510734558, 0.6279584169387817, 0.6533037424087524, 0.6786490678787231, 0.7039943933486938]}, "parameters/out_att.att_l": {"_type": "histogram", "values": [0.0, 0.0, 0.0, 0.0, 0.0, 0.0, 0.0, 0.0, 0.0, 0.0, 0.0, 0.0, 0.0, 0.0, 0.0, 0.0, 0.0, 0.0, 0.0, 0.0, 0.0, 0.0, 0.0, 0.0, 0.0, 0.0, 0.0, 0.0, 0.0, 0.0, 0.0, 0.0, 1.0, 0.0, 0.0, 0.0, 0.0, 0.0, 0.0, 0.0, 0.0, 0.0, 0.0, 0.0, 0.0, 0.0, 0.0, 0.0, 0.0, 0.0, 0.0, 0.0, 0.0, 0.0, 0.0, 0.0, 0.0, 0.0, 0.0, 0.0, 0.0, 0.0, 0.0, 0.0], "bins": [-1.406755805015564, -1.406755805015564, -1.406755805015564, -1.406755805015564, -1.406755805015564, -1.406755805015564, -1.406755805015564, -1.406755805015564, -1.406755805015564, -1.406755805015564, -1.406755805015564, -1.406755805015564, -1.406755805015564, -1.406755805015564, -1.406755805015564, -1.406755805015564, -1.406755805015564, -1.406755805015564, -1.406755805015564, -1.406755805015564, -1.406755805015564, -1.406755805015564, -1.406755805015564, -1.406755805015564, -1.406755805015564, -1.406755805015564, -1.406755805015564, -1.406755805015564, -1.406755805015564, -1.406755805015564, -1.406755805015564, -1.406755805015564, -1.406755805015564, -1.406755805015564, -1.406755805015564, -1.406755805015564, -1.406755805015564, -1.406755805015564, -1.406755805015564, -1.406755805015564, -1.406755805015564, -1.406755805015564, -1.406755805015564, -1.406755805015564, -1.406755805015564, -1.406755805015564, -1.406755805015564, -1.406755805015564, -1.406755805015564, -1.406755805015564, -1.406755805015564, -1.406755805015564, -1.406755805015564, -1.406755805015564, -1.406755805015564, -1.406755805015564, -1.406755805015564, -1.406755805015564, -1.406755805015564, -1.406755805015564, -1.406755805015564, -1.406755805015564, -1.406755805015564, -1.406755805015564, -1.406755805015564]}, "parameters/out_att.att_r": {"_type": "histogram", "values": [0.0, 0.0, 0.0, 0.0, 0.0, 0.0, 0.0, 0.0, 0.0, 0.0, 0.0, 0.0, 0.0, 0.0, 0.0, 0.0, 0.0, 0.0, 0.0, 0.0, 0.0, 0.0, 0.0, 0.0, 0.0, 0.0, 0.0, 0.0, 0.0, 0.0, 0.0, 0.0, 1.0, 0.0, 0.0, 0.0, 0.0, 0.0, 0.0, 0.0, 0.0, 0.0, 0.0, 0.0, 0.0, 0.0, 0.0, 0.0, 0.0, 0.0, 0.0, 0.0, 0.0, 0.0, 0.0, 0.0, 0.0, 0.0, 0.0, 0.0, 0.0, 0.0, 0.0, 0.0], "bins": [-0.9007071852684021, -0.9007071852684021, -0.9007071852684021, -0.9007071852684021, -0.9007071852684021, -0.9007071852684021, -0.9007071852684021, -0.9007071852684021, -0.9007071852684021, -0.9007071852684021, -0.9007071852684021, -0.9007071852684021, -0.9007071852684021, -0.9007071852684021, -0.9007071852684021, -0.9007071852684021, -0.9007071852684021, -0.9007071852684021, -0.9007071852684021, -0.9007071852684021, -0.9007071852684021, -0.9007071852684021, -0.9007071852684021, -0.9007071852684021, -0.9007071852684021, -0.9007071852684021, -0.9007071852684021, -0.9007071852684021, -0.9007071852684021, -0.9007071852684021, -0.9007071852684021, -0.9007071852684021, -0.9007071852684021, -0.9007071852684021, -0.9007071852684021, -0.9007071852684021, -0.9007071852684021, -0.9007071852684021, -0.9007071852684021, -0.9007071852684021, -0.9007071852684021, -0.9007071852684021, -0.9007071852684021, -0.9007071852684021, -0.9007071852684021, -0.9007071852684021, -0.9007071852684021, -0.9007071852684021, -0.9007071852684021, -0.9007071852684021, -0.9007071852684021, -0.9007071852684021, -0.9007071852684021, -0.9007071852684021, -0.9007071852684021, -0.9007071852684021, -0.9007071852684021, -0.9007071852684021, -0.9007071852684021, -0.9007071852684021, -0.9007071852684021, -0.9007071852684021, -0.9007071852684021, -0.9007071852684021, -0.9007071852684021]}, "parameters/out_att.bias": {"_type": "histogram", "values": [0.0, 0.0, 0.0, 0.0, 0.0, 0.0, 0.0, 0.0, 0.0, 0.0, 0.0, 0.0, 0.0, 0.0, 0.0, 0.0, 0.0, 0.0, 0.0, 0.0, 0.0, 0.0, 0.0, 0.0, 0.0, 0.0, 0.0, 0.0, 0.0, 0.0, 0.0, 0.0, 1.0, 0.0, 0.0, 0.0, 0.0, 0.0, 0.0, 0.0, 0.0, 0.0, 0.0, 0.0, 0.0, 0.0, 0.0, 0.0, 0.0, 0.0, 0.0, 0.0, 0.0, 0.0, 0.0, 0.0, 0.0, 0.0, 0.0, 0.0, 0.0, 0.0, 0.0, 0.0], "bins": [1.900354266166687, 1.900354266166687, 1.900354266166687, 1.900354266166687, 1.900354266166687, 1.900354266166687, 1.900354266166687, 1.900354266166687, 1.900354266166687, 1.900354266166687, 1.900354266166687, 1.900354266166687, 1.900354266166687, 1.900354266166687, 1.900354266166687, 1.900354266166687, 1.900354266166687, 1.900354266166687, 1.900354266166687, 1.900354266166687, 1.900354266166687, 1.900354266166687, 1.900354266166687, 1.900354266166687, 1.900354266166687, 1.900354266166687, 1.900354266166687, 1.900354266166687, 1.900354266166687, 1.900354266166687, 1.900354266166687, 1.900354266166687, 1.900354266166687, 1.900354266166687, 1.900354266166687, 1.900354266166687, 1.900354266166687, 1.900354266166687, 1.900354266166687, 1.900354266166687, 1.900354266166687, 1.900354266166687, 1.900354266166687, 1.900354266166687, 1.900354266166687, 1.900354266166687, 1.900354266166687, 1.900354266166687, 1.900354266166687, 1.900354266166687, 1.900354266166687, 1.900354266166687, 1.900354266166687, 1.900354266166687, 1.900354266166687, 1.900354266166687, 1.900354266166687, 1.900354266166687, 1.900354266166687, 1.900354266166687, 1.900354266166687, 1.900354266166687, 1.900354266166687, 1.900354266166687, 1.900354266166687]}, "parameters/out_att.lin_l.weight": {"_type": "histogram", "values": [1.0, 2.0, 0.0, 1.0, 2.0, 2.0, 3.0, 3.0, 3.0, 3.0, 2.0, 1.0, 0.0, 0.0, 0.0, 0.0, 0.0, 0.0, 0.0, 0.0, 0.0, 0.0, 0.0, 0.0, 0.0, 0.0, 1.0, 0.0, 0.0, 0.0, 0.0, 0.0, 0.0, 0.0, 0.0, 0.0, 0.0, 0.0, 0.0, 0.0, 0.0, 0.0, 0.0, 0.0, 0.0, 0.0, 0.0, 0.0, 0.0, 0.0, 0.0, 1.0, 0.0, 2.0, 0.0, 2.0, 1.0, 3.0, 0.0, 2.0, 1.0, 3.0, 0.0, 1.0], "bins": [-0.28640216588974, -0.27813464403152466, -0.2698671221733093, -0.2615996301174164, -0.25333210825920105, -0.24506458640098572, -0.23679707944393158, -0.22852957248687744, -0.2202620506286621, -0.21199452877044678, -0.20372702181339264, -0.1954595148563385, -0.18719199299812317, -0.17892447113990784, -0.1706569641828537, -0.16238945722579956, -0.15412193536758423, -0.1458544135093689, -0.13758690655231476, -0.12931939959526062, -0.12105187773704529, -0.11278436332941055, -0.10451684892177582, -0.09624933451414108, -0.08798182010650635, -0.07971430569887161, -0.07144679129123688, -0.06317927688360214, -0.05491176247596741, -0.04664424806833267, -0.03837673366069794, -0.030109219253063202, -0.021841704845428467, -0.013574190437793732, -0.005306676030158997, 0.0029608383774757385, 0.011228352785110474, 0.01949586719274521, 0.027763381600379944, 0.03603089600801468, 0.044298410415649414, 0.05256592482328415, 0.060833439230918884, 0.06910095363855362, 0.07736846804618835, 0.08563598245382309, 0.09390349686145782, 0.10217101126909256, 0.1104385256767273, 0.11870604008436203, 0.12697355449199677, 0.1352410614490509, 0.14350858330726624, 0.15177610516548157, 0.1600436121225357, 0.16831111907958984, 0.17657864093780518, 0.1848461627960205, 0.19311366975307465, 0.20138117671012878, 0.20964869856834412, 0.21791622042655945, 0.2261837273836136, 0.23445123434066772, 0.24271875619888306]}, "_runtime": 26989, "_timestamp": 1641253850, "_step": 200, "Learning rate value": 9.999999999999788e-05, "Learning rate action": 9.999999999999788e-05, "action_probs": {"_type": "histogram", "values": [1, 0, 0, 0, 0, 0, 0, 0, 0, 0, 1, 0, 0, 1, 0, 0, 0, 0, 0, 0, 0, 0, 0, 0, 1, 0, 0, 1, 0, 0, 0, 1, 1, 2, 1, 0, 1, 0, 0, 0, 1, 0, 1, 1, 1, 0, 1, 0, 0, 0, 2, 1, 2, 1, 0, 1, 2, 0, 0, 1, 0, 3, 2, 7], "bins": [0.14007805287837982, 0.1534215360879898, 0.166765034198761, 0.18010851740837097, 0.19345201551914215, 0.20679549872875214, 0.22013899683952332, 0.2334824800491333, 0.24682597815990448, 0.26016947627067566, 0.27351295948028564, 0.28685644268989563, 0.3001999258995056, 0.3135434091091156, 0.326886922121048, 0.34023040533065796, 0.35357388854026794, 0.36691737174987793, 0.3802608847618103, 0.3936043679714203, 0.4069478511810303, 0.42029133439064026, 0.43363481760025024, 0.4469783306121826, 0.4603218138217926, 0.4736652970314026, 0.4870087802410126, 0.5003522634506226, 0.5136957764625549, 0.5270392894744873, 0.5403827428817749, 0.5537262558937073, 0.5670697093009949, 0.5804132223129272, 0.5937567353248596, 0.6071001887321472, 0.6204437017440796, 0.6337871551513672, 0.6471306681632996, 0.6604741811752319, 0.6738176345825195, 0.6871611475944519, 0.7005046606063843, 0.7138481140136719, 0.7271916270256042, 0.7405350804328918, 0.7538785934448242, 0.7672221064567566, 0.7805655598640442, 0.7939090728759766, 0.8072525262832642, 0.8205960392951965, 0.8339395523071289, 0.8472830057144165, 0.8606265187263489, 0.8739699721336365, 0.8873134851455688, 0.9006569981575012, 0.9140004515647888, 0.9273439645767212, 0.9406874775886536, 0.9540309309959412, 0.9673744440078735, 0.9807178974151611, 0.9940614104270935]}, "stop_go_action": {"_type": "histogram", "values": [9, 0, 0, 0, 0, 0, 0, 0, 0, 0, 0, 0, 0, 0, 0, 0, 0, 0, 0, 0, 0, 0, 0, 0, 0, 0, 0, 0, 0, 0, 0, 0, 0, 0, 0, 0, 0, 0, 0, 0, 0, 0, 0, 0, 0, 0, 0, 0, 0, 0, 0, 0, 0, 0, 0, 0, 0, 0, 0, 0, 0, 0, 0, 29], "bins": [0.0, 0.015625, 0.03125, 0.046875, 0.0625, 0.078125, 0.09375, 0.109375, 0.125, 0.140625, 0.15625, 0.171875, 0.1875, 0.203125, 0.21875, 0.234375, 0.25, 0.265625, 0.28125, 0.296875, 0.3125, 0.328125, 0.34375, 0.359375, 0.375, 0.390625, 0.40625, 0.421875, 0.4375, 0.453125, 0.46875, 0.484375, 0.5, 0.515625, 0.53125, 0.546875, 0.5625, 0.578125, 0.59375, 0.609375, 0.625, 0.640625, 0.65625, 0.671875, 0.6875, 0.703125, 0.71875, 0.734375, 0.75, 0.765625, 0.78125, 0.796875, 0.8125, 0.828125, 0.84375, 0.859375, 0.875, 0.890625, 0.90625, 0.921875, 0.9375, 0.953125, 0.96875, 0.984375, 1.0]}, "node_values": {"_type": "histogram", "values": [12, 0, 0, 0, 0, 0, 0, 0, 0, 0, 0, 0, 0, 0, 0, 0, 0, 0, 0, 0, 0, 0, 0, 0, 0, 0, 0, 0, 0, 0, 0, 0, 0, 0, 0, 0, 0, 0, 0, 0, 0, 0, 0, 0, 13, 0, 0, 0, 0, 0, 0, 0, 0, 0, 0, 0, 0, 0, 0, 0, 0, 0, 0, 13], "bins": [10.667144775390625, 10.681226521730423, 10.695308268070221, 10.709390014410019, 10.723471760749817, 10.737553507089615, 10.751635253429413, 10.76571699976921, 10.779798746109009, 10.793880492448807, 10.807962238788605, 10.822043985128403, 10.8361257314682, 10.850207477807999, 10.864289224147797, 10.878370970487595, 10.892452716827393, 10.90653446316719, 10.920616209506989, 10.934697955846786, 10.948779702186584, 10.962861448526382, 10.97694319486618, 10.991024941205978, 11.005106687545776, 11.019188433885574, 11.033270180225372, 11.04735192656517, 11.061433672904968, 11.075515419244766, 11.089597165584564, 11.103678911924362, 11.11776065826416, 11.131842404603958, 11.145924150943756, 11.160005897283554, 11.174087643623352, 11.18816938996315, 11.202251136302948, 11.216332882642746, 11.230414628982544, 11.244496375322342, 11.25857812166214, 11.272659868001938, 11.286741614341736, 11.300823360681534, 11.314905107021332, 11.32898685336113, 11.343068599700928, 11.357150346040726, 11.371232092380524, 11.385313838720322, 11.39939558506012, 11.413477331399918, 11.427559077739716, 11.441640824079514, 11.455722570419312, 11.46980431675911, 11.483886063098907, 11.497967809438705, 11.512049555778503, 11.526131302118301, 11.5402130484581, 11.554294794797897, 11.568376541137695]}, "episode_rewards": {"_type": "histogram", "values": [12, 0, 0, 0, 0, 0, 0, 0, 0, 0, 0, 0, 0, 0, 0, 0, 0, 0, 0, 0, 0, 0, 0, 0, 0, 0, 0, 0, 0, 0, 0, 0, 0, 0, 0, 0, 0, 0, 0, 0, 0, 0, 0, 0, 0, 0, 0, 0, 0, 0, 0, 0, 0, 0, 0, 0, 12, 0, 0, 0, 0, 0, 0, 1], "bins": [-19.0, -18.71875, -18.4375, -18.15625, -17.875, -17.59375, -17.3125, -17.03125, -16.75, -16.46875, -16.1875, -15.90625, -15.625, -15.34375, -15.0625, -14.78125, -14.5, -14.21875, -13.9375, -13.65625, -13.375, -13.09375, -12.8125, -12.53125, -12.25, -11.96875, -11.6875, -11.40625, -11.125, -10.84375, -10.5625, -10.28125, -10.0, -9.71875, -9.4375, -9.15625, -8.875, -8.59375, -8.3125, -8.03125, -7.75, -7.46875, -7.1875, -6.90625, -6.625, -6.34375, -6.0625, -5.78125, -5.5, -5.21875, -4.9375, -4.65625, -4.375, -4.09375, -3.8125, -3.53125, -3.25, -2.96875, -2.6875, -2.40625, -2.125, -1.84375, -1.5625, -1.28125, -1.0]}, "avg_reward": -1784.875, "done_agents": 0.0704861111111111, "deadlock_agents": 0.34672619047619047, "gradients/out_att.bias": {"_type": "histogram", "values": [0.0, 0.0, 0.0, 0.0, 0.0, 0.0, 0.0, 0.0, 0.0, 0.0, 0.0, 0.0, 0.0, 0.0, 0.0, 0.0, 0.0, 0.0, 0.0, 0.0, 0.0, 0.0, 0.0, 0.0, 0.0, 0.0, 0.0, 0.0, 0.0, 0.0, 0.0, 0.0, 1.0, 0.0, 0.0, 0.0, 0.0, 0.0, 0.0, 0.0, 0.0, 0.0, 0.0, 0.0, 0.0, 0.0, 0.0, 0.0, 0.0, 0.0, 0.0, 0.0, 0.0, 0.0, 0.0, 0.0, 0.0, 0.0, 0.0, 0.0, 0.0, 0.0, 0.0, 0.0], "bins": [-0.3277207911014557, -0.3277207911014557, -0.3277207911014557, -0.3277207911014557, -0.3277207911014557, -0.3277207911014557, -0.3277207911014557, -0.3277207911014557, -0.3277207911014557, -0.3277207911014557, -0.3277207911014557, -0.3277207911014557, -0.3277207911014557, -0.3277207911014557, -0.3277207911014557, -0.3277207911014557, -0.3277207911014557, -0.3277207911014557, -0.3277207911014557, -0.3277207911014557, -0.3277207911014557, -0.3277207911014557, -0.3277207911014557, -0.3277207911014557, -0.3277207911014557, -0.3277207911014557, -0.3277207911014557, -0.3277207911014557, -0.3277207911014557, -0.3277207911014557, -0.3277207911014557, -0.3277207911014557, -0.3277207911014557, -0.3277207911014557, -0.3277207911014557, -0.3277207911014557, -0.3277207911014557, -0.3277207911014557, -0.3277207911014557, -0.3277207911014557, -0.3277207911014557, -0.3277207911014557, -0.3277207911014557, -0.3277207911014557, -0.3277207911014557, -0.3277207911014557, -0.3277207911014557, -0.3277207911014557, -0.3277207911014557, -0.3277207911014557, -0.3277207911014557, -0.3277207911014557, -0.3277207911014557, -0.3277207911014557, -0.3277207911014557, -0.3277207911014557, -0.3277207911014557, -0.3277207911014557, -0.3277207911014557, -0.3277207911014557, -0.3277207911014557, -0.3277207911014557, -0.3277207911014557, -0.3277207911014557, -0.3277207911014557]}, "gradients/out_att.att_r": {"_type": "histogram", "values": [0.0, 0.0, 0.0, 0.0, 0.0, 0.0, 0.0, 0.0, 0.0, 0.0, 0.0, 0.0, 0.0, 0.0, 0.0, 0.0, 0.0, 0.0, 0.0, 0.0, 0.0, 0.0, 0.0, 0.0, 0.0, 0.0, 0.0, 0.0, 0.0, 0.0, 0.0, 0.0, 1.0, 0.0, 0.0, 0.0, 0.0, 0.0, 0.0, 0.0, 0.0, 0.0, 0.0, 0.0, 0.0, 0.0, 0.0, 0.0, 0.0, 0.0, 0.0, 0.0, 0.0, 0.0, 0.0, 0.0, 0.0, 0.0, 0.0, 0.0, 0.0, 0.0, 0.0, 0.0], "bins": [-1.9768251036111906e-08, -1.9768251036111906e-08, -1.9768251036111906e-08, -1.9768251036111906e-08, -1.9768251036111906e-08, -1.9768251036111906e-08, -1.9768251036111906e-08, -1.9768251036111906e-08, -1.9768251036111906e-08, -1.9768251036111906e-08, -1.9768251036111906e-08, -1.9768251036111906e-08, -1.9768251036111906e-08, -1.9768251036111906e-08, -1.9768251036111906e-08, -1.9768251036111906e-08, -1.9768251036111906e-08, -1.9768251036111906e-08, -1.9768251036111906e-08, -1.9768251036111906e-08, -1.9768251036111906e-08, -1.9768251036111906e-08, -1.9768251036111906e-08, -1.9768251036111906e-08, -1.9768251036111906e-08, -1.9768251036111906e-08, -1.9768251036111906e-08, -1.9768251036111906e-08, -1.9768251036111906e-08, -1.9768251036111906e-08, -1.9768251036111906e-08, -1.9768251036111906e-08, -1.9768251036111906e-08, -1.9768251036111906e-08, -1.9768251036111906e-08, -1.9768251036111906e-08, -1.9768251036111906e-08, -1.9768251036111906e-08, -1.9768251036111906e-08, -1.9768251036111906e-08, -1.9768251036111906e-08, -1.9768251036111906e-08, -1.9768251036111906e-08, -1.9768251036111906e-08, -1.9768251036111906e-08, -1.9768251036111906e-08, -1.9768251036111906e-08, -1.9768251036111906e-08, -1.9768251036111906e-08, -1.9768251036111906e-08, -1.9768251036111906e-08, -1.9768251036111906e-08, -1.9768251036111906e-08, -1.9768251036111906e-08, -1.9768251036111906e-08, -1.9768251036111906e-08, -1.9768251036111906e-08, -1.9768251036111906e-08, -1.9768251036111906e-08, -1.9768251036111906e-08, -1.9768251036111906e-08, -1.9768251036111906e-08, -1.9768251036111906e-08, -1.9768251036111906e-08, -1.9768251036111906e-08]}, "gradients/out_att.att_l": {"_type": "histogram", "values": [0.0, 0.0, 0.0, 0.0, 0.0, 0.0, 0.0, 0.0, 0.0, 0.0, 0.0, 0.0, 0.0, 0.0, 0.0, 0.0, 0.0, 0.0, 0.0, 0.0, 0.0, 0.0, 0.0, 0.0, 0.0, 0.0, 0.0, 0.0, 0.0, 0.0, 0.0, 0.0, 1.0, 0.0, 0.0, 0.0, 0.0, 0.0, 0.0, 0.0, 0.0, 0.0, 0.0, 0.0, 0.0, 0.0, 0.0, 0.0, 0.0, 0.0, 0.0, 0.0, 0.0, 0.0, 0.0, 0.0, 0.0, 0.0, 0.0, 0.0, 0.0, 0.0, 0.0, 0.0], "bins": [-1.9768251036111906e-08, -1.9768251036111906e-08, -1.9768251036111906e-08, -1.9768251036111906e-08, -1.9768251036111906e-08, -1.9768251036111906e-08, -1.9768251036111906e-08, -1.9768251036111906e-08, -1.9768251036111906e-08, -1.9768251036111906e-08, -1.9768251036111906e-08, -1.9768251036111906e-08, -1.9768251036111906e-08, -1.9768251036111906e-08, -1.9768251036111906e-08, -1.9768251036111906e-08, -1.9768251036111906e-08, -1.9768251036111906e-08, -1.9768251036111906e-08, -1.9768251036111906e-08, -1.9768251036111906e-08, -1.9768251036111906e-08, -1.9768251036111906e-08, -1.9768251036111906e-08, -1.9768251036111906e-08, -1.9768251036111906e-08, -1.9768251036111906e-08, -1.9768251036111906e-08, -1.9768251036111906e-08, -1.9768251036111906e-08, -1.9768251036111906e-08, -1.9768251036111906e-08, -1.9768251036111906e-08, -1.9768251036111906e-08, -1.9768251036111906e-08, -1.9768251036111906e-08, -1.9768251036111906e-08, -1.9768251036111906e-08, -1.9768251036111906e-08, -1.9768251036111906e-08, -1.9768251036111906e-08, -1.9768251036111906e-08, -1.9768251036111906e-08, -1.9768251036111906e-08, -1.9768251036111906e-08, -1.9768251036111906e-08, -1.9768251036111906e-08, -1.9768251036111906e-08, -1.9768251036111906e-08, -1.9768251036111906e-08, -1.9768251036111906e-08, -1.9768251036111906e-08, -1.9768251036111906e-08, -1.9768251036111906e-08, -1.9768251036111906e-08, -1.9768251036111906e-08, -1.9768251036111906e-08, -1.9768251036111906e-08, -1.9768251036111906e-08, -1.9768251036111906e-08, -1.9768251036111906e-08, -1.9768251036111906e-08, -1.9768251036111906e-08, -1.9768251036111906e-08, -1.9768251036111906e-08]}, "gradients/out_att.lin_l.weight": {"_type": "histogram", "values": [1.0, 0.0, 0.0, 1.0, 0.0, 0.0, 1.0, 0.0, 0.0, 0.0, 0.0, 1.0, 2.0, 0.0, 0.0, 0.0, 0.0, 1.0, 2.0, 1.0, 2.0, 0.0, 0.0, 0.0, 0.0, 1.0, 1.0, 1.0, 0.0, 0.0, 1.0, 0.0, 0.0, 2.0, 1.0, 2.0, 1.0, 1.0, 0.0, 2.0, 2.0, 1.0, 3.0, 0.0, 0.0, 1.0, 0.0, 0.0, 1.0, 1.0, 0.0, 0.0, 1.0, 1.0, 1.0, 0.0, 0.0, 0.0, 1.0, 0.0, 1.0, 0.0, 0.0, 1.0], "bins": [-0.39947575330734253, -0.387923002243042, -0.37637025117874146, -0.3648175001144409, -0.3532647490501404, -0.34171199798583984, -0.3301592469215393, -0.31860649585723877, -0.30705374479293823, -0.2955009937286377, -0.28394824266433716, -0.2723954916000366, -0.2608427405357361, -0.24928998947143555, -0.237737238407135, -0.22618448734283447, -0.21463175117969513, -0.2030790001153946, -0.19152624905109406, -0.17997349798679352, -0.16842074692249298, -0.15686799585819244, -0.1453152596950531, -0.13376250863075256, -0.12220975011587143, -0.11065699905157089, -0.09910424798727036, -0.08755150437355042, -0.07599875330924988, -0.06444600224494934, -0.052893251180648804, -0.04134050011634827, -0.02978774905204773, -0.018234997987747192, -0.0066822487860918045, 0.004870500415563583, 0.01642325147986412, 0.027976002544164658, 0.039528749883174896, 0.05108150094747543, 0.06263425201177597, 0.07418700307607651, 0.08573975414037704, 0.09729249775409698, 0.10884524881839752, 0.12039799988269806, 0.1319507509469986, 0.14350350201129913, 0.15505625307559967, 0.1666090041399002, 0.17816175520420074, 0.18971450626850128, 0.20126725733280182, 0.21282000839710236, 0.2243727445602417, 0.23592549562454224, 0.24747824668884277, 0.2590309977531433, 0.27058374881744385, 0.2821364998817444, 0.2936892509460449, 0.30524200201034546, 0.316794753074646, 0.32834750413894653, 0.33990025520324707]}, "gradients/attention_2.bias": {"_type": "histogram", "values": [1.0, 1.0, 0.0, 0.0, 1.0, 0.0, 0.0, 0.0, 1.0, 0.0, 1.0, 0.0, 0.0, 0.0, 0.0, 1.0, 1.0, 0.0, 0.0, 0.0, 0.0, 1.0, 1.0, 0.0, 0.0, 1.0, 1.0, 1.0, 0.0, 1.0, 0.0, 0.0, 2.0, 0.0, 3.0, 1.0, 3.0, 2.0, 1.0, 0.0, 1.0, 0.0, 0.0, 1.0, 0.0, 0.0, 0.0, 1.0, 1.0, 3.0, 1.0, 1.0, 1.0, 1.0, 0.0, 2.0, 0.0, 1.0, 0.0, 0.0, 0.0, 0.0, 0.0, 1.0], "bins": [-0.10375465452671051, -0.100788414478302, -0.0978221744298935, -0.09485593438148499, -0.09188969433307648, -0.08892345428466797, -0.08595721423625946, -0.08299097418785095, -0.08002473413944244, -0.07705849409103394, -0.07409225404262543, -0.07112601399421692, -0.06815977394580841, -0.0651935338973999, -0.06222729757428169, -0.059261057525873184, -0.056294821202754974, -0.053328581154346466, -0.05036234110593796, -0.04739610105752945, -0.04442986100912094, -0.04146362096071243, -0.03849738463759422, -0.035531144589185715, -0.032564904540777206, -0.029598664492368698, -0.02663242444396019, -0.02366618625819683, -0.020699946209788322, -0.017733706161379814, -0.014767467975616455, -0.011801227927207947, -0.008834987878799438, -0.0058687482960522175, -0.0029025087133049965, 6.37304037809372e-05, 0.0030299704521894455, 0.005996210500597954, 0.008962448686361313, 0.011928688734769821, 0.01489492878317833, 0.017861168831586838, 0.020827408879995346, 0.023793647065758705, 0.026759887114167213, 0.029726127162575722, 0.03269236534833908, 0.03565860539674759, 0.0386248454451561, 0.041591085493564606, 0.044557325541973114, 0.04752356559038162, 0.05048980563879013, 0.05345604568719864, 0.05642228201031685, 0.05938852205872536, 0.062354762107133865, 0.06532099843025208, 0.06828723847866058, 0.07125347852706909, 0.0742197185754776, 0.07718595862388611, 0.08015219867229462, 0.08311843872070312, 0.08608467876911163]}, "gradients/attention_2.att_r": {"_type": "histogram", "values": [1.0, 0.0, 0.0, 0.0, 0.0, 0.0, 0.0, 0.0, 0.0, 1.0, 0.0, 0.0, 0.0, 0.0, 1.0, 0.0, 0.0, 0.0, 0.0, 0.0, 0.0, 0.0, 0.0, 0.0, 0.0, 0.0, 1.0, 0.0, 0.0, 0.0, 0.0, 0.0, 0.0, 0.0, 1.0, 0.0, 0.0, 0.0, 0.0, 0.0, 0.0, 0.0, 0.0, 0.0, 0.0, 1.0, 0.0, 0.0, 0.0, 1.0, 1.0, 0.0, 0.0, 0.0, 0.0, 1.0, 10.0, 10.0, 1.0, 2.0, 5.0, 1.0, 0.0, 2.0], "bins": [-2.5712110218734097e-09, -2.5258444225073617e-09, -2.4804780451859187e-09, -2.435111445819871e-09, -2.389744846453823e-09, -2.34437846913238e-09, -2.299011869766332e-09, -2.253645270400284e-09, -2.208278893078841e-09, -2.162912293712793e-09, -2.11754591639135e-09, -2.0721793170253022e-09, -2.0268127176592543e-09, -1.9814463403378113e-09, -1.9360797409717634e-09, -1.8907131416057155e-09, -1.8453465422396675e-09, -1.799980053895922e-09, -1.7546134545298742e-09, -1.7092469661861287e-09, -1.6638804778423832e-09, -1.6185138784763353e-09, -1.5731473901325899e-09, -1.527780790766542e-09, -1.482414413445099e-09, -1.4370479251013535e-09, -1.3916813257353056e-09, -1.3463148373915601e-09, -1.3009483490478146e-09, -1.2555817496817667e-09, -1.2102152613380213e-09, -1.1648486619719733e-09, -1.1194820626059254e-09, -1.07411557426218e-09, -1.028748974896132e-09, -9.833824865523866e-10, -9.380159982086411e-10, -8.926493988425932e-10, -8.472829104988477e-10, -8.01916366643951e-10, -7.565499338113568e-10, -7.111833899564601e-10, -6.658169016127147e-10, -6.20450357757818e-10, -5.750838139029213e-10, -5.297172700480246e-10, -4.843507817042791e-10, -4.3898423784938245e-10, -3.9361769399448576e-10, -3.482511778951647e-10, -3.02884634040268e-10, -2.575181179409469e-10, -2.1215158796383804e-10, -1.6678505798672916e-10, -1.2141854188740808e-10, -7.605199803251139e-11, -3.068548193319032e-11, 1.4681044574471613e-11, 6.004757108213354e-11, 1.0541409412034852e-10, 1.507806240974574e-10, 1.961471540745663e-10, 2.4151367017388736e-10, 2.8688021402878405e-10, 3.3224673012810513e-10]}, "gradients/attention_2.att_l": {"_type": "histogram", "values": [1.0, 0.0, 0.0, 0.0, 0.0, 0.0, 0.0, 0.0, 1.0, 0.0, 0.0, 0.0, 0.0, 1.0, 0.0, 0.0, 0.0, 0.0, 0.0, 0.0, 0.0, 0.0, 0.0, 0.0, 1.0, 0.0, 0.0, 0.0, 0.0, 0.0, 0.0, 0.0, 1.0, 0.0, 0.0, 0.0, 0.0, 0.0, 0.0, 0.0, 0.0, 1.0, 0.0, 0.0, 0.0, 1.0, 1.0, 0.0, 0.0, 0.0, 1.0, 2.0, 16.0, 2.0, 2.0, 5.0, 1.0, 0.0, 1.0, 1.0, 0.0, 0.0, 0.0, 1.0], "bins": [-2.5712110218734097e-09, -2.521901576457708e-09, -2.4725919089974013e-09, -2.4232824635816996e-09, -2.373973018165998e-09, -2.3246635727502962e-09, -2.2753541273345945e-09, -2.226044459874288e-09, -2.176735014458586e-09, -2.1274255690428845e-09, -2.078115901582578e-09, -2.028806456166876e-09, -1.9794970107511745e-09, -1.9301875653354728e-09, -1.880878119919771e-09, -1.8315684524594644e-09, -1.7822590070437627e-09, -1.732949561628061e-09, -1.6836400051900569e-09, -1.6343304487520527e-09, -1.585021003336351e-09, -1.5357115579206493e-09, -1.4864020014826451e-09, -1.437092445044641e-09, -1.3877829996289393e-09, -1.3384735542132375e-09, -1.2891639977752334e-09, -1.2398544413372292e-09, -1.1905449959215275e-09, -1.1412355505058258e-09, -1.0919259940678216e-09, -1.0426164376298175e-09, -9.933071032364182e-10, -9.43997546798414e-10, -8.946881013827124e-10, -8.453786004558594e-10, -7.960690995290065e-10, -7.467595986021536e-10, -6.974500976753006e-10, -6.481405967484477e-10, -5.988310958215948e-10, -5.495215948947418e-10, -5.002120939678889e-10, -4.5090259304103597e-10, -4.0159309211418304e-10, -3.522835911873301e-10, -3.0297409026047717e-10, -2.5366458933362424e-10, -2.043550884067713e-10, -1.5504558747991837e-10, -1.0573608655306543e-10, -5.64265856262125e-11, -7.117084699359566e-12, 4.219241622749337e-11, 9.15019171543463e-11, 1.4081141808119924e-10, 1.9012091900805217e-10, 2.394304199349051e-10, 2.8873992086175804e-10, 3.3804942178861097e-10, 3.873589227154639e-10, 4.3666842364231684e-10, 4.859779245691698e-10, 5.352874254960227e-10, 5.845969264228756e-10]}, "gradients/attention_2.lin_l.weight": {"_type": "histogram", "values": [1.0, 0.0, 0.0, 0.0, 0.0, 1.0, 0.0, 1.0, 2.0, 0.0, 0.0, 1.0, 3.0, 2.0, 0.0, 2.0, 4.0, 3.0, 5.0, 3.0, 3.0, 4.0, 8.0, 4.0, 10.0, 10.0, 10.0, 13.0, 20.0, 36.0, 35.0, 64.0, 60.0, 101.0, 684.0, 115.0, 76.0, 65.0, 52.0, 36.0, 33.0, 32.0, 14.0, 21.0, 15.0, 10.0, 5.0, 8.0, 4.0, 5.0, 6.0, 1.0, 4.0, 0.0, 1.0, 1.0, 2.0, 1.0, 0.0, 0.0, 0.0, 1.0, 0.0, 2.0], "bins": [-0.11140841245651245, -0.10820198804140091, -0.10499556362628937, -0.10178913921117783, -0.09858271479606628, -0.09537629038095474, -0.0921698659658432, -0.08896344155073166, -0.08575701713562012, -0.08255059272050858, -0.07934416830539703, -0.07613774389028549, -0.07293131947517395, -0.06972489506006241, -0.06651847064495087, -0.06331204622983932, -0.060105618089437485, -0.05689919367432594, -0.0536927692592144, -0.05048634484410286, -0.04727992042899132, -0.04407349228858948, -0.040867067873477936, -0.037660643458366394, -0.03445421904325485, -0.03124779462814331, -0.02804137021303177, -0.024834945797920227, -0.021628521382808685, -0.018422095105051994, -0.015215670689940453, -0.01200924627482891, -0.008802823722362518, -0.0055963993072509766, -0.0023899744264781475, 0.0008164504542946815, 0.004022874869406223, 0.00722930021584034, 0.010435724630951881, 0.013642149046063423, 0.016848573461174965, 0.020054997876286507, 0.02326142229139805, 0.02646784856915474, 0.02967427298426628, 0.03288069739937782, 0.036087121814489365, 0.039293546229600906, 0.04249997064471245, 0.04570639505982399, 0.04891281947493553, 0.05211924389004707, 0.055325668305158615, 0.058532096445560455, 0.061738520860672, 0.06494494527578354, 0.06815136969089508, 0.07135779410600662, 0.07456421852111816, 0.0777706429362297, 0.08097706735134125, 0.08418349176645279, 0.08738991618156433, 0.09059634059667587, 0.09380276501178741]}, "gradients/attention_1.bias": {"_type": "histogram", "values": [1.0, 0.0, 0.0, 0.0, 0.0, 0.0, 0.0, 0.0, 0.0, 0.0, 0.0, 0.0, 0.0, 0.0, 0.0, 0.0, 0.0, 0.0, 0.0, 0.0, 1.0, 0.0, 0.0, 1.0, 0.0, 0.0, 2.0, 1.0, 0.0, 0.0, 0.0, 4.0, 3.0, 1.0, 0.0, 1.0, 1.0, 2.0, 3.0, 0.0, 0.0, 1.0, 4.0, 1.0, 1.0, 4.0, 0.0, 0.0, 0.0, 2.0, 0.0, 1.0, 1.0, 0.0, 0.0, 0.0, 0.0, 0.0, 1.0, 0.0, 0.0, 0.0, 0.0, 3.0], "bins": [-0.24067966639995575, -0.23457561433315277, -0.2284715473651886, -0.22236749529838562, -0.21626344323158264, -0.21015937626361847, -0.2040553241968155, -0.19795125722885132, -0.19184720516204834, -0.18574315309524536, -0.1796390861272812, -0.1735350340604782, -0.16743096709251404, -0.16132691502571106, -0.15522286295890808, -0.1491188108921051, -0.14301474392414093, -0.13691069185733795, -0.13080662488937378, -0.1247025728225708, -0.11859851330518723, -0.11249445378780365, -0.10639040172100067, -0.1002863422036171, -0.09418228268623352, -0.08807822316884995, -0.08197416365146637, -0.07587011158466339, -0.06976605206727982, -0.06366199254989624, -0.05755793675780296, -0.051453880965709686, -0.045349836349487305, -0.03924577683210373, -0.03314172104001045, -0.027037663385272026, -0.0209336057305336, -0.014829548075795174, -0.008725490421056747, -0.0026214346289634705, 0.003482624888420105, 0.009586682543158531, 0.015690740197896957, 0.021794797852635384, 0.02789885550737381, 0.034002915024757385, 0.04010697081685066, 0.04621102660894394, 0.052315086126327515, 0.05841914564371109, 0.06452320516109467, 0.07062725722789764, 0.07673131674528122, 0.0828353762626648, 0.08893942832946777, 0.09504348784685135, 0.10114754736423492, 0.1072516068816185, 0.11335566639900208, 0.11945971846580505, 0.12556377053260803, 0.1316678375005722, 0.13777188956737518, 0.14387595653533936, 0.14998000860214233]}, "gradients/attention_1.att_r": {"_type": "histogram", "values": [1.0, 0.0, 0.0, 0.0, 0.0, 0.0, 0.0, 0.0, 1.0, 0.0, 1.0, 0.0, 0.0, 0.0, 0.0, 0.0, 0.0, 1.0, 0.0, 0.0, 0.0, 0.0, 1.0, 0.0, 0.0, 0.0, 0.0, 0.0, 0.0, 0.0, 0.0, 0.0, 0.0, 0.0, 0.0, 0.0, 0.0, 0.0, 0.0, 0.0, 0.0, 2.0, 0.0, 2.0, 0.0, 2.0, 3.0, 2.0, 12.0, 0.0, 0.0, 2.0, 2.0, 1.0, 3.0, 0.0, 1.0, 0.0, 1.0, 0.0, 1.0, 0.0, 0.0, 1.0], "bins": [-7.336741630892263e-11, -7.18656592568756e-11, -7.036390220482858e-11, -6.886215209167545e-11, -6.736039503962843e-11, -6.58586379875814e-11, -6.435688093553438e-11, -6.285513082238126e-11, -6.135337377033423e-11, -5.98516167182872e-11, -5.834985966624018e-11, -5.6848106083640104e-11, -5.534635250104003e-11, -5.3844595448993005e-11, -5.234284186639293e-11, -5.0841084814345905e-11, -4.933933123174583e-11, -4.7837574179698805e-11, -4.633582059709873e-11, -4.4834063545051706e-11, -4.333230996245163e-11, -4.1830552910404606e-11, -4.032879932780453e-11, -3.8827042275757506e-11, -3.732528522371048e-11, -3.5823528171663455e-11, -3.432177458906338e-11, -3.2820017537016355e-11, -3.131826395441628e-11, -2.9816506902369255e-11, -2.831475331976918e-11, -2.6812996267722156e-11, -2.5311240950398606e-11, -2.3809485633075056e-11, -2.2307730315751506e-11, -2.0805974998427956e-11, -1.9304219681104406e-11, -1.7802464363780857e-11, -1.630070731173383e-11, -1.4798953729133757e-11, -1.3297197544448469e-11, -1.179544222712492e-11, -1.029368690980137e-11, -8.791930725116082e-12, -7.290175407792532e-12, -5.788420090468982e-12, -4.286664773145432e-12, -2.7849094558218823e-12, -1.2831541384983325e-12, 2.186012872454346e-13, 1.7203567129892017e-12, 3.222112247153186e-12, 4.723867564476736e-12, 6.225623315481155e-12, 7.727378632804704e-12, 9.229133950128254e-12, 1.0730889267451804e-11, 1.2232644584775354e-11, 1.3734399902098904e-11, 1.5236156086784192e-11, 1.673791140410774e-11, 1.823966672143129e-11, 1.974142203875484e-11, 2.124317735607839e-11, 2.274493267340194e-11]}, "gradients/attention_1.att_l": {"_type": "histogram", "values": [1.0, 0.0, 0.0, 0.0, 0.0, 0.0, 0.0, 0.0, 1.0, 0.0, 1.0, 0.0, 0.0, 0.0, 0.0, 0.0, 0.0, 1.0, 0.0, 0.0, 0.0, 0.0, 1.0, 0.0, 0.0, 0.0, 0.0, 0.0, 0.0, 0.0, 0.0, 0.0, 0.0, 0.0, 0.0, 0.0, 0.0, 0.0, 0.0, 0.0, 0.0, 2.0, 0.0, 2.0, 0.0, 2.0, 3.0, 2.0, 12.0, 0.0, 0.0, 2.0, 2.0, 1.0, 3.0, 0.0, 1.0, 0.0, 1.0, 0.0, 1.0, 0.0, 0.0, 1.0], "bins": [-7.336740937002872e-11, -7.18656523179817e-11, -7.036389526593467e-11, -6.886214515278155e-11, -6.736038810073453e-11, -6.58586310486875e-11, -6.435688093553438e-11, -6.285512388348735e-11, -6.135336683144033e-11, -5.98516097793933e-11, -5.834985272734627e-11, -5.684810261419315e-11, -5.5346345562146126e-11, -5.38445885100991e-11, -5.234283492749903e-11, -5.084108134489895e-11, -4.933932429285193e-11, -4.78375672408049e-11, -4.633581365820483e-11, -4.4834060075604754e-11, -4.333230302355773e-11, -4.18305459715107e-11, -4.032879238891063e-11, -3.8827038806310554e-11, -3.732528175426353e-11, -3.58235247022165e-11, -3.432177111961643e-11, -3.2820017537016355e-11, -3.131826048496933e-11, -2.9816503432922303e-11, -2.831474985032223e-11, -2.681299453299868e-11, -2.5311237480951654e-11, -2.3809482163628104e-11, -2.2307726846304554e-11, -2.0805971528981004e-11, -1.9304216211657454e-11, -1.7802460894333905e-11, -1.6300705577010355e-11, -1.4798950259686805e-11, -1.3297194942363255e-11, -1.1795439625039705e-11, -1.0293684307716156e-11, -8.791928990392606e-12, -7.290173673069056e-12, -5.788418355745506e-12, -4.286663038421956e-12, -2.7849077210984063e-12, -1.2831524037748565e-12, 2.1860291354869332e-13, 1.7203582308722432e-12, 3.222113548195793e-12, 4.723868865519343e-12, 6.225624182842893e-12, 7.727379500166442e-12, 9.229134817489992e-12, 1.0730890134813542e-11, 1.2232645452137092e-11, 1.3734400769460642e-11, 1.5236156086784192e-11, 1.673791140410774e-11, 1.823966672143129e-11, 1.974142203875484e-11, 2.124317735607839e-11, 2.274493267340194e-11]}, "gradients/attention_1.lin_l.weight": {"_type": "histogram", "values": [1.0, 0.0, 0.0, 2.0, 1.0, 0.0, 2.0, 0.0, 1.0, 1.0, 1.0, 4.0, 5.0, 2.0, 6.0, 5.0, 6.0, 6.0, 7.0, 14.0, 18.0, 19.0, 26.0, 51.0, 49.0, 83.0, 137.0, 244.0, 379.0, 157.0, 113.0, 61.0, 42.0, 33.0, 24.0, 14.0, 15.0, 15.0, 16.0, 7.0, 2.0, 3.0, 4.0, 3.0, 2.0, 5.0, 0.0, 5.0, 0.0, 2.0, 0.0, 0.0, 2.0, 0.0, 0.0, 0.0, 2.0, 0.0, 0.0, 1.0, 1.0, 0.0, 0.0, 1.0], "bins": [-0.06649119406938553, -0.06413302570581436, -0.061774853616952896, -0.05941668152809143, -0.057058513164520264, -0.0547003448009491, -0.05234217271208763, -0.049984000623226166, -0.047625832259655, -0.04526766389608383, -0.042909491807222366, -0.0405513197183609, -0.038193151354789734, -0.03583498299121857, -0.0334768109023571, -0.031118640676140785, -0.02876047044992447, -0.026402300223708153, -0.024044129997491837, -0.02168595977127552, -0.019327789545059204, -0.016969619318842888, -0.014611449092626572, -0.012253278866410255, -0.00989510864019394, -0.007536938413977623, -0.005178768187761307, -0.0028205979615449905, -0.0004624277353286743, 0.001895742490887642, 0.004253912717103958, 0.006612082943320274, 0.008970245718955994, 0.01132841594517231, 0.013686586171388626, 0.016044756397604942, 0.01840292662382126, 0.020761096850037575, 0.02311926707625389, 0.025477437302470207, 0.027835607528686523, 0.03019377775490284, 0.032551947981119156, 0.03491012006998062, 0.03726828843355179, 0.039626456797122955, 0.04198462888598442, 0.044342800974845886, 0.04670096933841705, 0.04905913770198822, 0.051417309790849686, 0.05377548187971115, 0.05613365024328232, 0.058491818606853485, 0.06084999069571495, 0.06320816278457642, 0.06556633114814758, 0.06792449951171875, 0.07028266787528992, 0.07264084368944168, 0.07499901205301285, 0.07735718041658401, 0.07971535623073578, 0.08207352459430695, 0.08443169295787811]}, "gradients/attention_0.bias": {"_type": "histogram", "values": [1.0, 0.0, 0.0, 0.0, 0.0, 1.0, 0.0, 0.0, 0.0, 0.0, 0.0, 0.0, 1.0, 2.0, 2.0, 0.0, 0.0, 4.0, 0.0, 2.0, 1.0, 2.0, 0.0, 1.0, 2.0, 1.0, 0.0, 1.0, 0.0, 0.0, 2.0, 1.0, 1.0, 0.0, 2.0, 0.0, 1.0, 0.0, 2.0, 1.0, 2.0, 1.0, 2.0, 0.0, 0.0, 0.0, 0.0, 0.0, 0.0, 0.0, 0.0, 0.0, 0.0, 1.0, 0.0, 0.0, 0.0, 0.0, 0.0, 0.0, 1.0, 1.0, 0.0, 1.0], "bins": [-0.409801721572876, -0.39587292075157166, -0.38194411993026733, -0.3680152893066406, -0.3540864884853363, -0.340157687664032, -0.3262288570404053, -0.31230005621910095, -0.29837125539779663, -0.2844424545764923, -0.270513653755188, -0.2565848231315613, -0.24265602231025696, -0.22872722148895264, -0.21479840576648712, -0.2008695900440216, -0.18694078922271729, -0.17301198840141296, -0.15908317267894745, -0.14515435695648193, -0.1312255561351776, -0.1172967478632927, -0.10336793959140778, -0.08943913131952286, -0.07551032304763794, -0.06158151477575302, -0.0476527065038681, -0.033723898231983185, -0.019795089960098267, -0.005866281688213348, 0.00806252658367157, 0.021991334855556488, 0.035920143127441406, 0.049848951399326324, 0.06377775967121124, 0.07770656794309616, 0.09163537621498108, 0.105564184486866, 0.11949299275875092, 0.13342180848121643, 0.14735060930252075, 0.16127941012382507, 0.1752082258462906, 0.1891370415687561, 0.20306584239006042, 0.21699464321136475, 0.23092345893383026, 0.24485227465629578, 0.2587810754776001, 0.2727098762989044, 0.28663867712020874, 0.30056750774383545, 0.31449630856513977, 0.3284251093864441, 0.3423539400100708, 0.3562827408313751, 0.37021154165267944, 0.38414034247398376, 0.3980691432952881, 0.4119979739189148, 0.4259267747402191, 0.43985557556152344, 0.45378440618515015, 0.46771320700645447, 0.4816420078277588]}, "gradients/attention_0.att_r": {"_type": "histogram", "values": [0.0, 0.0, 0.0, 0.0, 0.0, 0.0, 0.0, 0.0, 0.0, 0.0, 0.0, 0.0, 0.0, 0.0, 0.0, 0.0, 0.0, 0.0, 0.0, 0.0, 0.0, 0.0, 0.0, 0.0, 0.0, 0.0, 0.0, 0.0, 0.0, 0.0, 0.0, 0.0, 40.0, 0.0, 0.0, 0.0, 0.0, 0.0, 0.0, 0.0, 0.0, 0.0, 0.0, 0.0, 0.0, 0.0, 0.0, 0.0, 0.0, 0.0, 0.0, 0.0, 0.0, 0.0, 0.0, 0.0, 0.0, 0.0, 0.0, 0.0, 0.0, 0.0, 0.0, 0.0], "bins": [0.0, 0.0, 0.0, 0.0, 0.0, 0.0, 0.0, 0.0, 0.0, 0.0, 0.0, 0.0, 0.0, 0.0, 0.0, 0.0, 0.0, 0.0, 0.0, 0.0, 0.0, 0.0, 0.0, 0.0, 0.0, 0.0, 0.0, 0.0, 0.0, 0.0, 0.0, 0.0, 0.0, 0.0, 0.0, 0.0, 0.0, 0.0, 0.0, 0.0, 0.0, 0.0, 0.0, 0.0, 0.0, 0.0, 0.0, 0.0, 0.0, 0.0, 0.0, 0.0, 0.0, 0.0, 0.0, 0.0, 0.0, 0.0, 0.0, 0.0, 0.0, 0.0, 0.0, 0.0, 0.0]}, "gradients/attention_0.att_l": {"_type": "histogram", "values": [0.0, 0.0, 0.0, 0.0, 0.0, 0.0, 0.0, 0.0, 0.0, 0.0, 0.0, 0.0, 0.0, 0.0, 0.0, 0.0, 0.0, 0.0, 0.0, 0.0, 0.0, 0.0, 0.0, 0.0, 0.0, 0.0, 0.0, 0.0, 0.0, 0.0, 0.0, 0.0, 40.0, 0.0, 0.0, 0.0, 0.0, 0.0, 0.0, 0.0, 0.0, 0.0, 0.0, 0.0, 0.0, 0.0, 0.0, 0.0, 0.0, 0.0, 0.0, 0.0, 0.0, 0.0, 0.0, 0.0, 0.0, 0.0, 0.0, 0.0, 0.0, 0.0, 0.0, 0.0], "bins": [0.0, 0.0, 0.0, 0.0, 0.0, 0.0, 0.0, 0.0, 0.0, 0.0, 0.0, 0.0, 0.0, 0.0, 0.0, 0.0, 0.0, 0.0, 0.0, 0.0, 0.0, 0.0, 0.0, 0.0, 0.0, 0.0, 0.0, 0.0, 0.0, 0.0, 0.0, 0.0, 0.0, 0.0, 0.0, 0.0, 0.0, 0.0, 0.0, 0.0, 0.0, 0.0, 0.0, 0.0, 0.0, 0.0, 0.0, 0.0, 0.0, 0.0, 0.0, 0.0, 0.0, 0.0, 0.0, 0.0, 0.0, 0.0, 0.0, 0.0, 0.0, 0.0, 0.0, 0.0, 0.0]}, "gradients/attention_0.lin_l.weight": {"_type": "histogram", "values": [0.0, 0.0, 0.0, 0.0, 0.0, 0.0, 0.0, 0.0, 0.0, 0.0, 0.0, 0.0, 0.0, 0.0, 0.0, 0.0, 0.0, 0.0, 0.0, 0.0, 0.0, 0.0, 0.0, 0.0, 0.0, 0.0, 0.0, 0.0, 0.0, 0.0, 0.0, 0.0, 480.0, 0.0, 0.0, 0.0, 0.0, 0.0, 0.0, 0.0, 0.0, 0.0, 0.0, 0.0, 0.0, 0.0, 0.0, 0.0, 0.0, 0.0, 0.0, 0.0, 0.0, 0.0, 0.0, 0.0, 0.0, 0.0, 0.0, 0.0, 0.0, 0.0, 0.0, 0.0], "bins": [0.0, 0.0, 0.0, 0.0, 0.0, 0.0, 0.0, 0.0, 0.0, 0.0, 0.0, 0.0, 0.0, 0.0, 0.0, 0.0, 0.0, 0.0, 0.0, 0.0, 0.0, 0.0, 0.0, 0.0, 0.0, 0.0, 0.0, 0.0, 0.0, 0.0, 0.0, 0.0, 0.0, 0.0, 0.0, 0.0, 0.0, 0.0, 0.0, 0.0, 0.0, 0.0, 0.0, 0.0, 0.0, 0.0, 0.0, 0.0, 0.0, 0.0, 0.0, 0.0, 0.0, 0.0, 0.0, 0.0, 0.0, 0.0, 0.0, 0.0, 0.0, 0.0, 0.0, 0.0, 0.0]}, "mean_loss": 2.376378655433655, "_wandb": {"runtime": 26988}}