{"parameters/attention_0.att_l": {"_type": "histogram", "values": [1.0, 1.0, 0.0, 0.0, 0.0, 0.0, 0.0, 1.0, 2.0, 2.0, 1.0, 1.0, 1.0, 1.0, 0.0, 1.0, 1.0, 0.0, 1.0, 0.0, 0.0, 2.0, 1.0, 0.0, 0.0, 0.0, 0.0, 2.0, 1.0, 0.0, 0.0, 0.0, 1.0, 2.0, 0.0, 0.0, 2.0, 0.0, 2.0, 0.0, 2.0, 0.0, 1.0, 0.0, 2.0, 0.0, 0.0, 1.0, 0.0, 1.0, 1.0, 0.0, 0.0, 1.0, 0.0, 0.0, 0.0, 0.0, 0.0, 1.0, 0.0, 1.0, 0.0, 2.0], "bins": [-0.7993918657302856, -0.7789627313613892, -0.7585335969924927, -0.7381044030189514, -0.7176752686500549, -0.6972461342811584, -0.676816999912262, -0.6563878655433655, -0.6359586715698242, -0.6155295372009277, -0.5951004028320312, -0.57467120885849, -0.5542420744895935, -0.533812940120697, -0.5133838057518005, -0.49295467138290405, -0.47252553701400757, -0.4520964026451111, -0.4316672384738922, -0.4112381041049957, -0.39080893993377686, -0.37037980556488037, -0.3499506711959839, -0.3295215368270874, -0.30909237265586853, -0.28866323828697205, -0.2682340741157532, -0.2478049397468567, -0.227375790476799, -0.20694664120674133, -0.18651750683784485, -0.16608835756778717, -0.1456592082977295, -0.12523005902767181, -0.10480091720819473, -0.08437177538871765, -0.06394262611865997, -0.043513476848602295, -0.023084335029125214, -0.0026551932096481323, 0.017773956060409546, 0.038203101605176926, 0.058632247149944305, 0.07906138896942139, 0.09949053823947906, 0.11991968750953674, 0.14034882187843323, 0.1607779711484909, 0.18120712041854858, 0.20163626968860626, 0.22206541895866394, 0.24249455332756042, 0.2629237174987793, 0.2833528518676758, 0.30378198623657227, 0.32421112060546875, 0.3446402847766876, 0.3650694191455841, 0.385498583316803, 0.40592771768569946, 0.42635685205459595, 0.4467860162258148, 0.4672151505947113, 0.4876443147659302, 0.5080734491348267]}, "parameters/attention_0.att_r": {"_type": "histogram", "values": [1.0, 0.0, 1.0, 0.0, 0.0, 2.0, 0.0, 0.0, 0.0, 0.0, 1.0, 1.0, 0.0, 1.0, 1.0, 2.0, 0.0, 1.0, 0.0, 0.0, 2.0, 2.0, 0.0, 1.0, 0.0, 2.0, 1.0, 0.0, 0.0, 0.0, 2.0, 0.0, 1.0, 0.0, 2.0, 0.0, 0.0, 0.0, 0.0, 1.0, 1.0, 1.0, 1.0, 0.0, 0.0, 0.0, 2.0, 2.0, 0.0, 1.0, 2.0, 0.0, 0.0, 0.0, 0.0, 1.0, 0.0, 0.0, 1.0, 0.0, 1.0, 1.0, 0.0, 1.0], "bins": [-0.6388360857963562, -0.6162264943122864, -0.5936169028282166, -0.5710073113441467, -0.5483977198600769, -0.5257881283760071, -0.5031785368919373, -0.48056894540786743, -0.4579593539237976, -0.4353497624397278, -0.41274017095565796, -0.39013057947158813, -0.3675209879875183, -0.3449113965034485, -0.32230180501937866, -0.29969221353530884, -0.2770825922489166, -0.2544730007648468, -0.23186340928077698, -0.20925381779670715, -0.18664422631263733, -0.1640346348285675, -0.1414250284433365, -0.11881543695926666, -0.09620584547519684, -0.07359625399112701, -0.05098665878176689, -0.02837706357240677, -0.005767472088336945, 0.01684211939573288, 0.0394517183303833, 0.062061309814453125, 0.08467090129852295, 0.10728049278259277, 0.1298900842666626, 0.15249967575073242, 0.17510926723480225, 0.19771885871887207, 0.2203284651041031, 0.2429380565881729, 0.26554763317108154, 0.28815722465515137, 0.3107668161392212, 0.333376407623291, 0.35598599910736084, 0.37859559059143066, 0.4012051820755005, 0.4238147735595703, 0.4464243948459625, 0.46903398633003235, 0.4916435778141022, 0.5142531991004944, 0.5368627905845642, 0.559472382068634, 0.5820819735527039, 0.6046915650367737, 0.6273011565208435, 0.6499107480049133, 0.6725203394889832, 0.695129930973053, 0.7177395224571228, 0.7403491139411926, 0.7629587054252625, 0.7855682969093323, 0.8081778883934021]}, "parameters/attention_0.bias": {"_type": "histogram", "values": [1.0, 1.0, 3.0, 0.0, 0.0, 0.0, 0.0, 1.0, 1.0, 1.0, 0.0, 0.0, 0.0, 2.0, 0.0, 2.0, 1.0, 1.0, 1.0, 1.0, 0.0, 1.0, 1.0, 0.0, 1.0, 0.0, 2.0, 0.0, 0.0, 0.0, 0.0, 0.0, 2.0, 1.0, 2.0, 1.0, 1.0, 0.0, 0.0, 1.0, 0.0, 0.0, 0.0, 1.0, 0.0, 0.0, 1.0, 1.0, 1.0, 0.0, 0.0, 2.0, 0.0, 1.0, 0.0, 0.0, 1.0, 1.0, 1.0, 0.0, 0.0, 0.0, 0.0, 1.0], "bins": [-0.15219762921333313, -0.14730454981327057, -0.1424114853143692, -0.13751840591430664, -0.13262532651424408, -0.1277322620153427, -0.12283918261528015, -0.11794611066579819, -0.11305303871631622, -0.10815996676683426, -0.1032668873667717, -0.09837381541728973, -0.09348074346780777, -0.0885876715183258, -0.08369459211826324, -0.07880152016878128, -0.07390844076871872, -0.06901536881923676, -0.0641222894191742, -0.05922921746969223, -0.054336145520210266, -0.049443069845438004, -0.04454999417066574, -0.03965692222118378, -0.034763846546411514, -0.0298707727342844, -0.024977698922157288, -0.020084623247385025, -0.015191549435257912, -0.010298475623130798, -0.005405399948358536, -0.0005123279988765717, 0.004380747675895691, 0.009273821488022804, 0.014166896231472492, 0.01905997097492218, 0.023953044787049294, 0.028846118599176407, 0.03373919427394867, 0.038632266223430634, 0.043525341898202896, 0.04841841757297516, 0.05331148952245712, 0.058204565197229385, 0.06309764087200165, 0.06799071282148361, 0.07288378477096558, 0.07777686417102814, 0.0826699361205101, 0.08756300806999207, 0.09245608747005463, 0.09734915941953659, 0.10224223136901855, 0.10713531076908112, 0.11202838271856308, 0.11692145466804504, 0.1218145340681076, 0.12670761346817017, 0.13160067796707153, 0.1364937573671341, 0.14138683676719666, 0.14627990126609802, 0.15117298066616058, 0.15606606006622314, 0.1609591245651245]}, "parameters/attention_0.lin_l.weight": {"_type": "histogram", "values": [1.0, 0.0, 0.0, 0.0, 0.0, 1.0, 1.0, 0.0, 4.0, 2.0, 2.0, 2.0, 5.0, 8.0, 8.0, 10.0, 10.0, 13.0, 12.0, 9.0, 9.0, 14.0, 15.0, 10.0, 14.0, 10.0, 14.0, 9.0, 14.0, 13.0, 13.0, 14.0, 12.0, 5.0, 17.0, 15.0, 14.0, 11.0, 24.0, 11.0, 7.0, 15.0, 12.0, 11.0, 8.0, 12.0, 14.0, 11.0, 18.0, 12.0, 13.0, 20.0, 14.0, 9.0, 8.0, 7.0, 7.0, 5.0, 2.0, 3.0, 3.0, 1.0, 1.0, 1.0], "bins": [-0.5268803834915161, -0.5118586421012878, -0.4968368709087372, -0.4818151295185089, -0.46679335832595825, -0.45177161693573, -0.4367498755455017, -0.42172810435295105, -0.4067063331604004, -0.3916845917701721, -0.37666282057762146, -0.3616410791873932, -0.34661930799484253, -0.33159756660461426, -0.316575825214386, -0.3015540540218353, -0.28653231263160706, -0.2715105712413788, -0.2564888000488281, -0.24146705865859985, -0.2264452874660492, -0.21142354607582092, -0.19640178978443146, -0.181380033493042, -0.16635827720165253, -0.15133652091026306, -0.1363147646188736, -0.12129301577806473, -0.10627125948667526, -0.0912495031952858, -0.07622775435447693, -0.06120599806308746, -0.04618421196937561, -0.031162457540631294, -0.016140703111886978, -0.0011189505457878113, 0.013902805745601654, 0.02892456203699112, 0.04394631087779999, 0.05896806716918945, 0.07398982346057892, 0.08901157975196838, 0.10403333604335785, 0.11905508488416672, 0.13407683372497559, 0.14909860491752625, 0.16412034630775452, 0.17914210259914398, 0.19416385889053345, 0.2091856151819229, 0.22420737147331238, 0.23922911286354065, 0.2542508840560913, 0.2692726254463196, 0.28429436683654785, 0.2993161380290985, 0.31433790922164917, 0.32935965061187744, 0.3443814218044281, 0.35940316319465637, 0.37442493438720703, 0.3894466757774353, 0.4044684171676636, 0.41949018836021423, 0.4345119297504425]}, "parameters/attention_1.att_l": {"_type": "histogram", "values": [2.0, 0.0, 0.0, 0.0, 0.0, 0.0, 0.0, 0.0, 0.0, 3.0, 0.0, 1.0, 1.0, 1.0, 0.0, 1.0, 0.0, 1.0, 0.0, 2.0, 1.0, 0.0, 0.0, 1.0, 1.0, 1.0, 0.0, 0.0, 0.0, 0.0, 1.0, 2.0, 0.0, 1.0, 1.0, 1.0, 1.0, 0.0, 2.0, 1.0, 0.0, 0.0, 1.0, 0.0, 0.0, 1.0, 1.0, 1.0, 0.0, 2.0, 0.0, 1.0, 1.0, 0.0, 1.0, 0.0, 1.0, 1.0, 1.0, 0.0, 0.0, 0.0, 1.0, 1.0], "bins": [-0.7001498341560364, -0.6786279678344727, -0.6571061015129089, -0.6355842351913452, -0.6140623092651367, -0.592540442943573, -0.5710185766220093, -0.5494967103004456, -0.5279748439788818, -0.5064529776573181, -0.4849311113357544, -0.4634092152118683, -0.44188734889030457, -0.42036548256874084, -0.39884358644485474, -0.377321720123291, -0.3557998538017273, -0.3342779874801636, -0.31275612115859985, -0.29123422503471375, -0.26971235871315, -0.2481904923915863, -0.2266686111688614, -0.20514672994613647, -0.18362486362457275, -0.16210299730300903, -0.14058111608028412, -0.1190592423081398, -0.09753736853599548, -0.07601549476385117, -0.05449362099170685, -0.032971739768981934, -0.011449873447418213, 0.010072000324726105, 0.03159387409687042, 0.05311574786901474, 0.07463762164115906, 0.09615949541330338, 0.11768136918544769, 0.1392032504081726, 0.16072511672973633, 0.18224698305130005, 0.20376886427402496, 0.22529074549674988, 0.2468126118183136, 0.2683344781398773, 0.2898563742637634, 0.31137824058532715, 0.33290010690689087, 0.3544219732284546, 0.3759438395500183, 0.3974657356739044, 0.41898760199546814, 0.44050946831703186, 0.46203136444091797, 0.4835532307624817, 0.5050750970840454, 0.5265969634056091, 0.5481188297271729, 0.5696406960487366, 0.5911625623703003, 0.6126844882965088, 0.6342063546180725, 0.6557282209396362, 0.6772500872612]}, "parameters/attention_1.att_r": {"_type": "histogram", "values": [1.0, 0.0, 0.0, 0.0, 0.0, 0.0, 1.0, 1.0, 1.0, 1.0, 0.0, 0.0, 2.0, 0.0, 0.0, 0.0, 0.0, 2.0, 0.0, 1.0, 1.0, 2.0, 0.0, 3.0, 2.0, 0.0, 1.0, 1.0, 0.0, 1.0, 0.0, 0.0, 1.0, 1.0, 0.0, 1.0, 1.0, 0.0, 1.0, 1.0, 0.0, 1.0, 1.0, 0.0, 0.0, 0.0, 0.0, 0.0, 1.0, 2.0, 1.0, 0.0, 1.0, 0.0, 0.0, 1.0, 0.0, 0.0, 1.0, 0.0, 1.0, 0.0, 2.0, 1.0], "bins": [-0.7324259877204895, -0.7115861773490906, -0.6907463073730469, -0.669906497001648, -0.6490666270256042, -0.6282268166542053, -0.6073869466781616, -0.5865471363067627, -0.565707266330719, -0.5448674559593201, -0.5240275859832764, -0.5031877756118774, -0.48234790563583374, -0.4615080654621124, -0.4406682252883911, -0.4198284149169922, -0.3989885747432709, -0.37814873456954956, -0.35730889439582825, -0.33646905422210693, -0.3156292140483856, -0.2947893738746643, -0.2739495635032654, -0.2531096935272217, -0.23226986825466156, -0.21143002808094025, -0.19059018790721893, -0.1697503626346588, -0.1489105224609375, -0.1280706822872162, -0.10723084211349487, -0.08639100193977356, -0.06555116176605225, -0.04471132159233093, -0.023871485143899918, -0.0030316486954689026, 0.01780819147825241, 0.038648031651973724, 0.05948786437511444, 0.08032770454883575, 0.10116754472255707, 0.12200738489627838, 0.1428472250699997, 0.16368705034255981, 0.18452689051628113, 0.20536673069000244, 0.22620657086372375, 0.24704641103744507, 0.2678862512111664, 0.2887260913848877, 0.309565931558609, 0.3304057717323303, 0.35124561190605164, 0.37208545207977295, 0.3929252624511719, 0.4137651324272156, 0.4346049427986145, 0.4554447829723358, 0.47628462314605713, 0.49712446331977844, 0.5179643034934998, 0.5388041138648987, 0.5596439838409424, 0.5804837942123413, 0.601323664188385]}, "parameters/attention_1.bias": {"_type": "histogram", "values": [1.0, 0.0, 1.0, 0.0, 1.0, 0.0, 0.0, 0.0, 1.0, 0.0, 2.0, 0.0, 1.0, 0.0, 0.0, 1.0, 0.0, 0.0, 1.0, 1.0, 1.0, 1.0, 1.0, 3.0, 1.0, 1.0, 0.0, 0.0, 1.0, 0.0, 2.0, 1.0, 0.0, 0.0, 2.0, 0.0, 2.0, 0.0, 2.0, 0.0, 0.0, 0.0, 2.0, 2.0, 0.0, 1.0, 2.0, 0.0, 0.0, 0.0, 0.0, 1.0, 1.0, 0.0, 0.0, 0.0, 0.0, 0.0, 0.0, 0.0, 0.0, 0.0, 1.0, 2.0], "bins": [-0.19339463114738464, -0.18789789080619812, -0.1824011355638504, -0.17690439522266388, -0.17140763998031616, -0.16591089963912964, -0.16041415929794312, -0.1549174189567566, -0.14942066371440887, -0.14392392337322235, -0.13842716813087463, -0.1329304277896881, -0.1274336874485016, -0.12193693220615387, -0.11644019186496735, -0.11094344407320023, -0.1054466962814331, -0.09994994848966599, -0.09445320069789886, -0.08895646035671234, -0.08345971256494522, -0.0779629647731781, -0.07246622443199158, -0.06696947664022446, -0.061472728848457336, -0.055975981056690216, -0.050479236990213394, -0.04498249292373657, -0.03948574513196945, -0.03398899734020233, -0.02849225327372551, -0.022995509207248688, -0.01749877631664276, -0.01200203038752079, -0.006505284458398819, -0.0010085385292768478, 0.004488207399845123, 0.009984953328967094, 0.015481699258089066, 0.020978443324565887, 0.026475191116333008, 0.03197193890810013, 0.03746868297457695, 0.04296542704105377, 0.04846217483282089, 0.05395892262458801, 0.059455666691064835, 0.06495241075754166, 0.07044915854930878, 0.0759459063410759, 0.08144265413284302, 0.08693939447402954, 0.09243614226579666, 0.09793289005756378, 0.1034296303987503, 0.10892637819051743, 0.11442312598228455, 0.11991987377405167, 0.1254166215658188, 0.1309133619070053, 0.13641011714935303, 0.14190685749053955, 0.14740359783172607, 0.1529003381729126, 0.15839709341526031]}, "parameters/attention_1.lin_l.weight": {"_type": "histogram", "values": [2.0, 2.0, 6.0, 6.0, 1.0, 9.0, 10.0, 8.0, 12.0, 14.0, 16.0, 26.0, 27.0, 26.0, 25.0, 28.0, 27.0, 32.0, 32.0, 28.0, 39.0, 49.0, 37.0, 38.0, 30.0, 47.0, 41.0, 38.0, 45.0, 33.0, 28.0, 33.0, 32.0, 23.0, 42.0, 33.0, 36.0, 48.0, 38.0, 36.0, 25.0, 41.0, 43.0, 48.0, 28.0, 40.0, 27.0, 29.0, 36.0, 35.0, 27.0, 29.0, 14.0, 22.0, 22.0, 15.0, 9.0, 8.0, 5.0, 5.0, 4.0, 2.0, 1.0, 2.0], "bins": [-0.4036942422389984, -0.3910789489746094, -0.3784636855125427, -0.3658483922481537, -0.35323309898376465, -0.340617835521698, -0.32800254225730896, -0.3153872489929199, -0.3027719557285309, -0.29015666246414185, -0.2775413990020752, -0.26492610573768616, -0.2523108124732971, -0.23969553411006927, -0.22708025574684143, -0.2144649624824524, -0.20184968411922455, -0.1892344057559967, -0.17661911249160767, -0.16400383412837982, -0.15138854086399078, -0.13877326250076294, -0.1261579692363739, -0.11354269087314606, -0.10092740505933762, -0.08831211924552917, -0.07569683343172073, -0.06308154761791229, -0.05046626552939415, -0.03785098344087601, -0.025235697627067566, -0.012620411813259125, -5.125999450683594e-06, 0.012610158883035183, 0.02522544376552105, 0.03784072771668434, 0.05045601353049278, 0.06307129561901093, 0.07568658143281937, 0.08830186724662781, 0.10091715306043625, 0.11353243887424469, 0.12614771723747253, 0.13876301050186157, 0.15137828886508942, 0.16399356722831726, 0.1766088604927063, 0.18922415375709534, 0.20183943212032318, 0.21445471048355103, 0.22707000374794006, 0.2396852821111679, 0.25230056047439575, 0.2649158537387848, 0.27753114700317383, 0.2901464104652405, 0.3027617037296295, 0.31537699699401855, 0.3279922604560852, 0.34060755372047424, 0.3532228469848633, 0.36583811044692993, 0.37845340371131897, 0.391068696975708, 0.40368399024009705]}, "parameters/attention_2.att_l": {"_type": "histogram", "values": [2.0, 0.0, 0.0, 2.0, 1.0, 2.0, 2.0, 2.0, 1.0, 1.0, 1.0, 2.0, 0.0, 1.0, 1.0, 0.0, 0.0, 1.0, 0.0, 1.0, 0.0, 0.0, 1.0, 0.0, 0.0, 0.0, 0.0, 1.0, 1.0, 1.0, 0.0, 1.0, 0.0, 0.0, 0.0, 0.0, 0.0, 0.0, 2.0, 0.0, 1.0, 1.0, 0.0, 0.0, 0.0, 0.0, 0.0, 2.0, 1.0, 0.0, 0.0, 0.0, 2.0, 0.0, 0.0, 0.0, 1.0, 2.0, 0.0, 1.0, 0.0, 0.0, 0.0, 2.0], "bins": [-0.5776064991950989, -0.5591808557510376, -0.5407551527023315, -0.5223295092582703, -0.5039038062095642, -0.48547813296318054, -0.4670524597167969, -0.4486268162727356, -0.43020111322402954, -0.4117754399776459, -0.3933497667312622, -0.37492409348487854, -0.3564984202384949, -0.3380727469921112, -0.31964707374572754, -0.30122143030166626, -0.2827957570552826, -0.2643700838088989, -0.24594441056251526, -0.2275187373161316, -0.20909306406974792, -0.19066739082336426, -0.17224173247814178, -0.15381605923175812, -0.13539038598537445, -0.11696471273899078, -0.09853903949260712, -0.08011337369680405, -0.06168770045042038, -0.04326202720403671, -0.024836361408233643, -0.006410688161849976, 0.012014985084533691, 0.03044065646827221, 0.04886632785201073, 0.0672919973731041, 0.08571767061948776, 0.10414334386587143, 0.1225690096616745, 0.14099468290805817, 0.15942035615444183, 0.1778460294008255, 0.19627170264720917, 0.21469736099243164, 0.2331230342388153, 0.251548707485199, 0.26997438073158264, 0.2884000539779663, 0.30682572722435, 0.32525140047073364, 0.3436770737171173, 0.362102746963501, 0.38052842020988464, 0.3989540934562683, 0.4173797369003296, 0.43580543994903564, 0.4542310833930969, 0.4726567566394806, 0.49108242988586426, 0.5095080733299255, 0.5279337763786316, 0.5463594198226929, 0.5647851228713989, 0.5832107663154602, 0.6016364693641663]}, "parameters/attention_2.att_r": {"_type": "histogram", "values": [2.0, 0.0, 0.0, 1.0, 1.0, 2.0, 1.0, 1.0, 0.0, 0.0, 1.0, 2.0, 0.0, 1.0, 1.0, 0.0, 1.0, 1.0, 1.0, 0.0, 3.0, 1.0, 1.0, 0.0, 1.0, 1.0, 0.0, 0.0, 0.0, 1.0, 2.0, 0.0, 0.0, 0.0, 0.0, 0.0, 0.0, 1.0, 0.0, 0.0, 1.0, 0.0, 1.0, 0.0, 1.0, 1.0, 0.0, 0.0, 0.0, 0.0, 0.0, 0.0, 1.0, 1.0, 1.0, 1.0, 0.0, 0.0, 1.0, 0.0, 1.0, 1.0, 1.0, 1.0], "bins": [-0.6251784563064575, -0.6061171889305115, -0.5870559811592102, -0.5679947137832642, -0.5489334464073181, -0.5298721790313721, -0.5108109712600708, -0.49174970388412476, -0.4726884663105011, -0.45362722873687744, -0.4345659613609314, -0.41550472378730774, -0.3964434862136841, -0.37738221883773804, -0.3583209812641144, -0.3392597436904907, -0.3201984763145447, -0.301137238740921, -0.282075971364975, -0.2630147337913513, -0.24395348131656647, -0.22489222884178162, -0.20583099126815796, -0.1867697387933731, -0.16770848631858826, -0.1486472338438034, -0.12958598136901855, -0.1105247437953949, -0.09146349132061005, -0.0724022388458252, -0.05334099382162094, -0.03427974879741669, -0.01521843671798706, 0.003842812031507492, 0.022904060781002045, 0.0419653095304966, 0.06102655827999115, 0.080087810754776, 0.09914905577898026, 0.11821030080318451, 0.13727155327796936, 0.1563328057527542, 0.17539405822753906, 0.19445529580116272, 0.21351654827594757, 0.23257780075073242, 0.2516390383243561, 0.27070027589797974, 0.2897615432739258, 0.30882278084754944, 0.3278840482234955, 0.34694528579711914, 0.3660065531730652, 0.38506779074668884, 0.4041290283203125, 0.42319029569625854, 0.4422515332698822, 0.46131277084350586, 0.4803740382194519, 0.49943527579307556, 0.5184965133666992, 0.5375577807426453, 0.5566190481185913, 0.5756802558898926, 0.5947415232658386]}, "parameters/attention_2.bias": {"_type": "histogram", "values": [1.0, 0.0, 0.0, 1.0, 1.0, 0.0, 1.0, 0.0, 1.0, 3.0, 2.0, 1.0, 1.0, 1.0, 0.0, 0.0, 2.0, 0.0, 1.0, 0.0, 2.0, 0.0, 1.0, 0.0, 2.0, 1.0, 1.0, 0.0, 1.0, 1.0, 1.0, 1.0, 0.0, 1.0, 0.0, 1.0, 0.0, 1.0, 0.0, 0.0, 0.0, 0.0, 1.0, 1.0, 0.0, 1.0, 1.0, 0.0, 2.0, 1.0, 0.0, 0.0, 1.0, 0.0, 1.0, 0.0, 0.0, 0.0, 0.0, 0.0, 0.0, 0.0, 0.0, 1.0], "bins": [-0.2203070968389511, -0.21302644908428192, -0.20574581623077393, -0.19846516847610474, -0.19118452072143555, -0.18390387296676636, -0.17662322521209717, -0.16934259235858917, -0.16206194460391998, -0.1547812968492508, -0.1475006639957428, -0.1402200162410736, -0.13293936848640442, -0.12565872073173523, -0.11837808042764664, -0.11109744012355804, -0.10381679236888885, -0.09653614461421967, -0.08925550431013107, -0.08197486400604248, -0.07469421625137329, -0.0674135684967041, -0.06013292819261551, -0.05285228416323662, -0.04557164013385773, -0.038290996104478836, -0.031010352075099945, -0.023729708045721054, -0.016449064016342163, -0.009168419986963272, -0.001887775957584381, 0.00539286807179451, 0.012673527002334595, 0.019954171031713486, 0.027234815061092377, 0.03451545909047127, 0.04179610311985016, 0.04907674714922905, 0.05635739117860794, 0.06363803148269653, 0.07091867923736572, 0.07819932699203491, 0.0854799672961235, 0.0927606076002121, 0.10004125535488129, 0.10732190310955048, 0.11460254341363907, 0.12188318371772766, 0.12916383147239685, 0.13644447922706604, 0.14372512698173523, 0.15100575983524323, 0.15828640758991241, 0.1655670553445816, 0.1728476881980896, 0.1801283359527588, 0.18740898370742798, 0.19468963146209717, 0.20197027921676636, 0.20925091207027435, 0.21653155982494354, 0.22381220757961273, 0.23109284043312073, 0.23837348818778992, 0.2456541359424591]}, "parameters/attention_2.lin_l.weight": {"_type": "histogram", "values": [1.0, 2.0, 2.0, 2.0, 7.0, 5.0, 12.0, 11.0, 15.0, 10.0, 16.0, 16.0, 25.0, 32.0, 37.0, 28.0, 35.0, 27.0, 35.0, 28.0, 45.0, 44.0, 39.0, 23.0, 31.0, 29.0, 30.0, 25.0, 26.0, 39.0, 37.0, 41.0, 27.0, 38.0, 30.0, 38.0, 44.0, 44.0, 39.0, 38.0, 33.0, 43.0, 49.0, 41.0, 36.0, 30.0, 29.0, 44.0, 34.0, 27.0, 27.0, 25.0, 24.0, 23.0, 19.0, 21.0, 12.0, 15.0, 8.0, 3.0, 0.0, 2.0, 0.0, 2.0], "bins": [-0.38939812779426575, -0.37724509835243225, -0.36509206891059875, -0.35293903946876526, -0.34078601002693176, -0.32863298058509827, -0.31647995114326477, -0.3043269217014313, -0.2921738922595978, -0.2800208628177643, -0.2678678333759308, -0.2557148039340973, -0.2435617744922638, -0.2314087450504303, -0.2192557156085968, -0.2071026861667633, -0.1949496567249298, -0.1827966272830963, -0.17064359784126282, -0.15849056839942932, -0.14633753895759583, -0.13418450951576233, -0.12203148007392883, -0.10987845063209534, -0.09772542119026184, -0.08557239174842834, -0.07341936230659485, -0.06126633286476135, -0.049113303422927856, -0.03696027398109436, -0.024807244539260864, -0.012654215097427368, -0.0005011856555938721, 0.011651843786239624, 0.02380487322807312, 0.035957902669906616, 0.04811093211174011, 0.06026396155357361, 0.0724169909954071, 0.0845700204372406, 0.0967230498790741, 0.10887607932090759, 0.12102910876274109, 0.13318213820457458, 0.14533516764640808, 0.15748819708824158, 0.16964122653007507, 0.18179425597190857, 0.19394728541374207, 0.20610031485557556, 0.21825334429740906, 0.23040637373924255, 0.24255940318107605, 0.25471243262290955, 0.26686546206474304, 0.27901849150657654, 0.29117152094841003, 0.30332455039024353, 0.315477579832077, 0.3276306092739105, 0.339783638715744, 0.3519366681575775, 0.364089697599411, 0.3762427270412445, 0.388395756483078]}, "parameters/out_att.att_l": {"_type": "histogram", "values": [0.0, 0.0, 0.0, 0.0, 0.0, 0.0, 0.0, 0.0, 0.0, 0.0, 0.0, 0.0, 0.0, 0.0, 0.0, 0.0, 0.0, 0.0, 0.0, 0.0, 0.0, 0.0, 0.0, 0.0, 0.0, 0.0, 0.0, 0.0, 0.0, 0.0, 0.0, 0.0, 1.0, 0.0, 0.0, 0.0, 0.0, 0.0, 0.0, 0.0, 0.0, 0.0, 0.0, 0.0, 0.0, 0.0, 0.0, 0.0, 0.0, 0.0, 0.0, 0.0, 0.0, 0.0, 0.0, 0.0, 0.0, 0.0, 0.0, 0.0, 0.0, 0.0, 0.0, 0.0], "bins": [-0.3353118896484375, -0.3353118896484375, -0.3353118896484375, -0.3353118896484375, -0.3353118896484375, -0.3353118896484375, -0.3353118896484375, -0.3353118896484375, -0.3353118896484375, -0.3353118896484375, -0.3353118896484375, -0.3353118896484375, -0.3353118896484375, -0.3353118896484375, -0.3353118896484375, -0.3353118896484375, -0.3353118896484375, -0.3353118896484375, -0.3353118896484375, -0.3353118896484375, -0.3353118896484375, -0.3353118896484375, -0.3353118896484375, -0.3353118896484375, -0.3353118896484375, -0.3353118896484375, -0.3353118896484375, -0.3353118896484375, -0.3353118896484375, -0.3353118896484375, -0.3353118896484375, -0.3353118896484375, -0.3353118896484375, -0.3353118896484375, -0.3353118896484375, -0.3353118896484375, -0.3353118896484375, -0.3353118896484375, -0.3353118896484375, -0.3353118896484375, -0.3353118896484375, -0.3353118896484375, -0.3353118896484375, -0.3353118896484375, -0.3353118896484375, -0.3353118896484375, -0.3353118896484375, -0.3353118896484375, -0.3353118896484375, -0.3353118896484375, -0.3353118896484375, -0.3353118896484375, -0.3353118896484375, -0.3353118896484375, -0.3353118896484375, -0.3353118896484375, -0.3353118896484375, -0.3353118896484375, -0.3353118896484375, -0.3353118896484375, -0.3353118896484375, -0.3353118896484375, -0.3353118896484375, -0.3353118896484375, -0.3353118896484375]}, "parameters/out_att.att_r": {"_type": "histogram", "values": [0.0, 0.0, 0.0, 0.0, 0.0, 0.0, 0.0, 0.0, 0.0, 0.0, 0.0, 0.0, 0.0, 0.0, 0.0, 0.0, 0.0, 0.0, 0.0, 0.0, 0.0, 0.0, 0.0, 0.0, 0.0, 0.0, 0.0, 0.0, 0.0, 0.0, 0.0, 0.0, 1.0, 0.0, 0.0, 0.0, 0.0, 0.0, 0.0, 0.0, 0.0, 0.0, 0.0, 0.0, 0.0, 0.0, 0.0, 0.0, 0.0, 0.0, 0.0, 0.0, 0.0, 0.0, 0.0, 0.0, 0.0, 0.0, 0.0, 0.0, 0.0, 0.0, 0.0, 0.0], "bins": [1.2867305278778076, 1.2867305278778076, 1.2867305278778076, 1.2867305278778076, 1.2867305278778076, 1.2867305278778076, 1.2867305278778076, 1.2867305278778076, 1.2867305278778076, 1.2867305278778076, 1.2867305278778076, 1.2867305278778076, 1.2867305278778076, 1.2867305278778076, 1.2867305278778076, 1.2867305278778076, 1.2867305278778076, 1.2867305278778076, 1.2867305278778076, 1.2867305278778076, 1.2867305278778076, 1.2867305278778076, 1.2867305278778076, 1.2867305278778076, 1.2867305278778076, 1.2867305278778076, 1.2867305278778076, 1.2867305278778076, 1.2867305278778076, 1.2867305278778076, 1.2867305278778076, 1.2867305278778076, 1.2867305278778076, 1.2867305278778076, 1.2867305278778076, 1.2867305278778076, 1.2867305278778076, 1.2867305278778076, 1.2867305278778076, 1.2867305278778076, 1.2867305278778076, 1.2867305278778076, 1.2867305278778076, 1.2867305278778076, 1.2867305278778076, 1.2867305278778076, 1.2867305278778076, 1.2867305278778076, 1.2867305278778076, 1.2867305278778076, 1.2867305278778076, 1.2867305278778076, 1.2867305278778076, 1.2867305278778076, 1.2867305278778076, 1.2867305278778076, 1.2867305278778076, 1.2867305278778076, 1.2867305278778076, 1.2867305278778076, 1.2867305278778076, 1.2867305278778076, 1.2867305278778076, 1.2867305278778076, 1.2867305278778076]}, "parameters/out_att.bias": {"_type": "histogram", "values": [0.0, 0.0, 0.0, 0.0, 0.0, 0.0, 0.0, 0.0, 0.0, 0.0, 0.0, 0.0, 0.0, 0.0, 0.0, 0.0, 0.0, 0.0, 0.0, 0.0, 0.0, 0.0, 0.0, 0.0, 0.0, 0.0, 0.0, 0.0, 0.0, 0.0, 0.0, 0.0, 1.0, 0.0, 0.0, 0.0, 0.0, 0.0, 0.0, 0.0, 0.0, 0.0, 0.0, 0.0, 0.0, 0.0, 0.0, 0.0, 0.0, 0.0, 0.0, 0.0, 0.0, 0.0, 0.0, 0.0, 0.0, 0.0, 0.0, 0.0, 0.0, 0.0, 0.0, 0.0], "bins": [-0.7546485662460327, -0.7546485662460327, -0.7546485662460327, -0.7546485662460327, -0.7546485662460327, -0.7546485662460327, -0.7546485662460327, -0.7546485662460327, -0.7546485662460327, -0.7546485662460327, -0.7546485662460327, -0.7546485662460327, -0.7546485662460327, -0.7546485662460327, -0.7546485662460327, -0.7546485662460327, -0.7546485662460327, -0.7546485662460327, -0.7546485662460327, -0.7546485662460327, -0.7546485662460327, -0.7546485662460327, -0.7546485662460327, -0.7546485662460327, -0.7546485662460327, -0.7546485662460327, -0.7546485662460327, -0.7546485662460327, -0.7546485662460327, -0.7546485662460327, -0.7546485662460327, -0.7546485662460327, -0.7546485662460327, -0.7546485662460327, -0.7546485662460327, -0.7546485662460327, -0.7546485662460327, -0.7546485662460327, -0.7546485662460327, -0.7546485662460327, -0.7546485662460327, -0.7546485662460327, -0.7546485662460327, -0.7546485662460327, -0.7546485662460327, -0.7546485662460327, -0.7546485662460327, -0.7546485662460327, -0.7546485662460327, -0.7546485662460327, -0.7546485662460327, -0.7546485662460327, -0.7546485662460327, -0.7546485662460327, -0.7546485662460327, -0.7546485662460327, -0.7546485662460327, -0.7546485662460327, -0.7546485662460327, -0.7546485662460327, -0.7546485662460327, -0.7546485662460327, -0.7546485662460327, -0.7546485662460327, -0.7546485662460327]}, "parameters/out_att.lin_l.weight": {"_type": "histogram", "values": [1.0, 0.0, 0.0, 1.0, 0.0, 0.0, 0.0, 1.0, 1.0, 0.0, 0.0, 0.0, 0.0, 1.0, 1.0, 0.0, 0.0, 0.0, 1.0, 0.0, 0.0, 0.0, 0.0, 1.0, 1.0, 2.0, 0.0, 1.0, 0.0, 0.0, 1.0, 0.0, 1.0, 0.0, 0.0, 2.0, 2.0, 0.0, 1.0, 1.0, 0.0, 0.0, 0.0, 1.0, 0.0, 0.0, 3.0, 1.0, 1.0, 1.0, 1.0, 0.0, 0.0, 0.0, 2.0, 2.0, 0.0, 2.0, 1.0, 1.0, 1.0, 1.0, 1.0, 1.0], "bins": [-0.44289013743400574, -0.430000901222229, -0.4171116352081299, -0.40422239899635315, -0.3913331627845764, -0.3784438967704773, -0.36555466055870056, -0.35266542434692383, -0.3397761583328247, -0.326886922121048, -0.31399765610694885, -0.3011084198951721, -0.288219153881073, -0.27532991766929626, -0.26244068145751953, -0.2495514303445816, -0.23666217923164368, -0.22377292811870575, -0.21088367700576782, -0.1979944407939911, -0.18510518968105316, -0.17221593856811523, -0.1593267023563385, -0.14643745124340057, -0.13354820013046265, -0.12065894901752472, -0.10776970535516739, -0.09488046169281006, -0.08199121057987213, -0.0691019594669342, -0.056212715804576874, -0.04332347214221954, -0.03043419122695923, -0.0175449438393116, -0.004655696451663971, 0.008233550935983658, 0.021122798323631287, 0.034012049436569214, 0.046901293098926544, 0.059790536761283875, 0.0726797878742218, 0.08556903898715973, 0.09845828264951706, 0.11134752631187439, 0.12423677742481232, 0.13712602853775024, 0.15001526474952698, 0.1629045158624649, 0.17579376697540283, 0.18868301808834076, 0.2015722692012787, 0.21446150541305542, 0.22735075652599335, 0.24024000763893127, 0.253129243850708, 0.26601850986480713, 0.27890774607658386, 0.2917969822883606, 0.3046862483024597, 0.31757548451423645, 0.3304647207260132, 0.3433539867401123, 0.35624322295188904, 0.36913245916366577, 0.3820217251777649]}, "_runtime": 31983, "_timestamp": 1641813373, "_step": 200, "Learning rate value": 9.999999999999788e-05, "Learning rate action": 9.999999999999788e-05, "epsilon": 0.13397967485796175, "action_probs": {"_type": "histogram", "values": [1, 0, 0, 0, 0, 0, 0, 0, 0, 0, 0, 0, 0, 1, 0, 0, 0, 0, 0, 0, 0, 0, 0, 0, 0, 0, 0, 0, 0, 0, 0, 0, 0, 0, 0, 0, 0, 0, 0, 0, 0, 0, 0, 0, 0, 1, 0, 1, 0, 0, 0, 0, 0, 0, 0, 0, 0, 0, 0, 0, 0, 0, 0, 1], "bins": [0.44158074259757996, 0.4503060579299927, 0.459031343460083, 0.4677566587924957, 0.47648194432258606, 0.4852072596549988, 0.4939325451850891, 0.5026578307151794, 0.5113831758499146, 0.5201084613800049, 0.5288337469100952, 0.5375590324401855, 0.5462843775749207, 0.555009663105011, 0.5637349486351013, 0.5724602341651917, 0.5811855792999268, 0.5899108648300171, 0.5986361503601074, 0.6073614358901978, 0.6160867810249329, 0.6248120665550232, 0.6335373520851135, 0.6422626376152039, 0.650987982749939, 0.6597132682800293, 0.6684385538101196, 0.67716383934021, 0.6858891844749451, 0.6946144700050354, 0.7033397555351257, 0.7120650410652161, 0.7207903861999512, 0.7295156717300415, 0.7382409572601318, 0.7469663023948669, 0.7556915879249573, 0.7644168734550476, 0.7731421589851379, 0.781867504119873, 0.7905927896499634, 0.7993180751800537, 0.808043360710144, 0.8167687058448792, 0.8254939913749695, 0.8342192769050598, 0.8429445624351501, 0.8516699075698853, 0.8603951930999756, 0.8691204786300659, 0.8778457641601562, 0.8865711092948914, 0.8952963948249817, 0.904021680355072, 0.9127469658851624, 0.9214723110198975, 0.9301975965499878, 0.9389228820800781, 0.9476481676101685, 0.9563735127449036, 0.9650987982749939, 0.9738240838050842, 0.9825493693351746, 0.9912747144699097, 1.0]}, "stop_go_action": {"_type": "histogram", "values": [4, 0, 0, 0, 0, 0, 0, 0, 0, 0, 0, 0, 0, 0, 0, 0, 0, 0, 0, 0, 0, 0, 0, 0, 0, 0, 0, 0, 0, 0, 0, 0, 0, 0, 0, 0, 0, 0, 0, 0, 0, 0, 0, 0, 0, 0, 0, 0, 0, 0, 0, 0, 0, 0, 0, 0, 0, 0, 0, 0, 0, 0, 0, 1], "bins": [0.0, 0.015625, 0.03125, 0.046875, 0.0625, 0.078125, 0.09375, 0.109375, 0.125, 0.140625, 0.15625, 0.171875, 0.1875, 0.203125, 0.21875, 0.234375, 0.25, 0.265625, 0.28125, 0.296875, 0.3125, 0.328125, 0.34375, 0.359375, 0.375, 0.390625, 0.40625, 0.421875, 0.4375, 0.453125, 0.46875, 0.484375, 0.5, 0.515625, 0.53125, 0.546875, 0.5625, 0.578125, 0.59375, 0.609375, 0.625, 0.640625, 0.65625, 0.671875, 0.6875, 0.703125, 0.71875, 0.734375, 0.75, 0.765625, 0.78125, 0.796875, 0.8125, 0.828125, 0.84375, 0.859375, 0.875, 0.890625, 0.90625, 0.921875, 0.9375, 0.953125, 0.96875, 0.984375, 1.0]}, "node_values": {"_type": "histogram", "values": [1, 0, 1, 0, 0, 0, 0, 0, 0, 0, 0, 0, 0, 0, 1, 0, 0, 0, 0, 0, 0, 0, 0, 0, 0, 0, 0, 0, 0, 0, 0, 0, 0, 0, 0, 0, 0, 0, 0, 0, 0, 0, 0, 0, 0, 0, 0, 0, 0, 0, 0, 0, 0, 0, 0, 0, 0, 0, 0, 1, 0, 0, 0, 1], "bins": [-1.7348560094833374, -1.7132429615594447, -1.691629913635552, -1.6700168657116592, -1.6484038177877665, -1.6267907698638737, -1.605177721939981, -1.5835646740160882, -1.5619516260921955, -1.5403385781683028, -1.51872553024441, -1.4971124823205173, -1.4754994343966246, -1.4538863864727318, -1.432273338548839, -1.4106602906249464, -1.3890472427010536, -1.3674341947771609, -1.3458211468532681, -1.3242080989293754, -1.3025950510054827, -1.28098200308159, -1.2593689551576972, -1.2377559072338045, -1.2161428593099117, -1.194529811386019, -1.1729167634621263, -1.1513037155382335, -1.1296906676143408, -1.108077619690448, -1.0864645717665553, -1.0648515238426626, -1.0432384759187698, -1.021625427994877, -1.0000123800709844, -0.9783993321470916, -0.9567862842231989, -0.9351732362993062, -0.9135601883754134, -0.8919471404515207, -0.870334092527628, -0.8487210446037352, -0.8271079966798425, -0.8054949487559497, -0.783881900832057, -0.7622688529081643, -0.7406558049842715, -0.7190427570603788, -0.697429709136486, -0.6758166612125933, -0.6542036132887006, -0.6325905653648078, -0.6109775174409151, -0.5893644695170224, -0.5677514215931296, -0.5461383736692369, -0.5245253257453442, -0.5029122778214514, -0.4812992298975587, -0.45968618197366595, -0.4380731340497732, -0.4164600861258805, -0.39484703820198774, -0.373233990278095, -0.35162094235420227]}, "episode_rewards": {"_type": "histogram", "values": [1, 0, 0, 0, 0, 0, 0, 0, 0, 0, 0, 0, 0, 0, 0, 0, 0, 0, 0, 0, 0, 0, 0, 0, 0, 0, 0, 0, 0, 0, 0, 0, 0, 0, 0, 0, 0, 0, 0, 0, 1, 0, 0, 0, 0, 0, 0, 0, 0, 0, 0, 0, 0, 0, 0, 0, 0, 0, 0, 0, 0, 0, 0, 1], "bins": [-11.0, -10.828125, -10.65625, -10.484375, -10.3125, -10.140625, -9.96875, -9.796875, -9.625, -9.453125, -9.28125, -9.109375, -8.9375, -8.765625, -8.59375, -8.421875, -8.25, -8.078125, -7.90625, -7.734375, -7.5625, -7.390625, -7.21875, -7.046875, -6.875, -6.703125, -6.53125, -6.359375, -6.1875, -6.015625, -5.84375, -5.671875, -5.5, -5.328125, -5.15625, -4.984375, -4.8125, -4.640625, -4.46875, -4.296875, -4.125, -3.953125, -3.78125, -3.609375, -3.4375, -3.265625, -3.09375, -2.921875, -2.75, -2.578125, -2.40625, -2.234375, -2.0625, -1.890625, -1.71875, -1.546875, -1.375, -1.203125, -1.03125, -0.859375, -0.6875, -0.515625, -0.34375, -0.171875, 0.0]}, "avg_reward": -1330.5, "done_agents": 0.5001984126984127, "deadlock_agents": 0.3586309523809524, "gradients/out_att.bias": {"_type": "histogram", "values": [0.0, 0.0, 0.0, 0.0, 0.0, 0.0, 0.0, 0.0, 0.0, 0.0, 0.0, 0.0, 0.0, 0.0, 0.0, 0.0, 0.0, 0.0, 0.0, 0.0, 0.0, 0.0, 0.0, 0.0, 0.0, 0.0, 0.0, 0.0, 0.0, 0.0, 0.0, 0.0, 1.0, 0.0, 0.0, 0.0, 0.0, 0.0, 0.0, 0.0, 0.0, 0.0, 0.0, 0.0, 0.0, 0.0, 0.0, 0.0, 0.0, 0.0, 0.0, 0.0, 0.0, 0.0, 0.0, 0.0, 0.0, 0.0, 0.0, 0.0, 0.0, 0.0, 0.0, 0.0], "bins": [0.36377933621406555, 0.36377933621406555, 0.36377933621406555, 0.36377933621406555, 0.36377933621406555, 0.36377933621406555, 0.36377933621406555, 0.36377933621406555, 0.36377933621406555, 0.36377933621406555, 0.36377933621406555, 0.36377933621406555, 0.36377933621406555, 0.36377933621406555, 0.36377933621406555, 0.36377933621406555, 0.36377933621406555, 0.36377933621406555, 0.36377933621406555, 0.36377933621406555, 0.36377933621406555, 0.36377933621406555, 0.36377933621406555, 0.36377933621406555, 0.36377933621406555, 0.36377933621406555, 0.36377933621406555, 0.36377933621406555, 0.36377933621406555, 0.36377933621406555, 0.36377933621406555, 0.36377933621406555, 0.36377933621406555, 0.36377933621406555, 0.36377933621406555, 0.36377933621406555, 0.36377933621406555, 0.36377933621406555, 0.36377933621406555, 0.36377933621406555, 0.36377933621406555, 0.36377933621406555, 0.36377933621406555, 0.36377933621406555, 0.36377933621406555, 0.36377933621406555, 0.36377933621406555, 0.36377933621406555, 0.36377933621406555, 0.36377933621406555, 0.36377933621406555, 0.36377933621406555, 0.36377933621406555, 0.36377933621406555, 0.36377933621406555, 0.36377933621406555, 0.36377933621406555, 0.36377933621406555, 0.36377933621406555, 0.36377933621406555, 0.36377933621406555, 0.36377933621406555, 0.36377933621406555, 0.36377933621406555, 0.36377933621406555]}, "gradients/out_att.att_r": {"_type": "histogram", "values": [0.0, 0.0, 0.0, 0.0, 0.0, 0.0, 0.0, 0.0, 0.0, 0.0, 0.0, 0.0, 0.0, 0.0, 0.0, 0.0, 0.0, 0.0, 0.0, 0.0, 0.0, 0.0, 0.0, 0.0, 0.0, 0.0, 0.0, 0.0, 0.0, 0.0, 0.0, 0.0, 1.0, 0.0, 0.0, 0.0, 0.0, 0.0, 0.0, 0.0, 0.0, 0.0, 0.0, 0.0, 0.0, 0.0, 0.0, 0.0, 0.0, 0.0, 0.0, 0.0, 0.0, 0.0, 0.0, 0.0, 0.0, 0.0, 0.0, 0.0, 0.0, 0.0, 0.0, 0.0], "bins": [-4.825702872207399e-17, -4.825702872207399e-17, -4.825702872207399e-17, -4.825702872207399e-17, -4.825702872207399e-17, -4.825702872207399e-17, -4.825702872207399e-17, -4.825702872207399e-17, -4.825702872207399e-17, -4.825702872207399e-17, -4.825702872207399e-17, -4.825702872207399e-17, -4.825702872207399e-17, -4.825702872207399e-17, -4.825702872207399e-17, -4.825702872207399e-17, -4.825702872207399e-17, -4.825702872207399e-17, -4.825702872207399e-17, -4.825702872207399e-17, -4.825702872207399e-17, -4.825702872207399e-17, -4.825702872207399e-17, -4.825702872207399e-17, -4.825702872207399e-17, -4.825702872207399e-17, -4.825702872207399e-17, -4.825702872207399e-17, -4.825702872207399e-17, -4.825702872207399e-17, -4.825702872207399e-17, -4.825702872207399e-17, -4.825702872207399e-17, -4.825702872207399e-17, -4.825702872207399e-17, -4.825702872207399e-17, -4.825702872207399e-17, -4.825702872207399e-17, -4.825702872207399e-17, -4.825702872207399e-17, -4.825702872207399e-17, -4.825702872207399e-17, -4.825702872207399e-17, -4.825702872207399e-17, -4.825702872207399e-17, -4.825702872207399e-17, -4.825702872207399e-17, -4.825702872207399e-17, -4.825702872207399e-17, -4.825702872207399e-17, -4.825702872207399e-17, -4.825702872207399e-17, -4.825702872207399e-17, -4.825702872207399e-17, -4.825702872207399e-17, -4.825702872207399e-17, -4.825702872207399e-17, -4.825702872207399e-17, -4.825702872207399e-17, -4.825702872207399e-17, -4.825702872207399e-17, -4.825702872207399e-17, -4.825702872207399e-17, -4.825702872207399e-17, -4.825702872207399e-17]}, "gradients/out_att.att_l": {"_type": "histogram", "values": [0.0, 0.0, 0.0, 0.0, 0.0, 0.0, 0.0, 0.0, 0.0, 0.0, 0.0, 0.0, 0.0, 0.0, 0.0, 0.0, 0.0, 0.0, 0.0, 0.0, 0.0, 0.0, 0.0, 0.0, 0.0, 0.0, 0.0, 0.0, 0.0, 0.0, 0.0, 0.0, 1.0, 0.0, 0.0, 0.0, 0.0, 0.0, 0.0, 0.0, 0.0, 0.0, 0.0, 0.0, 0.0, 0.0, 0.0, 0.0, 0.0, 0.0, 0.0, 0.0, 0.0, 0.0, 0.0, 0.0, 0.0, 0.0, 0.0, 0.0, 0.0, 0.0, 0.0, 0.0], "bins": [6.614531901179055e-17, 6.614531901179055e-17, 6.614531901179055e-17, 6.614531901179055e-17, 6.614531901179055e-17, 6.614531901179055e-17, 6.614531901179055e-17, 6.614531901179055e-17, 6.614531901179055e-17, 6.614531901179055e-17, 6.614531901179055e-17, 6.614531901179055e-17, 6.614531901179055e-17, 6.614531901179055e-17, 6.614531901179055e-17, 6.614531901179055e-17, 6.614531901179055e-17, 6.614531901179055e-17, 6.614531901179055e-17, 6.614531901179055e-17, 6.614531901179055e-17, 6.614531901179055e-17, 6.614531901179055e-17, 6.614531901179055e-17, 6.614531901179055e-17, 6.614531901179055e-17, 6.614531901179055e-17, 6.614531901179055e-17, 6.614531901179055e-17, 6.614531901179055e-17, 6.614531901179055e-17, 6.614531901179055e-17, 6.614531901179055e-17, 6.614531901179055e-17, 6.614531901179055e-17, 6.614531901179055e-17, 6.614531901179055e-17, 6.614531901179055e-17, 6.614531901179055e-17, 6.614531901179055e-17, 6.614531901179055e-17, 6.614531901179055e-17, 6.614531901179055e-17, 6.614531901179055e-17, 6.614531901179055e-17, 6.614531901179055e-17, 6.614531901179055e-17, 6.614531901179055e-17, 6.614531901179055e-17, 6.614531901179055e-17, 6.614531901179055e-17, 6.614531901179055e-17, 6.614531901179055e-17, 6.614531901179055e-17, 6.614531901179055e-17, 6.614531901179055e-17, 6.614531901179055e-17, 6.614531901179055e-17, 6.614531901179055e-17, 6.614531901179055e-17, 6.614531901179055e-17, 6.614531901179055e-17, 6.614531901179055e-17, 6.614531901179055e-17, 6.614531901179055e-17]}, "gradients/out_att.lin_l.weight": {"_type": "histogram", "values": [1.0, 0.0, 0.0, 0.0, 0.0, 0.0, 0.0, 0.0, 0.0, 0.0, 0.0, 0.0, 0.0, 0.0, 0.0, 0.0, 0.0, 0.0, 0.0, 0.0, 0.0, 0.0, 0.0, 0.0, 0.0, 0.0, 0.0, 0.0, 0.0, 0.0, 0.0, 0.0, 0.0, 0.0, 0.0, 0.0, 0.0, 0.0, 0.0, 0.0, 0.0, 0.0, 0.0, 0.0, 1.0, 0.0, 0.0, 0.0, 0.0, 0.0, 33.0, 2.0, 1.0, 0.0, 0.0, 0.0, 0.0, 0.0, 0.0, 0.0, 0.0, 0.0, 0.0, 2.0], "bins": [-3.479056276042418e-16, -3.410322728746284e-16, -3.3415894461479457e-16, -3.2728558988518114e-16, -3.204122616253473e-16, -3.135389068957339e-16, -3.0666557863590006e-16, -2.9979222390628664e-16, -2.929188956464528e-16, -2.860455409168394e-16, -2.7917221265700556e-16, -2.7229885792739213e-16, -2.654255296675583e-16, -2.585521749379449e-16, -2.5167884667811106e-16, -2.4480549194849763e-16, -2.379321372188842e-16, -2.310587824892708e-16, -2.2418545422943695e-16, -2.1731211273471332e-16, -2.104387712399897e-16, -2.0356542974526607e-16, -1.9669208825054245e-16, -1.8981873352092902e-16, -1.829454052610952e-16, -1.7607206376637157e-16, -1.6919872227164794e-16, -1.6232538077692432e-16, -1.554520392822007e-16, -1.4857869778747706e-16, -1.4170535629275344e-16, -1.3483200156314e-16, -1.2795867330330619e-16, -1.2108533180858256e-16, -1.1421199031385893e-16, -1.0733864881913531e-16, -1.0046530732441168e-16, -9.359196582968806e-17, -8.671861771751953e-17, -7.98452762227959e-17, -7.297194134551718e-17, -6.609859985079355e-17, -5.922525835606993e-17, -5.235191355262385e-17, -4.5478572057900223e-17, -3.86052305631766e-17, -3.173188575973052e-17, -2.4858544265006895e-17, -1.798520277028327e-17, -1.111186044837903e-17, -4.238518126474792e-18, 2.6348250226100595e-18, 9.508166517333686e-18, 1.6381508012057312e-17, 2.3254852815503388e-17, 3.0128194310227014e-17, 3.700153580495064e-17, 4.3874877299674266e-17, 5.074821879439789e-17, 5.762156028912152e-17, 6.449490178384514e-17, 7.136824327856877e-17, 7.82415913907373e-17, 8.511493288546092e-17, 9.198827438018455e-17]}, "gradients/attention_2.bias": {"_type": "histogram", "values": [1.0, 0.0, 0.0, 0.0, 0.0, 0.0, 0.0, 0.0, 0.0, 0.0, 0.0, 0.0, 0.0, 0.0, 0.0, 0.0, 0.0, 1.0, 0.0, 0.0, 0.0, 0.0, 0.0, 1.0, 0.0, 0.0, 0.0, 0.0, 0.0, 0.0, 1.0, 0.0, 1.0, 1.0, 0.0, 0.0, 1.0, 2.0, 0.0, 0.0, 0.0, 20.0, 2.0, 1.0, 0.0, 1.0, 1.0, 0.0, 2.0, 1.0, 0.0, 0.0, 0.0, 0.0, 1.0, 0.0, 0.0, 1.0, 0.0, 0.0, 0.0, 0.0, 0.0, 1.0], "bins": [-2.4438548685657077e-18, -2.384799549503403e-18, -2.3257444372362516e-18, -2.266689118173947e-18, -2.2076340059067956e-18, -2.148578686844491e-18, -2.0895235745773396e-18, -2.030468255515035e-18, -1.9714129364527304e-18, -1.912357617390426e-18, -1.8533025051232744e-18, -1.79424718606097e-18, -1.7351920737938184e-18, -1.6761367547315138e-18, -1.6170815390667858e-18, -1.5580263234020578e-18, -1.4989712111349063e-18, -1.4399159954701783e-18, -1.3808607798054503e-18, -1.3218055641407223e-18, -1.2627503484759943e-18, -1.2036950294136897e-18, -1.1446398137489617e-18, -1.0855845980842337e-18, -1.0265293824195057e-18, -9.674741667547777e-19, -9.084189510900496e-19, -8.4936368372653335e-19, -7.903084680618053e-19, -7.312532523970773e-19, -6.72197985033561e-19, -6.13142769368833e-19, -5.540873469089519e-19, -4.950321312442239e-19, -4.359769155794958e-19, -3.7692164821597954e-19, -3.1786643255125153e-19, -2.588112168865235e-19, -1.9975597537240136e-19, -1.407007338582792e-19, -8.16455181935512e-20, -2.2590289604126115e-20, 3.646493898529897e-20, 9.552016757472405e-20, 1.5457539616414914e-19, 2.1363061182887715e-19, 2.726858533429993e-19, 3.3174109485712146e-19, 3.9079631052184947e-19, 4.498515261865775e-19, 5.089067418513055e-19, 5.679620092148218e-19, 6.270172248795498e-19, 6.860724405442778e-19, 7.451277079077941e-19, 8.041829235725221e-19, 8.632381392372501e-19, 9.222933549019781e-19, 9.813485705667062e-19, 1.0404037862314342e-18, 1.0994591052937388e-18, 1.1585142175608902e-18, 1.2175695366231948e-18, 1.2766247522879228e-18, 1.3356799679526508e-18]}, "gradients/attention_2.att_r": {"_type": "histogram", "values": [0.0, 0.0, 0.0, 0.0, 0.0, 0.0, 0.0, 0.0, 0.0, 0.0, 0.0, 0.0, 0.0, 0.0, 0.0, 0.0, 0.0, 0.0, 0.0, 0.0, 0.0, 0.0, 0.0, 0.0, 0.0, 0.0, 0.0, 0.0, 0.0, 0.0, 0.0, 0.0, 40.0, 0.0, 0.0, 0.0, 0.0, 0.0, 0.0, 0.0, 0.0, 0.0, 0.0, 0.0, 0.0, 0.0, 0.0, 0.0, 0.0, 0.0, 0.0, 0.0, 0.0, 0.0, 0.0, 0.0, 0.0, 0.0, 0.0, 0.0, 0.0, 0.0, 0.0, 0.0], "bins": [0.0, 0.0, 0.0, 0.0, 0.0, 0.0, 0.0, 0.0, 0.0, 0.0, 0.0, 0.0, 0.0, 0.0, 0.0, 0.0, 0.0, 0.0, 0.0, 0.0, 0.0, 0.0, 0.0, 0.0, 0.0, 0.0, 0.0, 0.0, 0.0, 0.0, 0.0, 0.0, 0.0, 0.0, 0.0, 0.0, 0.0, 0.0, 0.0, 0.0, 0.0, 0.0, 0.0, 0.0, 0.0, 0.0, 0.0, 0.0, 0.0, 0.0, 0.0, 0.0, 0.0, 0.0, 0.0, 0.0, 0.0, 0.0, 0.0, 0.0, 0.0, 0.0, 0.0, 0.0, 0.0]}, "gradients/attention_2.att_l": {"_type": "histogram", "values": [2.0, 0.0, 0.0, 0.0, 0.0, 0.0, 0.0, 0.0, 0.0, 0.0, 0.0, 1.0, 30.0, 0.0, 0.0, 0.0, 0.0, 0.0, 0.0, 0.0, 0.0, 1.0, 0.0, 0.0, 0.0, 1.0, 1.0, 1.0, 0.0, 0.0, 0.0, 1.0, 0.0, 0.0, 0.0, 0.0, 0.0, 0.0, 0.0, 0.0, 0.0, 0.0, 0.0, 0.0, 1.0, 0.0, 0.0, 0.0, 0.0, 0.0, 0.0, 0.0, 0.0, 0.0, 0.0, 0.0, 0.0, 0.0, 0.0, 0.0, 0.0, 0.0, 0.0, 1.0], "bins": [-1.0351682777632495e-35, -9.505047033763091e-36, -8.658412007358502e-36, -7.811776263489098e-36, -6.965141237084509e-36, -6.118505493215105e-36, -5.271869749345702e-36, -4.425234364208705e-36, -3.578598979071709e-36, -2.7319635939347123e-36, -1.8853280294315123e-36, -1.0386924649283124e-36, -1.9205707979131586e-37, 6.5457830534568066e-37, 1.501214049215084e-36, 2.3478494343520806e-36, 3.194484819489077e-36, 4.0411202046260736e-36, 4.88775558976307e-36, 5.7343913336324735e-36, 6.581026360037063e-36, 7.427662103906467e-36, 8.27429784777587e-36, 9.120933591645273e-36, 9.967568618049863e-36, 1.0814204361919266e-35, 1.1660839388323856e-35, 1.250747513219326e-35, 1.3354110876062663e-35, 1.4200746619932066e-35, 1.5047380928871842e-35, 1.5894016672741245e-35, 1.674065241661065e-35, 1.7587288160480052e-35, 1.8433923904349456e-35, 1.9280558213289232e-35, 2.0127193957158635e-35, 2.0973829701028038e-35, 2.1820465444897442e-35, 2.2667101188766845e-35, 2.351373549770662e-35, 2.4360369806646397e-35, 2.520700698544543e-35, 2.6053641294385204e-35, 2.6900278473184235e-35, 2.774691278212401e-35, 2.859354996092304e-35, 2.9440184269862817e-35, 3.0286818578802593e-35, 3.113345288774237e-35, 3.19800900665414e-35, 3.2826724375481176e-35, 3.3673361554280207e-35, 3.451999586321998e-35, 3.536663017215976e-35, 3.621326735095879e-35, 3.705990452975782e-35, 3.7906538838697596e-35, 3.8753176017496627e-35, 3.9599810326436403e-35, 4.0446447505235434e-35, 4.129308181417521e-35, 4.2139716123114986e-35, 4.2986353301914016e-35, 4.383298761085379e-35]}, "gradients/attention_2.lin_l.weight": {"_type": "histogram", "values": [1.0, 0.0, 0.0, 0.0, 0.0, 0.0, 0.0, 0.0, 0.0, 0.0, 0.0, 0.0, 0.0, 0.0, 0.0, 0.0, 2.0, 0.0, 1.0, 0.0, 0.0, 0.0, 1.0, 0.0, 0.0, 0.0, 0.0, 0.0, 0.0, 0.0, 0.0, 0.0, 0.0, 0.0, 0.0, 0.0, 0.0, 0.0, 0.0, 1.0, 0.0, 0.0, 0.0, 0.0, 1.0, 0.0, 0.0, 0.0, 0.0, 0.0, 0.0, 0.0, 0.0, 1.0, 0.0, 0.0, 1.0, 0.0, 0.0, 0.0, 0.0, 0.0, 5.0, 1586.0], "bins": [-4.583935316863788e-16, -4.511322888064821e-16, -4.4387104592658543e-16, -4.3660980304668874e-16, -4.2934856016679204e-16, -4.2208731728689535e-16, -4.1482607440699866e-16, -4.0756483152710197e-16, -4.0030358864720527e-16, -3.930423457673086e-16, -3.857811028874119e-16, -3.785198600075152e-16, -3.712586171276185e-16, -3.639973742477218e-16, -3.567361313678251e-16, -3.494748884879284e-16, -3.4221361913825213e-16, -3.3495237625835543e-16, -3.2769113337845874e-16, -3.2042989049856205e-16, -3.1316864761866535e-16, -3.0590740473876866e-16, -2.9864616185887197e-16, -2.9138489250919567e-16, -2.84123649629299e-16, -2.768624067494023e-16, -2.696011638695056e-16, -2.623399209896089e-16, -2.550786781097122e-16, -2.478174352298155e-16, -2.405561923499188e-16, -2.3329494947002213e-16, -2.2603373305990504e-16, -2.1877249018000834e-16, -2.1151124730011165e-16, -2.0425000442021496e-16, -1.9698876154031827e-16, -1.8972751866042157e-16, -1.8246626254563508e-16, -1.7520501966573839e-16, -1.679437767858417e-16, -1.60682533905945e-16, -1.534212910260483e-16, -1.4616004814615161e-16, -1.3889879203136512e-16, -1.3163754915146843e-16, -1.2437630627157173e-16, -1.1711506339167504e-16, -1.0985382051177835e-16, -1.0259257763188165e-16, -9.533133475198496e-17, -8.807008525464337e-17, -8.080884237474667e-17, -7.354759949484998e-17, -6.628634999750839e-17, -5.90251071176117e-17, -5.176386092899255e-17, -4.450261474037341e-17, -3.7241371860476715e-17, -2.998012898058002e-17, -2.271888279196088e-17, -1.5457639912064186e-17, -8.196393723445042e-18, -9.35147534825899e-19, 6.326094931480488e-18]}, "gradients/attention_1.bias": {"_type": "histogram", "values": [1.0, 0.0, 0.0, 0.0, 0.0, 0.0, 2.0, 0.0, 1.0, 0.0, 1.0, 0.0, 0.0, 0.0, 0.0, 0.0, 1.0, 0.0, 1.0, 1.0, 2.0, 2.0, 2.0, 0.0, 0.0, 0.0, 0.0, 4.0, 1.0, 0.0, 5.0, 2.0, 0.0, 1.0, 0.0, 0.0, 0.0, 0.0, 2.0, 0.0, 0.0, 3.0, 0.0, 1.0, 1.0, 0.0, 0.0, 0.0, 0.0, 0.0, 1.0, 0.0, 0.0, 0.0, 1.0, 1.0, 0.0, 0.0, 0.0, 0.0, 0.0, 1.0, 0.0, 2.0], "bins": [-2.361157693620872e-18, -2.293573522057686e-18, -2.2259895572896536e-18, -2.158405385726468e-18, -2.0908214209584353e-18, -2.0232372493952496e-18, -1.955653077832064e-18, -1.8880691130640313e-18, -1.8204849415008456e-18, -1.75290076993766e-18, -1.6853168051696273e-18, -1.6177326336064416e-18, -1.5501485654408325e-18, -1.4825644972752233e-18, -1.4149804291096142e-18, -1.347396360944005e-18, -1.2798122927783959e-18, -1.2122282246127867e-18, -1.1446441564471776e-18, -1.0770600882815685e-18, -1.0094759167183827e-18, -9.418918485527736e-19, -8.743077803871645e-19, -8.06723660522767e-19, -7.391395923571579e-19, -6.715555241915487e-19, -6.039714043271513e-19, -5.363873361615422e-19, -4.68803267995933e-19, -4.012191481315356e-19, -3.3363507996592647e-19, -2.6605096010152904e-19, -1.984668919359199e-19, -1.3088279792091661e-19, -6.32987168306104e-20, 4.2853642596958136e-21, 7.18694582746991e-20, 1.3945355228970238e-19, 2.0703762045531152e-19, 2.7462174031970895e-19, 3.422058084853181e-19, 4.097899025003214e-19, 4.773739965153247e-19, 5.449580646809338e-19, 6.125421328465429e-19, 6.801262527109404e-19, 7.477103208765495e-19, 8.152944407409469e-19, 8.82878508906556e-19, 9.504625770721652e-19, 1.0180466452377744e-18, 1.0856307134033835e-18, 1.1532148849665692e-18, 1.2207989531321784e-18, 1.2883830212977875e-18, 1.3559671928609732e-18, 1.4235511576290058e-18, 1.491135225794615e-18, 1.558719293960224e-18, 1.6263034655234098e-18, 1.693887533689019e-18, 1.761471601854628e-18, 1.8290555666226606e-18, 1.8966397381858464e-18, 1.964223909749032e-18]}, "gradients/attention_1.att_r": {"_type": "histogram", "values": [0.0, 0.0, 0.0, 0.0, 0.0, 0.0, 0.0, 0.0, 0.0, 0.0, 0.0, 0.0, 0.0, 0.0, 0.0, 0.0, 0.0, 0.0, 0.0, 0.0, 0.0, 0.0, 0.0, 0.0, 0.0, 0.0, 0.0, 0.0, 0.0, 0.0, 0.0, 0.0, 40.0, 0.0, 0.0, 0.0, 0.0, 0.0, 0.0, 0.0, 0.0, 0.0, 0.0, 0.0, 0.0, 0.0, 0.0, 0.0, 0.0, 0.0, 0.0, 0.0, 0.0, 0.0, 0.0, 0.0, 0.0, 0.0, 0.0, 0.0, 0.0, 0.0, 0.0, 0.0], "bins": [0.0, 0.0, 0.0, 0.0, 0.0, 0.0, 0.0, 0.0, 0.0, 0.0, 0.0, 0.0, 0.0, 0.0, 0.0, 0.0, 0.0, 0.0, 0.0, 0.0, 0.0, 0.0, 0.0, 0.0, 0.0, 0.0, 0.0, 0.0, 0.0, 0.0, 0.0, 0.0, 0.0, 0.0, 0.0, 0.0, 0.0, 0.0, 0.0, 0.0, 0.0, 0.0, 0.0, 0.0, 0.0, 0.0, 0.0, 0.0, 0.0, 0.0, 0.0, 0.0, 0.0, 0.0, 0.0, 0.0, 0.0, 0.0, 0.0, 0.0, 0.0, 0.0, 0.0, 0.0, 0.0]}, "gradients/attention_1.att_l": {"_type": "histogram", "values": [0.0, 0.0, 0.0, 0.0, 0.0, 0.0, 0.0, 0.0, 0.0, 0.0, 0.0, 0.0, 0.0, 0.0, 0.0, 0.0, 0.0, 0.0, 0.0, 0.0, 0.0, 0.0, 0.0, 0.0, 0.0, 0.0, 0.0, 0.0, 0.0, 0.0, 0.0, 0.0, 40.0, 0.0, 0.0, 0.0, 0.0, 0.0, 0.0, 0.0, 0.0, 0.0, 0.0, 0.0, 0.0, 0.0, 0.0, 0.0, 0.0, 0.0, 0.0, 0.0, 0.0, 0.0, 0.0, 0.0, 0.0, 0.0, 0.0, 0.0, 0.0, 0.0, 0.0, 0.0], "bins": [0.0, 0.0, 0.0, 0.0, 0.0, 0.0, 0.0, 0.0, 0.0, 0.0, 0.0, 0.0, 0.0, 0.0, 0.0, 0.0, 0.0, 0.0, 0.0, 0.0, 0.0, 0.0, 0.0, 0.0, 0.0, 0.0, 0.0, 0.0, 0.0, 0.0, 0.0, 0.0, 0.0, 0.0, 0.0, 0.0, 0.0, 0.0, 0.0, 0.0, 0.0, 0.0, 0.0, 0.0, 0.0, 0.0, 0.0, 0.0, 0.0, 0.0, 0.0, 0.0, 0.0, 0.0, 0.0, 0.0, 0.0, 0.0, 0.0, 0.0, 0.0, 0.0, 0.0, 0.0, 0.0]}, "gradients/attention_1.lin_l.weight": {"_type": "histogram", "values": [0.0, 0.0, 0.0, 0.0, 0.0, 0.0, 0.0, 0.0, 0.0, 0.0, 0.0, 0.0, 0.0, 0.0, 0.0, 0.0, 0.0, 0.0, 0.0, 0.0, 0.0, 0.0, 0.0, 0.0, 0.0, 0.0, 0.0, 0.0, 0.0, 0.0, 0.0, 0.0, 1600.0, 0.0, 0.0, 0.0, 0.0, 0.0, 0.0, 0.0, 0.0, 0.0, 0.0, 0.0, 0.0, 0.0, 0.0, 0.0, 0.0, 0.0, 0.0, 0.0, 0.0, 0.0, 0.0, 0.0, 0.0, 0.0, 0.0, 0.0, 0.0, 0.0, 0.0, 0.0], "bins": [0.0, 0.0, 0.0, 0.0, 0.0, 0.0, 0.0, 0.0, 0.0, 0.0, 0.0, 0.0, 0.0, 0.0, 0.0, 0.0, 0.0, 0.0, 0.0, 0.0, 0.0, 0.0, 0.0, 0.0, 0.0, 0.0, 0.0, 0.0, 0.0, 0.0, 0.0, 0.0, 0.0, 0.0, 0.0, 0.0, 0.0, 0.0, 0.0, 0.0, 0.0, 0.0, 0.0, 0.0, 0.0, 0.0, 0.0, 0.0, 0.0, 0.0, 0.0, 0.0, 0.0, 0.0, 0.0, 0.0, 0.0, 0.0, 0.0, 0.0, 0.0, 0.0, 0.0, 0.0, 0.0]}, "gradients/attention_0.bias": {"_type": "histogram", "values": [1.0, 0.0, 0.0, 0.0, 0.0, 0.0, 1.0, 0.0, 2.0, 0.0, 1.0, 0.0, 0.0, 0.0, 0.0, 0.0, 1.0, 0.0, 1.0, 1.0, 2.0, 1.0, 2.0, 0.0, 0.0, 0.0, 0.0, 4.0, 1.0, 0.0, 1.0, 3.0, 1.0, 0.0, 7.0, 0.0, 0.0, 0.0, 1.0, 0.0, 1.0, 0.0, 2.0, 0.0, 0.0, 0.0, 0.0, 0.0, 0.0, 0.0, 1.0, 0.0, 0.0, 0.0, 1.0, 1.0, 0.0, 0.0, 0.0, 1.0, 0.0, 1.0, 0.0, 1.0], "bins": [-2.361157693620872e-18, -2.293573522057686e-18, -2.2259895572896536e-18, -2.158405385726468e-18, -2.0908214209584353e-18, -2.0232372493952496e-18, -1.955653077832064e-18, -1.8880691130640313e-18, -1.8204849415008456e-18, -1.75290076993766e-18, -1.6853168051696273e-18, -1.6177326336064416e-18, -1.5501485654408325e-18, -1.4825644972752233e-18, -1.4149804291096142e-18, -1.347396360944005e-18, -1.2798122927783959e-18, -1.2122282246127867e-18, -1.1446441564471776e-18, -1.0770600882815685e-18, -1.0094759167183827e-18, -9.418918485527736e-19, -8.743077803871645e-19, -8.06723660522767e-19, -7.391395923571579e-19, -6.715555241915487e-19, -6.039714043271513e-19, -5.363873361615422e-19, -4.68803267995933e-19, -4.012191481315356e-19, -3.3363507996592647e-19, -2.6605096010152904e-19, -1.984668919359199e-19, -1.3088279792091661e-19, -6.32987168306104e-20, 4.2853642596958136e-21, 7.18694582746991e-20, 1.3945355228970238e-19, 2.0703762045531152e-19, 2.7462174031970895e-19, 3.422058084853181e-19, 4.097899025003214e-19, 4.773739965153247e-19, 5.449580646809338e-19, 6.125421328465429e-19, 6.801262527109404e-19, 7.477103208765495e-19, 8.152944407409469e-19, 8.82878508906556e-19, 9.504625770721652e-19, 1.0180466452377744e-18, 1.0856307134033835e-18, 1.1532148849665692e-18, 1.2207989531321784e-18, 1.2883830212977875e-18, 1.3559671928609732e-18, 1.4235511576290058e-18, 1.491135225794615e-18, 1.558719293960224e-18, 1.6263034655234098e-18, 1.693887533689019e-18, 1.761471601854628e-18, 1.8290555666226606e-18, 1.8966397381858464e-18, 1.964223909749032e-18]}, "gradients/attention_0.att_r": {"_type": "histogram", "values": [1.0, 0.0, 0.0, 0.0, 0.0, 0.0, 0.0, 0.0, 0.0, 0.0, 0.0, 2.0, 0.0, 0.0, 0.0, 0.0, 0.0, 0.0, 0.0, 0.0, 0.0, 0.0, 1.0, 0.0, 1.0, 0.0, 0.0, 0.0, 0.0, 1.0, 0.0, 0.0, 0.0, 0.0, 0.0, 1.0, 0.0, 0.0, 2.0, 0.0, 21.0, 1.0, 1.0, 0.0, 0.0, 0.0, 1.0, 0.0, 0.0, 0.0, 2.0, 0.0, 0.0, 0.0, 0.0, 0.0, 0.0, 0.0, 0.0, 2.0, 0.0, 2.0, 0.0, 1.0], "bins": [-2.9266477252738672e-18, -2.8550296006584135e-18, -2.78341147604296e-18, -2.711793351427506e-18, -2.6401752268120525e-18, -2.5685571021965988e-18, -2.496938977581145e-18, -2.4253210597608445e-18, -2.353702935145391e-18, -2.282084810529937e-18, -2.2104666859144835e-18, -2.1388485612990298e-18, -2.067230436683576e-18, -1.9956125188632755e-18, -1.923994394247822e-18, -1.852376269632368e-18, -1.7807581450169145e-18, -1.7091400204014608e-18, -1.637521895786007e-18, -1.5659037711705534e-18, -1.4942857499526763e-18, -1.4226676253372226e-18, -1.3510495007217689e-18, -1.2794314795038918e-18, -1.207813148093285e-18, -1.1361950234778313e-18, -1.0645768988623776e-18, -9.929587742469239e-19, -9.213407530290468e-19, -8.497226284135931e-19, -7.781045037981394e-19, -7.06486430881474e-19, -6.3486846136238515e-19, -5.632503367469315e-19, -4.916322638302661e-19, -4.2001413921481237e-19, -3.483960404487528e-19, -2.7677794168269327e-19, -2.0515981706723958e-19, -1.3354174415057418e-19, -6.192361953512049e-20, 9.694485693287593e-21, 8.131259092169568e-20, 1.529307026124523e-19, 2.2454880137851184e-19, 2.961669001445714e-19, 3.677850247600251e-19, 4.394030976766905e-19, 5.110212222921442e-19, 5.826393469075979e-19, 6.542574198242633e-19, 7.25875544439717e-19, 7.974936173563824e-19, 8.69111741971836e-19, 9.407298665872897e-19, 1.0123478878051669e-18, 1.0839660124206205e-18, 1.1555841370360742e-18, 1.227202261651528e-18, 1.2988203862669816e-18, 1.3704384074848587e-18, 1.4420565321003124e-18, 1.5136746567157661e-18, 1.5852926779336432e-18, 1.6569109059466735e-18]}, "gradients/attention_0.att_l": {"_type": "histogram", "values": [1.0, 0.0, 0.0, 0.0, 0.0, 0.0, 0.0, 0.0, 0.0, 0.0, 1.0, 0.0, 0.0, 0.0, 0.0, 0.0, 0.0, 0.0, 0.0, 1.0, 0.0, 1.0, 2.0, 0.0, 0.0, 0.0, 2.0, 0.0, 0.0, 1.0, 21.0, 2.0, 2.0, 0.0, 1.0, 1.0, 1.0, 0.0, 0.0, 0.0, 0.0, 0.0, 0.0, 0.0, 0.0, 0.0, 1.0, 0.0, 0.0, 0.0, 0.0, 0.0, 0.0, 0.0, 0.0, 0.0, 0.0, 0.0, 0.0, 0.0, 0.0, 1.0, 0.0, 1.0], "bins": [-8.417052423649688e-18, -8.139490314746294e-18, -7.861928205842901e-18, -7.584365269758895e-18, -7.306803160855501e-18, -7.029241051952108e-18, -6.751678943048714e-18, -6.474116834145321e-18, -6.196554311651621e-18, -5.918992202748227e-18, -5.6414296802545275e-18, -5.363867571351134e-18, -5.08630546244774e-18, -4.8087429399540406e-18, -4.531180831050647e-18, -4.253618308556947e-18, -3.976056199653554e-18, -3.69849409075016e-18, -3.4209315682564603e-18, -3.1433694593530667e-18, -2.86580714365452e-18, -2.5882448279559734e-18, -2.31068271905258e-18, -2.033120403354033e-18, -1.7555580876554865e-18, -1.4779957719569398e-18, -1.2004335596559697e-18, -9.228713473549996e-19, -6.453090316564529e-19, -3.677467159579062e-19, -9.01845036569361e-20, 1.87377708644034e-19, 4.649400243425807e-19, 7.425022883423391e-19, 1.0200645523420975e-18, 1.2976267646430676e-18, 1.5751890803416143e-18, 1.852751396040161e-18, 2.1303135049435545e-18, 2.407875820642101e-18, 2.685438136340648e-18, 2.9630004520391945e-18, 3.2405627677377412e-18, 3.518124876641135e-18, 3.795686985544528e-18, 4.073249508038228e-18, 4.350811616941622e-18, 4.6283741394353215e-18, 4.905936248338715e-18, 5.1834983572421086e-18, 5.4610608797358084e-18, 5.738622988639202e-18, 6.016185511132902e-18, 6.293747620036295e-18, 6.571309728939689e-18, 6.848871837843082e-18, 7.126433946746476e-18, 7.40399605564987e-18, 7.681558164553263e-18, 7.959121100637269e-18, 8.236683209540663e-18, 8.514245318444056e-18, 8.79180742734745e-18, 9.069369536250843e-18, 9.34693247233485e-18]}, "gradients/attention_0.lin_l.weight": {"_type": "histogram", "values": [1.0, 0.0, 0.0, 0.0, 0.0, 0.0, 0.0, 0.0, 0.0, 0.0, 1.0, 0.0, 0.0, 0.0, 0.0, 0.0, 0.0, 0.0, 0.0, 2.0, 0.0, 1.0, 0.0, 1.0, 0.0, 0.0, 0.0, 0.0, 0.0, 0.0, 1.0, 1.0, 541.0, 2.0, 4.0, 0.0, 1.0, 0.0, 0.0, 0.0, 1.0, 0.0, 0.0, 0.0, 0.0, 0.0, 0.0, 1.0, 0.0, 0.0, 0.0, 0.0, 0.0, 0.0, 0.0, 0.0, 1.0, 0.0, 0.0, 0.0, 0.0, 0.0, 0.0, 1.0], "bins": [-2.730078774438032e-16, -2.6468953744573313e-16, -2.5637122391744267e-16, -2.480528839193726e-16, -2.3973454392130255e-16, -2.314162303930121e-16, -2.2309789039494203e-16, -2.1477955039687197e-16, -2.064612236336917e-16, -1.9814289687051145e-16, -1.898245568724414e-16, -1.8150623010926113e-16, -1.7318790334608087e-16, -1.6486956334801081e-16, -1.5655123658483056e-16, -1.482329098216503e-16, -1.3991456982358024e-16, -1.3159624306039998e-16, -1.2327790306232992e-16, -1.1495957629914966e-16, -1.066412429185245e-16, -9.832290953789934e-17, -9.000458277471908e-17, -8.168624939409392e-17, -7.336791601346876e-17, -6.50495826328436e-17, -5.673124925221844e-17, -4.8412922489038184e-17, -4.0094589108413025e-17, -3.1776255727787865e-17, -2.3457925655885156e-17, -1.5139595583982447e-17, -6.821235733577686e-18, 1.4970959926862486e-18, 9.815427718950183e-18, 1.8133759445214117e-17, 2.6452091171478052e-17, 3.477042455210321e-17, 4.308875462400592e-17, 5.140708469590863e-17, 5.972541807653379e-17, 6.804375145715895e-17, 7.636208483778411e-17, 8.468041160096437e-17, 9.299874498158953e-17, 1.0131707836221469e-16, 1.0963540512539494e-16, 1.179537318885752e-16, 1.2627207188664526e-16, 1.3459039864982552e-16, 1.4290873864789558e-16, 1.5122706541107584e-16, 1.595454054091459e-16, 1.6786373217232616e-16, 1.7618205893550642e-16, 1.8450039893357648e-16, 1.9281872569675674e-16, 2.01137052459937e-16, 2.0945539245800706e-16, 2.1777371922118732e-16, 2.260920459843676e-16, 2.3441038598243764e-16, 2.427287259805077e-16, 2.5104703950879815e-16, 2.593653795068682e-16]}, "mean_loss": 0.3456086814403534, "_wandb": {"runtime": 31984}}