{"parameters/attention_0.att_l": {"_type": "histogram", "values": [1.0, 1.0, 0.0, 0.0, 0.0, 0.0, 0.0, 1.0, 0.0, 1.0, 0.0, 2.0, 0.0, 1.0, 1.0, 1.0, 1.0, 1.0, 0.0, 1.0, 0.0, 1.0, 0.0, 0.0, 1.0, 2.0, 1.0, 1.0, 0.0, 0.0, 0.0, 0.0, 0.0, 0.0, 2.0, 1.0, 0.0, 1.0, 0.0, 0.0, 1.0, 0.0, 0.0, 0.0, 1.0, 1.0, 1.0, 1.0, 1.0, 2.0, 1.0, 3.0, 0.0, 0.0, 2.0, 0.0, 0.0, 1.0, 0.0, 1.0, 1.0, 0.0, 0.0, 1.0], "bins": [-0.9549607634544373, -0.9248751997947693, -0.8947896957397461, -0.8647041320800781, -0.8346186280250549, -0.804533064365387, -0.7744475603103638, -0.7443619966506958, -0.7142764329910278, -0.6841908693313599, -0.6541053652763367, -0.6240198016166687, -0.5939342975616455, -0.5638487339019775, -0.5337631702423096, -0.5036776661872864, -0.4735921621322632, -0.4435066282749176, -0.413421094417572, -0.38333553075790405, -0.35325002670288086, -0.3231644630432129, -0.2930789291858673, -0.26299339532852173, -0.23290786147117615, -0.20282232761383057, -0.17273679375648499, -0.1426512449979782, -0.11256571114063263, -0.08248017728328705, -0.05239462852478027, -0.022309094667434692, 0.007776379585266113, 0.03786191716790199, 0.06794745475053787, 0.09803299605846405, 0.12811852991580963, 0.1582040637731552, 0.188289612531662, 0.21837514638900757, 0.24846068024635315, 0.27854621410369873, 0.3086317479610443, 0.3387172818183899, 0.36880284547805786, 0.39888834953308105, 0.428973913192749, 0.4590594470500946, 0.4891449809074402, 0.5192305445671082, 0.5493160486221313, 0.5794016122817993, 0.6094871163368225, 0.6395726799964905, 0.6696581840515137, 0.6997437477111816, 0.7298293113708496, 0.7599148750305176, 0.7900003790855408, 0.8200859427452087, 0.8501714468002319, 0.8802570104598999, 0.9103425741195679, 0.9404280781745911, 0.9705135822296143]}, "parameters/attention_0.att_r": {"_type": "histogram", "values": [1.0, 0.0, 0.0, 0.0, 0.0, 0.0, 0.0, 0.0, 0.0, 0.0, 0.0, 1.0, 0.0, 0.0, 2.0, 0.0, 0.0, 3.0, 0.0, 2.0, 1.0, 0.0, 1.0, 1.0, 1.0, 1.0, 2.0, 0.0, 0.0, 1.0, 0.0, 0.0, 1.0, 2.0, 1.0, 0.0, 1.0, 1.0, 3.0, 0.0, 0.0, 1.0, 1.0, 2.0, 0.0, 0.0, 1.0, 0.0, 1.0, 2.0, 1.0, 2.0, 0.0, 1.0, 0.0, 0.0, 0.0, 0.0, 1.0, 0.0, 0.0, 0.0, 0.0, 1.0], "bins": [-0.9323330521583557, -0.9053254723548889, -0.8783178329467773, -0.8513102531433105, -0.824302613735199, -0.7972950339317322, -0.7702873945236206, -0.7432798147201538, -0.716272234916687, -0.6892646551132202, -0.6622570157051086, -0.6352494359016418, -0.6082417964935303, -0.5812342166900635, -0.5542266368865967, -0.5272189974784851, -0.5002113580703735, -0.47320374846458435, -0.44619613885879517, -0.41918855905532837, -0.3921809196472168, -0.36517333984375, -0.3381657302379608, -0.31115812063217163, -0.28415051102638245, -0.25714290142059326, -0.23013529181480408, -0.2031276971101761, -0.1761200875043869, -0.14911247789859772, -0.12210488319396973, -0.09509727358818054, -0.06808972358703613, -0.04108211770653725, -0.01407451182603836, 0.012933090329170227, 0.03994069993495941, 0.0669483095407486, 0.09395590424537659, 0.12096351385116577, 0.14797112345695496, 0.17497873306274414, 0.20198634266853333, 0.22899393737316132, 0.2560015320777893, 0.2830091714859009, 0.3100167512893677, 0.33702436089515686, 0.36403197050094604, 0.39103958010673523, 0.4180471897125244, 0.4450547695159912, 0.4720624089241028, 0.4990699887275696, 0.5260776281356812, 0.553085207939148, 0.5800927877426147, 0.6071003675460815, 0.6341080069541931, 0.6611155867576599, 0.6881232261657715, 0.7151308059692383, 0.7421383857727051, 0.7691460251808167, 0.7961536645889282]}, "parameters/attention_0.bias": {"_type": "histogram", "values": [1.0, 0.0, 1.0, 0.0, 0.0, 0.0, 2.0, 0.0, 1.0, 0.0, 1.0, 0.0, 4.0, 0.0, 0.0, 0.0, 0.0, 1.0, 0.0, 2.0, 1.0, 1.0, 1.0, 0.0, 2.0, 0.0, 0.0, 0.0, 1.0, 1.0, 1.0, 0.0, 0.0, 2.0, 0.0, 0.0, 0.0, 0.0, 1.0, 0.0, 0.0, 2.0, 1.0, 1.0, 0.0, 3.0, 1.0, 0.0, 2.0, 0.0, 1.0, 2.0, 0.0, 0.0, 0.0, 0.0, 1.0, 1.0, 0.0, 0.0, 0.0, 0.0, 0.0, 1.0], "bins": [-0.3856600522994995, -0.3744908571243286, -0.3633216917514801, -0.3521524965763092, -0.3409833312034607, -0.3298141360282898, -0.3186449706554413, -0.3074757754802704, -0.2963066101074219, -0.285137414932251, -0.27396824955940247, -0.26279905438423157, -0.25162988901138306, -0.24046070873737335, -0.22929152846336365, -0.21812233328819275, -0.20695315301418304, -0.19578397274017334, -0.18461479246616364, -0.17344561219215393, -0.16227643191814423, -0.15110725164413452, -0.13993805646896362, -0.1287688910961151, -0.11759970337152481, -0.1064305230975151, -0.0952613428235054, -0.0840921550989151, -0.0729229748249054, -0.06175379827618599, -0.050584614276885986, -0.03941543400287628, -0.028246253728866577, -0.017077073454856873, -0.005907891318202019, 0.005261290818452835, 0.01643047109246254, 0.027599651366472244, 0.03876883536577225, 0.04993801563978195, 0.061107195913791656, 0.07227637618780136, 0.08344555646181107, 0.09461474418640137, 0.10578392446041107, 0.11695310473442078, 0.12812228500843048, 0.13929146528244019, 0.1504606455564499, 0.1616298258304596, 0.1727990061044693, 0.183968186378479, 0.1951373666524887, 0.2063065469264984, 0.2174757421016693, 0.22864490747451782, 0.23981410264968872, 0.2509832978248596, 0.26215246319770813, 0.27332165837287903, 0.28449082374572754, 0.29566001892089844, 0.30682918429374695, 0.31799837946891785, 0.32916754484176636]}, "parameters/attention_0.lin_l.weight": {"_type": "histogram", "values": [2.0, 0.0, 0.0, 0.0, 0.0, 0.0, 0.0, 0.0, 0.0, 0.0, 0.0, 0.0, 1.0, 0.0, 0.0, 0.0, 4.0, 0.0, 4.0, 7.0, 5.0, 11.0, 5.0, 4.0, 7.0, 13.0, 10.0, 19.0, 9.0, 9.0, 11.0, 16.0, 10.0, 16.0, 16.0, 22.0, 13.0, 16.0, 12.0, 28.0, 28.0, 20.0, 20.0, 24.0, 21.0, 17.0, 21.0, 18.0, 13.0, 18.0, 10.0, 16.0, 12.0, 9.0, 10.0, 10.0, 2.0, 5.0, 5.0, 2.0, 2.0, 2.0, 3.0, 2.0], "bins": [-0.8820655941963196, -0.8603258728981018, -0.838586151599884, -0.8168464303016663, -0.7951067090034485, -0.7733669877052307, -0.7516272664070129, -0.7298875451087952, -0.7081478238105774, -0.6864081025123596, -0.6646683812141418, -0.6429286599159241, -0.6211889386177063, -0.5994492173194885, -0.5777094960212708, -0.555969774723053, -0.5342300534248352, -0.5124903321266174, -0.49075061082839966, -0.4690108895301819, -0.4472711682319641, -0.42553144693374634, -0.40379172563552856, -0.3820520043373108, -0.360312283039093, -0.33857256174087524, -0.31683284044265747, -0.2950931191444397, -0.2733533978462219, -0.25161367654800415, -0.22987395524978638, -0.2081342339515686, -0.18639445304870605, -0.16465473175048828, -0.1429150104522705, -0.12117528915405273, -0.09943556785583496, -0.07769584655761719, -0.055956125259399414, -0.03421640396118164, -0.012476682662963867, 0.009263038635253906, 0.03100275993347168, 0.05274248123168945, 0.07448220252990723, 0.096221923828125, 0.11796164512634277, 0.13970136642456055, 0.16144108772277832, 0.1831808090209961, 0.20492053031921387, 0.22666025161743164, 0.24839997291564941, 0.2701396942138672, 0.29187941551208496, 0.31361913681030273, 0.3353588581085205, 0.3570985794067383, 0.37883830070495605, 0.40057802200317383, 0.4223177433013916, 0.4440574645996094, 0.46579718589782715, 0.4875369071960449, 0.5092766284942627]}, "parameters/attention_1.att_l": {"_type": "histogram", "values": [1.0, 0.0, 0.0, 1.0, 0.0, 0.0, 0.0, 0.0, 0.0, 1.0, 1.0, 0.0, 2.0, 0.0, 1.0, 0.0, 0.0, 0.0, 1.0, 0.0, 2.0, 3.0, 0.0, 1.0, 1.0, 2.0, 1.0, 1.0, 2.0, 0.0, 0.0, 1.0, 0.0, 2.0, 0.0, 2.0, 0.0, 1.0, 0.0, 0.0, 1.0, 3.0, 0.0, 0.0, 2.0, 0.0, 0.0, 1.0, 2.0, 1.0, 0.0, 0.0, 0.0, 2.0, 0.0, 0.0, 0.0, 0.0, 0.0, 0.0, 0.0, 0.0, 0.0, 1.0], "bins": [-0.7476029396057129, -0.7257132530212402, -0.7038235664367676, -0.6819338798522949, -0.660044252872467, -0.6381545662879944, -0.6162648797035217, -0.5943751931190491, -0.5724855661392212, -0.5505958795547485, -0.5287061929702759, -0.5068165063858032, -0.48492687940597534, -0.4630371928215027, -0.44114750623703003, -0.4192578196525574, -0.3973681330680847, -0.37547844648361206, -0.3535887897014618, -0.33169910311698914, -0.30980944633483887, -0.2879197597503662, -0.26603007316589355, -0.2441404014825821, -0.22225072979927063, -0.20036105811595917, -0.1784713864326477, -0.15658169984817505, -0.1346920281648636, -0.11280235648155212, -0.09091266989707947, -0.069022998213768, -0.04713326692581177, -0.025243591517210007, -0.003353916108608246, 0.018535763025283813, 0.040425434708595276, 0.06231510639190674, 0.0842047929763794, 0.10609446465969086, 0.12798413634300232, 0.14987380802631378, 0.17176347970962524, 0.1936531662940979, 0.21554283797740936, 0.23743250966072083, 0.2593221962451935, 0.28121185302734375, 0.3031015396118164, 0.32499122619628906, 0.34688088297843933, 0.368770569562912, 0.39066022634506226, 0.4125499129295349, 0.43443959951400757, 0.4563292860984802, 0.4782189428806305, 0.5001085996627808, 0.5219982862472534, 0.5438879728317261, 0.5657776594161987, 0.5876673460006714, 0.609557032585144, 0.6314466595649719, 0.6533363461494446]}, "parameters/attention_1.att_r": {"_type": "histogram", "values": [1.0, 1.0, 0.0, 1.0, 0.0, 0.0, 0.0, 1.0, 0.0, 0.0, 1.0, 1.0, 0.0, 2.0, 2.0, 0.0, 0.0, 0.0, 0.0, 2.0, 3.0, 2.0, 0.0, 1.0, 1.0, 1.0, 0.0, 2.0, 0.0, 2.0, 0.0, 1.0, 0.0, 1.0, 1.0, 0.0, 0.0, 1.0, 0.0, 0.0, 0.0, 0.0, 1.0, 1.0, 1.0, 0.0, 0.0, 1.0, 0.0, 2.0, 0.0, 2.0, 0.0, 2.0, 0.0, 0.0, 0.0, 0.0, 0.0, 0.0, 0.0, 0.0, 0.0, 2.0], "bins": [-0.8483790159225464, -0.8230211138725281, -0.797663152217865, -0.7723052501678467, -0.7469473481178284, -0.7215894460678101, -0.696231484413147, -0.6708735823631287, -0.6455156803131104, -0.620157778263092, -0.594799816608429, -0.5694419145584106, -0.5440840125083923, -0.518726110458374, -0.49336814880371094, -0.4680102467536926, -0.44265228509902954, -0.41729435324668884, -0.39193645119667053, -0.36657851934432983, -0.3412206172943115, -0.3158626854419708, -0.2905047535896301, -0.2651468515396118, -0.23978891968727112, -0.2144310027360916, -0.1890730857849121, -0.1637151539325714, -0.1383572369813919, -0.1129993200302124, -0.0876413881778717, -0.0622834712266922, -0.03692561388015747, -0.011567693203687668, 0.013790227472782135, 0.039148151874542236, 0.06450606882572174, 0.08986398577690125, 0.11522191762924194, 0.14057983458042145, 0.16593775153160095, 0.19129566848278046, 0.21665358543395996, 0.24201151728630066, 0.26736944913864136, 0.29272735118865967, 0.31808528304100037, 0.34344321489334106, 0.3688011169433594, 0.3941590487957001, 0.4195169508457184, 0.4448748826980591, 0.4702327847480774, 0.4955907166004181, 0.5209486484527588, 0.5463065505027771, 0.5716644525527954, 0.5970223546028137, 0.6223803162574768, 0.6477382183074951, 0.6730961203575134, 0.6984540224075317, 0.7238119840621948, 0.7491698861122131, 0.7745278477668762]}, "parameters/attention_1.bias": {"_type": "histogram", "values": [1.0, 0.0, 0.0, 0.0, 0.0, 0.0, 0.0, 1.0, 0.0, 2.0, 0.0, 2.0, 0.0, 1.0, 3.0, 1.0, 0.0, 1.0, 0.0, 1.0, 0.0, 1.0, 2.0, 0.0, 1.0, 1.0, 1.0, 0.0, 0.0, 0.0, 2.0, 0.0, 1.0, 0.0, 1.0, 1.0, 1.0, 0.0, 0.0, 1.0, 0.0, 0.0, 1.0, 1.0, 3.0, 0.0, 0.0, 0.0, 0.0, 1.0, 0.0, 1.0, 0.0, 2.0, 0.0, 0.0, 0.0, 1.0, 1.0, 0.0, 1.0, 0.0, 0.0, 2.0], "bins": [-0.4067794680595398, -0.39445433020591736, -0.3821291923522949, -0.3698040843009949, -0.35747894644737244, -0.34515380859375, -0.33282867074012756, -0.3205035328865051, -0.3081784248352051, -0.29585328698158264, -0.2835281491279602, -0.27120304107666016, -0.2588779032230377, -0.24655276536941528, -0.23422762751579285, -0.2219024896621704, -0.20957735180854797, -0.19725221395492554, -0.1849270910024643, -0.17260195314884186, -0.16027683019638062, -0.14795169234275818, -0.13562655448913574, -0.1233014240860939, -0.11097629368305206, -0.09865116328001022, -0.08632603287696838, -0.07400089502334595, -0.06167576462030411, -0.04935063421726227, -0.03702549636363983, -0.024700365960597992, -0.012375205755233765, -5.007348954677582e-05, 0.012275058776140213, 0.02460019290447235, 0.03692532330751419, 0.04925045371055603, 0.06157559156417847, 0.0739007219672203, 0.08622585237026215, 0.09855098277330399, 0.11087611317634583, 0.12320125102996826, 0.1355263888835907, 0.14785151183605194, 0.16017664968967438, 0.17250177264213562, 0.18482691049575806, 0.1971520483493805, 0.20947717130184174, 0.22180230915546417, 0.23412743210792542, 0.24645256996154785, 0.2587777078151703, 0.2711028456687927, 0.2834279537200928, 0.2957530915737152, 0.30807822942733765, 0.3204033374786377, 0.33272847533226013, 0.34505361318588257, 0.357378751039505, 0.36970388889312744, 0.3820290267467499]}, "parameters/attention_1.lin_l.weight": {"_type": "histogram", "values": [1.0, 2.0, 1.0, 0.0, 1.0, 2.0, 5.0, 3.0, 6.0, 4.0, 5.0, 11.0, 15.0, 19.0, 23.0, 14.0, 33.0, 29.0, 20.0, 26.0, 31.0, 26.0, 38.0, 32.0, 37.0, 55.0, 28.0, 39.0, 49.0, 45.0, 67.0, 43.0, 52.0, 70.0, 56.0, 60.0, 54.0, 54.0, 50.0, 47.0, 44.0, 52.0, 36.0, 25.0, 35.0, 37.0, 25.0, 27.0, 20.0, 31.0, 19.0, 17.0, 17.0, 16.0, 15.0, 8.0, 0.0, 8.0, 5.0, 1.0, 3.0, 2.0, 2.0, 2.0], "bins": [-0.6356930136680603, -0.6162689924240112, -0.5968450307846069, -0.5774210095405579, -0.5579970479011536, -0.5385730266571045, -0.5191490650177002, -0.4997250437736511, -0.48030102252960205, -0.46087703108787537, -0.4414530396461487, -0.4220290184020996, -0.4026050269603729, -0.38318103551864624, -0.36375704407691956, -0.34433305263519287, -0.3249090611934662, -0.3054850697517395, -0.2860610783100128, -0.26663708686828613, -0.24721306562423706, -0.22778907418251038, -0.2083650827407837, -0.1889410763978958, -0.16951708495616913, -0.15009309351444244, -0.13066908717155457, -0.11124509572982788, -0.0918210968375206, -0.07239709794521332, -0.05297310650348663, -0.033549100160598755, -0.01412510871887207, 0.005298888310790062, 0.024722885340452194, 0.04414688050746918, 0.06357087939977646, 0.08299487829208374, 0.10241886973381042, 0.1218428760766983, 0.141266867518425, 0.16069085896015167, 0.18011486530303955, 0.19953885674476624, 0.21896284818649292, 0.2383868545293808, 0.2578108310699463, 0.27723485231399536, 0.29665884375572205, 0.31608283519744873, 0.3355068266391754, 0.3549308180809021, 0.37435483932495117, 0.39377883076667786, 0.41320282220840454, 0.4326268434524536, 0.4520508050918579, 0.4714747965335846, 0.4908987879753113, 0.5103228092193604, 0.5297467708587646, 0.5491707921028137, 0.5685948133468628, 0.5880187749862671, 0.6074427962303162]}, "parameters/attention_2.att_l": {"_type": "histogram", "values": [1.0, 1.0, 0.0, 0.0, 0.0, 0.0, 0.0, 0.0, 1.0, 0.0, 0.0, 0.0, 0.0, 0.0, 0.0, 0.0, 0.0, 1.0, 1.0, 0.0, 0.0, 1.0, 2.0, 0.0, 0.0, 0.0, 0.0, 0.0, 2.0, 0.0, 0.0, 0.0, 1.0, 1.0, 0.0, 1.0, 0.0, 2.0, 1.0, 2.0, 2.0, 0.0, 1.0, 3.0, 0.0, 1.0, 1.0, 0.0, 0.0, 1.0, 1.0, 0.0, 4.0, 0.0, 0.0, 0.0, 0.0, 1.0, 3.0, 0.0, 2.0, 0.0, 0.0, 2.0], "bins": [-0.8795074224472046, -0.8557823896408081, -0.8320573568344116, -0.8083323240280151, -0.7846072912216187, -0.7608822584152222, -0.7371572256088257, -0.713432252407074, -0.6897072196006775, -0.665982186794281, -0.6422571539878845, -0.618532121181488, -0.5948070883750916, -0.5710821151733398, -0.5473570823669434, -0.5236320495605469, -0.499906986951828, -0.4761819541454315, -0.45245692133903503, -0.42873191833496094, -0.40500688552856445, -0.38128185272216797, -0.3575568199157715, -0.333831787109375, -0.3101067543029785, -0.28638172149658203, -0.26265668869018555, -0.23893167078495026, -0.21520665287971497, -0.19148162007331848, -0.167756587266922, -0.1440315693616867, -0.12030655145645142, -0.09658152610063553, -0.07285650074481964, -0.04913146793842316, -0.02540644258260727, -0.0016814172267913818, 0.022043615579605103, 0.04576863348484039, 0.06949366629123688, 0.09321869164705276, 0.11694371700286865, 0.14066874980926514, 0.16439378261566162, 0.1881188005208969, 0.2118438333272934, 0.2355688512325287, 0.25929388403892517, 0.28301891684532166, 0.30674394965171814, 0.33046895265579224, 0.3541939854621887, 0.3779190182685852, 0.4016440510749817, 0.4253690838813782, 0.44909411668777466, 0.47281914949417114, 0.4965441823005676, 0.5202692151069641, 0.5439942479133606, 0.5677192211151123, 0.5914442539215088, 0.6151692867279053, 0.6388943195343018]}, "parameters/attention_2.att_r": {"_type": "histogram", "values": [1.0, 0.0, 0.0, 1.0, 0.0, 0.0, 0.0, 0.0, 1.0, 2.0, 0.0, 0.0, 1.0, 0.0, 1.0, 1.0, 0.0, 0.0, 0.0, 1.0, 1.0, 1.0, 0.0, 2.0, 1.0, 0.0, 1.0, 0.0, 1.0, 0.0, 1.0, 2.0, 0.0, 0.0, 2.0, 1.0, 0.0, 0.0, 2.0, 1.0, 0.0, 0.0, 2.0, 2.0, 0.0, 2.0, 0.0, 1.0, 1.0, 1.0, 2.0, 0.0, 0.0, 0.0, 0.0, 0.0, 1.0, 1.0, 0.0, 1.0, 0.0, 0.0, 0.0, 1.0], "bins": [-0.6702816486358643, -0.6493040919303894, -0.6283264756202698, -0.6073489189147949, -0.5863713026046753, -0.5653937458992004, -0.5444161891937256, -0.523438572883606, -0.5024610161781311, -0.48148342967033386, -0.4605058431625366, -0.43952828645706177, -0.4185506999492645, -0.3975731134414673, -0.37659555673599243, -0.3556179702281952, -0.33464038372039795, -0.3136627972126007, -0.29268521070480347, -0.2717076539993286, -0.25073006749153137, -0.22975248098373413, -0.20877490937709808, -0.18779733777046204, -0.1668197512626648, -0.14584216475486755, -0.1248645931482315, -0.10388701409101486, -0.08290943503379822, -0.061931855976581573, -0.04095427691936493, -0.019976705312728882, 0.001000821590423584, 0.02197840064764023, 0.04295597970485687, 0.06393355876207352, 0.08491113781929016, 0.1058887168765068, 0.12686629593372345, 0.1478438675403595, 0.16882145404815674, 0.18979904055595398, 0.21077661216259003, 0.23175418376922607, 0.2527317702770233, 0.27370935678482056, 0.2946869134902954, 0.31566449999809265, 0.3366420865058899, 0.35761967301368713, 0.3785972595214844, 0.39957481622695923, 0.42055240273475647, 0.4415299892425537, 0.46250754594802856, 0.4834851324558258, 0.504462718963623, 0.5254402756690979, 0.5464178919792175, 0.5673954486846924, 0.588373064994812, 0.6093506217002869, 0.6303281784057617, 0.6513057947158813, 0.6722833514213562]}, "parameters/attention_2.bias": {"_type": "histogram", "values": [1.0, 1.0, 2.0, 0.0, 1.0, 0.0, 0.0, 0.0, 3.0, 3.0, 0.0, 0.0, 2.0, 2.0, 0.0, 3.0, 0.0, 1.0, 0.0, 0.0, 0.0, 0.0, 1.0, 0.0, 0.0, 0.0, 0.0, 0.0, 0.0, 0.0, 1.0, 0.0, 0.0, 0.0, 0.0, 0.0, 0.0, 0.0, 0.0, 0.0, 1.0, 0.0, 0.0, 2.0, 1.0, 2.0, 2.0, 1.0, 2.0, 1.0, 2.0, 1.0, 2.0, 0.0, 1.0, 0.0, 0.0, 0.0, 0.0, 0.0, 0.0, 0.0, 0.0, 1.0], "bins": [-0.5367913246154785, -0.5183415412902832, -0.49989181756973267, -0.48144206404685974, -0.4629923105239868, -0.4445425570011139, -0.42609280347824097, -0.40764304995536804, -0.3891932964324951, -0.3707435429096222, -0.35229378938674927, -0.33384403586387634, -0.3153942823410034, -0.2969445288181305, -0.27849477529525757, -0.26004502177238464, -0.24159526824951172, -0.2231455147266388, -0.20469576120376587, -0.18624600768089294, -0.16779625415802002, -0.1493465006351471, -0.13089674711227417, -0.11244699358940125, -0.09399724006652832, -0.0755474865436554, -0.05709773302078247, -0.038647979497909546, -0.02019822597503662, -0.0017484724521636963, 0.01670128107070923, 0.03515103459358215, 0.05360078811645508, 0.072050541639328, 0.09050029516220093, 0.10895004868507385, 0.12739980220794678, 0.1458495557308197, 0.16429930925369263, 0.18274906277656555, 0.20119881629943848, 0.2196485698223114, 0.23809832334518433, 0.25654807686805725, 0.2749978303909302, 0.2934475839138031, 0.311897337436676, 0.33034709095954895, 0.3487968444824219, 0.3672465980052948, 0.3856963515281677, 0.40414610505104065, 0.4225958585739136, 0.4410456120967865, 0.4594953656196594, 0.47794511914253235, 0.4963948726654053, 0.5148446559906006, 0.5332943797111511, 0.5517441034317017, 0.570193886756897, 0.5886436700820923, 0.6070933938026428, 0.6255431175231934, 0.6439929008483887]}, "parameters/attention_2.lin_l.weight": {"_type": "histogram", "values": [3.0, 1.0, 2.0, 2.0, 5.0, 8.0, 6.0, 16.0, 16.0, 19.0, 2.0, 19.0, 16.0, 23.0, 37.0, 24.0, 34.0, 33.0, 34.0, 28.0, 46.0, 42.0, 40.0, 55.0, 50.0, 56.0, 57.0, 46.0, 49.0, 53.0, 57.0, 70.0, 53.0, 46.0, 58.0, 56.0, 35.0, 49.0, 36.0, 38.0, 36.0, 38.0, 28.0, 30.0, 23.0, 17.0, 19.0, 22.0, 15.0, 11.0, 14.0, 3.0, 7.0, 2.0, 4.0, 4.0, 1.0, 2.0, 0.0, 0.0, 2.0, 0.0, 0.0, 2.0], "bins": [-0.5709307193756104, -0.5513737201690674, -0.5318167209625244, -0.5122597217559814, -0.4927027225494385, -0.4731457233428955, -0.45358869433403015, -0.4340316951274872, -0.4144746959209442, -0.39491769671440125, -0.3753606975078583, -0.3558036983013153, -0.33624666929244995, -0.316689670085907, -0.297132670879364, -0.27757567167282104, -0.2580186724662781, -0.2384616732597351, -0.21890467405319214, -0.19934765994548798, -0.179790660738945, -0.16023366153240204, -0.14067664742469788, -0.12111964821815491, -0.10156264901161194, -0.08200564980506897, -0.062448643147945404, -0.04289164021611214, -0.02333463728427887, -0.003777638077735901, 0.015779368579387665, 0.03533637523651123, 0.054893314838409424, 0.07445031404495239, 0.09400732070207596, 0.11356432735919952, 0.1331213265657425, 0.15267832577228546, 0.17223533987998962, 0.1917923390865326, 0.21134933829307556, 0.23090633749961853, 0.2504633367061615, 0.27002033591270447, 0.2895773649215698, 0.3091343641281128, 0.32869136333465576, 0.34824836254119873, 0.3678053617477417, 0.38736236095428467, 0.40691936016082764, 0.4264763593673706, 0.4460333585739136, 0.46559035778045654, 0.4851473867893219, 0.5047043561935425, 0.5242613554000854, 0.5438183546066284, 0.5633753538131714, 0.5829323530197144, 0.6024893522262573, 0.6220463514328003, 0.6416033506393433, 0.6611603498458862, 0.680717408657074]}, "parameters/out_att.att_l": {"_type": "histogram", "values": [0.0, 0.0, 0.0, 0.0, 0.0, 0.0, 0.0, 0.0, 0.0, 0.0, 0.0, 0.0, 0.0, 0.0, 0.0, 0.0, 0.0, 0.0, 0.0, 0.0, 0.0, 0.0, 0.0, 0.0, 0.0, 0.0, 0.0, 0.0, 0.0, 0.0, 0.0, 1.0, 0.0, 0.0, 0.0, 0.0, 0.0, 0.0, 0.0, 0.0, 0.0, 0.0, 0.0, 0.0, 0.0, 0.0, 0.0, 0.0, 0.0, 0.0, 0.0, 0.0, 0.0, 0.0, 0.0, 0.0, 0.0, 0.0, 0.0, 0.0, 0.0, 0.0, 0.0, 0.0], "bins": [-0.45612579584121704, -0.45612579584121704, -0.45612579584121704, -0.45612579584121704, -0.45612579584121704, -0.45612579584121704, -0.45612579584121704, -0.45612579584121704, -0.45612579584121704, -0.45612579584121704, -0.45612579584121704, -0.45612579584121704, -0.45612579584121704, -0.45612579584121704, -0.45612579584121704, -0.45612579584121704, -0.45612579584121704, -0.45612579584121704, -0.45612579584121704, -0.45612579584121704, -0.45612579584121704, -0.45612579584121704, -0.45612579584121704, -0.45612579584121704, -0.45612579584121704, -0.45612579584121704, -0.45612579584121704, -0.45612579584121704, -0.45612579584121704, -0.45612579584121704, -0.45612579584121704, -0.45612579584121704, -0.45612579584121704, -0.45612579584121704, -0.45612579584121704, -0.45612579584121704, -0.45612579584121704, -0.45612579584121704, -0.45612579584121704, -0.45612579584121704, -0.45612579584121704, -0.45612579584121704, -0.45612579584121704, -0.45612579584121704, -0.45612579584121704, -0.45612579584121704, -0.45612579584121704, -0.45612579584121704, -0.45612579584121704, -0.45612579584121704, -0.45612579584121704, -0.45612579584121704, -0.45612579584121704, -0.45612579584121704, -0.45612579584121704, -0.45612579584121704, -0.45612579584121704, -0.45612579584121704, -0.45612579584121704, -0.45612579584121704, -0.45612579584121704, -0.45612579584121704, -0.45612579584121704, -0.45612579584121704, -0.45612579584121704]}, "parameters/out_att.att_r": {"_type": "histogram", "values": [0.0, 0.0, 0.0, 0.0, 0.0, 0.0, 0.0, 0.0, 0.0, 0.0, 0.0, 0.0, 0.0, 0.0, 0.0, 0.0, 0.0, 0.0, 0.0, 0.0, 0.0, 0.0, 0.0, 0.0, 0.0, 0.0, 0.0, 0.0, 0.0, 0.0, 0.0, 0.0, 1.0, 0.0, 0.0, 0.0, 0.0, 0.0, 0.0, 0.0, 0.0, 0.0, 0.0, 0.0, 0.0, 0.0, 0.0, 0.0, 0.0, 0.0, 0.0, 0.0, 0.0, 0.0, 0.0, 0.0, 0.0, 0.0, 0.0, 0.0, 0.0, 0.0, 0.0, 0.0], "bins": [0.8631064891815186, 0.8631064891815186, 0.8631064891815186, 0.8631064891815186, 0.8631064891815186, 0.8631064891815186, 0.8631064891815186, 0.8631064891815186, 0.8631064891815186, 0.8631064891815186, 0.8631064891815186, 0.8631064891815186, 0.8631064891815186, 0.8631064891815186, 0.8631064891815186, 0.8631064891815186, 0.8631064891815186, 0.8631064891815186, 0.8631064891815186, 0.8631064891815186, 0.8631064891815186, 0.8631064891815186, 0.8631064891815186, 0.8631064891815186, 0.8631064891815186, 0.8631064891815186, 0.8631064891815186, 0.8631064891815186, 0.8631064891815186, 0.8631064891815186, 0.8631064891815186, 0.8631064891815186, 0.8631064891815186, 0.8631064891815186, 0.8631064891815186, 0.8631064891815186, 0.8631064891815186, 0.8631064891815186, 0.8631064891815186, 0.8631064891815186, 0.8631064891815186, 0.8631064891815186, 0.8631064891815186, 0.8631064891815186, 0.8631064891815186, 0.8631064891815186, 0.8631064891815186, 0.8631064891815186, 0.8631064891815186, 0.8631064891815186, 0.8631064891815186, 0.8631064891815186, 0.8631064891815186, 0.8631064891815186, 0.8631064891815186, 0.8631064891815186, 0.8631064891815186, 0.8631064891815186, 0.8631064891815186, 0.8631064891815186, 0.8631064891815186, 0.8631064891815186, 0.8631064891815186, 0.8631064891815186, 0.8631064891815186]}, "parameters/out_att.bias": {"_type": "histogram", "values": [0.0, 0.0, 0.0, 0.0, 0.0, 0.0, 0.0, 0.0, 0.0, 0.0, 0.0, 0.0, 0.0, 0.0, 0.0, 0.0, 0.0, 0.0, 0.0, 0.0, 0.0, 0.0, 0.0, 0.0, 0.0, 0.0, 0.0, 0.0, 0.0, 0.0, 0.0, 0.0, 1.0, 0.0, 0.0, 0.0, 0.0, 0.0, 0.0, 0.0, 0.0, 0.0, 0.0, 0.0, 0.0, 0.0, 0.0, 0.0, 0.0, 0.0, 0.0, 0.0, 0.0, 0.0, 0.0, 0.0, 0.0, 0.0, 0.0, 0.0, 0.0, 0.0, 0.0, 0.0], "bins": [-1.5492165088653564, -1.5492165088653564, -1.5492165088653564, -1.5492165088653564, -1.5492165088653564, -1.5492165088653564, -1.5492165088653564, -1.5492165088653564, -1.5492165088653564, -1.5492165088653564, -1.5492165088653564, -1.5492165088653564, -1.5492165088653564, -1.5492165088653564, -1.5492165088653564, -1.5492165088653564, -1.5492165088653564, -1.5492165088653564, -1.5492165088653564, -1.5492165088653564, -1.5492165088653564, -1.5492165088653564, -1.5492165088653564, -1.5492165088653564, -1.5492165088653564, -1.5492165088653564, -1.5492165088653564, -1.5492165088653564, -1.5492165088653564, -1.5492165088653564, -1.5492165088653564, -1.5492165088653564, -1.5492165088653564, -1.5492165088653564, -1.5492165088653564, -1.5492165088653564, -1.5492165088653564, -1.5492165088653564, -1.5492165088653564, -1.5492165088653564, -1.5492165088653564, -1.5492165088653564, -1.5492165088653564, -1.5492165088653564, -1.5492165088653564, -1.5492165088653564, -1.5492165088653564, -1.5492165088653564, -1.5492165088653564, -1.5492165088653564, -1.5492165088653564, -1.5492165088653564, -1.5492165088653564, -1.5492165088653564, -1.5492165088653564, -1.5492165088653564, -1.5492165088653564, -1.5492165088653564, -1.5492165088653564, -1.5492165088653564, -1.5492165088653564, -1.5492165088653564, -1.5492165088653564, -1.5492165088653564, -1.5492165088653564]}, "parameters/out_att.lin_l.weight": {"_type": "histogram", "values": [1.0, 0.0, 0.0, 0.0, 0.0, 0.0, 0.0, 2.0, 2.0, 1.0, 1.0, 2.0, 2.0, 0.0, 1.0, 1.0, 0.0, 0.0, 0.0, 1.0, 2.0, 0.0, 0.0, 0.0, 0.0, 1.0, 2.0, 0.0, 0.0, 0.0, 0.0, 1.0, 0.0, 0.0, 0.0, 0.0, 0.0, 0.0, 0.0, 0.0, 0.0, 0.0, 0.0, 0.0, 0.0, 0.0, 0.0, 0.0, 1.0, 0.0, 0.0, 1.0, 0.0, 1.0, 1.0, 1.0, 2.0, 5.0, 2.0, 0.0, 0.0, 3.0, 2.0, 1.0], "bins": [-0.20888252556324005, -0.20258384943008423, -0.1962851881980896, -0.18998651206493378, -0.18368783593177795, -0.17738917469978333, -0.1710904985666275, -0.16479182243347168, -0.15849316120147705, -0.15219448506832123, -0.1458958238363266, -0.13959714770317078, -0.13329847157001495, -0.12699979543685913, -0.1207011342048645, -0.11440245807170868, -0.10810378193855286, -0.10180511325597763, -0.09550643712282181, -0.08920776844024658, -0.08290909230709076, -0.07661042362451553, -0.07031175494194031, -0.06401307880878448, -0.05771441012620926, -0.051415737718343735, -0.04511706531047821, -0.038818396627902985, -0.03251972422003746, -0.026221051812171936, -0.01992238312959671, -0.013623710721731186, -0.0073250532150268555, -0.0010263817384839058, 0.005272289738059044, 0.011570960283279419, 0.017869632691144943, 0.024168305099010468, 0.030466973781585693, 0.03676564618945122, 0.04306431859731674, 0.049362991005182266, 0.05566166341304779, 0.061960332095623016, 0.06825900077819824, 0.07455767691135406, 0.08085634559392929, 0.08715501427650452, 0.09345369040966034, 0.09975235909223557, 0.10605103522539139, 0.11234970390796661, 0.11864838004112244, 0.12494704872369766, 0.1312457174062729, 0.1375443935394287, 0.14384305477142334, 0.15014173090457916, 0.1564403921365738, 0.16273906826972961, 0.16903774440288544, 0.17533642053604126, 0.1816350817680359, 0.1879337579011917, 0.19423243403434753]}, "_runtime": 56421, "_timestamp": 1642360005, "_step": 200, "Learning rate value": 0.0001499999999999968, "Learning rate action": 0.0001499999999999968, "epsilon": 0.2006016176452128, "action_probs": {"_type": "histogram", "values": [1, 0, 0, 0, 0, 1, 0, 0, 0, 0, 0, 0, 0, 0, 0, 0, 0, 0, 0, 0, 0, 1, 15, 3, 0, 25, 0, 1, 0, 0, 1, 1, 0, 0, 0, 0, 0, 0, 0, 0, 0, 0, 0, 0, 0, 0, 0, 0, 0, 0, 0, 0, 0, 0, 0, 1, 1, 2, 0, 0, 0, 0, 5, 5], "bins": [0.19113998115062714, 0.20377841591835022, 0.2164168506860733, 0.2290552854537964, 0.24169372022151947, 0.25433215498924255, 0.26697060465812683, 0.2796090245246887, 0.292247474193573, 0.3048858940601349, 0.31752434372901917, 0.33016276359558105, 0.34280121326446533, 0.3554396629333496, 0.3680780827999115, 0.3807165324687958, 0.39335495233535767, 0.40599340200424194, 0.41863182187080383, 0.4312702715396881, 0.44390869140625, 0.4565471410751343, 0.46918556094169617, 0.48182401061058044, 0.49446243047714233, 0.5071008801460266, 0.5197393298149109, 0.5323777794837952, 0.5450161695480347, 0.557654619216919, 0.5702930688858032, 0.5829315185546875, 0.595569908618927, 0.6082083582878113, 0.6208468079566956, 0.6334852576255798, 0.6461236476898193, 0.6587620973587036, 0.6714005470275879, 0.6840389966964722, 0.6966774463653564, 0.709315836429596, 0.7219542860984802, 0.7345927357673645, 0.7472311854362488, 0.7598695755004883, 0.7725080251693726, 0.7851464748382568, 0.7977849245071411, 0.8104233145713806, 0.8230617642402649, 0.8357002139091492, 0.8483386635780334, 0.8609771132469177, 0.8736155033111572, 0.8862539529800415, 0.8988924026489258, 0.9115308523178101, 0.9241692423820496, 0.9368076920509338, 0.9494461417198181, 0.9620845913887024, 0.9747229814529419, 0.9873614311218262, 0.9999998807907104]}, "stop_go_action": {"_type": "histogram", "values": [28, 0, 0, 0, 0, 0, 0, 0, 0, 0, 0, 0, 0, 0, 0, 0, 0, 0, 0, 0, 0, 0, 0, 0, 0, 0, 0, 0, 0, 0, 0, 0, 0, 0, 0, 0, 0, 0, 0, 0, 0, 0, 0, 0, 0, 0, 0, 0, 0, 0, 0, 0, 0, 0, 0, 0, 0, 0, 0, 0, 0, 0, 0, 35], "bins": [0.0, 0.015625, 0.03125, 0.046875, 0.0625, 0.078125, 0.09375, 0.109375, 0.125, 0.140625, 0.15625, 0.171875, 0.1875, 0.203125, 0.21875, 0.234375, 0.25, 0.265625, 0.28125, 0.296875, 0.3125, 0.328125, 0.34375, 0.359375, 0.375, 0.390625, 0.40625, 0.421875, 0.4375, 0.453125, 0.46875, 0.484375, 0.5, 0.515625, 0.53125, 0.546875, 0.5625, 0.578125, 0.59375, 0.609375, 0.625, 0.640625, 0.65625, 0.671875, 0.6875, 0.703125, 0.71875, 0.734375, 0.75, 0.765625, 0.78125, 0.796875, 0.8125, 0.828125, 0.84375, 0.859375, 0.875, 0.890625, 0.90625, 0.921875, 0.9375, 0.953125, 0.96875, 0.984375, 1.0]}, "node_values": {"_type": "histogram", "values": [10, 0, 0, 0, 0, 0, 0, 0, 0, 0, 0, 0, 0, 11, 0, 1, 0, 0, 0, 0, 0, 0, 0, 0, 0, 0, 0, 0, 0, 0, 0, 0, 0, 0, 0, 0, 0, 0, 0, 0, 0, 0, 0, 0, 2, 0, 0, 0, 0, 0, 0, 0, 0, 0, 0, 0, 0, 4, 1, 5, 0, 6, 0, 23], "bins": [-5.687612533569336, -5.678283274173737, -5.668954014778137, -5.659624755382538, -5.6502954959869385, -5.640966236591339, -5.63163697719574, -5.62230771780014, -5.612978458404541, -5.603649199008942, -5.594319939613342, -5.584990680217743, -5.5756614208221436, -5.566332161426544, -5.557002902030945, -5.5476736426353455, -5.538344383239746, -5.529015123844147, -5.519685864448547, -5.510356605052948, -5.501027345657349, -5.491698086261749, -5.48236882686615, -5.4730395674705505, -5.463710308074951, -5.454381048679352, -5.445051789283752, -5.435722529888153, -5.426393270492554, -5.417064011096954, -5.407734751701355, -5.398405492305756, -5.389076232910156, -5.379746973514557, -5.3704177141189575, -5.361088454723358, -5.351759195327759, -5.342429935932159, -5.33310067653656, -5.323771417140961, -5.314442157745361, -5.305112898349762, -5.295783638954163, -5.286454379558563, -5.277125120162964, -5.2677958607673645, -5.258466601371765, -5.249137341976166, -5.239808082580566, -5.230478823184967, -5.221149563789368, -5.211820304393768, -5.202491044998169, -5.19316178560257, -5.18383252620697, -5.174503266811371, -5.1651740074157715, -5.155844748020172, -5.146515488624573, -5.137186229228973, -5.127856969833374, -5.118527710437775, -5.109198451042175, -5.099869191646576, -5.090539932250977]}, "episode_rewards": {"_type": "histogram", "values": [11, 0, 0, 0, 0, 0, 0, 0, 0, 0, 0, 0, 0, 0, 0, 0, 0, 0, 0, 0, 0, 0, 0, 0, 0, 0, 0, 0, 0, 0, 0, 0, 0, 0, 0, 0, 0, 0, 0, 0, 0, 0, 0, 0, 0, 0, 0, 0, 0, 0, 0, 0, 0, 0, 0, 0, 0, 10, 0, 0, 0, 0, 0, 1], "bins": [-22.0, -21.671875, -21.34375, -21.015625, -20.6875, -20.359375, -20.03125, -19.703125, -19.375, -19.046875, -18.71875, -18.390625, -18.0625, -17.734375, -17.40625, -17.078125, -16.75, -16.421875, -16.09375, -15.765625, -15.4375, -15.109375, -14.78125, -14.453125, -14.125, -13.796875, -13.46875, -13.140625, -12.8125, -12.484375, -12.15625, -11.828125, -11.5, -11.171875, -10.84375, -10.515625, -10.1875, -9.859375, -9.53125, -9.203125, -8.875, -8.546875, -8.21875, -7.890625, -7.5625, -7.234375, -6.90625, -6.578125, -6.25, -5.921875, -5.59375, -5.265625, -4.9375, -4.609375, -4.28125, -3.953125, -3.625, -3.296875, -2.96875, -2.640625, -2.3125, -1.984375, -1.65625, -1.328125, -1.0]}, "avg_reward": -1728.0833333333333, "done_agents": 0.22916666666666666, "deadlock_agents": 0.5327380952380952, "gradients/out_att.bias": {"_type": "histogram", "values": [0.0, 0.0, 0.0, 0.0, 0.0, 0.0, 0.0, 0.0, 0.0, 0.0, 0.0, 0.0, 0.0, 0.0, 0.0, 0.0, 0.0, 0.0, 0.0, 0.0, 0.0, 0.0, 0.0, 0.0, 0.0, 0.0, 0.0, 0.0, 0.0, 0.0, 0.0, 0.0, 1.0, 0.0, 0.0, 0.0, 0.0, 0.0, 0.0, 0.0, 0.0, 0.0, 0.0, 0.0, 0.0, 0.0, 0.0, 0.0, 0.0, 0.0, 0.0, 0.0, 0.0, 0.0, 0.0, 0.0, 0.0, 0.0, 0.0, 0.0, 0.0, 0.0, 0.0, 0.0], "bins": [0.2723872661590576, 0.2723872661590576, 0.2723872661590576, 0.2723872661590576, 0.2723872661590576, 0.2723872661590576, 0.2723872661590576, 0.2723872661590576, 0.2723872661590576, 0.2723872661590576, 0.2723872661590576, 0.2723872661590576, 0.2723872661590576, 0.2723872661590576, 0.2723872661590576, 0.2723872661590576, 0.2723872661590576, 0.2723872661590576, 0.2723872661590576, 0.2723872661590576, 0.2723872661590576, 0.2723872661590576, 0.2723872661590576, 0.2723872661590576, 0.2723872661590576, 0.2723872661590576, 0.2723872661590576, 0.2723872661590576, 0.2723872661590576, 0.2723872661590576, 0.2723872661590576, 0.2723872661590576, 0.2723872661590576, 0.2723872661590576, 0.2723872661590576, 0.2723872661590576, 0.2723872661590576, 0.2723872661590576, 0.2723872661590576, 0.2723872661590576, 0.2723872661590576, 0.2723872661590576, 0.2723872661590576, 0.2723872661590576, 0.2723872661590576, 0.2723872661590576, 0.2723872661590576, 0.2723872661590576, 0.2723872661590576, 0.2723872661590576, 0.2723872661590576, 0.2723872661590576, 0.2723872661590576, 0.2723872661590576, 0.2723872661590576, 0.2723872661590576, 0.2723872661590576, 0.2723872661590576, 0.2723872661590576, 0.2723872661590576, 0.2723872661590576, 0.2723872661590576, 0.2723872661590576, 0.2723872661590576, 0.2723872661590576]}, "gradients/out_att.att_r": {"_type": "histogram", "values": [0.0, 0.0, 0.0, 0.0, 0.0, 0.0, 0.0, 0.0, 0.0, 0.0, 0.0, 0.0, 0.0, 0.0, 0.0, 0.0, 0.0, 0.0, 0.0, 0.0, 0.0, 0.0, 0.0, 0.0, 0.0, 0.0, 0.0, 0.0, 0.0, 0.0, 0.0, 0.0, 1.0, 0.0, 0.0, 0.0, 0.0, 0.0, 0.0, 0.0, 0.0, 0.0, 0.0, 0.0, 0.0, 0.0, 0.0, 0.0, 0.0, 0.0, 0.0, 0.0, 0.0, 0.0, 0.0, 0.0, 0.0, 0.0, 0.0, 0.0, 0.0, 0.0, 0.0, 0.0], "bins": [-8.48754311277844e-09, -8.48754311277844e-09, -8.48754311277844e-09, -8.48754311277844e-09, -8.48754311277844e-09, -8.48754311277844e-09, -8.48754311277844e-09, -8.48754311277844e-09, -8.48754311277844e-09, -8.48754311277844e-09, -8.48754311277844e-09, -8.48754311277844e-09, -8.48754311277844e-09, -8.48754311277844e-09, -8.48754311277844e-09, -8.48754311277844e-09, -8.48754311277844e-09, -8.48754311277844e-09, -8.48754311277844e-09, -8.48754311277844e-09, -8.48754311277844e-09, -8.48754311277844e-09, -8.48754311277844e-09, -8.48754311277844e-09, -8.48754311277844e-09, -8.48754311277844e-09, -8.48754311277844e-09, -8.48754311277844e-09, -8.48754311277844e-09, -8.48754311277844e-09, -8.48754311277844e-09, -8.48754311277844e-09, -8.48754311277844e-09, -8.48754311277844e-09, -8.48754311277844e-09, -8.48754311277844e-09, -8.48754311277844e-09, -8.48754311277844e-09, -8.48754311277844e-09, -8.48754311277844e-09, -8.48754311277844e-09, -8.48754311277844e-09, -8.48754311277844e-09, -8.48754311277844e-09, -8.48754311277844e-09, -8.48754311277844e-09, -8.48754311277844e-09, -8.48754311277844e-09, -8.48754311277844e-09, -8.48754311277844e-09, -8.48754311277844e-09, -8.48754311277844e-09, -8.48754311277844e-09, -8.48754311277844e-09, -8.48754311277844e-09, -8.48754311277844e-09, -8.48754311277844e-09, -8.48754311277844e-09, -8.48754311277844e-09, -8.48754311277844e-09, -8.48754311277844e-09, -8.48754311277844e-09, -8.48754311277844e-09, -8.48754311277844e-09, -8.48754311277844e-09]}, "gradients/out_att.att_l": {"_type": "histogram", "values": [0.0, 0.0, 0.0, 0.0, 0.0, 0.0, 0.0, 0.0, 0.0, 0.0, 0.0, 0.0, 0.0, 0.0, 0.0, 0.0, 0.0, 0.0, 0.0, 0.0, 0.0, 0.0, 0.0, 0.0, 0.0, 0.0, 0.0, 0.0, 0.0, 0.0, 0.0, 0.0, 1.0, 0.0, 0.0, 0.0, 0.0, 0.0, 0.0, 0.0, 0.0, 0.0, 0.0, 0.0, 0.0, 0.0, 0.0, 0.0, 0.0, 0.0, 0.0, 0.0, 0.0, 0.0, 0.0, 0.0, 0.0, 0.0, 0.0, 0.0, 0.0, 0.0, 0.0, 0.0], "bins": [-1.9626648395387747e-07, -1.9626648395387747e-07, -1.9626648395387747e-07, -1.9626648395387747e-07, -1.9626648395387747e-07, -1.9626648395387747e-07, -1.9626648395387747e-07, -1.9626648395387747e-07, -1.9626648395387747e-07, -1.9626648395387747e-07, -1.9626648395387747e-07, -1.9626648395387747e-07, -1.9626648395387747e-07, -1.9626648395387747e-07, -1.9626648395387747e-07, -1.9626648395387747e-07, -1.9626648395387747e-07, -1.9626648395387747e-07, -1.9626648395387747e-07, -1.9626648395387747e-07, -1.9626648395387747e-07, -1.9626648395387747e-07, -1.9626648395387747e-07, -1.9626648395387747e-07, -1.9626648395387747e-07, -1.9626648395387747e-07, -1.9626648395387747e-07, -1.9626648395387747e-07, -1.9626648395387747e-07, -1.9626648395387747e-07, -1.9626648395387747e-07, -1.9626648395387747e-07, -1.9626648395387747e-07, -1.9626648395387747e-07, -1.9626648395387747e-07, -1.9626648395387747e-07, -1.9626648395387747e-07, -1.9626648395387747e-07, -1.9626648395387747e-07, -1.9626648395387747e-07, -1.9626648395387747e-07, -1.9626648395387747e-07, -1.9626648395387747e-07, -1.9626648395387747e-07, -1.9626648395387747e-07, -1.9626648395387747e-07, -1.9626648395387747e-07, -1.9626648395387747e-07, -1.9626648395387747e-07, -1.9626648395387747e-07, -1.9626648395387747e-07, -1.9626648395387747e-07, -1.9626648395387747e-07, -1.9626648395387747e-07, -1.9626648395387747e-07, -1.9626648395387747e-07, -1.9626648395387747e-07, -1.9626648395387747e-07, -1.9626648395387747e-07, -1.9626648395387747e-07, -1.9626648395387747e-07, -1.9626648395387747e-07, -1.9626648395387747e-07, -1.9626648395387747e-07, -1.9626648395387747e-07]}, "gradients/out_att.lin_l.weight": {"_type": "histogram", "values": [3.0, 0.0, 0.0, 0.0, 0.0, 0.0, 1.0, 0.0, 0.0, 1.0, 1.0, 1.0, 1.0, 1.0, 0.0, 0.0, 1.0, 2.0, 0.0, 0.0, 0.0, 3.0, 0.0, 3.0, 2.0, 5.0, 0.0, 2.0, 2.0, 1.0, 2.0, 0.0, 1.0, 0.0, 2.0, 0.0, 0.0, 1.0, 0.0, 0.0, 1.0, 0.0, 0.0, 0.0, 0.0, 1.0, 0.0, 0.0, 0.0, 0.0, 0.0, 0.0, 0.0, 0.0, 0.0, 1.0, 0.0, 0.0, 0.0, 0.0, 0.0, 0.0, 0.0, 1.0], "bins": [-0.3444313704967499, -0.33013463020324707, -0.31583791971206665, -0.30154117941856384, -0.2872444689273834, -0.2729477286338806, -0.2586510181427002, -0.2443542778491974, -0.23005755245685577, -0.21576082706451416, -0.20146410167217255, -0.18716737627983093, -0.17287063598632812, -0.1585739254951477, -0.1442771852016449, -0.12998045980930328, -0.11568373441696167, -0.10138700902462006, -0.08709028363227844, -0.07279355078935623, -0.05849682539701462, -0.044200100004673004, -0.029903367161750793, -0.01560664176940918, -0.001309916377067566, 0.012986810877919197, 0.02728353813290596, 0.04158026725053787, 0.055876992642879486, 0.0701737180352211, 0.08447045087814331, 0.09876717627048492, 0.11306387186050415, 0.12736059725284576, 0.14165732264518738, 0.15595406293869019, 0.1702507734298706, 0.1845475137233734, 0.19884423911571503, 0.21314096450805664, 0.22743768990039825, 0.24173441529273987, 0.2560311555862427, 0.2703278660774231, 0.2846246063709259, 0.2989213168621063, 0.31321805715560913, 0.32751476764678955, 0.34181150794029236, 0.35610824823379517, 0.3704049587249756, 0.3847016990184784, 0.3989984095096588, 0.4132951498031616, 0.42759186029434204, 0.44188860058784485, 0.45618534088134766, 0.47048208117485046, 0.4847787916660309, 0.4990755319595337, 0.5133722424507141, 0.5276689529418945, 0.5419657230377197, 0.5562624335289001, 0.5705591440200806]}, "gradients/attention_2.bias": {"_type": "histogram", "values": [1.0, 0.0, 0.0, 0.0, 0.0, 0.0, 0.0, 0.0, 1.0, 0.0, 0.0, 0.0, 0.0, 0.0, 0.0, 0.0, 0.0, 0.0, 0.0, 0.0, 1.0, 0.0, 0.0, 0.0, 2.0, 0.0, 1.0, 1.0, 4.0, 1.0, 1.0, 2.0, 2.0, 0.0, 0.0, 3.0, 1.0, 2.0, 2.0, 0.0, 1.0, 1.0, 0.0, 0.0, 1.0, 0.0, 2.0, 1.0, 1.0, 0.0, 0.0, 1.0, 0.0, 2.0, 0.0, 1.0, 0.0, 1.0, 0.0, 0.0, 0.0, 1.0, 0.0, 2.0], "bins": [-0.09240058064460754, -0.09003695100545883, -0.08767332136631012, -0.085309699177742, -0.08294606953859329, -0.08058243989944458, -0.07821881771087646, -0.07585518807172775, -0.07349155843257904, -0.07112792879343033, -0.06876429915428162, -0.0664006769657135, -0.06403704732656479, -0.06167341768741608, -0.05930979177355766, -0.05694616585969925, -0.05458253622055054, -0.052218906581401825, -0.04985528066754341, -0.047491654753685, -0.045128025114536285, -0.04276439547538757, -0.04040076956152916, -0.038037143647670746, -0.035673514008522034, -0.03330988436937332, -0.030946258455514908, -0.028582630679011345, -0.026219002902507782, -0.02385537512600422, -0.021491747349500656, -0.019128119572997093, -0.016764499247074127, -0.014400871470570564, -0.012037243694067001, -0.009673615917563438, -0.0073099881410598755, -0.0049463603645563126, -0.0025827325880527496, -0.0002191048115491867, 0.0021445229649543762, 0.004508150741457939, 0.006871778517961502, 0.009235406294465065, 0.011599034070968628, 0.01396266184747219, 0.016326289623975754, 0.018689917400479317, 0.02105354517698288, 0.023417172953486443, 0.025780800729990005, 0.02814442850649357, 0.03050805628299713, 0.032871685922145844, 0.03523531183600426, 0.03759893774986267, 0.03996256738901138, 0.042326197028160095, 0.04468982294201851, 0.04705344885587692, 0.049417078495025635, 0.05178070813417435, 0.05414433404803276, 0.056507959961891174, 0.058871589601039886]}, "gradients/attention_2.att_r": {"_type": "histogram", "values": [1.0, 0.0, 0.0, 0.0, 0.0, 0.0, 0.0, 0.0, 0.0, 0.0, 0.0, 0.0, 0.0, 0.0, 0.0, 0.0, 1.0, 0.0, 0.0, 0.0, 2.0, 3.0, 26.0, 0.0, 0.0, 0.0, 1.0, 0.0, 0.0, 1.0, 0.0, 0.0, 0.0, 0.0, 0.0, 0.0, 0.0, 0.0, 0.0, 0.0, 0.0, 1.0, 0.0, 0.0, 1.0, 0.0, 0.0, 0.0, 0.0, 0.0, 0.0, 0.0, 0.0, 1.0, 0.0, 0.0, 0.0, 0.0, 0.0, 1.0, 0.0, 0.0, 0.0, 1.0], "bins": [-1.7291043263867323e-08, -1.6523150847547186e-08, -1.5755258431227048e-08, -1.498736601490691e-08, -1.4219473598586774e-08, -1.3451581182266636e-08, -1.26836887659465e-08, -1.1915796349626362e-08, -1.1147903933306225e-08, -1.0380011516986087e-08, -9.61211910066595e-09, -8.844226684345813e-09, -8.076334268025676e-09, -7.3084414076163284e-09, -6.540548991296191e-09, -5.772656574976054e-09, -5.004763714566707e-09, -4.2368712982465695e-09, -3.4689788819264322e-09, -2.70108624356169e-09, -1.9331938272415528e-09, -1.1653011888768106e-09, -3.974087725566733e-10, 3.70483643763464e-10, 1.1383760600836013e-09, 1.9062684764037385e-09, 2.674160892723876e-09, 3.442053531088618e-09, 4.20994616945336e-09, 4.9778385857734975e-09, 5.745731002093635e-09, 6.513623418413772e-09, 7.281515834733909e-09, 8.049408251054047e-09, 8.817300667374184e-09, 9.585193083694321e-09, 1.0353085500014458e-08, 1.1120977916334596e-08, 1.1888870332654733e-08, 1.265676274897487e-08, 1.3424655165295007e-08, 1.4192547581615145e-08, 1.4960439997935282e-08, 1.572833241425542e-08, 1.6496224830575557e-08, 1.7264117246895694e-08, 1.803200966321583e-08, 1.879990207953597e-08, 1.9567796272212945e-08, 2.0335688688533082e-08, 2.110358110485322e-08, 2.1871473521173357e-08, 2.2639365937493494e-08, 2.340725835381363e-08, 2.417515077013377e-08, 2.4943043186453906e-08, 2.5710935602774043e-08, 2.647882801909418e-08, 2.7246720435414318e-08, 2.8014612851734455e-08, 2.8782505268054592e-08, 2.955039768437473e-08, 3.031829010069487e-08, 3.1086184293371844e-08, 3.185407493333514e-08]}, "gradients/attention_2.att_l": {"_type": "histogram", "values": [1.0, 0.0, 0.0, 0.0, 0.0, 0.0, 0.0, 0.0, 0.0, 0.0, 0.0, 0.0, 0.0, 0.0, 1.0, 2.0, 1.0, 1.0, 0.0, 1.0, 1.0, 3.0, 4.0, 13.0, 1.0, 0.0, 3.0, 0.0, 0.0, 1.0, 0.0, 0.0, 0.0, 0.0, 0.0, 0.0, 0.0, 1.0, 0.0, 0.0, 0.0, 0.0, 0.0, 0.0, 1.0, 0.0, 0.0, 0.0, 2.0, 1.0, 0.0, 0.0, 0.0, 1.0, 0.0, 0.0, 0.0, 0.0, 0.0, 0.0, 0.0, 0.0, 0.0, 1.0], "bins": [-1.3545583543717044e-09, -1.296055929245199e-09, -1.2375535041186936e-09, -1.1790510789921882e-09, -1.1205485428433803e-09, -1.0620462287391774e-09, -1.0035436925903696e-09, -9.450412674638642e-10, -8.865388423373588e-10, -8.280364172108534e-10, -7.69533992084348e-10, -7.110315114466914e-10, -6.52529086320186e-10, -5.940266611936806e-10, -5.35524180556024e-10, -4.770217554295186e-10, -4.1851933030301325e-10, -3.6001690517650786e-10, -3.0151445229442686e-10, -2.4301199941234586e-10, -1.8450957428584047e-10, -1.2600714915933509e-10, -6.750469627725408e-11, -9.002243395173082e-12, 4.9500181731332304e-11, 1.080026207356255e-10, 1.665050597399187e-10, 2.2500749874421189e-10, 2.835099377485051e-10, 3.4201236287501047e-10, 4.0051481575709147e-10, 4.5901726863917247e-10, 5.175198047879803e-10, 5.760222299144857e-10, 6.345246550409911e-10, 6.930271356786477e-10, 7.515295608051531e-10, 8.100319859316585e-10, 8.685344665693151e-10, 9.270368916958205e-10, 9.855393168223259e-10, 1.0440417419488313e-09, 1.1025441670753366e-09, 1.161046592201842e-09, 1.2195491283506499e-09, 1.2780514424548528e-09, 1.3365539786036607e-09, 1.395056403730166e-09, 1.4535588288566714e-09, 1.5120612539831768e-09, 1.5705636791096822e-09, 1.6290661042361876e-09, 1.687568529362693e-09, 1.7460710655115008e-09, 1.8045734906380062e-09, 1.8630759157645116e-09, 1.9215784519133194e-09, 1.9800809880621273e-09, 2.0385833021663302e-09, 2.097085838315138e-09, 2.155588152419341e-09, 2.214090688568149e-09, 2.2725930026723518e-09, 2.3310955388211596e-09, 2.3895978529253625e-09]}, "gradients/attention_2.lin_l.weight": {"_type": "histogram", "values": [1.0, 0.0, 2.0, 0.0, 1.0, 0.0, 0.0, 1.0, 1.0, 2.0, 0.0, 2.0, 1.0, 1.0, 2.0, 4.0, 4.0, 6.0, 7.0, 11.0, 13.0, 26.0, 27.0, 34.0, 56.0, 99.0, 731.0, 288.0, 93.0, 40.0, 29.0, 30.0, 18.0, 20.0, 14.0, 5.0, 5.0, 4.0, 3.0, 2.0, 3.0, 0.0, 1.0, 2.0, 0.0, 1.0, 2.0, 1.0, 1.0, 1.0, 0.0, 0.0, 1.0, 1.0, 0.0, 0.0, 1.0, 0.0, 1.0, 0.0, 0.0, 0.0, 0.0, 1.0], "bins": [-0.11579283326864243, -0.1114916130900383, -0.10719039291143417, -0.10288917273283005, -0.09858796000480652, -0.09428673982620239, -0.08998551964759827, -0.08568429946899414, -0.08138307929039001, -0.07708185911178589, -0.07278063893318176, -0.06847941875457764, -0.06417819857597351, -0.05987698212265968, -0.055575765669345856, -0.05127454549074173, -0.046973325312137604, -0.04267210513353348, -0.03837088495492935, -0.034069668501615524, -0.0297684483230114, -0.025467228144407272, -0.021166009828448296, -0.01686479151248932, -0.012563571333885193, -0.008262352086603642, -0.00396113283932209, 0.0003400864079594612, 0.004641305655241013, 0.008942525833845139, 0.013243744149804115, 0.017544962465763092, 0.021846190094947815, 0.02614741027355194, 0.030448628589510918, 0.034749846905469894, 0.03905106708407402, 0.043352287262678146, 0.047653503715991974, 0.0519547238945961, 0.056255944073200226, 0.06055716425180435, 0.06485838443040848, 0.0691596046090126, 0.07346081733703613, 0.07776203751564026, 0.08206325769424438, 0.08636447787284851, 0.09066569805145264, 0.09496691823005676, 0.09926813840866089, 0.10356935858726501, 0.10787057876586914, 0.11217179894447327, 0.1164730116724968, 0.12077423185110092, 0.12507545948028564, 0.12937667965888977, 0.1336778998374939, 0.13797912001609802, 0.14228034019470215, 0.14658156037330627, 0.1508827805519104, 0.15518400073051453, 0.15948520600795746]}, "gradients/attention_1.bias": {"_type": "histogram", "values": [1.0, 0.0, 0.0, 0.0, 0.0, 0.0, 0.0, 0.0, 3.0, 0.0, 0.0, 0.0, 1.0, 0.0, 0.0, 1.0, 1.0, 0.0, 1.0, 0.0, 0.0, 1.0, 0.0, 1.0, 0.0, 2.0, 0.0, 1.0, 1.0, 1.0, 3.0, 1.0, 0.0, 2.0, 0.0, 0.0, 2.0, 1.0, 1.0, 0.0, 1.0, 2.0, 1.0, 1.0, 0.0, 0.0, 2.0, 0.0, 1.0, 2.0, 1.0, 0.0, 1.0, 1.0, 0.0, 0.0, 0.0, 0.0, 0.0, 0.0, 0.0, 0.0, 1.0, 1.0], "bins": [-0.27927321195602417, -0.2712605595588684, -0.26324790716171265, -0.2552352249622345, -0.24722257256507874, -0.23920992016792297, -0.2311972677707672, -0.22318461537361145, -0.2151719480752945, -0.20715929567813873, -0.19914662837982178, -0.19113397598266602, -0.18312132358551025, -0.1751086562871933, -0.16709600389003754, -0.15908333659172058, -0.15107068419456482, -0.14305803179740906, -0.1350453644990921, -0.12703271210193634, -0.11902005225419998, -0.11100739240646362, -0.10299474000930786, -0.0949820801615715, -0.08696942031383514, -0.07895676046609879, -0.07094410061836243, -0.06293144822120667, -0.054918788373470306, -0.04690612852573395, -0.03889347240328789, -0.030880816280841827, -0.022868171334266663, -0.014855513349175453, -0.006842855364084244, 0.0011698026210069656, 0.009182460606098175, 0.017195120453834534, 0.025207776576280594, 0.033220432698726654, 0.04123309254646301, 0.04924575239419937, 0.05725840851664543, 0.06527106463909149, 0.07328372448682785, 0.08129638433456421, 0.08930903673171997, 0.09732169657945633, 0.10533435642719269, 0.11334701627492905, 0.1213596761226654, 0.12937232851982117, 0.13738498091697693, 0.14539764821529388, 0.15341030061244965, 0.1614229679107666, 0.16943562030792236, 0.17744827270507812, 0.18546094000339508, 0.19347359240055084, 0.2014862596988678, 0.20949891209602356, 0.21751156449317932, 0.22552421689033508, 0.23353688418865204]}, "gradients/attention_1.att_r": {"_type": "histogram", "values": [0.0, 0.0, 0.0, 0.0, 0.0, 0.0, 0.0, 0.0, 0.0, 0.0, 0.0, 0.0, 0.0, 0.0, 0.0, 0.0, 0.0, 0.0, 0.0, 0.0, 0.0, 0.0, 0.0, 0.0, 0.0, 0.0, 0.0, 0.0, 0.0, 0.0, 0.0, 0.0, 40.0, 0.0, 0.0, 0.0, 0.0, 0.0, 0.0, 0.0, 0.0, 0.0, 0.0, 0.0, 0.0, 0.0, 0.0, 0.0, 0.0, 0.0, 0.0, 0.0, 0.0, 0.0, 0.0, 0.0, 0.0, 0.0, 0.0, 0.0, 0.0, 0.0, 0.0, 0.0], "bins": [0.0, 0.0, 0.0, 0.0, 0.0, 0.0, 0.0, 0.0, 0.0, 0.0, 0.0, 0.0, 0.0, 0.0, 0.0, 0.0, 0.0, 0.0, 0.0, 0.0, 0.0, 0.0, 0.0, 0.0, 0.0, 0.0, 0.0, 0.0, 0.0, 0.0, 0.0, 0.0, 0.0, 0.0, 0.0, 0.0, 0.0, 0.0, 0.0, 0.0, 0.0, 0.0, 0.0, 0.0, 0.0, 0.0, 0.0, 0.0, 0.0, 0.0, 0.0, 0.0, 0.0, 0.0, 0.0, 0.0, 0.0, 0.0, 0.0, 0.0, 0.0, 0.0, 0.0, 0.0, 0.0]}, "gradients/attention_1.att_l": {"_type": "histogram", "values": [0.0, 0.0, 0.0, 0.0, 0.0, 0.0, 0.0, 0.0, 0.0, 0.0, 0.0, 0.0, 0.0, 0.0, 0.0, 0.0, 0.0, 0.0, 0.0, 0.0, 0.0, 0.0, 0.0, 0.0, 0.0, 0.0, 0.0, 0.0, 0.0, 0.0, 0.0, 0.0, 40.0, 0.0, 0.0, 0.0, 0.0, 0.0, 0.0, 0.0, 0.0, 0.0, 0.0, 0.0, 0.0, 0.0, 0.0, 0.0, 0.0, 0.0, 0.0, 0.0, 0.0, 0.0, 0.0, 0.0, 0.0, 0.0, 0.0, 0.0, 0.0, 0.0, 0.0, 0.0], "bins": [0.0, 0.0, 0.0, 0.0, 0.0, 0.0, 0.0, 0.0, 0.0, 0.0, 0.0, 0.0, 0.0, 0.0, 0.0, 0.0, 0.0, 0.0, 0.0, 0.0, 0.0, 0.0, 0.0, 0.0, 0.0, 0.0, 0.0, 0.0, 0.0, 0.0, 0.0, 0.0, 0.0, 0.0, 0.0, 0.0, 0.0, 0.0, 0.0, 0.0, 0.0, 0.0, 0.0, 0.0, 0.0, 0.0, 0.0, 0.0, 0.0, 0.0, 0.0, 0.0, 0.0, 0.0, 0.0, 0.0, 0.0, 0.0, 0.0, 0.0, 0.0, 0.0, 0.0, 0.0, 0.0]}, "gradients/attention_1.lin_l.weight": {"_type": "histogram", "values": [0.0, 0.0, 0.0, 0.0, 0.0, 0.0, 0.0, 0.0, 0.0, 0.0, 0.0, 0.0, 0.0, 0.0, 0.0, 0.0, 0.0, 0.0, 0.0, 0.0, 0.0, 0.0, 0.0, 0.0, 0.0, 0.0, 0.0, 0.0, 0.0, 0.0, 0.0, 0.0, 1600.0, 0.0, 0.0, 0.0, 0.0, 0.0, 0.0, 0.0, 0.0, 0.0, 0.0, 0.0, 0.0, 0.0, 0.0, 0.0, 0.0, 0.0, 0.0, 0.0, 0.0, 0.0, 0.0, 0.0, 0.0, 0.0, 0.0, 0.0, 0.0, 0.0, 0.0, 0.0], "bins": [0.0, 0.0, 0.0, 0.0, 0.0, 0.0, 0.0, 0.0, 0.0, 0.0, 0.0, 0.0, 0.0, 0.0, 0.0, 0.0, 0.0, 0.0, 0.0, 0.0, 0.0, 0.0, 0.0, 0.0, 0.0, 0.0, 0.0, 0.0, 0.0, 0.0, 0.0, 0.0, 0.0, 0.0, 0.0, 0.0, 0.0, 0.0, 0.0, 0.0, 0.0, 0.0, 0.0, 0.0, 0.0, 0.0, 0.0, 0.0, 0.0, 0.0, 0.0, 0.0, 0.0, 0.0, 0.0, 0.0, 0.0, 0.0, 0.0, 0.0, 0.0, 0.0, 0.0, 0.0, 0.0]}, "gradients/attention_0.bias": {"_type": "histogram", "values": [1.0, 0.0, 0.0, 0.0, 0.0, 1.0, 0.0, 0.0, 1.0, 1.0, 0.0, 0.0, 1.0, 2.0, 0.0, 0.0, 0.0, 0.0, 0.0, 0.0, 1.0, 0.0, 2.0, 2.0, 0.0, 1.0, 0.0, 1.0, 1.0, 4.0, 0.0, 2.0, 0.0, 0.0, 2.0, 0.0, 2.0, 0.0, 1.0, 1.0, 3.0, 0.0, 1.0, 0.0, 1.0, 1.0, 0.0, 2.0, 1.0, 0.0, 0.0, 1.0, 1.0, 0.0, 0.0, 0.0, 0.0, 0.0, 0.0, 0.0, 0.0, 0.0, 1.0, 1.0], "bins": [-0.25019291043281555, -0.2426346391439438, -0.23507635295391083, -0.22751808166503906, -0.2199597954750061, -0.21240152418613434, -0.20484325289726257, -0.19728496670722961, -0.18972668051719666, -0.1821684092283249, -0.17461012303829193, -0.16705185174942017, -0.1594935655593872, -0.15193529427051544, -0.14437702298164368, -0.13681873679161072, -0.12926046550273895, -0.12170218676328659, -0.11414390802383423, -0.10658563673496246, -0.0990273505449295, -0.09146907925605774, -0.08391080051660538, -0.07635252177715302, -0.06879424303770065, -0.06123596429824829, -0.05367768555879593, -0.046119410544633865, -0.0385611318051815, -0.03100285306572914, -0.023444578051567078, -0.015886299312114716, -0.00832800567150116, -0.0007697278633713722, 0.006788549944758415, 0.014346826821565628, 0.02190510556101799, 0.029463384300470352, 0.037021659314632416, 0.04457993805408478, 0.05213821679353714, 0.0596964955329895, 0.06725477427244186, 0.07481305301189423, 0.08237132430076599, 0.08992961049079895, 0.09748788177967072, 0.10504616051912308, 0.11260443925857544, 0.1201627179980278, 0.12772099673748016, 0.13527926802635193, 0.1428375542163849, 0.15039582550525665, 0.15795409679412842, 0.16551238298416138, 0.17307066917419434, 0.1806289404630661, 0.18818722665309906, 0.19574549794197083, 0.20330378413200378, 0.21086205542087555, 0.21842032670974731, 0.22597861289978027, 0.23353688418865204]}, "gradients/attention_0.att_r": {"_type": "histogram", "values": [1.0, 0.0, 0.0, 0.0, 0.0, 0.0, 0.0, 1.0, 1.0, 0.0, 0.0, 0.0, 0.0, 0.0, 0.0, 0.0, 0.0, 0.0, 0.0, 0.0, 0.0, 0.0, 0.0, 1.0, 0.0, 0.0, 0.0, 0.0, 1.0, 0.0, 0.0, 0.0, 0.0, 0.0, 0.0, 0.0, 1.0, 0.0, 0.0, 1.0, 0.0, 0.0, 0.0, 0.0, 0.0, 0.0, 0.0, 30.0, 0.0, 0.0, 0.0, 0.0, 0.0, 0.0, 0.0, 1.0, 0.0, 0.0, 0.0, 0.0, 0.0, 0.0, 0.0, 2.0], "bins": [-5.191873406890091e-12, -5.082108778947658e-12, -4.972343717324357e-12, -4.862579089381924e-12, -4.752814461439492e-12, -4.64304939981619e-12, -4.533284771873758e-12, -4.4235197102504564e-12, -4.313755082308024e-12, -4.2039904543655915e-12, -4.09422539274229e-12, -3.9844607647998576e-12, -3.874696136857425e-12, -3.764931075234124e-12, -3.655166447291691e-12, -3.545401602508824e-12, -3.4356367577259572e-12, -3.3258719129430903e-12, -3.2161072850006578e-12, -3.106342440217791e-12, -2.996577595434924e-12, -2.886812750652057e-12, -2.7770481227096244e-12, -2.6672832779267575e-12, -2.557518649984325e-12, -2.447753805201458e-12, -2.3379891772590256e-12, -2.2282243324761586e-12, -2.1184594876932916e-12, -2.008694859750859e-12, -1.898930014967992e-12, -1.7891651701851252e-12, -1.6794003254022583e-12, -1.5696355890396085e-12, -1.4598707442567416e-12, -1.3501060078940919e-12, -1.2403411631112249e-12, -1.1305764267485752e-12, -1.0208116903859255e-12, -9.110468456030585e-13, -8.012820550303001e-13, -6.915172644575418e-13, -5.817524738847835e-13, -4.719876833120251e-13, -3.622229198443211e-13, -2.5245815637661706e-13, -1.4269336580385872e-13, -3.2928575231100377e-14, 7.683621534165797e-14, 1.866010059144163e-13, 2.9636579648717465e-13, 4.061305599548787e-13, 5.158953776326913e-13, 6.25660113995341e-13, 7.354249045680994e-13, 8.451896951408577e-13, 9.549544315035075e-13, 1.0647191678661572e-12, 1.1744840126490241e-12, 1.2842487490116739e-12, 1.3940135937945408e-12, 1.5037783301571905e-12, 1.6135430665198403e-12, 1.7233079113027072e-12, 1.833072756085574e-12]}, "gradients/attention_0.att_l": {"_type": "histogram", "values": [2.0, 0.0, 0.0, 1.0, 0.0, 0.0, 0.0, 0.0, 0.0, 0.0, 1.0, 0.0, 0.0, 0.0, 0.0, 0.0, 0.0, 1.0, 30.0, 0.0, 1.0, 0.0, 0.0, 0.0, 0.0, 0.0, 1.0, 0.0, 0.0, 1.0, 0.0, 0.0, 0.0, 0.0, 0.0, 0.0, 0.0, 0.0, 0.0, 0.0, 0.0, 0.0, 0.0, 0.0, 1.0, 0.0, 0.0, 0.0, 0.0, 0.0, 0.0, 0.0, 0.0, 0.0, 0.0, 0.0, 0.0, 0.0, 0.0, 0.0, 0.0, 0.0, 0.0, 1.0], "bins": [-4.391782076895723e-12, -4.148895636768568e-12, -3.9060091966414134e-12, -3.663122756514259e-12, -3.4202365332275386e-12, -3.177350093100384e-12, -2.934463869813664e-12, -2.691577429686509e-12, -2.4486909895593545e-12, -2.2058045494322e-12, -1.962918109305045e-12, -1.720031886018325e-12, -1.4771454458911704e-12, -1.2342590057640157e-12, -9.913726740570783e-13, -7.484863423501409e-13, -5.055999022229862e-13, -2.627135163059402e-13, -1.9827130388894165e-14, 2.2305925552815187e-13, 4.659456414451979e-13, 7.088320815723526e-13, 9.5171841327929e-13, 1.1946047449862274e-12, 1.437491185113382e-12, 1.6803776252405367e-12, 1.9232640653676913e-12, 2.1661502886544115e-12, 2.409036728781566e-12, 2.651923168908721e-12, 2.894809392195441e-12, 3.1376958323225956e-12, 3.3805822724497503e-12, 3.623468712576905e-12, 3.86635515270406e-12, 4.109241592831214e-12, 4.352128032958369e-12, 4.5950144730855236e-12, 4.837900479531809e-12, 5.080786919658964e-12, 5.3236733597861186e-12, 5.566559799913273e-12, 5.809446240040428e-12, 6.0523326801675825e-12, 6.295218686613868e-12, 6.538105126741023e-12, 6.7809915668681775e-12, 7.023878006995332e-12, 7.266764447122487e-12, 7.509650887249641e-12, 7.752537327376796e-12, 7.99542376750395e-12, 8.238310207631105e-12, 8.48119664775826e-12, 8.724083087885415e-12, 8.96696952801257e-12, 9.209855100777986e-12, 9.45274154090514e-12, 9.695627981032295e-12, 9.93851442115945e-12, 1.0181400861286605e-11, 1.042428730141376e-11, 1.0667173741540914e-11, 1.091005931430633e-11, 1.1152946621795223e-11]}, "gradients/attention_0.lin_l.weight": {"_type": "histogram", "values": [1.0, 0.0, 0.0, 0.0, 0.0, 0.0, 0.0, 0.0, 0.0, 0.0, 0.0, 0.0, 0.0, 0.0, 0.0, 0.0, 0.0, 555.0, 0.0, 0.0, 1.0, 0.0, 0.0, 0.0, 0.0, 0.0, 0.0, 0.0, 0.0, 0.0, 0.0, 0.0, 0.0, 0.0, 0.0, 0.0, 1.0, 0.0, 0.0, 1.0, 0.0, 0.0, 0.0, 0.0, 0.0, 0.0, 0.0, 0.0, 0.0, 0.0, 0.0, 0.0, 0.0, 0.0, 0.0, 0.0, 0.0, 0.0, 0.0, 0.0, 0.0, 0.0, 0.0, 1.0], "bins": [-6.810648045529888e-08, -6.427895016258844e-08, -6.045141986987801e-08, -5.6623889577167574e-08, -5.279635928445714e-08, -4.8968828991746705e-08, -4.514129514632259e-08, -4.1313764853612156e-08, -3.748623456090172e-08, -3.3658704268191286e-08, -2.983117397548085e-08, -2.6003641906413577e-08, -2.2176111613703142e-08, -1.8348581320992707e-08, -1.4521049251925433e-08, -1.0693518959214998e-08, -6.865988666504563e-09, -3.0384579297049186e-09, 7.890728070947262e-10, 4.616603987983581e-09, 8.444134280694016e-09, 1.227166457340445e-08, 1.6099196642471725e-08, 1.992672693518216e-08, 2.3754257227892595e-08, 2.758178752060303e-08, 3.1409317813313464e-08, 3.523685165873758e-08, 3.906438195144801e-08, 4.289191224415845e-08, 4.671944253686888e-08, 5.054697282957932e-08, 5.4374496016862395e-08, 5.820202630957283e-08, 6.202955660228326e-08, 6.58570868949937e-08, 6.968461718770413e-08, 7.351214748041457e-08, 7.7339677773125e-08, 8.11672151712628e-08, 8.499473835854587e-08, 8.882226865125631e-08, 9.264979894396674e-08, 9.647732923667718e-08, 1.0030485952938761e-07, 1.0413238982209805e-07, 1.0795992011480848e-07, 1.1178745751294628e-07, 1.1561498780565671e-07, 1.1944251809836715e-07, 1.2327005549650494e-07, 1.2709757868378802e-07, 1.309251160819258e-07, 1.3475263926920888e-07, 1.3858017666734668e-07, 1.4240769985462975e-07, 1.4623523725276755e-07, 1.5006277465090534e-07, 1.5389029783818842e-07, 1.577178352363262e-07, 1.6154535842360929e-07, 1.6537289582174708e-07, 1.6920041900903016e-07, 1.7302795640716795e-07, 1.7685547959445103e-07]}, "mean_loss": 2.3127915461858115, "_wandb": {"runtime": 56420}}