{"parameters/attention_0.att_l": {"_type": "histogram", "values": [3.0, 2.0, 0.0, 2.0, 1.0, 0.0, 0.0, 0.0, 2.0, 1.0, 0.0, 2.0, 0.0, 1.0, 1.0, 0.0, 0.0, 0.0, 0.0, 0.0, 1.0, 0.0, 1.0, 1.0, 0.0, 1.0, 0.0, 1.0, 1.0, 1.0, 0.0, 1.0, 0.0, 1.0, 1.0, 0.0, 1.0, 0.0, 1.0, 0.0, 0.0, 0.0, 0.0, 2.0, 1.0, 1.0, 0.0, 0.0, 0.0, 0.0, 0.0, 1.0, 0.0, 1.0, 0.0, 1.0, 0.0, 1.0, 0.0, 0.0, 2.0, 1.0, 0.0, 2.0], "bins": [-0.6510540246963501, -0.6313362121582031, -0.6116184592247009, -0.591900646686554, -0.5721828937530518, -0.5524650812149048, -0.5327473282814026, -0.5130295157432556, -0.49331173300743103, -0.47359395027160645, -0.45387616753578186, -0.4341583847999573, -0.4144405722618103, -0.3947228193283081, -0.37500500679016113, -0.35528722405433655, -0.33556944131851196, -0.3158516585826874, -0.2961338758468628, -0.2764160931110382, -0.2566983103752136, -0.23698051273822784, -0.21726271510124207, -0.19754493236541748, -0.1778271496295929, -0.1581093668937683, -0.13839158415794373, -0.11867378652095795, -0.09895600378513336, -0.07923822104930878, -0.059520430862903595, -0.03980264067649841, -0.020084857940673828, -0.0003670714795589447, 0.01935071498155594, 0.03906850144267082, 0.058786287903785706, 0.07850407063961029, 0.09822186082601547, 0.11793965101242065, 0.13765743374824524, 0.15737521648406982, 0.1770929992198944, 0.1968107968568802, 0.21652857959270477, 0.23624636232852936, 0.25596415996551514, 0.2756819427013397, 0.2953997254371643, 0.3151175081729889, 0.3348352909088135, 0.35455307364463806, 0.37427085638046265, 0.3939886689186096, 0.4137064516544342, 0.4334242343902588, 0.4531420171260834, 0.47285979986190796, 0.49257758259773254, 0.5122953653335571, 0.5320131778717041, 0.5517309308052063, 0.5714487433433533, 0.5911664962768555, 0.6108843088150024]}, "parameters/attention_0.att_r": {"_type": "histogram", "values": [2.0, 3.0, 0.0, 0.0, 1.0, 1.0, 0.0, 0.0, 0.0, 0.0, 0.0, 0.0, 0.0, 0.0, 1.0, 0.0, 1.0, 0.0, 2.0, 1.0, 1.0, 0.0, 1.0, 1.0, 0.0, 1.0, 0.0, 1.0, 0.0, 0.0, 1.0, 0.0, 1.0, 0.0, 0.0, 1.0, 1.0, 0.0, 0.0, 1.0, 1.0, 0.0, 0.0, 1.0, 0.0, 1.0, 0.0, 1.0, 0.0, 0.0, 1.0, 1.0, 2.0, 2.0, 0.0, 0.0, 4.0, 1.0, 1.0, 0.0, 0.0, 1.0, 0.0, 1.0], "bins": [-0.6331831812858582, -0.614104151725769, -0.5950251817703247, -0.5759461522102356, -0.5568671226501465, -0.5377881526947021, -0.518709123134613, -0.4996301233768463, -0.4805511236190796, -0.46147212386131287, -0.44239312410354614, -0.42331409454345703, -0.4042350947856903, -0.3851560950279236, -0.3660770654678345, -0.34699806571006775, -0.327919065952301, -0.3088400661945343, -0.2897610664367676, -0.27068203687667847, -0.25160303711891174, -0.23252403736114502, -0.2134450227022171, -0.19436600804328918, -0.17528700828552246, -0.15620800852775574, -0.13712899386882782, -0.1180499866604805, -0.09897097945213318, -0.07989197224378586, -0.06081296503543854, -0.04173395037651062, -0.022654950618743896, -0.003575943410396576, 0.015503063797950745, 0.034582071006298065, 0.053661078214645386, 0.0727400854229927, 0.09181909263134003, 0.11089810729026794, 0.12997710704803467, 0.1490561068058014, 0.1681351214647293, 0.18721413612365723, 0.20629313588142395, 0.22537213563919067, 0.2444511502981186, 0.2635301649570465, 0.28260916471481323, 0.30168816447257996, 0.3207671642303467, 0.3398461937904358, 0.3589251935482025, 0.37800419330596924, 0.39708322286605835, 0.4161622226238251, 0.4352412223815918, 0.4543202221393585, 0.47339922189712524, 0.49247825145721436, 0.5115572214126587, 0.5306362509727478, 0.5497152805328369, 0.5687942504882812, 0.5878732800483704]}, "parameters/attention_0.bias": {"_type": "histogram", "values": [0.0, 0.0, 0.0, 0.0, 0.0, 0.0, 0.0, 0.0, 0.0, 0.0, 0.0, 0.0, 0.0, 0.0, 0.0, 0.0, 0.0, 0.0, 0.0, 0.0, 0.0, 0.0, 0.0, 0.0, 0.0, 0.0, 0.0, 0.0, 0.0, 0.0, 0.0, 0.0, 40.0, 0.0, 0.0, 0.0, 0.0, 0.0, 0.0, 0.0, 0.0, 0.0, 0.0, 0.0, 0.0, 0.0, 0.0, 0.0, 0.0, 0.0, 0.0, 0.0, 0.0, 0.0, 0.0, 0.0, 0.0, 0.0, 0.0, 0.0, 0.0, 0.0, 0.0, 0.0], "bins": [0.0, 0.0, 0.0, 0.0, 0.0, 0.0, 0.0, 0.0, 0.0, 0.0, 0.0, 0.0, 0.0, 0.0, 0.0, 0.0, 0.0, 0.0, 0.0, 0.0, 0.0, 0.0, 0.0, 0.0, 0.0, 0.0, 0.0, 0.0, 0.0, 0.0, 0.0, 0.0, 0.0, 0.0, 0.0, 0.0, 0.0, 0.0, 0.0, 0.0, 0.0, 0.0, 0.0, 0.0, 0.0, 0.0, 0.0, 0.0, 0.0, 0.0, 0.0, 0.0, 0.0, 0.0, 0.0, 0.0, 0.0, 0.0, 0.0, 0.0, 0.0, 0.0, 0.0, 0.0, 0.0]}, "parameters/attention_0.lin_l.weight": {"_type": "histogram", "values": [6.0, 8.0, 7.0, 12.0, 11.0, 7.0, 6.0, 11.0, 10.0, 9.0, 12.0, 15.0, 14.0, 8.0, 5.0, 11.0, 11.0, 9.0, 11.0, 12.0, 10.0, 10.0, 5.0, 10.0, 9.0, 5.0, 10.0, 9.0, 5.0, 11.0, 6.0, 9.0, 10.0, 7.0, 9.0, 8.0, 6.0, 9.0, 10.0, 9.0, 11.0, 6.0, 14.0, 9.0, 8.0, 8.0, 6.0, 10.0, 9.0, 5.0, 7.0, 10.0, 5.0, 7.0, 12.0, 6.0, 4.0, 11.0, 6.0, 10.0, 6.0, 8.0, 8.0, 12.0], "bins": [-0.332474946975708, -0.3220886290073395, -0.31170234084129333, -0.3013160228729248, -0.2909297049045563, -0.28054341673851013, -0.2701570987701416, -0.25977081060409546, -0.24938449263572693, -0.2389981895685196, -0.22861187160015106, -0.21822556853294373, -0.2078392654657364, -0.19745296239852905, -0.18706664443016052, -0.17668034136295319, -0.16629402339458466, -0.15590772032737732, -0.1455214023590088, -0.13513509929180145, -0.12474879622459412, -0.11436248570680618, -0.10397617518901825, -0.09358987212181091, -0.08320356160402298, -0.07281725108623505, -0.06243094801902771, -0.05204463750123978, -0.04165833070874214, -0.03127202391624451, -0.020885713398456573, -0.010499410331249237, -0.00011309981346130371, 0.010273207910358906, 0.020659515634179115, 0.0310458242893219, 0.041432131081819534, 0.05181843787431717, 0.0622047483921051, 0.07259105145931244, 0.08297736197710037, 0.0933636724948883, 0.10374997556209564, 0.11413628607988358, 0.12452259659767151, 0.13490889966487885, 0.14529520273208618, 0.1556815207004547, 0.16606782376766205, 0.17645412683486938, 0.18684044480323792, 0.19722674787044525, 0.2076130509376526, 0.21799936890602112, 0.22838567197322845, 0.2387719750404358, 0.24915829300880432, 0.25954461097717285, 0.269930899143219, 0.2803172171115875, 0.29070353507995605, 0.3010898232460022, 0.3114761412143707, 0.32186245918273926, 0.3322487473487854]}, "parameters/attention_1.att_l": {"_type": "histogram", "values": [2.0, 0.0, 1.0, 0.0, 0.0, 0.0, 2.0, 0.0, 0.0, 0.0, 1.0, 0.0, 1.0, 1.0, 2.0, 2.0, 0.0, 0.0, 0.0, 1.0, 1.0, 0.0, 1.0, 0.0, 0.0, 2.0, 0.0, 1.0, 0.0, 0.0, 0.0, 1.0, 0.0, 1.0, 0.0, 1.0, 1.0, 0.0, 1.0, 0.0, 0.0, 0.0, 0.0, 0.0, 0.0, 1.0, 2.0, 2.0, 0.0, 0.0, 1.0, 0.0, 2.0, 0.0, 0.0, 1.0, 2.0, 0.0, 1.0, 1.0, 0.0, 2.0, 1.0, 1.0], "bins": [-0.6530550122261047, -0.6332231163978577, -0.6133912205696106, -0.5935593247413635, -0.5737274289131165, -0.5538955330848694, -0.5340636372566223, -0.51423180103302, -0.49439987540245056, -0.4745679795742035, -0.4547360837459564, -0.43490418791770935, -0.41507232189178467, -0.3952404260635376, -0.3754085302352905, -0.35557663440704346, -0.3357447385787964, -0.3159128427505493, -0.29608094692230225, -0.2762490510940552, -0.2564171552658081, -0.23658527433872223, -0.21675339341163635, -0.19692149758338928, -0.1770896017551422, -0.15725770592689514, -0.13742581009864807, -0.1175939291715622, -0.09776203334331512, -0.07793013751506805, -0.05809824913740158, -0.03826636075973511, -0.018434524536132812, 0.0013973675668239594, 0.02122925966978073, 0.0410611517727375, 0.060893043875694275, 0.08072493970394135, 0.10055682808160782, 0.12038871645927429, 0.14022061228752136, 0.16005250811576843, 0.1798844039440155, 0.19971628487110138, 0.21954818069934845, 0.23938007652759552, 0.2592119574546814, 0.27904385328292847, 0.29887574911117554, 0.3187076449394226, 0.3385395407676697, 0.35837143659591675, 0.3782033324241638, 0.3980352282524109, 0.41786709427833557, 0.43769899010658264, 0.4575308859348297, 0.4773627817630768, 0.49719467759132385, 0.5170265436172485, 0.5368584394454956, 0.5566903352737427, 0.5765222311019897, 0.5963541269302368, 0.6161860227584839]}, "parameters/attention_1.att_r": {"_type": "histogram", "values": [3.0, 0.0, 0.0, 0.0, 0.0, 2.0, 1.0, 0.0, 0.0, 0.0, 1.0, 1.0, 0.0, 1.0, 0.0, 1.0, 0.0, 1.0, 0.0, 0.0, 2.0, 0.0, 0.0, 0.0, 3.0, 0.0, 0.0, 0.0, 0.0, 0.0, 2.0, 0.0, 0.0, 1.0, 1.0, 1.0, 1.0, 0.0, 0.0, 1.0, 1.0, 2.0, 1.0, 1.0, 2.0, 1.0, 1.0, 1.0, 0.0, 0.0, 0.0, 0.0, 0.0, 0.0, 0.0, 1.0, 0.0, 1.0, 2.0, 0.0, 0.0, 0.0, 0.0, 3.0], "bins": [-0.6473450660705566, -0.6272685527801514, -0.6071920394897461, -0.5871155858039856, -0.5670390725135803, -0.546962559223175, -0.5268860459327698, -0.5068095326423645, -0.4867330491542816, -0.46665653586387634, -0.44658005237579346, -0.4265035390853882, -0.4064270257949829, -0.3863505423069, -0.36627402901649475, -0.34619754552841187, -0.3261210322380066, -0.3060445189476013, -0.28596803545951843, -0.26589152216911316, -0.24581502377986908, -0.225738525390625, -0.20566201210021973, -0.18558551371097565, -0.16550901532173157, -0.1454325169324875, -0.1253560185432434, -0.10527950525283813, -0.08520300686359406, -0.06512650847434998, -0.0450500026345253, -0.024973496794700623, -0.004896938800811768, 0.01517956331372261, 0.03525606542825699, 0.05533256754279137, 0.07540906965732574, 0.09548556804656982, 0.1155620738863945, 0.13563857972621918, 0.15571507811546326, 0.17579157650470734, 0.19586807489395142, 0.2159445881843567, 0.23602108657360077, 0.25609758496284485, 0.2761740982532501, 0.296250581741333, 0.3163270950317383, 0.33640360832214355, 0.35648009181022644, 0.3765566051006317, 0.3966330885887146, 0.4167096018791199, 0.43678611516952515, 0.4568626284599304, 0.4769391119480133, 0.4970156252384186, 0.5170921087265015, 0.5371686220169067, 0.557245135307312, 0.5773216485977173, 0.5973981022834778, 0.6174746155738831, 0.6375511288642883]}, "parameters/attention_1.bias": {"_type": "histogram", "values": [0.0, 0.0, 0.0, 0.0, 0.0, 0.0, 0.0, 0.0, 0.0, 0.0, 0.0, 0.0, 0.0, 0.0, 0.0, 0.0, 0.0, 0.0, 0.0, 0.0, 0.0, 0.0, 0.0, 0.0, 0.0, 0.0, 0.0, 0.0, 0.0, 0.0, 0.0, 0.0, 40.0, 0.0, 0.0, 0.0, 0.0, 0.0, 0.0, 0.0, 0.0, 0.0, 0.0, 0.0, 0.0, 0.0, 0.0, 0.0, 0.0, 0.0, 0.0, 0.0, 0.0, 0.0, 0.0, 0.0, 0.0, 0.0, 0.0, 0.0, 0.0, 0.0, 0.0, 0.0], "bins": [0.0, 0.0, 0.0, 0.0, 0.0, 0.0, 0.0, 0.0, 0.0, 0.0, 0.0, 0.0, 0.0, 0.0, 0.0, 0.0, 0.0, 0.0, 0.0, 0.0, 0.0, 0.0, 0.0, 0.0, 0.0, 0.0, 0.0, 0.0, 0.0, 0.0, 0.0, 0.0, 0.0, 0.0, 0.0, 0.0, 0.0, 0.0, 0.0, 0.0, 0.0, 0.0, 0.0, 0.0, 0.0, 0.0, 0.0, 0.0, 0.0, 0.0, 0.0, 0.0, 0.0, 0.0, 0.0, 0.0, 0.0, 0.0, 0.0, 0.0, 0.0, 0.0, 0.0, 0.0, 0.0]}, "parameters/attention_1.lin_l.weight": {"_type": "histogram", "values": [29.0, 21.0, 33.0, 20.0, 24.0, 30.0, 19.0, 20.0, 26.0, 27.0, 25.0, 31.0, 22.0, 38.0, 24.0, 37.0, 26.0, 17.0, 18.0, 24.0, 27.0, 29.0, 38.0, 31.0, 27.0, 24.0, 24.0, 25.0, 20.0, 20.0, 26.0, 20.0, 18.0, 27.0, 20.0, 24.0, 26.0, 25.0, 25.0, 26.0, 24.0, 24.0, 21.0, 24.0, 23.0, 21.0, 22.0, 26.0, 21.0, 17.0, 25.0, 20.0, 30.0, 28.0, 27.0, 21.0, 31.0, 36.0, 23.0, 24.0, 26.0, 32.0, 22.0, 19.0], "bins": [-0.27381953597068787, -0.2652721703052521, -0.2567248046398163, -0.2481774389743805, -0.2396300733089447, -0.2310827076435089, -0.22253535687923431, -0.21398799121379852, -0.20544062554836273, -0.19689325988292694, -0.18834589421749115, -0.17979852855205536, -0.17125117778778076, -0.16270381212234497, -0.15415644645690918, -0.1456090807914734, -0.1370617151260376, -0.1285143494606018, -0.11996698379516602, -0.11141962558031082, -0.10287225991487503, -0.09432489424943924, -0.08577753603458405, -0.07723017036914825, -0.06868280470371246, -0.06013543903827667, -0.05158807709813118, -0.04304071515798569, -0.034493349492549896, -0.025945983827114105, -0.017398621886968613, -0.00885125994682312, -0.0003038942813873291, 0.008243469521403313, 0.016790833324193954, 0.025338197126984596, 0.03388556092977524, 0.04243292659521103, 0.05098028853535652, 0.059527650475502014, 0.0680750161409378, 0.0766223818063736, 0.08516974747180939, 0.09371710568666458, 0.10226447135210037, 0.11081183701753616, 0.11935919523239136, 0.12790656089782715, 0.13645392656326294, 0.14500129222869873, 0.15354865789413452, 0.1620960235595703, 0.1706433892250061, 0.1791907548904419, 0.1877381056547165, 0.19628547132015228, 0.20483283698558807, 0.21338020265102386, 0.22192756831645966, 0.23047493398189545, 0.23902228474617004, 0.24756965041160583, 0.2561170160770416, 0.2646643817424774, 0.2732117474079132]}, "parameters/attention_2.att_l": {"_type": "histogram", "values": [1.0, 1.0, 0.0, 0.0, 0.0, 0.0, 1.0, 0.0, 0.0, 1.0, 1.0, 2.0, 0.0, 1.0, 0.0, 2.0, 0.0, 0.0, 0.0, 0.0, 0.0, 1.0, 0.0, 0.0, 1.0, 0.0, 0.0, 0.0, 1.0, 3.0, 0.0, 1.0, 0.0, 2.0, 1.0, 0.0, 2.0, 1.0, 0.0, 1.0, 1.0, 0.0, 0.0, 0.0, 2.0, 0.0, 0.0, 0.0, 0.0, 1.0, 0.0, 0.0, 1.0, 3.0, 1.0, 1.0, 0.0, 0.0, 0.0, 1.0, 2.0, 2.0, 0.0, 1.0], "bins": [-0.6419892907142639, -0.6218686103820801, -0.6017479300498962, -0.5816272497177124, -0.5615066289901733, -0.5413859486579895, -0.5212652683258057, -0.5011445879936218, -0.481023907661438, -0.46090322732925415, -0.4407825767993927, -0.42066189646720886, -0.400541216135025, -0.3804205656051636, -0.36029988527297974, -0.3401792049407959, -0.32005855441093445, -0.2999378740787506, -0.27981722354888916, -0.2596965432167053, -0.23957586288452148, -0.21945519745349884, -0.1993345320224762, -0.17921385169029236, -0.15909318625926971, -0.13897252082824707, -0.11885184049606323, -0.09873117506504059, -0.07861050218343735, -0.058489829301834106, -0.03836916387081146, -0.018248483538627625, 0.0018721818923950195, 0.02199285291135311, 0.0421135239303112, 0.062234193086624146, 0.08235486596822739, 0.10247553884983063, 0.12259620428085327, 0.1427168846130371, 0.16283755004405975, 0.1829582154750824, 0.20307889580726624, 0.22319956123828888, 0.24332022666931152, 0.26344090700149536, 0.2835615873336792, 0.30368226766586304, 0.3238029181957245, 0.3439235985279083, 0.3640442490577698, 0.3841649293899536, 0.40428560972213745, 0.4244062900543213, 0.44452694058418274, 0.4646476209163666, 0.484768271446228, 0.5048889517784119, 0.5250096321105957, 0.5451302528381348, 0.5652509331703186, 0.5853716135025024, 0.6054922938346863, 0.6256129741668701, 0.645733654499054]}, "parameters/attention_2.att_r": {"_type": "histogram", "values": [1.0, 1.0, 1.0, 0.0, 0.0, 1.0, 0.0, 1.0, 0.0, 0.0, 0.0, 1.0, 4.0, 0.0, 0.0, 1.0, 0.0, 0.0, 2.0, 0.0, 1.0, 1.0, 1.0, 0.0, 0.0, 0.0, 2.0, 4.0, 1.0, 1.0, 1.0, 0.0, 2.0, 0.0, 1.0, 2.0, 0.0, 1.0, 0.0, 0.0, 0.0, 0.0, 1.0, 0.0, 0.0, 0.0, 0.0, 0.0, 1.0, 0.0, 2.0, 0.0, 0.0, 3.0, 0.0, 1.0, 0.0, 0.0, 0.0, 0.0, 0.0, 0.0, 0.0, 1.0], "bins": [-0.6457434892654419, -0.625618577003479, -0.6054936051368713, -0.5853686928749084, -0.5652437806129456, -0.5451188087463379, -0.524993896484375, -0.5048689842224121, -0.48474404215812683, -0.46461910009384155, -0.44449418783187866, -0.4243692457675934, -0.4042443037033081, -0.3841193914413452, -0.36399444937705994, -0.34386950731277466, -0.32374459505081177, -0.3036196529865265, -0.2834947407245636, -0.2633697986602783, -0.24324487149715424, -0.22311994433403015, -0.20299500226974487, -0.1828700751066208, -0.1627451479434967, -0.14262022078037262, -0.12249528616666794, -0.10237035155296326, -0.08224542438983917, -0.06212049722671509, -0.041995562613010406, -0.021870627999305725, -0.001745760440826416, 0.018379170447587967, 0.03850410133600235, 0.05862903222441673, 0.07875396311283112, 0.0988788902759552, 0.11900382488965988, 0.13912875950336456, 0.15925368666648865, 0.17937861382961273, 0.19950354099273682, 0.2196284830570221, 0.23975341022014618, 0.25987833738327026, 0.28000327944755554, 0.3001282215118408, 0.3202531337738037, 0.340378075838089, 0.3605029881000519, 0.38062793016433716, 0.40075284242630005, 0.4208777844905853, 0.4410027265548706, 0.4611276388168335, 0.4812525808811188, 0.501377522945404, 0.5215024352073669, 0.5416273474693298, 0.5617523193359375, 0.5818772315979004, 0.6020021438598633, 0.622127115726471, 0.6422520279884338]}, "parameters/attention_2.bias": {"_type": "histogram", "values": [0.0, 0.0, 0.0, 0.0, 0.0, 0.0, 0.0, 0.0, 0.0, 0.0, 0.0, 0.0, 0.0, 0.0, 0.0, 0.0, 0.0, 0.0, 0.0, 0.0, 0.0, 0.0, 0.0, 0.0, 0.0, 0.0, 0.0, 0.0, 0.0, 0.0, 0.0, 0.0, 40.0, 0.0, 0.0, 0.0, 0.0, 0.0, 0.0, 0.0, 0.0, 0.0, 0.0, 0.0, 0.0, 0.0, 0.0, 0.0, 0.0, 0.0, 0.0, 0.0, 0.0, 0.0, 0.0, 0.0, 0.0, 0.0, 0.0, 0.0, 0.0, 0.0, 0.0, 0.0], "bins": [0.0, 0.0, 0.0, 0.0, 0.0, 0.0, 0.0, 0.0, 0.0, 0.0, 0.0, 0.0, 0.0, 0.0, 0.0, 0.0, 0.0, 0.0, 0.0, 0.0, 0.0, 0.0, 0.0, 0.0, 0.0, 0.0, 0.0, 0.0, 0.0, 0.0, 0.0, 0.0, 0.0, 0.0, 0.0, 0.0, 0.0, 0.0, 0.0, 0.0, 0.0, 0.0, 0.0, 0.0, 0.0, 0.0, 0.0, 0.0, 0.0, 0.0, 0.0, 0.0, 0.0, 0.0, 0.0, 0.0, 0.0, 0.0, 0.0, 0.0, 0.0, 0.0, 0.0, 0.0, 0.0]}, "parameters/attention_2.lin_l.weight": {"_type": "histogram", "values": [35.0, 25.0, 21.0, 26.0, 24.0, 25.0, 15.0, 28.0, 21.0, 30.0, 24.0, 24.0, 26.0, 25.0, 24.0, 25.0, 21.0, 30.0, 28.0, 31.0, 15.0, 29.0, 22.0, 28.0, 34.0, 25.0, 28.0, 25.0, 24.0, 20.0, 21.0, 24.0, 26.0, 19.0, 33.0, 30.0, 29.0, 24.0, 24.0, 32.0, 21.0, 28.0, 27.0, 28.0, 27.0, 23.0, 20.0, 31.0, 24.0, 20.0, 16.0, 20.0, 26.0, 31.0, 26.0, 18.0, 19.0, 33.0, 21.0, 27.0, 18.0, 21.0, 28.0, 27.0], "bins": [-0.2734247148036957, -0.2648763656616211, -0.2563279867172241, -0.24777963757514954, -0.23923128843307495, -0.23068293929100037, -0.2221345752477646, -0.2135862112045288, -0.20503786206245422, -0.19648951292037964, -0.18794114887714386, -0.17939278483390808, -0.1708444356918335, -0.1622960865497589, -0.15374772250652313, -0.14519935846328735, -0.13665100932121277, -0.12810266017913818, -0.1195542961359024, -0.11100593954324722, -0.10245758295059204, -0.09390922635793686, -0.08536086976528168, -0.0768125131726265, -0.06826415657997131, -0.05971579998731613, -0.05116744339466095, -0.04261908680200577, -0.034070730209350586, -0.025522373616695404, -0.016974017024040222, -0.00842566043138504, 0.0001226961612701416, 0.008671052753925323, 0.017219409346580505, 0.025767765939235687, 0.03431612253189087, 0.04286447912454605, 0.05141283571720123, 0.059961192309856415, 0.0685095489025116, 0.07705790549516678, 0.08560626208782196, 0.09415461868047714, 0.10270297527313232, 0.1112513318657875, 0.11979968845844269, 0.12834805250167847, 0.13689640164375305, 0.14544475078582764, 0.15399311482906342, 0.1625414788722992, 0.17108982801437378, 0.17963817715644836, 0.18818654119968414, 0.19673490524291992, 0.2052832543849945, 0.2138316035270691, 0.22237996757030487, 0.23092833161354065, 0.23947668075561523, 0.24802502989768982, 0.2565733790397644, 0.2651217579841614, 0.27367010712623596]}, "parameters/out_att.att_l": {"_type": "histogram", "values": [0.0, 0.0, 0.0, 0.0, 0.0, 0.0, 0.0, 0.0, 0.0, 0.0, 0.0, 0.0, 0.0, 0.0, 0.0, 0.0, 0.0, 0.0, 0.0, 0.0, 0.0, 0.0, 0.0, 0.0, 0.0, 0.0, 0.0, 0.0, 0.0, 0.0, 0.0, 1.0, 0.0, 0.0, 0.0, 0.0, 0.0, 0.0, 0.0, 0.0, 0.0, 0.0, 0.0, 0.0, 0.0, 0.0, 0.0, 0.0, 0.0, 0.0, 0.0, 0.0, 0.0, 0.0, 0.0, 0.0, 0.0, 0.0, 0.0, 0.0, 0.0, 0.0, 0.0, 0.0], "bins": [-0.45856600999832153, -0.45856600999832153, -0.45856600999832153, -0.45856600999832153, -0.45856600999832153, -0.45856600999832153, -0.45856600999832153, -0.45856600999832153, -0.45856600999832153, -0.45856600999832153, -0.45856600999832153, -0.45856600999832153, -0.45856600999832153, -0.45856600999832153, -0.45856600999832153, -0.45856600999832153, -0.45856600999832153, -0.45856600999832153, -0.45856600999832153, -0.45856600999832153, -0.45856600999832153, -0.45856600999832153, -0.45856600999832153, -0.45856600999832153, -0.45856600999832153, -0.45856600999832153, -0.45856600999832153, -0.45856600999832153, -0.45856600999832153, -0.45856600999832153, -0.45856600999832153, -0.45856600999832153, -0.45856600999832153, -0.45856600999832153, -0.45856600999832153, -0.45856600999832153, -0.45856600999832153, -0.45856600999832153, -0.45856600999832153, -0.45856600999832153, -0.45856600999832153, -0.45856600999832153, -0.45856600999832153, -0.45856600999832153, -0.45856600999832153, -0.45856600999832153, -0.45856600999832153, -0.45856600999832153, -0.45856600999832153, -0.45856600999832153, -0.45856600999832153, -0.45856600999832153, -0.45856600999832153, -0.45856600999832153, -0.45856600999832153, -0.45856600999832153, -0.45856600999832153, -0.45856600999832153, -0.45856600999832153, -0.45856600999832153, -0.45856600999832153, -0.45856600999832153, -0.45856600999832153, -0.45856600999832153, -0.45856600999832153]}, "parameters/out_att.att_r": {"_type": "histogram", "values": [0.0, 0.0, 0.0, 0.0, 0.0, 0.0, 0.0, 0.0, 0.0, 0.0, 0.0, 0.0, 0.0, 0.0, 0.0, 0.0, 0.0, 0.0, 0.0, 0.0, 0.0, 0.0, 0.0, 0.0, 0.0, 0.0, 0.0, 0.0, 0.0, 0.0, 0.0, 0.0, 1.0, 0.0, 0.0, 0.0, 0.0, 0.0, 0.0, 0.0, 0.0, 0.0, 0.0, 0.0, 0.0, 0.0, 0.0, 0.0, 0.0, 0.0, 0.0, 0.0, 0.0, 0.0, 0.0, 0.0, 0.0, 0.0, 0.0, 0.0, 0.0, 0.0, 0.0, 0.0], "bins": [1.3842815160751343, 1.3842815160751343, 1.3842815160751343, 1.3842815160751343, 1.3842815160751343, 1.3842815160751343, 1.3842815160751343, 1.3842815160751343, 1.3842815160751343, 1.3842815160751343, 1.3842815160751343, 1.3842815160751343, 1.3842815160751343, 1.3842815160751343, 1.3842815160751343, 1.3842815160751343, 1.3842815160751343, 1.3842815160751343, 1.3842815160751343, 1.3842815160751343, 1.3842815160751343, 1.3842815160751343, 1.3842815160751343, 1.3842815160751343, 1.3842815160751343, 1.3842815160751343, 1.3842815160751343, 1.3842815160751343, 1.3842815160751343, 1.3842815160751343, 1.3842815160751343, 1.3842815160751343, 1.3842815160751343, 1.3842815160751343, 1.3842815160751343, 1.3842815160751343, 1.3842815160751343, 1.3842815160751343, 1.3842815160751343, 1.3842815160751343, 1.3842815160751343, 1.3842815160751343, 1.3842815160751343, 1.3842815160751343, 1.3842815160751343, 1.3842815160751343, 1.3842815160751343, 1.3842815160751343, 1.3842815160751343, 1.3842815160751343, 1.3842815160751343, 1.3842815160751343, 1.3842815160751343, 1.3842815160751343, 1.3842815160751343, 1.3842815160751343, 1.3842815160751343, 1.3842815160751343, 1.3842815160751343, 1.3842815160751343, 1.3842815160751343, 1.3842815160751343, 1.3842815160751343, 1.3842815160751343, 1.3842815160751343]}, "parameters/out_att.bias": {"_type": "histogram", "values": [0.0, 0.0, 0.0, 0.0, 0.0, 0.0, 0.0, 0.0, 0.0, 0.0, 0.0, 0.0, 0.0, 0.0, 0.0, 0.0, 0.0, 0.0, 0.0, 0.0, 0.0, 0.0, 0.0, 0.0, 0.0, 0.0, 0.0, 0.0, 0.0, 0.0, 0.0, 0.0, 1.0, 0.0, 0.0, 0.0, 0.0, 0.0, 0.0, 0.0, 0.0, 0.0, 0.0, 0.0, 0.0, 0.0, 0.0, 0.0, 0.0, 0.0, 0.0, 0.0, 0.0, 0.0, 0.0, 0.0, 0.0, 0.0, 0.0, 0.0, 0.0, 0.0, 0.0, 0.0], "bins": [0.0, 0.0, 0.0, 0.0, 0.0, 0.0, 0.0, 0.0, 0.0, 0.0, 0.0, 0.0, 0.0, 0.0, 0.0, 0.0, 0.0, 0.0, 0.0, 0.0, 0.0, 0.0, 0.0, 0.0, 0.0, 0.0, 0.0, 0.0, 0.0, 0.0, 0.0, 0.0, 0.0, 0.0, 0.0, 0.0, 0.0, 0.0, 0.0, 0.0, 0.0, 0.0, 0.0, 0.0, 0.0, 0.0, 0.0, 0.0, 0.0, 0.0, 0.0, 0.0, 0.0, 0.0, 0.0, 0.0, 0.0, 0.0, 0.0, 0.0, 0.0, 0.0, 0.0, 0.0, 0.0]}, "parameters/out_att.lin_l.weight": {"_type": "histogram", "values": [1.0, 1.0, 0.0, 0.0, 1.0, 0.0, 1.0, 0.0, 0.0, 0.0, 0.0, 0.0, 1.0, 1.0, 0.0, 0.0, 1.0, 2.0, 0.0, 1.0, 1.0, 0.0, 0.0, 1.0, 1.0, 2.0, 1.0, 1.0, 1.0, 1.0, 0.0, 0.0, 1.0, 0.0, 1.0, 0.0, 0.0, 1.0, 1.0, 0.0, 2.0, 1.0, 0.0, 1.0, 0.0, 1.0, 1.0, 2.0, 1.0, 0.0, 2.0, 0.0, 0.0, 1.0, 1.0, 1.0, 0.0, 0.0, 0.0, 0.0, 0.0, 1.0, 1.0, 1.0], "bins": [-0.35335657000541687, -0.34189724922180176, -0.33043792843818665, -0.31897860765457153, -0.3075192868709564, -0.2960599660873413, -0.2846006751060486, -0.2731413245201111, -0.26168203353881836, -0.25022271275520325, -0.23876339197158813, -0.22730407118797302, -0.2158447504043579, -0.2043854296207428, -0.19292612373828888, -0.18146680295467377, -0.17000746726989746, -0.15854814648628235, -0.14708882570266724, -0.13562950491905212, -0.12417019158601761, -0.1127108708024025, -0.10125155746936798, -0.08979223668575287, -0.07833291590213776, -0.06687359511852264, -0.05541427806019783, -0.043954961001873016, -0.032495640218257904, -0.021036319434642792, -0.009577006101608276, 0.001882314682006836, 0.013341635465621948, 0.02480095438659191, 0.036260273307561874, 0.04771959036588669, 0.0591789111495018, 0.07063823193311691, 0.08209754526615143, 0.09355686604976654, 0.10501618683338165, 0.11647550761699677, 0.12793482840061188, 0.1393941342830658, 0.1508534550666809, 0.16231277585029602, 0.17377209663391113, 0.18523141741752625, 0.19669073820114136, 0.20815005898475647, 0.21960937976837158, 0.2310687005519867, 0.2425280213356018, 0.2539873421192169, 0.26544666290283203, 0.27690595388412476, 0.28836530447006226, 0.29982462525367737, 0.3112839460372925, 0.3227432668209076, 0.3342025876045227, 0.3456619083881378, 0.35712122917175293, 0.36858052015304565, 0.38003984093666077]}, "_runtime": 1208, "_timestamp": 1638366538, "_step": 9, "Learning rate value": 0.005, "Learning rate action": 0.005, "action_probs": {"_type": "histogram", "values": [2, 0, 0, 0, 2, 0, 0, 0, 0, 0, 0, 0, 0, 2, 0, 0, 0, 0, 0, 2, 0, 2, 0, 0, 0, 6, 0, 0, 198, 0, 0, 0, 0, 2, 2, 2, 0, 2, 2, 0, 0, 4, 0, 2, 2, 0, 2, 2, 0, 0, 2, 0, 0, 2, 0, 0, 4, 0, 4, 0, 0, 2, 2, 30], "bins": [0.09551224112510681, 0.10964486002922058, 0.12377748638391495, 0.13791009783744812, 0.15204273164272308, 0.16617535054683685, 0.18030796945095062, 0.1944405883550644, 0.20857320725917816, 0.22270582616329193, 0.2368384599685669, 0.25097107887268066, 0.26510369777679443, 0.2792363166809082, 0.293368935585022, 0.30750155448913574, 0.3216341733932495, 0.3357667922973633, 0.34989941120147705, 0.3640320301055908, 0.378164678812027, 0.39229729771614075, 0.4064299166202545, 0.4205625355243683, 0.43469515442848206, 0.4488277733325958, 0.4629603922367096, 0.47709301114082336, 0.49122563004493713, 0.5053582787513733, 0.5194908976554871, 0.5336235165596008, 0.5477561354637146, 0.5618887543678284, 0.5760213732719421, 0.5901539921760559, 0.6042866110801697, 0.6184192299842834, 0.6325518488883972, 0.646684467792511, 0.6608170866966248, 0.6749497056007385, 0.6890823245048523, 0.7032149434089661, 0.7173475623130798, 0.7314801812171936, 0.7456128001213074, 0.7597454190254211, 0.7738780379295349, 0.7880106568336487, 0.8021432757377625, 0.8162758946418762, 0.8304085731506348, 0.8445411920547485, 0.8586738109588623, 0.8728064298629761, 0.8869390487670898, 0.9010716676712036, 0.9152042865753174, 0.9293369054794312, 0.9434695243835449, 0.9576021432876587, 0.9717347621917725, 0.9858673810958862, 1.0]}, "stop_go_action": {"_type": "histogram", "values": [126, 0, 0, 0, 0, 0, 0, 0, 0, 0, 0, 0, 0, 0, 0, 0, 0, 0, 0, 0, 0, 0, 0, 0, 0, 0, 0, 0, 0, 0, 0, 0, 0, 0, 0, 0, 0, 0, 0, 0, 0, 0, 0, 0, 0, 0, 0, 0, 0, 0, 0, 0, 0, 0, 0, 0, 0, 0, 0, 0, 0, 0, 0, 156], "bins": [0.0, 0.015625, 0.03125, 0.046875, 0.0625, 0.078125, 0.09375, 0.109375, 0.125, 0.140625, 0.15625, 0.171875, 0.1875, 0.203125, 0.21875, 0.234375, 0.25, 0.265625, 0.28125, 0.296875, 0.3125, 0.328125, 0.34375, 0.359375, 0.375, 0.390625, 0.40625, 0.421875, 0.4375, 0.453125, 0.46875, 0.484375, 0.5, 0.515625, 0.53125, 0.546875, 0.5625, 0.578125, 0.59375, 0.609375, 0.625, 0.640625, 0.65625, 0.671875, 0.6875, 0.703125, 0.71875, 0.734375, 0.75, 0.765625, 0.78125, 0.796875, 0.8125, 0.828125, 0.84375, 0.859375, 0.875, 0.890625, 0.90625, 0.921875, 0.9375, 0.953125, 0.96875, 0.984375, 1.0]}, "node_values": {"_type": "histogram", "values": [3, 1, 1, 15, 0, 0, 4, 0, 0, 0, 0, 0, 1, 13, 8, 7, 11, 2, 2, 6, 0, 0, 0, 0, 3, 7, 11, 2, 5, 5, 0, 5, 0, 0, 0, 3, 2, 0, 4, 0, 7, 2, 0, 0, 2, 0, 0, 0, 0, 1, 1, 0, 0, 0, 1, 0, 1, 0, 0, 0, 2, 0, 0, 3], "bins": [0.8655768632888794, 0.8988474104553461, 0.9321179576218128, 0.9653885047882795, 0.9986590519547462, 1.031929599121213, 1.0652001462876797, 1.0984706934541464, 1.131741240620613, 1.1650117877870798, 1.1982823349535465, 1.2315528821200132, 1.26482342928648, 1.2980939764529467, 1.3313645236194134, 1.36463507078588, 1.3979056179523468, 1.4311761651188135, 1.4644467122852802, 1.497717259451747, 1.5309878066182137, 1.5642583537846804, 1.597528900951147, 1.6307994481176138, 1.6640699952840805, 1.6973405424505472, 1.730611089617014, 1.7638816367834806, 1.7971521839499474, 1.830422731116414, 1.8636932782828808, 1.8969638254493475, 1.9302343726158142, 1.963504919782281, 1.9967754669487476, 2.0300460141152143, 2.063316561281681, 2.0965871084481478, 2.1298576556146145, 2.163128202781081, 2.196398749947548, 2.2296692971140146, 2.2629398442804813, 2.296210391446948, 2.3294809386134148, 2.3627514857798815, 2.396022032946348, 2.429292580112815, 2.4625631272792816, 2.4958336744457483, 2.529104221612215, 2.5623747687786818, 2.5956453159451485, 2.628915863111615, 2.662186410278082, 2.6954569574445486, 2.7287275046110153, 2.761998051777482, 2.7952685989439487, 2.8285391461104155, 2.861809693276882, 2.895080240443349, 2.9283507876098156, 2.9616213347762823, 2.994891881942749]}, "episode_rewards": {"_type": "histogram", "values": [24, 0, 0, 0, 0, 18, 0, 0, 0, 0, 8, 0, 0, 0, 0, 0, 0, 0, 0, 0, 0, 0, 0, 0, 0, 0, 0, 0, 0, 0, 0, 0, 0, 0, 0, 0, 0, 0, 0, 0, 0, 0, 0, 0, 0, 0, 0, 0, 24, 0, 0, 0, 0, 74, 0, 0, 0, 0, 0, 0, 0, 0, 0, 4], "bins": [-13.0, -12.8125, -12.625, -12.4375, -12.25, -12.0625, -11.875, -11.6875, -11.5, -11.3125, -11.125, -10.9375, -10.75, -10.5625, -10.375, -10.1875, -10.0, -9.8125, -9.625, -9.4375, -9.25, -9.0625, -8.875, -8.6875, -8.5, -8.3125, -8.125, -7.9375, -7.75, -7.5625, -7.375, -7.1875, -7.0, -6.8125, -6.625, -6.4375, -6.25, -6.0625, -5.875, -5.6875, -5.5, -5.3125, -5.125, -4.9375, -4.75, -4.5625, -4.375, -4.1875, -4.0, -3.8125, -3.625, -3.4375, -3.25, -3.0625, -2.875, -2.6875, -2.5, -2.3125, -2.125, -1.9375, -1.75, -1.5625, -1.375, -1.1875, -1.0]}, "_wandb": {"runtime": 1207}}