{"parameters/attention_0.att_l": {"_type": "histogram", "values": [3.0, 0.0, 3.0, 2.0, 0.0, 1.0, 0.0, 2.0, 0.0, 0.0, 0.0, 0.0, 0.0, 0.0, 0.0, 1.0, 0.0, 1.0, 1.0, 0.0, 1.0, 0.0, 0.0, 0.0, 0.0, 0.0, 2.0, 0.0, 1.0, 2.0, 1.0, 0.0, 1.0, 1.0, 0.0, 1.0, 0.0, 0.0, 1.0, 1.0, 0.0, 0.0, 1.0, 0.0, 1.0, 1.0, 0.0, 0.0, 3.0, 1.0, 0.0, 2.0, 1.0, 0.0, 0.0, 1.0, 0.0, 1.0, 0.0, 0.0, 0.0, 0.0, 1.0, 1.0], "bins": [-0.5845590233802795, -0.5638726949691772, -0.543186366558075, -0.5225000381469727, -0.5018137693405151, -0.48112744092941284, -0.46044111251831055, -0.43975478410720825, -0.41906845569610596, -0.39838212728500366, -0.37769582867622375, -0.35700950026512146, -0.33632317185401917, -0.31563687324523926, -0.29495054483413696, -0.27426421642303467, -0.25357791781425476, -0.23289160430431366, -0.21220527589321136, -0.19151896238327026, -0.17083263397216797, -0.15014632046222687, -0.12946000695228577, -0.10877367854118347, -0.08808736503124237, -0.06740104407072067, -0.04671472683548927, -0.026028409600257874, -0.0053420886397361755, 0.015344232320785522, 0.036030545830726624, 0.05671687424182892, 0.07740318775177002, 0.09808950871229172, 0.11877582967281342, 0.13946214318275452, 0.1601484715938568, 0.1808347851037979, 0.201521098613739, 0.2222074270248413, 0.2428937405347824, 0.2635800540447235, 0.2842663824558258, 0.3049526810646057, 0.325639009475708, 0.3463253378868103, 0.3670116662979126, 0.3876979947090149, 0.4083842933177948, 0.4290706217288971, 0.449756920337677, 0.4704432487487793, 0.4911295771598816, 0.5118159055709839, 0.5325021743774414, 0.5531885623931885, 0.573874831199646, 0.5945611596107483, 0.6152474880218506, 0.6359337568283081, 0.6566200852394104, 0.6773064136505127, 0.697992742061615, 0.7186790704727173, 0.7393653988838196]}, "parameters/attention_0.att_r": {"_type": "histogram", "values": [1.0, 0.0, 0.0, 1.0, 1.0, 1.0, 0.0, 0.0, 3.0, 1.0, 1.0, 2.0, 1.0, 1.0, 1.0, 0.0, 1.0, 1.0, 2.0, 1.0, 0.0, 1.0, 1.0, 0.0, 2.0, 0.0, 0.0, 0.0, 2.0, 0.0, 0.0, 0.0, 0.0, 0.0, 0.0, 0.0, 1.0, 3.0, 2.0, 0.0, 0.0, 0.0, 0.0, 0.0, 0.0, 1.0, 2.0, 2.0, 0.0, 0.0, 0.0, 0.0, 0.0, 1.0, 0.0, 0.0, 1.0, 0.0, 0.0, 0.0, 0.0, 1.0, 0.0, 1.0], "bins": [-0.7998340129852295, -0.7725687026977539, -0.7453034520149231, -0.7180381417274475, -0.6907728314399719, -0.6635075807571411, -0.6362422704696655, -0.6089769601821899, -0.5817117094993591, -0.5544463992118835, -0.5271811485290527, -0.49991583824157715, -0.47265055775642395, -0.44538527727127075, -0.41811996698379517, -0.39085468649864197, -0.3635893762111664, -0.3363240957260132, -0.3090587854385376, -0.2817935049533844, -0.2545282244682312, -0.2272629290819168, -0.19999763369560242, -0.17273235321044922, -0.14546705782413483, -0.11820176988840103, -0.09093648195266724, -0.06367118656635284, -0.03640589863061905, -0.009140610694885254, 0.018124684691429138, 0.045389965176582336, 0.07265526056289673, 0.09992054849863052, 0.12718583643436432, 0.1544511318206787, 0.1817164123058319, 0.2089817076921463, 0.2362470030784607, 0.2635122835636139, 0.2907775640487671, 0.3180428445339203, 0.3453081548213959, 0.3725734353065491, 0.39983871579170227, 0.42710399627685547, 0.45436930656433105, 0.48163458704948425, 0.5088999271392822, 0.5361652374267578, 0.5634304881095886, 0.5906957983970642, 0.6179611086845398, 0.6452263593673706, 0.6724916696548462, 0.6997569799423218, 0.7270222306251526, 0.7542875409126282, 0.781552791595459, 0.8088181018829346, 0.8360834121704102, 0.863348662853241, 0.8906139731407166, 0.9178792238235474, 0.945144534111023]}, "parameters/attention_0.bias": {"_type": "histogram", "values": [1.0, 2.0, 2.0, 2.0, 0.0, 2.0, 0.0, 0.0, 1.0, 1.0, 0.0, 0.0, 1.0, 2.0, 0.0, 1.0, 2.0, 2.0, 2.0, 2.0, 0.0, 1.0, 2.0, 1.0, 2.0, 0.0, 1.0, 0.0, 1.0, 0.0, 2.0, 1.0, 0.0, 1.0, 0.0, 0.0, 0.0, 1.0, 0.0, 0.0, 1.0, 0.0, 0.0, 0.0, 0.0, 0.0, 0.0, 0.0, 1.0, 1.0, 0.0, 0.0, 0.0, 0.0, 0.0, 0.0, 0.0, 0.0, 0.0, 0.0, 0.0, 0.0, 0.0, 1.0], "bins": [-0.08963155001401901, -0.0860029011964798, -0.08237424492835999, -0.07874559611082077, -0.07511694729328156, -0.07148829102516174, -0.06785964220762253, -0.06423099339008331, -0.0606023371219635, -0.05697368457913399, -0.053345032036304474, -0.04971638321876526, -0.046087730675935745, -0.04245907813310623, -0.03883042931556702, -0.0352017767727375, -0.03157312422990799, -0.027944471687078476, -0.02431582100689411, -0.020687170326709747, -0.017058517783880234, -0.01342986524105072, -0.009801214560866356, -0.006172563880681992, -0.002543911337852478, 0.001084740273654461, 0.0047133918851614, 0.008342043496668339, 0.011970695108175278, 0.015599347651004791, 0.019227998331189156, 0.02285664901137352, 0.02648530900478363, 0.030113961547613144, 0.03374261409044266, 0.03737126290798187, 0.040999915450811386, 0.0446285679936409, 0.048257216811180115, 0.05188586935400963, 0.05551452189683914, 0.059143174439668655, 0.06277182698249817, 0.06640047580003738, 0.0700291246175766, 0.07365778088569641, 0.07728642970323563, 0.08091507852077484, 0.08454373478889465, 0.08817238360643387, 0.09180103987455368, 0.0954296886920929, 0.09905834496021271, 0.10268699377775192, 0.10631564259529114, 0.10994429886341095, 0.11357294768095016, 0.11720159649848938, 0.12083025276660919, 0.12445890158414841, 0.12808755040168762, 0.13171620666980743, 0.13534486293792725, 0.13897350430488586, 0.14260216057300568]}, "parameters/attention_0.lin_l.weight": {"_type": "histogram", "values": [1.0, 1.0, 0.0, 1.0, 0.0, 0.0, 0.0, 0.0, 1.0, 0.0, 3.0, 2.0, 4.0, 4.0, 2.0, 8.0, 2.0, 9.0, 15.0, 7.0, 15.0, 12.0, 14.0, 14.0, 20.0, 16.0, 12.0, 19.0, 10.0, 11.0, 21.0, 25.0, 21.0, 20.0, 13.0, 14.0, 13.0, 13.0, 11.0, 10.0, 17.0, 13.0, 13.0, 11.0, 14.0, 4.0, 13.0, 10.0, 5.0, 3.0, 2.0, 3.0, 3.0, 0.0, 0.0, 1.0, 1.0, 0.0, 2.0, 0.0, 0.0, 0.0, 0.0, 1.0], "bins": [-0.6882397532463074, -0.6672787070274353, -0.6463176608085632, -0.6253566145896912, -0.6043955683708191, -0.5834344625473022, -0.5624734163284302, -0.5415123701095581, -0.520551323890686, -0.49959027767181396, -0.4786292314529419, -0.4576681852340698, -0.43670710921287537, -0.4157460629940033, -0.3947850167751312, -0.37382394075393677, -0.3528629243373871, -0.331901878118515, -0.31094083189964294, -0.2899797558784485, -0.2690187096595764, -0.24805766344070435, -0.22709661722183228, -0.206135556101799, -0.18517450988292694, -0.16421346366405487, -0.1432524025440216, -0.12229135632514954, -0.10133030265569687, -0.0803692489862442, -0.05940820276737213, -0.03844714164733887, -0.017486095428466797, 0.003474956378340721, 0.02443600818514824, 0.04539705812931061, 0.06635811179876328, 0.08731916546821594, 0.10828021168708801, 0.12924127280712128, 0.15020231902599335, 0.17116336524486542, 0.19212442636489868, 0.21308547258377075, 0.23404651880264282, 0.2550075650215149, 0.27596861124038696, 0.2969296872615814, 0.3178907334804535, 0.33885177969932556, 0.35981282591819763, 0.3807739019393921, 0.40173494815826416, 0.42269599437713623, 0.4436570405960083, 0.46461808681488037, 0.48557913303375244, 0.5065401792526245, 0.5275012254714966, 0.5484622716903687, 0.5694233179092407, 0.5903843641281128, 0.6113454103469849, 0.6323065161705017, 0.6532675623893738]}, "parameters/attention_1.att_l": {"_type": "histogram", "values": [1.0, 0.0, 1.0, 0.0, 0.0, 2.0, 0.0, 1.0, 0.0, 2.0, 1.0, 1.0, 1.0, 0.0, 2.0, 0.0, 0.0, 1.0, 0.0, 3.0, 0.0, 2.0, 0.0, 1.0, 0.0, 0.0, 0.0, 2.0, 0.0, 1.0, 0.0, 0.0, 0.0, 0.0, 0.0, 3.0, 0.0, 0.0, 2.0, 0.0, 1.0, 0.0, 0.0, 2.0, 0.0, 2.0, 0.0, 0.0, 0.0, 1.0, 0.0, 0.0, 3.0, 0.0, 1.0, 1.0, 0.0, 0.0, 0.0, 0.0, 0.0, 0.0, 1.0, 1.0], "bins": [-0.6660062074661255, -0.6446925401687622, -0.6233789324760437, -0.6020652651786804, -0.5807515978813171, -0.5594379305839539, -0.5381243228912354, -0.5168106555938721, -0.4954969882965088, -0.4741833508014679, -0.4528696835041046, -0.4315560460090637, -0.41024237871170044, -0.38892874121665955, -0.36761510372161865, -0.34630143642425537, -0.3249877989292145, -0.3036741614341736, -0.2823604941368103, -0.2610468566417694, -0.23973318934440613, -0.21841955184936523, -0.19710589945316315, -0.17579224705696106, -0.15447859466075897, -0.13316494226455688, -0.1118512898683548, -0.0905376449227333, -0.06922399252653122, -0.04791034013032913, -0.02659669518470764, -0.005283042788505554, 0.016030609607696533, 0.03734426200389862, 0.05865791067481041, 0.0799715593457222, 0.10128521174192429, 0.12259886413812637, 0.14391250908374786, 0.16522616147994995, 0.18653981387615204, 0.20785346627235413, 0.2291671186685562, 0.2504807710647583, 0.2717944085597992, 0.2931080758571625, 0.31442171335220337, 0.33573538064956665, 0.35704901814460754, 0.37836265563964844, 0.3996763229370117, 0.4209899604320526, 0.4423036277294159, 0.4636172652244568, 0.48493093252182007, 0.5062445402145386, 0.5275582075119019, 0.5488718748092651, 0.5701854825019836, 0.5914991497993469, 0.6128128170967102, 0.6341264843940735, 0.655440092086792, 0.6767537593841553, 0.6980674266815186]}, "parameters/attention_1.att_r": {"_type": "histogram", "values": [1.0, 0.0, 1.0, 0.0, 1.0, 0.0, 0.0, 1.0, 2.0, 0.0, 1.0, 1.0, 1.0, 1.0, 0.0, 0.0, 1.0, 0.0, 0.0, 0.0, 1.0, 2.0, 0.0, 2.0, 1.0, 2.0, 0.0, 0.0, 2.0, 0.0, 0.0, 0.0, 2.0, 2.0, 1.0, 0.0, 3.0, 0.0, 1.0, 2.0, 1.0, 0.0, 0.0, 1.0, 2.0, 0.0, 0.0, 1.0, 0.0, 1.0, 0.0, 0.0, 0.0, 0.0, 0.0, 0.0, 0.0, 0.0, 0.0, 0.0, 0.0, 1.0, 0.0, 1.0], "bins": [-0.6367817521095276, -0.6148730516433716, -0.5929642915725708, -0.5710555911064148, -0.5491468906402588, -0.527238130569458, -0.505329430103302, -0.483420729637146, -0.4615119993686676, -0.4396032691001892, -0.4176945686340332, -0.3957858383655548, -0.3738771080970764, -0.3519684076309204, -0.330059677362442, -0.3081509470939636, -0.2862422466278076, -0.2643335163593292, -0.24242481589317322, -0.22051608562469482, -0.19860737025737762, -0.17669865489006042, -0.15478992462158203, -0.13288120925426483, -0.11097249388694763, -0.08906377851963043, -0.06715505570173264, -0.04524633288383484, -0.02333761751651764, -0.0014289021492004395, 0.020479828119277954, 0.042388543486595154, 0.06429725885391235, 0.08620597422122955, 0.10811469703912735, 0.13002341985702515, 0.15193213522434235, 0.17384085059165955, 0.19574958086013794, 0.21765829622745514, 0.23956701159477234, 0.26147574186325073, 0.28338444232940674, 0.30529317259788513, 0.3272019028663635, 0.34911060333251953, 0.3710193336009979, 0.3929280638694763, 0.4148367643356323, 0.4367454946041107, 0.4586541950702667, 0.4805629253387451, 0.5024716258049011, 0.5243803262710571, 0.5462890863418579, 0.5681977868080139, 0.5901064872741699, 0.6120151877403259, 0.6339239478111267, 0.6558326482772827, 0.6777413487434387, 0.6996500492095947, 0.7215588092803955, 0.7434675097465515, 0.7653762698173523]}, "parameters/attention_1.bias": {"_type": "histogram", "values": [1.0, 0.0, 0.0, 0.0, 1.0, 1.0, 1.0, 1.0, 0.0, 1.0, 1.0, 0.0, 2.0, 0.0, 1.0, 0.0, 1.0, 2.0, 1.0, 1.0, 0.0, 0.0, 2.0, 2.0, 0.0, 1.0, 1.0, 0.0, 0.0, 1.0, 2.0, 0.0, 1.0, 1.0, 0.0, 0.0, 1.0, 0.0, 0.0, 1.0, 0.0, 1.0, 0.0, 2.0, 1.0, 1.0, 0.0, 3.0, 0.0, 2.0, 0.0, 1.0, 0.0, 0.0, 0.0, 0.0, 0.0, 0.0, 0.0, 0.0, 0.0, 0.0, 0.0, 1.0], "bins": [-0.1373903900384903, -0.13287071883678436, -0.12835106253623962, -0.12383139133453369, -0.11931172758340836, -0.11479206383228302, -0.11027239263057709, -0.10575272887945175, -0.10123306512832642, -0.09671340137720108, -0.09219373762607574, -0.08767406642436981, -0.08315440267324448, -0.07863473892211914, -0.07411506772041321, -0.06959540396928787, -0.06507574021816254, -0.0605560764670372, -0.05603640899062157, -0.05151674151420593, -0.0469970777630806, -0.04247741401195526, -0.03795774653553963, -0.03343807905912399, -0.028918415307998657, -0.024398749694228172, -0.019879084080457687, -0.015359418466687202, -0.010839752852916718, -0.006320087239146233, -0.0018004216253757477, 0.0027192458510398865, 0.007238894701004028, 0.011758560314774513, 0.016278225928544998, 0.020797891542315483, 0.025317557156085968, 0.029837222769856453, 0.03435688838362694, 0.03887655586004257, 0.04339621961116791, 0.04791588336229324, 0.05243555083870888, 0.05695521831512451, 0.06147488206624985, 0.06599454581737518, 0.07051421701908112, 0.07503388077020645, 0.07955354452133179, 0.08407320827245712, 0.08859287202358246, 0.09311254322528839, 0.09763220697641373, 0.10215187072753906, 0.106671541929245, 0.11119120568037033, 0.11571086943149567, 0.120230533182621, 0.12475019693374634, 0.12926986813545227, 0.1337895393371582, 0.13830919563770294, 0.14282886683940887, 0.1473485231399536, 0.15186819434165955]}, "parameters/attention_1.lin_l.weight": {"_type": "histogram", "values": [2.0, 0.0, 0.0, 0.0, 0.0, 2.0, 3.0, 3.0, 6.0, 4.0, 8.0, 12.0, 20.0, 19.0, 27.0, 36.0, 38.0, 36.0, 44.0, 43.0, 43.0, 39.0, 45.0, 40.0, 34.0, 50.0, 45.0, 57.0, 63.0, 44.0, 39.0, 47.0, 33.0, 55.0, 39.0, 44.0, 41.0, 41.0, 37.0, 31.0, 32.0, 57.0, 53.0, 52.0, 47.0, 34.0, 36.0, 24.0, 27.0, 30.0, 9.0, 13.0, 5.0, 3.0, 3.0, 2.0, 2.0, 0.0, 0.0, 0.0, 0.0, 0.0, 0.0, 1.0], "bins": [-0.4661833345890045, -0.45098865032196045, -0.43579399585723877, -0.4205993115901947, -0.40540462732315063, -0.39020994305610657, -0.3750152587890625, -0.3598206043243408, -0.34462592005729675, -0.3294312357902527, -0.314236581325531, -0.29904189705848694, -0.28384721279144287, -0.2686525285243988, -0.25345784425735474, -0.23826318979263306, -0.223068505525589, -0.20787382125854492, -0.19267915189266205, -0.17748448252677917, -0.1622897982597351, -0.14709511399269104, -0.13190044462680817, -0.1167057678103447, -0.10151109099388123, -0.08631641417741776, -0.07112173736095428, -0.055927060544490814, -0.040732383728027344, -0.025537706911563873, -0.010343030095100403, 0.004851646721363068, 0.02004629373550415, 0.03524097055196762, 0.05043564736843109, 0.06563032418489456, 0.08082500100135803, 0.0960196778178215, 0.11121435463428497, 0.12640902400016785, 0.14160370826721191, 0.15679839253425598, 0.17199306190013885, 0.18718773126602173, 0.2023824155330658, 0.21757709980010986, 0.23277176916599274, 0.2479664385318756, 0.2631611227989197, 0.27835580706596375, 0.2935504913330078, 0.3087451457977295, 0.32393983006477356, 0.3391345143318176, 0.3543291687965393, 0.3695238530635834, 0.38471853733062744, 0.3999132215976715, 0.4151079058647156, 0.43030256032943726, 0.4454972445964813, 0.4606919288635254, 0.47588658332824707, 0.49108126759529114, 0.5062759518623352]}, "parameters/attention_2.att_l": {"_type": "histogram", "values": [1.0, 1.0, 0.0, 1.0, 0.0, 0.0, 1.0, 0.0, 1.0, 0.0, 0.0, 1.0, 1.0, 0.0, 0.0, 2.0, 1.0, 2.0, 1.0, 1.0, 2.0, 0.0, 1.0, 0.0, 0.0, 0.0, 1.0, 1.0, 0.0, 0.0, 0.0, 1.0, 1.0, 0.0, 0.0, 1.0, 0.0, 0.0, 2.0, 1.0, 1.0, 0.0, 1.0, 1.0, 0.0, 0.0, 1.0, 2.0, 0.0, 1.0, 2.0, 0.0, 0.0, 1.0, 0.0, 0.0, 0.0, 1.0, 2.0, 0.0, 0.0, 1.0, 0.0, 1.0], "bins": [-0.6873863339424133, -0.6650018095970154, -0.6426172852516174, -0.6202327609062195, -0.5978482365608215, -0.5754637122154236, -0.5530791282653809, -0.5306946039199829, -0.508310079574585, -0.485925555229187, -0.46354103088378906, -0.4411565065383911, -0.41877198219299316, -0.3963874578475952, -0.3740029036998749, -0.35161837935447693, -0.32923388481140137, -0.3068493604660034, -0.28446483612060547, -0.2620803117752075, -0.23969577252864838, -0.21731124818325043, -0.19492670893669128, -0.17254218459129333, -0.15015766024589539, -0.12777313590049744, -0.10538860410451889, -0.08300407230854034, -0.060619547963142395, -0.038235023617744446, -0.015850484371185303, 0.0065340399742126465, 0.028918564319610596, 0.05130309239029884, 0.07368762046098709, 0.09607215225696564, 0.11845667660236359, 0.14084120094776154, 0.16322574019432068, 0.18561026453971863, 0.20799478888511658, 0.23037931323051453, 0.2527638375759125, 0.2751483917236328, 0.29753291606903076, 0.3199174404144287, 0.34230196475982666, 0.3646864891052246, 0.38707101345062256, 0.4094555377960205, 0.43184006214141846, 0.4542245864868164, 0.47660911083221436, 0.4989936351776123, 0.5213781595230103, 0.5437626838684082, 0.5661472082138062, 0.5885317325592041, 0.610916256904602, 0.63330078125, 0.655685305595398, 0.6780698299407959, 0.7004543542861938, 0.7228388786315918, 0.7452234625816345]}, "parameters/attention_2.att_r": {"_type": "histogram", "values": [1.0, 0.0, 1.0, 1.0, 1.0, 0.0, 0.0, 0.0, 0.0, 1.0, 1.0, 1.0, 0.0, 2.0, 0.0, 3.0, 0.0, 0.0, 1.0, 0.0, 1.0, 0.0, 0.0, 0.0, 2.0, 0.0, 0.0, 1.0, 0.0, 0.0, 0.0, 0.0, 0.0, 1.0, 1.0, 1.0, 1.0, 1.0, 2.0, 0.0, 0.0, 1.0, 0.0, 0.0, 1.0, 1.0, 0.0, 2.0, 0.0, 1.0, 3.0, 2.0, 2.0, 0.0, 1.0, 0.0, 0.0, 0.0, 0.0, 1.0, 0.0, 0.0, 0.0, 1.0], "bins": [-0.7257053256034851, -0.7018430829048157, -0.6779808402061462, -0.6541185975074768, -0.6302563548088074, -0.6063941121101379, -0.5825319290161133, -0.5586696863174438, -0.5348074436187744, -0.510945200920105, -0.48708295822143555, -0.4632207155227661, -0.4393584728240967, -0.41549623012542725, -0.3916340172290802, -0.36777177453041077, -0.34390950202941895, -0.3200472593307495, -0.2961850166320801, -0.27232277393341064, -0.2484605461359024, -0.22459830343723297, -0.20073607563972473, -0.1768738329410553, -0.15301159024238586, -0.12914934754371643, -0.1052871122956276, -0.08142487704753876, -0.057562634348869324, -0.03370039165019989, -0.00983816385269165, 0.014024078845977783, 0.03788632154464722, 0.06174856051802635, 0.08561079949140549, 0.10947303473949432, 0.13333527743816376, 0.1571975201368332, 0.18105974793434143, 0.20492199063301086, 0.2287842333316803, 0.25264647603034973, 0.27650871872901917, 0.3003709316253662, 0.32423317432403564, 0.3480954170227051, 0.3719576597213745, 0.39581990242004395, 0.4196821451187134, 0.4435443878173828, 0.46740663051605225, 0.4912688732147217, 0.5151311159133911, 0.5389933586120605, 0.56285560131073, 0.5867178440093994, 0.6105800867080688, 0.6344423294067383, 0.6583045721054077, 0.6821668148040771, 0.7060290575027466, 0.729891300201416, 0.7537535429000854, 0.7776157855987549, 0.8014779686927795]}, "parameters/attention_2.bias": {"_type": "histogram", "values": [1.0, 0.0, 0.0, 0.0, 1.0, 0.0, 0.0, 0.0, 0.0, 0.0, 1.0, 0.0, 0.0, 0.0, 0.0, 1.0, 0.0, 0.0, 1.0, 2.0, 1.0, 0.0, 2.0, 1.0, 1.0, 0.0, 2.0, 2.0, 0.0, 1.0, 0.0, 0.0, 0.0, 0.0, 4.0, 0.0, 1.0, 0.0, 2.0, 0.0, 0.0, 1.0, 0.0, 1.0, 0.0, 1.0, 0.0, 0.0, 0.0, 1.0, 1.0, 0.0, 1.0, 0.0, 1.0, 0.0, 0.0, 2.0, 3.0, 1.0, 0.0, 1.0, 0.0, 2.0], "bins": [-0.24391117691993713, -0.23744013905525208, -0.23096910119056702, -0.22449806332588196, -0.2180270254611969, -0.21155598759651184, -0.2050849348306656, -0.19861389696598053, -0.19214285910129547, -0.1856718212366104, -0.17920078337192535, -0.1727297455072403, -0.16625869274139404, -0.15978765487670898, -0.15331661701202393, -0.14684557914733887, -0.1403745412826538, -0.13390350341796875, -0.1274324655532837, -0.12096142023801804, -0.11449038237333298, -0.10801934450864792, -0.10154829919338226, -0.0950772613286972, -0.08860622346401215, -0.08213518559932709, -0.07566414773464203, -0.06919310241937637, -0.06272206455469131, -0.056251026690006256, -0.0497799851000309, -0.04330894351005554, -0.03683790564537048, -0.030366865918040276, -0.023895826190710068, -0.01742478646337986, -0.010953746736049652, -0.0044827088713645935, 0.0019883327186107635, 0.00845937430858612, 0.01493041217327118, 0.021401451900601387, 0.027872491627931595, 0.03434353321790695, 0.04081457108259201, 0.04728560894727707, 0.053756650537252426, 0.06022769212722778, 0.06669872999191284, 0.0731697678565979, 0.07964080572128296, 0.08611185103654861, 0.09258288890123367, 0.09905392676591873, 0.10552497208118439, 0.11199600994586945, 0.1184670478105545, 0.12493808567523956, 0.13140912353992462, 0.13788016140460968, 0.14435121417045593, 0.150822252035141, 0.15729328989982605, 0.1637643277645111, 0.17023536562919617]}, "parameters/attention_2.lin_l.weight": {"_type": "histogram", "values": [2.0, 1.0, 0.0, 0.0, 1.0, 0.0, 3.0, 1.0, 3.0, 2.0, 3.0, 4.0, 6.0, 5.0, 11.0, 15.0, 8.0, 25.0, 15.0, 27.0, 43.0, 39.0, 49.0, 39.0, 33.0, 54.0, 54.0, 51.0, 46.0, 51.0, 55.0, 42.0, 71.0, 46.0, 46.0, 49.0, 73.0, 56.0, 57.0, 54.0, 56.0, 52.0, 48.0, 37.0, 28.0, 37.0, 33.0, 30.0, 27.0, 22.0, 22.0, 22.0, 10.0, 11.0, 7.0, 8.0, 2.0, 1.0, 1.0, 4.0, 1.0, 0.0, 0.0, 1.0], "bins": [-0.6546942591667175, -0.6352024674415588, -0.6157106757164001, -0.5962188243865967, -0.576727032661438, -0.5572352409362793, -0.5377434492111206, -0.5182516574859619, -0.4987598657608032, -0.47926807403564453, -0.45977625250816345, -0.44028446078300476, -0.42079266905784607, -0.401300847530365, -0.3818090558052063, -0.3623172640800476, -0.34282544255256653, -0.32333365082740784, -0.30384182929992676, -0.28435003757476807, -0.2648582458496094, -0.2453664392232895, -0.2258746325969696, -0.2063828408718109, -0.18689103424549103, -0.16739922761917114, -0.14790743589401245, -0.12841562926769257, -0.10892383009195328, -0.08943203091621399, -0.0699402242898941, -0.05044843256473541, -0.030956625938415527, -0.01146482490003109, 0.008026976138353348, 0.027518779039382935, 0.04701057821512222, 0.06650237739086151, 0.0859941840171814, 0.10548597574234009, 0.12497778236865997, 0.14446958899497986, 0.16396138072013855, 0.18345318734645844, 0.20294499397277832, 0.222436785697937, 0.2419285923242569, 0.2614203691482544, 0.2809121906757355, 0.30040398240089417, 0.31989580392837524, 0.33938759565353394, 0.3588793873786926, 0.3783711791038513, 0.3978630006313324, 0.4173547923564911, 0.43684661388397217, 0.45633840560913086, 0.47583022713661194, 0.49532201886177063, 0.5148138403892517, 0.5343056321144104, 0.5537974238395691, 0.5732892155647278, 0.5927810072898865]}, "parameters/out_att.att_l": {"_type": "histogram", "values": [0.0, 0.0, 0.0, 0.0, 0.0, 0.0, 0.0, 0.0, 0.0, 0.0, 0.0, 0.0, 0.0, 0.0, 0.0, 0.0, 0.0, 0.0, 0.0, 0.0, 0.0, 0.0, 0.0, 0.0, 0.0, 0.0, 0.0, 0.0, 0.0, 0.0, 0.0, 0.0, 1.0, 0.0, 0.0, 0.0, 0.0, 0.0, 0.0, 0.0, 0.0, 0.0, 0.0, 0.0, 0.0, 0.0, 0.0, 0.0, 0.0, 0.0, 0.0, 0.0, 0.0, 0.0, 0.0, 0.0, 0.0, 0.0, 0.0, 0.0, 0.0, 0.0, 0.0, 0.0], "bins": [0.8663101196289062, 0.8663101196289062, 0.8663101196289062, 0.8663101196289062, 0.8663101196289062, 0.8663101196289062, 0.8663101196289062, 0.8663101196289062, 0.8663101196289062, 0.8663101196289062, 0.8663101196289062, 0.8663101196289062, 0.8663101196289062, 0.8663101196289062, 0.8663101196289062, 0.8663101196289062, 0.8663101196289062, 0.8663101196289062, 0.8663101196289062, 0.8663101196289062, 0.8663101196289062, 0.8663101196289062, 0.8663101196289062, 0.8663101196289062, 0.8663101196289062, 0.8663101196289062, 0.8663101196289062, 0.8663101196289062, 0.8663101196289062, 0.8663101196289062, 0.8663101196289062, 0.8663101196289062, 0.8663101196289062, 0.8663101196289062, 0.8663101196289062, 0.8663101196289062, 0.8663101196289062, 0.8663101196289062, 0.8663101196289062, 0.8663101196289062, 0.8663101196289062, 0.8663101196289062, 0.8663101196289062, 0.8663101196289062, 0.8663101196289062, 0.8663101196289062, 0.8663101196289062, 0.8663101196289062, 0.8663101196289062, 0.8663101196289062, 0.8663101196289062, 0.8663101196289062, 0.8663101196289062, 0.8663101196289062, 0.8663101196289062, 0.8663101196289062, 0.8663101196289062, 0.8663101196289062, 0.8663101196289062, 0.8663101196289062, 0.8663101196289062, 0.8663101196289062, 0.8663101196289062, 0.8663101196289062, 0.8663101196289062]}, "parameters/out_att.att_r": {"_type": "histogram", "values": [0.0, 0.0, 0.0, 0.0, 0.0, 0.0, 0.0, 0.0, 0.0, 0.0, 0.0, 0.0, 0.0, 0.0, 0.0, 0.0, 0.0, 0.0, 0.0, 0.0, 0.0, 0.0, 0.0, 0.0, 0.0, 0.0, 0.0, 0.0, 0.0, 0.0, 0.0, 0.0, 1.0, 0.0, 0.0, 0.0, 0.0, 0.0, 0.0, 0.0, 0.0, 0.0, 0.0, 0.0, 0.0, 0.0, 0.0, 0.0, 0.0, 0.0, 0.0, 0.0, 0.0, 0.0, 0.0, 0.0, 0.0, 0.0, 0.0, 0.0, 0.0, 0.0, 0.0, 0.0], "bins": [-1.747309923171997, -1.747309923171997, -1.747309923171997, -1.747309923171997, -1.747309923171997, -1.747309923171997, -1.747309923171997, -1.747309923171997, -1.747309923171997, -1.747309923171997, -1.747309923171997, -1.747309923171997, -1.747309923171997, -1.747309923171997, -1.747309923171997, -1.747309923171997, -1.747309923171997, -1.747309923171997, -1.747309923171997, -1.747309923171997, -1.747309923171997, -1.747309923171997, -1.747309923171997, -1.747309923171997, -1.747309923171997, -1.747309923171997, -1.747309923171997, -1.747309923171997, -1.747309923171997, -1.747309923171997, -1.747309923171997, -1.747309923171997, -1.747309923171997, -1.747309923171997, -1.747309923171997, -1.747309923171997, -1.747309923171997, -1.747309923171997, -1.747309923171997, -1.747309923171997, -1.747309923171997, -1.747309923171997, -1.747309923171997, -1.747309923171997, -1.747309923171997, -1.747309923171997, -1.747309923171997, -1.747309923171997, -1.747309923171997, -1.747309923171997, -1.747309923171997, -1.747309923171997, -1.747309923171997, -1.747309923171997, -1.747309923171997, -1.747309923171997, -1.747309923171997, -1.747309923171997, -1.747309923171997, -1.747309923171997, -1.747309923171997, -1.747309923171997, -1.747309923171997, -1.747309923171997, -1.747309923171997]}, "parameters/out_att.bias": {"_type": "histogram", "values": [0.0, 0.0, 0.0, 0.0, 0.0, 0.0, 0.0, 0.0, 0.0, 0.0, 0.0, 0.0, 0.0, 0.0, 0.0, 0.0, 0.0, 0.0, 0.0, 0.0, 0.0, 0.0, 0.0, 0.0, 0.0, 0.0, 0.0, 0.0, 0.0, 0.0, 0.0, 0.0, 1.0, 0.0, 0.0, 0.0, 0.0, 0.0, 0.0, 0.0, 0.0, 0.0, 0.0, 0.0, 0.0, 0.0, 0.0, 0.0, 0.0, 0.0, 0.0, 0.0, 0.0, 0.0, 0.0, 0.0, 0.0, 0.0, 0.0, 0.0, 0.0, 0.0, 0.0, 0.0], "bins": [0.5187285542488098, 0.5187285542488098, 0.5187285542488098, 0.5187285542488098, 0.5187285542488098, 0.5187285542488098, 0.5187285542488098, 0.5187285542488098, 0.5187285542488098, 0.5187285542488098, 0.5187285542488098, 0.5187285542488098, 0.5187285542488098, 0.5187285542488098, 0.5187285542488098, 0.5187285542488098, 0.5187285542488098, 0.5187285542488098, 0.5187285542488098, 0.5187285542488098, 0.5187285542488098, 0.5187285542488098, 0.5187285542488098, 0.5187285542488098, 0.5187285542488098, 0.5187285542488098, 0.5187285542488098, 0.5187285542488098, 0.5187285542488098, 0.5187285542488098, 0.5187285542488098, 0.5187285542488098, 0.5187285542488098, 0.5187285542488098, 0.5187285542488098, 0.5187285542488098, 0.5187285542488098, 0.5187285542488098, 0.5187285542488098, 0.5187285542488098, 0.5187285542488098, 0.5187285542488098, 0.5187285542488098, 0.5187285542488098, 0.5187285542488098, 0.5187285542488098, 0.5187285542488098, 0.5187285542488098, 0.5187285542488098, 0.5187285542488098, 0.5187285542488098, 0.5187285542488098, 0.5187285542488098, 0.5187285542488098, 0.5187285542488098, 0.5187285542488098, 0.5187285542488098, 0.5187285542488098, 0.5187285542488098, 0.5187285542488098, 0.5187285542488098, 0.5187285542488098, 0.5187285542488098, 0.5187285542488098, 0.5187285542488098]}, "parameters/out_att.lin_l.weight": {"_type": "histogram", "values": [2.0, 0.0, 0.0, 0.0, 0.0, 2.0, 1.0, 0.0, 1.0, 0.0, 1.0, 2.0, 1.0, 0.0, 0.0, 1.0, 2.0, 1.0, 1.0, 1.0, 1.0, 2.0, 1.0, 0.0, 1.0, 0.0, 1.0, 2.0, 1.0, 4.0, 0.0, 2.0, 1.0, 0.0, 0.0, 1.0, 0.0, 1.0, 1.0, 0.0, 0.0, 0.0, 0.0, 0.0, 0.0, 1.0, 0.0, 0.0, 0.0, 1.0, 0.0, 0.0, 0.0, 0.0, 0.0, 0.0, 0.0, 0.0, 1.0, 0.0, 1.0, 0.0, 0.0, 1.0], "bins": [-0.23402851819992065, -0.2244814783334732, -0.21493443846702576, -0.2053874135017395, -0.19584037363529205, -0.1862933337688446, -0.17674630880355835, -0.1671992689371109, -0.15765222907066345, -0.148105189204216, -0.13855814933776855, -0.1290111243724823, -0.11946408450603485, -0.1099170446395874, -0.10037001222372055, -0.0908229798078537, -0.08127593994140625, -0.0717289000749588, -0.06218186765909195, -0.0526348315179348, -0.04308779537677765, -0.0335407592356205, -0.02399372309446335, -0.014446690678596497, -0.004899650812149048, 0.004647385329008102, 0.014194421470165253, 0.023741457611322403, 0.03328849375247955, 0.042835529893636703, 0.052382566034793854, 0.061929598450660706, 0.07147663831710815, 0.0810236781835556, 0.09057071059942245, 0.1001177430152893, 0.10966478288173676, 0.1192118227481842, 0.12875884771347046, 0.1383058875799179, 0.14785292744636536, 0.1573999673128128, 0.16694700717926025, 0.1764940321445465, 0.18604107201099396, 0.1955881118774414, 0.20513513684272766, 0.2146821767091751, 0.22422921657562256, 0.23377625644207, 0.24332329630851746, 0.2528703212738037, 0.26241737604141235, 0.2719644010066986, 0.28151142597198486, 0.2910584807395935, 0.30060550570487976, 0.310152530670166, 0.31969958543777466, 0.3292466104030609, 0.33879363536834717, 0.3483406901359558, 0.35788771510124207, 0.3674347400665283, 0.37698179483413696]}, "_runtime": 37663, "_timestamp": 1639915349, "_step": 199, "Learning rate value": 6.155829702431115e-05, "Learning rate action": 6.155829702431115e-05, "action_probs": {"_type": "histogram", "values": [24, 0, 0, 0, 0, 0, 0, 0, 0, 0, 0, 0, 0, 0, 0, 0, 0, 0, 0, 0, 0, 0, 0, 0, 0, 0, 0, 0, 0, 0, 0, 0, 0, 0, 0, 0, 0, 0, 0, 0, 0, 0, 0, 0, 0, 0, 0, 0, 0, 0, 0, 0, 0, 0, 0, 0, 0, 0, 0, 0, 0, 0, 48, 24], "bins": [0.37319937348365784, 0.377225399017334, 0.3812514543533325, 0.38527747988700867, 0.3893035054206848, 0.39332956075668335, 0.3973555862903595, 0.40138164162635803, 0.4054076671600342, 0.4094336926937103, 0.41345974802970886, 0.417485773563385, 0.42151179909706116, 0.4255378544330597, 0.42956387996673584, 0.433589905500412, 0.4376159608364105, 0.44164198637008667, 0.4456680119037628, 0.44969406723976135, 0.4537200927734375, 0.45774614810943604, 0.4617721736431122, 0.46579819917678833, 0.46982425451278687, 0.473850280046463, 0.47787630558013916, 0.4819023609161377, 0.48592838644981384, 0.48995441198349, 0.4939804673194885, 0.4980064928531647, 0.5020325183868408, 0.5060585737228394, 0.5100846290588379, 0.5141106247901917, 0.5181366801261902, 0.5221627354621887, 0.5261887311935425, 0.530214786529541, 0.5342408418655396, 0.5382668375968933, 0.5422928929328918, 0.5463189482688904, 0.5503449440002441, 0.5543709993362427, 0.5583970546722412, 0.562423050403595, 0.5664491057395935, 0.570475161075592, 0.5745011568069458, 0.5785272121429443, 0.5825532674789429, 0.5865793228149414, 0.5906053185462952, 0.5946313738822937, 0.5986574292182922, 0.602683424949646, 0.6067094802856445, 0.6107355356216431, 0.6147615313529968, 0.6187875866889954, 0.6228136420249939, 0.6268396377563477, 0.6308656930923462]}, "stop_go_action": {"_type": "histogram", "values": [24, 0, 0, 0, 0, 0, 0, 0, 0, 0, 0, 0, 0, 0, 0, 0, 0, 0, 0, 0, 0, 0, 0, 0, 0, 0, 0, 0, 0, 0, 0, 0, 0, 0, 0, 0, 0, 0, 0, 0, 0, 0, 0, 0, 0, 0, 0, 0, 0, 0, 0, 0, 0, 0, 0, 0, 0, 0, 0, 0, 0, 0, 0, 72], "bins": [0.0, 0.015625, 0.03125, 0.046875, 0.0625, 0.078125, 0.09375, 0.109375, 0.125, 0.140625, 0.15625, 0.171875, 0.1875, 0.203125, 0.21875, 0.234375, 0.25, 0.265625, 0.28125, 0.296875, 0.3125, 0.328125, 0.34375, 0.359375, 0.375, 0.390625, 0.40625, 0.421875, 0.4375, 0.453125, 0.46875, 0.484375, 0.5, 0.515625, 0.53125, 0.546875, 0.5625, 0.578125, 0.59375, 0.609375, 0.625, 0.640625, 0.65625, 0.671875, 0.6875, 0.703125, 0.71875, 0.734375, 0.75, 0.765625, 0.78125, 0.796875, 0.8125, 0.828125, 0.84375, 0.859375, 0.875, 0.890625, 0.90625, 0.921875, 0.9375, 0.953125, 0.96875, 0.984375, 1.0]}, "node_values": {"_type": "histogram", "values": [1, 0, 0, 1, 0, 0, 0, 0, 0, 0, 0, 0, 0, 1, 0, 1, 0, 0, 0, 0, 0, 0, 0, 0, 0, 0, 0, 0, 0, 0, 1, 0, 1, 1, 0, 0, 0, 0, 0, 0, 0, 1, 0, 0, 0, 0, 0, 1, 0, 0, 0, 0, 0, 0, 0, 0, 0, 0, 1, 0, 0, 0, 0, 2], "bins": [2.5263473987579346, 2.5344127006828785, 2.5424780026078224, 2.5505433045327663, 2.5586086064577103, 2.566673908382654, 2.574739210307598, 2.582804512232542, 2.590869814157486, 2.59893511608243, 2.607000418007374, 2.6150657199323177, 2.6231310218572617, 2.6311963237822056, 2.6392616257071495, 2.6473269276320934, 2.6553922295570374, 2.6634575314819813, 2.671522833406925, 2.679588135331869, 2.687653437256813, 2.695718739181757, 2.703784041106701, 2.711849343031645, 2.7199146449565887, 2.7279799468815327, 2.7360452488064766, 2.7441105507314205, 2.7521758526563644, 2.7602411545813084, 2.7683064565062523, 2.776371758431196, 2.78443706035614, 2.792502362281084, 2.800567664206028, 2.808632966130972, 2.816698268055916, 2.8247635699808598, 2.8328288719058037, 2.8408941738307476, 2.8489594757556915, 2.8570247776806355, 2.8650900796055794, 2.8731553815305233, 2.8812206834554672, 2.889285985380411, 2.897351287305355, 2.905416589230299, 2.913481891155243, 2.921547193080187, 2.9296124950051308, 2.9376777969300747, 2.9457430988550186, 2.9538084007799625, 2.9618737027049065, 2.9699390046298504, 2.9780043065547943, 2.9860696084797382, 2.994134910404682, 3.002200212329626, 3.01026551425457, 3.018330816179514, 3.026396118104458, 3.034461420029402, 3.0425267219543457]}, "episode_rewards": {"_type": "histogram", "values": [8, 0, 0, 0, 0, 0, 0, 0, 0, 0, 0, 0, 0, 0, 0, 0, 0, 0, 0, 0, 0, 0, 0, 0, 0, 0, 0, 0, 0, 0, 0, 0, 0, 0, 0, 0, 0, 0, 0, 0, 0, 0, 0, 0, 0, 0, 0, 0, 0, 0, 0, 0, 0, 0, 0, 0, 0, 0, 0, 0, 0, 0, 0, 64], "bins": [-4.0, -3.953125, -3.90625, -3.859375, -3.8125, -3.765625, -3.71875, -3.671875, -3.625, -3.578125, -3.53125, -3.484375, -3.4375, -3.390625, -3.34375, -3.296875, -3.25, -3.203125, -3.15625, -3.109375, -3.0625, -3.015625, -2.96875, -2.921875, -2.875, -2.828125, -2.78125, -2.734375, -2.6875, -2.640625, -2.59375, -2.546875, -2.5, -2.453125, -2.40625, -2.359375, -2.3125, -2.265625, -2.21875, -2.171875, -2.125, -2.078125, -2.03125, -1.984375, -1.9375, -1.890625, -1.84375, -1.796875, -1.75, -1.703125, -1.65625, -1.609375, -1.5625, -1.515625, -1.46875, -1.421875, -1.375, -1.328125, -1.28125, -1.234375, -1.1875, -1.140625, -1.09375, -1.046875, -1.0]}, "avg_reward": -1754.625, "done_agents": 0.1844246031746032, "deadlock_agents": 0.6185515873015873, "gradients/out_att.bias": {"_type": "histogram", "values": [0.0, 0.0, 0.0, 0.0, 0.0, 0.0, 0.0, 0.0, 0.0, 0.0, 0.0, 0.0, 0.0, 0.0, 0.0, 0.0, 0.0, 0.0, 0.0, 0.0, 0.0, 0.0, 0.0, 0.0, 0.0, 0.0, 0.0, 0.0, 0.0, 0.0, 0.0, 0.0, 1.0, 0.0, 0.0, 0.0, 0.0, 0.0, 0.0, 0.0, 0.0, 0.0, 0.0, 0.0, 0.0, 0.0, 0.0, 0.0, 0.0, 0.0, 0.0, 0.0, 0.0, 0.0, 0.0, 0.0, 0.0, 0.0, 0.0, 0.0, 0.0, 0.0, 0.0, 0.0], "bins": [-0.0509699285030365, -0.0509699285030365, -0.0509699285030365, -0.0509699285030365, -0.0509699285030365, -0.0509699285030365, -0.0509699285030365, -0.0509699285030365, -0.0509699285030365, -0.0509699285030365, -0.0509699285030365, -0.0509699285030365, -0.0509699285030365, -0.0509699285030365, -0.0509699285030365, -0.0509699285030365, -0.0509699285030365, -0.0509699285030365, -0.0509699285030365, -0.0509699285030365, -0.0509699285030365, -0.0509699285030365, -0.0509699285030365, -0.0509699285030365, -0.0509699285030365, -0.0509699285030365, -0.0509699285030365, -0.0509699285030365, -0.0509699285030365, -0.0509699285030365, -0.0509699285030365, -0.0509699285030365, -0.0509699285030365, -0.0509699285030365, -0.0509699285030365, -0.0509699285030365, -0.0509699285030365, -0.0509699285030365, -0.0509699285030365, -0.0509699285030365, -0.0509699285030365, -0.0509699285030365, -0.0509699285030365, -0.0509699285030365, -0.0509699285030365, -0.0509699285030365, -0.0509699285030365, -0.0509699285030365, -0.0509699285030365, -0.0509699285030365, -0.0509699285030365, -0.0509699285030365, -0.0509699285030365, -0.0509699285030365, -0.0509699285030365, -0.0509699285030365, -0.0509699285030365, -0.0509699285030365, -0.0509699285030365, -0.0509699285030365, -0.0509699285030365, -0.0509699285030365, -0.0509699285030365, -0.0509699285030365, -0.0509699285030365]}, "gradients/out_att.att_r": {"_type": "histogram", "values": [0.0, 0.0, 0.0, 0.0, 0.0, 0.0, 0.0, 0.0, 0.0, 0.0, 0.0, 0.0, 0.0, 0.0, 0.0, 0.0, 0.0, 0.0, 0.0, 0.0, 0.0, 0.0, 0.0, 0.0, 0.0, 0.0, 0.0, 0.0, 0.0, 0.0, 0.0, 0.0, 1.0, 0.0, 0.0, 0.0, 0.0, 0.0, 0.0, 0.0, 0.0, 0.0, 0.0, 0.0, 0.0, 0.0, 0.0, 0.0, 0.0, 0.0, 0.0, 0.0, 0.0, 0.0, 0.0, 0.0, 0.0, 0.0, 0.0, 0.0, 0.0, 0.0, 0.0, 0.0], "bins": [-6.682955300263416e-10, -6.682955300263416e-10, -6.682955300263416e-10, -6.682955300263416e-10, -6.682955300263416e-10, -6.682955300263416e-10, -6.682955300263416e-10, -6.682955300263416e-10, -6.682955300263416e-10, -6.682955300263416e-10, -6.682955300263416e-10, -6.682955300263416e-10, -6.682955300263416e-10, -6.682955300263416e-10, -6.682955300263416e-10, -6.682955300263416e-10, -6.682955300263416e-10, -6.682955300263416e-10, -6.682955300263416e-10, -6.682955300263416e-10, -6.682955300263416e-10, -6.682955300263416e-10, -6.682955300263416e-10, -6.682955300263416e-10, -6.682955300263416e-10, -6.682955300263416e-10, -6.682955300263416e-10, -6.682955300263416e-10, -6.682955300263416e-10, -6.682955300263416e-10, -6.682955300263416e-10, -6.682955300263416e-10, -6.682955300263416e-10, -6.682955300263416e-10, -6.682955300263416e-10, -6.682955300263416e-10, -6.682955300263416e-10, -6.682955300263416e-10, -6.682955300263416e-10, -6.682955300263416e-10, -6.682955300263416e-10, -6.682955300263416e-10, -6.682955300263416e-10, -6.682955300263416e-10, -6.682955300263416e-10, -6.682955300263416e-10, -6.682955300263416e-10, -6.682955300263416e-10, -6.682955300263416e-10, -6.682955300263416e-10, -6.682955300263416e-10, -6.682955300263416e-10, -6.682955300263416e-10, -6.682955300263416e-10, -6.682955300263416e-10, -6.682955300263416e-10, -6.682955300263416e-10, -6.682955300263416e-10, -6.682955300263416e-10, -6.682955300263416e-10, -6.682955300263416e-10, -6.682955300263416e-10, -6.682955300263416e-10, -6.682955300263416e-10, -6.682955300263416e-10]}, "gradients/out_att.att_l": {"_type": "histogram", "values": [0.0, 0.0, 0.0, 0.0, 0.0, 0.0, 0.0, 0.0, 0.0, 0.0, 0.0, 0.0, 0.0, 0.0, 0.0, 0.0, 0.0, 0.0, 0.0, 0.0, 0.0, 0.0, 0.0, 0.0, 0.0, 0.0, 0.0, 0.0, 0.0, 0.0, 0.0, 0.0, 1.0, 0.0, 0.0, 0.0, 0.0, 0.0, 0.0, 0.0, 0.0, 0.0, 0.0, 0.0, 0.0, 0.0, 0.0, 0.0, 0.0, 0.0, 0.0, 0.0, 0.0, 0.0, 0.0, 0.0, 0.0, 0.0, 0.0, 0.0, 0.0, 0.0, 0.0, 0.0], "bins": [-0.00012502307072281837, -0.00012502307072281837, -0.00012502307072281837, -0.00012502307072281837, -0.00012502307072281837, -0.00012502307072281837, -0.00012502307072281837, -0.00012502307072281837, -0.00012502307072281837, -0.00012502307072281837, -0.00012502307072281837, -0.00012502307072281837, -0.00012502307072281837, -0.00012502307072281837, -0.00012502307072281837, -0.00012502307072281837, -0.00012502307072281837, -0.00012502307072281837, -0.00012502307072281837, -0.00012502307072281837, -0.00012502307072281837, -0.00012502307072281837, -0.00012502307072281837, -0.00012502307072281837, -0.00012502307072281837, -0.00012502307072281837, -0.00012502307072281837, -0.00012502307072281837, -0.00012502307072281837, -0.00012502307072281837, -0.00012502307072281837, -0.00012502307072281837, -0.00012502307072281837, -0.00012502307072281837, -0.00012502307072281837, -0.00012502307072281837, -0.00012502307072281837, -0.00012502307072281837, -0.00012502307072281837, -0.00012502307072281837, -0.00012502307072281837, -0.00012502307072281837, -0.00012502307072281837, -0.00012502307072281837, -0.00012502307072281837, -0.00012502307072281837, -0.00012502307072281837, -0.00012502307072281837, -0.00012502307072281837, -0.00012502307072281837, -0.00012502307072281837, -0.00012502307072281837, -0.00012502307072281837, -0.00012502307072281837, -0.00012502307072281837, -0.00012502307072281837, -0.00012502307072281837, -0.00012502307072281837, -0.00012502307072281837, -0.00012502307072281837, -0.00012502307072281837, -0.00012502307072281837, -0.00012502307072281837, -0.00012502307072281837, -0.00012502307072281837]}, "gradients/out_att.lin_l.weight": {"_type": "histogram", "values": [1.0, 0.0, 0.0, 0.0, 0.0, 0.0, 0.0, 0.0, 0.0, 0.0, 0.0, 0.0, 0.0, 0.0, 1.0, 0.0, 2.0, 1.0, 0.0, 1.0, 0.0, 1.0, 2.0, 1.0, 0.0, 0.0, 0.0, 2.0, 1.0, 2.0, 2.0, 0.0, 0.0, 1.0, 1.0, 4.0, 1.0, 2.0, 2.0, 1.0, 1.0, 2.0, 0.0, 1.0, 0.0, 0.0, 2.0, 2.0, 2.0, 0.0, 0.0, 0.0, 0.0, 0.0, 0.0, 0.0, 0.0, 0.0, 0.0, 0.0, 0.0, 0.0, 0.0, 1.0], "bins": [-0.10618352144956589, -0.10280449688434601, -0.09942547231912613, -0.09604644775390625, -0.09266743063926697, -0.08928840607404709, -0.08590938150882721, -0.08253035694360733, -0.07915133237838745, -0.07577230781316757, -0.07239328324794769, -0.06901426613330841, -0.06563524156808853, -0.06225621700286865, -0.05887719243764877, -0.055498167872428894, -0.05211915075778961, -0.04874012619256973, -0.04536110535264015, -0.04198208078742027, -0.03860305994749069, -0.03522403538227081, -0.031845010817050934, -0.028465988114476204, -0.025086965411901474, -0.021707942709326744, -0.018328920006752014, -0.014949895441532135, -0.011570872738957405, -0.008191850036382675, -0.004812825471162796, -0.001433802768588066, 0.001945212483406067, 0.005324235651642084, 0.008703258819878101, 0.012082282453775406, 0.015461305156350136, 0.018840327858924866, 0.022219352424144745, 0.025598375126719475, 0.028977397829294205, 0.032356422394514084, 0.035735443234443665, 0.039114467799663544, 0.04249349236488342, 0.045872513204813004, 0.04925153777003288, 0.05263055860996246, 0.05600958317518234, 0.05938860774040222, 0.0627676323056221, 0.06614665687084198, 0.06952567398548126, 0.07290469855070114, 0.07628372311592102, 0.0796627476811409, 0.08304177224636078, 0.08642079681158066, 0.08979982137680054, 0.09317883849143982, 0.0965578630566597, 0.09993688762187958, 0.10331591218709946, 0.10669493675231934, 0.11007395386695862]}, "gradients/attention_2.bias": {"_type": "histogram", "values": [2.0, 0.0, 0.0, 0.0, 0.0, 0.0, 0.0, 0.0, 0.0, 0.0, 0.0, 1.0, 0.0, 0.0, 1.0, 1.0, 0.0, 0.0, 1.0, 1.0, 2.0, 2.0, 2.0, 4.0, 2.0, 2.0, 6.0, 2.0, 4.0, 0.0, 1.0, 1.0, 0.0, 0.0, 2.0, 0.0, 0.0, 0.0, 1.0, 0.0, 0.0, 0.0, 0.0, 1.0, 0.0, 0.0, 0.0, 0.0, 0.0, 0.0, 0.0, 0.0, 0.0, 0.0, 0.0, 0.0, 0.0, 0.0, 0.0, 0.0, 0.0, 0.0, 0.0, 1.0], "bins": [-0.04868467152118683, -0.046845559030771255, -0.04500644654035568, -0.04316733404994011, -0.041328221559524536, -0.03948910906910896, -0.03764999657869339, -0.03581088408827782, -0.033971771597862244, -0.03213265910744667, -0.030293546617031097, -0.028454434126615524, -0.02661532163619995, -0.024776209145784378, -0.022937096655368805, -0.021097984164953232, -0.01925887167453766, -0.017419759184122086, -0.015580646693706512, -0.01374153420329094, -0.011902421712875366, -0.010063309222459793, -0.00822419673204422, -0.006385084241628647, -0.004545971751213074, -0.0027068592607975006, -0.0008677467703819275, 0.0009713657200336456, 0.0028104782104492188, 0.004649590700864792, 0.006488703191280365, 0.008327815681695938, 0.010166928172111511, 0.012006040662527084, 0.013845153152942657, 0.01568426564335823, 0.017523378133773804, 0.019362490624189377, 0.02120160311460495, 0.023040715605020523, 0.024879828095436096, 0.02671894058585167, 0.028558053076267242, 0.030397165566682816, 0.03223627805709839, 0.03407539054751396, 0.035914503037929535, 0.03775361552834511, 0.03959272801876068, 0.041431840509176254, 0.04327095299959183, 0.0451100654900074, 0.046949177980422974, 0.04878829047083855, 0.05062740296125412, 0.05246651545166969, 0.054305627942085266, 0.05614474043250084, 0.05798385292291641, 0.059822965413331985, 0.06166207790374756, 0.06350119411945343, 0.0653403028845787, 0.06717941164970398, 0.06901852786540985]}, "gradients/attention_2.att_r": {"_type": "histogram", "values": [2.0, 0.0, 0.0, 0.0, 0.0, 0.0, 0.0, 0.0, 0.0, 0.0, 0.0, 1.0, 0.0, 0.0, 0.0, 0.0, 0.0, 0.0, 0.0, 0.0, 0.0, 0.0, 0.0, 0.0, 0.0, 0.0, 0.0, 0.0, 0.0, 0.0, 0.0, 0.0, 1.0, 0.0, 0.0, 0.0, 0.0, 0.0, 0.0, 31.0, 0.0, 0.0, 1.0, 0.0, 1.0, 0.0, 0.0, 0.0, 0.0, 0.0, 0.0, 0.0, 0.0, 0.0, 0.0, 1.0, 0.0, 0.0, 0.0, 0.0, 0.0, 0.0, 0.0, 2.0], "bins": [-0.00010645980364643037, -0.00010373413533670828, -0.00010100845975102857, -9.828279144130647e-05, -9.555712313158438e-05, -9.283145482186228e-05, -9.010577923618257e-05, -8.738011092646047e-05, -8.465444261673838e-05, -8.192877430701628e-05, -7.920309872133657e-05, -7.647743041161448e-05, -7.375176210189238e-05, -7.102609379217029e-05, -6.830041820649058e-05, -6.557474989676848e-05, -6.284908158704638e-05, -6.012340963934548e-05, -5.7397741329623386e-05, -5.4672069381922483e-05, -5.194640107220039e-05, -4.9220729124499485e-05, -4.649505717679858e-05, -4.3769388867076486e-05, -4.1043713281396776e-05, -3.8318041333695874e-05, -3.559237302397378e-05, -3.2866701076272875e-05, -3.014103276655078e-05, -2.7415360818849877e-05, -2.4689690690138377e-05, -2.1964020561426878e-05, -1.9238352251704782e-05, -1.6512682122993283e-05, -1.3787011994281784e-05, -1.1061340956075583e-05, -8.335670827364083e-06, -5.610000698652584e-06, -2.884329660446383e-06, -1.5865953173488379e-07, 2.5670105969766155e-06, 5.292680725688115e-06, 8.018350854399614e-06, 1.0744021892605815e-05, 1.3469692021317314e-05, 1.6195361240534112e-05, 1.8921033188235015e-05, 2.1646703316946514e-05, 2.4372373445658013e-05, 2.7098043574369512e-05, 2.9823713703081012e-05, 3.2549385650781915e-05, 3.527505396050401e-05, 3.800072590820491e-05, 4.072639421792701e-05, 4.345206616562791e-05, 4.6177738113328815e-05, 4.890341006102972e-05, 5.162907837075181e-05, 5.4354750318452716e-05, 5.708041862817481e-05, 5.9806090575875714e-05, 6.253176252357662e-05, 6.525743083329871e-05, 6.798309914302081e-05]}, "gradients/attention_2.att_l": {"_type": "histogram", "values": [1.0, 0.0, 0.0, 0.0, 0.0, 0.0, 0.0, 0.0, 0.0, 1.0, 0.0, 0.0, 0.0, 0.0, 1.0, 0.0, 0.0, 0.0, 0.0, 0.0, 0.0, 0.0, 0.0, 0.0, 0.0, 0.0, 0.0, 0.0, 0.0, 0.0, 0.0, 0.0, 18.0, 10.0, 2.0, 0.0, 0.0, 0.0, 2.0, 1.0, 0.0, 0.0, 0.0, 0.0, 0.0, 0.0, 1.0, 0.0, 0.0, 0.0, 0.0, 0.0, 0.0, 0.0, 1.0, 0.0, 0.0, 0.0, 0.0, 0.0, 1.0, 0.0, 0.0, 1.0], "bins": [-0.0001163427805295214, -0.00011280339094810188, -0.00010926400136668235, -0.00010572461178526282, -0.00010218521492788568, -9.864582534646615e-05, -9.510643576504663e-05, -9.15670461836271e-05, -8.802764932624996e-05, -8.448825974483043e-05, -8.09488701634109e-05, -7.740948058199137e-05, -7.387008372461423e-05, -7.03306941431947e-05, -6.679130456177518e-05, -6.325191498035565e-05, -5.971252539893612e-05, -5.6173135817516595e-05, -5.263374259811826e-05, -4.909435301669873e-05, -4.55549597973004e-05, -4.201557021588087e-05, -3.847618063446134e-05, -3.4936791053041816e-05, -3.139739783364348e-05, -2.785800643323455e-05, -2.431861503282562e-05, -2.077922545140609e-05, -1.723983405099716e-05, -1.370044265058823e-05, -1.0161053069168702e-05, -6.621661668759771e-06, -3.082277544308454e-06, 4.571134013531264e-07, 3.996504347014707e-06, 7.535894837928936e-06, 1.1075286238337867e-05, 1.4614677638746798e-05, 1.8154067220166326e-05, 2.1693458620575257e-05, 2.5232850020984188e-05, 2.877224142139312e-05, 3.231163282180205e-05, 3.585102240322158e-05, 3.9390411984641105e-05, 4.292980520403944e-05, 4.646919478545897e-05, 5.00085880048573e-05, 5.354797758627683e-05, 5.708736716769636e-05, 6.062676038709469e-05, 6.416614633053541e-05, 6.770554318791255e-05, 7.124493276933208e-05, 7.478432235075161e-05, 7.832371193217114e-05, 8.186310878954828e-05, 8.54024983709678e-05, 8.894188795238733e-05, 9.248127753380686e-05, 9.6020674391184e-05, 9.956006397260353e-05, 0.00010309945355402306, 0.00010663884313544258, 0.00011017823271686211]}, "gradients/attention_2.lin_l.weight": {"_type": "histogram", "values": [1.0, 0.0, 0.0, 0.0, 0.0, 1.0, 0.0, 0.0, 0.0, 1.0, 0.0, 0.0, 1.0, 1.0, 2.0, 0.0, 0.0, 1.0, 0.0, 2.0, 1.0, 1.0, 0.0, 1.0, 0.0, 3.0, 2.0, 1.0, 9.0, 8.0, 6.0, 7.0, 8.0, 14.0, 22.0, 44.0, 74.0, 166.0, 488.0, 386.0, 134.0, 60.0, 34.0, 26.0, 13.0, 9.0, 16.0, 6.0, 8.0, 5.0, 13.0, 7.0, 4.0, 3.0, 6.0, 0.0, 0.0, 0.0, 1.0, 0.0, 3.0, 0.0, 0.0, 1.0], "bins": [-0.045511700212955475, -0.044344425201416016, -0.043177150189876556, -0.0420098751783371, -0.04084260016679764, -0.03967532515525818, -0.03850805014371872, -0.03734077513217926, -0.0361735001206398, -0.03500622510910034, -0.03383895009756088, -0.03267167508602142, -0.031504400074481964, -0.030337125062942505, -0.029169851914048195, -0.028002576902508736, -0.026835303753614426, -0.025668028742074966, -0.024500753730535507, -0.023333478718996048, -0.02216620370745659, -0.02099892869591713, -0.01983165554702282, -0.01866438053548336, -0.0174971055239439, -0.016329830512404442, -0.015162555500864983, -0.013995281420648098, -0.012828006409108639, -0.01166073139756918, -0.010493457317352295, -0.009326182305812836, -0.008158911019563675, -0.006991636008024216, -0.005824361462146044, -0.004657086916267872, -0.0034898119047284126, -0.0023225368931889534, -0.0011552623473107815, 1.2012198567390442e-05, 0.0011792872101068497, 0.0023465619888156652, 0.003513836767524481, 0.004681111313402653, 0.005848386324942112, 0.007015661336481571, 0.008182935416698456, 0.009350210428237915, 0.010517485439777374, 0.011684760451316833, 0.012852035462856293, 0.014019309543073177, 0.015186584554612637, 0.01635386049747467, 0.01752113364636898, 0.01868840865790844, 0.0198556836694479, 0.021022958680987358, 0.022190233692526817, 0.023357508704066277, 0.024524781852960587, 0.025692056864500046, 0.026859331876039505, 0.028026606887578964, 0.029193881899118423]}, "gradients/attention_1.bias": {"_type": "histogram", "values": [1.0, 0.0, 1.0, 0.0, 0.0, 0.0, 0.0, 0.0, 1.0, 0.0, 0.0, 0.0, 0.0, 1.0, 0.0, 0.0, 1.0, 1.0, 1.0, 3.0, 0.0, 1.0, 1.0, 2.0, 0.0, 0.0, 1.0, 1.0, 0.0, 0.0, 3.0, 2.0, 0.0, 1.0, 0.0, 0.0, 1.0, 2.0, 0.0, 0.0, 1.0, 3.0, 0.0, 0.0, 0.0, 3.0, 2.0, 1.0, 0.0, 0.0, 0.0, 0.0, 0.0, 2.0, 0.0, 1.0, 0.0, 0.0, 0.0, 0.0, 1.0, 0.0, 0.0, 1.0], "bins": [-0.07837555557489395, -0.07592082768678665, -0.07346610724925995, -0.07101137936115265, -0.06855665147304535, -0.06610192358493805, -0.06364720314741135, -0.06119247525930405, -0.058737751096487045, -0.056283026933670044, -0.053828299045562744, -0.05137357488274574, -0.04891885071992874, -0.04646412283182144, -0.04400939866900444, -0.04155467450618744, -0.03909994661808014, -0.03664522245526314, -0.03419049456715584, -0.03173577040433884, -0.029281044378876686, -0.026826318353414536, -0.024371594190597534, -0.021916868165135384, -0.019462142139673233, -0.017007416114211082, -0.014552691020071507, -0.01209796592593193, -0.00964323990046978, -0.007188513875007629, -0.0047337887808680534, -0.0022790636867284775, 0.0001756623387336731, 0.0026303878985345364, 0.0050851134583354, 0.007539839018136263, 0.009994564577937126, 0.012449290603399277, 0.014904015697538853, 0.01735874079167843, 0.01981346681714058, 0.02226819284260273, 0.02472291886806488, 0.02717764303088188, 0.029632369056344032, 0.03208709508180618, 0.034541819244623184, 0.036996543407440186, 0.039451271295547485, 0.04190599545836449, 0.044360723346471786, 0.04681544750928879, 0.04927017539739609, 0.05172489956021309, 0.05417962372303009, 0.05663435161113739, 0.05908907577395439, 0.06154379993677139, 0.06399852782487869, 0.06645325571298599, 0.0689079761505127, 0.07136270403862, 0.0738174319267273, 0.076272152364254, 0.0787268802523613]}, "gradients/attention_1.att_r": {"_type": "histogram", "values": [1.0, 0.0, 0.0, 0.0, 0.0, 0.0, 0.0, 0.0, 0.0, 0.0, 0.0, 0.0, 0.0, 1.0, 0.0, 0.0, 0.0, 0.0, 0.0, 1.0, 1.0, 1.0, 0.0, 1.0, 2.0, 2.0, 4.0, 7.0, 7.0, 2.0, 0.0, 1.0, 2.0, 0.0, 1.0, 0.0, 0.0, 1.0, 0.0, 1.0, 0.0, 0.0, 0.0, 1.0, 0.0, 0.0, 0.0, 0.0, 1.0, 0.0, 0.0, 0.0, 0.0, 0.0, 0.0, 0.0, 0.0, 0.0, 1.0, 0.0, 0.0, 0.0, 0.0, 1.0], "bins": [-3.380473331815459e-11, -3.2582898185085085e-11, -3.136106652146253e-11, -3.013923138839303e-11, -2.8917397990047e-11, -2.7695564591700972e-11, -2.6473729458631468e-11, -2.525189606028544e-11, -2.403006266193941e-11, -2.2808229263593383e-11, -2.1586395865247354e-11, -2.036456073217785e-11, -1.914272733383182e-11, -1.7920893935485793e-11, -1.669905880241629e-11, -1.547722540407026e-11, -1.4255392005724232e-11, -1.3033558607378204e-11, -1.1811724341670438e-11, -1.0589890075962671e-11, -9.368056677616643e-12, -8.146223279270615e-12, -6.924389013562848e-12, -5.702554747855082e-12, -4.480721349509054e-12, -3.2588875174821563e-12, -2.037053685455259e-12, -8.152198534283617e-13, 4.0661397859853565e-13, 1.628447810625433e-12, 2.8502816426523303e-12, 4.072115908360097e-12, 5.293945837259173e-12, 6.51577966928607e-12, 7.737613501312968e-12, 8.959447767020734e-12, 1.0181281165366762e-11, 1.140311456371279e-11, 1.2624948829420557e-11, 1.3846783095128323e-11, 1.506861649347435e-11, 1.629044989182038e-11, 1.7512283290166408e-11, 1.8734118423235913e-11, 1.995595182158194e-11, 2.117778521992797e-11, 2.2399620352997474e-11, 2.3621453751343502e-11, 2.484328714968953e-11, 2.606512054803556e-11, 2.7286953946381587e-11, 2.850878907945109e-11, 2.9730620743073644e-11, 3.095245587614315e-11, 3.217429100921265e-11, 3.3396126142282156e-11, 3.461795780590471e-11, 3.583979293897421e-11, 3.7061624602596765e-11, 3.828345973566627e-11, 3.9505294868735774e-11, 4.0727126532358326e-11, 4.194896166542783e-11, 4.317079332905038e-11, 4.439262846211989e-11]}, "gradients/attention_1.att_l": {"_type": "histogram", "values": [1.0, 0.0, 0.0, 0.0, 0.0, 0.0, 0.0, 0.0, 0.0, 0.0, 0.0, 0.0, 0.0, 1.0, 0.0, 0.0, 0.0, 0.0, 0.0, 1.0, 1.0, 1.0, 0.0, 1.0, 2.0, 3.0, 3.0, 7.0, 7.0, 2.0, 0.0, 1.0, 2.0, 0.0, 1.0, 0.0, 0.0, 1.0, 0.0, 1.0, 0.0, 0.0, 0.0, 1.0, 0.0, 0.0, 0.0, 0.0, 1.0, 0.0, 0.0, 0.0, 0.0, 0.0, 0.0, 0.0, 0.0, 0.0, 1.0, 0.0, 0.0, 0.0, 0.0, 1.0], "bins": [-3.380470209313202e-11, -3.258287389895642e-11, -3.136104570478082e-11, -3.013921751060522e-11, -2.8917391051153096e-11, -2.7695562856977496e-11, -2.6473734662801895e-11, -2.525190820334977e-11, -2.403008000917417e-11, -2.280825181499857e-11, -2.158642362082297e-11, -2.036459542664737e-11, -1.9142768967195245e-11, -1.7920940773019645e-11, -1.6699112578844044e-11, -1.547728611939192e-11, -1.4255456190492843e-11, -1.3033627996317243e-11, -1.181180066950338e-11, -1.058997247532778e-11, -9.368145148513918e-12, -8.146316954338317e-12, -6.924488760162717e-12, -5.7026614333488546e-12, -4.480833239173254e-12, -3.2590054786785227e-12, -2.037177501343357e-12, -8.153495240081909e-13, 4.0647823648654047e-13, 1.6283059969812719e-12, 2.8501341911568723e-12, 4.071961517970735e-12, 5.293789712146335e-12, 6.5156174726410665e-12, 7.737445233135798e-12, 8.959273427311398e-12, 1.018110075412526e-11, 1.1402928948300861e-11, 1.2624757142476462e-11, 1.3846584469290324e-11, 1.5068411796104186e-11, 1.6290239990279787e-11, 1.7512068184455387e-11, 1.8733896378630988e-11, 1.9955722838083112e-11, 2.1177551032258712e-11, 2.2399379226434313e-11, 2.3621205685886437e-11, 2.4843035614785514e-11, 2.6064863808961114e-11, 2.7286692003136714e-11, 2.850851846258884e-11, 2.973034665676444e-11, 3.095217485094004e-11, 3.217400304511564e-11, 3.339583123929124e-11, 3.461765943346684e-11, 3.583948762764244e-11, 3.706131582181804e-11, 3.828314401599364e-11, 3.950497221016924e-11, 4.072679693489789e-11, 4.194862512907349e-11, 4.317045332324909e-11, 4.439228151742469e-11]}, "gradients/attention_1.lin_l.weight": {"_type": "histogram", "values": [1.0, 0.0, 0.0, 1.0, 0.0, 0.0, 1.0, 0.0, 0.0, 0.0, 0.0, 0.0, 0.0, 0.0, 1.0, 2.0, 0.0, 3.0, 1.0, 1.0, 0.0, 0.0, 0.0, 2.0, 2.0, 3.0, 3.0, 2.0, 5.0, 7.0, 5.0, 12.0, 22.0, 33.0, 33.0, 38.0, 53.0, 85.0, 106.0, 307.0, 295.0, 175.0, 93.0, 77.0, 61.0, 28.0, 23.0, 23.0, 22.0, 8.0, 8.0, 6.0, 11.0, 6.0, 5.0, 1.0, 3.0, 5.0, 4.0, 5.0, 6.0, 2.0, 3.0, 1.0], "bins": [-0.022702433168888092, -0.02213444747030735, -0.02156646177172661, -0.020998476073145866, -0.020430490374565125, -0.019862504675984383, -0.01929451897740364, -0.0187265332788229, -0.018158547580242157, -0.017590561881661415, -0.017022576183080673, -0.01645459048449993, -0.01588660478591919, -0.015318619087338448, -0.014750633388757706, -0.014182647690176964, -0.013614661991596222, -0.01304667629301548, -0.012478690594434738, -0.011910704895853996, -0.011342719197273254, -0.010774733498692513, -0.01020674780011177, -0.009638762101531029, -0.009070776402950287, -0.008502790704369545, -0.007934805005788803, -0.007366819307208061, -0.006798833608627319, -0.0062308479100465775, -0.005662862211465836, -0.005094876512885094, -0.004526892676949501, -0.003958906978368759, -0.0033909212797880173, -0.0028229355812072754, -0.0022549498826265335, -0.0016869641840457916, -0.0011189784854650497, -0.0005509927868843079, 1.699291169643402e-05, 0.0005849786102771759, 0.0011529643088579178, 0.0017209500074386597, 0.0022889357060194016, 0.0028569214046001434, 0.0034249071031808853, 0.003992892801761627, 0.004560878500342369, 0.005128864198923111, 0.005696849897503853, 0.006264835596084595, 0.006832821294665337, 0.0074008069932460785, 0.00796879269182682, 0.008536778390407562, 0.009104764088988304, 0.009672749787569046, 0.010240735486149788, 0.01080872118473053, 0.011376706883311272, 0.011944692581892014, 0.012512678280472755, 0.013080663979053497, 0.01364864967763424]}, "gradients/attention_0.bias": {"_type": "histogram", "values": [1.0, 0.0, 0.0, 0.0, 0.0, 0.0, 1.0, 0.0, 0.0, 0.0, 0.0, 2.0, 0.0, 0.0, 1.0, 0.0, 0.0, 0.0, 0.0, 1.0, 0.0, 0.0, 0.0, 1.0, 0.0, 2.0, 1.0, 1.0, 2.0, 0.0, 0.0, 3.0, 2.0, 1.0, 1.0, 0.0, 0.0, 2.0, 0.0, 3.0, 1.0, 1.0, 0.0, 2.0, 1.0, 3.0, 0.0, 0.0, 0.0, 0.0, 1.0, 2.0, 1.0, 0.0, 0.0, 0.0, 1.0, 0.0, 0.0, 0.0, 1.0, 0.0, 0.0, 1.0], "bins": [-0.1913621723651886, -0.18587014079093933, -0.18037810921669006, -0.1748860776424408, -0.16939404606819153, -0.16390202939510345, -0.1584099978208542, -0.15291796624660492, -0.14742593467235565, -0.14193390309810638, -0.13644187152385712, -0.13094983994960785, -0.12545782327651978, -0.11996578425168991, -0.11447376012802124, -0.10898172855377197, -0.1034896969795227, -0.09799766540527344, -0.09250563383102417, -0.0870136097073555, -0.08152157813310623, -0.07602954655885696, -0.0705375224351883, -0.06504549086093903, -0.05955345928668976, -0.05406142771244049, -0.04856939986348152, -0.04307737201452255, -0.037585340440273285, -0.03209330886602402, -0.026601281017065048, -0.02110925316810608, -0.015617236495018005, -0.010125206783413887, -0.004633177071809769, 0.0008588526397943497, 0.006350882351398468, 0.011842912063002586, 0.017334941774606705, 0.022826969623565674, 0.02831900119781494, 0.03381103277206421, 0.03930306062102318, 0.04479508846998215, 0.050287120044231415, 0.05577915161848068, 0.06127117946743965, 0.06676320731639862, 0.07225523889064789, 0.07774727046489716, 0.08323930203914642, 0.0887313261628151, 0.09422335773706436, 0.09971538931131363, 0.1052074134349823, 0.11069944500923157, 0.11619147658348083, 0.1216835081577301, 0.12717553973197937, 0.13266757130622864, 0.1381596028804779, 0.14365161955356598, 0.14914365112781525, 0.15463568270206451, 0.16012771427631378]}, "gradients/attention_0.att_r": {"_type": "histogram", "values": [1.0, 0.0, 0.0, 0.0, 0.0, 0.0, 0.0, 0.0, 0.0, 0.0, 0.0, 0.0, 0.0, 0.0, 0.0, 0.0, 0.0, 0.0, 1.0, 0.0, 0.0, 0.0, 0.0, 0.0, 0.0, 0.0, 0.0, 0.0, 0.0, 0.0, 0.0, 0.0, 30.0, 1.0, 0.0, 0.0, 0.0, 1.0, 0.0, 0.0, 1.0, 0.0, 0.0, 0.0, 0.0, 0.0, 0.0, 0.0, 0.0, 0.0, 0.0, 0.0, 1.0, 0.0, 0.0, 1.0, 1.0, 0.0, 1.0, 0.0, 0.0, 0.0, 0.0, 1.0], "bins": [-2.055127452561139e-15, -1.992536376440256e-15, -1.9299453003193733e-15, -1.8673540124402536e-15, -1.8047629363193707e-15, -1.7421718601984878e-15, -1.6795807840776049e-15, -1.616989707956722e-15, -1.5543985259567207e-15, -1.4918074498358378e-15, -1.4292162678358365e-15, -1.3666251917149536e-15, -1.3040341155940707e-15, -1.2414429335940694e-15, -1.1788518574731865e-15, -1.1162606754731852e-15, -1.0536695993523023e-15, -9.910785232314194e-16, -9.28487341231418e-16, -8.658962651105352e-16, -8.033051360500931e-16, -7.40714006989651e-16, -6.781229308687681e-16, -6.15531801808326e-16, -5.529406727478839e-16, -4.903495436874418e-16, -4.277584410967793e-16, -3.651673385061168e-16, -3.025762094456747e-16, -2.399850803852326e-16, -1.773939777945701e-16, -1.1480287520390761e-16, -5.2211746143465514e-17, 1.0379369682086785e-17, 7.297048550763908e-17, 1.3556160133319138e-16, 1.9815271715874368e-16, 2.607438462191858e-16, 3.233349488098483e-16, 3.859260514005108e-16, 4.485171804609529e-16, 5.11108309521395e-16, 5.736994385818371e-16, 6.3629051470272e-16, 6.988816437631621e-16, 7.614727728236042e-16, 8.240638489444871e-16, 8.866549780049292e-16, 9.492461070653713e-16, 1.0118371831862542e-15, 1.0744283651862555e-15, 1.1370194413071384e-15, 1.1996106233071397e-15, 1.2622016994280226e-15, 1.3247927755489055e-15, 1.3873838516697884e-15, 1.4499750336697897e-15, 1.5125661097906726e-15, 1.5751572917906739e-15, 1.6377483679115568e-15, 1.7003394440324397e-15, 1.762930626032441e-15, 1.8255218080324423e-15, 1.888112884153325e-15, 1.950703960274208e-15]}, "gradients/attention_0.att_l": {"_type": "histogram", "values": [1.0, 0.0, 0.0, 0.0, 0.0, 0.0, 0.0, 0.0, 0.0, 0.0, 0.0, 0.0, 0.0, 0.0, 0.0, 0.0, 2.0, 0.0, 0.0, 1.0, 0.0, 0.0, 0.0, 0.0, 0.0, 0.0, 0.0, 1.0, 30.0, 0.0, 0.0, 0.0, 0.0, 0.0, 0.0, 0.0, 0.0, 0.0, 0.0, 1.0, 0.0, 1.0, 0.0, 0.0, 0.0, 0.0, 0.0, 0.0, 0.0, 0.0, 0.0, 0.0, 1.0, 0.0, 1.0, 0.0, 0.0, 0.0, 0.0, 0.0, 0.0, 0.0, 0.0, 1.0], "bins": [-4.2409944405309794e-15, -4.09035174844417e-15, -3.939709056357361e-15, -3.789066364270552e-15, -3.638423672183743e-15, -3.4877809800969335e-15, -3.337138499768361e-15, -3.186495807681552e-15, -3.0358531155947428e-15, -2.8852104235079336e-15, -2.7345677314211244e-15, -2.583925251092552e-15, -2.433282559005743e-15, -2.2826398669189337e-15, -2.1319971748321245e-15, -1.9813544827453154e-15, -1.830711790658506e-15, -1.680069098571697e-15, -1.5294264064848878e-15, -1.378783820277197e-15, -1.2281411281903879e-15, -1.0774984361035787e-15, -9.26855849895888e-16, -7.762131578090787e-16, -6.255704657222695e-16, -4.749277736354604e-16, -3.242851344882104e-16, -1.7364249534096042e-16, -2.2999803254151237e-17, 1.2764288883265794e-16, 2.782854750403487e-16, 4.289281671271579e-16, 5.795704356974934e-16, 7.302131277843026e-16, 8.808557669315526e-16, 1.0314984060788026e-15, 1.1821410981656118e-15, 1.332783790252421e-15, 1.4834263764601117e-15, 1.6340690685469209e-15, 1.78471176063373e-15, 1.9353544527205392e-15, 2.0859971448073484e-15, 2.2366396251359208e-15, 2.38728231722273e-15, 2.537925009309539e-15, 2.6885677013963483e-15, 2.8392103934831575e-15, 2.9898530855699667e-15, 3.140495777656776e-15, 3.291138469743585e-15, 3.4417811618303942e-15, 3.5924238539172034e-15, 3.7430665460040126e-15, 3.893708814574348e-15, 4.044351930177631e-15, 4.1949941987479665e-15, 4.345636890834776e-15, 4.496279582921585e-15, 4.646922275008394e-15, 4.797564967095203e-15, 4.9482076591820124e-15, 5.0988503512688216e-15, 5.249492619839157e-15, 5.40013573544244e-15]}, "gradients/attention_0.lin_l.weight": {"_type": "histogram", "values": [1.0, 0.0, 0.0, 1.0, 0.0, 0.0, 0.0, 0.0, 0.0, 0.0, 0.0, 1.0, 0.0, 1.0, 0.0, 1.0, 2.0, 0.0, 0.0, 1.0, 1.0, 1.0, 1.0, 1.0, 0.0, 0.0, 450.0, 2.0, 0.0, 0.0, 0.0, 1.0, 1.0, 0.0, 1.0, 1.0, 1.0, 3.0, 0.0, 0.0, 0.0, 1.0, 0.0, 0.0, 1.0, 2.0, 1.0, 0.0, 0.0, 0.0, 0.0, 0.0, 0.0, 0.0, 0.0, 0.0, 1.0, 0.0, 1.0, 0.0, 0.0, 0.0, 0.0, 1.0], "bins": [-4.079119244530631e-15, -3.9260108395343645e-15, -3.772902434538098e-15, -3.619794029541832e-15, -3.466685624545565e-15, -3.3135772195492987e-15, -3.1604688145530323e-15, -3.007360409556766e-15, -2.8542520045604994e-15, -2.701143599564233e-15, -2.5480351945679665e-15, -2.3949267895717e-15, -2.2418183845754336e-15, -2.088709979579167e-15, -1.9356015745829007e-15, -1.7824931695866342e-15, -1.6293847645903678e-15, -1.4762763595941013e-15, -1.3231679545978349e-15, -1.1700595496015685e-15, -1.016951144605302e-15, -8.638427396090356e-16, -7.107343346127691e-16, -5.576259296165027e-16, -4.045175246202362e-16, -2.5140911962396977e-16, -9.830071462770332e-17, 5.480769036856313e-17, 2.0791609536482958e-16, 3.6102450036109603e-16, 5.141329053573625e-16, 6.672413103536289e-16, 8.203497153498954e-16, 9.734581203461618e-16, 1.1265665253424283e-15, 1.2796749303386947e-15, 1.4327833353349612e-15, 1.5858917403312276e-15, 1.739000145327494e-15, 1.8921085503237605e-15, 2.045216955320027e-15, 2.1983253603162934e-15, 2.35143376531256e-15, 2.5045421703088263e-15, 2.6576505753050927e-15, 2.810758980301359e-15, 2.9638673852976256e-15, 3.116975790293892e-15, 3.2700841952901585e-15, 3.423192600286425e-15, 3.5763010052826914e-15, 3.729409410278958e-15, 3.882517815275224e-15, 4.035626220271491e-15, 4.188734625267757e-15, 4.341843030264024e-15, 4.49495143526029e-15, 4.6480598402565566e-15, 4.801168245252823e-15, 4.9542766502490895e-15, 5.107385055245356e-15, 5.260493460241622e-15, 5.413601865237889e-15, 5.566710270234155e-15, 5.719818675230422e-15]}, "mean_loss": 0.8616141080856323, "_wandb": {"runtime": 37664}}