{"parameters/attention_0.att_l": {"_type": "histogram", "values": [1.0, 0.0, 0.0, 2.0, 0.0, 1.0, 1.0, 1.0, 0.0, 0.0, 0.0, 1.0, 1.0, 1.0, 0.0, 0.0, 1.0, 0.0, 0.0, 1.0, 2.0, 0.0, 3.0, 0.0, 2.0, 1.0, 0.0, 0.0, 1.0, 0.0, 5.0, 0.0, 0.0, 0.0, 0.0, 0.0, 2.0, 1.0, 0.0, 0.0, 0.0, 2.0, 0.0, 1.0, 0.0, 0.0, 0.0, 0.0, 0.0, 1.0, 0.0, 1.0, 1.0, 0.0, 1.0, 0.0, 1.0, 1.0, 0.0, 1.0, 0.0, 1.0, 0.0, 1.0], "bins": [-0.65289705991745, -0.6329664587974548, -0.6130358576774597, -0.5931051969528198, -0.5731745958328247, -0.5532439947128296, -0.5333133935928345, -0.5133827924728394, -0.49345213174819946, -0.47352153062820435, -0.45359089970588684, -0.4336602985858917, -0.4137296676635742, -0.3937990665435791, -0.373868465423584, -0.3539378345012665, -0.33400723338127136, -0.31407663226127625, -0.29414600133895874, -0.2742154002189636, -0.2542847692966461, -0.234354168176651, -0.2144235521554947, -0.19449293613433838, -0.17456232011318207, -0.15463170409202576, -0.13470108807086945, -0.11477047950029373, -0.09483986347913742, -0.07490924745798111, -0.054978638887405396, -0.035048022866249084, -0.015117406845092773, 0.004813207313418388, 0.02474382147192955, 0.04467443376779556, 0.06460504978895187, 0.08453566581010818, 0.1044662743806839, 0.12439689040184021, 0.14432750642299652, 0.16425812244415283, 0.18418873846530914, 0.20411935448646545, 0.22404995560646057, 0.24398058652877808, 0.2639111876487732, 0.2838417887687683, 0.3037724196910858, 0.32370302081108093, 0.34363365173339844, 0.36356425285339355, 0.38349488377571106, 0.4034254848957062, 0.4233561158180237, 0.4432867169380188, 0.4632173180580139, 0.48314791917800903, 0.5030785202980042, 0.523009181022644, 0.5429397821426392, 0.5628703832626343, 0.5828009843826294, 0.6027315855026245, 0.6226622462272644]}, "parameters/attention_0.att_r": {"_type": "histogram", "values": [1.0, 1.0, 1.0, 1.0, 0.0, 0.0, 0.0, 0.0, 0.0, 1.0, 0.0, 1.0, 2.0, 1.0, 0.0, 0.0, 0.0, 0.0, 0.0, 1.0, 0.0, 0.0, 0.0, 2.0, 0.0, 2.0, 0.0, 1.0, 0.0, 0.0, 1.0, 0.0, 1.0, 0.0, 0.0, 0.0, 0.0, 0.0, 0.0, 0.0, 0.0, 0.0, 1.0, 0.0, 3.0, 0.0, 2.0, 1.0, 2.0, 1.0, 1.0, 1.0, 3.0, 3.0, 0.0, 0.0, 1.0, 1.0, 0.0, 1.0, 0.0, 1.0, 0.0, 1.0], "bins": [-0.6244233846664429, -0.6044840216636658, -0.5845446586608887, -0.5646052956581116, -0.5446659326553345, -0.5247266292572021, -0.504787266254425, -0.48484790325164795, -0.46490854024887085, -0.44496917724609375, -0.42502981424331665, -0.40509048104286194, -0.38515111804008484, -0.36521175503730774, -0.345272421836853, -0.3253330588340759, -0.30539369583129883, -0.28545433282852173, -0.26551496982574463, -0.24557563662528992, -0.22563627362251282, -0.20569691061973572, -0.1857575625181198, -0.1658182144165039, -0.1458788514137268, -0.1259394884109497, -0.1060001403093338, -0.0860607847571373, -0.0661214292049408, -0.04618207365274429, -0.02624271810054779, -0.006303369998931885, 0.01363605260848999, 0.03357540816068649, 0.053514763712882996, 0.0734541192650795, 0.093393474817276, 0.1133328303694725, 0.133272185921669, 0.1532115340232849, 0.173150897026062, 0.1930902600288391, 0.21302960813045502, 0.23296895623207092, 0.252908319234848, 0.2728476822376251, 0.29278701543807983, 0.31272637844085693, 0.33266574144363403, 0.35260510444641113, 0.37254446744918823, 0.39248380064964294, 0.41242316365242004, 0.43236252665519714, 0.45230185985565186, 0.47224122285842896, 0.49218058586120605, 0.5121199488639832, 0.5320593118667603, 0.5519986748695374, 0.5719380378723145, 0.5918773412704468, 0.6118167042732239, 0.631756067276001, 0.6516954302787781]}, "parameters/attention_0.bias": {"_type": "histogram", "values": [0.0, 0.0, 0.0, 0.0, 0.0, 0.0, 0.0, 0.0, 0.0, 0.0, 0.0, 0.0, 0.0, 0.0, 0.0, 0.0, 0.0, 0.0, 0.0, 0.0, 0.0, 0.0, 0.0, 0.0, 0.0, 0.0, 0.0, 0.0, 0.0, 0.0, 0.0, 0.0, 40.0, 0.0, 0.0, 0.0, 0.0, 0.0, 0.0, 0.0, 0.0, 0.0, 0.0, 0.0, 0.0, 0.0, 0.0, 0.0, 0.0, 0.0, 0.0, 0.0, 0.0, 0.0, 0.0, 0.0, 0.0, 0.0, 0.0, 0.0, 0.0, 0.0, 0.0, 0.0], "bins": [0.0, 0.0, 0.0, 0.0, 0.0, 0.0, 0.0, 0.0, 0.0, 0.0, 0.0, 0.0, 0.0, 0.0, 0.0, 0.0, 0.0, 0.0, 0.0, 0.0, 0.0, 0.0, 0.0, 0.0, 0.0, 0.0, 0.0, 0.0, 0.0, 0.0, 0.0, 0.0, 0.0, 0.0, 0.0, 0.0, 0.0, 0.0, 0.0, 0.0, 0.0, 0.0, 0.0, 0.0, 0.0, 0.0, 0.0, 0.0, 0.0, 0.0, 0.0, 0.0, 0.0, 0.0, 0.0, 0.0, 0.0, 0.0, 0.0, 0.0, 0.0, 0.0, 0.0, 0.0, 0.0]}, "parameters/attention_0.lin_l.weight": {"_type": "histogram", "values": [11.0, 11.0, 11.0, 6.0, 13.0, 12.0, 5.0, 8.0, 10.0, 24.0, 11.0, 6.0, 12.0, 6.0, 9.0, 6.0, 6.0, 11.0, 8.0, 10.0, 8.0, 8.0, 3.0, 9.0, 9.0, 5.0, 8.0, 9.0, 12.0, 6.0, 5.0, 9.0, 8.0, 8.0, 11.0, 7.0, 7.0, 8.0, 8.0, 9.0, 9.0, 8.0, 8.0, 11.0, 6.0, 10.0, 7.0, 8.0, 13.0, 7.0, 8.0, 11.0, 5.0, 15.0, 5.0, 7.0, 8.0, 11.0, 9.0, 14.0, 7.0, 7.0, 6.0, 7.0], "bins": [-0.3324483633041382, -0.322060763835907, -0.3116731643676758, -0.3012855648994446, -0.2908979654312134, -0.2805103659629822, -0.270122766494751, -0.2597351670265198, -0.24934756755828857, -0.23895996809005737, -0.22857236862182617, -0.21818476915359497, -0.20779716968536377, -0.19740957021713257, -0.18702197074890137, -0.17663437128067017, -0.16624675691127777, -0.15585915744304657, -0.14547155797481537, -0.13508395850658417, -0.12469635903835297, -0.11430875957012177, -0.10392115265130997, -0.09353355318307877, -0.08314595371484756, -0.07275835424661636, -0.06237075477838516, -0.05198315158486366, -0.04159555211663246, -0.03120795264840126, -0.02082034945487976, -0.01043274998664856, -4.51505184173584e-05, 0.010342449881136417, 0.020730050280690193, 0.031117651611566544, 0.041505251079797745, 0.051892850548028946, 0.062280453741550446, 0.07266805320978165, 0.08305565267801285, 0.09344325214624405, 0.10383085161447525, 0.11421845853328705, 0.12460605800151825, 0.13499365746974945, 0.14538125693798065, 0.15576885640621185, 0.16615645587444305, 0.17654405534267426, 0.18693165481090546, 0.19731925427913666, 0.20770685374736786, 0.21809445321559906, 0.22848206758499146, 0.23886966705322266, 0.24925726652145386, 0.25964486598968506, 0.27003246545791626, 0.28042006492614746, 0.29080766439437866, 0.30119526386260986, 0.31158286333084106, 0.32197046279907227, 0.33235806226730347]}, "parameters/attention_1.att_l": {"_type": "histogram", "values": [1.0, 1.0, 2.0, 0.0, 0.0, 0.0, 0.0, 0.0, 0.0, 0.0, 0.0, 2.0, 1.0, 1.0, 1.0, 0.0, 0.0, 3.0, 1.0, 0.0, 0.0, 1.0, 0.0, 0.0, 1.0, 0.0, 2.0, 1.0, 1.0, 1.0, 0.0, 1.0, 0.0, 0.0, 1.0, 1.0, 1.0, 0.0, 1.0, 1.0, 1.0, 0.0, 0.0, 1.0, 0.0, 0.0, 0.0, 0.0, 1.0, 0.0, 0.0, 0.0, 3.0, 0.0, 2.0, 1.0, 1.0, 0.0, 0.0, 1.0, 0.0, 1.0, 1.0, 1.0], "bins": [-0.6450402736663818, -0.6248142123222351, -0.6045881509780884, -0.5843620896339417, -0.5641360282897949, -0.5439099669456482, -0.5236839056015015, -0.50345778465271, -0.4832317531108856, -0.4630056917667389, -0.44277963042259216, -0.42255356907844543, -0.4023274779319763, -0.3821014165878296, -0.36187535524368286, -0.34164929389953613, -0.3214232325553894, -0.3011971712112427, -0.28097110986709595, -0.2607450485229492, -0.2405189722776413, -0.22029291093349457, -0.20006683468818665, -0.17984077334403992, -0.1596147119998932, -0.13938865065574646, -0.11916258186101913, -0.09893651306629181, -0.07871045172214508, -0.05848439037799835, -0.03825832158327103, -0.0180322527885437, 0.002193748950958252, 0.02241981402039528, 0.042645879089832306, 0.06287194788455963, 0.08309800922870636, 0.10332407057285309, 0.12355013936758041, 0.14377620816230774, 0.16400226950645447, 0.1842283308506012, 0.20445439219474792, 0.22468046844005585, 0.24490652978420258, 0.2651326060295105, 0.2853586673736572, 0.30558472871780396, 0.3258107900619507, 0.3460368514060974, 0.36626291275024414, 0.38648897409439087, 0.4067150354385376, 0.4269410967826843, 0.44716718792915344, 0.46739324927330017, 0.4876193106174469, 0.507845401763916, 0.5280714631080627, 0.5482975244522095, 0.5685235857963562, 0.5887496471405029, 0.6089757084846497, 0.6292017698287964, 0.6494278311729431]}, "parameters/attention_1.att_r": {"_type": "histogram", "values": [1.0, 1.0, 0.0, 1.0, 0.0, 1.0, 2.0, 0.0, 1.0, 0.0, 0.0, 1.0, 1.0, 3.0, 1.0, 0.0, 1.0, 0.0, 0.0, 1.0, 0.0, 3.0, 0.0, 0.0, 1.0, 0.0, 0.0, 0.0, 0.0, 1.0, 2.0, 0.0, 1.0, 1.0, 0.0, 1.0, 0.0, 1.0, 0.0, 0.0, 0.0, 0.0, 0.0, 0.0, 1.0, 1.0, 0.0, 1.0, 1.0, 0.0, 0.0, 0.0, 1.0, 0.0, 0.0, 0.0, 5.0, 1.0, 1.0, 0.0, 0.0, 1.0, 0.0, 1.0], "bins": [-0.628898561000824, -0.6089046001434326, -0.5889105796813965, -0.5689166188240051, -0.5489226579666138, -0.5289286375045776, -0.5089346766471863, -0.48894068598747253, -0.4689466953277588, -0.44895270466804504, -0.4289587140083313, -0.40896475315093994, -0.3889707624912262, -0.36897677183151245, -0.3489828109741211, -0.32898882031440735, -0.3089948296546936, -0.28900083899497986, -0.2690068483352661, -0.24901288747787476, -0.229018896818161, -0.20902490615844727, -0.18903093039989471, -0.16903695464134216, -0.14904296398162842, -0.12904897332191467, -0.10905499756336212, -0.08906101435422897, -0.06906703114509583, -0.04907304793596268, -0.02907906472682953, -0.009085088968276978, 0.010908901691436768, 0.030902884900569916, 0.050896868109703064, 0.07089085131883621, 0.09088483452796936, 0.11087881773710251, 0.13087280094623566, 0.1508667767047882, 0.17086076736450195, 0.1908547580242157, 0.21084873378276825, 0.2308427095413208, 0.25083670020103455, 0.2708306908607483, 0.29082465171813965, 0.3108186423778534, 0.33081263303756714, 0.3508066236972809, 0.37080061435699463, 0.390794575214386, 0.41078856587409973, 0.4307825565338135, 0.45077651739120483, 0.4707705080509186, 0.4907644987106323, 0.5107584595680237, 0.5307524800300598, 0.5507464408874512, 0.5707404613494873, 0.5907344222068787, 0.61072838306427, 0.6307224035263062, 0.6507163643836975]}, "parameters/attention_1.bias": {"_type": "histogram", "values": [0.0, 0.0, 0.0, 0.0, 0.0, 0.0, 0.0, 0.0, 0.0, 0.0, 0.0, 0.0, 0.0, 0.0, 0.0, 0.0, 0.0, 0.0, 0.0, 0.0, 0.0, 0.0, 0.0, 0.0, 0.0, 0.0, 0.0, 0.0, 0.0, 0.0, 0.0, 0.0, 40.0, 0.0, 0.0, 0.0, 0.0, 0.0, 0.0, 0.0, 0.0, 0.0, 0.0, 0.0, 0.0, 0.0, 0.0, 0.0, 0.0, 0.0, 0.0, 0.0, 0.0, 0.0, 0.0, 0.0, 0.0, 0.0, 0.0, 0.0, 0.0, 0.0, 0.0, 0.0], "bins": [0.0, 0.0, 0.0, 0.0, 0.0, 0.0, 0.0, 0.0, 0.0, 0.0, 0.0, 0.0, 0.0, 0.0, 0.0, 0.0, 0.0, 0.0, 0.0, 0.0, 0.0, 0.0, 0.0, 0.0, 0.0, 0.0, 0.0, 0.0, 0.0, 0.0, 0.0, 0.0, 0.0, 0.0, 0.0, 0.0, 0.0, 0.0, 0.0, 0.0, 0.0, 0.0, 0.0, 0.0, 0.0, 0.0, 0.0, 0.0, 0.0, 0.0, 0.0, 0.0, 0.0, 0.0, 0.0, 0.0, 0.0, 0.0, 0.0, 0.0, 0.0, 0.0, 0.0, 0.0, 0.0]}, "parameters/attention_1.lin_l.weight": {"_type": "histogram", "values": [22.0, 29.0, 32.0, 21.0, 32.0, 25.0, 28.0, 21.0, 28.0, 27.0, 25.0, 18.0, 25.0, 30.0, 23.0, 26.0, 13.0, 17.0, 26.0, 35.0, 27.0, 19.0, 32.0, 22.0, 27.0, 29.0, 23.0, 30.0, 20.0, 24.0, 26.0, 27.0, 25.0, 26.0, 22.0, 22.0, 27.0, 27.0, 24.0, 25.0, 27.0, 23.0, 22.0, 21.0, 24.0, 35.0, 14.0, 34.0, 22.0, 21.0, 32.0, 27.0, 30.0, 16.0, 29.0, 26.0, 16.0, 33.0, 27.0, 20.0, 22.0, 17.0, 25.0, 30.0], "bins": [-0.27361050248146057, -0.26506471633911133, -0.2565189301967621, -0.24797312915325165, -0.2394273281097412, -0.23088154196739197, -0.22233575582504272, -0.2137899547815323, -0.20524415373802185, -0.1966983675956726, -0.18815256655216217, -0.17960678040981293, -0.1710609793663025, -0.16251519322395325, -0.153969407081604, -0.14542360603809357, -0.13687781989574432, -0.12833203375339508, -0.11978623270988464, -0.1112404465675354, -0.10269464552402496, -0.09414885938167572, -0.08560306578874588, -0.07705727219581604, -0.0685114786028862, -0.05996568500995636, -0.05141989141702652, -0.04287410154938698, -0.03432830795645714, -0.025782514363527298, -0.017236724495887756, -0.008690930902957916, -0.00014513731002807617, 0.00840065535157919, 0.016946448013186455, 0.025492239743471146, 0.034038033336400986, 0.042583826929330826, 0.05112961679697037, 0.05967541038990021, 0.06822120398283005, 0.07676699757575989, 0.08531279116868973, 0.09385858476161957, 0.10240437090396881, 0.11095017194747925, 0.11949595808982849, 0.12804174423217773, 0.13658754527568817, 0.14513333141803741, 0.15367913246154785, 0.1622249186038971, 0.17077071964740753, 0.17931650578975677, 0.1878623068332672, 0.19640809297561646, 0.2049538791179657, 0.21349966526031494, 0.22204546630382538, 0.23059125244617462, 0.23913705348968506, 0.2476828396320343, 0.25622862577438354, 0.2647744417190552, 0.2733202278614044]}, "parameters/attention_2.att_l": {"_type": "histogram", "values": [1.0, 1.0, 1.0, 0.0, 0.0, 1.0, 1.0, 0.0, 0.0, 0.0, 0.0, 0.0, 0.0, 1.0, 0.0, 2.0, 1.0, 0.0, 1.0, 0.0, 0.0, 1.0, 1.0, 0.0, 0.0, 1.0, 0.0, 0.0, 1.0, 1.0, 0.0, 0.0, 1.0, 0.0, 0.0, 1.0, 1.0, 1.0, 0.0, 2.0, 0.0, 2.0, 0.0, 3.0, 0.0, 0.0, 0.0, 2.0, 1.0, 0.0, 0.0, 0.0, 0.0, 1.0, 0.0, 2.0, 1.0, 2.0, 0.0, 0.0, 2.0, 1.0, 0.0, 2.0], "bins": [-0.6443310379981995, -0.6253376603126526, -0.6063443422317505, -0.5873509645462036, -0.5683575868606567, -0.5493642687797546, -0.5303708910942078, -0.5113775730133057, -0.4923841953277588, -0.4733908474445343, -0.4543974995613098, -0.43540412187576294, -0.41641077399253845, -0.39741742610931396, -0.3784240484237671, -0.3594307005405426, -0.3404373526573181, -0.32144400477409363, -0.30245065689086914, -0.28345727920532227, -0.2644639313220978, -0.2454705834388733, -0.2264772206544876, -0.20748385787010193, -0.18849050998687744, -0.16949716210365295, -0.15050379931926727, -0.1315104365348816, -0.1125170886516571, -0.09352373331785202, -0.07453037798404694, -0.055537015199661255, -0.03654360771179199, -0.017550252377986908, 0.0014431029558181763, 0.02043645828962326, 0.039429813623428345, 0.05842316895723343, 0.07741652429103851, 0.0964098870754242, 0.11540323495864868, 0.13439658284187317, 0.15338994562625885, 0.17238330841064453, 0.19137665629386902, 0.2103700041770935, 0.2293633669614792, 0.24835672974586487, 0.26735007762908936, 0.28634342551231384, 0.30533677339553833, 0.3243301510810852, 0.3433234989643097, 0.3623168468475342, 0.38131022453308105, 0.40030357241630554, 0.41929692029953003, 0.4382902681827545, 0.457283616065979, 0.4762769937515259, 0.49527034163475037, 0.5142636895179749, 0.5332570672035217, 0.5522503852844238, 0.5712437629699707]}, "parameters/attention_2.att_r": {"_type": "histogram", "values": [1.0, 2.0, 0.0, 1.0, 3.0, 1.0, 1.0, 1.0, 0.0, 0.0, 0.0, 1.0, 0.0, 1.0, 0.0, 0.0, 1.0, 0.0, 2.0, 0.0, 0.0, 0.0, 2.0, 0.0, 0.0, 2.0, 0.0, 1.0, 0.0, 0.0, 0.0, 1.0, 0.0, 1.0, 0.0, 1.0, 3.0, 1.0, 0.0, 0.0, 1.0, 0.0, 0.0, 0.0, 1.0, 0.0, 0.0, 2.0, 1.0, 1.0, 1.0, 0.0, 1.0, 0.0, 0.0, 0.0, 1.0, 0.0, 0.0, 0.0, 0.0, 0.0, 1.0, 3.0], "bins": [-0.5878071188926697, -0.5685595870018005, -0.5493120551109314, -0.5300645232200623, -0.5108169913291931, -0.49156948924064636, -0.4723219573497772, -0.45307445526123047, -0.43382692337036133, -0.4145793914794922, -0.39533185958862305, -0.3760843276977539, -0.35683682560920715, -0.337589293718338, -0.31834176182746887, -0.2990942597389221, -0.2798466980457306, -0.26059916615486145, -0.2413516491651535, -0.22210411727428436, -0.20285660028457642, -0.18360906839370728, -0.16436153650283813, -0.1451140195131302, -0.12586648762226105, -0.1066189631819725, -0.08737143874168396, -0.06812390685081482, -0.048876382410526276, -0.029628857970237732, -0.010381326079368591, 0.008866190910339355, 0.028113722801208496, 0.04736124724149704, 0.06660877168178558, 0.08585630357265472, 0.10510382801294327, 0.12435135245323181, 0.14359888434410095, 0.1628464013338089, 0.18209393322467804, 0.20134146511554718, 0.22058898210525513, 0.23983651399612427, 0.2590840458869934, 0.27833157777786255, 0.2975791096687317, 0.31682661175727844, 0.3360741436481476, 0.3553216755390167, 0.37456920742988586, 0.3938167095184326, 0.41306424140930176, 0.4323117733001709, 0.45155930519104004, 0.4708068370819092, 0.4900543689727783, 0.5093019008636475, 0.5285494327545166, 0.5477969646453857, 0.5670444965362549, 0.586292028427124, 0.6055395603179932, 0.6247870326042175, 0.6440345644950867]}, "parameters/attention_2.bias": {"_type": "histogram", "values": [0.0, 0.0, 0.0, 0.0, 0.0, 0.0, 0.0, 0.0, 0.0, 0.0, 0.0, 0.0, 0.0, 0.0, 0.0, 0.0, 0.0, 0.0, 0.0, 0.0, 0.0, 0.0, 0.0, 0.0, 0.0, 0.0, 0.0, 0.0, 0.0, 0.0, 0.0, 0.0, 40.0, 0.0, 0.0, 0.0, 0.0, 0.0, 0.0, 0.0, 0.0, 0.0, 0.0, 0.0, 0.0, 0.0, 0.0, 0.0, 0.0, 0.0, 0.0, 0.0, 0.0, 0.0, 0.0, 0.0, 0.0, 0.0, 0.0, 0.0, 0.0, 0.0, 0.0, 0.0], "bins": [0.0, 0.0, 0.0, 0.0, 0.0, 0.0, 0.0, 0.0, 0.0, 0.0, 0.0, 0.0, 0.0, 0.0, 0.0, 0.0, 0.0, 0.0, 0.0, 0.0, 0.0, 0.0, 0.0, 0.0, 0.0, 0.0, 0.0, 0.0, 0.0, 0.0, 0.0, 0.0, 0.0, 0.0, 0.0, 0.0, 0.0, 0.0, 0.0, 0.0, 0.0, 0.0, 0.0, 0.0, 0.0, 0.0, 0.0, 0.0, 0.0, 0.0, 0.0, 0.0, 0.0, 0.0, 0.0, 0.0, 0.0, 0.0, 0.0, 0.0, 0.0, 0.0, 0.0, 0.0, 0.0]}, "parameters/attention_2.lin_l.weight": {"_type": "histogram", "values": [21.0, 27.0, 22.0, 22.0, 24.0, 27.0, 32.0, 26.0, 27.0, 30.0, 20.0, 24.0, 23.0, 28.0, 28.0, 22.0, 29.0, 26.0, 25.0, 30.0, 24.0, 35.0, 24.0, 31.0, 30.0, 35.0, 20.0, 24.0, 24.0, 23.0, 22.0, 21.0, 22.0, 23.0, 17.0, 17.0, 32.0, 18.0, 23.0, 21.0, 22.0, 28.0, 27.0, 27.0, 20.0, 25.0, 28.0, 23.0, 26.0, 20.0, 28.0, 27.0, 16.0, 28.0, 20.0, 25.0, 36.0, 28.0, 18.0, 25.0, 27.0, 26.0, 30.0, 21.0], "bins": [-0.27369171380996704, -0.2651436924934387, -0.2565956711769104, -0.24804766476154327, -0.23949964344501495, -0.23095162212848663, -0.2224036157131195, -0.2138555943965912, -0.20530757308006287, -0.19675955176353455, -0.18821153044700623, -0.1796635240316391, -0.17111550271511078, -0.16256748139858246, -0.15401947498321533, -0.145471453666687, -0.1369234323501587, -0.12837541103363037, -0.11982739716768265, -0.11127938330173492, -0.1027313619852066, -0.09418334066867828, -0.08563532680273056, -0.07708731293678284, -0.06853929162025452, -0.059991274029016495, -0.05144325643777847, -0.04289523884654045, -0.03434722125530243, -0.025799203664064407, -0.017251186072826385, -0.008703168481588364, -0.0001551210880279541, 0.008392896503210068, 0.01694091409444809, 0.02548893168568611, 0.03403694927692413, 0.042584966868162155, 0.05113298445940018, 0.0596810020506382, 0.06822901964187622, 0.07677704095840454, 0.08532505482435226, 0.09387306869029999, 0.10242109000682831, 0.11096911132335663, 0.11951712518930435, 0.12806513905525208, 0.1366131603717804, 0.14516118168830872, 0.15370920300483704, 0.16225720942020416, 0.17080523073673248, 0.1793532520532608, 0.18790125846862793, 0.19644927978515625, 0.20499730110168457, 0.2135453224182129, 0.2220933437347412, 0.23064135015010834, 0.23918937146663666, 0.24773739278316498, 0.2562853991985321, 0.2648334205150604, 0.27338144183158875]}, "parameters/out_att.att_l": {"_type": "histogram", "values": [0.0, 0.0, 0.0, 0.0, 0.0, 0.0, 0.0, 0.0, 0.0, 0.0, 0.0, 0.0, 0.0, 0.0, 0.0, 0.0, 0.0, 0.0, 0.0, 0.0, 0.0, 0.0, 0.0, 0.0, 0.0, 0.0, 0.0, 0.0, 0.0, 0.0, 0.0, 0.0, 1.0, 0.0, 0.0, 0.0, 0.0, 0.0, 0.0, 0.0, 0.0, 0.0, 0.0, 0.0, 0.0, 0.0, 0.0, 0.0, 0.0, 0.0, 0.0, 0.0, 0.0, 0.0, 0.0, 0.0, 0.0, 0.0, 0.0, 0.0, 0.0, 0.0, 0.0, 0.0], "bins": [-1.608985185623169, -1.608985185623169, -1.608985185623169, -1.608985185623169, -1.608985185623169, -1.608985185623169, -1.608985185623169, -1.608985185623169, -1.608985185623169, -1.608985185623169, -1.608985185623169, -1.608985185623169, -1.608985185623169, -1.608985185623169, -1.608985185623169, -1.608985185623169, -1.608985185623169, -1.608985185623169, -1.608985185623169, -1.608985185623169, -1.608985185623169, -1.608985185623169, -1.608985185623169, -1.608985185623169, -1.608985185623169, -1.608985185623169, -1.608985185623169, -1.608985185623169, -1.608985185623169, -1.608985185623169, -1.608985185623169, -1.608985185623169, -1.608985185623169, -1.608985185623169, -1.608985185623169, -1.608985185623169, -1.608985185623169, -1.608985185623169, -1.608985185623169, -1.608985185623169, -1.608985185623169, -1.608985185623169, -1.608985185623169, -1.608985185623169, -1.608985185623169, -1.608985185623169, -1.608985185623169, -1.608985185623169, -1.608985185623169, -1.608985185623169, -1.608985185623169, -1.608985185623169, -1.608985185623169, -1.608985185623169, -1.608985185623169, -1.608985185623169, -1.608985185623169, -1.608985185623169, -1.608985185623169, -1.608985185623169, -1.608985185623169, -1.608985185623169, -1.608985185623169, -1.608985185623169, -1.608985185623169]}, "parameters/out_att.att_r": {"_type": "histogram", "values": [0.0, 0.0, 0.0, 0.0, 0.0, 0.0, 0.0, 0.0, 0.0, 0.0, 0.0, 0.0, 0.0, 0.0, 0.0, 0.0, 0.0, 0.0, 0.0, 0.0, 0.0, 0.0, 0.0, 0.0, 0.0, 0.0, 0.0, 0.0, 0.0, 0.0, 0.0, 0.0, 1.0, 0.0, 0.0, 0.0, 0.0, 0.0, 0.0, 0.0, 0.0, 0.0, 0.0, 0.0, 0.0, 0.0, 0.0, 0.0, 0.0, 0.0, 0.0, 0.0, 0.0, 0.0, 0.0, 0.0, 0.0, 0.0, 0.0, 0.0, 0.0, 0.0, 0.0, 0.0], "bins": [-1.7229461669921875, -1.7229461669921875, -1.7229461669921875, -1.7229461669921875, -1.7229461669921875, -1.7229461669921875, -1.7229461669921875, -1.7229461669921875, -1.7229461669921875, -1.7229461669921875, -1.7229461669921875, -1.7229461669921875, -1.7229461669921875, -1.7229461669921875, -1.7229461669921875, -1.7229461669921875, -1.7229461669921875, -1.7229461669921875, -1.7229461669921875, -1.7229461669921875, -1.7229461669921875, -1.7229461669921875, -1.7229461669921875, -1.7229461669921875, -1.7229461669921875, -1.7229461669921875, -1.7229461669921875, -1.7229461669921875, -1.7229461669921875, -1.7229461669921875, -1.7229461669921875, -1.7229461669921875, -1.7229461669921875, -1.7229461669921875, -1.7229461669921875, -1.7229461669921875, -1.7229461669921875, -1.7229461669921875, -1.7229461669921875, -1.7229461669921875, -1.7229461669921875, -1.7229461669921875, -1.7229461669921875, -1.7229461669921875, -1.7229461669921875, -1.7229461669921875, -1.7229461669921875, -1.7229461669921875, -1.7229461669921875, -1.7229461669921875, -1.7229461669921875, -1.7229461669921875, -1.7229461669921875, -1.7229461669921875, -1.7229461669921875, -1.7229461669921875, -1.7229461669921875, -1.7229461669921875, -1.7229461669921875, -1.7229461669921875, -1.7229461669921875, -1.7229461669921875, -1.7229461669921875, -1.7229461669921875, -1.7229461669921875]}, "parameters/out_att.bias": {"_type": "histogram", "values": [0.0, 0.0, 0.0, 0.0, 0.0, 0.0, 0.0, 0.0, 0.0, 0.0, 0.0, 0.0, 0.0, 0.0, 0.0, 0.0, 0.0, 0.0, 0.0, 0.0, 0.0, 0.0, 0.0, 0.0, 0.0, 0.0, 0.0, 0.0, 0.0, 0.0, 0.0, 0.0, 1.0, 0.0, 0.0, 0.0, 0.0, 0.0, 0.0, 0.0, 0.0, 0.0, 0.0, 0.0, 0.0, 0.0, 0.0, 0.0, 0.0, 0.0, 0.0, 0.0, 0.0, 0.0, 0.0, 0.0, 0.0, 0.0, 0.0, 0.0, 0.0, 0.0, 0.0, 0.0], "bins": [0.0, 0.0, 0.0, 0.0, 0.0, 0.0, 0.0, 0.0, 0.0, 0.0, 0.0, 0.0, 0.0, 0.0, 0.0, 0.0, 0.0, 0.0, 0.0, 0.0, 0.0, 0.0, 0.0, 0.0, 0.0, 0.0, 0.0, 0.0, 0.0, 0.0, 0.0, 0.0, 0.0, 0.0, 0.0, 0.0, 0.0, 0.0, 0.0, 0.0, 0.0, 0.0, 0.0, 0.0, 0.0, 0.0, 0.0, 0.0, 0.0, 0.0, 0.0, 0.0, 0.0, 0.0, 0.0, 0.0, 0.0, 0.0, 0.0, 0.0, 0.0, 0.0, 0.0, 0.0, 0.0]}, "parameters/out_att.lin_l.weight": {"_type": "histogram", "values": [1.0, 1.0, 0.0, 1.0, 0.0, 1.0, 1.0, 0.0, 1.0, 1.0, 0.0, 0.0, 1.0, 0.0, 0.0, 0.0, 3.0, 0.0, 2.0, 1.0, 0.0, 0.0, 0.0, 0.0, 0.0, 1.0, 1.0, 0.0, 1.0, 1.0, 0.0, 0.0, 1.0, 2.0, 1.0, 3.0, 1.0, 1.0, 0.0, 0.0, 1.0, 0.0, 0.0, 1.0, 1.0, 0.0, 0.0, 0.0, 0.0, 0.0, 0.0, 0.0, 1.0, 2.0, 0.0, 0.0, 0.0, 2.0, 1.0, 1.0, 1.0, 1.0, 0.0, 1.0], "bins": [-0.3622477054595947, -0.35099372267723083, -0.33973971009254456, -0.32848572731018066, -0.3172317147254944, -0.3059777319431305, -0.2947237491607666, -0.2834697365760803, -0.27221572399139404, -0.26096174120903015, -0.24970772862434387, -0.23845374584197998, -0.2271997332572937, -0.2159457504749298, -0.20469175279140472, -0.19343775510787964, -0.18218377232551575, -0.17092977464199066, -0.15967577695846558, -0.14842179417610168, -0.1371677815914154, -0.1259137988090515, -0.11465980112552643, -0.10340580344200134, -0.09215180575847626, -0.08089780807495117, -0.06964381039142609, -0.0583898201584816, -0.04713582247495651, -0.03588182479143143, -0.02462783455848694, -0.013373836874961853, -0.0021198689937591553, 0.009134126827120781, 0.020388122648000717, 0.031642116606235504, 0.04289611428976059, 0.054150111973285675, 0.06540410220623016, 0.07665809988975525, 0.08791209757328033, 0.09916609525680542, 0.1104200929403305, 0.121674083173275, 0.13292807340621948, 0.14418208599090576, 0.15543606877326965, 0.16669006645679474, 0.17794406414031982, 0.1891980618238449, 0.20045205950737, 0.2117060422897339, 0.22296005487442017, 0.23421403765678406, 0.24546803534030914, 0.25672203302383423, 0.2679760456085205, 0.2792300283908844, 0.2904840409755707, 0.30173802375793457, 0.31299203634262085, 0.32424601912498474, 0.33550000190734863, 0.3467540144920349, 0.3580079972743988]}, "_runtime": 776, "_timestamp": 1639747740, "_step": 9, "Learning rate value": 0.01, "Learning rate action": 0.01, "action_probs": {"_type": "histogram", "values": [2, 2, 0, 0, 0, 0, 0, 0, 0, 0, 0, 0, 0, 0, 0, 0, 0, 0, 0, 0, 0, 0, 0, 0, 0, 0, 0, 0, 0, 0, 0, 0, 0, 0, 0, 0, 0, 0, 0, 0, 0, 0, 0, 0, 0, 0, 0, 0, 0, 0, 0, 0, 0, 0, 0, 0, 0, 0, 0, 0, 0, 0, 2, 2], "bins": [0.47511544823646545, 0.4758765399456024, 0.47663766145706177, 0.47739875316619873, 0.4781598448753357, 0.47892093658447266, 0.479682058095932, 0.48044314980506897, 0.48120424151420593, 0.4819653630256653, 0.48272645473480225, 0.4834875464439392, 0.48424866795539856, 0.4850097596645355, 0.4857708513736725, 0.48653194308280945, 0.4872930645942688, 0.48805415630340576, 0.4888152480125427, 0.4895763695240021, 0.49033746123313904, 0.491098552942276, 0.49185967445373535, 0.4926207661628723, 0.4933818578720093, 0.49414294958114624, 0.4949040710926056, 0.49566516280174255, 0.4964262545108795, 0.49718737602233887, 0.49794846773147583, 0.4987095594406128, 0.49947065114974976, 0.5002317428588867, 0.5009928941726685, 0.5017539858818054, 0.5025150775909424, 0.5032761693000793, 0.5040372610092163, 0.5047983527183533, 0.5055594444274902, 0.506320595741272, 0.5070816874504089, 0.5078427791595459, 0.5086038708686829, 0.5093649625778198, 0.5101260542869568, 0.5108871459960938, 0.5116482973098755, 0.5124093890190125, 0.5131704807281494, 0.5139315724372864, 0.5146926641464233, 0.5154537558555603, 0.516214907169342, 0.516975998878479, 0.517737090587616, 0.5184981822967529, 0.5192592740058899, 0.5200203657150269, 0.5207814574241638, 0.5215426087379456, 0.5223037004470825, 0.5230647921562195, 0.5238258838653564]}, "stop_go_action": {"_type": "histogram", "values": [4, 0, 0, 0, 0, 0, 0, 0, 0, 0, 0, 0, 0, 0, 0, 0, 0, 0, 0, 0, 0, 0, 0, 0, 0, 0, 0, 0, 0, 0, 0, 0, 0, 0, 0, 0, 0, 0, 0, 0, 0, 0, 0, 0, 0, 0, 0, 0, 0, 0, 0, 0, 0, 0, 0, 0, 0, 0, 0, 0, 0, 0, 0, 4], "bins": [0.0, 0.015625, 0.03125, 0.046875, 0.0625, 0.078125, 0.09375, 0.109375, 0.125, 0.140625, 0.15625, 0.171875, 0.1875, 0.203125, 0.21875, 0.234375, 0.25, 0.265625, 0.28125, 0.296875, 0.3125, 0.328125, 0.34375, 0.359375, 0.375, 0.390625, 0.40625, 0.421875, 0.4375, 0.453125, 0.46875, 0.484375, 0.5, 0.515625, 0.53125, 0.546875, 0.5625, 0.578125, 0.59375, 0.609375, 0.625, 0.640625, 0.65625, 0.671875, 0.6875, 0.703125, 0.71875, 0.734375, 0.75, 0.765625, 0.78125, 0.796875, 0.8125, 0.828125, 0.84375, 0.859375, 0.875, 0.890625, 0.90625, 0.921875, 0.9375, 0.953125, 0.96875, 0.984375, 1.0]}, "node_values": {"_type": "histogram", "values": [1, 0, 0, 0, 0, 1, 0, 0, 0, 0, 0, 0, 0, 0, 0, 0, 0, 0, 0, 0, 0, 0, 0, 0, 0, 0, 0, 0, 0, 0, 0, 0, 0, 0, 0, 0, 0, 0, 0, 0, 0, 0, 0, 0, 0, 0, 0, 0, 0, 0, 0, 0, 0, 0, 0, 1, 0, 0, 0, 0, 0, 0, 0, 1], "bins": [1.4325776100158691, 1.4376688841730356, 1.442760158330202, 1.4478514324873686, 1.452942706644535, 1.4580339808017015, 1.463125254958868, 1.4682165291160345, 1.473307803273201, 1.4783990774303675, 1.483490351587534, 1.4885816257447004, 1.493672899901867, 1.4987641740590334, 1.5038554482161999, 1.5089467223733664, 1.5140379965305328, 1.5191292706876993, 1.5242205448448658, 1.5293118190020323, 1.5344030931591988, 1.5394943673163652, 1.5445856414735317, 1.5496769156306982, 1.5547681897878647, 1.5598594639450312, 1.5649507381021976, 1.5700420122593641, 1.5751332864165306, 1.580224560573697, 1.5853158347308636, 1.59040710888803, 1.5954983830451965, 1.600589657202363, 1.6056809313595295, 1.610772205516696, 1.6158634796738625, 1.620954753831029, 1.6260460279881954, 1.631137302145362, 1.6362285763025284, 1.6413198504596949, 1.6464111246168613, 1.6515023987740278, 1.6565936729311943, 1.6616849470883608, 1.6667762212455273, 1.6718674954026937, 1.6769587695598602, 1.6820500437170267, 1.6871413178741932, 1.6922325920313597, 1.6973238661885262, 1.7024151403456926, 1.7075064145028591, 1.7125976886600256, 1.717688962817192, 1.7227802369743586, 1.727871511131525, 1.7329627852886915, 1.738054059445858, 1.7431453336030245, 1.748236607760191, 1.7533278819173574, 1.758419156074524]}, "episode_rewards": {"_type": "histogram", "values": [0, 0, 0, 0, 0, 0, 0, 0, 0, 0, 0, 0, 0, 0, 0, 0, 0, 0, 0, 0, 0, 0, 0, 0, 0, 0, 0, 0, 0, 0, 0, 0, 4, 0, 0, 0, 0, 0, 0, 0, 0, 0, 0, 0, 0, 0, 0, 0, 0, 0, 0, 0, 0, 0, 0, 0, 0, 0, 0, 0, 0, 0, 0, 0], "bins": [-1.5, -1.484375, -1.46875, -1.453125, -1.4375, -1.421875, -1.40625, -1.390625, -1.375, -1.359375, -1.34375, -1.328125, -1.3125, -1.296875, -1.28125, -1.265625, -1.25, -1.234375, -1.21875, -1.203125, -1.1875, -1.171875, -1.15625, -1.140625, -1.125, -1.109375, -1.09375, -1.078125, -1.0625, -1.046875, -1.03125, -1.015625, -1.0, -0.984375, -0.96875, -0.953125, -0.9375, -0.921875, -0.90625, -0.890625, -0.875, -0.859375, -0.84375, -0.828125, -0.8125, -0.796875, -0.78125, -0.765625, -0.75, -0.734375, -0.71875, -0.703125, -0.6875, -0.671875, -0.65625, -0.640625, -0.625, -0.609375, -0.59375, -0.578125, -0.5625, -0.546875, -0.53125, -0.515625, -0.5]}, "_wandb": {"runtime": 775}}