{"parameters/attention_0.att_l": {"_type": "histogram", "values": [1.0, 2.0, 1.0, 2.0, 1.0, 0.0, 0.0, 0.0, 0.0, 2.0, 0.0, 1.0, 2.0, 0.0, 0.0, 0.0, 0.0, 1.0, 0.0, 1.0, 0.0, 1.0, 0.0, 0.0, 0.0, 2.0, 0.0, 0.0, 1.0, 1.0, 1.0, 0.0, 1.0, 1.0, 1.0, 1.0, 1.0, 1.0, 0.0, 3.0, 1.0, 1.0, 1.0, 0.0, 1.0, 0.0, 1.0, 0.0, 1.0, 0.0, 0.0, 1.0, 0.0, 0.0, 0.0, 0.0, 0.0, 1.0, 1.0, 1.0, 0.0, 0.0, 0.0, 1.0], "bins": [-0.5994483828544617, -0.5802109241485596, -0.5609734654426575, -0.5417360663414001, -0.522498607635498, -0.503261148929596, -0.48402369022369385, -0.46478626132011414, -0.4455488324165344, -0.4263113737106323, -0.4070739448070526, -0.3878364861011505, -0.3685990571975708, -0.3493615984916687, -0.3301241397857666, -0.3108867108821869, -0.2916492521762848, -0.2724117934703827, -0.253174364566803, -0.23393690586090088, -0.21469947695732117, -0.19546201825141907, -0.17622457444667816, -0.15698713064193726, -0.13774968683719635, -0.11851224303245544, -0.09927479922771454, -0.08003734797239304, -0.06079990416765213, -0.041562460362911224, -0.02232500910758972, -0.003087565302848816, 0.01614987850189209, 0.035387322306632996, 0.0546247698366642, 0.0738622173666954, 0.09309966117143631, 0.11233710497617722, 0.13157455623149872, 0.15081200003623962, 0.17004944384098053, 0.18928688764572144, 0.20852433145046234, 0.22776177525520325, 0.24699923396110535, 0.26623666286468506, 0.28547412157058716, 0.30471158027648926, 0.32394900918006897, 0.34318646788597107, 0.3624238967895508, 0.3816613554954529, 0.4008987843990326, 0.4201362431049347, 0.4393736720085144, 0.4586111307144165, 0.4778485894203186, 0.4970860481262207, 0.5163235068321228, 0.5355609059333801, 0.5547983646392822, 0.5740358233451843, 0.5932732820510864, 0.6125106811523438, 0.6317481398582458]}, "parameters/attention_0.att_r": {"_type": "histogram", "values": [1.0, 0.0, 1.0, 1.0, 0.0, 0.0, 0.0, 0.0, 2.0, 0.0, 1.0, 0.0, 0.0, 2.0, 0.0, 0.0, 1.0, 0.0, 1.0, 1.0, 1.0, 3.0, 0.0, 2.0, 0.0, 0.0, 3.0, 1.0, 1.0, 0.0, 1.0, 0.0, 0.0, 0.0, 0.0, 0.0, 0.0, 0.0, 0.0, 2.0, 2.0, 1.0, 0.0, 0.0, 0.0, 0.0, 0.0, 0.0, 0.0, 1.0, 1.0, 0.0, 0.0, 1.0, 0.0, 1.0, 0.0, 1.0, 2.0, 0.0, 0.0, 2.0, 1.0, 2.0], "bins": [-0.6427591443061829, -0.6241101026535034, -0.6054610013961792, -0.5868119597434998, -0.5681629180908203, -0.5495138764381409, -0.5308648347854614, -0.5122157335281372, -0.49356669187545776, -0.4749176502227783, -0.4562685787677765, -0.43761950731277466, -0.4189704656600952, -0.40032142400741577, -0.38167235255241394, -0.3630232810974121, -0.34437423944473267, -0.3257251977920532, -0.3070761263370514, -0.28842705488204956, -0.2697780132293701, -0.2511289715766907, -0.23247990012168884, -0.2138308435678482, -0.19518178701400757, -0.17653273046016693, -0.1578836739063263, -0.13923461735248566, -0.12058556079864502, -0.10193650424480438, -0.08328744769096375, -0.06463839113712311, -0.045989274978637695, -0.027340218424797058, -0.008691161870956421, 0.009957894682884216, 0.028606951236724854, 0.04725600779056549, 0.06590506434440613, 0.08455412089824677, 0.1032031774520874, 0.12185223400592804, 0.14050129055976868, 0.15915034711360931, 0.17779940366744995, 0.1964484602212906, 0.21509751677513123, 0.23374657332897186, 0.2523956298828125, 0.27104467153549194, 0.2896937429904938, 0.3083428144454956, 0.32699185609817505, 0.3456408977508545, 0.3642899692058563, 0.38293904066085815, 0.4015880823135376, 0.42023712396621704, 0.43888619542121887, 0.4575352668762207, 0.47618430852890015, 0.4948333501815796, 0.5134824514389038, 0.5321314930915833, 0.5507805347442627]}, "parameters/attention_0.bias": {"_type": "histogram", "values": [0.0, 0.0, 0.0, 0.0, 0.0, 0.0, 0.0, 0.0, 0.0, 0.0, 0.0, 0.0, 0.0, 0.0, 0.0, 0.0, 0.0, 0.0, 0.0, 0.0, 0.0, 0.0, 0.0, 0.0, 0.0, 0.0, 0.0, 0.0, 0.0, 0.0, 0.0, 0.0, 40.0, 0.0, 0.0, 0.0, 0.0, 0.0, 0.0, 0.0, 0.0, 0.0, 0.0, 0.0, 0.0, 0.0, 0.0, 0.0, 0.0, 0.0, 0.0, 0.0, 0.0, 0.0, 0.0, 0.0, 0.0, 0.0, 0.0, 0.0, 0.0, 0.0, 0.0, 0.0], "bins": [0.0, 0.0, 0.0, 0.0, 0.0, 0.0, 0.0, 0.0, 0.0, 0.0, 0.0, 0.0, 0.0, 0.0, 0.0, 0.0, 0.0, 0.0, 0.0, 0.0, 0.0, 0.0, 0.0, 0.0, 0.0, 0.0, 0.0, 0.0, 0.0, 0.0, 0.0, 0.0, 0.0, 0.0, 0.0, 0.0, 0.0, 0.0, 0.0, 0.0, 0.0, 0.0, 0.0, 0.0, 0.0, 0.0, 0.0, 0.0, 0.0, 0.0, 0.0, 0.0, 0.0, 0.0, 0.0, 0.0, 0.0, 0.0, 0.0, 0.0, 0.0, 0.0, 0.0, 0.0, 0.0]}, "parameters/attention_0.lin_l.weight": {"_type": "histogram", "values": [10.0, 8.0, 8.0, 6.0, 9.0, 7.0, 12.0, 7.0, 12.0, 8.0, 13.0, 10.0, 13.0, 15.0, 8.0, 12.0, 7.0, 13.0, 10.0, 8.0, 6.0, 6.0, 3.0, 11.0, 4.0, 8.0, 8.0, 3.0, 6.0, 6.0, 15.0, 8.0, 6.0, 8.0, 8.0, 17.0, 8.0, 7.0, 9.0, 9.0, 5.0, 11.0, 3.0, 11.0, 10.0, 9.0, 8.0, 5.0, 8.0, 7.0, 14.0, 11.0, 11.0, 10.0, 11.0, 7.0, 8.0, 6.0, 9.0, 8.0, 7.0, 7.0, 8.0, 14.0], "bins": [-0.33270880579948425, -0.3223027288913727, -0.3118966221809387, -0.30149054527282715, -0.2910844683647156, -0.2806783616542816, -0.27027228474617004, -0.2598661780357361, -0.2494601011276245, -0.23905400931835175, -0.22864793241024017, -0.2182418406009674, -0.20783574879169464, -0.19742965698242188, -0.1870235800743103, -0.17661748826503754, -0.16621141135692596, -0.1558053195476532, -0.14539924263954163, -0.13499315083026886, -0.1245870590209961, -0.11418097466230392, -0.10377489030361176, -0.09336879849433899, -0.08296271413564682, -0.07255662977695465, -0.062150537967681885, -0.051744453608989716, -0.04133836552500725, -0.03093227744102478, -0.02052619308233261, -0.010120101273059845, 0.0002859830856323242, 0.010692070238292217, 0.02109815739095211, 0.03150424361228943, 0.041910331696271896, 0.052316419780254364, 0.06272250413894653, 0.0731285959482193, 0.08353468030691147, 0.09394076466560364, 0.1043468564748764, 0.11475294083356857, 0.12515902519226074, 0.1355651170015335, 0.14597120881080627, 0.15637728571891785, 0.1667833775281906, 0.17718946933746338, 0.18759554624557495, 0.19800163805484772, 0.20840772986412048, 0.21881380677223206, 0.22921989858150482, 0.2396259903907776, 0.25003206729888916, 0.26043814420700073, 0.2708442509174347, 0.28125032782554626, 0.29165640473365784, 0.3020625114440918, 0.31246858835220337, 0.32287466526031494, 0.3332807719707489]}, "parameters/attention_1.att_l": {"_type": "histogram", "values": [2.0, 0.0, 0.0, 2.0, 0.0, 2.0, 0.0, 1.0, 1.0, 1.0, 0.0, 0.0, 0.0, 1.0, 0.0, 0.0, 0.0, 0.0, 0.0, 0.0, 0.0, 1.0, 2.0, 0.0, 1.0, 1.0, 1.0, 0.0, 1.0, 2.0, 0.0, 0.0, 2.0, 0.0, 1.0, 0.0, 0.0, 1.0, 2.0, 0.0, 0.0, 1.0, 0.0, 0.0, 0.0, 0.0, 1.0, 0.0, 1.0, 0.0, 0.0, 0.0, 0.0, 1.0, 3.0, 0.0, 1.0, 1.0, 1.0, 3.0, 0.0, 0.0, 0.0, 2.0], "bins": [-0.6454037427902222, -0.625210702419281, -0.6050177216529846, -0.5848246812820435, -0.5646317005157471, -0.5444386601448059, -0.5242456793785095, -0.5040526390075684, -0.4838596284389496, -0.4636666178703308, -0.44347360730171204, -0.42328059673309326, -0.4030875563621521, -0.3828945755958557, -0.36270153522491455, -0.3425085246562958, -0.322315514087677, -0.3021225035190582, -0.28192949295043945, -0.2617364823818207, -0.2415434569120407, -0.22135044634342194, -0.20115742087364197, -0.1809644103050232, -0.16077139973640442, -0.14057838916778564, -0.12038537114858627, -0.1001923531293869, -0.07999934256076813, -0.05980633199214935, -0.03961331397294998, -0.01942029595375061, 0.0007727146148681641, 0.020965728908777237, 0.04115874320268631, 0.06135175749659538, 0.08154477179050446, 0.10173778235912323, 0.1219308003783226, 0.14212381839752197, 0.16231682896614075, 0.18250983953475952, 0.2027028501033783, 0.22289587557315826, 0.24308888614177704, 0.2632818818092346, 0.2834749221801758, 0.30366793274879456, 0.32386094331741333, 0.3440539538860321, 0.3642469644546509, 0.38443997502326965, 0.4046329855918884, 0.4248260259628296, 0.44501903653144836, 0.46521204710006714, 0.4854050576686859, 0.5055980682373047, 0.5257911086082458, 0.5459840893745422, 0.5661771297454834, 0.5863701105117798, 0.606563150882721, 0.6267561912536621, 0.6469491720199585]}, "parameters/attention_1.att_r": {"_type": "histogram", "values": [1.0, 1.0, 0.0, 0.0, 3.0, 0.0, 2.0, 1.0, 0.0, 2.0, 0.0, 1.0, 1.0, 0.0, 0.0, 1.0, 2.0, 1.0, 0.0, 0.0, 0.0, 0.0, 0.0, 0.0, 0.0, 1.0, 0.0, 0.0, 0.0, 2.0, 1.0, 1.0, 0.0, 0.0, 2.0, 1.0, 1.0, 0.0, 0.0, 0.0, 1.0, 2.0, 0.0, 0.0, 0.0, 0.0, 1.0, 0.0, 2.0, 0.0, 1.0, 2.0, 0.0, 1.0, 0.0, 1.0, 0.0, 0.0, 1.0, 0.0, 1.0, 0.0, 1.0, 1.0], "bins": [-0.6487591862678528, -0.6285711526870728, -0.6083831191062927, -0.5881950855255127, -0.5680070519447327, -0.5478190183639526, -0.5276309847831726, -0.5074429512023926, -0.48725491762161255, -0.4670668840408325, -0.4468788504600525, -0.42669081687927246, -0.40650278329849243, -0.3863147497177124, -0.3661267161369324, -0.34593868255615234, -0.3257506489753723, -0.3055626153945923, -0.28537458181381226, -0.2651865482330322, -0.2449985146522522, -0.22481048107147217, -0.20462244749069214, -0.1844344139099121, -0.16424638032913208, -0.14405834674835205, -0.12387031316757202, -0.10368227958679199, -0.08349424600601196, -0.06330621242523193, -0.043118178844451904, -0.022930145263671875, -0.002742171287536621, 0.017445862293243408, 0.03763389587402344, 0.05782192945480347, 0.0780099630355835, 0.09819799661636353, 0.11838603019714355, 0.13857406377792358, 0.1587620973587036, 0.17895013093948364, 0.19913816452026367, 0.2193261981010437, 0.23951423168182373, 0.25970226526260376, 0.2798902988433838, 0.3000783324241638, 0.32026636600494385, 0.3404543995857239, 0.3606424331665039, 0.38083046674728394, 0.40101850032806396, 0.421206533908844, 0.441394567489624, 0.46158260107040405, 0.4817706346511841, 0.5019586682319641, 0.5221467018127441, 0.5423347353935242, 0.5625227689743042, 0.5827108025550842, 0.6028988361358643, 0.6230868697166443, 0.6432749032974243]}, "parameters/attention_1.bias": {"_type": "histogram", "values": [0.0, 0.0, 0.0, 0.0, 0.0, 0.0, 0.0, 0.0, 0.0, 0.0, 0.0, 0.0, 0.0, 0.0, 0.0, 0.0, 0.0, 0.0, 0.0, 0.0, 0.0, 0.0, 0.0, 0.0, 0.0, 0.0, 0.0, 0.0, 0.0, 0.0, 0.0, 0.0, 40.0, 0.0, 0.0, 0.0, 0.0, 0.0, 0.0, 0.0, 0.0, 0.0, 0.0, 0.0, 0.0, 0.0, 0.0, 0.0, 0.0, 0.0, 0.0, 0.0, 0.0, 0.0, 0.0, 0.0, 0.0, 0.0, 0.0, 0.0, 0.0, 0.0, 0.0, 0.0], "bins": [0.0, 0.0, 0.0, 0.0, 0.0, 0.0, 0.0, 0.0, 0.0, 0.0, 0.0, 0.0, 0.0, 0.0, 0.0, 0.0, 0.0, 0.0, 0.0, 0.0, 0.0, 0.0, 0.0, 0.0, 0.0, 0.0, 0.0, 0.0, 0.0, 0.0, 0.0, 0.0, 0.0, 0.0, 0.0, 0.0, 0.0, 0.0, 0.0, 0.0, 0.0, 0.0, 0.0, 0.0, 0.0, 0.0, 0.0, 0.0, 0.0, 0.0, 0.0, 0.0, 0.0, 0.0, 0.0, 0.0, 0.0, 0.0, 0.0, 0.0, 0.0, 0.0, 0.0, 0.0, 0.0]}, "parameters/attention_1.lin_l.weight": {"_type": "histogram", "values": [23.0, 24.0, 19.0, 25.0, 27.0, 34.0, 23.0, 27.0, 32.0, 20.0, 24.0, 19.0, 26.0, 26.0, 23.0, 28.0, 16.0, 30.0, 30.0, 24.0, 23.0, 23.0, 26.0, 25.0, 19.0, 28.0, 24.0, 27.0, 16.0, 27.0, 19.0, 32.0, 20.0, 27.0, 31.0, 32.0, 21.0, 22.0, 29.0, 32.0, 30.0, 28.0, 24.0, 23.0, 17.0, 33.0, 19.0, 23.0, 20.0, 22.0, 35.0, 23.0, 18.0, 24.0, 28.0, 33.0, 29.0, 25.0, 22.0, 17.0, 22.0, 20.0, 34.0, 28.0], "bins": [-0.27358683943748474, -0.2650464177131653, -0.25650596618652344, -0.24796552956104279, -0.23942509293556213, -0.23088465631008148, -0.22234421968460083, -0.21380378305912018, -0.20526334643363953, -0.19672290980815887, -0.18818247318267822, -0.17964203655719757, -0.17110159993171692, -0.16256116330623627, -0.15402072668075562, -0.14548029005527496, -0.1369398534297943, -0.12839941680431366, -0.11985898017883301, -0.11131854355335236, -0.1027781069278717, -0.09423767030239105, -0.0856972336769104, -0.07715679705142975, -0.0686163604259491, -0.060075923800468445, -0.05153548717498779, -0.04299505054950714, -0.03445461392402649, -0.025914177298545837, -0.017373740673065186, -0.008833304047584534, -0.00029289722442626953, 0.008247539401054382, 0.016787976026535034, 0.025328412652015686, 0.03386884927749634, 0.04240928590297699, 0.05094972252845764, 0.05949015915393829, 0.06803059577941895, 0.0765710324048996, 0.08511146903038025, 0.0936519056558609, 0.10219234228134155, 0.1107327789068222, 0.11927321553230286, 0.1278136521577835, 0.13635408878326416, 0.1448945254087448, 0.15343496203422546, 0.16197539865970612, 0.17051583528518677, 0.17905627191066742, 0.18759670853614807, 0.19613714516162872, 0.20467758178710938, 0.21321801841259003, 0.22175845503807068, 0.23029889166355133, 0.23883932828903198, 0.24737976491451263, 0.2559202015399933, 0.26446062326431274, 0.2730010747909546]}, "parameters/attention_2.att_l": {"_type": "histogram", "values": [1.0, 3.0, 1.0, 0.0, 0.0, 2.0, 0.0, 1.0, 1.0, 0.0, 0.0, 0.0, 2.0, 1.0, 2.0, 2.0, 1.0, 0.0, 0.0, 0.0, 0.0, 1.0, 2.0, 0.0, 0.0, 0.0, 1.0, 1.0, 0.0, 0.0, 0.0, 0.0, 0.0, 1.0, 0.0, 1.0, 1.0, 0.0, 0.0, 1.0, 0.0, 0.0, 0.0, 1.0, 0.0, 1.0, 1.0, 0.0, 1.0, 1.0, 0.0, 2.0, 0.0, 0.0, 0.0, 0.0, 0.0, 1.0, 2.0, 2.0, 1.0, 0.0, 0.0, 1.0], "bins": [-0.6054848432540894, -0.5873510241508484, -0.5692172050476074, -0.5510833263397217, -0.5329495072364807, -0.5148156881332397, -0.4966818690299988, -0.4785480499267578, -0.46041423082351685, -0.4422804117202759, -0.4241465628147125, -0.40601274371147156, -0.3878789246082306, -0.36974507570266724, -0.35161125659942627, -0.3334774374961853, -0.31534358859062195, -0.297209769487381, -0.2790759205818176, -0.26094210147857666, -0.2428082823753357, -0.22467444837093353, -0.20654061436653137, -0.1884067952632904, -0.17027296125888824, -0.15213912725448608, -0.13400530815124512, -0.11587147414684296, -0.09773764759302139, -0.07960382103919983, -0.06146998703479767, -0.0433361679315567, -0.02520233392715454, -0.007068505510687828, 0.011065322905778885, 0.029199153184890747, 0.04733297973871231, 0.06546680629253387, 0.08360064029693604, 0.101734459400177, 0.11986829340457916, 0.13800212740898132, 0.1561359465122223, 0.17426978051662445, 0.1924036145210266, 0.21053743362426758, 0.22867126762866974, 0.2468050867319107, 0.26493892073631287, 0.28307273983955383, 0.3012065887451172, 0.31934040784835815, 0.3374742269515991, 0.3556080460548401, 0.37374189496040344, 0.3918757140636444, 0.41000956296920776, 0.42814338207244873, 0.4462772309780121, 0.46441105008125305, 0.482544869184494, 0.5006787180900574, 0.5188125371932983, 0.5369463562965393, 0.5550801753997803]}, "parameters/attention_2.att_r": {"_type": "histogram", "values": [2.0, 1.0, 2.0, 0.0, 0.0, 0.0, 2.0, 0.0, 0.0, 0.0, 0.0, 0.0, 0.0, 1.0, 1.0, 0.0, 0.0, 2.0, 0.0, 0.0, 0.0, 1.0, 1.0, 2.0, 0.0, 0.0, 2.0, 1.0, 0.0, 0.0, 0.0, 1.0, 2.0, 2.0, 1.0, 0.0, 0.0, 0.0, 0.0, 1.0, 0.0, 2.0, 0.0, 0.0, 1.0, 0.0, 0.0, 0.0, 2.0, 0.0, 1.0, 0.0, 1.0, 0.0, 1.0, 1.0, 0.0, 0.0, 0.0, 1.0, 1.0, 1.0, 2.0, 1.0], "bins": [-0.5779164433479309, -0.5592042207717896, -0.5404919385910034, -0.5217796564102173, -0.5030674338340759, -0.4843551814556122, -0.46564292907714844, -0.4469306766986847, -0.42821842432022095, -0.4095061719417572, -0.39079391956329346, -0.3720816671848297, -0.35336941480636597, -0.3346571624279022, -0.3159449100494385, -0.29723265767097473, -0.278520405292511, -0.25980815291404724, -0.2410959005355835, -0.22238364815711975, -0.203671395778656, -0.18495914340019226, -0.16624689102172852, -0.14753463864326477, -0.12882238626480103, -0.11011013388633728, -0.09139788150787354, -0.07268562912940979, -0.053973376750946045, -0.0352611243724823, -0.016548871994018555, 0.0021633803844451904, 0.02087557315826416, 0.039587825536727905, 0.05830007791519165, 0.0770123302936554, 0.09572458267211914, 0.11443683505058289, 0.13314908742904663, 0.15186133980751038, 0.17057359218597412, 0.18928584456443787, 0.2079980969429016, 0.22671034932136536, 0.2454226016998291, 0.26413485407829285, 0.2828471064567566, 0.30155935883522034, 0.3202716112136841, 0.3389838635921478, 0.3576961159706116, 0.3764083683490753, 0.39512062072753906, 0.4138328731060028, 0.43254512548446655, 0.4512573778629303, 0.46996963024139404, 0.4886818826198578, 0.5073941349983215, 0.5261063575744629, 0.544818639755249, 0.5635309219360352, 0.5822431445121765, 0.6009553670883179, 0.619667649269104]}, "parameters/attention_2.bias": {"_type": "histogram", "values": [0.0, 0.0, 0.0, 0.0, 0.0, 0.0, 0.0, 0.0, 0.0, 0.0, 0.0, 0.0, 0.0, 0.0, 0.0, 0.0, 0.0, 0.0, 0.0, 0.0, 0.0, 0.0, 0.0, 0.0, 0.0, 0.0, 0.0, 0.0, 0.0, 0.0, 0.0, 0.0, 40.0, 0.0, 0.0, 0.0, 0.0, 0.0, 0.0, 0.0, 0.0, 0.0, 0.0, 0.0, 0.0, 0.0, 0.0, 0.0, 0.0, 0.0, 0.0, 0.0, 0.0, 0.0, 0.0, 0.0, 0.0, 0.0, 0.0, 0.0, 0.0, 0.0, 0.0, 0.0], "bins": [0.0, 0.0, 0.0, 0.0, 0.0, 0.0, 0.0, 0.0, 0.0, 0.0, 0.0, 0.0, 0.0, 0.0, 0.0, 0.0, 0.0, 0.0, 0.0, 0.0, 0.0, 0.0, 0.0, 0.0, 0.0, 0.0, 0.0, 0.0, 0.0, 0.0, 0.0, 0.0, 0.0, 0.0, 0.0, 0.0, 0.0, 0.0, 0.0, 0.0, 0.0, 0.0, 0.0, 0.0, 0.0, 0.0, 0.0, 0.0, 0.0, 0.0, 0.0, 0.0, 0.0, 0.0, 0.0, 0.0, 0.0, 0.0, 0.0, 0.0, 0.0, 0.0, 0.0, 0.0, 0.0]}, "parameters/attention_2.lin_l.weight": {"_type": "histogram", "values": [20.0, 31.0, 23.0, 20.0, 11.0, 25.0, 14.0, 26.0, 30.0, 20.0, 22.0, 21.0, 23.0, 28.0, 19.0, 22.0, 27.0, 23.0, 24.0, 27.0, 26.0, 36.0, 27.0, 31.0, 26.0, 22.0, 32.0, 27.0, 25.0, 21.0, 23.0, 35.0, 35.0, 30.0, 23.0, 26.0, 21.0, 21.0, 38.0, 31.0, 23.0, 24.0, 29.0, 26.0, 28.0, 24.0, 32.0, 28.0, 22.0, 22.0, 23.0, 25.0, 19.0, 29.0, 25.0, 25.0, 15.0, 28.0, 19.0, 18.0, 32.0, 30.0, 24.0, 18.0], "bins": [-0.27335116267204285, -0.2648042142391205, -0.25625723600387573, -0.24771027266979218, -0.23916330933570862, -0.23061634600162506, -0.2220693826675415, -0.21352243423461914, -0.2049754559993744, -0.19642849266529083, -0.18788152933120728, -0.17933456599712372, -0.17078760266304016, -0.1622406393289566, -0.15369367599487305, -0.14514672756195068, -0.13659976422786713, -0.12805280089378357, -0.11950583755970001, -0.11095887422561646, -0.1024119108915329, -0.09386494755744934, -0.08531799167394638, -0.07677102833986282, -0.06822406500577927, -0.05967710167169571, -0.05113013833761215, -0.04258317872881889, -0.034036215394735336, -0.02548925206065178, -0.01694229245185852, -0.008395329117774963, 0.00015163421630859375, 0.008698596619069576, 0.01724555902183056, 0.025792520493268967, 0.034339483827352524, 0.04288644716143608, 0.05143340677022934, 0.0599803701043129, 0.06852733343839645, 0.07707429677248001, 0.08562126010656357, 0.09416821599006653, 0.10271517932415009, 0.11126214265823364, 0.1198091059923172, 0.12835606932640076, 0.13690303266048431, 0.14544999599456787, 0.15399695932865143, 0.16254392266273499, 0.17109088599681854, 0.1796378493309021, 0.18818479776382446, 0.1967317759990692, 0.20527872443199158, 0.21382568776607513, 0.2223726511001587, 0.23091961443424225, 0.2394665777683258, 0.24801354110240936, 0.2565605044364929, 0.2651074528694153, 0.27365443110466003]}, "parameters/out_att.att_l": {"_type": "histogram", "values": [0.0, 0.0, 0.0, 0.0, 0.0, 0.0, 0.0, 0.0, 0.0, 0.0, 0.0, 0.0, 0.0, 0.0, 0.0, 0.0, 0.0, 0.0, 0.0, 0.0, 0.0, 0.0, 0.0, 0.0, 0.0, 0.0, 0.0, 0.0, 0.0, 0.0, 0.0, 0.0, 1.0, 0.0, 0.0, 0.0, 0.0, 0.0, 0.0, 0.0, 0.0, 0.0, 0.0, 0.0, 0.0, 0.0, 0.0, 0.0, 0.0, 0.0, 0.0, 0.0, 0.0, 0.0, 0.0, 0.0, 0.0, 0.0, 0.0, 0.0, 0.0, 0.0, 0.0, 0.0], "bins": [-0.8892492651939392, -0.8892492651939392, -0.8892492651939392, -0.8892492651939392, -0.8892492651939392, -0.8892492651939392, -0.8892492651939392, -0.8892492651939392, -0.8892492651939392, -0.8892492651939392, -0.8892492651939392, -0.8892492651939392, -0.8892492651939392, -0.8892492651939392, -0.8892492651939392, -0.8892492651939392, -0.8892492651939392, -0.8892492651939392, -0.8892492651939392, -0.8892492651939392, -0.8892492651939392, -0.8892492651939392, -0.8892492651939392, -0.8892492651939392, -0.8892492651939392, -0.8892492651939392, -0.8892492651939392, -0.8892492651939392, -0.8892492651939392, -0.8892492651939392, -0.8892492651939392, -0.8892492651939392, -0.8892492651939392, -0.8892492651939392, -0.8892492651939392, -0.8892492651939392, -0.8892492651939392, -0.8892492651939392, -0.8892492651939392, -0.8892492651939392, -0.8892492651939392, -0.8892492651939392, -0.8892492651939392, -0.8892492651939392, -0.8892492651939392, -0.8892492651939392, -0.8892492651939392, -0.8892492651939392, -0.8892492651939392, -0.8892492651939392, -0.8892492651939392, -0.8892492651939392, -0.8892492651939392, -0.8892492651939392, -0.8892492651939392, -0.8892492651939392, -0.8892492651939392, -0.8892492651939392, -0.8892492651939392, -0.8892492651939392, -0.8892492651939392, -0.8892492651939392, -0.8892492651939392, -0.8892492651939392, -0.8892492651939392]}, "parameters/out_att.att_r": {"_type": "histogram", "values": [0.0, 0.0, 0.0, 0.0, 0.0, 0.0, 0.0, 0.0, 0.0, 0.0, 0.0, 0.0, 0.0, 0.0, 0.0, 0.0, 0.0, 0.0, 0.0, 0.0, 0.0, 0.0, 0.0, 0.0, 0.0, 0.0, 0.0, 0.0, 0.0, 0.0, 0.0, 1.0, 0.0, 0.0, 0.0, 0.0, 0.0, 0.0, 0.0, 0.0, 0.0, 0.0, 0.0, 0.0, 0.0, 0.0, 0.0, 0.0, 0.0, 0.0, 0.0, 0.0, 0.0, 0.0, 0.0, 0.0, 0.0, 0.0, 0.0, 0.0, 0.0, 0.0, 0.0, 0.0], "bins": [-0.14073626697063446, -0.14073626697063446, -0.14073626697063446, -0.14073626697063446, -0.14073626697063446, -0.14073626697063446, -0.14073626697063446, -0.14073626697063446, -0.14073626697063446, -0.14073626697063446, -0.14073626697063446, -0.14073626697063446, -0.14073626697063446, -0.14073626697063446, -0.14073626697063446, -0.14073626697063446, -0.14073626697063446, -0.14073626697063446, -0.14073626697063446, -0.14073626697063446, -0.14073626697063446, -0.14073626697063446, -0.14073626697063446, -0.14073626697063446, -0.14073626697063446, -0.14073626697063446, -0.14073626697063446, -0.14073626697063446, -0.14073626697063446, -0.14073626697063446, -0.14073626697063446, -0.14073626697063446, -0.14073626697063446, -0.14073626697063446, -0.14073626697063446, -0.14073626697063446, -0.14073626697063446, -0.14073626697063446, -0.14073626697063446, -0.14073626697063446, -0.14073626697063446, -0.14073626697063446, -0.14073626697063446, -0.14073626697063446, -0.14073626697063446, -0.14073626697063446, -0.14073626697063446, -0.14073626697063446, -0.14073626697063446, -0.14073626697063446, -0.14073626697063446, -0.14073626697063446, -0.14073626697063446, -0.14073626697063446, -0.14073626697063446, -0.14073626697063446, -0.14073626697063446, -0.14073626697063446, -0.14073626697063446, -0.14073626697063446, -0.14073626697063446, -0.14073626697063446, -0.14073626697063446, -0.14073626697063446, -0.14073626697063446]}, "parameters/out_att.bias": {"_type": "histogram", "values": [0.0, 0.0, 0.0, 0.0, 0.0, 0.0, 0.0, 0.0, 0.0, 0.0, 0.0, 0.0, 0.0, 0.0, 0.0, 0.0, 0.0, 0.0, 0.0, 0.0, 0.0, 0.0, 0.0, 0.0, 0.0, 0.0, 0.0, 0.0, 0.0, 0.0, 0.0, 0.0, 1.0, 0.0, 0.0, 0.0, 0.0, 0.0, 0.0, 0.0, 0.0, 0.0, 0.0, 0.0, 0.0, 0.0, 0.0, 0.0, 0.0, 0.0, 0.0, 0.0, 0.0, 0.0, 0.0, 0.0, 0.0, 0.0, 0.0, 0.0, 0.0, 0.0, 0.0, 0.0], "bins": [0.0, 0.0, 0.0, 0.0, 0.0, 0.0, 0.0, 0.0, 0.0, 0.0, 0.0, 0.0, 0.0, 0.0, 0.0, 0.0, 0.0, 0.0, 0.0, 0.0, 0.0, 0.0, 0.0, 0.0, 0.0, 0.0, 0.0, 0.0, 0.0, 0.0, 0.0, 0.0, 0.0, 0.0, 0.0, 0.0, 0.0, 0.0, 0.0, 0.0, 0.0, 0.0, 0.0, 0.0, 0.0, 0.0, 0.0, 0.0, 0.0, 0.0, 0.0, 0.0, 0.0, 0.0, 0.0, 0.0, 0.0, 0.0, 0.0, 0.0, 0.0, 0.0, 0.0, 0.0, 0.0]}, "parameters/out_att.lin_l.weight": {"_type": "histogram", "values": [2.0, 0.0, 0.0, 0.0, 0.0, 0.0, 2.0, 0.0, 0.0, 1.0, 0.0, 1.0, 1.0, 1.0, 0.0, 1.0, 1.0, 1.0, 1.0, 0.0, 2.0, 1.0, 0.0, 2.0, 2.0, 1.0, 0.0, 0.0, 0.0, 0.0, 1.0, 1.0, 0.0, 0.0, 1.0, 1.0, 0.0, 0.0, 1.0, 1.0, 2.0, 1.0, 1.0, 0.0, 0.0, 1.0, 1.0, 0.0, 1.0, 1.0, 1.0, 0.0, 0.0, 0.0, 0.0, 0.0, 1.0, 0.0, 1.0, 0.0, 0.0, 0.0, 1.0, 2.0], "bins": [-0.3576766848564148, -0.34623560309410095, -0.3347945213317871, -0.32335343956947327, -0.3119123578071594, -0.3004712462425232, -0.28903019428253174, -0.2775890827178955, -0.26614800095558167, -0.2547069191932678, -0.24326583743095398, -0.23182475566864014, -0.2203836590051651, -0.20894257724285126, -0.19750149548053741, -0.18606039881706238, -0.17461933195590973, -0.1631782501935959, -0.15173716843128204, -0.140296071767807, -0.12885499000549316, -0.11741390824317932, -0.10597282648086548, -0.09453173726797104, -0.0830906555056572, -0.07164957374334335, -0.060208484530448914, -0.04876740276813507, -0.03732631728053093, -0.02588523179292679, -0.014444150030612946, -0.003003060817718506, 0.008438020944595337, 0.019879106432199478, 0.03132019191980362, 0.04276127368211746, 0.0542023591697216, 0.06564344465732574, 0.07708452641963959, 0.08852561563253403, 0.09996669739484787, 0.11140777915716171, 0.12284886837005615, 0.13428995013237, 0.14573103189468384, 0.15717211365699768, 0.16861319541931152, 0.18005429208278656, 0.1914953738451004, 0.20293645560741425, 0.2143775373697281, 0.22581863403320312, 0.23725971579551697, 0.2487007975578308, 0.26014187932014465, 0.2715829610824585, 0.28302404284477234, 0.2944651246070862, 0.3059062063694, 0.31734728813171387, 0.3287883698940277, 0.34022945165634155, 0.3516705632209778, 0.3631116449832916, 0.37455272674560547]}, "_runtime": 1066, "_timestamp": 1641744640, "_step": 9, "Learning rate value": 0.006399999999999997, "Learning rate action": 0.006399999999999997, "epsilon": 0.9135172474836407, "action_probs": {"_type": "histogram", "values": [2, 0, 0, 0, 0, 0, 2, 0, 0, 0, 2, 0, 2, 2, 0, 0, 0, 34, 22, 2, 4, 0, 2, 2, 2, 0, 0, 2, 0, 0, 0, 0, 0, 0, 0, 0, 0, 0, 0, 0, 0, 0, 0, 0, 0, 0, 0, 0, 0, 0, 0, 0, 0, 0, 0, 0, 0, 2, 0, 0, 0, 0, 0, 2], "bins": [0.3022901117801666, 0.3131907880306244, 0.32409149408340454, 0.3349921703338623, 0.34589287638664246, 0.3567935526371002, 0.36769425868988037, 0.37859493494033813, 0.3894956111907959, 0.40039631724357605, 0.4112969934940338, 0.42219769954681396, 0.43309837579727173, 0.4439990520477295, 0.45489975810050964, 0.4658004343509674, 0.47670114040374756, 0.4876018166542053, 0.4985025227069855, 0.5094032287597656, 0.5203039050102234, 0.5312045812606812, 0.5421052575111389, 0.5530059337615967, 0.5639066696166992, 0.574807345867157, 0.5857080221176147, 0.5966086983680725, 0.6075093746185303, 0.6184101104736328, 0.6293107867240906, 0.6402114629745483, 0.6511121392250061, 0.6620128154754639, 0.6729135513305664, 0.6838142275810242, 0.6947149038314819, 0.7056155800819397, 0.7165163159370422, 0.7274169921875, 0.7383176684379578, 0.7492183446884155, 0.7601190209388733, 0.7710197567939758, 0.7819204330444336, 0.7928211092948914, 0.8037217855453491, 0.8146224617958069, 0.8255231976509094, 0.8364238739013672, 0.847324550151825, 0.8582252264022827, 0.8691259026527405, 0.880026638507843, 0.8909273147583008, 0.9018279910087585, 0.9127286672592163, 0.9236294031143188, 0.9345300793647766, 0.9454307556152344, 0.9563314318656921, 0.9672321081161499, 0.9781328439712524, 0.9890335202217102, 0.999934196472168]}, "stop_go_action": {"_type": "histogram", "values": [46, 0, 0, 0, 0, 0, 0, 0, 0, 0, 0, 0, 0, 0, 0, 0, 0, 0, 0, 0, 0, 0, 0, 0, 0, 0, 0, 0, 0, 0, 0, 0, 0, 0, 0, 0, 0, 0, 0, 0, 0, 0, 0, 0, 0, 0, 0, 0, 0, 0, 0, 0, 0, 0, 0, 0, 0, 0, 0, 0, 0, 0, 0, 38], "bins": [0.0, 0.015625, 0.03125, 0.046875, 0.0625, 0.078125, 0.09375, 0.109375, 0.125, 0.140625, 0.15625, 0.171875, 0.1875, 0.203125, 0.21875, 0.234375, 0.25, 0.265625, 0.28125, 0.296875, 0.3125, 0.328125, 0.34375, 0.359375, 0.375, 0.390625, 0.40625, 0.421875, 0.4375, 0.453125, 0.46875, 0.484375, 0.5, 0.515625, 0.53125, 0.546875, 0.5625, 0.578125, 0.59375, 0.609375, 0.625, 0.640625, 0.65625, 0.671875, 0.6875, 0.703125, 0.71875, 0.734375, 0.75, 0.765625, 0.78125, 0.796875, 0.8125, 0.828125, 0.84375, 0.859375, 0.875, 0.890625, 0.90625, 0.921875, 0.9375, 0.953125, 0.96875, 0.984375, 1.0]}, "node_values": {"_type": "histogram", "values": [1, 0, 0, 0, 0, 0, 0, 0, 0, 0, 0, 0, 0, 0, 0, 3, 0, 0, 0, 0, 0, 0, 0, 0, 0, 1, 1, 1, 0, 1, 2, 0, 1, 0, 0, 0, 1, 0, 3, 3, 0, 1, 1, 6, 0, 2, 1, 0, 2, 1, 0, 3, 0, 0, 1, 0, 0, 0, 0, 1, 0, 2, 0, 3], "bins": [-0.7992085218429565, -0.7863477438222617, -0.7734869658015668, -0.760626187780872, -0.7477654097601771, -0.7349046317394823, -0.7220438537187874, -0.7091830756980926, -0.6963222976773977, -0.6834615196567029, -0.670600741636008, -0.6577399636153132, -0.6448791855946183, -0.6320184075739235, -0.6191576295532286, -0.6062968515325338, -0.5934360735118389, -0.5805752954911441, -0.5677145174704492, -0.5548537394497544, -0.5419929614290595, -0.5291321834083647, -0.5162714053876698, -0.503410627366975, -0.4905498493462801, -0.47768907132558525, -0.4648282933048904, -0.45196751528419554, -0.4391067372635007, -0.42624595924280584, -0.413385181222111, -0.40052440320141613, -0.3876636251807213, -0.37480284716002643, -0.3619420691393316, -0.3490812911186367, -0.3362205130979419, -0.323359735077247, -0.31049895705655217, -0.2976381790358573, -0.28477740101516247, -0.2719166229944676, -0.25905584497377276, -0.2461950669530779, -0.23333428893238306, -0.2204735109116882, -0.20761273289099336, -0.1947519548702985, -0.18189117684960365, -0.1690303988289088, -0.15616962080821395, -0.1433088427875191, -0.13044806476682425, -0.1175872867461294, -0.10472650872543454, -0.09186573070473969, -0.07900495268404484, -0.06614417466334999, -0.053283396642655134, -0.04042261862196028, -0.02756184060126543, -0.014701062580570579, -0.0018402845598757267, 0.011020493460819125, 0.023881271481513977]}, "episode_rewards": {"_type": "histogram", "values": [12, 0, 0, 0, 0, 0, 0, 0, 0, 0, 12, 0, 0, 0, 0, 0, 0, 0, 0, 0, 0, 0, 0, 0, 0, 0, 0, 0, 0, 0, 0, 0, 0, 0, 0, 0, 0, 0, 0, 0, 0, 0, 0, 0, 0, 0, 0, 0, 0, 0, 0, 14, 0, 0, 0, 0, 12, 0, 0, 0, 0, 4, 0, 4], "bins": [-25.0, -24.609375, -24.21875, -23.828125, -23.4375, -23.046875, -22.65625, -22.265625, -21.875, -21.484375, -21.09375, -20.703125, -20.3125, -19.921875, -19.53125, -19.140625, -18.75, -18.359375, -17.96875, -17.578125, -17.1875, -16.796875, -16.40625, -16.015625, -15.625, -15.234375, -14.84375, -14.453125, -14.0625, -13.671875, -13.28125, -12.890625, -12.5, -12.109375, -11.71875, -11.328125, -10.9375, -10.546875, -10.15625, -9.765625, -9.375, -8.984375, -8.59375, -8.203125, -7.8125, -7.421875, -7.03125, -6.640625, -6.25, -5.859375, -5.46875, -5.078125, -4.6875, -4.296875, -3.90625, -3.515625, -3.125, -2.734375, -2.34375, -1.953125, -1.5625, -1.171875, -0.78125, -0.390625, 0.0]}, "_wandb": {"runtime": 1064}}