{"parameters/attention_0.att_l": {"_type": "histogram", "values": [1.0, 1.0, 1.0, 0.0, 2.0, 2.0, 0.0, 0.0, 0.0, 0.0, 0.0, 1.0, 0.0, 0.0, 1.0, 0.0, 1.0, 0.0, 0.0, 0.0, 0.0, 1.0, 0.0, 1.0, 1.0, 3.0, 0.0, 0.0, 0.0, 2.0, 0.0, 0.0, 1.0, 1.0, 0.0, 0.0, 0.0, 0.0, 1.0, 1.0, 1.0, 2.0, 1.0, 1.0, 2.0, 0.0, 2.0, 0.0, 0.0, 0.0, 1.0, 0.0, 1.0, 0.0, 0.0, 0.0, 1.0, 0.0, 1.0, 0.0, 0.0, 1.0, 3.0, 1.0], "bins": [-0.6348363161087036, -0.6159639954566956, -0.5970916152000427, -0.5782192945480347, -0.5593469142913818, -0.5404745936393738, -0.521602213382721, -0.5027298927307129, -0.48385754227638245, -0.464985191822052, -0.44611284136772156, -0.4272404909133911, -0.40836817026138306, -0.3894957900047302, -0.37062346935272217, -0.3517511188983917, -0.3328787684440613, -0.31400641798973083, -0.2951340675354004, -0.27626171708106995, -0.2573893666267395, -0.23851703107357025, -0.219644695520401, -0.20077234506607056, -0.1818999946117401, -0.16302764415740967, -0.14415529370307922, -0.12528295814990997, -0.10641060769557953, -0.08753825724124908, -0.06866591423749924, -0.04979357123374939, -0.03092116117477417, -0.012048814445734024, 0.006823532283306122, 0.025695879012346268, 0.044568225741386414, 0.06344057619571686, 0.0823129191994667, 0.10118526220321655, 0.120057612657547, 0.13892996311187744, 0.15780231356620789, 0.17667464911937714, 0.19554699957370758, 0.21441935002803802, 0.23329168558120728, 0.2521640360355377, 0.27103638648986816, 0.2899087369441986, 0.30878108739852905, 0.3276534378528595, 0.34652578830718994, 0.365398108959198, 0.38427045941352844, 0.4031428098678589, 0.42201516032218933, 0.4408875107765198, 0.4597598612308502, 0.47863221168518066, 0.4975045323371887, 0.5163769125938416, 0.5352492332458496, 0.5541216135025024, 0.5729939341545105]}, "parameters/attention_0.att_r": {"_type": "histogram", "values": [2.0, 0.0, 0.0, 1.0, 1.0, 0.0, 0.0, 1.0, 0.0, 1.0, 0.0, 0.0, 0.0, 0.0, 1.0, 2.0, 2.0, 1.0, 1.0, 0.0, 1.0, 0.0, 0.0, 0.0, 1.0, 2.0, 0.0, 0.0, 1.0, 1.0, 0.0, 0.0, 1.0, 0.0, 0.0, 0.0, 1.0, 0.0, 0.0, 1.0, 1.0, 2.0, 2.0, 1.0, 0.0, 1.0, 0.0, 0.0, 0.0, 0.0, 0.0, 0.0, 0.0, 2.0, 2.0, 3.0, 0.0, 1.0, 0.0, 0.0, 0.0, 0.0, 1.0, 2.0], "bins": [-0.6288204193115234, -0.6093743443489075, -0.5899282097816467, -0.5704821348190308, -0.55103600025177, -0.531589925289154, -0.5121437907218933, -0.49269771575927734, -0.473251610994339, -0.45380550622940063, -0.4343594014644623, -0.4149132966995239, -0.39546722173690796, -0.3760210871696472, -0.35657501220703125, -0.3371289074420929, -0.31768280267715454, -0.2982366979122162, -0.27879059314727783, -0.2593444883823395, -0.23989839851856232, -0.22045229375362396, -0.2010062038898468, -0.18156009912490845, -0.1621139943599701, -0.14266788959503174, -0.12322179228067398, -0.10377569496631622, -0.08432959020137787, -0.06488348543643951, -0.04543738812208176, -0.025991290807724, -0.0065451860427856445, 0.012900914996862411, 0.03234701603651047, 0.051793117076158524, 0.07123921811580658, 0.09068532288074493, 0.11013142019510269, 0.12957751750946045, 0.1490236222743988, 0.16846972703933716, 0.1879158318042755, 0.20736192166805267, 0.22680802643299103, 0.24625413119792938, 0.26570022106170654, 0.2851463258266449, 0.30459243059158325, 0.3240385353565216, 0.34348464012145996, 0.3629307448863983, 0.38237684965133667, 0.40182292461395264, 0.421269029378891, 0.44071513414382935, 0.4601612389087677, 0.47960734367370605, 0.4990534484386444, 0.5184995532035828, 0.5379456281661987, 0.5573917627334595, 0.5768378376960754, 0.5962839126586914, 0.6157300472259521]}, "parameters/attention_0.bias": {"_type": "histogram", "values": [0.0, 0.0, 0.0, 0.0, 0.0, 0.0, 0.0, 0.0, 0.0, 0.0, 0.0, 0.0, 0.0, 0.0, 0.0, 0.0, 0.0, 0.0, 0.0, 0.0, 0.0, 0.0, 0.0, 0.0, 0.0, 0.0, 0.0, 0.0, 0.0, 0.0, 0.0, 0.0, 40.0, 0.0, 0.0, 0.0, 0.0, 0.0, 0.0, 0.0, 0.0, 0.0, 0.0, 0.0, 0.0, 0.0, 0.0, 0.0, 0.0, 0.0, 0.0, 0.0, 0.0, 0.0, 0.0, 0.0, 0.0, 0.0, 0.0, 0.0, 0.0, 0.0, 0.0, 0.0], "bins": [0.0, 0.0, 0.0, 0.0, 0.0, 0.0, 0.0, 0.0, 0.0, 0.0, 0.0, 0.0, 0.0, 0.0, 0.0, 0.0, 0.0, 0.0, 0.0, 0.0, 0.0, 0.0, 0.0, 0.0, 0.0, 0.0, 0.0, 0.0, 0.0, 0.0, 0.0, 0.0, 0.0, 0.0, 0.0, 0.0, 0.0, 0.0, 0.0, 0.0, 0.0, 0.0, 0.0, 0.0, 0.0, 0.0, 0.0, 0.0, 0.0, 0.0, 0.0, 0.0, 0.0, 0.0, 0.0, 0.0, 0.0, 0.0, 0.0, 0.0, 0.0, 0.0, 0.0, 0.0, 0.0]}, "parameters/attention_0.lin_l.weight": {"_type": "histogram", "values": [7.0, 5.0, 9.0, 9.0, 9.0, 9.0, 9.0, 5.0, 5.0, 5.0, 8.0, 6.0, 9.0, 10.0, 11.0, 2.0, 6.0, 8.0, 11.0, 8.0, 11.0, 11.0, 3.0, 9.0, 5.0, 9.0, 4.0, 10.0, 9.0, 11.0, 6.0, 7.0, 6.0, 10.0, 8.0, 3.0, 8.0, 10.0, 10.0, 8.0, 9.0, 3.0, 11.0, 7.0, 5.0, 10.0, 5.0, 6.0, 5.0, 6.0, 6.0, 7.0, 12.0, 5.0, 9.0, 9.0, 10.0, 6.0, 12.0, 8.0, 4.0, 2.0, 5.0, 9.0], "bins": [-0.3337079584598541, -0.32318708300590515, -0.31266623735427856, -0.3021453619003296, -0.2916244864463806, -0.28110364079475403, -0.27058276534080505, -0.26006191968917847, -0.2495410442352295, -0.2390201836824417, -0.22849932312965393, -0.21797844767570496, -0.20745758712291718, -0.1969367265701294, -0.18641585111618042, -0.17589499056339264, -0.16537413001060486, -0.15485326945781708, -0.1443324089050293, -0.13381153345108032, -0.12329067289829254, -0.11276981234550476, -0.10224894434213638, -0.091728076338768, -0.08120721578598022, -0.07068635523319244, -0.060165487229824066, -0.04964462295174599, -0.03912375867366791, -0.02860289439558983, -0.01808203011751175, -0.007561162114143372, 0.0029596686363220215, 0.0134805329144001, 0.02400139719247818, 0.03452226147055626, 0.04504312574863434, 0.05556399002671242, 0.0660848543047905, 0.07660572230815887, 0.08712658286094666, 0.09764744341373444, 0.10816831141710281, 0.11868917942047119, 0.12921003997325897, 0.13973090052604675, 0.15025177597999573, 0.1607726365327835, 0.1712934970855713, 0.18181435763835907, 0.19233521819114685, 0.20285609364509583, 0.2133769541978836, 0.2238978147506714, 0.23441869020462036, 0.24493955075740814, 0.2554604113101959, 0.2659812867641449, 0.2765021324157715, 0.28702300786972046, 0.29754388332366943, 0.308064728975296, 0.318585604429245, 0.3291064500808716, 0.33962732553482056]}, "parameters/attention_1.att_l": {"_type": "histogram", "values": [2.0, 0.0, 2.0, 1.0, 2.0, 0.0, 1.0, 0.0, 1.0, 0.0, 0.0, 1.0, 1.0, 0.0, 1.0, 1.0, 0.0, 0.0, 0.0, 1.0, 0.0, 2.0, 2.0, 1.0, 1.0, 0.0, 0.0, 1.0, 1.0, 1.0, 2.0, 0.0, 0.0, 0.0, 0.0, 0.0, 0.0, 1.0, 2.0, 0.0, 1.0, 0.0, 0.0, 0.0, 2.0, 0.0, 1.0, 0.0, 1.0, 0.0, 1.0, 1.0, 1.0, 0.0, 0.0, 0.0, 0.0, 0.0, 0.0, 1.0, 0.0, 2.0, 0.0, 1.0], "bins": [-0.6223862171173096, -0.6033651232719421, -0.5843440294265747, -0.5653228759765625, -0.5463017821311951, -0.5272806882858276, -0.5082595944404602, -0.4892385005950928, -0.47021740674972534, -0.4511963129043579, -0.4321751892566681, -0.41315409541130066, -0.3941330015659332, -0.3751118779182434, -0.356090784072876, -0.33706969022750854, -0.3180485665798187, -0.2990274727344513, -0.2800063490867615, -0.26098525524139404, -0.2419641613960266, -0.22294305264949799, -0.20392194390296936, -0.18490085005760193, -0.1658797413110733, -0.14685863256454468, -0.12783753871917725, -0.10881642997264862, -0.08979532867670059, -0.07077422738075256, -0.05175311863422394, -0.032732024788856506, -0.01371091604232788, 0.005310187116265297, 0.024331290274858475, 0.0433523952960968, 0.06237349659204483, 0.08139459788799286, 0.10041570663452148, 0.11943680047988892, 0.13845790922641754, 0.15747901797294617, 0.1765001118183136, 0.19552122056484222, 0.21454232931137085, 0.23356342315673828, 0.2525845170021057, 0.27160561084747314, 0.29062673449516296, 0.3096478283405304, 0.3286689519882202, 0.34769004583358765, 0.3667111396789551, 0.3857322335243225, 0.40475335717201233, 0.42377445101737976, 0.4427955746650696, 0.461816668510437, 0.48083779215812683, 0.49985888600349426, 0.5188800096511841, 0.5379011034965515, 0.556922197341919, 0.5759432911872864, 0.5949643850326538]}, "parameters/attention_1.att_r": {"_type": "histogram", "values": [1.0, 0.0, 0.0, 0.0, 1.0, 1.0, 1.0, 0.0, 0.0, 0.0, 0.0, 0.0, 1.0, 0.0, 0.0, 0.0, 0.0, 2.0, 2.0, 0.0, 1.0, 1.0, 1.0, 0.0, 1.0, 0.0, 1.0, 2.0, 1.0, 0.0, 0.0, 1.0, 0.0, 1.0, 0.0, 2.0, 2.0, 1.0, 0.0, 1.0, 0.0, 1.0, 1.0, 1.0, 1.0, 2.0, 1.0, 0.0, 2.0, 0.0, 0.0, 1.0, 1.0, 0.0, 0.0, 0.0, 0.0, 0.0, 1.0, 0.0, 2.0, 0.0, 0.0, 1.0], "bins": [-0.6517228484153748, -0.6315702199935913, -0.6114175915718079, -0.5912649631500244, -0.571112334728241, -0.5509597063064575, -0.5308070778846741, -0.5106544494628906, -0.4905018210411072, -0.47034919261932373, -0.4501965641975403, -0.43004393577575684, -0.4098913073539734, -0.38973867893218994, -0.3695860505104065, -0.34943342208862305, -0.3292807638645172, -0.30912813544273376, -0.2889755070209503, -0.26882287859916687, -0.24867025017738342, -0.22851762175559998, -0.20836497843265533, -0.1882123500108719, -0.16805972158908844, -0.147907093167305, -0.12775446474552155, -0.1076018288731575, -0.08744920045137405, -0.0672965720295906, -0.04714393615722656, -0.026991307735443115, -0.006838679313659668, 0.013313950970768929, 0.033466581255197525, 0.05361921340227127, 0.07377184182405472, 0.09392447024583817, 0.11407710611820221, 0.13422973453998566, 0.1543823629617691, 0.17453499138355255, 0.194687619805336, 0.21484026312828064, 0.2349928915500641, 0.25514551997184753, 0.275298148393631, 0.29545077681541443, 0.3156034052371979, 0.3357560336589813, 0.35590866208076477, 0.3760612905025482, 0.39621391892433167, 0.4163665473461151, 0.43651920557022095, 0.4566718339920044, 0.47682446241378784, 0.4969770908355713, 0.5171297192573547, 0.5372823476791382, 0.5574349761009216, 0.5775876045227051, 0.5977402329444885, 0.617892861366272, 0.6380454897880554]}, "parameters/attention_1.bias": {"_type": "histogram", "values": [0.0, 0.0, 0.0, 0.0, 0.0, 0.0, 0.0, 0.0, 0.0, 0.0, 0.0, 0.0, 0.0, 0.0, 0.0, 0.0, 0.0, 0.0, 0.0, 0.0, 0.0, 0.0, 0.0, 0.0, 0.0, 0.0, 0.0, 0.0, 0.0, 0.0, 0.0, 0.0, 40.0, 0.0, 0.0, 0.0, 0.0, 0.0, 0.0, 0.0, 0.0, 0.0, 0.0, 0.0, 0.0, 0.0, 0.0, 0.0, 0.0, 0.0, 0.0, 0.0, 0.0, 0.0, 0.0, 0.0, 0.0, 0.0, 0.0, 0.0, 0.0, 0.0, 0.0, 0.0], "bins": [0.0, 0.0, 0.0, 0.0, 0.0, 0.0, 0.0, 0.0, 0.0, 0.0, 0.0, 0.0, 0.0, 0.0, 0.0, 0.0, 0.0, 0.0, 0.0, 0.0, 0.0, 0.0, 0.0, 0.0, 0.0, 0.0, 0.0, 0.0, 0.0, 0.0, 0.0, 0.0, 0.0, 0.0, 0.0, 0.0, 0.0, 0.0, 0.0, 0.0, 0.0, 0.0, 0.0, 0.0, 0.0, 0.0, 0.0, 0.0, 0.0, 0.0, 0.0, 0.0, 0.0, 0.0, 0.0, 0.0, 0.0, 0.0, 0.0, 0.0, 0.0, 0.0, 0.0, 0.0, 0.0]}, "parameters/attention_1.lin_l.weight": {"_type": "histogram", "values": [27.0, 20.0, 31.0, 30.0, 24.0, 30.0, 24.0, 28.0, 31.0, 25.0, 25.0, 26.0, 24.0, 29.0, 26.0, 26.0, 27.0, 22.0, 36.0, 26.0, 27.0, 28.0, 17.0, 20.0, 31.0, 26.0, 24.0, 31.0, 20.0, 24.0, 26.0, 22.0, 20.0, 24.0, 17.0, 24.0, 20.0, 23.0, 29.0, 33.0, 16.0, 25.0, 28.0, 28.0, 22.0, 24.0, 22.0, 27.0, 34.0, 22.0, 22.0, 24.0, 25.0, 23.0, 27.0, 26.0, 16.0, 26.0, 27.0, 31.0, 20.0, 20.0, 21.0, 21.0], "bins": [-0.27384939789772034, -0.26530665159225464, -0.25676387548446655, -0.24822112917900085, -0.23967836797237396, -0.23113560676574707, -0.22259286046028137, -0.21405009925365448, -0.2055073380470276, -0.1969645768404007, -0.1884218156337738, -0.1798790693283081, -0.1713363081216812, -0.16279354691505432, -0.15425080060958862, -0.14570803940296173, -0.13716527819633484, -0.12862251698970795, -0.12007976323366165, -0.11153700947761536, -0.10299424827098846, -0.09445148706436157, -0.08590873330831528, -0.07736597955226898, -0.06882321834564209, -0.060280460864305496, -0.0517377033829689, -0.04319494590163231, -0.034652188420295715, -0.02610943093895912, -0.017566673457622528, -0.009023915976285934, -0.0004811286926269531, 0.00806162878870964, 0.016604386270046234, 0.025147143751382828, 0.03368990123271942, 0.042232658714056015, 0.05077541619539261, 0.0593181736767292, 0.0678609311580658, 0.07640369236469269, 0.08494644612073898, 0.09348919987678528, 0.10203196108341217, 0.11057472229003906, 0.11911747604608536, 0.12766022980213165, 0.13620299100875854, 0.14474575221538544, 0.15328851342201233, 0.16183125972747803, 0.17037402093410492, 0.1789167821407318, 0.1874595284461975, 0.1960022896528244, 0.2045450508594513, 0.21308781206607819, 0.22163057327270508, 0.23017331957817078, 0.23871608078479767, 0.24725884199142456, 0.25580158829689026, 0.26434436440467834, 0.27288711071014404]}, "parameters/attention_2.att_l": {"_type": "histogram", "values": [3.0, 2.0, 0.0, 0.0, 0.0, 2.0, 4.0, 0.0, 0.0, 1.0, 0.0, 0.0, 0.0, 1.0, 0.0, 0.0, 2.0, 0.0, 1.0, 1.0, 1.0, 1.0, 0.0, 1.0, 0.0, 0.0, 0.0, 0.0, 0.0, 0.0, 0.0, 2.0, 0.0, 0.0, 1.0, 2.0, 0.0, 0.0, 2.0, 1.0, 0.0, 1.0, 0.0, 0.0, 2.0, 1.0, 0.0, 1.0, 0.0, 0.0, 0.0, 1.0, 0.0, 1.0, 1.0, 0.0, 0.0, 0.0, 1.0, 1.0, 0.0, 1.0, 0.0, 1.0], "bins": [-0.6136258840560913, -0.5941889882087708, -0.5747520923614502, -0.5553152561187744, -0.5358783602714539, -0.5164414644241333, -0.49700456857681274, -0.4775676727294922, -0.458130806684494, -0.43869391083717346, -0.4192570447921753, -0.39982014894485474, -0.3803832530975342, -0.360946387052536, -0.34150949120521545, -0.3220726251602173, -0.30263572931289673, -0.28319883346557617, -0.263761967420578, -0.24432507157325745, -0.22488819062709808, -0.20545130968093872, -0.18601441383361816, -0.1665775328874588, -0.14714065194129944, -0.12770377099514008, -0.10826688259840012, -0.08882999420166016, -0.0693931132555008, -0.04995623230934143, -0.03051934391260147, -0.011082455515861511, 0.008354365825653076, 0.027791250497102737, 0.0472281351685524, 0.06666502356529236, 0.08610190451145172, 0.10553878545761108, 0.12497567385435104, 0.144412562251091, 0.16384944319725037, 0.18328632414340973, 0.2027232050895691, 0.22216010093688965, 0.241596981883049, 0.2610338628292084, 0.28047075867652893, 0.2999076247215271, 0.31934452056884766, 0.3387814164161682, 0.3582182824611664, 0.37765517830848694, 0.3970920443534851, 0.41652894020080566, 0.4359658360481262, 0.4554027318954468, 0.47483959794044495, 0.4942764937877655, 0.5137133598327637, 0.5331502556800842, 0.5525871515274048, 0.5720239877700806, 0.5914608836174011, 0.6108977794647217, 0.6303346753120422]}, "parameters/attention_2.att_r": {"_type": "histogram", "values": [1.0, 0.0, 0.0, 2.0, 0.0, 1.0, 0.0, 0.0, 2.0, 0.0, 1.0, 0.0, 0.0, 0.0, 1.0, 0.0, 1.0, 0.0, 0.0, 0.0, 2.0, 0.0, 1.0, 1.0, 1.0, 0.0, 0.0, 0.0, 0.0, 2.0, 0.0, 0.0, 2.0, 1.0, 0.0, 0.0, 0.0, 0.0, 1.0, 1.0, 0.0, 0.0, 1.0, 0.0, 1.0, 1.0, 1.0, 2.0, 1.0, 1.0, 0.0, 1.0, 0.0, 0.0, 0.0, 0.0, 2.0, 0.0, 1.0, 1.0, 2.0, 1.0, 1.0, 2.0], "bins": [-0.6294907927513123, -0.6103184223175049, -0.5911460518836975, -0.5719737410545349, -0.5528013706207275, -0.5336290001869202, -0.5144566297531128, -0.4952842891216278, -0.4761119484901428, -0.45693957805633545, -0.43776723742485046, -0.4185948669910431, -0.3994225263595581, -0.38025015592575073, -0.36107778549194336, -0.3419054448604584, -0.322733074426651, -0.30356070399284363, -0.28438836336135864, -0.26521599292755127, -0.24604365229606628, -0.2268712818622589, -0.20769892632961273, -0.18852657079696655, -0.16935421526432037, -0.1501818597316742, -0.13100950419902802, -0.11183714121580124, -0.09266478568315506, -0.07349243015050888, -0.054320067167282104, -0.035147711634635925, -0.015975356101989746, 0.0031970012933015823, 0.02236935868859291, 0.04154171794652939, 0.06071407347917557, 0.07988642901182175, 0.09905879199504852, 0.1182311475276947, 0.13740350306034088, 0.15657585859298706, 0.17574821412563324, 0.19492056965827942, 0.2140929400920868, 0.23326528072357178, 0.25243765115737915, 0.2716100215911865, 0.2907823622226715, 0.3099547326564789, 0.32912707328796387, 0.34829944372177124, 0.3674717843532562, 0.3866441547870636, 0.4058164954185486, 0.42498886585235596, 0.44416123628616333, 0.4633336067199707, 0.4825059473514557, 0.5016782879829407, 0.520850658416748, 0.5400230288505554, 0.5591953992843628, 0.5783677101135254, 0.5975400805473328]}, "parameters/attention_2.bias": {"_type": "histogram", "values": [0.0, 0.0, 0.0, 0.0, 0.0, 0.0, 0.0, 0.0, 0.0, 0.0, 0.0, 0.0, 0.0, 0.0, 0.0, 0.0, 0.0, 0.0, 0.0, 0.0, 0.0, 0.0, 0.0, 0.0, 0.0, 0.0, 0.0, 0.0, 0.0, 0.0, 0.0, 0.0, 40.0, 0.0, 0.0, 0.0, 0.0, 0.0, 0.0, 0.0, 0.0, 0.0, 0.0, 0.0, 0.0, 0.0, 0.0, 0.0, 0.0, 0.0, 0.0, 0.0, 0.0, 0.0, 0.0, 0.0, 0.0, 0.0, 0.0, 0.0, 0.0, 0.0, 0.0, 0.0], "bins": [0.0, 0.0, 0.0, 0.0, 0.0, 0.0, 0.0, 0.0, 0.0, 0.0, 0.0, 0.0, 0.0, 0.0, 0.0, 0.0, 0.0, 0.0, 0.0, 0.0, 0.0, 0.0, 0.0, 0.0, 0.0, 0.0, 0.0, 0.0, 0.0, 0.0, 0.0, 0.0, 0.0, 0.0, 0.0, 0.0, 0.0, 0.0, 0.0, 0.0, 0.0, 0.0, 0.0, 0.0, 0.0, 0.0, 0.0, 0.0, 0.0, 0.0, 0.0, 0.0, 0.0, 0.0, 0.0, 0.0, 0.0, 0.0, 0.0, 0.0, 0.0, 0.0, 0.0, 0.0, 0.0]}, "parameters/attention_2.lin_l.weight": {"_type": "histogram", "values": [26.0, 29.0, 28.0, 36.0, 10.0, 19.0, 24.0, 28.0, 33.0, 34.0, 32.0, 26.0, 20.0, 24.0, 22.0, 28.0, 16.0, 28.0, 25.0, 26.0, 23.0, 29.0, 32.0, 20.0, 23.0, 25.0, 20.0, 43.0, 21.0, 18.0, 23.0, 23.0, 23.0, 25.0, 29.0, 25.0, 21.0, 25.0, 26.0, 24.0, 24.0, 25.0, 31.0, 26.0, 17.0, 20.0, 22.0, 22.0, 20.0, 29.0, 27.0, 33.0, 27.0, 21.0, 18.0, 23.0, 18.0, 30.0, 20.0, 33.0, 28.0, 32.0, 17.0, 25.0], "bins": [-0.2738249599933624, -0.2652747929096222, -0.25672462582588196, -0.24817444384098053, -0.2396242767572403, -0.23107410967350006, -0.22252392768859863, -0.2139737606048584, -0.20542359352111816, -0.19687342643737793, -0.1883232593536377, -0.17977307736873627, -0.17122291028499603, -0.1626727432012558, -0.15412256121635437, -0.14557239413261414, -0.1370222270488739, -0.12847205996513367, -0.11992188543081284, -0.111371710896492, -0.10282154381275177, -0.09427137672901154, -0.0857212021946907, -0.07717102766036987, -0.06862086057662964, -0.060070689767599106, -0.05152051895856857, -0.04297034814953804, -0.03442017734050751, -0.025870006531476974, -0.01731983572244644, -0.008769664913415909, -0.00021952390670776367, 0.00833064690232277, 0.016880817711353302, 0.025430988520383835, 0.03398115932941437, 0.0425313301384449, 0.05108150094747543, 0.059631671756505966, 0.0681818425655365, 0.07673200964927673, 0.08528218418359756, 0.0938323587179184, 0.10238252580165863, 0.11093269288539886, 0.1194828674197197, 0.12803304195404053, 0.13658320903778076, 0.145133376121521, 0.15368354320526123, 0.16223372519016266, 0.1707838922739029, 0.17933405935764313, 0.18788424134254456, 0.1964344084262848, 0.20498457551002502, 0.21353474259376526, 0.2220849096775055, 0.23063509166240692, 0.23918525874614716, 0.2477354258298874, 0.2562856078147888, 0.26483577489852905, 0.2733859419822693]}, "parameters/out_att.att_l": {"_type": "histogram", "values": [0.0, 0.0, 0.0, 0.0, 0.0, 0.0, 0.0, 0.0, 0.0, 0.0, 0.0, 0.0, 0.0, 0.0, 0.0, 0.0, 0.0, 0.0, 0.0, 0.0, 0.0, 0.0, 0.0, 0.0, 0.0, 0.0, 0.0, 0.0, 0.0, 0.0, 0.0, 1.0, 0.0, 0.0, 0.0, 0.0, 0.0, 0.0, 0.0, 0.0, 0.0, 0.0, 0.0, 0.0, 0.0, 0.0, 0.0, 0.0, 0.0, 0.0, 0.0, 0.0, 0.0, 0.0, 0.0, 0.0, 0.0, 0.0, 0.0, 0.0, 0.0, 0.0, 0.0, 0.0], "bins": [-0.0827060341835022, -0.0827060341835022, -0.0827060341835022, -0.0827060341835022, -0.0827060341835022, -0.0827060341835022, -0.0827060341835022, -0.0827060341835022, -0.0827060341835022, -0.0827060341835022, -0.0827060341835022, -0.0827060341835022, -0.0827060341835022, -0.0827060341835022, -0.0827060341835022, -0.0827060341835022, -0.0827060341835022, -0.0827060341835022, -0.0827060341835022, -0.0827060341835022, -0.0827060341835022, -0.0827060341835022, -0.0827060341835022, -0.0827060341835022, -0.0827060341835022, -0.0827060341835022, -0.0827060341835022, -0.0827060341835022, -0.0827060341835022, -0.0827060341835022, -0.0827060341835022, -0.0827060341835022, -0.0827060341835022, -0.0827060341835022, -0.0827060341835022, -0.0827060341835022, -0.0827060341835022, -0.0827060341835022, -0.0827060341835022, -0.0827060341835022, -0.0827060341835022, -0.0827060341835022, -0.0827060341835022, -0.0827060341835022, -0.0827060341835022, -0.0827060341835022, -0.0827060341835022, -0.0827060341835022, -0.0827060341835022, -0.0827060341835022, -0.0827060341835022, -0.0827060341835022, -0.0827060341835022, -0.0827060341835022, -0.0827060341835022, -0.0827060341835022, -0.0827060341835022, -0.0827060341835022, -0.0827060341835022, -0.0827060341835022, -0.0827060341835022, -0.0827060341835022, -0.0827060341835022, -0.0827060341835022, -0.0827060341835022]}, "parameters/out_att.att_r": {"_type": "histogram", "values": [0.0, 0.0, 0.0, 0.0, 0.0, 0.0, 0.0, 0.0, 0.0, 0.0, 0.0, 0.0, 0.0, 0.0, 0.0, 0.0, 0.0, 0.0, 0.0, 0.0, 0.0, 0.0, 0.0, 0.0, 0.0, 0.0, 0.0, 0.0, 0.0, 0.0, 0.0, 0.0, 1.0, 0.0, 0.0, 0.0, 0.0, 0.0, 0.0, 0.0, 0.0, 0.0, 0.0, 0.0, 0.0, 0.0, 0.0, 0.0, 0.0, 0.0, 0.0, 0.0, 0.0, 0.0, 0.0, 0.0, 0.0, 0.0, 0.0, 0.0, 0.0, 0.0, 0.0, 0.0], "bins": [-0.16839586198329926, -0.16839586198329926, -0.16839586198329926, -0.16839586198329926, -0.16839586198329926, -0.16839586198329926, -0.16839586198329926, -0.16839586198329926, -0.16839586198329926, -0.16839586198329926, -0.16839586198329926, -0.16839586198329926, -0.16839586198329926, -0.16839586198329926, -0.16839586198329926, -0.16839586198329926, -0.16839586198329926, -0.16839586198329926, -0.16839586198329926, -0.16839586198329926, -0.16839586198329926, -0.16839586198329926, -0.16839586198329926, -0.16839586198329926, -0.16839586198329926, -0.16839586198329926, -0.16839586198329926, -0.16839586198329926, -0.16839586198329926, -0.16839586198329926, -0.16839586198329926, -0.16839586198329926, -0.16839586198329926, -0.16839586198329926, -0.16839586198329926, -0.16839586198329926, -0.16839586198329926, -0.16839586198329926, -0.16839586198329926, -0.16839586198329926, -0.16839586198329926, -0.16839586198329926, -0.16839586198329926, -0.16839586198329926, -0.16839586198329926, -0.16839586198329926, -0.16839586198329926, -0.16839586198329926, -0.16839586198329926, -0.16839586198329926, -0.16839586198329926, -0.16839586198329926, -0.16839586198329926, -0.16839586198329926, -0.16839586198329926, -0.16839586198329926, -0.16839586198329926, -0.16839586198329926, -0.16839586198329926, -0.16839586198329926, -0.16839586198329926, -0.16839586198329926, -0.16839586198329926, -0.16839586198329926, -0.16839586198329926]}, "parameters/out_att.bias": {"_type": "histogram", "values": [0.0, 0.0, 0.0, 0.0, 0.0, 0.0, 0.0, 0.0, 0.0, 0.0, 0.0, 0.0, 0.0, 0.0, 0.0, 0.0, 0.0, 0.0, 0.0, 0.0, 0.0, 0.0, 0.0, 0.0, 0.0, 0.0, 0.0, 0.0, 0.0, 0.0, 0.0, 0.0, 1.0, 0.0, 0.0, 0.0, 0.0, 0.0, 0.0, 0.0, 0.0, 0.0, 0.0, 0.0, 0.0, 0.0, 0.0, 0.0, 0.0, 0.0, 0.0, 0.0, 0.0, 0.0, 0.0, 0.0, 0.0, 0.0, 0.0, 0.0, 0.0, 0.0, 0.0, 0.0], "bins": [0.0, 0.0, 0.0, 0.0, 0.0, 0.0, 0.0, 0.0, 0.0, 0.0, 0.0, 0.0, 0.0, 0.0, 0.0, 0.0, 0.0, 0.0, 0.0, 0.0, 0.0, 0.0, 0.0, 0.0, 0.0, 0.0, 0.0, 0.0, 0.0, 0.0, 0.0, 0.0, 0.0, 0.0, 0.0, 0.0, 0.0, 0.0, 0.0, 0.0, 0.0, 0.0, 0.0, 0.0, 0.0, 0.0, 0.0, 0.0, 0.0, 0.0, 0.0, 0.0, 0.0, 0.0, 0.0, 0.0, 0.0, 0.0, 0.0, 0.0, 0.0, 0.0, 0.0, 0.0, 0.0]}, "parameters/out_att.lin_l.weight": {"_type": "histogram", "values": [1.0, 0.0, 0.0, 1.0, 1.0, 0.0, 0.0, 1.0, 0.0, 2.0, 1.0, 0.0, 0.0, 0.0, 1.0, 0.0, 1.0, 1.0, 2.0, 0.0, 1.0, 0.0, 0.0, 1.0, 0.0, 1.0, 2.0, 0.0, 0.0, 1.0, 0.0, 1.0, 0.0, 2.0, 0.0, 1.0, 0.0, 0.0, 0.0, 1.0, 1.0, 0.0, 0.0, 0.0, 2.0, 1.0, 0.0, 0.0, 1.0, 1.0, 0.0, 3.0, 1.0, 2.0, 0.0, 0.0, 2.0, 0.0, 1.0, 0.0, 0.0, 0.0, 1.0, 1.0], "bins": [-0.3754708170890808, -0.36376985907554626, -0.3520689308643341, -0.34036797285079956, -0.3286670446395874, -0.31696608662605286, -0.3052651286125183, -0.29356420040130615, -0.281863272190094, -0.27016231417655945, -0.2584613859653473, -0.24676042795181274, -0.23505949974060059, -0.22335854172706604, -0.2116575986146927, -0.19995665550231934, -0.1882556974887848, -0.17655475437641144, -0.16485381126403809, -0.15315285325050354, -0.14145192503929138, -0.12975096702575684, -0.11805002391338348, -0.10634908080101013, -0.09464813768863678, -0.08294719457626343, -0.07124625146389008, -0.05954530090093613, -0.047844357788562775, -0.03614341467618942, -0.024442464113235474, -0.012741521000862122, -0.0010405480861663818, 0.01066039688885212, 0.02236134186387062, 0.03406228870153427, 0.04576323181390762, 0.057464174926280975, 0.06916512548923492, 0.08086606860160828, 0.09256701171398163, 0.10426795482635498, 0.11596889793872833, 0.12766984105110168, 0.13937079906463623, 0.1510717272758484, 0.16277268528938293, 0.1744736284017563, 0.18617457151412964, 0.197875514626503, 0.20957645773887634, 0.2212774157524109, 0.23297834396362305, 0.2446793019771576, 0.25638025999069214, 0.2680811882019043, 0.27978211641311646, 0.291483074426651, 0.30318400263786316, 0.3148849606513977, 0.32658588886260986, 0.3382868468761444, 0.34998780488967896, 0.3616887331008911, 0.37338969111442566]}, "_runtime": 657, "_timestamp": 1641394180, "_step": 9, "Learning rate value": 0.006399999999999997, "Learning rate action": 0.006399999999999997, "epsilon": 0.9135172474836407, "action_probs": {"_type": "histogram", "values": [2, 0, 0, 0, 0, 0, 0, 2, 2, 2, 2, 4, 0, 0, 0, 0, 2, 0, 0, 0, 0, 0, 0, 0, 0, 0, 0, 0, 0, 0, 0, 0, 0, 0, 0, 0, 0, 0, 0, 0, 0, 0, 0, 0, 0, 0, 0, 0, 0, 2, 0, 2, 6, 4, 2, 0, 0, 0, 2, 4, 0, 4, 2, 2], "bins": [0.3980198800563812, 0.40120556950569153, 0.40439125895500183, 0.4075769782066345, 0.4107626676559448, 0.4139483571052551, 0.41713404655456543, 0.42031973600387573, 0.42350542545318604, 0.4266911447048187, 0.42987683415412903, 0.43306252360343933, 0.43624821305274963, 0.43943390250205994, 0.44261959195137024, 0.44580531120300293, 0.44899100065231323, 0.45217669010162354, 0.45536237955093384, 0.45854806900024414, 0.46173375844955444, 0.46491947770118713, 0.46810516715049744, 0.47129085659980774, 0.47447654604911804, 0.47766223549842834, 0.48084792494773865, 0.48403364419937134, 0.48721933364868164, 0.49040502309799194, 0.49359071254730225, 0.49677640199661255, 0.49996209144592285, 0.5031477808952332, 0.5063334703445435, 0.5095192193984985, 0.5127049088478088, 0.5158905982971191, 0.5190762877464294, 0.5222619771957397, 0.52544766664505, 0.5286333560943604, 0.5318190455436707, 0.535004734992981, 0.5381904244422913, 0.5413761138916016, 0.5445618033409119, 0.5477475523948669, 0.5509332418441772, 0.5541189312934875, 0.5573046207427979, 0.5604903101921082, 0.5636759996414185, 0.5668616890907288, 0.5700473785400391, 0.5732330679893494, 0.5764187574386597, 0.57960444688797, 0.5827901363372803, 0.5859758853912354, 0.5891615748405457, 0.592347264289856, 0.5955329537391663, 0.5987186431884766, 0.6019043326377869]}, "stop_go_action": {"_type": "histogram", "values": [30, 0, 0, 0, 0, 0, 0, 0, 0, 0, 0, 0, 0, 0, 0, 0, 0, 0, 0, 0, 0, 0, 0, 0, 0, 0, 0, 0, 0, 0, 0, 0, 0, 0, 0, 0, 0, 0, 0, 0, 0, 0, 0, 0, 0, 0, 0, 0, 0, 0, 0, 0, 0, 0, 0, 0, 0, 0, 0, 0, 0, 0, 0, 16], "bins": [0.0, 0.015625, 0.03125, 0.046875, 0.0625, 0.078125, 0.09375, 0.109375, 0.125, 0.140625, 0.15625, 0.171875, 0.1875, 0.203125, 0.21875, 0.234375, 0.25, 0.265625, 0.28125, 0.296875, 0.3125, 0.328125, 0.34375, 0.359375, 0.375, 0.390625, 0.40625, 0.421875, 0.4375, 0.453125, 0.46875, 0.484375, 0.5, 0.515625, 0.53125, 0.546875, 0.5625, 0.578125, 0.59375, 0.609375, 0.625, 0.640625, 0.65625, 0.671875, 0.6875, 0.703125, 0.71875, 0.734375, 0.75, 0.765625, 0.78125, 0.796875, 0.8125, 0.828125, 0.84375, 0.859375, 0.875, 0.890625, 0.90625, 0.921875, 0.9375, 0.953125, 0.96875, 0.984375, 1.0]}, "node_values": {"_type": "histogram", "values": [1, 0, 0, 0, 0, 0, 0, 2, 0, 0, 0, 0, 0, 0, 2, 0, 0, 0, 0, 1, 1, 3, 0, 0, 0, 2, 0, 0, 1, 2, 0, 0, 0, 0, 1, 0, 0, 1, 1, 0, 0, 0, 4, 0, 0, 0, 0, 0, 0, 0, 0, 0, 0, 0, 0, 0, 0, 0, 0, 0, 0, 0, 0, 1], "bins": [1.3023935556411743, 1.3397071901708841, 1.377020824700594, 1.4143344592303038, 1.4516480937600136, 1.4889617282897234, 1.5262753628194332, 1.563588997349143, 1.6009026318788528, 1.6382162664085627, 1.6755299009382725, 1.7128435354679823, 1.750157169997692, 1.787470804527402, 1.8247844390571117, 1.8620980735868216, 1.8994117081165314, 1.9367253426462412, 1.974038977175951, 2.011352611705661, 2.0486662462353706, 2.0859798807650805, 2.1232935152947903, 2.1606071498245, 2.19792078435421, 2.2352344188839197, 2.2725480534136295, 2.3098616879433393, 2.347175322473049, 2.384488957002759, 2.421802591532469, 2.4591162260621786, 2.4964298605918884, 2.5337434951215982, 2.571057129651308, 2.608370764181018, 2.6456843987107277, 2.6829980332404375, 2.7203116677701473, 2.757625302299857, 2.794938936829567, 2.8322525713592768, 2.8695662058889866, 2.9068798404186964, 2.944193474948406, 2.981507109478116, 3.018820744007826, 3.0561343785375357, 3.0934480130672455, 3.1307616475969553, 3.168075282126665, 3.205388916656375, 3.2427025511860847, 3.2800161857157946, 3.3173298202455044, 3.354643454775214, 3.391957089304924, 3.429270723834634, 3.4665843583643436, 3.5038979928940535, 3.5412116274237633, 3.578525261953473, 3.615838896483183, 3.6531525310128927, 3.6904661655426025]}, "episode_rewards": {"_type": "histogram", "values": [8, 0, 0, 0, 0, 0, 0, 0, 0, 0, 0, 0, 0, 0, 0, 0, 0, 0, 0, 0, 0, 0, 0, 0, 0, 0, 0, 0, 0, 0, 0, 0, 0, 0, 0, 0, 0, 0, 0, 0, 2, 0, 0, 0, 0, 0, 8, 0, 0, 0, 0, 0, 0, 0, 0, 0, 0, 0, 4, 0, 0, 0, 0, 4], "bins": [-11.0, -10.828125, -10.65625, -10.484375, -10.3125, -10.140625, -9.96875, -9.796875, -9.625, -9.453125, -9.28125, -9.109375, -8.9375, -8.765625, -8.59375, -8.421875, -8.25, -8.078125, -7.90625, -7.734375, -7.5625, -7.390625, -7.21875, -7.046875, -6.875, -6.703125, -6.53125, -6.359375, -6.1875, -6.015625, -5.84375, -5.671875, -5.5, -5.328125, -5.15625, -4.984375, -4.8125, -4.640625, -4.46875, -4.296875, -4.125, -3.953125, -3.78125, -3.609375, -3.4375, -3.265625, -3.09375, -2.921875, -2.75, -2.578125, -2.40625, -2.234375, -2.0625, -1.890625, -1.71875, -1.546875, -1.375, -1.203125, -1.03125, -0.859375, -0.6875, -0.515625, -0.34375, -0.171875, 0.0]}, "_wandb": {"runtime": 656}}