{"parameters/attention_0.att_l": {"_type": "histogram", "values": [2.0, 0.0, 0.0, 0.0, 2.0, 1.0, 0.0, 0.0, 0.0, 1.0, 1.0, 1.0, 1.0, 0.0, 0.0, 0.0, 0.0, 0.0, 1.0, 1.0, 0.0, 0.0, 0.0, 0.0, 2.0, 2.0, 0.0, 2.0, 1.0, 0.0, 0.0, 2.0, 0.0, 1.0, 2.0, 1.0, 0.0, 0.0, 1.0, 0.0, 2.0, 1.0, 0.0, 0.0, 2.0, 0.0, 1.0, 0.0, 1.0, 0.0, 1.0, 0.0, 0.0, 1.0, 1.0, 1.0, 0.0, 0.0, 1.0, 0.0, 1.0, 1.0, 0.0, 1.0], "bins": [-0.6350886225700378, -0.6170861721038818, -0.5990837216377258, -0.581081211566925, -0.563078761100769, -0.545076310634613, -0.527073860168457, -0.5090713500976562, -0.49106889963150024, -0.47306644916534424, -0.45506396889686584, -0.43706151843070984, -0.41905903816223145, -0.40105658769607544, -0.38305413722991943, -0.36505165696144104, -0.34704920649528503, -0.32904675602912903, -0.31104427576065063, -0.29304182529449463, -0.27503934502601624, -0.25703689455986023, -0.23903442919254303, -0.22103196382522583, -0.20302949845790863, -0.18502703309059143, -0.16702456772327423, -0.14902210235595703, -0.13101965188980103, -0.11301717907190323, -0.09501472115516663, -0.07701225578784943, -0.05900979042053223, -0.04100732505321503, -0.023004863411188126, -0.005002401769161224, 0.013000063598155975, 0.031002528965473175, 0.04900498688220978, 0.06700745224952698, 0.08500991761684418, 0.10301238298416138, 0.12101484835147858, 0.13901731371879578, 0.15701976418495178, 0.17502224445343018, 0.19302469491958618, 0.21102716028690338, 0.22902962565422058, 0.24703209102153778, 0.265034556388855, 0.283037006855011, 0.3010394871234894, 0.3190419375896454, 0.3370444178581238, 0.3550468683242798, 0.3730493187904358, 0.3910517692565918, 0.4090542495250702, 0.4270566999912262, 0.4450591802597046, 0.4630616307258606, 0.4810640811920166, 0.499066561460495, 0.5170690417289734]}, "parameters/attention_0.att_r": {"_type": "histogram", "values": [1.0, 0.0, 2.0, 1.0, 1.0, 1.0, 1.0, 1.0, 2.0, 0.0, 0.0, 0.0, 1.0, 0.0, 1.0, 0.0, 0.0, 1.0, 1.0, 1.0, 0.0, 0.0, 1.0, 1.0, 0.0, 0.0, 0.0, 0.0, 1.0, 0.0, 0.0, 1.0, 0.0, 1.0, 0.0, 1.0, 0.0, 0.0, 0.0, 1.0, 0.0, 1.0, 0.0, 1.0, 0.0, 0.0, 0.0, 2.0, 2.0, 1.0, 0.0, 0.0, 0.0, 2.0, 0.0, 1.0, 1.0, 1.0, 0.0, 0.0, 0.0, 0.0, 4.0, 2.0], "bins": [-0.6454889178276062, -0.6255608201026917, -0.6056327223777771, -0.5857046246528625, -0.5657765865325928, -0.5458484888076782, -0.5259203910827637, -0.5059922933578491, -0.48606419563293457, -0.46613609790802, -0.44620800018310547, -0.4262799322605133, -0.40635183453559875, -0.3864237368106842, -0.36649566888809204, -0.3465675711631775, -0.32663947343826294, -0.3067113757133484, -0.28678327798843384, -0.2668552100658417, -0.24692711234092712, -0.22699901461601257, -0.20707093179225922, -0.18714284896850586, -0.1672147512435913, -0.14728665351867676, -0.1273585706949234, -0.10743048042058945, -0.0875023901462555, -0.06757429987192154, -0.047646209597587585, -0.02771812677383423, -0.007790088653564453, 0.0121380016207695, 0.032066091895103455, 0.05199418216943741, 0.07192227244377136, 0.09185036271810532, 0.11177845299243927, 0.13170653581619263, 0.15163463354110718, 0.17156273126602173, 0.19149081408977509, 0.21141889691352844, 0.231346994638443, 0.25127509236335754, 0.2712031602859497, 0.29113125801086426, 0.3110593557357788, 0.33098745346069336, 0.3509155511856079, 0.3708436191082001, 0.3907717168331146, 0.4106998145580292, 0.43062788248062134, 0.4505559802055359, 0.47048407793045044, 0.490412175655365, 0.5103402733802795, 0.5302683711051941, 0.5501964092254639, 0.5701245069503784, 0.590052604675293, 0.6099807024002075, 0.6299088001251221]}, "parameters/attention_0.bias": {"_type": "histogram", "values": [0.0, 0.0, 0.0, 0.0, 0.0, 0.0, 0.0, 0.0, 0.0, 0.0, 0.0, 0.0, 0.0, 0.0, 0.0, 0.0, 0.0, 0.0, 0.0, 0.0, 0.0, 0.0, 0.0, 0.0, 0.0, 0.0, 0.0, 0.0, 0.0, 0.0, 0.0, 0.0, 40.0, 0.0, 0.0, 0.0, 0.0, 0.0, 0.0, 0.0, 0.0, 0.0, 0.0, 0.0, 0.0, 0.0, 0.0, 0.0, 0.0, 0.0, 0.0, 0.0, 0.0, 0.0, 0.0, 0.0, 0.0, 0.0, 0.0, 0.0, 0.0, 0.0, 0.0, 0.0], "bins": [0.0, 0.0, 0.0, 0.0, 0.0, 0.0, 0.0, 0.0, 0.0, 0.0, 0.0, 0.0, 0.0, 0.0, 0.0, 0.0, 0.0, 0.0, 0.0, 0.0, 0.0, 0.0, 0.0, 0.0, 0.0, 0.0, 0.0, 0.0, 0.0, 0.0, 0.0, 0.0, 0.0, 0.0, 0.0, 0.0, 0.0, 0.0, 0.0, 0.0, 0.0, 0.0, 0.0, 0.0, 0.0, 0.0, 0.0, 0.0, 0.0, 0.0, 0.0, 0.0, 0.0, 0.0, 0.0, 0.0, 0.0, 0.0, 0.0, 0.0, 0.0, 0.0, 0.0, 0.0, 0.0]}, "parameters/attention_0.lin_l.weight": {"_type": "histogram", "values": [11.0, 12.0, 4.0, 7.0, 8.0, 2.0, 10.0, 7.0, 4.0, 9.0, 10.0, 3.0, 10.0, 7.0, 6.0, 2.0, 3.0, 11.0, 7.0, 3.0, 8.0, 6.0, 8.0, 10.0, 4.0, 6.0, 7.0, 12.0, 5.0, 10.0, 6.0, 8.0, 10.0, 10.0, 15.0, 8.0, 10.0, 3.0, 7.0, 11.0, 9.0, 6.0, 9.0, 5.0, 11.0, 7.0, 5.0, 7.0, 6.0, 8.0, 6.0, 8.0, 9.0, 10.0, 9.0, 5.0, 8.0, 7.0, 9.0, 6.0, 6.0, 8.0, 7.0, 9.0], "bins": [-0.338681161403656, -0.32811981439590454, -0.3175584673881531, -0.3069971203804016, -0.29643577337265015, -0.28587445616722107, -0.2753131091594696, -0.26475176215171814, -0.2541904151439667, -0.2436290681362152, -0.23306772112846375, -0.22250638902187347, -0.211945042014122, -0.20138369500637054, -0.19082236289978027, -0.1802610158920288, -0.16969966888427734, -0.15913832187652588, -0.14857697486877441, -0.13801564276218414, -0.12745429575443268, -0.11689294874668121, -0.10633160918951035, -0.09577026963233948, -0.08520892262458801, -0.07464757561683655, -0.06408623605966568, -0.053524892777204514, -0.04296354949474335, -0.03240220621228218, -0.021840862929821014, -0.011279523372650146, -0.0007182061672210693, 0.009843137115240097, 0.020404480397701263, 0.03096582368016243, 0.041527166962623596, 0.05208851024508476, 0.06264985352754593, 0.0732111930847168, 0.08377254009246826, 0.09433388710021973, 0.1048952266573906, 0.11545656621456146, 0.12601791322231293, 0.1365792602300644, 0.14714059233665466, 0.15770193934440613, 0.1682632863521576, 0.17882463335990906, 0.18938598036766052, 0.1999473124742508, 0.21050865948200226, 0.22107000648975372, 0.231631338596344, 0.24219268560409546, 0.2527540326118469, 0.2633153796195984, 0.27387672662734985, 0.2844380736351013, 0.2949994206428528, 0.30556073784828186, 0.3161220848560333, 0.3266834318637848, 0.33724477887153625]}, "parameters/attention_1.att_l": {"_type": "histogram", "values": [1.0, 1.0, 0.0, 2.0, 1.0, 1.0, 1.0, 2.0, 1.0, 0.0, 2.0, 0.0, 1.0, 0.0, 0.0, 0.0, 0.0, 0.0, 2.0, 2.0, 0.0, 0.0, 1.0, 0.0, 1.0, 0.0, 0.0, 2.0, 2.0, 0.0, 1.0, 0.0, 0.0, 0.0, 0.0, 0.0, 0.0, 0.0, 0.0, 0.0, 1.0, 0.0, 0.0, 0.0, 0.0, 1.0, 1.0, 0.0, 1.0, 0.0, 1.0, 0.0, 1.0, 1.0, 1.0, 0.0, 0.0, 1.0, 1.0, 0.0, 0.0, 0.0, 3.0, 3.0], "bins": [-0.6522930860519409, -0.6335585117340088, -0.6148238778114319, -0.5960893034934998, -0.5773546695709229, -0.5586200952529907, -0.5398854613304138, -0.5211508870124817, -0.5024162530899048, -0.48368164896965027, -0.46494704484939575, -0.44621244072914124, -0.4274778366088867, -0.4087432622909546, -0.3900086581707001, -0.37127405405044556, -0.3525394797325134, -0.3338048756122589, -0.3150702714920044, -0.2963356673717499, -0.27760106325149536, -0.25886648893356323, -0.24013188481330872, -0.2213972806930542, -0.20266267657279968, -0.18392807245254517, -0.16519346833229065, -0.14645887911319733, -0.1277242749929428, -0.1089896708726883, -0.09025507420301437, -0.07152047753334045, -0.05278593301773071, -0.034051332622766495, -0.015316732227802277, 0.0034178681671619415, 0.02215246856212616, 0.040887072682380676, 0.059621669352054596, 0.07835626602172852, 0.09709087014198303, 0.11582547426223755, 0.13456007838249207, 0.1532946676015854, 0.1720292717218399, 0.19076387584209442, 0.20949846506118774, 0.22823306918144226, 0.24696767330169678, 0.2657022774219513, 0.2844368815422058, 0.3031714856624603, 0.32190608978271484, 0.340640664100647, 0.3593752682209015, 0.378109872341156, 0.3968444764614105, 0.41557908058166504, 0.43431368470191956, 0.4530482888221741, 0.4717828631401062, 0.4905174970626831, 0.5092520713806152, 0.5279866456985474, 0.5467212796211243]}, "parameters/attention_1.att_r": {"_type": "histogram", "values": [1.0, 0.0, 0.0, 0.0, 1.0, 1.0, 0.0, 0.0, 0.0, 1.0, 1.0, 1.0, 0.0, 2.0, 1.0, 1.0, 0.0, 0.0, 0.0, 1.0, 0.0, 2.0, 1.0, 0.0, 1.0, 0.0, 0.0, 0.0, 0.0, 0.0, 1.0, 0.0, 0.0, 0.0, 0.0, 0.0, 0.0, 2.0, 0.0, 0.0, 0.0, 0.0, 1.0, 1.0, 3.0, 1.0, 0.0, 1.0, 2.0, 2.0, 1.0, 1.0, 0.0, 3.0, 2.0, 0.0, 0.0, 1.0, 1.0, 0.0, 0.0, 1.0, 0.0, 1.0], "bins": [-0.6405494213104248, -0.6207152605056763, -0.600881040096283, -0.5810468792915344, -0.5612127184867859, -0.5413784980773926, -0.521544337272644, -0.5017101764678955, -0.4818759858608246, -0.46204179525375366, -0.4422076344490051, -0.4223734438419342, -0.4025392532348633, -0.38270509243011475, -0.3628709018230438, -0.3430367112159729, -0.32320255041122437, -0.30336835980415344, -0.2835341989994049, -0.263700008392334, -0.24386583268642426, -0.22403165698051453, -0.2041974663734436, -0.18436329066753387, -0.16452911496162415, -0.14469493925571442, -0.12486075609922409, -0.10502657294273376, -0.08519239723682404, -0.0653582215309143, -0.04552403837442398, -0.025689855217933655, -0.005855739116668701, 0.013978440314531326, 0.033812619745731354, 0.05364679917693138, 0.07348097860813141, 0.09331515431404114, 0.11314933747053146, 0.1329835206270218, 0.15281769633293152, 0.17265187203884125, 0.19248604774475098, 0.2123202383518219, 0.23215441405773163, 0.25198858976364136, 0.2718227803707123, 0.2916569709777832, 0.31149113178253174, 0.33132532238960266, 0.3511594831943512, 0.3709936738014221, 0.39082783460617065, 0.4106620252132416, 0.4304962158203125, 0.45033037662506104, 0.47016456723213196, 0.4899987578392029, 0.5098329186439514, 0.5296670794487, 0.5495012998580933, 0.5693354606628418, 0.5891696214675903, 0.6090038418769836, 0.6288380026817322]}, "parameters/attention_1.bias": {"_type": "histogram", "values": [0.0, 0.0, 0.0, 0.0, 0.0, 0.0, 0.0, 0.0, 0.0, 0.0, 0.0, 0.0, 0.0, 0.0, 0.0, 0.0, 0.0, 0.0, 0.0, 0.0, 0.0, 0.0, 0.0, 0.0, 0.0, 0.0, 0.0, 0.0, 0.0, 0.0, 0.0, 0.0, 40.0, 0.0, 0.0, 0.0, 0.0, 0.0, 0.0, 0.0, 0.0, 0.0, 0.0, 0.0, 0.0, 0.0, 0.0, 0.0, 0.0, 0.0, 0.0, 0.0, 0.0, 0.0, 0.0, 0.0, 0.0, 0.0, 0.0, 0.0, 0.0, 0.0, 0.0, 0.0], "bins": [0.0, 0.0, 0.0, 0.0, 0.0, 0.0, 0.0, 0.0, 0.0, 0.0, 0.0, 0.0, 0.0, 0.0, 0.0, 0.0, 0.0, 0.0, 0.0, 0.0, 0.0, 0.0, 0.0, 0.0, 0.0, 0.0, 0.0, 0.0, 0.0, 0.0, 0.0, 0.0, 0.0, 0.0, 0.0, 0.0, 0.0, 0.0, 0.0, 0.0, 0.0, 0.0, 0.0, 0.0, 0.0, 0.0, 0.0, 0.0, 0.0, 0.0, 0.0, 0.0, 0.0, 0.0, 0.0, 0.0, 0.0, 0.0, 0.0, 0.0, 0.0, 0.0, 0.0, 0.0, 0.0]}, "parameters/attention_1.lin_l.weight": {"_type": "histogram", "values": [22.0, 32.0, 20.0, 22.0, 26.0, 20.0, 28.0, 26.0, 32.0, 15.0, 18.0, 30.0, 25.0, 28.0, 25.0, 23.0, 34.0, 26.0, 27.0, 29.0, 20.0, 28.0, 32.0, 27.0, 31.0, 25.0, 34.0, 23.0, 22.0, 26.0, 32.0, 23.0, 29.0, 19.0, 26.0, 21.0, 27.0, 29.0, 24.0, 19.0, 32.0, 29.0, 21.0, 20.0, 30.0, 18.0, 24.0, 17.0, 23.0, 27.0, 21.0, 25.0, 27.0, 18.0, 32.0, 24.0, 17.0, 27.0, 29.0, 18.0, 23.0, 22.0, 29.0, 22.0], "bins": [-0.2735767960548401, -0.2650247812271118, -0.25647276639938354, -0.24792075157165527, -0.239368736743927, -0.23081672191619873, -0.22226472198963165, -0.21371270716190338, -0.2051606923341751, -0.19660867750644684, -0.18805666267871857, -0.1795046478509903, -0.17095264792442322, -0.16240063309669495, -0.15384861826896667, -0.1452966034412384, -0.13674458861351013, -0.12819257378578186, -0.11964055895805359, -0.11108855158090591, -0.10253653675317764, -0.09398452192544937, -0.0854325145483017, -0.07688049972057343, -0.06832848489284515, -0.05977647006511688, -0.05122445896267891, -0.042672447860240936, -0.034120433032512665, -0.025568418204784393, -0.01701640710234642, -0.008464395999908447, 8.764863014221191e-05, 0.008639661595225334, 0.017191674560308456, 0.02574368752539158, 0.0342957004904747, 0.04284771531820297, 0.051399726420640945, 0.05995173752307892, 0.06850375235080719, 0.07705576717853546, 0.08560778200626373, 0.09415978938341141, 0.10271180421113968, 0.11126381903886795, 0.11981582641601562, 0.1283678412437439, 0.13691985607147217, 0.14547187089920044, 0.1540238857269287, 0.16257590055465698, 0.17112791538238525, 0.17967993021011353, 0.1882319301366806, 0.19678394496440887, 0.20533595979213715, 0.21388797461986542, 0.2224399894475937, 0.23099200427532196, 0.23954400420188904, 0.2480960190296173, 0.2566480338573456, 0.26520004868507385, 0.2737520635128021]}, "parameters/attention_2.att_l": {"_type": "histogram", "values": [2.0, 0.0, 1.0, 1.0, 1.0, 1.0, 0.0, 0.0, 2.0, 0.0, 1.0, 1.0, 0.0, 3.0, 1.0, 0.0, 1.0, 0.0, 1.0, 1.0, 1.0, 3.0, 0.0, 0.0, 0.0, 0.0, 1.0, 1.0, 0.0, 1.0, 1.0, 0.0, 0.0, 0.0, 0.0, 1.0, 1.0, 1.0, 0.0, 0.0, 0.0, 1.0, 1.0, 1.0, 1.0, 0.0, 1.0, 0.0, 0.0, 1.0, 0.0, 0.0, 0.0, 0.0, 0.0, 0.0, 0.0, 1.0, 0.0, 0.0, 1.0, 2.0, 1.0, 1.0], "bins": [-0.6186789870262146, -0.5988978743553162, -0.5791167616844177, -0.5593355894088745, -0.5395544767379761, -0.5197733640670776, -0.4999922513961792, -0.4802111089229584, -0.46042996644973755, -0.4406488537788391, -0.4208677113056183, -0.40108659863471985, -0.381305456161499, -0.3615243434906006, -0.34174323081970215, -0.3219620883464813, -0.3021809756755829, -0.28239986300468445, -0.2626187205314636, -0.24283760786056519, -0.22305646538734436, -0.20327535271644592, -0.1834942251443863, -0.16371309757232666, -0.14393197000026703, -0.1241508424282074, -0.10436971485614777, -0.08458859473466873, -0.0648074671626091, -0.04502633959054947, -0.025245219469070435, -0.005464091897010803, 0.014317035675048828, 0.03409816324710846, 0.05387928709387779, 0.07366041094064713, 0.09344153851270676, 0.11322266608476639, 0.13300378620624542, 0.15278491377830505, 0.17256604135036469, 0.19234716892242432, 0.21212829649448395, 0.23190942406654358, 0.251690536737442, 0.27147167921066284, 0.2912527918815613, 0.3110339045524597, 0.33081504702568054, 0.350596159696579, 0.3703773021697998, 0.39015841484069824, 0.40993955731391907, 0.4297206699848175, 0.44950181245803833, 0.46928292512893677, 0.4890640377998352, 0.5088451504707336, 0.5286262631416321, 0.5484074354171753, 0.5681885480880737, 0.5879696607589722, 0.6077507734298706, 0.627531886100769, 0.6473130583763123]}, "parameters/attention_2.att_r": {"_type": "histogram", "values": [1.0, 2.0, 1.0, 0.0, 0.0, 0.0, 0.0, 0.0, 2.0, 0.0, 0.0, 0.0, 1.0, 0.0, 0.0, 1.0, 1.0, 2.0, 1.0, 0.0, 1.0, 3.0, 0.0, 2.0, 0.0, 1.0, 1.0, 0.0, 0.0, 2.0, 0.0, 1.0, 0.0, 0.0, 1.0, 0.0, 0.0, 0.0, 1.0, 1.0, 0.0, 1.0, 0.0, 2.0, 1.0, 0.0, 1.0, 2.0, 0.0, 0.0, 0.0, 1.0, 1.0, 0.0, 0.0, 1.0, 1.0, 0.0, 1.0, 1.0, 0.0, 0.0, 0.0, 1.0], "bins": [-0.6322792172431946, -0.6124457120895386, -0.5926121473312378, -0.5727786421775818, -0.552945077419281, -0.533111572265625, -0.5132780075073242, -0.4934445023536682, -0.4736109673976898, -0.4537774324417114, -0.43394389748573303, -0.41411036252975464, -0.39427685737609863, -0.37444329261779785, -0.35460978746414185, -0.33477625250816345, -0.31494271755218506, -0.29510918259620667, -0.27527564764022827, -0.2554421126842499, -0.23560859262943268, -0.21577505767345428, -0.19594153761863708, -0.1761080026626587, -0.1562744677066803, -0.1364409327507019, -0.11660740524530411, -0.09677387773990631, -0.07694034278392792, -0.057106807827949524, -0.03727328032255173, -0.01743975281715393, 0.002393782138824463, 0.022227313369512558, 0.04206084460020065, 0.06189437583088875, 0.08172790706157684, 0.10156144201755524, 0.12139496952295303, 0.14122849702835083, 0.16106203198432922, 0.18089556694030762, 0.200729101896286, 0.2205626219511032, 0.2403961569070816, 0.2602297067642212, 0.2800632119178772, 0.2998967468738556, 0.319730281829834, 0.3395638167858124, 0.35939735174179077, 0.37923088669776917, 0.39906442165374756, 0.41889792680740356, 0.43873146176338196, 0.45856499671936035, 0.47839853167533875, 0.49823206663131714, 0.5180655717849731, 0.5378991365432739, 0.5577326416969299, 0.5775662064552307, 0.5973997116088867, 0.6172332763671875, 0.6370667815208435]}, "parameters/attention_2.bias": {"_type": "histogram", "values": [0.0, 0.0, 0.0, 0.0, 0.0, 0.0, 0.0, 0.0, 0.0, 0.0, 0.0, 0.0, 0.0, 0.0, 0.0, 0.0, 0.0, 0.0, 0.0, 0.0, 0.0, 0.0, 0.0, 0.0, 0.0, 0.0, 0.0, 0.0, 0.0, 0.0, 0.0, 0.0, 40.0, 0.0, 0.0, 0.0, 0.0, 0.0, 0.0, 0.0, 0.0, 0.0, 0.0, 0.0, 0.0, 0.0, 0.0, 0.0, 0.0, 0.0, 0.0, 0.0, 0.0, 0.0, 0.0, 0.0, 0.0, 0.0, 0.0, 0.0, 0.0, 0.0, 0.0, 0.0], "bins": [0.0, 0.0, 0.0, 0.0, 0.0, 0.0, 0.0, 0.0, 0.0, 0.0, 0.0, 0.0, 0.0, 0.0, 0.0, 0.0, 0.0, 0.0, 0.0, 0.0, 0.0, 0.0, 0.0, 0.0, 0.0, 0.0, 0.0, 0.0, 0.0, 0.0, 0.0, 0.0, 0.0, 0.0, 0.0, 0.0, 0.0, 0.0, 0.0, 0.0, 0.0, 0.0, 0.0, 0.0, 0.0, 0.0, 0.0, 0.0, 0.0, 0.0, 0.0, 0.0, 0.0, 0.0, 0.0, 0.0, 0.0, 0.0, 0.0, 0.0, 0.0, 0.0, 0.0, 0.0, 0.0]}, "parameters/attention_2.lin_l.weight": {"_type": "histogram", "values": [30.0, 17.0, 25.0, 20.0, 21.0, 25.0, 23.0, 36.0, 15.0, 19.0, 24.0, 24.0, 19.0, 29.0, 31.0, 27.0, 25.0, 14.0, 33.0, 31.0, 30.0, 27.0, 30.0, 24.0, 24.0, 23.0, 36.0, 21.0, 35.0, 23.0, 23.0, 22.0, 23.0, 26.0, 25.0, 28.0, 29.0, 32.0, 28.0, 18.0, 22.0, 15.0, 21.0, 30.0, 29.0, 27.0, 24.0, 37.0, 20.0, 19.0, 16.0, 24.0, 30.0, 27.0, 30.0, 25.0, 19.0, 18.0, 32.0, 14.0, 18.0, 25.0, 36.0, 27.0], "bins": [-0.27378568053245544, -0.26523399353027344, -0.25668230652809143, -0.24813061952590942, -0.23957893252372742, -0.2310272455215454, -0.2224755585193634, -0.2139238715171814, -0.2053721845149994, -0.19682049751281738, -0.18826881051063538, -0.17971712350845337, -0.17116543650627136, -0.16261374950408936, -0.15406206250190735, -0.14551037549972534, -0.13695868849754333, -0.12840700149536133, -0.11985531449317932, -0.11130362749099731, -0.10275194048881531, -0.0942002534866333, -0.0856485664844513, -0.07709687948226929, -0.06854519248008728, -0.05999350547790527, -0.05144181847572327, -0.04289013147354126, -0.03433844447135925, -0.025786757469177246, -0.01723507046699524, -0.008683383464813232, -0.0001316666603088379, 0.008420020341873169, 0.016971707344055176, 0.025523394346237183, 0.03407508134841919, 0.042626768350601196, 0.0511784553527832, 0.05973014235496521, 0.06828182935714722, 0.07683351635932922, 0.08538520336151123, 0.09393689036369324, 0.10248857736587524, 0.11104026436805725, 0.11959195137023926, 0.12814363837242126, 0.13669532537460327, 0.14524701237678528, 0.15379869937896729, 0.1623503863811493, 0.1709020733833313, 0.1794537603855133, 0.1880054473876953, 0.19655713438987732, 0.20510882139205933, 0.21366050839424133, 0.22221219539642334, 0.23076388239860535, 0.23931556940078735, 0.24786725640296936, 0.25641894340515137, 0.2649706304073334, 0.2735223174095154]}, "parameters/out_att.att_l": {"_type": "histogram", "values": [0.0, 0.0, 0.0, 0.0, 0.0, 0.0, 0.0, 0.0, 0.0, 0.0, 0.0, 0.0, 0.0, 0.0, 0.0, 0.0, 0.0, 0.0, 0.0, 0.0, 0.0, 0.0, 0.0, 0.0, 0.0, 0.0, 0.0, 0.0, 0.0, 0.0, 0.0, 0.0, 1.0, 0.0, 0.0, 0.0, 0.0, 0.0, 0.0, 0.0, 0.0, 0.0, 0.0, 0.0, 0.0, 0.0, 0.0, 0.0, 0.0, 0.0, 0.0, 0.0, 0.0, 0.0, 0.0, 0.0, 0.0, 0.0, 0.0, 0.0, 0.0, 0.0, 0.0, 0.0], "bins": [-1.0199363231658936, -1.0199363231658936, -1.0199363231658936, -1.0199363231658936, -1.0199363231658936, -1.0199363231658936, -1.0199363231658936, -1.0199363231658936, -1.0199363231658936, -1.0199363231658936, -1.0199363231658936, -1.0199363231658936, -1.0199363231658936, -1.0199363231658936, -1.0199363231658936, -1.0199363231658936, -1.0199363231658936, -1.0199363231658936, -1.0199363231658936, -1.0199363231658936, -1.0199363231658936, -1.0199363231658936, -1.0199363231658936, -1.0199363231658936, -1.0199363231658936, -1.0199363231658936, -1.0199363231658936, -1.0199363231658936, -1.0199363231658936, -1.0199363231658936, -1.0199363231658936, -1.0199363231658936, -1.0199363231658936, -1.0199363231658936, -1.0199363231658936, -1.0199363231658936, -1.0199363231658936, -1.0199363231658936, -1.0199363231658936, -1.0199363231658936, -1.0199363231658936, -1.0199363231658936, -1.0199363231658936, -1.0199363231658936, -1.0199363231658936, -1.0199363231658936, -1.0199363231658936, -1.0199363231658936, -1.0199363231658936, -1.0199363231658936, -1.0199363231658936, -1.0199363231658936, -1.0199363231658936, -1.0199363231658936, -1.0199363231658936, -1.0199363231658936, -1.0199363231658936, -1.0199363231658936, -1.0199363231658936, -1.0199363231658936, -1.0199363231658936, -1.0199363231658936, -1.0199363231658936, -1.0199363231658936, -1.0199363231658936]}, "parameters/out_att.att_r": {"_type": "histogram", "values": [0.0, 0.0, 0.0, 0.0, 0.0, 0.0, 0.0, 0.0, 0.0, 0.0, 0.0, 0.0, 0.0, 0.0, 0.0, 0.0, 0.0, 0.0, 0.0, 0.0, 0.0, 0.0, 0.0, 0.0, 0.0, 0.0, 0.0, 0.0, 0.0, 0.0, 0.0, 0.0, 1.0, 0.0, 0.0, 0.0, 0.0, 0.0, 0.0, 0.0, 0.0, 0.0, 0.0, 0.0, 0.0, 0.0, 0.0, 0.0, 0.0, 0.0, 0.0, 0.0, 0.0, 0.0, 0.0, 0.0, 0.0, 0.0, 0.0, 0.0, 0.0, 0.0, 0.0, 0.0], "bins": [-1.1589138507843018, -1.1589138507843018, -1.1589138507843018, -1.1589138507843018, -1.1589138507843018, -1.1589138507843018, -1.1589138507843018, -1.1589138507843018, -1.1589138507843018, -1.1589138507843018, -1.1589138507843018, -1.1589138507843018, -1.1589138507843018, -1.1589138507843018, -1.1589138507843018, -1.1589138507843018, -1.1589138507843018, -1.1589138507843018, -1.1589138507843018, -1.1589138507843018, -1.1589138507843018, -1.1589138507843018, -1.1589138507843018, -1.1589138507843018, -1.1589138507843018, -1.1589138507843018, -1.1589138507843018, -1.1589138507843018, -1.1589138507843018, -1.1589138507843018, -1.1589138507843018, -1.1589138507843018, -1.1589138507843018, -1.1589138507843018, -1.1589138507843018, -1.1589138507843018, -1.1589138507843018, -1.1589138507843018, -1.1589138507843018, -1.1589138507843018, -1.1589138507843018, -1.1589138507843018, -1.1589138507843018, -1.1589138507843018, -1.1589138507843018, -1.1589138507843018, -1.1589138507843018, -1.1589138507843018, -1.1589138507843018, -1.1589138507843018, -1.1589138507843018, -1.1589138507843018, -1.1589138507843018, -1.1589138507843018, -1.1589138507843018, -1.1589138507843018, -1.1589138507843018, -1.1589138507843018, -1.1589138507843018, -1.1589138507843018, -1.1589138507843018, -1.1589138507843018, -1.1589138507843018, -1.1589138507843018, -1.1589138507843018]}, "parameters/out_att.bias": {"_type": "histogram", "values": [0.0, 0.0, 0.0, 0.0, 0.0, 0.0, 0.0, 0.0, 0.0, 0.0, 0.0, 0.0, 0.0, 0.0, 0.0, 0.0, 0.0, 0.0, 0.0, 0.0, 0.0, 0.0, 0.0, 0.0, 0.0, 0.0, 0.0, 0.0, 0.0, 0.0, 0.0, 0.0, 1.0, 0.0, 0.0, 0.0, 0.0, 0.0, 0.0, 0.0, 0.0, 0.0, 0.0, 0.0, 0.0, 0.0, 0.0, 0.0, 0.0, 0.0, 0.0, 0.0, 0.0, 0.0, 0.0, 0.0, 0.0, 0.0, 0.0, 0.0, 0.0, 0.0, 0.0, 0.0], "bins": [0.0, 0.0, 0.0, 0.0, 0.0, 0.0, 0.0, 0.0, 0.0, 0.0, 0.0, 0.0, 0.0, 0.0, 0.0, 0.0, 0.0, 0.0, 0.0, 0.0, 0.0, 0.0, 0.0, 0.0, 0.0, 0.0, 0.0, 0.0, 0.0, 0.0, 0.0, 0.0, 0.0, 0.0, 0.0, 0.0, 0.0, 0.0, 0.0, 0.0, 0.0, 0.0, 0.0, 0.0, 0.0, 0.0, 0.0, 0.0, 0.0, 0.0, 0.0, 0.0, 0.0, 0.0, 0.0, 0.0, 0.0, 0.0, 0.0, 0.0, 0.0, 0.0, 0.0, 0.0, 0.0]}, "parameters/out_att.lin_l.weight": {"_type": "histogram", "values": [1.0, 1.0, 2.0, 1.0, 0.0, 0.0, 0.0, 1.0, 1.0, 1.0, 1.0, 1.0, 0.0, 0.0, 0.0, 0.0, 0.0, 0.0, 0.0, 0.0, 0.0, 1.0, 1.0, 0.0, 3.0, 0.0, 1.0, 1.0, 0.0, 2.0, 0.0, 0.0, 1.0, 0.0, 0.0, 0.0, 0.0, 0.0, 1.0, 0.0, 0.0, 0.0, 1.0, 1.0, 0.0, 1.0, 0.0, 1.0, 0.0, 0.0, 0.0, 1.0, 1.0, 0.0, 0.0, 2.0, 2.0, 2.0, 1.0, 0.0, 1.0, 2.0, 1.0, 2.0], "bins": [-0.36916759610176086, -0.3582726716995239, -0.3473777770996094, -0.33648285269737244, -0.3255879282951355, -0.31469300389289856, -0.3037980794906616, -0.29290318489074707, -0.28200826048851013, -0.2711133360862732, -0.26021844148635864, -0.2493235170841217, -0.23842859268188477, -0.22753366827964783, -0.21663875877857208, -0.20574384927749634, -0.1948489248752594, -0.18395400047302246, -0.17305909097194672, -0.16216418147087097, -0.15126925706863403, -0.1403743326663971, -0.12947942316532135, -0.11858450621366501, -0.10768958926200867, -0.09679467231035233, -0.08589975535869598, -0.07500483840703964, -0.0641099214553833, -0.05321500450372696, -0.04232008755207062, -0.031425170600414276, -0.020530223846435547, -0.009635306894779205, 0.0012596100568771362, 0.012154527008533478, 0.02304944396018982, 0.03394436091184616, 0.0448392778635025, 0.055734194815158844, 0.06662911176681519, 0.07752402871847153, 0.08841894567012787, 0.09931386262178421, 0.11020877957344055, 0.1211036965250969, 0.13199861347675323, 0.14289352297782898, 0.15378844738006592, 0.16468337178230286, 0.1755782812833786, 0.18647319078445435, 0.19736811518669128, 0.20826303958892822, 0.21915794909000397, 0.2300528585910797, 0.24094778299331665, 0.2518427073955536, 0.2627376317977905, 0.2736325263977051, 0.284527450799942, 0.29542237520217896, 0.3063172698020935, 0.31721219420433044, 0.3281071186065674]}, "_runtime": 155, "_timestamp": 1641439199, "_step": 3, "Learning rate value": 0.0016000000000000014, "Learning rate action": 0.0016000000000000014, "epsilon": 0.9702989999999999, "action_probs": {"_type": "histogram", "values": [4, 0, 4, 0, 0, 0, 0, 4, 0, 0, 4, 0, 0, 0, 4, 0, 0, 0, 4, 0, 0, 0, 4, 0, 4, 0, 0, 0, 0, 0, 0, 0, 0, 0, 4, 4, 4, 0, 4, 0, 4, 0, 4, 0, 0, 0, 0, 0, 4, 0, 0, 0, 4, 0, 0, 0, 0, 0, 0, 0, 0, 0, 0, 4], "bins": [0.4800897538661957, 0.4809415936470032, 0.4817934036254883, 0.4826452434062958, 0.48349708318710327, 0.4843488931655884, 0.4852007329463959, 0.48605257272720337, 0.4869043827056885, 0.48775622248649597, 0.48860806226730347, 0.4894598722457886, 0.49031171202659607, 0.49116355180740356, 0.49201536178588867, 0.49286720156669617, 0.49371904134750366, 0.49457085132598877, 0.49542269110679626, 0.49627453088760376, 0.49712634086608887, 0.49797818064689636, 0.49883002042770386, 0.49968183040618896, 0.5005336999893188, 0.501385509967804, 0.5022373199462891, 0.503089189529419, 0.503940999507904, 0.5047928094863892, 0.505644679069519, 0.5064964890480042, 0.5073482990264893, 0.5082001686096191, 0.5090519785881042, 0.5099037885665894, 0.5107556581497192, 0.5116074681282043, 0.5124592781066895, 0.5133111476898193, 0.5141629576683044, 0.5150147676467896, 0.5158666372299194, 0.5167184472084045, 0.5175702571868896, 0.5184221267700195, 0.5192739367485046, 0.5201257467269897, 0.5209776163101196, 0.5218294262886047, 0.5226812362670898, 0.5235331058502197, 0.5243849158287048, 0.5252367258071899, 0.5260885953903198, 0.5269404053688049, 0.52779221534729, 0.5286440849304199, 0.529495894908905, 0.5303477048873901, 0.53119957447052, 0.5320513844490051, 0.5329031944274902, 0.5337550640106201, 0.5346068739891052]}, "stop_go_action": {"_type": "histogram", "values": [28, 0, 0, 0, 0, 0, 0, 0, 0, 0, 0, 0, 0, 0, 0, 0, 0, 0, 0, 0, 0, 0, 0, 0, 0, 0, 0, 0, 0, 0, 0, 0, 0, 0, 0, 0, 0, 0, 0, 0, 0, 0, 0, 0, 0, 0, 0, 0, 0, 0, 0, 0, 0, 0, 0, 0, 0, 0, 0, 0, 0, 0, 0, 40], "bins": [0.0, 0.015625, 0.03125, 0.046875, 0.0625, 0.078125, 0.09375, 0.109375, 0.125, 0.140625, 0.15625, 0.171875, 0.1875, 0.203125, 0.21875, 0.234375, 0.25, 0.265625, 0.28125, 0.296875, 0.3125, 0.328125, 0.34375, 0.359375, 0.375, 0.390625, 0.40625, 0.421875, 0.4375, 0.453125, 0.46875, 0.484375, 0.5, 0.515625, 0.53125, 0.546875, 0.5625, 0.578125, 0.59375, 0.609375, 0.625, 0.640625, 0.65625, 0.671875, 0.6875, 0.703125, 0.71875, 0.734375, 0.75, 0.765625, 0.78125, 0.796875, 0.8125, 0.828125, 0.84375, 0.859375, 0.875, 0.890625, 0.90625, 0.921875, 0.9375, 0.953125, 0.96875, 0.984375, 1.0]}, "node_values": {"_type": "histogram", "values": [3, 0, 0, 0, 0, 0, 0, 1, 0, 0, 0, 0, 0, 0, 0, 0, 0, 1, 0, 0, 0, 0, 2, 0, 0, 0, 0, 0, 2, 1, 0, 0, 1, 1, 1, 0, 0, 0, 0, 0, 0, 0, 0, 0, 0, 0, 1, 0, 0, 0, 0, 0, 0, 0, 0, 0, 0, 0, 0, 0, 1, 1, 0, 1], "bins": [2.165802478790283, 2.180032145231962, 2.194261811673641, 2.20849147811532, 2.222721144556999, 2.236950810998678, 2.251180477440357, 2.265410143882036, 2.279639810323715, 2.293869476765394, 2.308099143207073, 2.322328809648752, 2.336558476090431, 2.35078814253211, 2.365017808973789, 2.379247475415468, 2.393477141857147, 2.407706808298826, 2.421936474740505, 2.436166141182184, 2.450395807623863, 2.464625474065542, 2.478855140507221, 2.4930848069489002, 2.5073144733905792, 2.5215441398322582, 2.5357738062739372, 2.5500034727156162, 2.5642331391572952, 2.5784628055989742, 2.5926924720406532, 2.6069221384823322, 2.6211518049240112, 2.6353814713656902, 2.6496111378073692, 2.6638408042490482, 2.6780704706907272, 2.6923001371324062, 2.7065298035740852, 2.7207594700157642, 2.7349891364574432, 2.7492188028991222, 2.7634484693408012, 2.7776781357824802, 2.7919078022241592, 2.8061374686658382, 2.8203671351075172, 2.8345968015491962, 2.8488264679908752, 2.8630561344325542, 2.8772858008742332, 2.8915154673159122, 2.9057451337575912, 2.9199748001992702, 2.9342044666409492, 2.9484341330826283, 2.9626637995243073, 2.9768934659659863, 2.9911231324076653, 3.0053527988493443, 3.0195824652910233, 3.0338121317327023, 3.0480417981743813, 3.0622714646160603, 3.0765011310577393]}, "episode_rewards": {"_type": "histogram", "values": [4, 0, 0, 0, 0, 0, 0, 0, 0, 0, 0, 0, 0, 0, 0, 0, 0, 0, 0, 0, 0, 0, 0, 0, 0, 0, 0, 0, 0, 0, 0, 0, 0, 0, 0, 0, 0, 0, 0, 0, 0, 0, 0, 0, 0, 0, 0, 0, 12, 0, 0, 0, 4, 0, 0, 0, 0, 0, 0, 0, 4, 0, 0, 4], "bins": [-16.0, -15.75, -15.5, -15.25, -15.0, -14.75, -14.5, -14.25, -14.0, -13.75, -13.5, -13.25, -13.0, -12.75, -12.5, -12.25, -12.0, -11.75, -11.5, -11.25, -11.0, -10.75, -10.5, -10.25, -10.0, -9.75, -9.5, -9.25, -9.0, -8.75, -8.5, -8.25, -8.0, -7.75, -7.5, -7.25, -7.0, -6.75, -6.5, -6.25, -6.0, -5.75, -5.5, -5.25, -5.0, -4.75, -4.5, -4.25, -4.0, -3.75, -3.5, -3.25, -3.0, -2.75, -2.5, -2.25, -2.0, -1.75, -1.5, -1.25, -1.0, -0.75, -0.5, -0.25, 0.0]}, "_wandb": {"runtime": 156}}